{"learner":{"attributes":{"best_iteration":"99","best_ntree_limit":"100","scikit_learn":"{\"n_estimators\": 100, \"objective\": \"reg:squarederror\", \"max_depth\": null, \"max_leaves\": null, \"max_bin\": null, \"grow_policy\": null, \"learning_rate\": null, \"verbosity\": null, \"booster\": null, \"tree_method\": null, \"gamma\": null, \"min_child_weight\": null, \"max_delta_step\": null, \"subsample\": null, \"sampling_method\": null, \"colsample_bytree\": null, \"colsample_bylevel\": null, \"colsample_bynode\": null, \"reg_alpha\": null, \"reg_lambda\": null, \"scale_pos_weight\": null, \"base_score\": null, \"missing\": NaN, \"num_parallel_tree\": null, \"random_state\": null, \"n_jobs\": null, \"monotone_constraints\": null, \"interaction_constraints\": null, \"importance_type\": null, \"gpu_id\": null, \"validate_parameters\": null, \"predictor\": null, \"enable_categorical\": false, \"feature_types\": null, \"max_cat_to_onehot\": null, \"max_cat_threshold\": null, \"eval_metric\": null, \"early_stopping_rounds\": null, \"callbacks\": null, \"_estimator_type\": \"regressor\"}"},"feature_names":["GHI","SZA_30min_before"],"feature_types":["float","float"],"gradient_booster":{"model":{"gbtree_model_param":{"num_parallel_tree":"1","num_trees":"100","size_leaf_vector":"0"},"tree_info":[0,0,0,0,0,0,0,0,0,0,0,0,0,0,0,0,0,0,0,0,0,0,0,0,0,0,0,0,0,0,0,0,0,0,0,0,0,0,0,0,0,0,0,0,0,0,0,0,0,0,0,0,0,0,0,0,0,0,0,0,0,0,0,0,0,0,0,0,0,0,0,0,0,0,0,0,0,0,0,0,0,0,0,0,0,0,0,0,0,0,0,0,0,0,0,0,0,0,0,0],"trees":[{"base_weights":[-3.021596E-1,-4.5101982E-1,1.0581225E-1,-4.8966265E-1,-2.7098447E-1,-2.8198468E-2,2.0895876E-1,-4.988074E-1,-4.2176813E-1,-3.4617263E-1,-2.2434601E-1,-1.3318092E-1,-4.1052047E-4,1.3828443E-1,2.6697034E-1,-4.9987006E-1,-4.8149514E-1,-4.399223E-1,-3.984002E-1,-3.1753862E-1,-3.8271102E-1,-2.6415667E-1,-2.0253691E-1,-9.9633016E-2,-1.8621542E-1,-4.148653E-2,2.9861959E-2,1.21431336E-1,1.6322617E-1,2.3921728E-1,3.0547956E-1,-4.5037475E-1,-4.2859104E-1,1.3974577E-2,-3.9861465E-1,-3.3868992E-1,-2.984931E-1,-3.8743296E-1,-2.948412E-1,-1.9242947E-1,-2.66672E-1,-2.100889E-1,-1.3237858E-1,-1.2671922E-1,-7.7544875E-2,-2.6044714E-1,-9.180039E-2,-5.5219915E-2,4.5615025E-2,-4.862251E-3,1.0431289E-1,7.6468244E-2,1.4649776E-1,1.3722122E-1,2.469458E-1,2.308928E-1,2.8136218E-1,2.9520863E-1,3.3009517E-1,-3.7619808E-1,-4.0320784E-1,-1.5282673E-1,-3.41011E-1,-1.669302E-1,-3.0002433E-1,-4.442682E-1,-3.7810504E-1,-3.4055036E-1,-2.5396833E-1,-1.9953792E-1,-6.86422E-2,-2.7651697E-1,-2.557321E-1,-1.7643926E-1,-2.3301753E-1,-1.6143234E-1,-1.0707236E-1,-1.0591975E-2,-1.3067801E-1,-8.02111E-2,6.3758614E-3,-3.0805942E-1,-1.9768043E-1,-1.4565475E-1,-1.115832E-3,-7.090887E-2,-3.271594E-2,2.819086E-2,9.838759E-2,4.434454E-2,-4.3066543E-2,6.4663954E-2,1.759924E-1,1.093094E-1,5.6642402E-2,1.8280317E-1,1.2369842E-1,8.64146E-2,1.6158901E-1,2.2335431E-1,3.258061E-1,1.9938044E-1,2.5149822E-1,2.5483373E-1,3.256334E-1,2.865442E-1,3.382226E-1,3.2268938E-1,3.5807154E-1],"categories":[],"categories_nodes":[],"categories_segments":[],"categories_sizes":[],"default_left":[1,1,1,1,1,1,1,1,1,1,1,1,1,1,1,0,0,1,1,1,1,1,1,1,1,1,1,1,1,1,1,0,0,0,1,1,1,1,1,1,1,1,1,1,1,1,1,1,1,1,1,1,1,1,1,1,1,1,1,0,0,0,0,0,0,0,0,0,0,0,0,0,0,0,0,0,0,0,0,0,0,0,0,0,0,0,0,0,0,0,0,0,0,0,0,0,0,0,0,0,0,0,0,0,0,0,0,0,0],"id":0,"left_children":[1,3,5,7,9,11,13,15,17,19,21,23,25,27,29,-1,-1,31,33,35,37,39,41,43,45,47,49,51,53,55,57,-1,-1,-1,59,61,63,65,67,69,71,73,75,77,79,81,83,85,87,89,91,93,95,97,99,101,103,105,107,-1,-1,-1,-1,-1,-1,-1,-1,-1,-1,-1,-1,-1,-1,-1,-1,-1,-1,-1,-1,-1,-1,-1,-1,-1,-1,-1,-1,-1,-1,-1,-1,-1,-1,-1,-1,-1,-1,-1,-1,-1,-1,-1,-1,-1,-1,-1,-1,-1,-1],"loss_changes":[3.8327075E3,3.2154785E2,2.3322314E2,2.3423828E1,2.8582275E1,2.1409618E1,3.905182E1,3.7695312E-1,1.7443237E0,3.1500854E0,4.328476E0,2.7142944E0,7.218354E0,1.7876663E0,5.5217896E0,0E0,0E0,1.0745239E-1,1.8148804E-1,6.0749817E-1,4.537964E-1,2.7036285E-1,1.7021179E0,5.543556E-1,4.1391945E0,2.9487567E0,8.640412E0,2.885353E0,3.7347183E0,1.0040283E0,4.5599365E-1,0E0,0E0,0E0,5.3009033E-2,3.0421448E-1,1.3807678E-1,5.19104E-1,5.176258E-2,4.261923E-2,1.1454773E-1,2.231842E0,2.1799183E-1,1.9261885E-1,1.1730957E-1,9.312725E-1,1.2842665E0,7.4900055E-1,3.0618435E-1,4.288106E0,3.0096817E0,5.9412575E-1,1.3423309E0,1.6239719E0,6.881447E-1,1.6056213E0,5.018921E-1,4.8225403E-1,1.6220093E-2,0E0,0E0,0E0,0E0,0E0,0E0,0E0,0E0,0E0,0E0,0E0,0E0,0E0,0E0,0E0,0E0,0E0,0E0,0E0,0E0,0E0,0E0,0E0,0E0,0E0,0E0,0E0,0E0,0E0,0E0,0E0,0E0,0E0,0E0,0E0,0E0,0E0,0E0,0E0,0E0,0E0,0E0,0E0,0E0,0E0,0E0,0E0,0E0,0E0,0E0],"parents":[2147483647,0,0,1,1,2,2,3,3,4,4,5,5,6,6,7,7,8,8,9,9,10,10,11,11,12,12,13,13,14,14,17,17,18,18,19,19,20,20,21,21,22,22,23,23,24,24,25,25,26,26,27,27,28,28,29,29,30,30,34,34,35,35,36,36,37,37,38,38,39,39,40,40,41,41,42,42,43,43,44,44,45,45,46,46,47,47,48,48,49,49,50,50,51,51,52,52,53,53,54,54,55,55,56,56,57,57,58,58],"right_children":[2,4,6,8,10,12,14,16,18,20,22,24,26,28,30,-1,-1,32,34,36,38,40,42,44,46,48,50,52,54,56,58,-1,-1,-1,60,62,64,66,68,70,72,74,76,78,80,82,84,86,88,90,92,94,96,98,100,102,104,106,108,-1,-1,-1,-1,-1,-1,-1,-1,-1,-1,-1,-1,-1,-1,-1,-1,-1,-1,-1,-1,-1,-1,-1,-1,-1,-1,-1,-1,-1,-1,-1,-1,-1,-1,-1,-1,-1,-1,-1,-1,-1,-1,-1,-1,-1,-1,-1,-1,-1,-1],"split_conditions":[3.3572277E-1,1.1032763E-1,5.659931E-1,2.5434747E-2,1.8535796E-1,3.7835532E-1,7.395983E-1,7.6545514E-3,6.990926E-2,4.1416737E-1,2.4105686E-1,3.38439E-1,4.6393037E-1,2.1617478E-1,8.699052E-1,-1.4996102E-1,-1.4444855E-1,4.3678477E-2,3.296105E-2,1.5466721E-1,1.7323391E-1,1.643418E-1,3.8492846E-1,3.0303025E-1,3.455528E-1,3.3467984E-1,2.8618616E-1,6.718099E-1,6.496371E-1,1.6347337E-1,9.381306E-1,-1.3511243E-1,-1.2857732E-1,4.1923732E-3,3.418594E-1,1.1119731E-1,1.0827963E-1,4.1599813E-1,4.1567808E-1,1.5570563E-1,2.123141E-1,3.3853418E-1,2.5451696E-1,3.365034E-1,3.3784294E-1,3.414784E-1,3.573808E-1,4.3194664E-1,4.041875E-1,2.608434E-1,5.0420547E-1,1.8250999E-1,1.8256581E-1,2.3840228E-1,6.895292E-1,8.131554E-1,7.705903E-1,9.168541E-2,9.665921E-1,-1.1285943E-1,-1.2096236E-1,-4.584802E-2,-1.02303304E-1,-5.0079063E-2,-9.0007305E-2,-1.3328047E-1,-1.1343152E-1,-1.0216511E-1,-7.61905E-2,-5.9861377E-2,-2.059266E-2,-8.295509E-2,-7.671963E-2,-5.2931778E-2,-6.9905266E-2,-4.8429705E-2,-3.212171E-2,-3.1775928E-3,-3.9203405E-2,-2.4063332E-2,1.9127585E-3,-9.241783E-2,-5.930413E-2,-4.3696426E-2,-3.347496E-4,-2.1272661E-2,-9.814782E-3,8.457258E-3,2.9516278E-2,1.3303363E-2,-1.2919963E-2,1.9399187E-2,5.2797724E-2,3.279282E-2,1.6992722E-2,5.4840952E-2,3.7109528E-2,2.592438E-2,4.8476707E-2,6.70063E-2,9.7741835E-2,5.9814136E-2,7.544947E-2,7.6450124E-2,9.769002E-2,8.5963264E-2,1.0146678E-1,9.680682E-2,1.07421465E-1],"split_indices":[0,0,0,0,0,0,0,0,0,1,0,1,0,1,0,0,0,0,1,0,0,1,1,1,1,1,1,0,0,1,0,0,0,0,1,1,1,1,1,1,0,1,0,0,1,1,0,0,0,1,0,1,1,1,0,0,0,1,0,0,0,0,0,0,0,0,0,0,0,0,0,0,0,0,0,0,0,0,0,0,0,0,0,0,0,0,0,0,0,0,0,0,0,0,0,0,0,0,0,0,0,0,0,0,0,0,0,0,0],"split_type":[0,0,0,0,0,0,0,0,0,0,0,0,0,0,0,0,0,0,0,0,0,0,0,0,0,0,0,0,0,0,0,0,0,0,0,0,0,0,0,0,0,0,0,0,0,0,0,0,0,0,0,0,0,0,0,0,0,0,0,0,0,0,0,0,0,0,0,0,0,0,0,0,0,0,0,0,0,0,0,0,0,0,0,0,0,0,0,0,0,0,0,0,0,0,0,0,0,0,0,0,0,0,0,0,0,0,0,0,0],"sum_hessian":[6.3108E4,4.6237E4,1.6871E4,3.8065E4,8.172E3,7.338E3,9.533E3,3.3541E4,4.524E3,3.126E3,5.046E3,1.535E3,5.803E3,4.299E3,5.234E3,3.1575E4,1.966E3,2.536E3,1.988E3,1.758E3,1.368E3,1.782E3,3.264E3,9.42E2,5.93E2,2.462E3,3.341E3,2.569E3,1.73E3,3.046E3,2.188E3,1.299E3,1.237E3,1E0,1.987E3,8.25E2,9.33E2,1.295E3,7.3E1,6.3E1,1.719E3,2.945E3,3.19E2,4.21E2,5.21E2,3.31E2,2.62E2,2.127E3,3.35E2,2.279E3,1.062E3,9.21E2,1.648E3,1.322E3,4.08E2,2.549E3,4.97E2,1.553E3,6.35E2,3.52E2,1.635E3,1.1E1,8.14E2,1.2E1,9.21E2,1.76E2,1.119E3,3.1E1,4.2E1,5.9E1,4E0,8.92E2,8.27E2,1.197E3,1.748E3,1.46E2,1.73E2,1.4E1,4.07E2,5.05E2,1.6E1,1.86E2,1.45E2,1.64E2,9.8E1,1.252E3,8.75E2,2.53E2,8.2E1,9.96E2,1.283E3,6.85E2,3.77E2,3.45E2,5.76E2,6.33E2,1.015E3,4.3E2,8.92E2,3.17E2,9.1E1,1.012E3,1.537E3,3.15E2,1.82E2,1.299E3,2.54E2,5.12E2,1.23E2],"tree_param":{"num_deleted":"0","num_feature":"2","num_nodes":"109","size_leaf_vector":"0"}},{"base_weights":[-2.1152826E-1,-3.2045668E-1,6.2448785E-2,-3.441972E-1,-2.0646651E-1,-3.9570343E-2,1.4192896E-1,-3.4934852E-1,-3.0130184E-1,-2.469632E-1,-1.6737828E-1,-1.0985855E-1,-9.278852E-3,8.719906E-2,1.8226653E-1,-3.4996602E-1,-3.3962128E-1,-3.1196052E-1,-2.880847E-1,-2.273197E-1,-2.6844615E-1,-1.8506686E-1,-1.5288366E-1,-7.918963E-2,-1.4135315E-1,-2.9797954E-2,1.3338867E-2,8.1120454E-2,1.8372776E-1,1.5680732E-1,2.0901078E-1,-2.3591034E-1,-3.1240758E-1,1.1878401E-2,-2.8825754E-1,-2.5322625E-1,-2.132385E-1,-2.7027372E-1,-1.7805754E-1,-1.033144E-1,-1.8636109E-1,-1.6532572E-1,-9.4832905E-2,-1.0021913E-1,-5.683848E-2,-1.6690251E-1,-4.351562E-2,-5.1018685E-2,-5.992738E-4,-1.4403504E-2,1.10917225E-1,4.0676173E-2,9.647038E-2,1.5723938E-1,2.1132468E-1,1.5133181E-1,2.3777927E-1,1.9417241E-1,2.2115654E-1,-5.992469E-2,-2.854502E-1,-2.749997E-1,-2.9455483E-1,-1.5807413E-1,-2.5522095E-1,-2.2130412E-1,-1.9548951E-1,-3.0598468E-1,-2.6388925E-1,-9.2176594E-2,-1.87976E-1,-1.1444281E-1,1.097047E-1,-3.5036225E-2,-1.8668734E-1,-1.8245263E-1,-1.3755892E-1,-1.1052092E-1,-5.2600622E-2,-1.06333256E-1,-7.897507E-2,-6.109132E-2,-1.860792E-2,-2.6723975E-1,-1.5331173E-1,-7.852746E-2,-1.5852977E-2,-5.0289776E-2,-2.446663E-1,-2.011188E-2,8.620389E-2,2.5315728E-2,-3.490257E-2,5.1181234E-2,1.2404191E-1,3.5233334E-2,9.721025E-2,7.8349955E-2,1.5219007E-1,1.6212058E-1,-2.4354002E-1,1.1489935E-1,1.5912613E-1,2.1531293E-1,2.6009825E-1,1.9478141E-1,-2.9298162E-1,2.1686237E-1,2.6124024E-1],"categories":[],"categories_nodes":[],"categories_segments":[],"categories_sizes":[],"default_left":[1,1,1,1,1,1,1,1,1,1,1,1,1,1,1,0,0,1,1,1,1,1,1,1,1,1,1,1,1,1,1,1,0,0,1,1,1,1,1,1,1,1,1,1,1,1,1,1,1,1,1,1,1,1,0,1,1,1,1,0,0,0,0,0,0,0,0,0,0,0,0,0,0,0,0,0,0,0,0,0,0,0,0,0,0,0,0,0,0,0,0,0,0,0,0,0,0,0,0,0,0,0,0,0,0,0,0,0,0],"id":1,"left_children":[1,3,5,7,9,11,13,15,17,19,21,23,25,27,29,-1,-1,31,33,35,37,39,41,43,45,47,49,51,53,55,57,59,-1,-1,61,63,65,67,69,71,73,75,77,79,81,83,85,87,89,91,93,95,97,99,-1,101,103,105,107,-1,-1,-1,-1,-1,-1,-1,-1,-1,-1,-1,-1,-1,-1,-1,-1,-1,-1,-1,-1,-1,-1,-1,-1,-1,-1,-1,-1,-1,-1,-1,-1,-1,-1,-1,-1,-1,-1,-1,-1,-1,-1,-1,-1,-1,-1,-1,-1,-1,-1],"loss_changes":[1.883438E3,1.22129395E2,1.455856E2,8.152832E0,1.2283508E1,1.6740368E1,2.2263931E1,8.154297E-2,4.7558594E-1,1.5518494E0,9.882965E-1,2.2760715E0,2.551065E0,2.4987755E0,3.9225006E0,0E0,0E0,1.4343262E-3,9.701538E-2,6.7668915E-1,2.525177E-1,1.6918945E-1,1.5624809E0,5.5928373E-1,2.9098701E0,1.7857068E0,7.080547E0,2.4992085E0,1.5171432E-1,1.2852325E0,4.6707916E-1,1.311056E-1,0E0,0E0,6.9610596E-2,9.251404E-2,1.4342117E-1,3.2554626E-1,1.589346E-2,8.367181E-2,7.995224E-2,8.2995605E-1,2.5125217E-1,7.1873665E-2,9.397781E-2,1.220417E0,2.3410544E-1,2.2327709E-1,2.0579534E0,1.6594236E0,4.4759607E-1,3.3843625E-1,2.9383144E0,2.9966927E-1,0E0,7.751236E-1,3.776455E-2,4.3741226E-1,2.0996857E-1,0E0,0E0,0E0,0E0,0E0,0E0,0E0,0E0,0E0,0E0,0E0,0E0,0E0,0E0,0E0,0E0,0E0,0E0,0E0,0E0,0E0,0E0,0E0,0E0,0E0,0E0,0E0,0E0,0E0,0E0,0E0,0E0,0E0,0E0,0E0,0E0,0E0,0E0,0E0,0E0,0E0,0E0,0E0,0E0,0E0,0E0,0E0,0E0,0E0,0E0],"parents":[2147483647,0,0,1,1,2,2,3,3,4,4,5,5,6,6,7,7,8,8,9,9,10,10,11,11,12,12,13,13,14,14,17,17,18,18,19,19,20,20,21,21,22,22,23,23,24,24,25,25,26,26,27,27,28,28,29,29,30,30,31,31,34,34,35,35,36,36,37,37,38,38,39,39,40,40,41,41,42,42,43,43,44,44,45,45,46,46,47,47,48,48,49,49,50,50,51,51,52,52,53,53,55,55,56,56,57,57,58,58],"right_children":[2,4,6,8,10,12,14,16,18,20,22,24,26,28,30,-1,-1,32,34,36,38,40,42,44,46,48,50,52,54,56,58,60,-1,-1,62,64,66,68,70,72,74,76,78,80,82,84,86,88,90,92,94,96,98,100,-1,102,104,106,108,-1,-1,-1,-1,-1,-1,-1,-1,-1,-1,-1,-1,-1,-1,-1,-1,-1,-1,-1,-1,-1,-1,-1,-1,-1,-1,-1,-1,-1,-1,-1,-1,-1,-1,-1,-1,-1,-1,-1,-1,-1,-1,-1,-1,-1,-1,-1,-1,-1,-1],"split_conditions":[3.038461E-1,9.516627E-2,5.4858845E-1,2.3460887E-2,1.8535796E-1,3.7095368E-1,7.175484E-1,6.0919463E-3,5.8544166E-2,4.1416737E-1,2.4095124E-1,3.385396E-1,4.6878666E-1,2.6952577E-1,8.4661424E-1,-1.0498981E-1,-1.01886384E-1,2.27095E-1,3.296105E-2,1.3761094E-1,1.7769215E-1,1.0900797E-1,3.8265473E-1,3.054328E-1,3.5867473E-1,3.1451434E-1,2.9637006E-1,6.0003823E-1,2.7689004E-1,1.9158836E-1,9.0038913E-1,4.5309585E-2,-9.372228E-2,3.5635205E-3,4.142806E-1,1.4509903E-1,4.0234265E-1,4.1688108E-1,4.1489208E-1,1.08649775E-1,1.8548337E-1,2.8259844E-1,2.6567164E-1,3.573225E-1,3.669527E-1,3.3939874E-1,3.138772E-1,4.686005E-1,4.3262783E-1,2.608434E-1,4.7613364E-1,2.650991E-1,2.2769976E-1,2.7685726E-1,6.339741E-2,7.416543E-1,1.997413E-1,9.003575E-1,7.49776E-2,-1.7977407E-2,-8.563506E-2,-8.2499914E-2,-8.836645E-2,-4.742224E-2,-7.656629E-2,-6.639124E-2,-5.8646854E-2,-9.179541E-2,-7.916678E-2,-2.7652979E-2,-5.6392804E-2,-3.4332845E-2,3.2911412E-2,-1.0510867E-2,-5.6006204E-2,-5.473579E-2,-4.126768E-2,-3.315628E-2,-1.5780188E-2,-3.1899977E-2,-2.369252E-2,-1.8327396E-2,-5.5823764E-3,-8.017193E-2,-4.599352E-2,-2.3558239E-2,-4.7558933E-3,-1.5086933E-2,-7.3399894E-2,-6.033564E-3,2.5861168E-2,7.5947186E-3,-1.0470771E-2,1.5354371E-2,3.7212573E-2,1.0570001E-2,2.9163076E-2,2.3504987E-2,4.5657024E-2,4.8636176E-2,-7.306201E-2,3.4469806E-2,4.773784E-2,6.459388E-2,7.8029476E-2,5.8434423E-2,-8.789449E-2,6.5058716E-2,7.8372076E-2],"split_indices":[0,0,0,0,0,0,0,0,0,1,0,1,0,1,0,0,0,1,1,0,0,1,1,1,1,1,1,0,1,1,0,0,0,0,1,1,1,1,1,1,0,0,0,0,0,1,0,0,0,1,0,1,1,1,0,0,1,0,1,0,0,0,0,0,0,0,0,0,0,0,0,0,0,0,0,0,0,0,0,0,0,0,0,0,0,0,0,0,0,0,0,0,0,0,0,0,0,0,0,0,0,0,0,0,0,0,0,0,0],"split_type":[0,0,0,0,0,0,0,0,0,0,0,0,0,0,0,0,0,0,0,0,0,0,0,0,0,0,0,0,0,0,0,0,0,0,0,0,0,0,0,0,0,0,0,0,0,0,0,0,0,0,0,0,0,0,0,0,0,0,0,0,0,0,0,0,0,0,0,0,0,0,0,0,0,0,0,0,0,0,0,0,0,0,0,0,0,0,0,0,0,0,0,0,0,0,0,0,0,0,0,0,0,0,0,0,0,0,0,0,0],"sum_hessian":[6.3108E4,4.5155E4,1.7953E4,3.737E4,7.785E3,7.862E3,1.0091E4,3.3357E4,4.013E3,3.821E3,3.964E3,2.367E3,5.495E3,4.283E3,5.808E3,3.1333E4,2.024E3,2.209E3,1.804E3,2.002E3,1.819E3,1.78E3,2.184E3,1.201E3,1.166E3,2.881E3,2.614E3,4.031E3,2.52E2,2.979E3,2.829E3,1.6E1,2.193E3,1E0,1.803E3,6.99E2,1.303E3,1.781E3,3.8E1,2.9E1,1.751E3,1.797E3,3.87E2,6.17E2,5.84E2,9.24E2,2.42E2,1.668E3,1.213E3,2.036E3,5.78E2,1.11E3,2.921E3,1.32E2,1.2E2,2.793E3,1.86E2,1.281E3,1.548E3,4E0,1.2E1,5.95E2,1.208E3,1.6E1,6.83E2,8.88E2,4.15E2,2.63E2,1.518E3,5E0,3.3E1,2.8E1,1E0,4E0,1.747E3,1.108E3,6.89E2,2.81E2,1.06E2,4.76E2,1.41E2,5.25E2,5.9E1,1.08E2,8.16E2,1.06E2,1.36E2,1.663E3,5E0,9.91E2,2.22E2,6.93E2,1.343E3,1.05E2,4.73E2,1.014E3,9.6E1,2.206E3,7.15E2,1.31E2,1E0,4.95E2,2.298E3,9.8E1,8.8E1,1.28E3,1E0,1.404E3,1.44E2],"tree_param":{"num_deleted":"0","num_feature":"2","num_nodes":"109","size_leaf_vector":"0"}},{"base_weights":[-1.4808649E-1,-2.1969657E-1,5.6435917E-2,-2.387629E-1,-1.2440032E-1,7.8165496E-5,1.1107783E-1,-2.4404617E-1,-1.9974032E-1,-1.556299E-1,-1.0299589E-1,-2.2447068E-2,3.2830272E-2,8.228247E-2,1.3500611E-1,-2.2703294E-1,-2.448238E-1,-2.082767E-1,-1.8755892E-1,-1.4585404E-1,-1.8303628E-1,-8.2629316E-2,-1.1537404E-1,-5.039592E-2,-1.2294847E-2,1.5813084E-2,1.0297162E-1,7.465064E-2,1.3820788E-1,1.2131369E-1,1.52237E-1,-1.6326584E-1,-2.0929791E-1,-1.3656387E-1,-1.8887316E-1,-1.5193963E-1,-1.304587E-1,-1.8719411E-1,-1.1303028E-1,-1.1073507E-1,-6.749503E-2,-1.7258193E-1,-1.0859496E-1,-6.223705E-2,1.9075617E-2,-3.579766E-2,1.6216014E-2,-2.7989134E-2,3.745779E-2,6.7013666E-2,1.4737044E-1,5.779332E-2,1.0127357E-1,1.2262113E-1,1.9549052E-1,1.131452E-1,1.8337609E-1,1.4902665E-1,1.9299667E-1,-1.7338859E-1,2.4229538E-1,-2.006471E-1,-2.1292207E-1,1.0096639E-2,-1.3963754E-1,-6.9483794E-2,-1.8896353E-1,-7.621273E-2,-1.5389298E-1,-8.2249984E-2,-1.3559036E-1,-2.2775413E-1,-1.7805766E-1,-3.942251E-3,-1.1758844E-1,2.2145974E-2,-1.127551E-1,-7.4836075E-2,-4.0866982E-2,-2.0397487E-1,-1.5748665E-1,-1.1480614E-1,-5.984925E-2,-4.8606336E-2,-1.1144881E-1,-2.7409911E-2,3.683985E-2,-9.976847E-3,-4.9397998E-2,-1.0790492E-2,7.6356344E-2,2.4020664E-2,-7.1837425E-2,2.449973E-2,9.543245E-2,4.294942E-2,1.16431504E-1,1.1746835E-1,1.6330819E-1,4.496968E-2,8.249023E-2,9.0235144E-2,1.649241E-1,9.456716E-2,1.7959923E-1,1.419253E-1,2.0534544E-1,1.3561688E-1,9.995681E-2,1.6688876E-1,2.3257749E-1,1.3784403E-1,1.6427492E-1],"categories":[],"categories_nodes":[],"categories_segments":[],"categories_sizes":[],"default_left":[1,1,1,1,1,1,1,1,1,1,1,1,1,1,1,0,0,1,1,1,1,1,1,1,1,1,1,1,1,1,1,1,1,1,1,1,1,1,1,1,1,1,1,1,1,1,1,1,1,1,1,1,1,1,1,1,1,1,0,0,0,0,0,0,0,0,0,0,0,0,0,0,0,0,0,0,0,0,0,0,0,0,0,0,0,0,0,0,0,0,0,0,0,0,0,0,0,0,0,0,0,0,0,0,0,0,0,0,0,0,0,0,0],"id":2,"left_children":[1,3,5,7,9,11,13,15,17,19,21,23,25,27,29,-1,-1,31,33,35,37,39,41,43,45,47,49,51,53,55,57,59,61,63,65,67,69,71,73,75,77,79,81,83,85,87,89,91,93,95,97,99,101,103,105,107,109,111,-1,-1,-1,-1,-1,-1,-1,-1,-1,-1,-1,-1,-1,-1,-1,-1,-1,-1,-1,-1,-1,-1,-1,-1,-1,-1,-1,-1,-1,-1,-1,-1,-1,-1,-1,-1,-1,-1,-1,-1,-1,-1,-1,-1,-1,-1,-1,-1,-1,-1,-1,-1,-1,-1,-1],"loss_changes":[9.2429834E2,8.48999E1,5.040209E1,7.9814453E0,5.194557E0,5.9455166E0,5.7146835E0,3.9819336E-1,4.44458E-1,8.220749E-1,1.1571884E0,1.3542528E0,3.9181821E0,1.6004753E0,1.0519562E0,0E0,0E0,9.107971E-2,1.0329437E-1,1.9940948E-1,2.2014236E-1,7.38183E-1,1.0966225E0,1.0475619E0,2.34856E0,2.5077882E0,1.013475E0,1.4854794E0,3.7959766E-1,1.2633705E0,2.3360062E-1,3.0886197E-1,4.071045E-2,2.4850845E-2,7.1029663E-3,2.3545074E-1,1.5460014E-1,2.4886513E-1,2.3901284E-2,1.6677189E-1,2.201767E-1,1.1146355E-1,7.724552E-1,7.2373295E-1,1.5460482E-1,6.74108E-1,2.5735252E0,1.997199E0,1.3273551E0,4.183557E-1,1.17115974E-1,6.414175E-1,8.8936615E-1,5.552654E-1,2.1004915E-2,6.505985E-1,1.9886684E-1,2.950287E-1,0E0,0E0,0E0,0E0,0E0,0E0,0E0,0E0,0E0,0E0,0E0,0E0,0E0,0E0,0E0,0E0,0E0,0E0,0E0,0E0,0E0,0E0,0E0,0E0,0E0,0E0,0E0,0E0,0E0,0E0,0E0,0E0,0E0,0E0,0E0,0E0,0E0,0E0,0E0,0E0,0E0,0E0,0E0,0E0,0E0,0E0,0E0,0E0,0E0,0E0,0E0,0E0,0E0,0E0,0E0],"parents":[2147483647,0,0,1,1,2,2,3,3,4,4,5,5,6,6,7,7,8,8,9,9,10,10,11,11,12,12,13,13,14,14,17,17,18,18,19,19,20,20,21,21,22,22,23,23,24,24,25,25,26,26,27,27,28,28,29,29,30,30,31,31,32,32,33,33,34,34,35,35,36,36,37,37,38,38,39,39,40,40,41,41,42,42,43,43,44,44,45,45,46,46,47,47,48,48,49,49,50,50,51,51,52,52,53,53,54,54,55,55,56,56,57,57],"right_children":[2,4,6,8,10,12,14,16,18,20,22,24,26,28,30,-1,-1,32,34,36,38,40,42,44,46,48,50,52,54,56,58,60,62,64,66,68,70,72,74,76,78,80,82,84,86,88,90,92,94,96,98,100,102,104,106,108,110,112,-1,-1,-1,-1,-1,-1,-1,-1,-1,-1,-1,-1,-1,-1,-1,-1,-1,-1,-1,-1,-1,-1,-1,-1,-1,-1,-1,-1,-1,-1,-1,-1,-1,-1,-1,-1,-1,-1,-1,-1,-1,-1,-1,-1,-1,-1,-1,-1,-1,-1,-1,-1,-1,-1,-1],"split_conditions":[3.495332E-1,1.3130009E-1,6.2085205E-1,3.46753E-2,2.123141E-1,5.0250256E-1,7.7728045E-1,4.8603988E-1,8.918582E-2,4.1416737E-1,3.3853394E-1,3.856892E-1,2.7833912E-1,2.2841203E-1,8.7761456E-1,-6.8109885E-2,-7.3447146E-2,2.305392E-1,2.2050226E-1,4.0234265E-1,1.7873031E-1,2.6931494E-1,3.435121E-1,3.4551424E-1,3.0246222E-1,5.4471195E-1,5.266758E-1,7.170421E-1,6.6438955E-1,1.5210377E-1,9.407976E-2,2.300303E-1,4.132543E-1,9.015919E-2,8.919323E-2,1.21432334E-1,4.0266836E-1,4.155128E-1,1.789702E-1,3.644727E-2,3.250104E-1,3.3962867E-1,3.930084E-1,3.38439E-1,3.573808E-1,2.601639E-1,4.533382E-1,2.608434E-1,2.6380688E-1,2.9902047E-1,5.3835005E-1,2.0508574E-1,1.9158836E-1,2.4459566E-1,2.3011182E-1,1.0614698E-1,8.1179595E-1,9.3161887E-1,5.7899002E-2,-5.201658E-2,7.268862E-2,-6.019413E-2,-6.387662E-2,3.0289919E-3,-4.1891266E-2,-2.084514E-2,-5.668906E-2,-2.2863818E-2,-4.6167895E-2,-2.4674997E-2,-4.0677108E-2,-6.832624E-2,-5.34173E-2,-1.1826754E-3,-3.5276532E-2,6.643792E-3,-3.382653E-2,-2.2450823E-2,-1.2260095E-2,-6.1192464E-2,-4.7245998E-2,-3.4441844E-2,-1.7954776E-2,-1.4581901E-2,-3.3434644E-2,-8.222974E-3,1.1051956E-2,-2.9930542E-3,-1.4819399E-2,-3.2371478E-3,2.2906903E-2,7.2061997E-3,-2.1551229E-2,7.349919E-3,2.8629737E-2,1.2884826E-2,3.4929454E-2,3.5240505E-2,4.899246E-2,1.3490905E-2,2.474707E-2,2.7070545E-2,4.947723E-2,2.8370148E-2,5.387977E-2,4.2577595E-2,6.160363E-2,4.0685065E-2,2.9987045E-2,5.006663E-2,6.977325E-2,4.135321E-2,4.9282476E-2],"split_indices":[0,0,0,0,0,0,0,1,0,1,1,0,1,1,0,0,0,1,1,1,0,0,1,1,1,0,0,0,0,1,1,1,1,0,0,1,1,1,0,1,1,1,1,1,0,1,0,1,1,1,0,1,1,1,1,1,0,0,0,0,0,0,0,0,0,0,0,0,0,0,0,0,0,0,0,0,0,0,0,0,0,0,0,0,0,0,0,0,0,0,0,0,0,0,0,0,0,0,0,0,0,0,0,0,0,0,0,0,0,0,0,0,0],"split_type":[0,0,0,0,0,0,0,0,0,0,0,0,0,0,0,0,0,0,0,0,0,0,0,0,0,0,0,0,0,0,0,0,0,0,0,0,0,0,0,0,0,0,0,0,0,0,0,0,0,0,0,0,0,0,0,0,0,0,0,0,0,0,0,0,0,0,0,0,0,0,0,0,0,0,0,0,0,0,0,0,0,0,0,0,0,0,0,0,0,0,0,0,0,0,0,0,0,0,0,0,0,0,0,0,0,0,0,0,0,0,0,0,0],"sum_hessian":[6.3108E4,4.6742E4,1.6366E4,3.8948E4,7.794E3,8.057E3,8.309E3,3.4299E4,4.649E3,3.167E3,4.627E3,4.774E3,3.283E3,3.773E3,4.536E3,1.512E3,3.2787E4,2.724E3,1.925E3,2.339E3,8.28E2,1.752E3,2.875E3,1.271E3,3.503E3,2.643E3,6.4E2,3.322E3,4.51E2,2.532E3,2.004E3,6.4E1,2.66E3,5.1E1,1.874E3,1.67E3,6.69E2,7.8E2,4.8E1,6.11E2,1.141E3,3.02E2,2.573E3,1.086E3,1.85E2,1.92E3,1.583E3,8.74E2,1.769E3,3.55E2,2.85E2,2.036E3,1.286E3,3.57E2,9.4E1,2.24E3,2.92E2,1.862E3,1.42E2,6.3E1,1E0,8.02E2,1.858E3,1E0,5E1,2E0,1.872E3,4.3E1,1.627E3,6.6E1,6.03E2,1.39E2,6.41E2,2E0,4.6E1,9E0,6.02E2,8.93E2,2.48E2,9.4E1,2.08E2,2.281E3,2.92E2,8.52E2,2.34E2,5.1E1,1.34E2,6.63E2,1.257E3,1.093E3,4.9E2,4E2,4.74E2,1.447E3,3.22E2,2.4E2,1.15E2,1.02E2,1.83E2,1.342E3,6.94E2,1.098E3,1.88E2,2.41E2,1.16E2,1.7E1,7.7E1,8.25E2,1.415E3,2.22E2,7E1,1.08E3,7.82E2],"tree_param":{"num_deleted":"0","num_feature":"2","num_nodes":"113","size_leaf_vector":"0"}},{"base_weights":[-1.0366253E-1,-1.5868147E-1,2.7373778E-2,-1.689259E-1,-1.0676666E-1,-2.4441535E-2,6.847292E-2,-1.7133805E-1,-1.4914897E-1,-1.2758912E-1,-8.979784E-2,-5.432041E-2,-6.6883047E-3,4.460985E-2,9.2044845E-2,-1.6757575E-1,-1.7158018E-1,-1.5519342E-1,-1.4285997E-1,-1.1846791E-1,-1.3470273E-1,-7.865357E-2,-9.454446E-2,-5.9831E-2,1.579531E-2,-2.0027416E-2,6.8452987E-3,4.067471E-2,1.0664793E-1,7.8681E-2,1.0337395E-1,7.8982264E-2,-1.5534626E-1,-1.1733118E-1,-1.4378278E-1,-1.23381004E-1,-9.452661E-2,-1.489343E-1,-1.2650242E-1,1.488682E-2,-7.99956E-2,-1.0918929E-1,-8.269733E-2,-4.0821996E-2,-8.017702E-2,-1.4623449E-2,3.3007413E-2,-1.4632508E-3,-3.289248E-2,-9.757274E-3,5.991903E-2,-6.570801E-3,4.7637228E-2,1.21632434E-1,9.656969E-2,6.533826E-2,1.0389094E-1,1.0148997E-1,1.8865974E-1,-1.3715789E-1,-7.915214E-2,1.0867007E-2,-1.4386903E-1,-5.4015283E-2,-1.24751866E-1,-7.7175744E-2,-1.08174965E-1,-1.5270388E-1,-1.1666315E-1,-1.3008036E-1,-7.456017E-2,-6.639947E-2,5.125843E-2,7.976449E-2,-8.059863E-2,-1.1525364E-1,-9.578378E-2,-9.415939E-2,-2.8462427E-2,-5.1405463E-2,-2.8102063E-2,-1.24322705E-1,-6.9984674E-2,-5.657249E-2,3.3078633E-2,2.1365672E-2,8.266363E-2,-1.9243963E-2,4.6592806E-2,-1.2954722E-1,-2.645282E-2,-1.8367473E-2,4.762611E-2,4.317397E-2,9.613536E-2,3.5862003E-2,-7.182543E-2,3.569927E-2,5.9524655E-2,6.546085E-2,1.2784524E-1,5.837689E-2,1.0879987E-1,5.0692227E-2,7.625434E-2,9.473024E-2,1.5737867E-1,1.04925655E-1,7.566973E-2,2.0578238E-1,1.470614E-1],"categories":[],"categories_nodes":[],"categories_segments":[],"categories_sizes":[],"default_left":[1,1,1,1,1,1,1,1,1,1,1,1,1,1,1,0,0,1,1,1,1,1,1,1,1,1,1,1,1,1,1,0,0,1,1,1,1,1,1,1,1,1,1,1,1,1,1,1,1,1,1,1,1,1,1,1,1,1,1,0,0,0,0,0,0,0,0,0,0,0,0,0,0,0,0,0,0,0,0,0,0,0,0,0,0,0,0,0,0,0,0,0,0,0,0,0,0,0,0,0,0,0,0,0,0,0,0,0,0,0,0],"id":3,"left_children":[1,3,5,7,9,11,13,15,17,19,21,23,25,27,29,-1,-1,31,33,35,37,39,41,43,45,47,49,51,53,55,57,-1,-1,59,61,63,65,67,69,71,73,75,77,79,81,83,85,87,89,91,93,95,97,99,101,103,105,107,109,-1,-1,-1,-1,-1,-1,-1,-1,-1,-1,-1,-1,-1,-1,-1,-1,-1,-1,-1,-1,-1,-1,-1,-1,-1,-1,-1,-1,-1,-1,-1,-1,-1,-1,-1,-1,-1,-1,-1,-1,-1,-1,-1,-1,-1,-1,-1,-1,-1,-1,-1,-1],"loss_changes":[4.5498737E2,2.3620483E1,3.9745743E1,1.7452393E0,2.5777664E0,4.3790035E0,5.850376E0,1.4648438E-3,1.3152313E-1,1.973877E-1,2.0632553E-1,1.1898336E0,9.3526304E-1,1.2587843E0,7.844467E-1,0E0,0E0,8.564377E-2,3.010559E-2,1.5877914E-1,1.9589233E-1,1.534648E-1,4.8179817E-1,1.1001463E0,1.1828612E-1,6.230571E-1,2.2669294E0,1.6013021E0,3.476739E-2,8.025179E-1,4.3556786E-1,0E0,0E0,4.591596E-2,2.7172089E-2,1.0727501E-1,5.1090956E-2,6.332302E-2,2.0848274E-1,5.662077E-2,1.21650696E-1,9.15575E-2,9.7205734E-1,1.973908E-1,6.10878E-1,1.6595797E-1,8.147806E-2,9.143261E-1,9.5572793E-1,9.6927625E-1,3.6759996E-1,1.7359303E0,5.99864E-1,3.3509135E-2,8.193135E-2,2.4810028E-1,3.9226913E-1,2.3787689E-1,1.2473583E-2,0E0,0E0,0E0,0E0,0E0,0E0,0E0,0E0,0E0,0E0,0E0,0E0,0E0,0E0,0E0,0E0,0E0,0E0,0E0,0E0,0E0,0E0,0E0,0E0,0E0,0E0,0E0,0E0,0E0,0E0,0E0,0E0,0E0,0E0,0E0,0E0,0E0,0E0,0E0,0E0,0E0,0E0,0E0,0E0,0E0,0E0,0E0,0E0,0E0,0E0,0E0,0E0],"parents":[2147483647,0,0,1,1,2,2,3,3,4,4,5,5,6,6,7,7,8,8,9,9,10,10,11,11,12,12,13,13,14,14,17,17,18,18,19,19,20,20,21,21,22,22,23,23,24,24,25,25,26,26,27,27,28,28,29,29,30,30,33,33,34,34,35,35,36,36,37,37,38,38,39,39,40,40,41,41,42,42,43,43,44,44,45,45,46,46,47,47,48,48,49,49,50,50,51,51,52,52,53,53,54,54,55,55,56,56,57,57,58,58],"right_children":[2,4,6,8,10,12,14,16,18,20,22,24,26,28,30,-1,-1,32,34,36,38,40,42,44,46,48,50,52,54,56,58,-1,-1,60,62,64,66,68,70,72,74,76,78,80,82,84,86,88,90,92,94,96,98,100,102,104,106,108,110,-1,-1,-1,-1,-1,-1,-1,-1,-1,-1,-1,-1,-1,-1,-1,-1,-1,-1,-1,-1,-1,-1,-1,-1,-1,-1,-1,-1,-1,-1,-1,-1,-1,-1,-1,-1,-1,-1,-1,-1,-1,-1,-1,-1,-1,-1,-1,-1,-1,-1,-1,-1],"split_conditions":[2.823524E-1,9.050594E-2,5.386645E-1,2.0528138E-2,1.6572729E-1,3.7095368E-1,7.395983E-1,5.070669E-1,4.9552113E-2,4.1389745E-1,3.3833122E-1,3.6782324E-1,2.9342055E-1,2.718578E-1,8.4661424E-1,-5.0272726E-2,-5.1474057E-2,2.0270509E-1,2.458036E-1,4.023226E-1,4.2543924E-1,3.9840683E-2,3.8492557E-1,3.385396E-1,2.9072282E-1,2.608434E-1,4.7255737E-1,5.655757E-1,5.4931235E-1,1.4796677E-1,1.277215E-1,2.3694681E-2,-4.660388E-2,7.939537E-2,4.9583256E-2,1.1620556E-1,4.0714246E-1,1.5969932E-1,1.4385895E-1,1.3116265E-2,1.6614783E-1,2.6182684E-1,2.4451971E-1,3.054328E-1,3.4147736E-1,3.7847617E-1,3.776701E-1,2.4702379E-1,2.624585E-1,3.402768E-1,3.075471E-1,2.6069492E-1,6.605239E-1,2.746774E-1,5.543039E-1,8.10153E-1,8.045357E-1,1.0614169E-1,1.4046493E-1,-4.1147366E-2,-2.3745643E-2,3.2601024E-3,-4.316071E-2,-1.6204586E-2,-3.7425563E-2,-2.3152724E-2,-3.245249E-2,-4.5811165E-2,-3.4998946E-2,-3.9024107E-2,-2.2368053E-2,-1.9919842E-2,1.537753E-2,2.3929348E-2,-2.417959E-2,-3.4576096E-2,-2.8735135E-2,-2.8247816E-2,-8.538729E-3,-1.5421639E-2,-8.430619E-3,-3.7296813E-2,-2.0995403E-2,-1.6971748E-2,9.92359E-3,6.409702E-3,2.4799092E-2,-5.773189E-3,1.3977842E-2,-3.886417E-2,-7.935846E-3,-5.510242E-3,1.4287834E-2,1.2952191E-2,2.884061E-2,1.0758601E-2,-2.154763E-2,1.0709781E-2,1.7857397E-2,1.9638257E-2,3.8353574E-2,1.7513068E-2,3.263996E-2,1.5207669E-2,2.2876302E-2,2.8419074E-2,4.7213603E-2,3.1477697E-2,2.2700919E-2,6.1734717E-2,4.411842E-2],"split_indices":[0,0,0,0,0,0,0,1,0,1,1,1,1,1,0,0,0,1,1,1,1,1,1,1,0,1,0,0,0,1,1,0,0,0,0,1,1,0,0,1,0,0,0,1,1,1,1,1,1,1,1,1,0,1,0,0,0,1,1,0,0,0,0,0,0,0,0,0,0,0,0,0,0,0,0,0,0,0,0,0,0,0,0,0,0,0,0,0,0,0,0,0,0,0,0,0,0,0,0,0,0,0,0,0,0,0,0,0,0,0,0],"split_type":[0,0,0,0,0,0,0,0,0,0,0,0,0,0,0,0,0,0,0,0,0,0,0,0,0,0,0,0,0,0,0,0,0,0,0,0,0,0,0,0,0,0,0,0,0,0,0,0,0,0,0,0,0,0,0,0,0,0,0,0,0,0,0,0,0,0,0,0,0,0,0,0,0,0,0,0,0,0,0,0,0,0,0,0,0,0,0,0,0,0,0,0,0,0,0,0,0,0,0,0,0,0,0,0,0,0,0,0,0,0,0],"sum_hessian":[6.3108E4,4.4446E4,1.8662E4,3.7119E4,7.327E3,8.255E3,1.0407E4,3.3077E4,4.042E3,3.287E3,4.04E3,3.076E3,5.179E3,5.173E3,5.234E3,2.042E3,3.1035E4,2.049E3,1.993E3,1.448E3,1.839E3,1.212E3,2.828E3,2.852E3,2.24E2,2.608E3,2.571E3,4.866E3,3.07E2,2.405E3,2.829E3,1E0,2.048E3,7.4E1,1.919E3,1.198E3,2.5E2,6.66E2,1.173E3,1.7E1,1.195E3,1.261E3,1.567E3,1.476E3,1.376E3,8.1E1,1.43E2,1.068E3,1.54E3,1.959E3,6.12E2,6.25E2,4.241E3,1.19E2,1.88E2,1.575E3,8.3E2,2.77E3,5.9E1,4.7E1,2.7E1,1E0,1.918E3,2.4E1,1.174E3,1.13E2,1.37E2,5.93E2,7.3E1,1.096E3,7.7E1,5E0,1.2E1,4E0,1.191E3,8.63E2,3.98E2,1.293E3,2.74E2,8.04E2,6.72E2,2.56E2,1.12E3,4.3E1,3.8E1,1.17E2,2.6E1,7.8E2,2.88E2,9.5E1,1.445E3,1.704E3,2.55E2,4.2E2,1.92E2,3.79E2,2.46E2,2.118E3,2.123E3,1.3E1,1.06E2,4.7E1,1.41E2,6.75E2,9E2,7.11E2,1.19E2,2.442E3,3.28E2,3.9E1,2E1],"tree_param":{"num_deleted":"0","num_feature":"2","num_nodes":"111","size_leaf_vector":"0"}},{"base_weights":[-7.256745E-2,-1.100105E-1,2.236142E-2,-1.1781205E-1,-7.0159495E-2,-1.5003735E-2,4.7326464E-2,-1.1969727E-1,-1.0096342E-1,-8.349731E-2,-5.7917334E-2,-3.2401074E-2,-4.086905E-3,2.8904967E-2,6.283817E-2,-1.1172005E-1,-1.1999677E-1,-9.3407676E-2,-1.03517376E-1,-8.900312E-2,-7.3049404E-2,-6.1276857E-2,-4.306778E-2,-3.711031E-2,2.4891937E-2,-1.2478115E-2,2.2000246E-2,2.4554279E-2,7.7067144E-2,5.228371E-2,7.136142E-2,-1.24369785E-2,-1.117898E-1,-9.875415E-2,-8.669456E-2,-1.0954917E-1,-9.9975415E-2,-8.208192E-2,-9.4517104E-2,-7.5393476E-2,-2.260313E-2,-5.0232917E-2,-6.907317E-2,-6.1801452E-2,-1.0494062E-2,-2.6699623E-2,-5.2782036E-2,3.4102667E-3,4.5148607E-2,-2.4077844E-2,5.0358633E-3,2.479514E-4,6.0389314E-2,-7.0230104E-3,3.0777324E-2,1.328566E-1,7.443093E-2,3.1003505E-2,6.314086E-2,6.860014E-2,1.2224573E-1,-9.920401E-2,1.40895145E-2,2.2652477E-1,-8.792405E-2,-1.0797052E-1,-1.358869E-1,-1.0417264E-1,-8.95119E-2,-1.0301812E-1,-7.988105E-2,-1.0089863E-1,-7.372355E-2,-7.390034E-2,-1.2806287E-1,-5.1645745E-2,-7.4870037E-3,7.807412E-2,-5.1181983E-2,-7.961838E-2,-5.501444E-2,-7.561394E-2,-4.51819E-2,-2.3916095E-2,2.4109729E-2,-2.594375E-2,-1.2892635E-1,-7.211192E-2,-2.0913811E-2,2.8624896E-2,-5.094273E-2,3.3537425E-2,8.439036E-2,-2.3597382E-2,-3.3619952E-1,-1.6505552E-2,5.170548E-2,-4.8493534E-2,3.1000918E-2,3.75093E-2,7.4555755E-2,2.6043175E-2,-5.2466504E-2,1.5007122E-2,4.492064E-2,1.7899388E-1,9.871658E-2,-4.2708647E-3,7.588428E-2,-3.2982823E-2,3.6232106E-2,5.7369355E-2,9.532944E-2,7.430489E-2,3.7772693E-2,1.2430241E-1,3.198286E-2],"categories":[],"categories_nodes":[],"categories_segments":[],"categories_sizes":[],"default_left":[1,1,1,1,1,1,1,1,1,1,1,1,1,1,1,1,0,1,1,1,1,1,1,1,1,1,1,1,1,1,1,0,0,1,1,1,1,1,1,1,1,1,1,1,1,1,1,1,1,1,1,1,1,1,1,1,1,1,1,1,1,0,0,0,0,0,0,0,0,0,0,0,0,0,0,0,0,0,0,0,0,0,0,0,0,0,0,0,0,0,0,0,0,0,0,0,0,0,0,0,0,0,0,0,0,0,0,0,0,0,0,0,0,0,0,0,0],"id":4,"left_children":[1,3,5,7,9,11,13,15,17,19,21,23,25,27,29,31,-1,33,35,37,39,41,43,45,47,49,51,53,55,57,59,-1,-1,61,63,65,67,69,71,73,75,77,79,81,83,85,87,89,91,93,95,97,99,101,103,105,107,109,111,113,115,-1,-1,-1,-1,-1,-1,-1,-1,-1,-1,-1,-1,-1,-1,-1,-1,-1,-1,-1,-1,-1,-1,-1,-1,-1,-1,-1,-1,-1,-1,-1,-1,-1,-1,-1,-1,-1,-1,-1,-1,-1,-1,-1,-1,-1,-1,-1,-1,-1,-1,-1,-1,-1,-1,-1,-1],"loss_changes":[2.243187E2,1.40625E1,1.665346E1,1.1900635E0,1.2054214E0,1.3580129E0,3.0562649E0,6.790161E-2,6.3949585E-2,1.9742203E-1,1.9032574E-1,7.447798E-1,9.623522E-1,1.0235896E0,5.188389E-1,7.2374344E-3,0E0,2.6397705E-2,4.9764633E-2,8.066559E-2,1.4362526E-1,2.6792336E-1,4.3688297E-1,4.1430545E-1,9.122692E-2,6.758227E-1,8.934888E-1,8.825321E-1,4.967594E-2,5.9852266E-1,4.4277763E-1,0E0,0E0,2.8556347E-2,1.8936038E-1,2.8611183E-2,6.981468E-2,3.9461613E-2,1.6280937E-1,8.286238E-2,2.4197992E-2,1.6327357E-1,2.6914597E-1,1.0103214E-1,1.2272781E-1,1.15110636E-1,6.2435675E-1,1.4261878E-1,4.6379194E-2,2.9214168E-1,1.3339205E0,1.0267818E0,1.22641206E-1,1.1133223E0,8.359599E-1,9.1075E-3,4.481864E-2,2.956069E-1,3.140664E-1,5.332241E-1,2.6469707E-2,0E0,0E0,0E0,0E0,0E0,0E0,0E0,0E0,0E0,0E0,0E0,0E0,0E0,0E0,0E0,0E0,0E0,0E0,0E0,0E0,0E0,0E0,0E0,0E0,0E0,0E0,0E0,0E0,0E0,0E0,0E0,0E0,0E0,0E0,0E0,0E0,0E0,0E0,0E0,0E0,0E0,0E0,0E0,0E0,0E0,0E0,0E0,0E0,0E0,0E0,0E0,0E0,0E0,0E0,0E0,0E0],"parents":[2147483647,0,0,1,1,2,2,3,3,4,4,5,5,6,6,7,7,8,8,9,9,10,10,11,11,12,12,13,13,14,14,15,15,17,17,18,18,19,19,20,20,21,21,22,22,23,23,24,24,25,25,26,26,27,27,28,28,29,29,30,30,33,33,34,34,35,35,36,36,37,37,38,38,39,39,40,40,41,41,42,42,43,43,44,44,45,45,46,46,47,47,48,48,49,49,50,50,51,51,52,52,53,53,54,54,55,55,56,56,57,57,58,58,59,59,60,60],"right_children":[2,4,6,8,10,12,14,16,18,20,22,24,26,28,30,32,-1,34,36,38,40,42,44,46,48,50,52,54,56,58,60,-1,-1,62,64,66,68,70,72,74,76,78,80,82,84,86,88,90,92,94,96,98,100,102,104,106,108,110,112,114,116,-1,-1,-1,-1,-1,-1,-1,-1,-1,-1,-1,-1,-1,-1,-1,-1,-1,-1,-1,-1,-1,-1,-1,-1,-1,-1,-1,-1,-1,-1,-1,-1,-1,-1,-1,-1,-1,-1,-1,-1,-1,-1,-1,-1,-1,-1,-1,-1,-1,-1,-1,-1,-1,-1,-1,-1],"split_conditions":[3.0664235E-1,1.05902806E-1,5.301709E-1,3.1237181E-2,1.9053882E-1,3.856892E-1,7.175484E-1,4.8603988E-1,3.876657E-1,1.5969932E-1,3.90361E-1,3.5867473E-1,3.12726E-1,2.7221256E-1,8.337259E-1,2.3688026E-1,-3.5999034E-2,7.216309E-2,4.4561362E-1,4.1371247E-1,4.1977346E-1,3.384679E-1,2.293273E-1,3.3851486E-1,3.642338E-1,4.8844245E-1,4.3208882E-1,5.624112E-1,5.3108215E-1,1.3132828E-1,1.2432788E-1,-3.7310936E-3,-3.353694E-2,3.8746598E-1,7.224291E-2,1.0339176E-1,7.676734E-2,1.1135031E-1,4.356897E-1,1.8986621E-1,1.6542816E-1,2.0662263E-2,3.731259E-1,4.0184247E-1,3.9550304E-1,3.8534808E-1,3.5085586E-1,3.6233056E-1,3.2622167E-1,4.881825E-1,2.8811422E-1,3.2724082E-1,4.5134395E-1,2.6084787E-1,2.0999518E-1,2.7955186E-1,5.3185225E-1,7.4166E-1,8.043628E-1,1.06148005E-1,1.5822054E-1,-2.9761204E-2,4.2268545E-3,6.795743E-2,-2.6377216E-2,-3.2391157E-2,-4.0766068E-2,-3.1251792E-2,-2.685357E-2,-3.0905437E-2,-2.3964316E-2,-3.0269591E-2,-2.2117065E-2,-2.2170104E-2,-3.8418863E-2,-1.5493724E-2,-2.2461012E-3,2.3422237E-2,-1.5354595E-2,-2.3885515E-2,-1.6504332E-2,-2.2684183E-2,-1.355457E-2,-7.174829E-3,7.232919E-3,-7.7831256E-3,-3.867791E-2,-2.1633577E-2,-6.2741437E-3,8.587469E-3,-1.528282E-2,1.0061228E-2,2.5317108E-2,-7.079215E-3,-1.0085986E-1,-4.951666E-3,1.5511644E-2,-1.45480605E-2,9.300276E-3,1.1252791E-2,2.2366727E-2,7.812953E-3,-1.5739951E-2,4.5021367E-3,1.3476192E-2,5.3698167E-2,2.9614976E-2,-1.2812595E-3,2.2765286E-2,-9.894847E-3,1.08696325E-2,1.7210808E-2,2.8598834E-2,2.2291468E-2,1.1331808E-2,3.7290726E-2,9.594859E-3],"split_indices":[0,0,0,0,0,0,0,1,1,0,1,1,1,1,0,1,0,0,1,1,1,1,0,1,1,0,0,0,0,1,1,0,0,1,0,0,0,0,1,0,0,1,1,1,1,0,0,1,0,0,1,1,0,1,1,1,0,0,0,1,1,0,0,0,0,0,0,0,0,0,0,0,0,0,0,0,0,0,0,0,0,0,0,0,0,0,0,0,0,0,0,0,0,0,0,0,0,0,0,0,0,0,0,0,0,0,0,0,0,0,0,0,0,0,0,0,0],"split_type":[0,0,0,0,0,0,0,0,0,0,0,0,0,0,0,0,0,0,0,0,0,0,0,0,0,0,0,0,0,0,0,0,0,0,0,0,0,0,0,0,0,0,0,0,0,0,0,0,0,0,0,0,0,0,0,0,0,0,0,0,0,0,0,0,0,0,0,0,0,0,0,0,0,0,0,0,0,0,0,0,0,0,0,0,0,0,0,0,0,0,0,0,0,0,0,0,0,0,0,0,0,0,0,0,0,0,0,0,0,0,0,0,0,0,0,0,0],"sum_hessian":[6.3108E4,4.5257E4,1.7851E4,3.7846E4,7.411E3,7.15E3,1.0701E4,3.4032E4,3.814E3,3.544E3,3.867E3,2.756E3,4.394E3,4.893E3,5.808E3,1.245E3,3.2787E4,9.73E2,2.841E3,2.316E3,1.228E3,3.151E3,7.16E2,2.547E3,2.09E2,3.325E3,1.069E3,4.489E3,4.04E2,2.598E3,3.21E3,1E0,1.244E3,5.34E2,4.39E2,1.04E3,1.801E3,1.034E3,1.282E3,1.173E3,5.5E1,1.307E3,1.844E3,4.54E2,2.62E2,1.532E3,1.015E3,1.02E2,1.07E2,2E3,1.325E3,6.83E2,3.86E2,7.39E2,3.75E3,1.6E1,3.88E2,8.79E2,1.719E3,3.047E3,1.63E2,5.32E2,2E0,1E0,4.38E2,9.86E2,5.4E1,1.279E3,5.22E2,9.4E1,9.4E2,9.78E2,3.04E2,1.143E3,3E1,1.8E1,3.7E1,9E0,1.298E3,1.051E3,7.93E2,2.46E2,2.08E2,1.89E2,7.3E1,1.522E3,1E1,6.31E2,3.84E2,7E1,3.2E1,8.4E1,2.3E1,1.998E3,2E0,9.07E2,4.18E2,2.64E2,4.19E2,1.49E2,2.37E2,4.28E2,3.11E2,1.774E3,1.976E3,5E0,1.1E1,7E0,3.81E2,6.6E1,8.13E2,1.46E3,2.59E2,2.57E3,4.77E2,1.59E2,4E0],"tree_param":{"num_deleted":"0","num_feature":"2","num_nodes":"117","size_leaf_vector":"0"}},{"base_weights":[-5.08022E-2,-7.8339174E-2,1.2498647E-2,-8.3205804E-2,-5.5864755E-2,-7.463657E-3,3.9998285E-2,-8.403708E-2,-7.5236514E-2,-6.427024E-2,-4.7004085E-2,-2.3927197E-2,4.2554084E-3,4.541852E-2,2.5204614E-2,-7.769333E-2,-7.299763E-2,-5.8837812E-2,-6.782493E-2,-3.433301E-2,-4.9181964E-2,-2.6583219E-2,2.6081335E-2,2.2380454E-3,4.8401374E-2,4.05538E-2,8.524585E-2,-6.2358897E-2,3.8012214E-2,-7.135924E-2,-8.483058E-2,-7.670041E-2,-6.076787E-2,-6.130847E-2,-4.653179E-2,-8.401177E-2,-6.477947E-2,-2.8968535E-2,-6.257786E-2,-5.6124404E-2,-4.025417E-2,-3.974422E-2,-1.9247025E-2,1.569405E-2,4.8187878E-2,-1.1497615E-2,9.709441E-3,-3.1985436E-2,5.6314766E-2,1.23592485E-2,4.640131E-2,1.1317501E-1,7.19185E-2,-7.8649364E-2,1.2929696E-1,2.8756516E-2,8.3530836E-2,-6.981883E-2,-9.1535345E-2,-7.744685E-3,-8.4922545E-2,-7.2657585E-2,-7.887675E-2,-6.1846957E-2,-1.453257E-2,-5.826297E-2,-7.954679E-2,2.4182905E-2,-5.047805E-2,-1.1054315E-1,-8.108515E-2,7.341244E-2,-6.4950936E-2,-4.018715E-2,4.873104E-4,-9.9921644E-2,-9.829052E-3,-4.7134783E-2,-6.456658E-2,-4.771418E-2,-1.1342913E-2,-3.057082E-2,-5.395577E-2,-2.1778286E-2,3.4020245E-2,1.868389E-2,-1.0558065E-1,3.159988E-2,8.142955E-2,-1.6005121E-2,7.573566E-3,-1.2270289E-2,2.0572945E-2,-9.339301E-2,1.2231363E-2,4.2385597E-2,7.8257725E-2,1.3370094E-2,-7.924626E-2,4.1778564E-2,5.7859793E-2,9.378408E-2,1.2813237E-1,-3.0709815E-1,7.3495775E-2,-1.0108745E-1,-6.4694956E-2,5.1430687E-2,1.3888475E-1,-8.23326E-4,4.9157295E-2,7.607694E-2,1.2489103E-1],"categories":[],"categories_nodes":[],"categories_segments":[],"categories_sizes":[],"default_left":[1,1,1,1,1,1,1,0,1,1,1,1,1,1,1,1,1,1,1,1,1,1,1,1,1,1,1,1,1,1,1,1,1,1,1,1,1,1,1,1,1,1,1,1,1,1,1,1,1,1,1,1,1,1,1,1,1,0,0,0,0,0,0,0,0,0,0,0,0,0,0,0,0,0,0,0,0,0,0,0,0,0,0,0,0,0,0,0,0,0,0,0,0,0,0,0,0,0,0,0,0,0,0,0,0,0,0,0,0,0,0,0,0],"id":5,"left_children":[1,3,5,7,9,11,13,-1,15,17,19,21,23,25,27,29,31,33,35,37,39,41,43,45,47,49,51,53,55,57,59,61,63,65,67,69,71,73,75,77,79,81,83,85,87,89,91,93,95,97,99,101,103,105,107,109,111,-1,-1,-1,-1,-1,-1,-1,-1,-1,-1,-1,-1,-1,-1,-1,-1,-1,-1,-1,-1,-1,-1,-1,-1,-1,-1,-1,-1,-1,-1,-1,-1,-1,-1,-1,-1,-1,-1,-1,-1,-1,-1,-1,-1,-1,-1,-1,-1,-1,-1,-1,-1,-1,-1,-1,-1],"loss_changes":[1.1000719E2,4.80542E0,1.0502928E1,2.331543E-1,5.8021736E-1,2.139005E0,6.4410496E-1,0E0,1.3162613E-2,7.3560715E-2,1.0361767E-1,6.130104E-1,5.7672316E-1,1.1373358E0,2.4247637E0,6.704807E-2,7.721329E-2,4.567194E-2,1.13904E-1,8.349222E-2,1.994257E-1,4.2193866E-1,5.2746817E-2,6.358707E-1,1.8182677E-1,8.648176E-1,2.3008251E-1,8.718865E-1,7.917609E-1,2.0430565E-2,4.694462E-3,6.4468384E-3,2.0305276E-2,6.901789E-2,7.684559E-2,2.0542383E-2,5.3154945E-2,1.569851E-1,1.743336E-1,1.3568735E-1,3.0723166E-1,2.0250726E-1,3.8002682E-1,5.9987355E-2,3.8231373E-2,1.8777949E-1,9.58464E-1,7.1738735E-2,7.553989E-2,8.4676445E-2,2.2784233E-1,4.7441006E-2,2.8321695E-1,7.330322E-2,9.281516E-3,9.462528E-1,8.853626E-2,0E0,0E0,0E0,0E0,0E0,0E0,0E0,0E0,0E0,0E0,0E0,0E0,0E0,0E0,0E0,0E0,0E0,0E0,0E0,0E0,0E0,0E0,0E0,0E0,0E0,0E0,0E0,0E0,0E0,0E0,0E0,0E0,0E0,0E0,0E0,0E0,0E0,0E0,0E0,0E0,0E0,0E0,0E0,0E0,0E0,0E0,0E0,0E0,0E0,0E0,0E0,0E0,0E0,0E0,0E0,0E0],"parents":[2147483647,0,0,1,1,2,2,3,3,4,4,5,5,6,6,8,8,9,9,10,10,11,11,12,12,13,13,14,14,15,15,16,16,17,17,18,18,19,19,20,20,21,21,22,22,23,23,24,24,25,25,26,26,27,27,28,28,29,29,30,30,31,31,32,32,33,33,34,34,35,35,36,36,37,37,38,38,39,39,40,40,41,41,42,42,43,43,44,44,45,45,46,46,47,47,48,48,49,49,50,50,51,51,52,52,53,53,54,54,55,55,56,56],"right_children":[2,4,6,8,10,12,14,-1,16,18,20,22,24,26,28,30,32,34,36,38,40,42,44,46,48,50,52,54,56,58,60,62,64,66,68,70,72,74,76,78,80,82,84,86,88,90,92,94,96,98,100,102,104,106,108,110,112,-1,-1,-1,-1,-1,-1,-1,-1,-1,-1,-1,-1,-1,-1,-1,-1,-1,-1,-1,-1,-1,-1,-1,-1,-1,-1,-1,-1,-1,-1,-1,-1,-1,-1,-1,-1,-1,-1,-1,-1,-1,-1,-1,-1,-1,-1,-1,-1,-1,-1,-1,-1,-1,-1,-1,-1],"split_conditions":[2.690624E-1,7.150296E-2,6.320492E-1,1.720392E-2,1.5969932E-1,4.0357402E-1,1.8256888E-1,-2.5211126E-2,4.5693165E-1,4.1389745E-1,2.8088847E-1,3.7459862E-1,3.2253444E-1,1.7017663E-1,1.8568209E-1,4.1506827E-1,4.3057382E-2,3.978793E-1,4.205859E-1,2.5460064E-1,3.9036328E-1,3.2195687E-1,2.8693593E-1,4.878139E-1,4.0545624E-1,7.8287196E-1,7.1667683E-1,7.5555825E-1,2.2841203E-1,6.7626774E-2,1.7319886E-2,4.7803545E-1,6.990926E-2,3.858152E-1,7.727839E-2,9.581245E-2,4.2062706E-1,2.2889945E-1,2.402526E-1,3.5628414E-1,2.2466794E-1,3.5105908E-1,3.5609698E-1,2.865949E-1,3.7939173E-1,3.12726E-1,2.4805334E-1,3.327454E-1,3.328702E-1,7.8213453E-1,9.143281E-1,6.91314E-1,7.16781E-1,1.832278E-1,7.5957084E-1,6.7902637E-1,2.4562457E-1,-2.094565E-2,-2.7460605E-2,-2.3234056E-3,-2.5476765E-2,-2.1797277E-2,-2.3663025E-2,-1.8554088E-2,-4.359771E-3,-1.7478893E-2,-2.3864036E-2,7.2548715E-3,-1.5143415E-2,-3.3162944E-2,-2.4325548E-2,2.2023734E-2,-1.9485282E-2,-1.2056146E-2,1.4619312E-4,-2.9976495E-2,-2.9487156E-3,-1.41404355E-2,-1.9369975E-2,-1.4314255E-2,-3.402874E-3,-9.171247E-3,-1.6186733E-2,-6.533486E-3,1.02060735E-2,5.6051672E-3,-3.1674195E-2,9.479964E-3,2.4428865E-2,-4.8015364E-3,2.27207E-3,-3.6810867E-3,6.171884E-3,-2.8017905E-2,3.669409E-3,1.271568E-2,2.3477318E-2,4.0110284E-3,-2.3773879E-2,1.253357E-2,1.7357938E-2,2.8135225E-2,3.8439713E-2,-9.212945E-2,2.2048734E-2,-3.0326236E-2,-1.9408487E-2,1.5429207E-2,4.1665427E-2,-2.469978E-4,1.4747189E-2,2.2823082E-2,3.746731E-2],"split_indices":[0,0,0,0,0,0,1,0,1,1,1,1,1,1,1,1,0,1,1,0,1,0,0,0,0,0,0,0,1,0,0,1,0,1,0,0,1,0,1,1,0,1,1,0,1,1,1,1,1,0,0,0,0,1,0,0,1,0,0,0,0,0,0,0,0,0,0,0,0,0,0,0,0,0,0,0,0,0,0,0,0,0,0,0,0,0,0,0,0,0,0,0,0,0,0,0,0,0,0,0,0,0,0,0,0,0,0,0,0,0,0,0,0],"split_type":[0,0,0,0,0,0,0,0,0,0,0,0,0,0,0,0,0,0,0,0,0,0,0,0,0,0,0,0,0,0,0,0,0,0,0,0,0,0,0,0,0,0,0,0,0,0,0,0,0,0,0,0,0,0,0,0,0,0,0,0,0,0,0,0,0,0,0,0,0,0,0,0,0,0,0,0,0,0,0,0,0,0,0,0,0,0,0,0,0,0,0,0,0,0,0,0,0,0,0,0,0,0,0,0,0,0,0,0,0,0,0,0,0],"sum_hessian":[6.3108E4,4.3977E4,1.9131E4,3.6147E4,7.83E3,1.1085E4,8.046E3,3.2724E4,3.423E3,4.015E3,3.815E3,4.609E3,6.476E3,5.887E3,2.159E3,1.616E3,1.807E3,1.595E3,2.42E3,5.62E2,3.253E3,4.377E3,2.32E2,6.194E3,2.82E2,5.248E3,6.39E2,2.75E2,1.884E3,8.62E2,7.54E2,1.383E3,4.24E2,1.325E3,2.7E2,3.79E2,2.041E3,4.74E2,8.8E1,1.827E3,1.426E3,1.565E3,2.812E3,1.59E2,7.3E1,2.182E3,4.012E3,2.5E1,2.57E2,9.02E2,4.346E3,2.04E2,4.35E2,2.54E2,2.1E1,1.567E3,3.17E2,8.05E2,5.7E1,1E0,7.53E2,4.96E2,8.87E2,4.14E2,1E1,1.139E3,1.86E2,1.4E1,2.56E2,3.4E1,3.45E2,2E0,2.039E3,3.43E2,1.31E2,5.1E1,3.7E1,8.88E2,9.39E2,1.133E3,2.93E2,9.53E2,6.12E2,2.685E3,1.27E2,1.56E2,3E0,5E1,2.3E1,1.765E3,4.17E2,1.327E3,2.685E3,1E1,1.5E1,1.59E2,9.8E1,8.93E2,9E0,3.1E3,1.246E3,9.2E1,1.12E2,1E0,4.34E2,9.5E1,1.59E2,3E0,1.8E1,6.4E2,9.27E2,2.71E2,4.6E1],"tree_param":{"num_deleted":"0","num_feature":"2","num_nodes":"113","size_leaf_vector":"0"}},{"base_weights":[-3.556603E-2,-5.2906904E-2,1.3960462E-2,-5.7865176E-2,-3.248779E-2,5.2337686E-4,2.8397173E-2,-5.8809023E-2,-5.124234E-2,-4.1392583E-2,-2.6608448E-2,-5.3381864E-3,9.113594E-3,2.6224649E-2,5.553115E-2,-5.8909938E-2,-5.711769E-2,-4.7181822E-2,-5.277982E-2,3.7057165E-2,-4.161947E-2,-2.6227456E-2,-1.3523479E-1,-8.652812E-3,3.181781E-2,2.1632225E-3,4.9678456E-2,3.1839393E-2,3.4250058E-3,4.3098103E-2,1.1456148E-1,-1.0518758E-2,-5.7136834E-2,-4.7367144E-2,9.677654E-2,-6.779129E-2,-5.2181397E-2,4.4899683E-2,-2.0684004E-2,-4.2476837E-2,-2.3050847E-2,9.020313E-3,-2.7084507E-2,-4.252752E-2,-1.5712155E-1,-6.9035357E-3,-4.8384298E-2,2.2779629E-3,4.3766666E-2,-9.368305E-3,1.0293601E-2,-9.149072E-3,5.3694654E-2,2.8387655E-2,5.9430916E-2,-2.4886321E-2,2.3046646E-2,3.0042857E-2,7.087855E-2,-1.2562945E-3,1.1811975E-1,-4.8221543E-2,-3.0126512E-2,-6.902304E-2,4.370451E-2,2.244571E-2,-5.232528E-2,7.127383E-2,2.3414504E-2,-3.8015515E-2,-4.7473848E-2,9.580155E-2,-2.513526E-2,3.5565633E-3,1.8160522E-1,-3.2160424E-2,-2.2461869E-2,-7.085212E-2,3.5385445E-2,-7.413792E-2,-1.8055761E-1,-1.3300206E-2,7.334912E-4,-7.4212044E-2,3.008639E-2,-2.1439735E-2,5.606198E-2,8.096272E-2,3.826271E-2,1.4936868E-2,-3.279451E-2,-7.3625757E-3,3.610736E-2,2.2242911E-2,-1.5412015E-1,1.03850216E-1,5.135659E-2,1.244229E-2,3.416491E-2,7.8492045E-2,5.074252E-2,-3.3200517E-2,1.0444406E-1,-5.640192E-3,5.2982297E-2,1.1476581E-1,2.7858207E-2,5.8381267E-2,1.0389835E-1,1.213508E-1,-1.845388E-1,1.220819E-1,5.8285274E-2],"categories":[],"categories_nodes":[],"categories_segments":[],"categories_sizes":[],"default_left":[1,1,1,1,1,1,1,1,1,1,1,1,1,1,1,0,1,1,1,1,1,1,1,1,1,1,1,1,1,1,1,0,0,1,0,1,1,1,0,1,1,1,1,1,1,1,1,1,1,1,1,1,1,1,1,1,1,1,1,1,1,0,0,0,0,0,0,0,0,0,0,0,0,0,0,0,0,0,0,0,0,0,0,0,0,0,0,0,0,0,0,0,0,0,0,0,0,0,0,0,0,0,0,0,0,0,0,0,0,0,0,0,0],"id":6,"left_children":[1,3,5,7,9,11,13,15,17,19,21,23,25,27,29,-1,31,33,35,37,39,41,43,45,47,49,51,53,55,57,59,-1,-1,61,-1,63,65,67,-1,69,71,73,75,77,79,81,83,85,87,89,91,93,95,97,99,101,103,105,107,109,111,-1,-1,-1,-1,-1,-1,-1,-1,-1,-1,-1,-1,-1,-1,-1,-1,-1,-1,-1,-1,-1,-1,-1,-1,-1,-1,-1,-1,-1,-1,-1,-1,-1,-1,-1,-1,-1,-1,-1,-1,-1,-1,-1,-1,-1,-1,-1,-1,-1,-1,-1,-1],"loss_changes":[5.4200806E1,4.730545E0,3.1749754E0,2.3207855E-1,4.771557E-1,4.269337E-1,4.6365356E-1,2.2583008E-3,2.6844978E-2,6.617069E-2,2.242825E-1,6.209927E-1,9.694872E-1,9.3529034E-1,4.23676E-1,0E0,1.0809898E-3,3.9266586E-2,2.700615E-2,5.909903E-3,5.6667805E-2,1.6600227E-1,3.1870216E-2,3.2131824E-1,1.4567578E-1,2.7545688E-1,1.1933148E-1,5.5669785E-1,8.0329233E-1,1.7340797E-1,4.1771412E-2,0E0,0E0,1.7681837E-2,0E0,2.0458162E-2,3.6328316E-2,3.997691E-3,0E0,7.532978E-2,4.2541504E-2,1.22881964E-1,1.2497473E-1,1.3541402E-2,1.5785962E-2,2.1661748E-1,3.9744344E-1,1.5427792E-1,5.7091475E-2,6.922841E-1,7.8556156E-1,1.5360875E-1,4.989946E-2,4.797988E-1,1.0382962E-1,6.4003223E-1,7.336792E-1,5.806759E-2,5.7483613E-2,1.12280875E-1,1.6117692E-2,0E0,0E0,0E0,0E0,0E0,0E0,0E0,0E0,0E0,0E0,0E0,0E0,0E0,0E0,0E0,0E0,0E0,0E0,0E0,0E0,0E0,0E0,0E0,0E0,0E0,0E0,0E0,0E0,0E0,0E0,0E0,0E0,0E0,0E0,0E0,0E0,0E0,0E0,0E0,0E0,0E0,0E0,0E0,0E0,0E0,0E0,0E0,0E0,0E0,0E0,0E0,0E0],"parents":[2147483647,0,0,1,1,2,2,3,3,4,4,5,5,6,6,7,7,8,8,9,9,10,10,11,11,12,12,13,13,14,14,16,16,17,17,18,18,19,19,20,20,21,21,22,22,23,23,24,24,25,25,26,26,27,27,28,28,29,29,30,30,33,33,35,35,36,36,37,37,39,39,40,40,41,41,42,42,43,43,44,44,45,45,46,46,47,47,48,48,49,49,50,50,51,51,52,52,53,53,54,54,55,55,56,56,57,57,58,58,59,59,60,60],"right_children":[2,4,6,8,10,12,14,16,18,20,22,24,26,28,30,-1,32,34,36,38,40,42,44,46,48,50,52,54,56,58,60,-1,-1,62,-1,64,66,68,-1,70,72,74,76,78,80,82,84,86,88,90,92,94,96,98,100,102,104,106,108,110,112,-1,-1,-1,-1,-1,-1,-1,-1,-1,-1,-1,-1,-1,-1,-1,-1,-1,-1,-1,-1,-1,-1,-1,-1,-1,-1,-1,-1,-1,-1,-1,-1,-1,-1,-1,-1,-1,-1,-1,-1,-1,-1,-1,-1,-1,-1,-1,-1,-1,-1,-1,-1],"split_conditions":[3.495332E-1,1.0061426E-1,6.385631E-1,1.8989313E-2,1.8658105E-1,5.112151E-1,2.1474689E-1,4.443316E-3,4.140169E-1,1.0082857E-1,3.489139E-1,3.4153056E-1,2.7830294E-1,1.8256888E-1,6.895292E-1,-1.7672982E-2,4.447167E-3,4.1382962E-1,4.220822E-1,4.465312E-1,4.4215888E-1,1.2807876E-1,2.6240438E-1,3.3847505E-1,3.6201292E-1,5.624112E-1,5.13432E-1,1.6951683E-1,1.920766E-1,2.3437765E-1,2.1500835E-1,-3.1556275E-3,-1.7141052E-2,9.609416E-2,2.9032962E-2,1.00433014E-1,4.2238274E-1,1.0068782E-1,-6.2052016E-3,4.1073632E-1,4.4223943E-1,1.2551439E-1,2.6572293E-1,2.3957536E-1,3.490503E-1,3.0153352E-1,3.864206E-1,3.504672E-1,3.6832154E-1,2.608434E-1,2.4805334E-1,5.132898E-1,5.1419985E-1,8.10153E-1,7.1667683E-1,7.619797E-1,6.898701E-1,2.1501556E-1,2.436111E-1,2.1497086E-1,7.1845263E-1,-1.4466464E-2,-9.037954E-3,-2.0706914E-2,1.3111354E-2,6.733713E-3,-1.5697584E-2,2.1382151E-2,7.0243515E-3,-1.1404655E-2,-1.4242155E-2,2.8740466E-2,-7.5405785E-3,1.066969E-3,5.448157E-2,-9.6481275E-3,-6.7385607E-3,-2.1255638E-2,1.0615634E-2,-2.2241376E-2,-5.4167286E-2,-3.990062E-3,2.2004737E-4,-2.2263614E-2,9.025917E-3,-6.431921E-3,1.6818594E-2,2.4288816E-2,1.1478813E-2,4.4810604E-3,-9.838353E-3,-2.2087728E-3,1.0832209E-2,6.6728736E-3,-4.6236046E-2,3.1155067E-2,1.5406978E-2,3.732687E-3,1.0249473E-2,2.3547614E-2,1.5222756E-2,-9.960156E-3,3.133322E-2,-1.6920577E-3,1.589469E-2,3.4429744E-2,8.3574625E-3,1.7514382E-2,3.1169506E-2,3.6405243E-2,-5.536164E-2,3.662457E-2,1.7485583E-2],"split_indices":[0,0,0,0,0,0,1,0,1,0,0,1,1,1,0,0,0,1,1,1,1,1,1,1,0,0,0,1,1,1,1,0,0,0,0,0,1,0,0,1,1,1,0,1,0,1,0,1,0,1,1,0,0,0,0,0,0,1,1,1,0,0,0,0,0,0,0,0,0,0,0,0,0,0,0,0,0,0,0,0,0,0,0,0,0,0,0,0,0,0,0,0,0,0,0,0,0,0,0,0,0,0,0,0,0,0,0,0,0,0,0,0,0],"split_type":[0,0,0,0,0,0,0,0,0,0,0,0,0,0,0,0,0,0,0,0,0,0,0,0,0,0,0,0,0,0,0,0,0,0,0,0,0,0,0,0,0,0,0,0,0,0,0,0,0,0,0,0,0,0,0,0,0,0,0,0,0,0,0,0,0,0,0,0,0,0,0,0,0,0,0,0,0,0,0,0,0,0,0,0,0,0,0,0,0,0,0,0,0,0,0,0,0,0,0,0,0,0,0,0,0,0,0,0,0,0,0,0,0],"sum_hessian":[6.3108E4,4.6742E4,1.6366E4,3.7608E4,9.134E3,8.477E3,7.889E3,3.291E4,4.698E3,3.63E3,5.504E3,5.039E3,3.438E3,7.306E3,5.83E2,3.1025E4,1.885E3,1.299E3,3.399E3,1E1,3.62E3,5.486E3,1.8E1,4.627E3,4.12E2,2.936E3,5.02E2,5.862E3,1.444E3,4.83E2,1E2,1E0,1.884E3,1.298E3,1E0,1.26E2,3.273E3,9E0,1E0,3.459E3,1.61E2,1.3E2,5.356E3,4E0,1.4E1,4.433E3,1.94E2,1.19E2,2.93E2,1.214E3,1.722E3,3.2E1,4.7E2,5.212E3,6.5E2,5.91E2,8.53E2,3.3E2,1.53E2,3E0,9.7E1,1.235E3,6.3E1,1.25E2,1E0,6E0,3.267E3,3E0,6E0,1.832E3,1.627E3,2E0,1.59E2,1.27E2,3E0,2.55E3,2.806E3,3E0,1E0,4E0,1E1,2.412E3,2.021E3,1.46E2,4.8E1,8.3E1,3.6E1,3.6E1,2.57E2,5.96E2,6.18E2,1.023E3,6.99E2,2.7E1,5E0,1.9E1,4.51E2,1.387E3,3.825E3,2.01E2,4.49E2,5.56E2,3.5E1,4.36E2,4.17E2,7E0,3.23E2,1.13E2,4E1,2E0,1E0,9E1,7E0],"tree_param":{"num_deleted":"0","num_feature":"2","num_nodes":"113","size_leaf_vector":"0"}},{"base_weights":[-2.4893446E-2,-3.7837442E-2,7.653174E-3,-4.0364876E-2,-2.3564419E-2,-3.714222E-3,1.871868E-2,-4.107014E-2,-3.4391895E-2,1.7192911E-2,-2.4058688E-2,-9.791379E-3,2.6761652E-3,1.7022818E-2,6.303868E-2,-3.8558282E-2,-4.1182872E-2,-1.667014E-2,-3.478062E-2,-3.3684978E-3,1.3741517E-1,-2.8292244E-2,-2.0993019E-2,-1.1249984E-2,3.9013457E-2,-1.4097878E-3,4.7614213E-2,-2.365938E-3,2.0605303E-2,4.8274886E-2,8.537789E-2,-3.786059E-2,-4.8741058E-2,-4.1165624E-2,-5.3091127E-2,-3.3736233E-2,3.6837343E-2,-3.6147844E-2,-3.01317E-2,-1.5965393E-2,7.50691E-2,2.111179E-1,1.01562835E-1,1.1264647E-1,-2.848253E-2,-2.4901045E-2,-1.5534323E-2,-1.1069428E-2,-2.72795E-1,9.0312876E-2,3.628267E-2,1.9342501E-1,-1.9025588E-3,3.0915237E-3,5.2399453E-2,1.4415754E-2,-1.020565E-2,1.8007368E-2,5.4867458E-2,2.512434E-2,7.4057534E-2,1.6823873E-2,8.908232E-2,-3.799195E-2,6.334239E-3,-5.6712802E-2,-4.1220386E-2,-4.1168854E-2,3.231635E-2,-5.8665752E-2,-2.8270824E-2,7.064993E-2,-3.7969906E-2,1.6216569E-1,1.6196225E-2,-3.5760794E-2,-5.172444E-2,-3.1851057E-2,-1.2159123E-3,1.6017515E-2,-3.157672E-2,1.2168446E-1,-1.722346E-1,2.6238116E-2,1.7163993E-1,-1.4303081E-2,1.5973067E-1,-2.7981574E-2,-7.73283E-2,-1.8911326E-2,-4.0093467E-2,-2.1604776E-2,2.1483809E-2,-1.9087685E-2,-7.0837606E-3,1.2515037E-1,4.160653E-2,-8.133768E-2,4.0769003E-2,9.249647E-3,-7.952388E-3,-1.4497545E-1,2.0945353E-2,7.922887E-2,4.5256708E-2,7.6494277E-3,5.7521775E-2,-3.3835687E-2,-2.4264972E-3,2.2283275E-2,-4.5746085E-3,3.386927E-2,8.128747E-2,1.1878133E-1,1.8515376E-2,5.285716E-2,1.0241663E-1,5.0540645E-2,-5.621763E-2,8.0150984E-2,1.125343E-1],"categories":[],"categories_nodes":[],"categories_segments":[],"categories_sizes":[],"default_left":[1,1,1,1,1,1,1,1,1,1,1,1,1,1,1,1,1,1,1,1,1,1,1,1,1,1,1,1,1,1,1,1,1,1,1,1,1,1,1,1,1,0,1,1,1,1,1,1,0,1,1,0,1,1,1,1,1,1,1,1,1,1,1,0,0,0,0,0,0,0,0,0,0,0,0,0,0,0,0,0,0,0,0,0,0,0,0,0,0,0,0,0,0,0,0,0,0,0,0,0,0,0,0,0,0,0,0,0,0,0,0,0,0,0,0,0,0,0,0,0,0],"id":7,"left_children":[1,3,5,7,9,11,13,15,17,19,21,23,25,27,29,31,33,35,37,39,41,43,45,47,49,51,53,55,57,59,61,63,65,67,69,71,73,75,77,79,81,-1,83,85,87,89,91,93,-1,95,97,-1,99,101,103,105,107,109,111,113,115,117,119,-1,-1,-1,-1,-1,-1,-1,-1,-1,-1,-1,-1,-1,-1,-1,-1,-1,-1,-1,-1,-1,-1,-1,-1,-1,-1,-1,-1,-1,-1,-1,-1,-1,-1,-1,-1,-1,-1,-1,-1,-1,-1,-1,-1,-1,-1,-1,-1,-1,-1,-1,-1,-1,-1,-1,-1,-1,-1],"loss_changes":[2.6587055E1,1.6278687E0,2.2589345E0,1.6017151E-1,1.3730001E-1,3.4406886E-1,6.8288827E-1,8.125305E-3,2.7369022E-2,2.031619E-1,8.654499E-2,3.236989E-1,7.930993E-1,6.089339E-1,1.0636532E-1,8.733034E-3,4.547119E-3,8.251433E-2,2.4137974E-2,7.135149E-2,1.0267228E-2,7.8756094E-2,8.27682E-2,2.0523453E-1,1.5214801E-2,3.805634E-1,7.6536596E-2,1.8012618E-1,6.57603E-1,1.19903326E-1,3.202313E-2,8.356571E-3,3.1779408E-3,9.105682E-3,4.429482E-3,3.273426E-2,5.4285705E-2,1.6610622E-2,4.5103908E-2,3.1462103E-2,1.362398E-1,0E0,4.828187E-2,2.619392E-2,6.669378E-2,2.0580804E-1,3.6652794E-1,1.407361E-1,0E0,4.9737655E-3,7.0331946E-2,0E0,2.6664332E-1,9.820481E-2,5.8695972E-2,1.2672785E-1,1.7142352E-1,6.6432714E-1,2.8628325E-1,6.526907E-2,5.230397E-2,2.2543067E-2,1.7162502E-2,0E0,0E0,0E0,0E0,0E0,0E0,0E0,0E0,0E0,0E0,0E0,0E0,0E0,0E0,0E0,0E0,0E0,0E0,0E0,0E0,0E0,0E0,0E0,0E0,0E0,0E0,0E0,0E0,0E0,0E0,0E0,0E0,0E0,0E0,0E0,0E0,0E0,0E0,0E0,0E0,0E0,0E0,0E0,0E0,0E0,0E0,0E0,0E0,0E0,0E0,0E0,0E0,0E0,0E0,0E0,0E0,0E0,0E0],"parents":[2147483647,0,0,1,1,2,2,3,3,4,4,5,5,6,6,7,7,8,8,9,9,10,10,11,11,12,12,13,13,14,14,15,15,16,16,17,17,18,18,19,19,20,20,21,21,22,22,23,23,24,24,25,25,26,26,27,27,28,28,29,29,30,30,31,31,32,32,33,33,34,34,35,35,36,36,37,37,38,38,39,39,40,40,42,42,43,43,44,44,45,45,46,46,47,47,49,49,50,50,52,52,53,53,54,54,55,55,56,56,57,57,58,58,59,59,60,60,61,61,62,62],"right_children":[2,4,6,8,10,12,14,16,18,20,22,24,26,28,30,32,34,36,38,40,42,44,46,48,50,52,54,56,58,60,62,64,66,68,70,72,74,76,78,80,82,-1,84,86,88,90,92,94,-1,96,98,-1,100,102,104,106,108,110,112,114,116,118,120,-1,-1,-1,-1,-1,-1,-1,-1,-1,-1,-1,-1,-1,-1,-1,-1,-1,-1,-1,-1,-1,-1,-1,-1,-1,-1,-1,-1,-1,-1,-1,-1,-1,-1,-1,-1,-1,-1,-1,-1,-1,-1,-1,-1,-1,-1,-1,-1,-1,-1,-1,-1,-1,-1,-1,-1,-1,-1],"split_conditions":[3.036965E-1,1.1717604E-1,5.8366394E-1,3.468921E-2,1.0648702E-1,4.4413E-1,2.4886897E-1,4.8561323E-1,2.210053E-1,9.623715E-2,1.8535796E-1,3.642338E-1,3.097329E-1,6.591035E-1,6.0875964E-1,3.3504453E-2,2.5507629E-2,2.0939034E-1,4.547752E-1,2.8241318E-1,9.789446E-2,1.172574E-1,3.731259E-1,4.4407666E-1,3.0420974E-1,4.4472653E-1,4.4894484E-1,2.0338202E-1,2.0688406E-1,2.6082873E-1,2.4947268E-1,3.343354E-2,4.6886182E-1,2.543027E-2,2.8811727E-2,4.5309585E-2,2.1102834E-1,1.1572002E-1,8.371796E-2,3.9840683E-2,9.111925E-2,6.3335374E-2,1.0396808E-1,3.4342766E-1,1.844271E-1,3.5198334E-1,2.7001256E-1,3.495332E-1,-8.18385E-2,3.690803E-1,3.043415E-1,5.8027506E-2,2.608434E-1,3.1123224E-1,3.123598E-1,1.9711897E-1,2.1772489E-1,1.8255457E-1,6.850283E-1,2.4934062E-1,5.9379005E-1,2.4933903E-1,2.589226E-1,-1.1397585E-2,1.9002719E-3,-1.7013842E-2,-1.2366116E-2,-1.2350657E-2,9.694905E-3,-1.7599726E-2,-8.481247E-3,2.119498E-2,-1.1390972E-2,4.864971E-2,4.8588677E-3,-1.0728238E-2,-1.5517333E-2,-9.555317E-3,-3.647737E-4,4.8052547E-3,-9.4730165E-3,3.650534E-2,-5.167038E-2,7.871435E-3,5.1491983E-2,-4.2909244E-3,4.7919203E-2,-8.394472E-3,-2.3198491E-2,-5.6733983E-3,-1.202804E-2,-6.4814333E-3,6.445143E-3,-5.726306E-3,-2.1251282E-3,3.754511E-2,1.248196E-2,-2.4401305E-2,1.2230702E-2,2.7748942E-3,-2.3857167E-3,-4.3492638E-2,6.2836064E-3,2.3768662E-2,1.3577013E-2,2.2948284E-3,1.7256534E-2,-1.0150706E-2,-7.279492E-4,6.6849827E-3,-1.3723826E-3,1.0160781E-2,2.4386244E-2,3.56344E-2,5.554613E-3,1.5857149E-2,3.072499E-2,1.5162194E-2,-1.6865289E-2,2.4045296E-2,3.376029E-2],"split_indices":[0,0,0,0,1,0,1,1,1,1,0,1,1,0,0,0,0,1,1,0,1,0,1,0,0,0,0,1,1,1,1,0,1,0,0,0,1,0,0,1,1,0,1,1,0,1,0,0,0,1,0,0,1,1,1,1,1,1,0,1,0,1,1,0,0,0,0,0,0,0,0,0,0,0,0,0,0,0,0,0,0,0,0,0,0,0,0,0,0,0,0,0,0,0,0,0,0,0,0,0,0,0,0,0,0,0,0,0,0,0,0,0,0,0,0,0,0,0,0,0,0],"split_type":[0,0,0,0,0,0,0,0,0,0,0,0,0,0,0,0,0,0,0,0,0,0,0,0,0,0,0,0,0,0,0,0,0,0,0,0,0,0,0,0,0,0,0,0,0,0,0,0,0,0,0,0,0,0,0,0,0,0,0,0,0,0,0,0,0,0,0,0,0,0,0,0,0,0,0,0,0,0,0,0,0,0,0,0,0,0,0,0,0,0,0,0,0,0,0,0,0,0,0,0,0,0,0,0,0,0,0,0,0,0,0,0,0,0,0,0,0,0,0,0,0],"sum_hessian":[6.3108E4,4.5151E4,1.7957E4,3.8357E4,6.794E3,8.858E3,9.099E3,3.4301E4,4.056E3,8.1E1,6.713E3,4.54E3,4.318E3,8.765E3,3.34E2,1.488E3,3.2813E4,8.8E1,3.968E3,7E1,1.1E1,2.816E3,3.897E3,4.409E3,1.31E2,3.959E3,3.59E2,1.367E3,7.398E3,2.03E2,1.31E2,1.397E3,9.1E1,3.277E4,4.3E1,6.7E1,2.1E1,3.061E3,9.07E2,6.1E1,9E0,2E0,9E0,3E0,2.813E3,2.269E3,1.628E3,4.407E3,2E0,5E0,1.26E2,9E0,3.95E3,3.5E1,3.24E2,4.35E2,9.32E2,6.878E3,5.2E2,1.08E2,9.5E1,7E0,1.24E2,1.393E3,4E0,4.1E1,5E1,3.2769E4,1E0,3.4E1,9E0,2E0,6.5E1,2E0,1.9E1,2.99E3,7.1E1,8.56E2,5.1E1,2E1,4.1E1,8E0,1E0,5E0,4E0,1E0,2E0,2.786E3,2.7E1,1.629E3,6.4E2,1.399E3,2.29E2,1.462E3,2.945E3,2E0,3E0,4E0,1.22E2,1.389E3,2.561E3,3E0,3.2E1,6.6E1,2.58E2,3.77E2,5.8E1,2.3E2,7.02E2,5.783E3,1.095E3,2.91E2,2.29E2,6E0,1.02E2,5.6E1,3.9E1,5E0,2E0,9.3E1,3.1E1],"tree_param":{"num_deleted":"0","num_feature":"2","num_nodes":"121","size_leaf_vector":"0"}},{"base_weights":[-1.7421355E-2,-2.611195E-2,6.396397E-3,-2.8182069E-2,-1.5114466E-2,-8.472939E-4,1.3863395E-2,-2.8719315E-2,-2.3189975E-2,-1.4776242E-2,-7.4858874E-2,-1.713684E-3,3.233377E-2,1.3148334E-2,5.705634E-2,8.912408E-2,-2.8725207E-2,-2.2644868E-2,-6.0443524E-2,-1.4913838E-2,1.3045458E-1,-1.2627965E-1,-4.9226835E-2,-1.045489E-2,1.7596779E-3,-1.6735522E-1,3.495753E-2,1.2447313E-2,4.7741715E-2,9.3989916E-2,5.3349733E-2,-2.8712865E-2,-4.7114935E-2,1.2764226E-3,-2.2904312E-2,-7.602927E-2,4.4236332E-4,-1.4696013E-2,-8.301299E-2,1.4361319E-1,2.5751486E-2,-2.1608773E-1,-4.3138653E-2,5.6777347E-2,-7.367676E-2,5.742724E-2,-1.1642856E-2,3.331806E-4,4.4493742E-2,6.7137785E-2,2.8363906E-2,5.462471E-3,1.4661037E-2,5.3070053E-2,1.4892506E-2,9.8764725E-2,2.312094E-2,-1.9112134E-1,5.6862578E-2,-2.8850777E-2,-2.6934097E-2,-3.2957524E-2,-6.390257E-2,-1.1062989E-2,5.355937E-2,-1.7107083E-2,-2.3896059E-2,-1.1306206E-1,-5.9766058E-2,6.337138E-2,-2.7575241E-2,-1.4817043E-2,9.685519E-2,-1.0442181E-1,4.4784337E-2,-5.8254786E-2,3.1337142E-2,1.1348838E-1,-3.7763152E-2,1.6643982E-2,-1.289788E-1,1.9812773E-1,3.2381956E-2,-1.1345952E-2,-2.3855568E-1,1.4584105E-1,1.8202442E-4,3.4735285E-2,7.246278E-2,-3.5625577E-2,7.42305E-2,3.6430017E-3,5.1205136E-2,6.2859985E-3,-1.00093655E-1,1.2946121E-2,7.215409E-2,4.618562E-2,7.297241E-2,-1.2485681E-1,6.8412095E-2,-3.2003958E-2,5.8581732E-2],"categories":[],"categories_nodes":[],"categories_segments":[],"categories_sizes":[],"default_left":[1,1,1,1,1,1,1,1,1,1,1,1,1,1,1,0,1,1,1,1,1,1,1,1,1,0,1,1,1,1,1,1,1,1,1,1,1,1,1,0,0,0,1,1,1,1,1,1,1,1,1,1,1,1,1,0,0,0,1,0,0,0,0,0,0,0,0,0,0,0,0,0,0,0,0,0,0,0,0,0,0,0,0,0,0,0,0,0,0,0,0,0,0,0,0,0,0,0,0,0,0,0,0],"id":8,"left_children":[1,3,5,7,9,11,13,15,17,19,21,23,25,27,29,-1,31,33,35,37,39,41,43,45,47,-1,49,51,53,55,57,59,61,63,65,67,69,71,73,-1,-1,-1,75,77,79,81,83,85,87,89,91,93,95,97,99,-1,-1,-1,101,-1,-1,-1,-1,-1,-1,-1,-1,-1,-1,-1,-1,-1,-1,-1,-1,-1,-1,-1,-1,-1,-1,-1,-1,-1,-1,-1,-1,-1,-1,-1,-1,-1,-1,-1,-1,-1,-1,-1,-1,-1,-1,-1,-1],"loss_changes":[1.3063126E1,1.0522327E0,9.125949E-1,1.03694916E-1,1.4695036E-1,2.4627984E-1,2.5584733E-1,2.6950836E-2,7.551408E-2,1.4756358E-1,4.782246E-2,2.5347513E-1,1.2006858E-1,1.9763076E-1,1.3466924E-2,0E0,6.620407E-3,2.3197055E-2,5.127707E-2,1.06784225E-1,5.945973E-3,8.77458E-2,7.934522E-2,1.9211191E-1,3.6422133E-1,0E0,4.392758E-2,1.2382102E-1,2.7564794E-2,1.4387146E-3,1.1821619E-1,7.833481E-3,3.1226575E-3,2.7043298E-2,2.0823598E-2,1.9140422E-2,2.2904927E-2,9.943974E-2,6.760423E-2,0E0,0E0,0E0,1.0831827E-2,3.6454618E-2,1.2202485E-1,1.3806346E-1,1.5453836E-1,1.2716714E-1,5.0159425E-2,2.8883874E-2,1.02016166E-1,1.6840103E-1,5.989224E-1,1.5675038E-2,1.8804553E-1,0E0,0E0,0E0,2.0819008E-2,0E0,0E0,0E0,0E0,0E0,0E0,0E0,0E0,0E0,0E0,0E0,0E0,0E0,0E0,0E0,0E0,0E0,0E0,0E0,0E0,0E0,0E0,0E0,0E0,0E0,0E0,0E0,0E0,0E0,0E0,0E0,0E0,0E0,0E0,0E0,0E0,0E0,0E0,0E0,0E0,0E0,0E0,0E0,0E0],"parents":[2147483647,0,0,1,1,2,2,3,3,4,4,5,5,6,6,7,7,8,8,9,9,10,10,11,11,12,12,13,13,14,14,16,16,17,17,18,18,19,19,20,20,21,21,22,22,23,23,24,24,26,26,27,27,28,28,29,29,30,30,31,31,32,32,33,33,34,34,35,35,36,36,37,37,38,38,42,42,43,43,44,44,45,45,46,46,47,47,48,48,49,49,50,50,51,51,52,52,53,53,54,54,58,58],"right_children":[2,4,6,8,10,12,14,16,18,20,22,24,26,28,30,-1,32,34,36,38,40,42,44,46,48,-1,50,52,54,56,58,60,62,64,66,68,70,72,74,-1,-1,-1,76,78,80,82,84,86,88,90,92,94,96,98,100,-1,-1,-1,102,-1,-1,-1,-1,-1,-1,-1,-1,-1,-1,-1,-1,-1,-1,-1,-1,-1,-1,-1,-1,-1,-1,-1,-1,-1,-1,-1,-1,-1,-1,-1,-1,-1,-1,-1,-1,-1,-1,-1,-1,-1,-1,-1,-1],"split_conditions":[3.3572277E-1,1.3034853E-1,6.209481E-1,4.9552113E-2,3.3461326E-1,3.4827006E-1,2.436111E-1,2.0270509E-1,1.2886102E-1,3.344917E-1,3.2404235E-1,4.1162226E-1,3.3597708E-1,9.6304107E-1,2.4409585E-1,2.6737226E-2,4.897145E-2,5.0357338E-2,4.3075544E-1,3.3368504E-1,3.5522452E-1,3.3493352E-1,3.348412E-1,3.368553E-1,3.2234693E-1,-5.0206568E-2,3.488643E-1,7.019292E-1,9.834287E-1,6.773449E-1,2.4412596E-1,1.5873393E-2,4.596154E-1,5.0267655E-2,3.291477E-1,1.2923506E-1,4.339704E-1,3.335419E-1,3.6034358E-1,4.308396E-2,7.725446E-3,-6.4826325E-2,3.3561787E-1,3.5855824E-1,3.378873E-1,1.9753973E-1,4.1156983E-1,4.3020826E-3,4.4023073E-1,3.4420192E-1,3.5229433E-1,7.015091E-1,2.0065166E-1,2.8420419E-2,9.855391E-1,2.9629419E-2,6.9362824E-3,-5.7336405E-2,6.2123656E-1,-8.655233E-3,-8.080229E-3,-9.887258E-3,-1.9170772E-2,-3.3188967E-3,1.6067812E-2,-5.1321248E-3,-7.168818E-3,-3.391862E-2,-1.7929818E-2,1.9011416E-2,-8.272572E-3,-4.4451132E-3,2.9056558E-2,-3.1326544E-2,1.3435301E-2,-1.7476436E-2,9.401143E-3,3.4046516E-2,-1.1328946E-2,4.9931947E-3,-3.8693644E-2,5.943832E-2,9.714587E-3,-3.4037856E-3,-7.156671E-2,4.3752316E-2,5.4607328E-5,1.0420586E-2,2.1738835E-2,-1.0687673E-2,2.226915E-2,1.0929005E-3,1.5361541E-2,1.8857996E-3,-3.0028097E-2,3.8838366E-3,2.1646228E-2,1.3855686E-2,2.1891724E-2,-3.7457045E-2,2.052363E-2,-9.601188E-3,1.757452E-2],"split_indices":[0,0,0,0,0,1,1,1,0,0,1,0,0,0,1,0,0,0,1,0,1,0,0,0,1,0,1,0,0,0,1,0,1,0,1,0,1,0,1,0,0,0,0,1,1,1,0,1,0,0,1,0,1,1,0,0,0,0,0,0,0,0,0,0,0,0,0,0,0,0,0,0,0,0,0,0,0,0,0,0,0,0,0,0,0,0,0,0,0,0,0,0,0,0,0,0,0,0,0,0,0,0,0],"split_type":[0,0,0,0,0,0,0,0,0,0,0,0,0,0,0,0,0,0,0,0,0,0,0,0,0,0,0,0,0,0,0,0,0,0,0,0,0,0,0,0,0,0,0,0,0,0,0,0,0,0,0,0,0,0,0,0,0,0,0,0,0,0,0,0,0,0,0,0,0,0,0,0,0,0,0,0,0,0,0,0,0,0,0,0,0,0,0,0,0,0,0,0,0,0,0,0,0,0,0,0,0,0,0],"sum_hessian":[6.3108E4,4.6237E4,1.6871E4,3.8911E4,7.326E3,8.564E3,8.307E3,3.5126E4,3.785E3,7.286E3,4E1,8.347E3,2.17E2,8.173E3,1.34E2,1E0,3.5125E4,3.732E3,5.3E1,7.28E3,6E0,1.2E1,2.8E1,2.373E3,5.974E3,2E0,2.15E2,8.012E3,1.61E2,1E1,1.24E2,3.5104E4,2.1E1,4E1,3.692E3,4.2E1,1.1E1,7.258E3,2.2E1,5E0,1E0,5E0,7E0,5E0,2.3E1,4E1,2.333E3,5.782E3,1.92E2,3.5E1,1.8E2,1.929E3,6.083E3,1.38E2,2.3E1,9E0,1E0,1E0,1.23E2,3.2564E4,2.54E3,1.3E1,8E0,3.3E1,7E0,5.42E2,3.15E3,1.1E1,3.1E1,3E0,8E0,7.251E3,7E0,1.9E1,3E0,6E0,1E0,3E0,2E0,9E0,1.4E1,5E0,3.5E1,2.331E3,2E0,5E0,5.777E3,1.44E2,4.8E1,2E0,3.3E1,8.7E1,9.3E1,1.915E3,1.4E1,5.908E3,1.75E2,1.05E2,3.3E1,6E0,1.7E1,2E0,1.21E2],"tree_param":{"num_deleted":"0","num_feature":"2","num_nodes":"103","size_leaf_vector":"0"}},{"base_weights":[-1.2195498E-2,-1.8787408E-2,3.5113355E-3,-1.9947065E-2,-1.291637E-2,-3.3959793E-3,8.645992E-3,-1.5661314E-2,-2.0088084E-2,-1.2695973E-2,-4.0834848E-2,-4.6009053E-3,2.989907E-2,7.12291E-3,4.1066434E-2,-1.609244E-2,3.6691517E-2,-3.3296444E-2,-2.005325E-2,-1.2804235E-2,1.2067027E-1,-1.4006431E-1,-3.0703107E-2,-3.3886866E-3,-1.9322319E-2,7.439689E-2,2.6161266E-2,8.596763E-3,-2.3479393E-2,1.3423654E-1,3.8594987E-2,-1.5715668E-2,-6.923112E-2,-1.8395336E-2,7.6481976E-2,-1.5056099E-2,-4.015007E-2,4.545813E-2,-2.0065488E-2,-1.2684866E-2,-8.398571E-2,1.7078497E-1,5.2916676E-2,1.5419438E-1,-3.7224106E-2,-4.6492345E-3,1.3321641E-2,-2.9800145E-2,1.6431816E-2,1.513492E-2,1.3807157E-1,-5.059002E-3,3.627376E-2,6.6219876E-3,1.7058484E-2,-5.1221132E-2,3.782539E-2,1.6523045E-1,5.779897E-2,2.5081217E-2,4.306662E-2,-1.8021721E-2,-8.615454E-3,-7.9287946E-2,-2.604044E-2,-2.4008034E-2,-6.6508614E-3,1.208204E-1,4.3450207E-2,-3.2065745E-2,5.7285777E-3,-2.5724681E-2,-4.4540208E-2,9.6795075E-2,5.5643395E-3,-2.3832215E-2,-1.9989874E-2,1.3018389E-2,-1.2962095E-2,-1.0709619E-1,8.511479E-2,-4.543807E-2,2.2071093E-2,-2.5744925E-3,-2.7599439E-2,3.1184433E-3,4.579133E-2,8.714548E-2,-3.15688E-2,-5.7892676E-2,3.249869E-2,5.517369E-2,-3.4099463E-2,3.0861855E-2,1.4655466E-1,7.5645914E-4,-1.23558864E-1,8.388763E-2,2.941907E-2,-1.4833914E-2,8.681051E-3,1.26288375E-2,4.3538187E-2,-8.60258E-2,-1.2241787E-2,8.420844E-3,7.005009E-2,3.459166E-2,1.7895147E-1,1.3022333E-2,6.5737545E-2,3.1267762E-2,-7.837034E-2,9.341243E-2,4.0224433E-2],"categories":[],"categories_nodes":[],"categories_segments":[],"categories_sizes":[],"default_left":[1,1,1,1,1,1,1,1,1,1,1,1,1,1,1,1,1,1,1,1,1,0,1,1,1,1,1,1,1,1,1,1,1,1,1,1,1,1,1,1,1,0,0,0,1,1,1,1,1,1,1,1,1,1,1,1,1,1,1,1,1,0,0,0,0,0,0,0,0,0,0,0,0,0,0,0,0,0,0,0,0,0,0,0,0,0,0,0,0,0,0,0,0,0,0,0,0,0,0,0,0,0,0,0,0,0,0,0,0,0,0,0,0,0,0],"id":9,"left_children":[1,3,5,7,9,11,13,15,17,19,21,23,25,27,29,31,33,35,37,39,41,-1,43,45,47,49,51,53,55,57,59,61,63,65,67,69,71,73,75,77,79,-1,-1,-1,81,83,85,87,89,91,93,95,97,99,101,103,105,107,109,111,113,-1,-1,-1,-1,-1,-1,-1,-1,-1,-1,-1,-1,-1,-1,-1,-1,-1,-1,-1,-1,-1,-1,-1,-1,-1,-1,-1,-1,-1,-1,-1,-1,-1,-1,-1,-1,-1,-1,-1,-1,-1,-1,-1,-1,-1,-1,-1,-1,-1,-1,-1,-1,-1,-1],"loss_changes":[6.5342484E0,3.0239582E-1,6.6173124E-1,2.2119522E-2,4.461491E-2,3.19317E-1,5.281611E-1,2.7381867E-2,1.5864372E-2,1.0664332E-1,5.3005524E-2,1.3697068E-1,4.429178E-2,4.6129274E-1,1.0534626E-1,2.2496998E-2,2.3326222E-2,1.1021651E-2,2.9644966E-2,6.0741425E-2,1.1335328E-2,0E0,6.964271E-2,1.4953324E-1,2.1927103E-1,7.7153526E-2,8.1637934E-2,1.6287637E-1,8.0126715E-1,1.8879041E-2,2.72609E-2,1.9018084E-2,1.4101975E-3,1.6991666E-4,3.5377853E-3,9.729271E-3,3.0972883E-3,1.37975775E-2,9.730339E-3,5.192256E-2,5.6011394E-2,0E0,0E0,0E0,2.632939E-2,3.1414527E-1,1.6484194E-1,9.624109E-2,1.6070502E-1,2.5536805E-2,4.5717508E-3,4.4197872E-2,6.1175883E-2,3.4958518E-1,2.1586072E-1,4.3850577E-1,1.3870035E-1,8.149758E-3,9.2125684E-4,7.861139E-2,4.64679E-2,0E0,0E0,0E0,0E0,0E0,0E0,0E0,0E0,0E0,0E0,0E0,0E0,0E0,0E0,0E0,0E0,0E0,0E0,0E0,0E0,0E0,0E0,0E0,0E0,0E0,0E0,0E0,0E0,0E0,0E0,0E0,0E0,0E0,0E0,0E0,0E0,0E0,0E0,0E0,0E0,0E0,0E0,0E0,0E0,0E0,0E0,0E0,0E0,0E0,0E0,0E0,0E0,0E0,0E0],"parents":[2147483647,0,0,1,1,2,2,3,3,4,4,5,5,6,6,7,7,8,8,9,9,10,10,11,11,12,12,13,13,14,14,15,15,16,16,17,17,18,18,19,19,20,20,22,22,23,23,24,24,25,25,26,26,27,27,28,28,29,29,30,30,31,31,32,32,33,33,34,34,35,35,36,36,37,37,38,38,39,39,40,40,44,44,45,45,46,46,47,47,48,48,49,49,50,50,51,51,52,52,53,53,54,54,55,55,56,56,57,57,58,58,59,59,60,60],"right_children":[2,4,6,8,10,12,14,16,18,20,22,24,26,28,30,32,34,36,38,40,42,-1,44,46,48,50,52,54,56,58,60,62,64,66,68,70,72,74,76,78,80,-1,-1,-1,82,84,86,88,90,92,94,96,98,100,102,104,106,108,110,112,114,-1,-1,-1,-1,-1,-1,-1,-1,-1,-1,-1,-1,-1,-1,-1,-1,-1,-1,-1,-1,-1,-1,-1,-1,-1,-1,-1,-1,-1,-1,-1,-1,-1,-1,-1,-1,-1,-1,-1,-1,-1,-1,-1,-1,-1,-1,-1,-1,-1,-1,-1,-1,-1,-1],"split_conditions":[2.8259844E-1,9.0483844E-2,5.301709E-1,4.132543E-1,2.8067717E-1,3.661579E-1,2.6973683E-1,4.1251624E-1,4.198848E-1,2.8050697E-1,2.8077167E-1,3.5011765E-1,3.666759E-1,2.6069108E-1,2.7009177E-1,9.019641E-2,4.1086167E-2,3.1628653E-2,4.2064303E-1,2.7998048E-1,3.6875203E-1,-4.2019296E-2,2.8079557E-1,3.4403238E-1,3.3597708E-1,3.6641127E-1,3.6885586E-1,8.854286E-1,5.720118E-1,5.622883E-1,2.7418262E-1,7.2153755E-2,3.7608445E-1,2.0509845E-2,4.3520868E-2,1.8984161E-2,4.1502002E-1,4.0213063E-2,4.47598E-1,1.0680251E-1,3.7280548E-1,5.1235493E-2,1.5875004E-2,4.6258315E-2,3.7891647E-1,3.3851486E-1,3.8102594E-1,2.842297E-1,3.5111833E-1,3.6630493E-1,2.8801042E-1,3.6884755E-1,3.6985856E-1,9.290774E-2,7.37368E-2,2.636029E-1,5.9054786E-1,5.349673E-1,5.765991E-1,2.7402413E-1,5.314388E-1,-5.4065166E-3,-2.5846362E-3,-2.3786385E-2,-7.8121326E-3,-7.2024106E-3,-1.9952585E-3,3.624612E-2,1.3035063E-2,-9.619724E-3,1.7185734E-3,-7.7174045E-3,-1.3362063E-2,2.9038524E-2,1.6693019E-3,-7.1496647E-3,-5.9969625E-3,3.9055168E-3,-3.8886287E-3,-3.212886E-2,2.5534438E-2,-1.3631421E-2,6.621328E-3,-7.723478E-4,-8.279832E-3,9.35533E-4,1.37374E-2,2.6143644E-2,-9.47064E-3,-1.7367804E-2,9.749608E-3,1.6552107E-2,-1.0229839E-2,9.258557E-3,4.39664E-2,2.2693774E-4,-3.706766E-2,2.516629E-2,8.825721E-3,-4.4501745E-3,2.6043155E-3,3.7886514E-3,1.3061456E-2,-2.580774E-2,-3.6725362E-3,2.5262532E-3,2.1015028E-2,1.0377498E-2,5.3685445E-2,3.9067003E-3,1.9721264E-2,9.380329E-3,-2.3511102E-2,2.802373E-2,1.206733E-2],"split_indices":[0,0,0,1,0,1,1,1,1,0,0,1,1,1,1,0,0,0,1,0,1,0,0,1,0,1,1,0,0,0,1,0,1,0,0,0,1,0,1,1,1,0,0,0,1,1,0,0,1,1,0,1,1,1,1,1,0,0,0,1,0,0,0,0,0,0,0,0,0,0,0,0,0,0,0,0,0,0,0,0,0,0,0,0,0,0,0,0,0,0,0,0,0,0,0,0,0,0,0,0,0,0,0,0,0,0,0,0,0,0,0,0,0,0,0],"split_type":[0,0,0,0,0,0,0,0,0,0,0,0,0,0,0,0,0,0,0,0,0,0,0,0,0,0,0,0,0,0,0,0,0,0,0,0,0,0,0,0,0,0,0,0,0,0,0,0,0,0,0,0,0,0,0,0,0,0,0,0,0,0,0,0,0,0,0,0,0,0,0,0,0,0,0,0,0,0,0,0,0,0,0,0,0,0,0,0,0,0,0,0,0,0,0,0,0,0,0,0,0,0,0,0,0,0,0,0,0,0,0,0,0,0,0],"sum_hessian":[6.3108E4,4.4452E4,1.8656E4,3.7118E4,7.334E3,7.955E3,1.0701E4,1.186E3,3.5932E4,7.278E3,5.6E1,7.678E3,2.77E2,1.0222E4,4.79E2,1.177E3,9E0,9.2E1,3.584E4,7.273E3,5E0,4E0,5.2E1,7.095E3,5.83E2,2E1,2.57E2,9.753E3,4.69E2,1.1E1,4.68E2,1.17E3,7E0,4E0,5E0,2.6E1,6.6E1,6E0,3.5834E4,7.262E3,1.1E1,2E0,3E0,1E0,5.1E1,6.598E3,4.97E2,4.51E2,1.32E2,1.1E1,9E0,6.3E1,1.94E2,7.909E3,1.844E3,3.23E2,1.46E2,7E0,4E0,1.18E2,3.5E2,8.82E2,2.88E2,5E0,2E0,2E0,2E0,1E0,4E0,1.4E1,1.2E1,1.7E1,4.9E1,2E0,4E0,6.99E2,3.5135E4,7.7E1,7.185E3,1E1,1E0,4.5E1,6E0,6.052E3,5.46E2,3.79E2,1.18E2,6E0,4.45E2,2.3E1,1.09E2,6E0,5E0,1E0,8E0,6.1E1,2E0,2.3E1,1.71E2,6.92E2,7.217E3,1.581E3,2.63E2,1.7E2,1.53E2,7.7E1,6.9E1,1E0,6E0,1E0,3E0,1.12E2,6E0,1.7E1,3.33E2],"tree_param":{"num_deleted":"0","num_feature":"2","num_nodes":"115","size_leaf_vector":"0"}},{"base_weights":[-8.533028E-3,-1.3364541E-2,2.1217621E-3,-1.3823632E-2,-8.121076E-3,-2.969325E-3,5.8801165E-3,-1.3807622E-2,-8.329078E-2,-8.55673E-3,4.820158E-2,-3.9913384E-3,2.350413E-2,4.353223E-3,2.5339024E-2,-1.1963055E-2,-1.4173949E-2,-1.03072375E-1,-4.6851024E-2,-7.87002E-3,-4.087539E-2,1.7676404E-2,6.012395E-2,-3.8796416E-3,-1.8300273E-1,1.02372386E-1,2.1880884E-2,5.9840125E-3,-2.3360899E-2,6.1850797E-2,2.3592481E-2,-1.1333825E-2,-1.9431619E-2,-1.4142314E-2,-2.0934252E-2,6.697525E-2,-9.20514E-2,-8.234178E-3,5.7383355E-2,-1.221746E-1,-1.3525187E-2,3.7761316E-2,-7.150145E-2,-3.8173757E-3,-1.6960429E-1,-1.3267028E-1,2.3334084E-2,4.71952E-3,2.2309382E-2,-8.952887E-2,-9.504854E-3,1.7625E-1,4.6572927E-2,9.589021E-3,3.054936E-2,-1.1754126E-2,3.067464E-3,-2.4858357E-2,3.8977448E-2,-1.4145671E-2,4.8559047E-2,-2.3338804E-2,-9.366117E-3,2.340359E-3,-1.0064633E-2,1.1296682E-1,3.990103E-2,5.9864312E-2,-1.364042E-1,-3.7265148E-2,4.6670042E-2,4.8868652E-2,2.9595394E-3,3.543976E-3,-5.2206847E-3,4.0599786E-2,1.6224794E-2,-1.18764965E-2,7.2359303E-3,6.831982E-2,1.4339915E-2,-9.895439E-2,5.1178582E-2,-2.6519569E-2,3.703152E-2,-7.99677E-2,5.6980707E-2,-2.1161264E-2,3.1491242E-2,1.7936991E-1,2.9639034E-2],"categories":[],"categories_nodes":[],"categories_segments":[],"categories_sizes":[],"default_left":[1,1,1,1,1,1,1,1,1,1,1,1,1,1,1,1,1,0,1,1,1,1,0,1,0,0,1,1,1,1,1,1,1,1,1,0,0,1,1,1,1,1,0,1,0,0,1,1,1,1,1,0,1,1,1,0,0,0,0,0,0,0,0,0,0,0,0,0,0,0,0,0,0,0,0,0,0,0,0,0,0,0,0,0,0,0,0,0,0,0,0],"id":10,"left_children":[1,3,5,7,9,11,13,15,17,19,21,23,25,27,29,31,33,-1,35,37,39,41,-1,43,-1,-1,45,47,49,51,53,55,57,59,61,-1,-1,63,65,67,69,71,-1,73,-1,-1,75,77,79,81,83,-1,85,87,89,-1,-1,-1,-1,-1,-1,-1,-1,-1,-1,-1,-1,-1,-1,-1,-1,-1,-1,-1,-1,-1,-1,-1,-1,-1,-1,-1,-1,-1,-1,-1,-1,-1,-1,-1,-1],"loss_changes":[3.2488012E0,1.0440922E-1,3.7676805E-1,4.3250084E-2,8.624354E-2,2.2636509E-1,3.3646366E-1,2.6802063E-2,1.6584806E-3,7.6734304E-2,8.763395E-3,1.6030988E-1,3.7575036E-2,4.7492272E-1,5.1086783E-2,3.0890107E-2,6.8249702E-3,0E0,3.1890124E-2,8.1288755E-2,1.5844314E-1,1.8820154E-2,0E0,8.2410105E-2,0E0,0E0,7.182141E-2,2.0471755E-1,5.345758E-1,5.6459233E-2,7.647428E-2,3.7007034E-2,1.6357493E-1,7.66325E-3,4.037276E-3,0E0,0E0,6.550561E-2,1.3955347E-2,5.4791868E-2,8.0335945E-2,2.947812E-3,0E0,8.3146036E-2,0E0,0E0,3.6656335E-2,3.847175E-1,2.6046214E-1,1.3901448E-1,3.842148E-1,0E0,4.9334854E-2,1.7779678E-1,6.594366E-2,0E0,0E0,0E0,0E0,0E0,0E0,0E0,0E0,0E0,0E0,0E0,0E0,0E0,0E0,0E0,0E0,0E0,0E0,0E0,0E0,0E0,0E0,0E0,0E0,0E0,0E0,0E0,0E0,0E0,0E0,0E0,0E0,0E0,0E0,0E0,0E0],"parents":[2147483647,0,0,1,1,2,2,3,3,4,4,5,5,6,6,7,7,8,8,9,9,10,10,11,11,12,12,13,13,14,14,15,15,16,16,18,18,19,19,20,20,21,21,23,23,26,26,27,27,28,28,29,29,30,30,31,31,32,32,33,33,34,34,37,37,38,38,39,39,40,40,41,41,43,43,46,46,47,47,48,48,49,49,50,50,52,52,53,53,54,54],"right_children":[2,4,6,8,10,12,14,16,18,20,22,24,26,28,30,32,34,-1,36,38,40,42,-1,44,-1,-1,46,48,50,52,54,56,58,60,62,-1,-1,64,66,68,70,72,-1,74,-1,-1,76,78,80,82,84,-1,86,88,90,-1,-1,-1,-1,-1,-1,-1,-1,-1,-1,-1,-1,-1,-1,-1,-1,-1,-1,-1,-1,-1,-1,-1,-1,-1,-1,-1,-1,-1,-1,-1,-1,-1,-1,-1,-1],"split_conditions":[2.538303E-1,1.5448867E-1,5.112151E-1,1.5423661E-1,4.2570576E-1,3.7958968E-1,2.6973683E-1,4.7803545E-1,4.182313E-1,2.5218165E-1,1.5574983E-1,3.7947583E-1,3.7967265E-1,2.6069108E-1,2.7057016E-1,1.4255832E-1,2.8920956E-2,-3.0921714E-2,1.5436175E-1,2.5170493E-1,2.5249434E-1,1.5553309E-1,1.8037185E-2,5.111746E-1,-5.490082E-2,3.0711716E-2,3.797427E-1,2.4805334E-1,2.6150957E-1,5.148792E-1,2.775895E-1,1.3781413E-1,4.270456E-1,2.8913446E-2,3.463289E-2,2.0092577E-2,-2.7615422E-2,2.8315613E-1,2.5177473E-1,3.0338395E-1,3.8760924E-1,1.5508372E-1,-2.1450436E-2,2.601639E-1,-5.088129E-2,-3.9801087E-2,2.602092E-1,6.331856E-1,5.4041725E-1,5.874628E-1,5.720118E-1,5.2875E-2,5.1692927E-1,5.368964E-1,2.776322E-1,-3.526238E-3,9.2023925E-4,-7.4575073E-3,1.1693235E-2,-4.2437017E-3,1.4567715E-2,-7.0016417E-3,-2.8098354E-3,7.021077E-4,-3.01939E-3,3.3890046E-2,1.197031E-2,1.7959295E-2,-4.0921263E-2,-1.1179545E-2,1.4001013E-2,1.4660596E-2,8.878619E-4,1.0631928E-3,-1.5662055E-3,1.2179936E-2,4.867438E-3,-3.5629491E-3,2.1707793E-3,2.0495947E-2,4.3019745E-3,-2.9686317E-2,1.5353575E-2,-7.955871E-3,1.1109456E-2,-2.399031E-2,1.7094214E-2,-6.3483794E-3,9.447373E-3,5.3810976E-2,8.89171E-3],"split_indices":[0,0,0,0,1,1,1,1,1,0,0,1,1,1,1,0,0,0,0,0,0,0,0,0,0,0,1,1,1,0,1,0,1,0,0,0,0,1,0,1,1,0,0,1,0,0,0,0,0,0,0,0,0,0,1,0,0,0,0,0,0,0,0,0,0,0,0,0,0,0,0,0,0,0,0,0,0,0,0,0,0,0,0,0,0,0,0,0,0,0,0],"split_type":[0,0,0,0,0,0,0,0,0,0,0,0,0,0,0,0,0,0,0,0,0,0,0,0,0,0,0,0,0,0,0,0,0,0,0,0,0,0,0,0,0,0,0,0,0,0,0,0,0,0,0,0,0,0,0,0,0,0,0,0,0,0,0,0,0,0,0,0,0,0,0,0,0,0,0,0,0,0,0,0,0,0,0,0,0,0,0,0,0,0,0],"sum_hessian":[6.3108E4,4.3419E4,1.9689E4,3.9922E4,3.497E3,8.362E3,1.1327E4,3.9914E4,8E0,3.471E3,2.6E1,8.052E3,3.1E2,1.0504E4,8.23E2,6.619E3,3.3295E4,4E0,4E0,3.4E3,7.1E1,8E0,1.8E1,8.048E3,4E0,5E0,3.05E2,9.921E3,5.83E2,3.6E1,7.87E2,6.107E3,5.12E2,3.3143E4,1.52E2,1E0,3E0,3.382E3,1.8E1,1.7E1,5.4E1,7E0,1E0,8.046E3,2E0,2E0,3.03E2,9.209E3,7.12E2,1E2,4.83E2,3E0,3.3E1,2.62E2,5.25E2,5.934E3,1.73E2,4.69E2,4.3E1,3.3142E4,1E0,1.25E2,2.7E1,4.99E2,2.883E3,3E0,1.5E1,1E0,1.6E1,3.9E1,1.5E1,5E0,2E0,1.288E3,6.758E3,8.7E1,2.16E2,1.212E3,7.997E3,1.04E2,6.08E2,9.4E1,6E0,3.54E2,1.29E2,2E0,3.1E1,1.09E2,1.53E2,2E0,5.23E2],"tree_param":{"num_deleted":"0","num_feature":"2","num_nodes":"91","size_leaf_vector":"0"}},{"base_weights":[-5.9727277E-3,-9.167239E-3,2.1262637E-3,-9.140077E-3,-1.3115777E-1,1.1130338E-4,7.2159767E-3,-5.709517E-3,-9.794889E-3,-7.056025E-2,-1.7764324E-1,-6.452986E-3,1.8030332E-3,5.771341E-3,4.5063917E-2,-5.815735E-3,1.051029E-1,-3.4151018E-2,-9.69745E-3,-1.6161697E-1,1.5372358E-2,-4.0756658E-2,-2.0167571E-1,4.5895446E-3,-2.3706704E-2,6.479453E-4,3.8057487E-2,5.945791E-3,-2.7969247E-1,1.9635474E-2,6.492446E-2,-7.265941E-3,1.3006765E-3,1.15345575E-1,2.1823414E-2,-3.8303073E-2,7.2574146E-2,-9.725884E-3,2.5299596E-2,3.5945952E-2,-2.3174211E-2,-6.042578E-3,2.220793E-2,-6.128094E-2,-9.39452E-3,7.305534E-4,-2.7093583E-1,1.958079E-2,4.751365E-2,1.022445E-2,8.209587E-5,-3.9686987E-1,-2.2668839E-2,2.8520808E-2,-3.5448095E-1,2.9053414E-2,7.975939E-2,-7.1318797E-3,-1.4049594E-1,-1.8893948E-3,4.1179802E-2,2.6595987E-2,1.277763E-1,-2.3812324E-2,-7.744917E-2,1.591722E-2,8.0722086E-2,-9.714624E-3,-1.4840159E-1,6.909149E-2,7.0636547E-3,7.796157E-4,-2.8698E-2,2.451071E-2,-8.4011056E-2,-5.7467394E-2,-3.1195542E-1,1.17214255E-1,-1.041251E-2,4.8034463E-2,4.3102587E-4,2.3711149E-2,-1.3288544E-1,1.1943164E-1,4.2078774E-2,2.6499485E-3,4.300887E-2,-5.1445976E-2,8.733388E-3,1.7583227E-2,5.7551336E-2,4.062979E-2,-1.649071E-1,9.530888E-2,7.019823E-2],"categories":[],"categories_nodes":[],"categories_segments":[],"categories_sizes":[],"default_left":[1,1,1,1,1,1,1,1,1,1,1,1,1,1,1,1,1,1,1,0,1,0,0,1,1,1,1,1,1,1,1,1,1,1,0,1,1,1,1,0,0,1,1,1,1,1,0,1,1,1,1,0,0,1,0,1,1,0,0,0,0,0,0,0,0,0,0,0,0,0,0,0,0,0,0,0,0,0,0,0,0,0,0,0,0,0,0,0,0,0,0,0,0,0,0],"id":11,"left_children":[1,3,5,7,9,11,13,15,17,19,21,23,25,27,29,31,33,35,37,-1,39,-1,-1,41,43,45,47,49,51,53,55,57,59,61,-1,63,65,67,69,-1,-1,71,73,75,77,79,-1,81,83,85,87,-1,-1,89,-1,91,93,-1,-1,-1,-1,-1,-1,-1,-1,-1,-1,-1,-1,-1,-1,-1,-1,-1,-1,-1,-1,-1,-1,-1,-1,-1,-1,-1,-1,-1,-1,-1,-1,-1,-1,-1,-1,-1,-1],"loss_changes":[1.6327958E0,1.4876628E-1,1.8308164E-1,1.0159016E-1,1.5634492E-2,1.4204465E-1,2.7656695E-1,8.600493E-2,8.98397E-2,4.943288E-2,8.228987E-3,4.9947408E-1,4.2586523E-1,2.4458386E-1,9.2659414E-2,7.482104E-2,3.4537911E-3,6.969224E-2,3.7904978E-2,0E0,4.005185E-3,0E0,0E0,2.996602E-1,5.4956234E-1,2.213401E-1,5.3931326E-2,1.223319E-1,8.135551E-2,2.8601447E-1,5.3025752E-2,1.0655671E-1,1.5630059E-1,3.2209903E-3,0E0,8.097516E-2,1.4849529E-3,5.760312E-2,2.426814E-2,0E0,0E0,1.5427291E-1,1.4930761E-1,2.5165296E-1,9.685418E-2,1.3961306E-1,0E0,7.116278E-2,7.588351E-2,6.9991606E-1,9.1787356E-1,0E0,0E0,2.502501E-2,0E0,7.855164E-2,4.1624606E-3,0E0,0E0,0E0,0E0,0E0,0E0,0E0,0E0,0E0,0E0,0E0,0E0,0E0,0E0,0E0,0E0,0E0,0E0,0E0,0E0,0E0,0E0,0E0,0E0,0E0,0E0,0E0,0E0,0E0,0E0,0E0,0E0,0E0,0E0,0E0,0E0,0E0,0E0],"parents":[2147483647,0,0,1,1,2,2,3,3,4,4,5,5,6,6,7,7,8,8,9,9,10,10,11,11,12,12,13,13,14,14,15,15,16,16,17,17,18,18,20,20,23,23,24,24,25,25,26,26,27,27,28,28,29,29,30,30,31,31,32,32,33,33,35,35,36,36,37,37,38,38,41,41,42,42,43,43,44,44,45,45,47,47,48,48,49,49,50,50,53,53,55,55,56,56],"right_children":[2,4,6,8,10,12,14,16,18,20,22,24,26,28,30,32,34,36,38,-1,40,-1,-1,42,44,46,48,50,52,54,56,58,60,62,-1,64,66,68,70,-1,-1,72,74,76,78,80,-1,82,84,86,88,-1,-1,90,-1,92,94,-1,-1,-1,-1,-1,-1,-1,-1,-1,-1,-1,-1,-1,-1,-1,-1,-1,-1,-1,-1,-1,-1,-1,-1,-1,-1,-1,-1,-1,-1,-1,-1,-1,-1,-1,-1,-1,-1],"split_conditions":[3.0664235E-1,3.0635652E-1,7.483312E-1,4.1322464E-1,3.0646378E-1,1.9791676E-1,1.7419195E-1,4.1307145E-1,4.1458917E-1,3.0640855E-1,3.3154997E-1,1.8256581E-1,6.923001E-1,1.7411453E-1,7.619797E-1,3.9505062E-1,1.8519959E-1,1.9301414E-1,1.8178588E-1,-4.8485093E-2,3.064354E-1,-1.2226998E-2,-6.0502715E-2,1.7017153E-1,1.8523167E-1,6.9216806E-1,2.0406878E-1,1.0614698E-1,7.89691E-1,7.610623E-1,1.7852782E-1,3.949704E-1,2.2672816E-1,4.131078E-1,6.5470245E-3,1.6670105E-1,1.9474015E-1,1.8084615E-1,4.151728E-1,1.0783786E-2,-6.952264E-3,7.0584214E-1,7.469836E-1,1.8520351E-1,1.852532E-1,3.081615E-1,-8.128075E-2,2.039206E-1,2.0495322E-1,9.412336E-2,1.1024962E-1,-1.1906096E-1,-6.800652E-3,1.9416264E-1,-1.0634429E-1,1.784419E-1,1.8251088E-1,-2.139564E-3,-4.2148784E-2,-5.6681846E-4,1.2353941E-2,7.978797E-3,3.833289E-2,-7.1436972E-3,-2.3234753E-2,4.775166E-3,2.4216628E-2,-2.9143873E-3,-4.452048E-2,2.0727448E-2,2.1190965E-3,2.3388473E-4,-8.6094E-3,7.353213E-3,-2.5203317E-2,-1.7240219E-2,-9.358663E-2,3.5164278E-2,-3.123753E-3,1.4410339E-2,1.2930777E-4,7.113345E-3,-3.9865635E-2,3.5829492E-2,1.2623633E-2,7.949846E-4,1.2902662E-2,-1.5433793E-2,2.6200165E-3,5.274968E-3,1.7265402E-2,1.21889375E-2,-4.947213E-2,2.8592665E-2,2.105947E-2],"split_indices":[0,0,0,1,0,1,1,1,1,0,1,1,0,1,0,1,0,0,0,0,0,0,0,1,1,0,1,1,0,0,1,1,0,1,0,0,0,0,1,0,0,0,0,1,1,0,0,1,1,1,1,0,0,1,0,1,1,0,0,0,0,0,0,0,0,0,0,0,0,0,0,0,0,0,0,0,0,0,0,0,0,0,0,0,0,0,0,0,0,0,0,0,0,0,0],"split_type":[0,0,0,0,0,0,0,0,0,0,0,0,0,0,0,0,0,0,0,0,0,0,0,0,0,0,0,0,0,0,0,0,0,0,0,0,0,0,0,0,0,0,0,0,0,0,0,0,0,0,0,0,0,0,0,0,0,0,0,0,0,0,0,0,0,0,0,0,0,0,0,0,0,0,0,0,0,0,0,0,0,0,0,0,0,0,0,0,0,0,0,0,0,0,0],"sum_hessian":[6.3108E4,4.5257E4,1.7851E4,4.5248E4,9E0,1.2789E4,5.062E3,7.254E3,3.7994E4,5E0,4E0,2.62E3,1.0169E4,4.877E3,1.85E2,7.248E3,6E0,1.5E2,3.7844E4,2E0,3E0,1E0,3E0,1.598E3,1.022E3,9.856E3,3.13E2,4.875E3,2E0,8.2E1,1.03E2,6.021E3,1.227E3,5E0,1E0,1.45E2,5E0,3.7814E4,3E1,2E0,1E0,9.97E2,6.01E2,2.81E2,7.41E2,9.854E3,2E0,1.07E2,2.06E2,2.818E3,2.057E3,1E0,1E0,8.1E1,1E0,3.1E1,7.2E1,6.016E3,5E0,1.137E3,9E1,1E0,4E0,1.07E2,3.8E1,1E0,4E0,3.7812E4,2E0,8E0,2.2E1,7.67E2,2.3E2,5.89E2,1.2E1,2.78E2,3E0,5E0,7.36E2,6.1E1,9.793E3,1.05E2,2E0,1.3E1,1.93E2,2.29E3,5.28E2,2.95E2,1.762E3,6E1,2.1E1,3E1,1E0,2.4E1,4.8E1],"tree_param":{"num_deleted":"0","num_feature":"2","num_nodes":"95","size_leaf_vector":"0"}},{"base_weights":[-4.1884426E-3,-6.091358E-3,2.8590949E-3,-6.0785143E-3,-2.1679957E-1,1.5081363E-3,2.3293778E-2,-6.8343324E-3,-3.089597E-3,-1.1305048E-2,3.0255476E-3,1.5165345E-2,3.4013644E-2,-6.7935586E-3,-3.5044238E-2,-2.7049328E-3,-2.5253827E-2,1.2376919E-1,-1.2522586E-2,3.0987235E-3,-2.7246514E-1,4.570309E-3,4.074349E-2,-5.179568E-2,3.612299E-2,-6.8079573E-3,3.4409314E-2,-4.389757E-2,3.446492E-2,-2.7672185E-3,1.2062602E-1,-5.299627E-2,3.1160818E-2,1.3024305E-1,2.6278377E-2,5.8178795E-3,-2.1709831E-2,2.0527556E-3,1.7217994E-2,-3.2942766E-1,-7.9270065E-2,7.2752915E-2,-2.5748338E-3,2.7476253E-2,5.9347644E-2,-1.403174E-1,4.7085166E-2,5.9445933E-2,3.1286765E-2,-6.774512E-3,-2.9885974E-2,9.8337635E-2,-1.2032824E-2,-9.689097E-2,-3.467865E-2,5.1027324E-2,-4.6273917E-3,-2.915377E-3,4.4288248E-2,1.830419E-2,-9.9093765E-2,-5.0166532E-2,3.6608014E-2,-1.5816392E-2,2.4259608E-2,-1.0820903E-1,-1.9368514E-2,3.1656148E-3,-1.7774612E-2,1.5990569E-1,1.6085252E-2,1.0605845E-1,1.5917249E-2,-1.6225137E-1,1.1595347E-3,3.744842E-2,-4.1200534E-2,7.763906E-2,2.6718628E-2,-4.2964667E-2,-1.539144E-1,1.6966224E-2,6.1509054E-2,-8.314871E-2,6.5908E-2,1.4103228E-2,4.0717535E-2],"categories":[],"categories_nodes":[],"categories_segments":[],"categories_sizes":[],"default_left":[1,1,1,1,0,1,1,1,1,1,1,1,1,1,1,1,1,1,1,1,1,1,1,1,1,1,1,1,1,1,0,1,1,0,0,1,1,1,1,0,0,1,1,1,1,1,1,1,1,0,0,0,0,0,0,0,0,0,0,0,0,0,0,0,0,0,0,0,0,0,0,0,0,0,0,0,0,0,0,0,0,0,0,0,0,0,0],"id":12,"left_children":[1,3,5,7,-1,9,11,13,15,17,19,21,23,25,27,29,31,33,35,37,39,41,43,45,47,49,51,53,55,57,-1,59,61,-1,-1,63,65,67,69,-1,-1,71,73,75,77,79,81,83,85,-1,-1,-1,-1,-1,-1,-1,-1,-1,-1,-1,-1,-1,-1,-1,-1,-1,-1,-1,-1,-1,-1,-1,-1,-1,-1,-1,-1,-1,-1,-1,-1,-1,-1,-1,-1,-1,-1],"loss_changes":[8.463638E-1,1.3316512E-1,3.7038767E-1,1.1223245E-1,0E0,2.4476166E-1,7.198113E-2,4.537964E-2,8.545383E-2,2.2077252E-1,2.2773647E-1,1.2853943E-1,6.6669494E-2,2.3729563E-2,3.6590025E-2,7.608354E-2,2.6928008E-1,4.151106E-3,2.228811E-1,1.6615239E-1,6.9008768E-3,1.643651E-1,3.2678127E-2,8.5384786E-2,3.761831E-2,3.0355811E-2,4.2748835E-2,2.1555588E-2,4.7683613E-3,6.884878E-2,0E0,3.7979263E-1,2.7087845E-2,0E0,0E0,1.7672993E-1,1.7632613E-1,2.3125409E-1,1.2285149E-1,0E0,0E0,5.888599E-2,1.8265319E-1,5.838599E-2,3.194493E-2,5.64754E-6,1.1285851E-3,5.9846118E-2,4.674551E-2,0E0,0E0,0E0,0E0,0E0,0E0,0E0,0E0,0E0,0E0,0E0,0E0,0E0,0E0,0E0,0E0,0E0,0E0,0E0,0E0,0E0,0E0,0E0,0E0,0E0,0E0,0E0,0E0,0E0,0E0,0E0,0E0,0E0,0E0,0E0,0E0,0E0,0E0],"parents":[2147483647,0,0,1,1,2,2,3,3,5,5,6,6,7,7,8,8,9,9,10,10,11,11,12,12,13,13,14,14,15,15,16,16,17,17,18,18,19,19,20,20,21,21,22,22,23,23,24,24,25,25,26,26,27,27,28,28,29,29,31,31,32,32,35,35,36,36,37,37,38,38,41,41,42,42,43,43,44,44,45,45,46,46,47,47,48,48],"right_children":[2,4,6,8,-1,10,12,14,16,18,20,22,24,26,28,30,32,34,36,38,40,42,44,46,48,50,52,54,56,58,-1,60,62,-1,-1,64,66,68,70,-1,-1,72,74,76,78,80,82,84,86,-1,-1,-1,-1,-1,-1,-1,-1,-1,-1,-1,-1,-1,-1,-1,-1,-1,-1,-1,-1,-1,-1,-1,-1,-1,-1,-1,-1,-1,-1,-1,-1,-1,-1,-1,-1,-1,-1],"split_conditions":[4.4413E-1,4.4407666E-1,2.9904547E-1,1.4860332E-1,-6.503987E-2,5.112151E-1,3.0982533E-1,1.4720276E-1,4.382357E-1,4.4521013E-1,2.9865617E-1,4.9989548E-1,4.4487113E-1,1.468471E-1,4.2982453E-1,4.3804234E-1,3.1481022E-1,2.9776895E-1,2.6085788E-1,2.6919404E-1,5.168578E-1,3.0007058E-1,3.042005E-1,3.225556E-1,3.119743E-1,1.4578068E-1,1.4690588E-1,1.4738083E-1,1.4794165E-1,4.2683613E-1,3.6187805E-2,2.8823924E-1,4.3836427E-1,3.9072916E-2,7.883513E-3,2.0457931E-1,2.6215398E-1,2.6069108E-1,2.6930597E-1,-9.88283E-2,-2.378102E-2,4.7343355E-1,3.0033457E-1,3.0340388E-1,5.1222736E-1,4.444318E-1,4.4436306E-1,4.4704655E-1,4.6142352E-1,-2.0323538E-3,-8.965792E-3,2.9501291E-2,-3.6098473E-3,-2.9067293E-2,-1.0403595E-2,1.5308198E-2,-1.3882176E-3,-8.746131E-4,1.3286475E-2,5.491257E-3,-2.9728131E-2,-1.504996E-2,1.0982404E-2,-4.744918E-3,7.2778827E-3,-3.246271E-2,-5.8105546E-3,9.496845E-4,-5.332384E-3,4.7971707E-2,4.8255757E-3,3.1817537E-2,4.775175E-3,-4.8675414E-2,3.4786042E-4,1.12345265E-2,-1.236016E-2,2.3291718E-2,8.015589E-3,-1.2889401E-2,-4.6174325E-2,5.0898674E-3,1.8452717E-2,-2.4944615E-2,1.9772401E-2,4.2309687E-3,1.2215261E-2],"split_indices":[0,0,1,0,0,0,1,0,0,0,1,0,0,0,1,0,1,1,1,1,0,1,1,1,1,0,0,0,0,1,0,1,0,0,0,1,1,1,1,0,0,0,1,1,0,0,0,0,0,0,0,0,0,0,0,0,0,0,0,0,0,0,0,0,0,0,0,0,0,0,0,0,0,0,0,0,0,0,0,0,0,0,0,0,0,0,0],"split_type":[0,0,0,0,0,0,0,0,0,0,0,0,0,0,0,0,0,0,0,0,0,0,0,0,0,0,0,0,0,0,0,0,0,0,0,0,0,0,0,0,0,0,0,0,0,0,0,0,0,0,0,0,0,0,0,0,0,0,0,0,0,0,0,0,0,0,0,0,0,0,0,0,0,0,0,0,0,0,0,0,0,0,0,0,0,0,0],"sum_hessian":[6.3108E4,4.9691E4,1.3417E4,4.9689E4,2E0,1.2586E4,8.31E2,3.9659E4,1.003E4,1.332E3,1.1254E4,4.74E2,3.57E2,3.9603E4,5.6E1,9.86E3,1.7E2,1.1E1,1.321E3,1.1252E4,2E0,3.36E2,1.38E2,8E0,3.49E2,3.959E4,1.3E1,5E1,6E0,9.856E3,4E0,1.14E2,5.6E1,1E1,1E0,4.41E2,8.8E2,1.0477E4,7.75E2,1E0,1E0,3.1E1,3.05E2,8.2E1,5.6E1,4E0,4E0,5.8E1,2.91E2,3.9534E4,5.6E1,5E0,8E0,6E0,4.4E1,4E0,2E0,9.826E3,3E1,4.5E1,6.9E1,3E0,5.3E1,2.03E2,2.38E2,2.2E1,8.58E2,9.921E3,5.56E2,5E0,7.7E2,1.9E1,1.2E1,6E0,2.99E2,7.2E1,1E1,3.5E1,2.1E1,1E0,3E0,2E0,2E0,2E0,5.6E1,1.04E2,1.87E2],"tree_param":{"num_deleted":"0","num_feature":"2","num_nodes":"87","size_leaf_vector":"0"}},{"base_weights":[-2.9338773E-3,-4.4610547E-3,1.5527402E-3,-4.4491165E-3,-1.9032556E-1,1.0164472E-3,2.770636E-2,3.8048264E-4,-4.841065E-3,1.4470461E-2,2.5621394E-4,1.21321216E-1,2.4934895E-2,-3.6569957E-3,6.7105736E-3,-9.628501E-2,-4.7484674E-3,-1.5544553E-3,3.6368035E-2,-6.667928E-2,6.7751645E-4,1.5433629E-1,4.1468315E-2,-5.4395E-2,3.0516503E-2,-3.2917862E-3,-1.6033092E-1,2.4616716E-3,2.0968875E-2,-7.719729E-3,-1.0257711E-1,-1.7321067E-2,-4.600406E-3,1.3807928E-3,-8.786367E-2,-1.8848005E-1,3.753563E-2,-2.0742957E-1,-3.9110497E-2,-1.1298867E-2,1.3043924E-3,-1.5194525E-1,4.8100248E-2,1.0354647E-1,2.8111657E-2,-1.5666363E-3,-2.993405E-2,-1.4487475E-2,-1.931699E-1,3.3622475E-3,-4.9958512E-2,1.1201705E-1,1.7006392E-2,-2.7688105E-2,8.165765E-3,-1.107054E-1,-7.3708296E-2,-1.4758218E-2,-8.2234204E-2,1.7052221E-1,-4.6206643E-3,2.3794472E-1,3.7119997E-4,-1.66777E-1,-3.6832426E-2,2.2815074E-1,3.5804432E-2,-5.6313343E-2,-4.2471835E-1,-3.9601237E-1,-2.9457752E-2,-4.82311E-2,-8.820344E-3,1.3136102E-2,-8.756655E-5,-7.539677E-2,-2.0316952E-1,1.1777495E-1,7.2503686E-3,1.6626427E-1,4.4476863E-2,-9.1889195E-2,2.9280286E-2],"categories":[],"categories_nodes":[],"categories_segments":[],"categories_sizes":[],"default_left":[1,1,1,1,0,1,1,1,1,1,1,1,1,1,1,1,1,1,1,1,1,0,0,1,1,1,1,1,1,1,1,1,1,1,1,0,1,1,1,1,1,1,1,1,1,0,0,0,0,0,0,0,0,0,0,0,0,0,0,0,0,0,0,0,0,0,0,0,0,0,0,0,0,0,0,0,0,0,0,0,0,0,0],"id":13,"left_children":[1,3,5,7,-1,9,11,13,15,17,19,21,23,25,27,29,31,33,35,37,39,-1,-1,41,43,45,47,49,51,53,55,57,59,61,63,-1,65,67,69,71,73,75,77,79,81,-1,-1,-1,-1,-1,-1,-1,-1,-1,-1,-1,-1,-1,-1,-1,-1,-1,-1,-1,-1,-1,-1,-1,-1,-1,-1,-1,-1,-1,-1,-1,-1,-1,-1,-1,-1,-1,-1],"loss_changes":[4.3242097E-1,1.0362357E-1,2.2476664E-1,8.9123964E-2,0E0,1.6064022E-1,8.051784E-2,9.037067E-2,3.6827743E-1,2.9481825E-1,4.192959E-1,1.732707E-2,1.406955E-1,1.2300764E-1,8.336997E-2,2.3727685E-2,8.090371E-2,1.23244055E-1,1.0027328E-1,3.5275653E-1,1.109411E-1,0E0,0E0,2.1727578E-1,4.872319E-2,9.900099E-2,2.114822E-2,5.0303236E-2,1.1210053E-1,1.4949245E-3,1.4609098E-3,8.296585E-2,1.5333611E-1,1.1240214E-1,5.8289915E-2,0E0,1.0864842E-1,4.6862066E-1,2.6049596E-1,6.685459E-2,2.3124595E-1,2.781421E-2,3.0454325E-2,2.5947534E-2,4.2798206E-2,0E0,0E0,0E0,0E0,0E0,0E0,0E0,0E0,0E0,0E0,0E0,0E0,0E0,0E0,0E0,0E0,0E0,0E0,0E0,0E0,0E0,0E0,0E0,0E0,0E0,0E0,0E0,0E0,0E0,0E0,0E0,0E0,0E0,0E0,0E0,0E0,0E0,0E0],"parents":[2147483647,0,0,1,1,2,2,3,3,5,5,6,6,7,7,8,8,9,9,10,10,11,11,12,12,13,13,14,14,15,15,16,16,17,17,18,18,19,19,20,20,23,23,24,24,25,25,26,26,27,27,28,28,29,29,30,30,31,31,32,32,33,33,34,34,36,36,37,37,38,38,39,39,40,40,41,41,42,42,43,43,44,44],"right_children":[2,4,6,8,-1,10,12,14,16,18,20,22,24,26,28,30,32,34,36,38,40,-1,-1,42,44,46,48,50,52,54,56,58,60,62,64,-1,66,68,70,72,74,76,78,80,82,-1,-1,-1,-1,-1,-1,-1,-1,-1,-1,-1,-1,-1,-1,-1,-1,-1,-1,-1,-1,-1,-1,-1,-1,-1,-1,-1,-1,-1,-1,-1,-1,-1,-1,-1,-1,-1,-1],"split_conditions":[3.5839257E-1,3.583525E-1,3.4153056E-1,3.3853394E-1,-5.709767E-2,3.6686085E-2,3.597338E-1,3.048038E-1,3.387281E-1,2.8468274E-2,3.801454E-2,3.4798685E-1,3.6201292E-1,3.0463666E-1,3.2134372E-1,1.11044146E-1,3.4390366E-1,2.6981285E-2,4.0255672E-1,8.7086856E-1,5.636233E-2,4.6300888E-2,1.2440495E-2,3.4851778E-1,3.630092E-1,3.4650034E-1,1.9227377E-1,3.178377E-1,3.2365096E-1,4.8969287E-2,3.3866048E-1,3.4371823E-1,3.439592E-1,3.7526774E-1,9.070921E-1,-5.6544017E-2,4.2849603E-1,8.3347774E-1,3.6738187E-2,6.066759E-1,1.0614844E-1,3.6088568E-1,3.5057926E-1,3.4375185E-1,3.6339158E-1,-4.699909E-4,-8.9802155E-3,-4.3462426E-3,-5.7950974E-2,1.0086743E-3,-1.4987554E-2,3.3605117E-2,5.101918E-3,-8.306432E-3,2.4497295E-3,-3.3211622E-2,-2.2112489E-2,-4.4274656E-3,-2.4670262E-2,5.1156666E-2,-1.3861994E-3,7.138342E-2,1.11359994E-4,-5.0033104E-2,-1.1049728E-2,6.844523E-2,1.074133E-2,-1.6894003E-2,-1.2741551E-1,-1.1880372E-1,-8.8373255E-3,-1.446933E-2,-2.6461033E-3,3.940831E-3,-2.6269967E-5,-2.2619031E-2,-6.095086E-2,3.5332486E-2,2.1751106E-3,4.9879283E-2,1.3343059E-2,-2.7566759E-2,8.784086E-3],"split_indices":[0,0,1,1,0,1,0,1,1,1,1,1,0,1,0,0,1,1,0,0,1,0,0,1,0,0,0,0,0,0,1,1,1,0,0,0,0,0,1,0,1,0,1,1,0,0,0,0,0,0,0,0,0,0,0,0,0,0,0,0,0,0,0,0,0,0,0,0,0,0,0,0,0,0,0,0,0,0,0,0,0,0,0],"split_type":[0,0,0,0,0,0,0,0,0,0,0,0,0,0,0,0,0,0,0,0,0,0,0,0,0,0,0,0,0,0,0,0,0,0,0,0,0,0,0,0,0,0,0,0,0,0,0,0,0,0,0,0,0,0,0,0,0,0,0,0,0,0,0,0,0,0,0,0,0,0,0,0,0,0,0,0,0,0,0,0,0,0,0],"sum_hessian":[6.3108E4,4.7082E4,1.6026E4,4.708E4,2E0,1.5705E4,3.21E2,3.534E3,4.3546E4,8.39E2,1.4866E4,8E0,3.13E2,2.158E3,1.376E3,4.3E1,4.3503E4,4.85E2,3.54E2,9.2E1,1.4774E4,5E0,3E0,2E1,2.93E2,2.154E3,4E0,1.061E3,3.15E2,3E0,4E1,5.05E2,4.2998E4,4.7E2,1.5E1,1E0,3.53E2,1.4E1,7.8E1,7.34E2,1.404E4,1E1,1E1,8E0,2.85E2,2.024E3,1.3E2,1E0,3E0,1.044E3,1.7E1,1.2E1,3.03E2,1E0,2E0,2.9E1,1.1E1,4.87E2,1.8E1,4E0,4.2994E4,1E0,4.69E2,5E0,1E1,2E0,3.51E2,9E0,5E0,1E0,7.7E1,4.5E1,6.89E2,1.477E3,1.2563E4,5E0,5E0,3E0,7E0,3E0,5E0,2E0,2.83E2],"tree_param":{"num_deleted":"0","num_feature":"2","num_nodes":"83","size_leaf_vector":"0"}},{"base_weights":[-2.059094E-3,-3.0958848E-3,1.5063045E-3,-3.070379E-3,-1.16158E-1,1.0965968E-3,4.1541927E-2,-3.5831032E-3,-1.697832E-3,-1.3286543E-1,2.5458097E-2,5.1950134E-4,1.3683358E-2,2.8410774E-2,6.42276E-2,-3.5455574E-3,-1.6610222E-2,-1.8437661E-3,2.1841405E-2,-4.9328804E-4,-1.4751863E-1,-4.010043E-3,1.7946935E-3,2.3482018E-3,2.41284E-2,4.066244E-2,-1.9535106E-1,1.045455E-1,4.5056958E-2,-3.5620646E-3,3.5727024E-2,5.6572626E-3,-2.6870463E-2,-8.425964E-3,-1.4932121E-3,6.334721E-2,1.7731113E-2,-3.1666547E-2,-1.5804182E-1,1.6107108E-3,-3.4761675E-2,8.320397E-4,3.3339825E-2,-1.3220964E-2,1.9902345E-2,4.440403E-2,1.3639329E-2,-1.1108604E-2,5.887218E-2,1.709505E-2,-3.4268016E-1,1.3175181E-2,5.637705E-2,-3.5461558E-3,-1.792478E-2,1.2730544E-2,9.578471E-2,-2.1582186E-2,1.6771315E-2,-3.8852986E-2,-2.0180015E-2,-5.229553E-3,-8.411744E-2,4.847737E-2,-1.7050357E-3,6.1434843E-3,7.185725E-2,4.4909105E-2,1.0311787E-2,-1.7685801E-1,-6.772885E-2,-4.7967304E-3,2.1225683E-2,-7.497978E-2,-1.8370409E-2,-1.0706396E-2,1.6294174E-3,2.3426244E-2,6.265313E-2,-8.140149E-3,-4.0545446E-1,2.2184286E-2,-1.4864376E-1,3.390778E-2,6.034072E-2,-1.7717626E-3,4.201936E-2,5.30185E-2,-1.4599013E-1,8.658865E-2,4.3046024E-2,4.363464E-2,-1.7992064E-2,2.2884782E-2,-2.034535E-2,-1.5920684E-2,5.9770066E-2],"categories":[],"categories_nodes":[],"categories_segments":[],"categories_sizes":[],"default_left":[1,1,1,1,1,1,1,1,1,1,0,1,1,1,1,1,1,1,1,0,1,1,1,1,1,1,1,0,1,1,1,1,1,1,1,1,1,0,1,1,1,1,1,1,1,1,1,1,1,1,0,1,1,0,0,0,0,0,0,0,0,0,0,0,0,0,0,0,0,0,0,0,0,0,0,0,0,0,0,0,0,0,0,0,0,0,0,0,0,0,0,0,0,0,0,0,0],"id":14,"left_children":[1,3,5,7,9,11,13,15,17,19,-1,21,23,25,27,29,31,33,35,-1,37,39,41,43,45,47,49,-1,51,53,55,57,59,61,63,65,67,-1,69,71,73,75,77,79,81,83,85,87,89,91,-1,93,95,-1,-1,-1,-1,-1,-1,-1,-1,-1,-1,-1,-1,-1,-1,-1,-1,-1,-1,-1,-1,-1,-1,-1,-1,-1,-1,-1,-1,-1,-1,-1,-1,-1,-1,-1,-1,-1,-1,-1,-1,-1,-1,-1,-1],"loss_changes":[2.3329166E-1,1.4063573E-1,2.3317093E-1,3.4394026E-2,2.9408932E-2,1.0223036E-1,4.1071266E-2,1.7347157E-2,4.5714397E-2,1.932399E-2,0E0,7.774691E-2,7.2993785E-2,2.6289883E-1,3.5481334E-2,2.3132116E-2,2.3455925E-2,3.0479927E-2,1.2866057E-2,0E0,5.9675723E-3,5.1116556E-1,3.189173E-1,8.143422E-2,6.7662224E-2,8.455759E-2,1.623556E-1,0E0,1.2610696E-2,8.041501E-3,1.949734E-2,1.0352403E-2,4.827738E-3,1.6117674E-1,1.3290259E-1,2.9661898E-3,1.4861731E-2,0E0,1.6163737E-3,3.14432E-1,2.998888E-1,9.379805E-2,8.890876E-2,3.1157234E-1,5.7143286E-2,1.6187012E-2,9.3233675E-2,2.1532965E-1,2.52233E-2,3.57867E-3,0E0,4.04578E-3,7.5748786E-3,0E0,0E0,0E0,0E0,0E0,0E0,0E0,0E0,0E0,0E0,0E0,0E0,0E0,0E0,0E0,0E0,0E0,0E0,0E0,0E0,0E0,0E0,0E0,0E0,0E0,0E0,0E0,0E0,0E0,0E0,0E0,0E0,0E0,0E0,0E0,0E0,0E0,0E0,0E0,0E0,0E0,0E0,0E0,0E0],"parents":[2147483647,0,0,1,1,2,2,3,3,4,4,5,5,6,6,7,7,8,8,9,9,11,11,12,12,13,13,14,14,15,15,16,16,17,17,18,18,20,20,21,21,22,22,23,23,24,24,25,25,26,26,28,28,29,29,30,30,31,31,32,32,33,33,34,34,35,35,36,36,38,38,39,39,40,40,41,41,42,42,43,43,44,44,45,45,46,46,47,47,48,48,49,49,51,51,52,52],"right_children":[2,4,6,8,10,12,14,16,18,20,-1,22,24,26,28,30,32,34,36,-1,38,40,42,44,46,48,50,-1,52,54,56,58,60,62,64,66,68,-1,70,72,74,76,78,80,82,84,86,88,90,92,-1,94,96,-1,-1,-1,-1,-1,-1,-1,-1,-1,-1,-1,-1,-1,-1,-1,-1,-1,-1,-1,-1,-1,-1,-1,-1,-1,-1,-1,-1,-1,-1,-1,-1,-1,-1,-1,-1,-1,-1,-1,-1,-1,-1,-1,-1],"split_conditions":[4.142948E-1,4.1386783E-1,3.238624E-1,5.892562E-2,3.351158E-1,9.389116E-1,3.3254611E-1,5.6976944E-2,4.6009278E-1,2.1983021E-1,7.6374295E-3,1.1214134E-1,2.8359737E-2,3.320777E-1,3.343924E-1,5.6712657E-2,4.0130538E-1,2.0876211E-1,4.601968E-1,-1.4798641E-4,4.1387638E-1,1.0614844E-1,8.3854854E-1,9.616504E-1,3.6928814E-2,4.238919E-1,4.2523086E-1,3.136365E-2,4.1754898E-1,5.5677418E-2,4.6434677E-1,3.0986023E-1,4.4182926E-1,2.053687E-1,2.1552089E-1,6.145309E-2,6.087821E-2,-9.499964E-3,4.142534E-1,9.332766E-2,1.0706699E-1,4.4438666E-1,8.6381584E-1,9.614889E-1,2.7665693E-2,9.5184404E-1,4.8449546E-2,4.2141193E-1,4.35109E-1,4.1970423E-1,-1.0280405E-1,3.3914113E-1,3.3441615E-1,-1.0638468E-3,-5.377434E-3,3.8191634E-3,2.8735414E-2,-6.474656E-3,5.031395E-3,-1.1655896E-2,-6.0540047E-3,-1.5688661E-3,-2.5235234E-2,1.4543212E-2,-5.115107E-4,1.8430453E-3,2.1557176E-2,1.3472732E-2,3.0935362E-3,-5.3057406E-2,-2.0318655E-2,-1.4390191E-3,6.3677053E-3,-2.2493936E-2,-5.5111228E-3,-3.211919E-3,4.8882526E-4,7.0278733E-3,1.8795941E-2,-2.4420447E-3,-1.2163634E-1,6.655286E-3,-4.459313E-2,1.0172334E-2,1.8102217E-2,-5.315288E-4,1.2605809E-2,1.590555E-2,-4.3797042E-2,2.5976596E-2,1.2913807E-2,1.3090392E-2,-5.3976197E-3,6.865435E-3,-6.1036055E-3,-4.7762054E-3,1.793102E-2],"split_indices":[0,0,1,0,1,0,1,0,1,1,0,1,1,1,1,0,1,1,1,0,0,1,0,0,1,0,0,0,0,0,1,1,1,1,1,0,0,0,0,1,1,0,0,0,1,0,1,0,0,0,0,1,1,0,0,0,0,0,0,0,0,0,0,0,0,0,0,0,0,0,0,0,0,0,0,0,0,0,0,0,0,0,0,0,0,0,0,0,0,0,0,0,0,0,0,0,0],"split_type":[0,0,0,0,0,0,0,0,0,0,0,0,0,0,0,0,0,0,0,0,0,0,0,0,0,0,0,0,0,0,0,0,0,0,0,0,0,0,0,0,0,0,0,0,0,0,0,0,0,0,0,0,0,0,0,0,0,0,0,0,0,0,0,0,0,0,0,0,0,0,0,0,0,0,0,0,0,0,0,0,0,0,0,0,0,0,0,0,0,0,0,0,0,0,0,0,0],"sum_hessian":[6.3108E4,4.8891E4,1.4217E4,4.8881E4,1E1,1.4074E4,1.43E2,3.5586E4,1.3295E4,9E0,1E0,1.3458E4,6.16E2,9.2E1,5.1E1,3.5485E4,1.01E2,1.3214E4,8.1E1,1E0,8E0,2.956E3,1.0502E4,2.96E2,3.2E2,8.8E1,4E0,1.5E1,3.6E1,3.5471E4,1.4E1,3.2E1,6.9E1,6.67E2,1.2547E4,6E0,7.5E1,1E0,7E0,2.5E3,4.56E2,1.0192E4,3.1E2,1.57E2,1.39E2,1.08E2,2.12E2,2.3E1,6.5E1,2E0,2E0,1E1,2.6E1,3.5433E4,3.8E1,1.1E1,3E0,9E0,2.3E1,2.3E1,4.6E1,6.41E2,2.6E1,5.2E1,1.2495E4,1E0,5E0,1.5E1,6E1,5E0,2E0,1.885E3,6.15E2,1.31E2,3.25E2,6.58E2,9.534E3,2.33E2,7.7E1,1.56E2,1E0,1.38E2,1E0,6.7E1,4.1E1,1.38E2,7.4E1,1.6E1,7E0,2.2E1,4.3E1,1E0,1E0,8E0,2E0,1E0,2.5E1],"tree_param":{"num_deleted":"0","num_feature":"2","num_nodes":"97","size_leaf_vector":"0"}},{"base_weights":[-1.444561E-3,1.550162E-3,-2.1366922E-3,-3.085842E-4,1.1251905E-2,-6.269248E-2,-1.9779445E-3,2.1276947E-3,-5.6904675E-3,9.3409065E-3,5.0603535E-2,-6.9953114E-2,3.4334738E-2,3.0794835E-1,-1.9900294E-3,5.9028703E-4,1.3409413E-2,-4.0324997E-2,-2.3706912E-3,1.7184319E-2,-1.2607814E-3,4.436885E-2,6.538068E-2,-9.848811E-2,-5.2671082E-2,6.757679E-2,-3.2422543E-2,-2.1002952E-3,2.6970644E-2,7.547453E-4,-9.842332E-2,-1.5799474E-2,1.8777322E-2,-5.1356472E-2,7.1221124E-3,-5.8447565E-3,1.35134645E-2,7.805487E-3,2.6747603E-2,-1.3128426E-2,1.4662163E-2,4.9042847E-2,1.963844E-2,7.458198E-2,4.1758273E-2,-2.8388575E-3,-1.0509529E-1,1.785648E-1,-6.08895E-2,7.9455875E-2,-1.8488467E-3,-7.50452E-2,6.8000755E-3,-3.1348728E-2,-1.9374223E-3,1.8200142E-2,4.579485E-2,9.006622E-3,-6.418235E-4,-1.5511972E-1,-5.19649E-2,-5.2981707E-3,-6.1084367E-2,2.7304824E-2,8.309963E-3,-7.85129E-2,-3.527771E-2,1.1119713E-1,-1.4327825E-2,-5.2928654E-3,-7.6192774E-2,1.2082651E-1,1.0227616E-2,1.1023219E-2,-8.975344E-2,9.8235264E-2,2.3972025E-2,1.23240024E-1,-1.4962326E-2,-2.9894789E-3,3.7325576E-2,5.2124448E-2,2.090576E-2,-5.226028E-3,3.2723926E-2,1.0395661E-2,-2.1271206E-2,-5.151622E-2,-1.1977027E-1,-5.48061E-2,-1.9470589E-1,1.986894E-2,8.739947E-2,-5.763471E-3,1.5963584E-2,-2.1919375E-2,-1.4749835E-1,-2.1884558E-3,7.670487E-3,-1.0543477E-1,2.1836322E-2,6.891537E-2,4.0467925E-2],"categories":[],"categories_nodes":[],"categories_segments":[],"categories_sizes":[],"default_left":[1,1,1,1,1,1,1,1,1,1,1,1,1,0,1,1,1,1,1,1,1,1,1,1,1,1,1,1,1,1,1,1,1,1,1,1,1,1,1,1,1,1,1,0,0,1,1,0,1,1,0,0,1,1,1,1,1,0,0,0,0,0,0,0,0,0,0,0,0,0,0,0,0,0,0,0,0,0,0,0,0,0,0,0,0,0,0,0,0,0,0,0,0,0,0,0,0,0,0,0,0,0,0],"id":15,"left_children":[1,3,5,7,9,11,13,15,17,19,21,23,25,-1,27,29,31,33,35,37,39,41,43,45,47,49,51,53,55,57,59,61,63,65,67,69,71,73,75,77,79,81,83,-1,-1,85,87,-1,89,91,-1,-1,93,95,97,99,101,-1,-1,-1,-1,-1,-1,-1,-1,-1,-1,-1,-1,-1,-1,-1,-1,-1,-1,-1,-1,-1,-1,-1,-1,-1,-1,-1,-1,-1,-1,-1,-1,-1,-1,-1,-1,-1,-1,-1,-1,-1,-1,-1,-1,-1,-1],"loss_changes":[1.3081194E-1,2.1365938E-1,4.9266243E-1,1.3039555E-1,1.4278506E-1,9.6801996E-2,1.9211218E-1,1.1873322E-1,3.5622403E-1,1.5119459E-1,5.2066594E-3,5.6455374E-2,2.4382502E-2,0E0,1.6332711E-1,9.819933E-2,1.290218E-1,1.4221033E-1,1.5619054E-1,9.351981E-2,1.4645359E-1,6.5502077E-3,2.1021515E-3,2.8772354E-2,1.6290417E-1,5.9198923E-3,7.1974015E-3,2.4258211E-1,3.1195492E-2,6.934758E-2,1.8279463E-2,6.054682E-2,6.171982E-2,9.329146E-2,1.1767815E-1,8.9747086E-2,1.7789236E-1,1.6705221E-1,1.0022804E-1,1.128822E-1,1.3252696E-1,3.5924911E-3,4.07538E-3,0E0,0E0,1.1969013E-3,2.7639568E-2,0E0,5.282554E-2,1.103472E-3,0E0,0E0,4.3738418E-4,3.0561778E-1,1.2218951E-1,6.254318E-2,4.723981E-3,0E0,0E0,0E0,0E0,0E0,0E0,0E0,0E0,0E0,0E0,0E0,0E0,0E0,0E0,0E0,0E0,0E0,0E0,0E0,0E0,0E0,0E0,0E0,0E0,0E0,0E0,0E0,0E0,0E0,0E0,0E0,0E0,0E0,0E0,0E0,0E0,0E0,0E0,0E0,0E0,0E0,0E0,0E0,0E0,0E0,0E0],"parents":[2147483647,0,0,1,1,2,2,3,3,4,4,5,5,6,6,7,7,8,8,9,9,10,10,11,11,12,12,14,14,15,15,16,16,17,17,18,18,19,19,20,20,21,21,22,22,23,23,24,24,25,25,26,26,27,27,28,28,29,29,30,30,31,31,32,32,33,33,34,34,35,35,36,36,37,37,38,38,39,39,40,40,41,41,42,42,45,45,46,46,48,48,49,49,52,52,53,53,54,54,55,55,56,56],"right_children":[2,4,6,8,10,12,14,16,18,20,22,24,26,-1,28,30,32,34,36,38,40,42,44,46,48,50,52,54,56,58,60,62,64,66,68,70,72,74,76,78,80,82,84,-1,-1,86,88,-1,90,92,-1,-1,94,96,98,100,102,-1,-1,-1,-1,-1,-1,-1,-1,-1,-1,-1,-1,-1,-1,-1,-1,-1,-1,-1,-1,-1,-1,-1,-1,-1,-1,-1,-1,-1,-1,-1,-1,-1,-1,-1,-1,-1,-1,-1,-1,-1,-1,-1,-1,-1,-1],"split_conditions":[2.608434E-1,2.3238403E-1,2.6146865E-1,1.8255457E-1,6.5666175E-1,5.782746E-1,2.6147527E-1,1.7017663E-1,1.8460087E-1,5.677743E-1,2.3954886E-1,2.6096743E-1,2.610895E-1,9.238451E-2,5.720118E-1,1.6999482E-1,5.498855E-1,7.304874E-1,7.0412815E-1,4.683905E-1,6.1273885E-1,2.382026E-1,2.4593805E-1,1.7866486E-1,2.6097423E-1,6.138734E-1,5.974124E-1,2.6428568E-1,5.937135E-1,3.6686085E-2,1.7003402E-1,5.038475E-1,7.3034877E-1,1.8299556E-1,7.324816E-1,7.033963E-1,7.046668E-1,4.6221644E-1,2.364794E-1,2.3312311E-1,2.444208E-1,6.916156E-1,6.641824E-1,2.2374595E-2,1.2527483E-2,1.3426606E-1,2.608627E-1,5.3569444E-2,5.768726E-1,5.790381E-1,-5.5465405E-4,-2.2513561E-2,6.170895E-1,5.632976E-1,4.9633557E-1,2.6194316E-1,5.961217E-1,2.7019868E-3,-1.9254706E-4,-4.6535917E-2,-1.5589471E-2,-1.5894513E-3,-1.832531E-2,8.191448E-3,2.492989E-3,-2.355387E-2,-1.0583313E-2,3.335914E-2,-4.2983475E-3,-1.5878597E-3,-2.2857834E-2,3.6247954E-2,3.0682848E-3,3.3069658E-3,-2.6926033E-2,2.947058E-2,7.1916077E-3,3.697201E-2,-4.4886977E-3,-8.968437E-4,1.1197673E-2,1.5637334E-2,6.271728E-3,-1.5678086E-3,9.817178E-3,3.1186985E-3,-6.381362E-3,-1.5454867E-2,-3.5931084E-2,-1.644183E-2,-5.841177E-2,5.9606824E-3,2.6219841E-2,-1.7290415E-3,4.7890753E-3,-6.575813E-3,-4.424951E-2,-6.565368E-4,2.301146E-3,-3.163043E-2,6.550897E-3,2.067461E-2,1.2140378E-2],"split_indices":[1,1,1,1,0,0,1,1,1,0,1,1,1,0,0,1,0,0,0,0,0,1,1,0,1,0,0,1,0,1,1,0,0,1,0,0,0,0,1,1,1,0,0,0,0,0,1,0,0,0,0,0,0,0,0,1,0,0,0,0,0,0,0,0,0,0,0,0,0,0,0,0,0,0,0,0,0,0,0,0,0,0,0,0,0,0,0,