{"learner":{"attributes":{"best_iteration":"99","best_ntree_limit":"100","scikit_learn":"{\"n_estimators\": 100, \"objective\": \"reg:squarederror\", \"max_depth\": null, \"max_leaves\": null, \"max_bin\": null, \"grow_policy\": null, \"learning_rate\": null, \"verbosity\": null, \"booster\": null, \"tree_method\": null, \"gamma\": null, \"min_child_weight\": null, \"max_delta_step\": null, \"subsample\": null, \"sampling_method\": null, \"colsample_bytree\": null, \"colsample_bylevel\": null, \"colsample_bynode\": null, \"reg_alpha\": null, \"reg_lambda\": null, \"scale_pos_weight\": null, \"base_score\": null, \"missing\": NaN, \"num_parallel_tree\": null, \"random_state\": null, \"n_jobs\": null, \"monotone_constraints\": null, \"interaction_constraints\": null, \"importance_type\": null, \"gpu_id\": null, \"validate_parameters\": null, \"predictor\": null, \"enable_categorical\": false, \"feature_types\": null, \"max_cat_to_onehot\": null, \"max_cat_threshold\": null, \"eval_metric\": null, \"early_stopping_rounds\": null, \"callbacks\": null, \"_estimator_type\": \"regressor\"}"},"feature_names":["GHI","SZA_30min_before"],"feature_types":["float","float"],"gradient_booster":{"model":{"gbtree_model_param":{"num_parallel_tree":"1","num_trees":"100","size_leaf_vector":"0"},"tree_info":[0,0,0,0,0,0,0,0,0,0,0,0,0,0,0,0,0,0,0,0,0,0,0,0,0,0,0,0,0,0,0,0,0,0,0,0,0,0,0,0,0,0,0,0,0,0,0,0,0,0,0,0,0,0,0,0,0,0,0,0,0,0,0,0,0,0,0,0,0,0,0,0,0,0,0,0,0,0,0,0,0,0,0,0,0,0,0,0,0,0,0,0,0,0,0,0,0,0,0,0],"trees":[{"base_weights":[-2.3740992E-1,1.9250868E-1,-4.486623E-1,2.6083714E-1,-8.552112E-3,-2.092567E-1,-4.8205516E-1,3.0291986E-1,1.6320741E-1,-7.640549E-2,1.2781249E-1,-2.8918743E-1,-8.127773E-2,-3.946255E-1,-4.9530268E-1,3.0600113E-1,3.7452668E-2,1.1287269E-1,2.960774E-1,-1.6047093E-1,-5.3826727E-2,6.6810645E-2,1.5758732E-1,-1.1070207E-1,-3.8015634E-2,-4.4345254E-1,-3.053522E-1,4.5306206E-2,3.0895168E-1,1.2538114E-1,-1.0617359E-1,-4.090343E-2,-2.2654812E-1,8.1379116E-2,-7.1416266E-2,1.09347716E-1,-1.2175669E-2,-1.9168094E-2,-1.197478E-1,-1.5156306E-2,-4.8699968E-2,1.9606823E-2,1.4372163E-1,-8.5962206E-2,2.4607062E-2,-4.722825E-2,-1.5636128E-1,-5.692132E-2,3.8657814E-2,-3.9348613E-2,-1.3998944E-1],"categories":[],"categories_nodes":[],"categories_segments":[],"categories_sizes":[],"default_left":[1,1,1,1,1,1,1,1,1,1,1,0,1,1,0,1,0,1,0,1,1,1,0,1,1,0,0,0,0,1,0,1,0,0,1,0,1,0,1,0,0,0,0,0,0,0,0,0,0,0,0],"id":0,"left_children":[1,3,5,7,9,11,13,15,17,19,21,-1,23,25,-1,27,-1,29,-1,31,33,35,-1,37,39,-1,-1,-1,-1,41,-1,43,-1,-1,45,-1,47,-1,49,-1,-1,-1,-1,-1,-1,-1,-1,-1,-1,-1,-1],"loss_changes":[4.0138573E1,2.0080047E0,2.2654839E0,3.9838982E-1,3.613719E-1,3.652147E-1,1.04522705E-1,4.9888134E-2,2.0065999E-1,4.071279E-2,1.3083652E-2,0E0,1.6158924E-2,3.458929E-2,0E0,4.292202E-2,0E0,8.729035E-2,0E0,3.023684E-2,5.813238E-2,2.149046E-2,0E0,5.1565915E-3,1.215782E-3,0E0,0E0,0E0,0E0,4.7620773E-2,0E0,1.0970745E-2,0E0,0E0,3.3708364E-2,0E0,9.024185E-3,0E0,7.510893E-3,0E0,0E0,0E0,0E0,0E0,0E0,0E0,0E0,0E0,0E0,0E0,0E0],"parents":[2147483647,0,0,1,1,2,2,3,3,4,4,5,5,6,6,7,7,8,8,9,9,10,10,12,12,13,13,15,15,17,17,19,19,20,20,21,21,23,23,24,24,29,29,31,31,34,34,36,36,38,38],"right_children":[2,4,6,8,10,12,14,16,18,20,22,-1,24,26,-1,28,-1,30,-1,32,34,36,-1,38,40,-1,-1,-1,-1,42,-1,44,-1,-1,46,-1,48,-1,50,-1,-1,-1,-1,-1,-1,-1,-1,-1,-1,-1,-1],"split_conditions":[3.5855225E-1,2.6552224E-1,4.5161694E-1,1.7468664E-1,3.555748E-1,4.4805282E-1,5.446488E-1,9.9926114E-1,2.6308393E-1,4.5097464E-1,3.5651457E-1,-8.675623E-2,4.498E-1,5.4030406E-1,-1.485908E-1,1.1868194E-2,1.1235801E-2,2.628606E-1,8.882322E-2,3.5488698E-1,4.8811033E-1,3.5612488E-1,4.72762E-2,4.4827372E-1,4.5046055E-1,-1.3303576E-1,-9.160566E-2,1.3591862E-2,9.2685506E-2,1.7831641E-1,-3.1852078E-2,4.0936354E-1,-6.796444E-2,2.4413737E-2,6.7288136E-1,3.2804318E-2,4.1314152E-1,-5.7504284E-3,1.767556E-1,-4.546892E-3,-1.4609991E-2,5.882047E-3,4.3116488E-2,-2.5788663E-2,7.382119E-3,-1.4168476E-2,-4.6908386E-2,-1.7076395E-2,1.1597345E-2,-1.1804584E-2,-4.1996833E-2],"split_indices":[1,1,1,1,1,1,1,0,1,0,1,0,1,1,0,1,0,1,0,1,0,1,0,1,1,0,0,0,0,1,0,0,0,0,0,0,0,0,0,0,0,0,0,0,0,0,0,0,0,0,0],"split_type":[0,0,0,0,0,0,0,0,0,0,0,0,0,0,0,0,0,0,0,0,0,0,0,0,0,0,0,0,0,0,0,0,0,0,0,0,0,0,0,0,0,0,0,0,0,0,0,0,0,0,0],"sum_hessian":[4.4E2,1.45E2,2.95E2,1.08E2,3.7E1,3.7E1,2.58E2,7.4E1,3.4E1,2.5E1,1.2E1,2.2E1,1.5E1,3.8E1,2.2E2,7.3E1,1E0,2.6E1,8E0,4E0,2.1E1,5E0,7E0,8E0,7E0,2.2E1,1.6E1,1E0,7.2E1,2.5E1,1E0,2E0,2E0,2E0,1.9E1,3E0,2E0,1E0,7E0,3E0,4E0,4E0,2.1E1,1E0,1E0,1.6E1,3E0,1E0,1E0,2E0,5E0],"tree_param":{"num_deleted":"0","num_feature":"2","num_nodes":"51","size_leaf_vector":"0"}},{"base_weights":[-1.6701154E-1,1.3595505E-1,-3.1588355E-1,1.846363E-1,-7.261024E-3,-1.5083402E-1,-3.3887967E-1,2.1309501E-1,1.155922E-1,-5.8215924E-2,9.520732E-2,-1.9848336E-1,-4.393276E-2,-2.819979E-1,-3.4738424E-1,2.630453E-1,1.9305792E-1,6.3667774E-2,1.9457258E-1,-1.5853758E-1,-4.3250054E-2,5.1321667E-2,1.16220646E-1,-1.0202408E-2,-4.9138054E-2,-3.218719E-1,-2.2308461E-1,-6.7103133E-3,2.2060867E-1,-1.390494E-1,9.0891965E-2,-2.6346732E-2,-1.2117999E-1,8.474448E-2,-1.0349314E-2,-5.825919E-2,-1.8611275E-2,-5.7313453E-2,9.6732736E-2,2.2374745E-1,3.183478E-2,5.543798E-3,-2.1411788E-1,1.0956132E-1,-1.3191287E-1,-1.6952144E-2,-1.0711925E-1,-1.6344352E-1,2.8053075E-3,-4.8383117E-2,3.2859147E-2,-6.258239E-2,-1.3998389E-2,-1.931116E-3,-2.3527622E-2],"categories":[],"categories_nodes":[],"categories_segments":[],"categories_sizes":[],"default_left":[1,1,1,1,1,1,1,1,1,1,1,0,1,1,0,0,1,1,0,0,1,1,0,0,1,0,0,1,1,1,1,1,1,0,1,1,1,0,0,0,0,0,0,0,0,0,0,0,0,0,0,0,0,0,0],"id":1,"left_children":[1,3,5,7,9,11,13,15,17,19,21,-1,23,25,-1,-1,27,29,-1,-1,31,33,-1,-1,35,-1,-1,37,39,41,43,45,47,-1,49,51,53,-1,-1,-1,-1,-1,-1,-1,-1,-1,-1,-1,-1,-1,-1,-1,-1,-1,-1],"loss_changes":[1.9933474E1,1.0192435E0,1.0723534E0,1.8954277E-1,2.0395061E-1,1.8484354E-1,2.7332306E-2,2.5282145E-2,1.2704632E-1,3.217966E-2,6.0237497E-3,0E0,1.7811675E-3,1.9810438E-2,0E0,0E0,3.2069874E-1,1.3405229E-1,0E0,0E0,2.8421905E-2,1.3244353E-2,0E0,0E0,1.97855E-3,0E0,0E0,4.7420427E-2,2.309537E-2,3.3750206E-2,9.7645E-2,1.4119415E-2,2.141874E-2,0E0,6.519974E-3,6.547328E-4,2.8258713E-4,0E0,0E0,0E0,0E0,0E0,0E0,0E0,0E0,0E0,0E0,0E0,0E0,0E0,0E0,0E0,0E0,0E0,0E0],"parents":[2147483647,0,0,1,1,2,2,3,3,4,4,5,5,6,6,7,7,8,8,9,9,10,10,12,12,13,13,16,16,17,17,20,20,21,21,24,24,27,27,28,28,29,29,30,30,31,31,32,32,34,34,35,35,36,36],"right_children":[2,4,6,8,10,12,14,16,18,20,22,-1,24,26,-1,-1,28,30,-1,-1,32,34,-1,-1,36,-1,-1,38,40,42,44,46,48,-1,50,52,54,-1,-1,-1,-1,-1,-1,-1,-1,-1,-1,-1,-1,-1,-1,-1,-1,-1,-1],"split_conditions":[3.5855225E-1,2.6552224E-1,4.5161694E-1,1.7547587E-1,3.555748E-1,4.4871166E-1,5.446488E-1,8.1907105E-1,2.6225668E-1,4.4310373E-1,3.5651457E-1,-5.954501E-2,1.4637801E-1,5.3967774E-1,-1.0421528E-1,7.89136E-2,8.4681153E-1,6.5758675E-1,5.837178E-2,-4.7561277E-2,6.7288136E-1,3.5612488E-1,3.4866195E-2,-3.0607225E-3,1.8650742E-1,-9.656157E-2,-6.6925384E-2,1.7376295E-1,9.9926114E-1,6.220087E-1,2.6207554E-1,3.553989E-1,2.7125543E-1,2.5423346E-2,4.1314152E-1,4.5090836E-1,1.9070825E-1,-1.7194036E-2,2.9019821E-2,6.712424E-2,9.550435E-3,1.6631396E-3,-6.423537E-2,3.2868396E-2,-3.9573863E-2,-5.0856434E-3,-3.2135777E-2,-4.9033057E-2,8.4159226E-4,-1.4514935E-2,9.857744E-3,-1.8774718E-2,-4.199517E-3,-5.793348E-4,-7.058287E-3],"split_indices":[1,1,1,1,1,1,1,0,1,0,1,0,0,1,0,0,0,0,0,0,0,1,0,0,0,0,0,1,0,0,1,1,1,0,0,1,0,0,0,0,0,0,0,0,0,0,0,0,0,0,0,0,0,0,0],"split_type":[0,0,0,0,0,0,0,0,0,0,0,0,0,0,0,0,0,0,0,0,0,0,0,0,0,0,0,0,0,0,0,0,0,0,0,0,0,0,0,0,0,0,0,0,0,0,0,0,0,0,0,0,0,0,0],"sum_hessian":[4.4E2,1.45E2,2.95E2,1.08E2,3.7E1,3.7E1,2.58E2,7.5E1,3.3E1,2.5E1,1.2E1,2.5E1,1.2E1,3.8E1,2.2E2,1.8E1,5.7E1,2.1E1,1.2E1,2E0,2.3E1,5E0,7E0,2E0,1E1,2E1,1.8E1,7E0,5E1,2E0,1.9E1,2E1,3E0,3E0,2E0,7E0,3E0,5E0,2E0,4.9E1,1E0,1E0,1E0,1.8E1,1E0,1.9E1,1E0,2E0,1E0,1E0,1E0,6E0,1E0,1E0,2E0],"tree_param":{"num_deleted":"0","num_feature":"2","num_nodes":"55","size_leaf_vector":"0"}},{"base_weights":[-1.17546976E-1,9.5710754E-2,-2.223378E-1,1.3068125E-1,-7.118028E-3,-1.0803691E-1,-2.3824936E-1,1.513693E-1,8.059378E-2,-5.2864447E-2,5.908733E-2,-1.4924711E-1,-4.2044945E-2,-2.015905E-1,-2.4364051E-1,1.9236593E-1,1.3629629E-1,4.819429E-2,1.6523743E-1,-1.2683006E-1,-3.978058E-2,8.738348E-2,2.7369933E-2,1.347962E-2,-4.6645224E-2,-2.2317371E-1,-1.4710805E-1,4.948139E-3,2.0309944E-1,-3.4996808E-2,1.6002798E-1,5.9676737E-2,-1.1943345E-1,-6.368904E-2,-7.1123717E-3,-4.1125655E-2,4.107259E-2,-3.334313E-2,-8.873924E-2,2.1241072E-1,2.7059555E-2,7.813059E-2,-1.1849936E-1,1.6417983E-1,3.7487883E-2,-4.962886E-2,7.6837905E-2,-1.8752078E-2,-9.310799E-2,2.3458838E-2,-1.3115711E-2,6.104046E-2,5.8446005E-3,-8.161922E-3,-3.7179533E-2,-1.1569545E-1,-1.7413408E-2],"categories":[],"categories_nodes":[],"categories_segments":[],"categories_sizes":[],"default_left":[1,1,1,1,1,1,1,1,1,1,1,0,1,1,0,1,1,1,0,0,1,0,1,0,1,0,0,0,1,1,1,1,0,1,1,0,1,1,1,0,0,0,0,0,0,0,0,0,0,0,0,0,0,0,0,0,0],"id":2,"left_children":[1,3,5,7,9,11,13,15,17,19,21,-1,23,25,-1,27,29,31,-1,-1,33,-1,35,-1,37,-1,-1,-1,39,41,43,45,-1,47,49,-1,51,53,55,-1,-1,-1,-1,-1,-1,-1,-1,-1,-1,-1,-1,-1,-1,-1,-1,-1,-1],"loss_changes":[9.876507E0,5.259423E-1,5.1259613E-1,1.00747705E-1,1.1821262E-1,9.7067505E-2,2.0723343E-3,2.074492E-2,8.527848E-2,1.7213024E-2,1.1968002E-2,0E0,4.7156177E-3,1.3029575E-2,0E0,3.520477E-2,2.4543989E-1,5.7171587E-2,0E0,0E0,1.5948992E-2,0E0,1.013628E-2,0E0,5.440235E-3,0E0,0E0,0E0,2.2117913E-2,8.482984E-2,2.0301342E-2,5.0708674E-2,0E0,1.4118012E-2,2.1429725E-3,0E0,5.2706664E-3,9.524133E-4,3.7533697E-3,0E0,0E0,0E0,0E0,0E0,0E0,0E0,0E0,0E0,0E0,0E0,0E0,0E0,0E0,0E0,0E0,0E0,0E0],"parents":[2147483647,0,0,1,1,2,2,3,3,4,4,5,5,6,6,7,7,8,8,9,9,10,10,12,12,13,13,15,15,16,16,17,17,20,20,22,22,24,24,28,28,29,29,30,30,31,31,33,33,34,34,36,36,37,37,38,38],"right_children":[2,4,6,8,10,12,14,16,18,20,22,-1,24,26,-1,28,30,32,-1,-1,34,-1,36,-1,38,-1,-1,-1,40,42,44,46,-1,48,50,-1,52,54,56,-1,-1,-1,-1,-1,-1,-1,-1,-1,-1,-1,-1,-1,-1,-1,-1,-1,-1],"split_conditions":[3.5855225E-1,2.6552224E-1,4.5161694E-1,1.7547587E-1,3.5505545E-1,4.4805282E-1,5.446488E-1,4.9937546E-2,2.6308393E-1,4.4310373E-1,4.0293536E-1,-4.4774134E-2,4.4827372E-1,5.4121107E-1,-7.3092155E-2,1.1868194E-2,7.966129E-2,2.628606E-1,4.957123E-2,-3.804902E-2,2.7513075E-1,2.6215045E-2,4.0971023E-1,4.0438864E-3,2.1020533E-1,-6.695212E-2,-4.4132415E-2,1.4844418E-3,9.9926114E-1,9.3258023E-1,9.637781E-1,1.7831641E-1,-3.5830036E-2,2.6947683E-1,4.9677193E-1,-1.2337697E-2,4.5069334E-1,1.4637801E-1,2.1561602E-1,6.372322E-2,8.117867E-3,2.3439178E-2,-3.554981E-2,4.925395E-2,1.12463655E-2,-1.4888659E-2,2.3051372E-2,-5.6256233E-3,-2.7932398E-2,7.0376517E-3,-3.9347135E-3,1.831214E-2,1.7533802E-3,-2.4485767E-3,-1.115386E-2,-3.4708634E-2,-5.2240225E-3],"split_indices":[1,1,1,1,1,1,1,1,1,0,0,0,1,1,0,1,1,1,0,0,1,0,0,0,0,0,0,0,0,0,0,1,0,1,0,0,0,0,0,0,0,0,0,0,0,0,0,0,0,0,0,0,0,0,0,0,0],"split_type":[0,0,0,0,0,0,0,0,0,0,0,0,0,0,0,0,0,0,0,0,0,0,0,0,0,0,0,0,0,0,0,0,0,0,0,0,0,0,0,0,0,0,0,0,0,0,0,0,0,0,0,0,0,0,0,0,0],"sum_hessian":[4.4E2,1.45E2,2.95E2,1.08E2,3.7E1,3.7E1,2.58E2,7.5E1,3.3E1,2.2E1,1.5E1,2.2E1,1.5E1,3.8E1,2.2E2,1.7E1,5.8E1,2.5E1,8E0,2E0,2E1,7E0,8E0,1E0,1.4E1,2.5E1,1.3E1,1E0,1.6E1,7E0,5.1E1,2.4E1,1E0,1.1E1,9E0,1E0,7E0,1.2E1,2E0,1.5E1,1E0,3E0,4E0,4.9E1,2E0,3E0,2.1E1,5E0,6E0,1E0,8E0,4E0,3E0,2E0,1E1,1E0,1E0],"tree_param":{"num_deleted":"0","num_feature":"2","num_nodes":"57","size_leaf_vector":"0"}},{"base_weights":[-8.266698E-2,6.774451E-2,-1.5657714E-1,9.2794485E-2,-5.8921217E-3,-7.81065E-2,-1.6748567E-1,1.16989136E-1,6.866972E-2,-3.998355E-2,4.3482564E-2,-1.0196239E-1,-2.4386538E-2,1.7491066E-1,1.0116631E-1,-1.5162442E-2,8.266605E-2,-3.0716134E-2,-1.2193334E-1,1.9746525E-2,6.4750284E-2,-1.5821892E-1,-8.7745495E-2,-2.9073736E-2,-6.5719113E-3,6.923994E-2,1.9267336E-1,1.387298E-1,7.237708E-2,2.1924801E-2,-1.5593019E-1,1.5379387E-1,6.0484707E-2,-1.21127E-2,-5.6241903E-2,-3.4650862E-3,6.732478E-2,1.6201548E-2,-1.0414763E-1,-8.507721E-3,-3.6672354E-2,3.935471E-3,-1.1386196E-2,4.3539748E-2,1.5486516E-1,-6.930208E-2,1.07726984E-1,-2.7619967E-2,1.13706075E-1,8.0901064E-2,1.8388961E-1,1.2763824E-1,3.608404E-2,-1.6112141E-2,1.9940019E-2,-7.183188E-2,-1.1179844E-3,2.6600083E-2,-9.192805E-2,3.146966E-2,-1.4801398E-2,-5.176549E-2,-1.14007816E-1,-1.1526515E-2,2.7433038E-4,-6.52953E-3,-4.742358E-2],"categories":[],"categories_nodes":[],"categories_segments":[],"categories_sizes":[],"default_left":[1,1,1,1,1,1,0,1,1,1,1,1,1,1,1,1,1,1,0,1,0,0,1,1,1,0,0,1,1,1,0,1,1,1,1,1,0,1,1,1,1,0,0,0,0,0,0,0,0,0,0,0,0,0,0,0,0,0,0,0,0,0,0,0,0,0,0],"id":3,"left_children":[1,3,5,7,9,11,-1,13,15,17,19,21,23,25,27,29,31,33,-1,35,-1,-1,37,39,41,-1,-1,43,45,47,-1,49,51,53,55,57,-1,59,61,63,65,-1,-1,-1,-1,-1,-1,-1,-1,-1,-1,-1,-1,-1,-1,-1,-1,-1,-1,-1,-1,-1,-1,-1,-1,-1,-1],"loss_changes":[4.913177E0,2.6985776E-1,2.4029398E-1,5.5588603E-2,6.5702215E-2,4.62119E-2,0E0,3.0878544E-2,6.813389E-2,1.3722323E-2,6.7983884E-3,6.9116056E-3,8.944394E-4,5.429268E-3,3.7541777E-2,5.040493E-2,6.800565E-2,9.765828E-3,0E0,1.0172598E-2,0E0,0E0,4.090129E-2,1.2507346E-3,2.4715217E-4,0E0,0E0,2.0903885E-2,1.4269102E-1,3.951881E-2,0E0,9.254515E-3,5.9299335E-2,2.1159782E-3,7.654123E-3,2.1062871E-2,0E0,2.3592212E-3,4.4282973E-3,1.09206885E-4,1.9588517E-3,0E0,0E0,0E0,0E0,0E0,0E0,0E0,0E0,0E0,0E0,0E0,0E0,0E0,0E0,0E0,0E0,0E0,0E0,0E0,0E0,0E0,0E0,0E0,0E0,0E0,0E0],"parents":[2147483647,0,0,1,1,2,2,3,3,4,4,5,5,7,7,8,8,9,9,10,10,11,11,12,12,13,13,14,14,15,15,16,16,17,17,19,19,22,22,23,23,24,24,27,27,28,28,29,29,31,31,32,32,33,33,34,34,35,35,37,37,38,38,39,39,40,40],"right_children":[2,4,6,8,10,12,-1,14,16,18,20,22,24,26,28,30,32,34,-1,36,-1,-1,38,40,42,-1,-1,44,46,48,-1,50,52,54,56,58,-1,60,62,64,66,-1,-1,-1,-1,-1,-1,-1,-1,-1,-1,-1,-1,-1,-1,-1,-1,-1,-1,-1,-1,-1,-1,-1,-1,-1,-1],"split_conditions":[3.5855225E-1,2.6552224E-1,4.5161694E-1,1.0350783E-1,3.5505545E-1,4.4871166E-1,-5.0245702E-2,9.0818983E-1,1.6944855E-1,3.5488698E-1,3.5651457E-1,2.1245599E-1,1.8650742E-1,7.858932E-2,6.278235E-2,1.6916797E-1,1.7330311E-1,6.61995E-1,-3.6580004E-2,4.5097464E-1,1.9425087E-2,-4.746568E-2,2.3186597E-1,4.4936422E-1,1.9070825E-1,2.0771982E-2,5.780201E-2,1.6359046E-2,7.966129E-2,8.33548E-1,-4.677906E-2,1.7078854E-1,6.3067585E-1,3.5472E-1,2.7513075E-1,4.3396008E-1,2.0197434E-2,2.1771011E-1,3.619818E-1,1.7675868E-1,1.481015E-1,1.1806414E-3,-3.415859E-3,1.3061925E-2,4.645955E-2,-2.0790625E-2,3.2318097E-2,-8.285991E-3,3.4111824E-2,2.427032E-2,5.5166885E-2,3.8291473E-2,1.0825213E-2,-4.8336424E-3,5.982006E-3,-2.1549566E-2,-3.3539534E-4,7.980025E-3,-2.7578415E-2,9.440899E-3,-4.4404194E-3,-1.55296475E-2,-3.4202345E-2,-3.4579546E-3,8.229911E-5,-1.9588592E-3,-1.4227075E-2],"split_indices":[1,1,1,1,1,1,0,0,1,1,1,0,0,1,1,1,1,0,0,0,0,0,0,1,0,0,0,1,1,0,0,1,0,1,1,0,0,0,1,0,0,0,0,0,0,0,0,0,0,0,0,0,0,0,0,0,0,0,0,0,0,0,0,0,0,0,0],"split_type":[0,0,0,0,0,0,0,0,0,0,0,0,0,0,0,0,0,0,0,0,0,0,0,0,0,0,0,0,0,0,0,0,0,0,0,0,0,0,0,0,0,0,0,0,0,0,0,0,0,0,0,0,0,0,0,0,0,0,0,0,0,0,0,0,0,0,0],"sum_hessian":[4.4E2,1.45E2,2.95E2,1.08E2,3.7E1,3.7E1,2.58E2,5.2E1,5.6E1,2.2E1,1.5E1,2.5E1,1.2E1,9E0,4.3E1,8E0,4.8E1,2.1E1,1E0,8E0,7E0,3E0,2.2E1,9E0,3E0,2E0,7E0,1.7E1,2.6E1,7E0,1E0,1E1,3.8E1,1.3E1,8E0,6E0,2E0,3E0,1.9E1,3E0,6E0,1E0,2E0,3E0,1.4E1,5E0,2.1E1,5E0,2E0,4E0,6E0,9E0,2.9E1,1.2E1,1E0,6E0,2E0,5E0,1E0,2E0,1E0,4E0,1.5E1,2E0,1E0,2E0,4E0],"tree_param":{"num_deleted":"0","num_feature":"2","num_nodes":"67","size_leaf_vector":"0"}},{"base_weights":[-5.77406E-2,4.8927527E-2,-1.1015886E-1,6.731598E-2,-5.1058736E-3,-5.76744E-2,-1.17433965E-1,8.487194E-2,4.8536096E-2,-2.6759619E-2,3.8594376E-2,-7.491972E-2,-1.874726E-2,-1.0253138E-1,-1.2317554E-1,1.0843742E-1,6.587564E-2,-7.5581804E-2,5.715024E-2,-7.707162E-2,-1.4108726E-2,5.0309643E-2,1.6541624E-2,-1.2261966E-1,-6.33667E-2,-2.230778E-2,-5.159147E-3,5.5590253E-2,1.23819344E-1,-1.4640284E-1,7.708443E-2,1.6309896E-2,-1.7562845E-1,7.299945E-2,2.5780598E-2,-7.2645843E-3,-1.2118813E-1,5.385981E-2,-2.359857E-2,-3.8946822E-2,3.542868E-2,1.2591206E-2,-7.538995E-2,-6.799318E-3,-2.7982933E-2,3.3451468E-3,-9.108961E-3,8.671591E-2,-6.558183E-2,1.5614955E-1,6.792917E-2,1.0372436E-1,3.0170353E-2,-4.2048663E-2,6.651351E-2,1.1946634E-1,4.5581963E-2,-6.602296E-3,5.5585433E-2,-2.7845904E-2,1.6949028E-2,-1.3701282E-2,-5.9762396E-2,2.517573E-2,-1.25811845E-2,-3.9341785E-2,-8.1943125E-2,-9.221206E-3,2.3317337E-4,-3.698781E-2,-3.6471586E-3],"categories":[],"categories_nodes":[],"categories_segments":[],"categories_sizes":[],"default_left":[1,1,1,1,1,1,1,1,1,1,1,1,1,0,0,1,1,1,1,1,1,0,1,0,1,1,1,1,1,0,1,1,0,1,1,1,0,0,1,0,0,1,1,1,1,0,0,0,0,0,0,0,0,0,0,0,0,0,0,0,0,0,0,0,0,0,0,0,0,0,0],"id":4,"left_children":[1,3,5,7,9,11,13,15,17,19,21,23,25,-1,-1,27,29,31,33,35,37,-1,39,-1,41,43,45,47,49,-1,51,53,-1,55,57,59,-1,-1,61,-1,-1,63,65,67,69,-1,-1,-1,-1,-1,-1,-1,-1,-1,-1,-1,-1,-1,-1,-1,-1,-1,-1,-1,-1,-1,-1,-1,-1,-1,-1],"loss_changes":[2.4711788E0,1.4540794E-1,1.0624838E-1,3.1817794E-2,3.6991186E-2,2.410528E-2,9.531736E-3,1.747775E-2,6.312384E-2,1.5461408E-2,2.526397E-3,6.558031E-3,5.138605E-4,0E0,0E0,1.1813343E-2,8.980508E-2,3.963831E-2,2.3971587E-2,1.4517825E-2,1.5461251E-2,0E0,7.667914E-3,0E0,2.1954253E-2,6.8986416E-4,1.6483231E-4,3.2087907E-2,2.0110905E-2,0E0,3.686379E-2,1.1586235E-2,0E0,3.787069E-2,1.870516E-2,1.9670054E-3,0E0,0E0,6.3396553E-3,0E0,0E0,1.583871E-3,1.5008077E-3,7.027776E-5,1.3990849E-3,0E0,0E0,0E0,0E0,0E0,0E0,0E0,0E0,0E0,0E0,0E0,0E0,0E0,0E0,0E0,0E0,0E0,0E0,0E0,0E0,0E0,0E0,0E0,0E0,0E0,0E0],"parents":[2147483647,0,0,1,1,2,2,3,3,4,4,5,5,6,6,7,7,8,8,9,9,10,10,11,11,12,12,15,15,16,16,17,17,18,18,19,19,20,20,22,22,24,24,25,25,26,26,27,27,28,28,30,30,31,31,33,33,34,34,35,35,38,38,41,41,42,42,43,43,44,44],"right_children":[2,4,6,8,10,12,14,16,18,20,22,24,26,-1,-1,28,30,32,34,36,38,-1,40,-1,42,44,46,48,50,-1,52,54,-1,56,58,60,-1,-1,62,-1,-1,64,66,68,70,-1,-1,-1,-1,-1,-1,-1,-1,-1,-1,-1,-1,-1,-1,-1,-1,-1,-1,-1,-1,-1,-1,-1,-1,-1,-1],"split_conditions":[3.5855225E-1,2.6552224E-1,4.5161694E-1,1.3716613E-1,3.555748E-1,4.4871166E-1,6.3729274E-1,9.339376E-1,1.6866669E-1,4.5097464E-1,4.0293536E-1,2.1245599E-1,1.8650742E-1,-3.0759415E-2,-3.6952663E-2,8.150105E-2,9.3692094E-1,8.2522917E-1,8.183328E-1,3.5488698E-1,4.8811033E-1,1.50928935E-2,4.0971023E-1,-3.67859E-2,2.3186597E-1,4.4936422E-1,1.9070825E-1,8.109294E-2,8.990499E-2,-4.3920852E-2,7.8963734E-2,7.958952E-1,-5.268854E-2,1.7513311E-1,1.7831641E-1,4.0936354E-1,-3.6356438E-2,1.6157944E-2,6.7288136E-1,-1.1684047E-2,1.0628604E-2,2.1771011E-1,3.619818E-1,1.7675868E-1,4.5090836E-1,1.0035441E-3,-2.7326883E-3,2.6014773E-2,-1.9674549E-2,4.6844866E-2,2.0378752E-2,3.1117309E-2,9.051106E-3,-1.2614599E-2,1.9954054E-2,3.5839904E-2,1.367459E-2,-1.980689E-3,1.667563E-2,-8.353772E-3,5.0847083E-3,-4.1103847E-3,-1.792872E-2,7.552719E-3,-3.7743554E-3,-1.1802536E-2,-2.458294E-2,-2.766362E-3,6.995202E-5,-1.1096343E-2,-1.0941477E-3],"split_indices":[1,1,1,1,1,1,1,0,1,0,0,0,0,0,0,1,0,0,0,1,0,0,0,0,0,1,0,1,1,0,1,0,0,1,1,0,0,0,0,0,0,0,1,0,1,0,0,0,0,0,0,0,0,0,0,0,0,0,0,0,0,0,0,0,0,0,0,0,0,0,0],"split_type":[0,0,0,0,0,0,0,0,0,0,0,0,0,0,0,0,0,0,0,0,0,0,0,0,0,0,0,0,0,0,0,0,0,0,0,0,0,0,0,0,0,0,0,0,0,0,0,0,0,0,0,0,0,0,0,0,0,0,0,0,0,0,0,0,0,0,0,0,0,0,0],"sum_hessian":[4.4E2,1.45E2,2.95E2,1.08E2,3.7E1,3.7E1,2.58E2,5.4E1,5.4E1,2.5E1,1.2E1,2.5E1,1.2E1,7.7E1,1.81E2,2.2E1,3.2E1,3E0,5.1E1,4E0,2.1E1,7E0,5E0,3E0,2.2E1,9E0,3E0,6E0,1.6E1,1E0,3.1E1,2E0,1E0,3.3E1,1.8E1,2E0,2E0,2E0,1.9E1,1E0,4E0,3E0,1.9E1,3E0,6E0,1E0,2E0,5E0,1E0,9E0,7E0,1.9E1,1.2E1,1E0,1E0,1.1E1,2.2E1,9E0,9E0,1E0,1E0,1.6E1,3E0,2E0,1E0,4E0,1.5E1,2E0,1E0,4E0,2E0],"tree_param":{"num_deleted":"0","num_feature":"2","num_nodes":"71","size_leaf_vector":"0"}},{"base_weights":[-4.0637285E-2,3.464106E-2,-7.7630535E-2,5.649265E-2,1.0109446E-2,-5.3655054E-2,-8.50974E-2,9.063902E-2,4.8140433E-2,-7.906818E-2,1.3895085E-2,-2.5574762E-2,-6.237997E-2,5.0022352E-2,1.0764579E-1,2.8097205E-4,6.0334392E-2,3.587584E-2,-4.402242E-3,-3.4099203E-2,1.4916681E-2,-4.490743E-2,-9.071155E-2,7.432337E-2,-3.574136E-2,2.05411E-2,-1.3155034E-1,4.588072E-2,8.908425E-2,1.4236847E-2,8.718928E-2,-2.355973E-2,2.3411788E-2,-5.8750346E-2,-1.7553195E-2,3.157355E-2,-1.1601249E-3,-5.511276E-2,-1.6703246E-2,8.410595E-2,-6.938952E-3,7.070993E-2,1.7123183E-2,-3.589056E-2,4.902522E-2,-7.275609E-2,-1.5409787E-2,3.7103347E-2,8.640204E-3,-8.0635376E-2,-9.986858E-3,-2.487379E-2,-3.7937253E-3,-5.7154745E-3,3.975287E-3,-9.503023E-2,-4.5774385E-2,-2.094512E-2,-4.0436834E-3],"categories":[],"categories_nodes":[],"categories_segments":[],"categories_sizes":[],"default_left":[1,1,1,1,1,1,0,1,1,0,1,1,1,1,0,1,1,1,1,1,1,1,0,0,0,1,0,1,0,1,0,1,1,1,1,0,1,1,1,0,0,0,0,0,0,0,0,0,0,0,0,0,0,0,0,0,0,0,0],"id":5,"left_children":[1,3,5,7,9,11,-1,13,15,-1,17,19,21,23,-1,25,27,29,31,33,35,37,-1,-1,-1,39,-1,41,-1,43,-1,45,47,49,51,-1,53,55,57,-1,-1,-1,-1,-1,-1,-1,-1,-1,-1,-1,-1,-1,-1,-1,-1,-1,-1,-1,-1],"loss_changes":[1.2307818E0,7.7692896E-2,4.842472E-2,1.759684E-2,2.4730252E-2,1.6289517E-2,0E0,4.285924E-3,3.733322E-2,0E0,2.7506791E-2,7.066816E-3,2.3152724E-2,1.5161289E-2,0E0,4.0095057E-2,1.7105326E-2,3.31802E-2,2.079976E-2,5.49479E-3,1.1077862E-3,9.44142E-3,0E0,0E0,0E0,2.3291558E-2,0E0,2.4494193E-2,0E0,4.1868117E-2,0E0,8.100637E-3,2.9153572E-3,5.5978484E-3,1.0136382E-3,0E0,9.290144E-5,5.3419247E-3,5.060076E-4,0E0,0E0,0E0,0E0,0E0,0E0,0E0,0E0,0E0,0E0,0E0,0E0,0E0,0E0,0E0,0E0,0E0,0E0,0E0,0E0],"parents":[2147483647,0,0,1,1,2,2,3,3,4,4,5,5,7,7,8,8,10,10,11,11,12,12,13,13,15,15,16,16,17,17,18,18,19,19,20,20,21,21,25,25,27,27,29,29,31,31,32,32,33,33,34,34,36,36,37,37,38,38],"right_children":[2,4,6,8,10,12,-1,14,16,-1,18,20,22,24,-1,26,28,30,32,34,36,38,-1,-1,-1,40,-1,42,-1,44,-1,46,48,50,52,-1,54,56,58,-1,-1,-1,-1,-1,-1,-1,-1,-1,-1,-1,-1,-1,-1,-1,-1,-1,-1,-1,-1],"split_conditions":[3.5855225E-1,1.7638688E-1,5.4391915E-1,7.948498E-1,1.7831641E-1,1.3248403E-1,-2.5529223E-2,1.688678E-1,8.4681153E-1,-2.3720454E-2,2.6552224E-1,3.3694338E-2,4.5150292E-1,7.388673E-1,3.2293737E-2,8.431572E-1,8.738144E-2,2.6308393E-1,3.5505545E-1,5.4121107E-1,5.6430522E-2,4.4871166E-1,-2.7213465E-2,2.2297012E-2,-1.0722408E-2,1.684443E-1,-3.9465103E-2,7.663457E-2,2.6725277E-2,6.76082E-1,2.6156785E-2,4.4310373E-1,4.0293536E-1,3.202586E-2,5.429293E-1,9.472065E-3,1.03484794E-1,2.1245599E-1,1.8650742E-1,2.5231788E-2,-2.0816857E-3,2.121298E-2,5.136955E-3,-1.0767168E-2,1.4707566E-2,-2.1826828E-2,-4.6229362E-3,1.1131004E-2,2.5920612E-3,-2.4190614E-2,-2.9960575E-3,-7.462137E-3,-1.1381176E-3,-1.7146424E-3,1.1925861E-3,-2.8509071E-2,-1.3732316E-2,-6.2835366E-3,-1.213105E-3],"split_indices":[1,1,1,0,1,0,0,1,0,0,1,0,1,0,0,0,1,1,1,1,0,1,0,0,0,1,0,1,0,0,0,0,0,0,1,0,0,0,0,0,0,0,0,0,0,0,0,0,0,0,0,0,0,0,0,0,0,0,0],"split_type":[0,0,0,0,0,0,0,0,0,0,0,0,0,0,0,0,0,0,0,0,0,0,0,0,0,0,0,0,0,0,0,0,0,0,0,0,0,0,0,0,0,0,0,0,0,0,0,0,0,0,0,0,0,0,0,0,0,0,0],"sum_hessian":[4.4E2,1.45E2,2.95E2,7.6E1,6.9E1,7.2E1,2.23E2,1.3E1,6.3E1,2E0,6.7E1,1.8E1,5.4E1,5E0,8E0,1.3E1,5E1,3E1,3.7E1,1.5E1,3E0,3.5E1,1.9E1,4E0,1E0,1.2E1,1E0,3.5E1,1.5E1,2.2E1,8E0,2.2E1,1.5E1,5E0,1E1,1E0,2E0,2.5E1,1E1,3E0,9E0,1.8E1,1.7E1,9E0,1.3E1,2E0,2E1,7E0,8E0,3E0,2E0,6E0,4E0,1E0,1E0,3E0,2.2E1,7E0,3E0],"tree_param":{"num_deleted":"0","num_feature":"2","num_nodes":"59","size_leaf_vector":"0"}},{"base_weights":[-2.8570907E-2,2.4757495E-2,-5.477826E-2,4.059197E-2,6.985897E-3,-3.1167466E-2,-5.803089E-2,3.3993453E-2,7.046208E-2,-6.325454E-2,9.982007E-3,-4.2320453E-2,-1.3187079E-2,-5.0272726E-2,-6.1036967E-2,4.2249463E-2,-2.207166E-2,9.89354E-2,4.0299326E-2,2.6083961E-2,-3.4164833E-3,-3.624892E-2,-8.79471E-2,9.827033E-3,-1.5376489E-2,-4.447623E-2,-6.485876E-2,2.5626017E-2,5.6356367E-2,-1.4824334E-1,1.2230217E-2,-2.2486567E-2,6.4975716E-2,-4.508607E-3,5.5046283E-2,-1.5545974E-2,2.1105302E-2,-4.122422E-2,3.4116164E-2,-2.3331877E-2,-5.499039E-3,-2.141311E-2,-5.2559875E-2,4.8221987E-2,-3.689166E-2,6.1261456E-2,-8.209924E-3,8.407078E-2,-2.5728434E-2,3.2975733E-2,-6.6705585E-2,2.190978E-2,-2.0039222E-1,1.317118E-1,3.468608E-2,-5.273832E-2,-6.386532E-3,8.317192E-3,2.8058223E-2,-2.7769132E-2,-5.32479E-2,-9.0793725E-3,-3.5314538E-2,1.6808063E-3,-1.0143107E-2,-2.610612E-2,2.683752E-2,-6.255137E-2,-3.9113957E-2],"categories":[],"categories_nodes":[],"categories_segments":[],"categories_sizes":[],"default_left":[1,1,1,1,1,1,1,1,1,0,1,1,1,1,0,1,1,0,1,1,1,1,0,0,1,1,0,1,1,0,1,1,0,1,1,1,1,1,0,1,1,1,1,0,0,0,0,0,0,0,0,0,0,0,0,0,0,0,0,0,0,0,0,0,0,0,0,0,0],"id":6,"left_children":[1,3,5,7,9,11,13,15,17,-1,19,21,23,25,-1,27,29,-1,31,33,35,37,-1,-1,39,41,-1,43,45,-1,47,49,-1,51,53,55,57,59,-1,61,63,65,67,-1,-1,-1,-1,-1,-1,-1,-1,-1,-1,-1,-1,-1,-1,-1,-1,-1,-1,-1,-1,-1,-1,-1,-1,-1,-1],"loss_changes":[6.176961E-1,4.08014E-2,2.0923316E-2,1.2781337E-2,1.5362769E-2,7.0622526E-3,2.971828E-3,3.101933E-2,7.1778074E-3,0E0,1.4759565E-2,3.1835586E-3,9.573025E-4,3.7100613E-3,0E0,1.192262E-2,4.0764377E-2,0E0,1.3855716E-2,2.7715165E-2,1.1630699E-2,9.108329E-3,0E0,0E0,1.0503812E-3,9.874135E-3,0E0,4.1333128E-2,1.0004051E-2,0E0,2.3978777E-2,9.557131E-3,0E0,8.718941E-2,2.0406242E-2,8.520374E-3,9.225253E-4,1.9187257E-3,0E0,1.0456294E-3,2.8379814E-4,4.5501157E-3,3.330186E-3,0E0,0E0,0E0,0E0,0E0,0E0,0E0,0E0,0E0,0E0,0E0,0E0,0E0,0E0,0E0,0E0,0E0,0E0,0E0,0E0,0E0,0E0,0E0,0E0,0E0,0E0],"parents":[2147483647,0,0,1,1,2,2,3,3,4,4,5,5,6,6,7,7,8,8,10,10,11,11,12,12,13,13,15,15,16,16,18,18,19,19,20,20,21,21,24,24,25,25,27,27,28,28,30,30,31,31,33,33,34,34,35,35,36,36,37,37,39,39,40,40,41,41,42,42],"right_children":[2,4,6,8,10,12,14,16,18,-1,20,22,24,26,-1,28,30,-1,32,34,36,38,-1,-1,40,42,-1,44,46,-1,48,50,-1,52,54,56,58,60,-1,62,64,66,68,-1,-1,-1,-1,-1,-1,-1,-1,-1,-1,-1,-1,-1,-1,-1,-1,-1,-1,-1,-1,-1,-1,-1,-1,-1,-1],"split_conditions":[3.5855225E-1,1.7638688E-1,4.5161694E-1,1.7078854E-1,1.7831641E-1,4.4805282E-1,6.3729274E-1,1.684443E-1,1.730003E-1,-1.8976364E-2,2.6552224E-1,4.478302E-1,4.4827372E-1,8.5429765E-2,-1.831109E-2,8.150105E-2,1.6866669E-1,2.9680623E-2,1.7356913E-1,2.6173976E-1,3.555748E-1,4.476055E-1,-2.6384132E-2,2.94811E-3,4.498E-1,5.4391915E-1,-1.9457627E-2,7.7149145E-2,9.637781E-1,-4.4473004E-2,1.6916797E-1,8.017522E-1,1.9492716E-2,2.6158386E-1,2.6207554E-1,4.5097464E-1,3.5651457E-1,4.419042E-1,1.02348495E-2,1.8367784E-1,4.5046055E-1,3.3694338E-2,6.303674E-1,1.4466597E-2,-1.10674985E-2,1.8378438E-2,-2.4629773E-3,2.5221234E-2,-7.7185305E-3,9.892721E-3,-2.0011676E-2,6.5729343E-3,-6.0117666E-2,3.951354E-2,1.04058245E-2,-1.5821496E-2,-1.9159596E-3,2.4951578E-3,8.417468E-3,-8.33074E-3,-1.597437E-2,-2.723812E-3,-1.0594361E-2,5.042419E-4,-3.0429321E-3,-7.831836E-3,8.051257E-3,-1.8765412E-2,-1.1734188E-2],"split_indices":[1,1,1,1,1,1,1,1,1,0,1,1,1,0,0,1,1,0,1,1,1,1,0,0,1,1,0,1,0,0,1,0,0,1,1,0,1,0,0,0,1,0,1,0,0,0,0,0,0,0,0,0,0,0,0,0,0,0,0,0,0,0,0,0,0,0,0,0,0],"split_type":[0,0,0,0,0,0,0,0,0,0,0,0,0,0,0,0,0,0,0,0,0,0,0,0,0,0,0,0,0,0,0,0,0,0,0,0,0,0,0,0,0,0,0,0,0,0,0,0,0,0,0,0,0,0,0,0,0,0,0,0,0,0,0,0,0,0,0,0,0],"sum_hessian":[4.4E2,1.45E2,2.95E2,7.6E1,6.9E1,3.7E1,2.58E2,6.4E1,1.2E1,2E0,6.7E1,2.2E1,1.5E1,7.7E1,1.81E2,5.6E1,8E0,5E0,7E0,3E1,3.7E1,2.1E1,1E0,1E0,1.4E1,5.8E1,1.9E1,2.7E1,2.9E1,1E0,7E0,2E0,5E0,1.5E1,1.5E1,2.5E1,1.2E1,2E1,1E0,7E0,7E0,1.6E1,4.2E1,2E1,7E0,2.7E1,2E0,2E0,5E0,1E0,1E0,1.4E1,1E0,2E0,1.3E1,4E0,2.1E1,5E0,7E0,1.1E1,9E0,4E0,3E0,3E0,4E0,1.5E1,1E0,2.2E1,2E1],"tree_param":{"num_deleted":"0","num_feature":"2","num_nodes":"69","size_leaf_vector":"0"}},{"base_weights":[-2.0270474E-2,1.734375E-2,-3.8754955E-2,2.8822156E-2,4.4697374E-3,-4.2438492E-2,-2.8790722E-2,5.4219034E-2,2.2816243E-2,1.814904E-2,-6.8689156E-3,-8.60184E-2,-4.1830048E-2,1.701317E-2,-2.9556783E-2,2.2281349E-2,6.9486484E-2,-9.416832E-3,3.121716E-2,5.587078E-2,3.2471803E-3,-1.1358769E-1,-1.0713771E-3,-3.455875E-2,-4.278825E-2,-1.6207842E-2,-3.1613633E-2,4.2565368E-2,-3.9569378E-2,6.467801E-3,-1.07958525E-1,7.44287E-2,2.2651035E-2,-3.0699402E-2,7.0529476E-2,-1.625087E-2,1.4011884E-2,4.194049E-2,-8.859251E-3,-4.292035E-2,-2.563986E-2,-6.429589E-3,-3.6601514E-2,-2.322152E-2,-4.0319286E-2,6.208211E-3,5.0102606E-2,-9.060469E-3,6.1248858E-2,1.4643371E-2,8.087755E-2,4.4306032E-3,4.8723295E-2,8.6439036E-2,3.3010155E-2,-1.6219914E-3,-6.664094E-2,8.090355E-3,5.141741E-2,5.3286918E-2,1.2831758E-2,-1.2955083E-1,3.1063624E-3,-3.62535E-3,-2.6789183E-2,-1.3240218E-2,1.3875286E-2,-3.1383205E-2,-1.0037752E-2,-2.9331552E-2,-4.6871744E-2],"categories":[],"categories_nodes":[],"categories_segments":[],"categories_sizes":[],"default_left":[1,1,1,1,1,1,1,1,1,1,1,0,1,0,1,1,0,1,1,1,1,0,1,1,0,1,1,1,0,1,0,1,1,0,1,1,1,1,1,0,1,1,0,1,1,0,0,0,0,0,0,0,0,0,0,0,0,0,0,0,0,0,0,0,0,0,0,0,0,0,0],"id":7,"left_children":[1,3,5,7,9,11,13,15,17,19,21,-1,23,-1,25,27,-1,29,31,33,35,-1,37,39,-1,41,43,45,-1,47,-1,49,51,-1,53,55,57,59,61,-1,63,65,-1,67,69,-1,-1,-1,-1,-1,-1,-1,-1,-1,-1,-1,-1,-1,-1,-1,-1,-1,-1,-1,-1,-1,-1,-1,-1,-1,-1],"loss_changes":[3.072904E-1,2.1446053E-2,9.642422E-3,1.0507837E-2,1.0982007E-2,2.0762384E-3,3.415212E-3,5.2782483E-3,1.762436E-2,1.7806549E-2,2.4007848E-2,0E0,5.364418E-6,0E0,1.7390698E-3,9.211774E-3,0E0,2.2612434E-2,1.719204E-2,1.358627E-2,5.2650827E-3,0E0,1.3100457E-2,1.1368133E-3,0E0,2.3570557E-3,4.1778386E-3,1.0591149E-3,0E0,1.161346E-2,0E0,1.9000545E-3,2.0686232E-2,0E0,1.921963E-3,6.5262616E-3,3.1279814E-3,1.2979172E-3,4.8059337E-2,0E0,3.3301022E-4,1.5666015E-3,0E0,3.7738495E-3,1.0010712E-3,0E0,0E0,0E0,0E0,0E0,0E0,0E0,0E0,0E0,0E0,0E0,0E0,0E0,0E0,0E0,0E0,0E0,0E0,0E0,0E0,0E0,0E0,0E0,0E0,0E0,0E0],"parents":[2147483647,0,0,1,1,2,2,3,3,4,4,5,5,6,6,7,7,8,8,9,9,10,10,12,12,14,14,15,15,17,17,18,18,19,19,20,20,22,22,23,23,25,25,26,26,27,27,29,29,31,31,32,32,34,34,35,35,36,36,37,37,38,38,40,40,41,41,43,43,44,44],"right_children":[2,4,6,8,10,12,14,16,18,20,22,-1,24,-1,26,28,-1,30,32,34,36,-1,38,40,-1,42,44,46,-1,48,-1,50,52,-1,54,56,58,60,62,-1,64,66,-1,68,70,-1,-1,-1,-1,-1,-1,-1,-1,-1,-1,-1,-1,-1,-1,-1,-1,-1,-1,-1,-1,-1,-1,-1,-1,-1,-1],"split_conditions":[3.5855225E-1,1.7638688E-1,2.303809E-2,7.948498E-1,6.3067585E-1,5.48426E-1,2.3143139E-2,1.688678E-1,8.4681153E-1,2.6552224E-1,6.3609904E-1,-2.580552E-2,6.3657725E-1,5.1039513E-3,2.7616538E-2,7.388673E-1,2.0845946E-2,8.431572E-1,9.0818983E-1,2.6185602E-1,3.5505545E-1,-3.407631E-2,6.519811E-1,6.312494E-1,-1.2836475E-2,5.451206E-1,4.5161694E-1,6.8797246E-2,-1.1870814E-2,8.297422E-1,-3.238756E-2,7.858932E-2,9.5734084E-1,-9.209821E-3,2.6424804E-1,3.5488698E-1,4.560687E-1,2.7051532E-1,6.5758675E-1,-1.28761055E-2,6.3168085E-1,2.6643584E-2,-1.0980454E-2,4.4805282E-1,1.443656E-1,1.8624634E-3,1.5030783E-2,-2.7181408E-3,1.8374657E-2,4.3930113E-3,2.4263266E-2,1.329181E-3,1.46169895E-2,2.5931712E-2,9.903047E-3,-4.8659745E-4,-1.9992284E-2,2.4271067E-3,1.5425224E-2,1.5986076E-2,3.8495276E-3,-3.886525E-2,9.319088E-4,-1.087605E-3,-8.036755E-3,-3.9720656E-3,4.162586E-3,-9.414962E-3,-3.0113256E-3,-8.799466E-3,-1.4061524E-2],"split_indices":[1,1,0,0,0,1,0,1,0,1,0,0,1,0,0,0,0,0,0,1,1,0,0,1,0,1,1,1,0,0,0,1,0,0,1,1,0,1,0,0,1,0,0,1,0,0,0,0,0,0,0,0,0,0,0,0,0,0,0,0,0,0,0,0,0,0,0,0,0,0,0],"split_type":[0,0,0,0,0,0,0,0,0,0,0,0,0,0,0,0,0,0,0,0,0,0,0,0,0,0,0,0,0,0,0,0,0,0,0,0,0,0,0,0,0,0,0,0,0,0,0,0,0,0,0,0,0,0,0,0,0,0,0,0,0,0,0,0,0,0,0,0,0,0,0],"sum_hessian":[4.4E2,1.45E2,2.95E2,7.6E1,6.9E1,2.13E2,8.2E1,1.3E1,6.3E1,3.1E1,3.8E1,1E0,2.12E2,1E0,8.1E1,5E0,8E0,1.3E1,5E1,8E0,2.3E1,1E0,3.7E1,2.9E1,1.83E2,1.2E1,6.9E1,4E0,1E0,1.2E1,1E0,7E0,4.3E1,1E0,7E0,8E0,1.5E1,5E0,3.2E1,1.3E1,1.6E1,9E0,3E0,3.7E1,3.2E1,1E0,3E0,1E1,2E0,1E0,6E0,2.6E1,1.7E1,4E0,3E0,7E0,1E0,1.4E1,1E0,3E0,2E0,2E0,3E1,1E0,1.5E1,7E0,2E0,2.2E1,1.5E1,1.4E1,1.8E1],"tree_param":{"num_deleted":"0","num_feature":"2","num_nodes":"71","size_leaf_vector":"0"}},{"base_weights":[-1.4361785E-2,1.1881015E-2,-2.7793491E-2,1.7227266E-2,-4.912323E-3,-2.087403E-2,-2.9800855E-2,-1.6502788E-2,1.925396E-2,-1.18149295E-1,1.5150737E-3,-2.4083642E-2,-1.7611966E-3,-7.311564E-2,-2.9278744E-2,2.557838E-2,-3.8450934E-2,1.4668266E-2,5.1636476E-2,-1.1961047E-3,2.3503527E-2,-5.1587828E-2,-2.1688994E-2,-8.486958E-3,8.007109E-3,1.8671459E-2,-2.979717E-2,-3.63881E-2,7.475567E-2,-8.635789E-2,-4.88472E-3,1.8462136E-2,-1.7287469E-1,7.303825E-2,2.7859926E-3,3.534082E-3,-4.9676E-2,3.464823E-2,-4.9652904E-3,-1.2795873E-2,-6.0253184E-2,-1.4200814E-2,-3.2616142E-2,5.082935E-4,-1.5360471E-2,-9.002797E-3,1.4510285E-2,2.0777762E-2,-4.0936083E-2,3.5438452E-2,1.1892903E-2,1.8868536E-2,9.6978344E-2,-4.541554E-2,5.005886E-2,-1.814707E-3,1.107969E-2,-6.981079E-2,-4.703209E-3,-1.6263112E-2,5.8477744E-3,-5.1225785E-2,-2.6981683E-2,2.8197467E-3,-3.213033E-3,-1.752784E-2,-4.429184E-3,3.104359E-3,1.7277474E-2],"categories":[],"categories_nodes":[],"categories_segments":[],"categories_sizes":[],"default_left":[1,1,1,1,1,1,1,1,1,0,1,1,1,0,1,1,1,1,1,1,1,1,1,1,1,0,0,0,0,0,1,1,0,1,1,1,1,0,0,0,0,1,1,1,1,0,1,0,0,0,0,0,0,0,0,0,0,0,0,0,0,0,0,0,0,0,0,0,0],"id":8,"left_children":[1,3,5,7,9,11,13,15,17,-1,19,21,23,-1,25,27,29,31,33,35,37,39,41,43,45,-1,-1,-1,-1,-1,47,49,-1,51,53,55,57,-1,-1,-1,-1,59,61,63,65,-1,67,-1,-1,-1,-1,-1,-1,-1,-1,-1,-1,-1,-1,-1,-1,-1,-1,-1,-1,-1,-1,-1,-1],"loss_changes":[1.5577637E-1,1.3551831E-2,3.433764E-3,8.110851E-3,2.7108304E-2,4.1903723E-3,2.9250383E-3,7.4487375E-3,1.528018E-2,0E0,2.174239E-3,2.7670227E-3,7.906483E-4,0E0,6.0998052E-3,1.1862247E-2,7.6184426E-3,7.149694E-2,1.3387848E-2,7.7430853E-3,1.4411446E-3,5.735932E-4,4.118994E-3,4.406105E-4,6.837253E-4,0E0,0E0,0E0,0E0,0E0,4.55123E-3,1.0173067E-2,0E0,9.841617E-3,1.3666574E-2,1.2712623E-3,2.3882189E-3,0E0,0E0,0E0,0E0,1.5422185E-3,9.2465617E-4,4.346663E-5,1.7134473E-5,0E0,7.261388E-5,0E0,0E0,0E0,0E0,0E0,0E0,0E0,0E0,0E0,0E0,0E0,0E0,0E0,0E0,0E0,0E0,0E0,0E0,0E0,0E0,0E0,0E0],"parents":[2147483647,0,0,1,1,2,2,3,3,4,4,5,5,6,6,7,7,8,8,10,10,11,11,12,12,14,14,15,15,16,16,17,17,18,18,19,19,20,20,21,21,22,22,23,23,24,24,30,30,31,31,33,33,34,34,35,35,36,36,41,41,42,42,43,43,44,44,46,46],"right_children":[2,4,6,8,10,12,14,16,18,-1,20,22,24,-1,26,28,30,32,34,36,38,40,42,44,46,-1,-1,-1,-1,-1,48,50,-1,52,54,56,58,-1,-1,-1,-1,60,62,64,66,-1,68,-1,-1,-1,-1,-1,-1,-1,-1,-1,-1,-1,-1,-1,-1,-1,-1,-1,-1,-1,-1,-1,-1],"split_conditions":[3.619818E-1,2.6947683E-1,5.4391915E-1,2.3256514E-2,2.7035254E-1,5.4121107E-1,5.440532E-1,9.707339E-1,9.5734084E-1,-3.544479E-2,6.672023E-1,3.6462325E-1,2.7073E-2,-2.1934692E-2,5.446488E-1,9.538895E-1,9.82508E-1,9.5664895E-1,8.5161254E-2,6.61995E-1,6.868552E-1,3.628399E-1,4.5500433E-1,5.4208434E-1,5.429293E-1,5.6014378E-3,-8.939152E-3,-1.09164305E-2,2.2426702E-2,-2.590737E-2,9.9926114E-1,8.990499E-2,-5.1862407E-2,3.5140473E-2,9.1605894E-2,3.5631716E-1,6.630895E-1,1.0394469E-2,-1.4895872E-3,-3.838762E-3,-1.8075956E-2,4.4636232E-1,3.202586E-2,2.5921524E-2,2.634947E-2,-2.7008392E-3,2.821957E-2,6.233329E-3,-1.22808255E-2,1.0631536E-2,3.567871E-3,5.660561E-3,2.9093504E-2,-1.36246625E-2,1.50176585E-2,-5.444121E-4,3.3239073E-3,-2.094324E-2,-1.4109627E-3,-4.878934E-3,1.7543325E-3,-1.5367736E-2,-8.094505E-3,8.459241E-4,-9.6390996E-4,-5.258352E-3,-1.3287552E-3,9.3130773E-4,5.1832423E-3],"split_indices":[1,1,1,1,1,1,1,0,0,0,0,1,0,0,1,0,0,0,1,0,0,1,1,1,1,0,0,0,0,0,0,1,0,1,1,1,0,0,0,0,0,0,0,0,0,0,0,0,0,0,0,0,0,0,0,0,0,0,0,0,0,0,0,0,0,0,0,0,0],"split_type":[0,0,0,0,0,0,0,0,0,0,0,0,0,0,0,0,0,0,0,0,0,0,0,0,0,0,0,0,0,0,0,0,0,0,0,0,0,0,0,0,0,0,0,0,0,0,0,0,0,0,0,0,0,0,0,0,0,0,0,0,0,0,0,0,0,0,0,0,0],"sum_hessian":[4.4E2,1.49E2,2.91E2,1.13E2,3.6E1,6.8E1,2.23E2,6E0,1.07E2,1E0,3.5E1,5.8E1,1E1,1E0,2.22E2,2E0,4E0,9.5E1,1.2E1,3.2E1,3E0,3E0,5.5E1,6E0,4E0,2E0,2.2E2,1E0,1E0,1E0,3E0,9.4E1,1E0,8E0,4E0,3E1,2E0,2E0,1E0,1E0,2E0,3.4E1,2.1E1,3E0,3E0,1E0,3E0,2E0,1E0,2.5E1,6.9E1,3E0,5E0,2E0,2E0,1.8E1,1.2E1,1E0,1E0,3.1E1,3E0,3E0,1.8E1,2E0,1E0,2E0,1E0,1E0,2E0],"tree_param":{"num_deleted":"0","num_feature":"2","num_nodes":"69","size_leaf_vector":"0"}},{"base_weights":[-1.0382368E-2,1.1866443E-2,-1.8083533E-2,3.333027E-2,9.014519E-3,-1.004269E-1,-1.7524602E-2,3.860423E-2,-1.4978617E-2,-5.146271E-2,1.3330416E-2,7.641632E-4,-1.9719366E-2,1.1485231E-2,5.0728075E-2,-1.6734546E-1,2.8359484E-2,6.30082E-2,1.1050399E-2,-1.4304499E-3,1.867868E-2,-4.1590154E-2,-1.9348422E-2,3.775354E-2,-1.861149E-2,6.283937E-2,2.2906944E-2,3.8621448E-2,-6.3441843E-3,2.2706598E-2,9.1956496E-2,-9.081518E-2,1.4287172E-2,2.5635143E-3,-4.2224597E-2,2.7718574E-2,-4.2205006E-3,-1.0876492E-2,-4.820255E-2,-9.076005E-3,-2.0503236E-2,-2.7878433E-2,-3.8802624E-5,1.7480254E-3,-1.3797079E-1,4.31352E-2,8.481879E-3,-2.8331687E-3,1.2633226E-2,-5.9339166E-2,-3.997728E-3,7.881761E-3,3.36961E-2,-1.2635609E-2,2.737306E-3,-1.9940408E-2,-2.6232004E-2],"categories":[],"categories_nodes":[],"categories_segments":[],"categories_sizes":[],"default_left":[1,1,1,1,1,0,1,1,0,1,1,1,1,1,1,0,1,1,1,1,1,1,1,0,1,0,0,0,0,0,0,1,1,1,1,1,0,0,0,1,1,0,0,0,0,0,0,0,0,0,0,0,0,0,0,0,0],"id":9,"left_children":[1,3,5,7,9,-1,11,13,-1,15,17,19,21,23,25,-1,27,29,31,33,35,37,39,-1,41,-1,-1,-1,-1,-1,-1,43,45,47,49,51,-1,-1,-1,53,55,-1,-1,-1,-1,-1,-1,-1,-1,-1,-1,-1,-1,-1,-1,-1,-1],"loss_changes":[7.57763E-2,6.677849E-3,1.3335995E-2,3.8903672E-3,2.7309392E-2,0E0,1.3140701E-2,3.3628158E-3,0E0,6.9495946E-2,1.0177288E-2,1.4420744E-3,1.5642345E-3,4.6555996E-3,1.25614E-3,0E0,2.0256606E-3,2.578631E-3,3.1961054E-2,5.484945E-3,9.450108E-4,2.8808787E-4,3.2422394E-3,0E0,5.1525433E-4,0E0,0E0,0E0,0E0,0E0,0E0,1.33358E-2,1.4874013E-2,1.7204266E-3,1.725487E-3,9.014062E-5,0E0,0E0,0E0,1.3381592E-3,3.1202286E-4,0E0,0E0,0E0,0E0,0E0,0E0,0E0,0E0,0E0,0E0,0E0,0E0,0E0,0E0,0E0,0E0],"parents":[2147483647,0,0,1,1,2,2,3,3,4,4,6,6,7,7,9,9,10,10,11,11,12,12,13,13,14,14,16,16,17,17,18,18,19,19,20,20,21,21,22,22,24,24,31,31,32,32,33,33,34,34,35,35,39,39,40,40],"right_children":[2,4,6,8,10,-1,12,14,-1,16,18,20,22,24,26,-1,28,30,32,34,36,38,40,-1,42,-1,-1,-1,-1,-1,-1,44,46,48,50,52,-1,-1,-1,54,56,-1,-1,-1,-1,-1,-1,-1,-1,-1,-1,-1,-1,-1,-1,-1,-1],"split_conditions":[2.6947683E-1,6.3067585E-1,2.7035254E-1,2.6552224E-1,6.5758675E-1,-3.0128071E-2,3.619818E-1,2.6185602E-1,-4.4935853E-3,2.6308393E-1,6.702119E-1,6.672023E-1,3.6462325E-1,5.748887E-1,2.6424804E-1,-5.020364E-2,6.519811E-1,6.6711444E-1,6.731203E-1,6.61995E-1,6.868552E-1,3.628399E-1,4.5161694E-1,1.13260625E-2,6.085423E-1,1.8851811E-2,6.8720835E-3,1.1586435E-2,-1.9032554E-3,6.8119797E-3,2.758695E-2,6.711628E-1,7.9473853E-1,4.5097464E-1,6.630895E-1,6.7671716E-1,-1.2661503E-3,-3.2629475E-3,-1.4460765E-2,4.498E-1,8.5429765E-2,-8.36353E-3,-1.1640787E-5,5.2440766E-4,-4.139124E-2,1.29405605E-2,2.5445637E-3,-8.4995065E-4,3.7899679E-3,-1.780175E-2,-1.1993186E-3,2.3645284E-3,1.010883E-2,-3.7906829E-3,8.211919E-4,-5.982123E-3,-7.869601E-3],"split_indices":[1,0,1,1,0,0,1,1,0,1,0,0,1,0,1,0,0,0,0,0,0,1,1,0,0,0,0,0,0,0,0,0,0,0,0,0,0,0,0,1,0,0,0,0,0,0,0,0,0,0,0,0,0,0,0,0,0],"split_type":[0,0,0,0,0,0,0,0,0,0,0,0,0,0,0,0,0,0,0,0,0,0,0,0,0,0,0,0,0,0,0,0,0,0,0,0,0,0,0,0,0,0,0,0,0,0,0,0,0,0,0,0,0,0,0,0,0],"sum_hessian":[4.4E2,1.13E2,3.27E2,1.2E1,1.01E2,1E0,3.26E2,1.1E1,1E0,6E0,9.5E1,3.5E1,2.91E2,4E0,7E0,2E0,4E0,3E0,9.2E1,3.2E1,3E0,3E0,2.88E2,2E0,2E0,4E0,3E0,3E0,1E0,2E0,1E0,2E0,9E1,3E1,2E0,2E0,1E0,1E0,2E0,3E1,2.58E2,1E0,1E0,1E0,1E0,1.4E1,7.6E1,2E1,1E1,1E0,1E0,1E0,1E0,2.3E1,7E0,2.39E2,1.9E1],"tree_param":{"num_deleted":"0","num_feature":"2","num_nodes":"57","size_leaf_vector":"0"}},{"base_weights":[-7.441921E-3,8.242268E-3,-1.2870445E-2,5.322534E-3,2.3518486E-2,-8.536287E-2,-1.2387707E-2,8.465806E-3,-1.4821577E-1,6.90428E-2,-4.9972385E-3,4.0009306E-4,-1.3921862E-2,1.7803187E-2,3.5189404E-3,8.5382804E-2,1.8795192E-2,-7.4676484E-2,8.126009E-3,-5.9694555E-3,7.870145E-3,-3.3544034E-2,-1.3602101E-2,3.6411166E-2,-6.9537996E-3,-2.7870763E-2,9.8479735E-3,-5.3738415E-2,2.7844595E-2,-3.5257958E-2,3.5562925E-3,2.2943363E-2,3.001358E-3,-9.245016E-3,-3.8562033E-2,-8.530667E-3,-1.50067285E-2,2.5762888E-2,8.461436E-2,-1.2872979E-1,1.09394705E-2,-1.1693644E-2,-9.4820976E-2,3.0611092E-2,4.4333767E-3,-7.0061654E-2,-1.0545969E-2,4.034216E-2,-3.6067963E-2,1.4443338E-2,-7.32066E-2,3.4522634E-2,-3.3333728E-3,-3.6164775E-2,8.796043E-3,1.9034304E-3,-1.2265732E-2,-4.35985E-2,-1.4554791E-2],"categories":[],"categories_nodes":[],"categories_segments":[],"categories_sizes":[],"default_left":[1,1,1,1,1,0,1,1,0,1,1,1,1,1,1,0,0,0,1,1,1,1,1,1,1,1,1,1,1,1,1,0,1,0,0,1,1,0,0,0,0,0,0,0,0,0,0,0,0,0,0,0,0,0,0,0,0,0,0],"id":10,"left_children":[1,3,5,7,9,-1,11,13,-1,15,17,19,21,23,25,-1,-1,-1,27,29,31,33,35,37,39,41,43,45,47,49,51,-1,53,-1,-1,55,57,-1,-1,-1,-1,-1,-1,-1,-1,-1,-1,-1,-1,-1,-1,-1,-1,-1,-1,-1,-1,-1,-1],"loss_changes":[3.76537E-2,4.959507E-3,1.0420859E-2,4.8068184E-2,2.3711884E-2,0E0,6.420806E-3,4.371665E-3,0E0,4.1425377E-3,1.1579838E-2,1.7598913E-3,1.3758503E-3,1.5455553E-2,1.2989125E-2,0E0,0E0,0E0,1.4914994E-2,5.7052854E-3,1.1787397E-3,1.3122335E-4,1.930669E-3,7.5724274E-3,3.40928E-2,1.0804875E-2,5.935181E-3,1.3762536E-3,8.643821E-3,1.0487831E-2,3.5286404E-3,0E0,3.4954827E-3,0E0,0E0,2.556529E-3,2.2728108E-3,0E0,0E0,0E0,0E0,0E0,0E0,0E0,0E0,0E0,0E0,0E0,0E0,0E0,0E0,0E0,0E0,0E0,0E0,0E0,0E0,0E0,0E0],"parents":[2147483647,0,0,1,1,2,2,3,3,4,4,6,6,7,7,9,9,10,10,11,11,12,12,13,13,14,14,18,18,19,19,20,20,21,21,22,22,23,23,24,24,25,25,26,26,27,27,28,28,29,29,30,30,32,32,35,35,36,36],"right_children":[2,4,6,8,10,-1,12,14,-1,16,18,20,22,24,26,-1,-1,-1,28,30,32,34,36,38,40,42,44,46,48,50,52,-1,54,-1,-1,56,58,-1,-1,-1,-1,-1,-1,-1,-1,-1,-1,-1,-1,-1,-1,-1,-1,-1,-1,-1,-1,-1,-1],"split_conditions":[2.6947683E-1,9.5734084E-1,2.7035254E-1,9.5664895E-1,9.6717924E-1,-2.5608862E-2,3.619818E-1,1.0005339E-1,-4.4464733E-2,8.5161254E-2,1.6359046E-2,3.555748E-1,3.6462325E-1,9.339376E-1,1.6944855E-1,2.5614843E-2,5.638558E-3,-2.2402946E-2,9.7144735E-1,4.5097464E-1,3.5612488E-1,3.628399E-1,5.437504E-1,9.304563E-1,9.3692094E-1,1.6916797E-1,1.7330311E-1,9.6917254E-1,9.9926114E-1,3.5488698E-1,5.0351167E-1,6.883009E-3,3.5631716E-1,-2.7735047E-3,-1.1568611E-2,1.3248403E-1,5.440532E-1,7.7288668E-3,2.5384309E-2,-3.8618937E-2,3.2818413E-3,-3.5080935E-3,-2.8446294E-2,9.183328E-3,1.330013E-3,-2.1018498E-2,-3.1637908E-3,1.2102649E-2,-1.0820389E-2,4.3330016E-3,-2.1961981E-2,1.035679E-2,-1.0000119E-3,-1.0849433E-2,2.6388129E-3,5.7102914E-4,-3.6797195E-3,-1.307955E-2,-4.3664374E-3],"split_indices":[1,0,1,0,0,0,1,1,0,1,1,1,1,0,1,0,0,0,0,0,1,1,1,0,0,1,1,0,0,1,0,0,1,0,0,0,1,0,0,0,0,0,0,0,0,0,0,0,0,0,0,0,0,0,0,0,0,0,0],"split_type":[0,0,0,0,0,0,0,0,0,0,0,0,0,0,0,0,0,0,0,0,0,0,0,0,0,0,0,0,0,0,0,0,0,0,0,0,0,0,0,0,0,0,0,0,0,0,0,0,0,0,0,0,0,0,0,0,0,0,0],"sum_hessian":[4.4E2,1.13E2,3.27E2,9.6E1,1.7E1,1E0,3.26E2,9.5E1,1E0,6E0,1.1E1,3.5E1,2.91E2,3.2E1,6.3E1,4E0,2E0,1E0,1E1,1.9E1,1.6E1,3E0,2.88E2,1.8E1,1.4E1,1E1,5.3E1,2E0,8E0,4E0,1.5E1,3E0,1.3E1,1E0,2E0,6.4E1,2.24E2,1.6E1,2E0,1E0,1.3E1,9E0,1E0,1E1,4.3E1,1E0,1E0,7E0,1E0,2E0,2E0,2E0,1.3E1,1E0,1.2E1,1.7E1,4.7E1,2E0,2.22E2],"tree_param":{"num_deleted":"0","num_feature":"2","num_nodes":"59","size_leaf_vector":"0"}},{"base_weights":[-5.554663E-3,5.048712E-3,-9.223048E-3,2.2979137E-2,2.7139643E-3,-7.255843E-2,-8.80747E-3,2.712687E-2,-1.3396829E-2,-4.2952538E-2,6.015543E-3,1.1523983E-3,-9.854457E-3,5.0062775E-3,3.756138E-2,-1.3476303E-1,2.0724267E-2,5.170796E-2,3.9855945E-3,-3.4250093E-3,1.3230775E-2,-1.7217247E-2,-9.482729E-3,2.7183196E-2,-1.8839398E-2,5.19249E-2,1.8558288E-2,2.8934114E-2,-6.0575604E-3,1.7278602E-2,7.749802E-2,-7.8079574E-2,6.647242E-3,-7.081324E-3,1.6626894E-2,1.8926987E-2,1.3787597E-3,-1.1442437E-2,-3.2652464E-2,-1.0256807E-2,5.082844E-3,-2.436167E-2,-3.8974285E-3,8.2081556E-4,-1.1794017E-1,2.6396299E-3,3.555354E-2,-2.2650058E-3,-3.522423E-2,2.422747E-2,-3.0874163E-3,3.1563342E-3,2.1449853E-2,-7.432312E-3,6.793221E-3,-1.8082451E-2,4.698202E-3,-4.1328926E-2,-7.649772E-3,-4.759881E-2,-9.658962E-3,1.2264475E-2,-1.1733314E-2],"categories":[],"categories_nodes":[],"categories_segments":[],"categories_sizes":[],"default_left":[1,1,1,1,1,0,1,1,0,1,1,1,1,1,1,0,1,1,1,1,1,1,1,0,1,0,0,0,0,0,0,1,1,1,1,1,1,1,1,1,1,0,0,0,0,0,0,0,0,0,0,0,0,0,0,0,0,0,0,0,0,0,0],"id":11,"left_children":[1,3,5,7,9,-1,11,13,-1,15,17,19,21,23,25,-1,27,29,31,33,35,37,39,-1,41,-1,-1,-1,-1,-1,-1,43,45,47,49,51,53,55,57,59,61,-1,-1,-1,-1,-1,-1,-1,-1,-1,-1,-1,-1,-1,-1,-1,-1,-1,-1,-1,-1,-1,-1],"loss_changes":[1.7200252E-2,4.7100186E-3,7.994151E-3,2.3248256E-3,1.5637081E-2,0E0,3.4212675E-3,2.5817677E-3,0E0,4.371626E-2,8.698226E-3,1.8145202E-3,6.468706E-4,3.156233E-3,1.219973E-3,0E0,1.2746435E-3,2.2126827E-3,2.0832866E-2,1.877326E-3,5.8150874E-4,7.851368E-4,3.2541994E-3,0E0,1.525929E-4,0E0,0E0,0E0,0E0,0E0,0E0,9.531857E-3,1.0448067E-2,2.7666658E-3,6.7416066E-4,1.7102063E-4,2.4131815E-4,1.26387E-3,3.3464772E-4,5.5679306E-3,1.9554147E-3,0E0,0E0,0E0,0E0,0E0,0E0,0E0,0E0,0E0,0E0,0E0,0E0,0E0,0E0,0E0,0E0,0E0,0E0,0E0,0E0,0E0,0E0],"parents":[2147483647,0,0,1,1,2,2,3,3,4,4,6,6,7,7,9,9,10,10,11,11,12,12,13,13,14,14,16,16,17,17,18,18,19,19,20,20,21,21,22,22,24,24,31,31,32,32,33,33,34,34,35,35,36,36,37,37,38,38,39,39,40,40],"right_children":[2,4,6,8,10,-1,12,14,-1,16,18,20,22,24,26,-1,28,30,32,34,36,38,40,-1,42,-1,-1,-1,-1,-1,-1,44,46,48,50,52,54,56,58,60,62,-1,-1,-1,-1,-1,-1,-1,-1,-1,-1,-1,-1,-1,-1,-1,-1,-1,-1,-1,-1,-1,-1],"split_conditions":[2.6947683E-1,6.3067585E-1,2.7035254E-1,2.6552224E-1,6.5758675E-1,-2.176753E-2,3.5855225E-1,2.6185602E-1,-4.019049E-3,2.6308393E-1,6.702119E-1,3.5631716E-1,3.694532E-1,5.748887E-1,2.6335627E-1,-4.042891E-2,6.519811E-1,6.6711444E-1,6.731203E-1,6.672023E-1,3.573627E-1,3.6745968E-1,2.1245599E-1,8.154959E-3,6.085423E-1,1.557747E-2,5.5674864E-3,8.680235E-3,-1.8172682E-3,5.183581E-3,2.3249406E-2,6.711628E-1,1.8374753E-1,6.61995E-1,6.868552E-1,3.5651457E-1,3.5759106E-1,3.6462325E-1,4.4468296E-1,4.4871166E-1,4.5191836E-1,-7.3085013E-3,-1.1692286E-3,2.462447E-4,-3.5382055E-2,7.91889E-4,1.0666063E-2,-6.795018E-4,-1.0567269E-2,7.268241E-3,-9.262249E-4,9.469003E-4,6.434956E-3,-2.2296936E-3,2.0379664E-3,-5.4247356E-3,1.4094607E-3,-1.2398678E-2,-2.2949316E-3,-1.4279643E-2,-2.8976887E-3,3.6793428E-3,-3.5199944E-3],"split_indices":[1,0,1,1,0,0,1,1,0,1,0,1,1,0,1,0,0,0,0,0,1,1,0,0,0,0,0,0,0,0,0,0,1,0,0,1,1,1,0,1,1,0,0,0,0,0,0,0,0,0,0,0,0,0,0,0,0,0,0,0,0,0,0],"split_type":[0,0,0,0,0,0,0,0,0,0,0,0,0,0,0,0,0,0,0,0,0,0,0,0,0,0,0,0,0,0,0,0,0,0,0,0,0,0,0,0,0,0,0,0,0,0,0,0,0,0,0,0,0,0,0,0,0,0,0,0,0,0,0],"sum_hessian":[4.4E2,1.13E2,3.27E2,1.2E1,1.01E2,1E0,3.26E2,1.1E1,1E0,6E0,9.5E1,3.1E1,2.95E2,4E0,7E0,2E0,4E0,3E0,9.2E1,2.3E1,8E0,1.2E1,2.83E2,2E0,2E0,3E0,4E0,3E0,1E0,2E0,1E0,2E0,9E1,2E1,3E0,5E0,3E0,1E1,2E0,2.69E2,1.4E1,1E0,1E0,1E0,1E0,8E1,1E1,1.8E1,2E0,2E0,1E0,1E0,4E0,1E0,2E0,7E0,3E0,1E0,1E0,3E0,2.66E2,1E1,4E0],"tree_param":{"num_deleted":"0","num_feature":"2","num_nodes":"63","size_leaf_vector":"0"}},{"base_weights":[-4.040687E-3,5.558079E-3,-6.0545616E-3,1.3023203E-3,2.6409328E-2,-5.6714464E-2,-5.6192055E-3,7.056322E-3,-3.5284393E-2,4.7243327E-2,7.482663E-3,-6.46335E-3,1.4395829E-2,-6.7081475E-3,1.7270122E-2,-1.263459E-1,-8.108467E-3,2.1321395E-2,5.4873943E-2,-3.6728878E-2,2.8341323E-2,-4.3922465E-2,-5.6800344E-3,4.9758077E-2,5.127939E-3,3.5439606E-3,-1.2637937E-1,5.7344597E-2,1.2834847E-2,5.07798E-2,-3.620119E-2,4.36455E-3,-5.945787E-2,-8.582725E-2,-9.995103E-3,2.0589273E-2,-6.694599E-3,-1.1406338E-2,1.3743877E-2,-4.7286022E-2,1.6074259E-2,-6.429234E-2,1.7548831E-2,2.0302728E-2,-9.947268E-2,-2.0707428E-2,-1.0803344E-1,3.7630692E-2,-1.0024914E-1,4.0241778E-2,1.0669345E-2,-6.3410997E-3,-6.1674673E-2,9.403378E-4,-3.0396521E-2,-6.398037E-3,2.4881175E-2],"categories":[],"categories_nodes":[],"categories_segments":[],"categories_sizes":[],"default_left":[1,1,1,1,1,0,1,1,1,1,1,1,1,1,1,0,1,0,0,1,0,1,1,0,1,1,0,0,1,0,1,0,0,1,1,1,1,1,1,0,0,0,0,0,0,0,0,0,0,0,0,0,0,0,0,0,0],"id":12,"left_children":[1,3,5,7,9,-1,11,13,15,17,19,21,23,25,27,-1,29,-1,-1,31,-1,33,35,-1,37,39,-1,-1,41,-1,43,-1,-1,45,47,49,51,53,55,-1,-1,-1,-1,-1,-1,-1,-1,-1,-1,-1,-1,-1,-1,-1,-1,-1,-1],"loss_changes":[8.558497E-3,6.7984234E-3,7.73142E-3,1.3932779E-2,4.7726305E-3,0E0,6.226139E-3,8.12934E-3,2.1247659E-2,1.6812235E-5,8.418492E-3,9.990981E-3,4.6608453E-3,3.1119939E-2,5.1294556E-3,0E0,1.5072944E-2,0E0,0E0,3.0615432E-3,0E0,9.09418E-3,9.279443E-3,0E0,2.0087254E-3,1.6046043E-2,0E0,0E0,1.2399122E-2,0E0,2.3470093E-2,0E0,0E0,2.1010954E-3,2.5264546E-2,2.1050153E-3,6.042039E-3,1.2009111E-3,2.1781288E-3,0E0,0E0,0E0,0E0,0E0,0E0,0E0,0E0,0E0,0E0,0E0,0E0,0E0,0E0,0E0,0E0,0E0,0E0],"parents":[2147483647,0,0,1,1,2,2,3,3,4,4,6,6,7,7,8,8,9,9,10,10,11,11,12,12,13,13,14,14,16,16,19,19,21,21,22,22,24,24,25,25,28,28,30,30,33,33,34,34,35,35,36,36,37,37,38,38],"right_children":[2,4,6,8,10,-1,12,14,16,18,20,22,24,26,28,-1,30,-1,-1,32,-1,34,36,-1,38,40,-1,-1,42,-1,44,-1,-1,46,48,50,52,54,56,-1,-1,-1,-1,-1,-1,-1,-1,-1,-1,-1,-1,-1,-1,-1,-1,-1,-1],"split_conditions":[1.7638688E-1,1.7078854E-1,1.7831641E-1,1.684443E-1,1.730003E-1,-1.701434E-2,6.8127346E-1,7.966129E-2,1.6866669E-1,7.7109444E-1,1.7356913E-1,2.6225668E-1,6.868552E-1,7.8963734E-2,8.109294E-2,-3.790377E-2,1.6916797E-1,6.396419E-3,1.6462184E-2,8.017522E-1,8.502398E-3,6.5758675E-1,2.6552224E-1,1.4927424E-2,1.8259381E-1,9.3738055E-1,-3.7913814E-2,1.720338E-2,8.150105E-2,1.523394E-2,7.9916215E-1,1.309365E-3,-1.783736E-2,6.220087E-1,2.6199168E-1,2.628606E-1,6.7288136E-1,1.8147331E-1,8.1588876E-1,-1.4185808E-2,4.822278E-3,-1.9287704E-2,5.2646496E-3,6.0908184E-3,-2.9841805E-2,-6.212229E-3,-3.2410033E-2,1.1289208E-2,-3.0074744E-2,1.2072534E-2,3.2008037E-3,-1.90233E-3,-1.8502403E-2,2.8210133E-4,-9.1189565E-3,-1.9194112E-3,7.4643525E-3],"split_indices":[1,1,1,1,1,0,0,1,1,0,1,1,0,1,1,0,1,0,0,0,0,0,1,0,1,0,0,0,1,0,0,0,0,0,1,1,0,1,0,0,0,0,0,0,0,0,0,0,0,0,0,0,0,0,0,0,0],"split_type":[0,0,0,0,0,0,0,0,0,0,0,0,0,0,0,0,0,0,0,0,0,0,0,0,0,0,0,0,0,0,0,0,0,0,0,0,0,0,0,0,0,0,0,0,0,0,0,0,0,0,0,0,0,0,0,0,0],"sum_hessian":[4.4E2,7.6E1,3.64E2,6.4E1,1.2E1,2E0,3.62E2,5.6E1,8E0,5E0,7E0,3.48E2,1.4E1,2.4E1,3.2E1,1E0,7E0,2E0,3E0,2E0,5E0,6E0,3.42E2,2E0,1.2E1,2.3E1,1E0,2E0,3E1,2E0,5E0,1E0,1E0,2E0,4E0,1.2E1,3.3E2,4E0,8E0,4E0,1.9E1,1E0,2.9E1,3E0,2E0,1E0,1E0,3E0,1E0,3E0,9E0,3.29E2,1E0,3E0,1E0,3E0,5E0],"tree_param":{"num_deleted":"0","num_feature":"2","num_nodes":"57","size_leaf_vector":"0"}},{"base_weights":[-3.1541095E-3,4.8657656E-3,-4.2621484E-3,2.1071006E-2,-6.0851756E-3,-4.8017703E-2,-3.6813153E-3,3.2449912E-2,-7.948066E-3,-1.0272339E-1,1.4487468E-4,-6.3251257E-3,-1.0739401E-1,4.0623844E-2,-4.0196246E-3,9.482108E-3,4.926019E-2,3.1694889E-3,-2.382797E-2,1.1493117E-2,-1.7325103E-2,-2.960684E-2,3.1760007E-2,-6.607287E-2,-3.6833356E-3,2.7231136E-2,-2.9176652E-2,5.5744316E-2,1.7710507E-2,9.9108415E-3,-4.6283603E-3,-1.3460511E-2,3.7792794E-2,-1.0364606E-1,7.7919853E-3,-1.2478232E-3,-4.3162435E-2,1.6822724E-2,-4.281404E-3,6.439954E-3,4.587567E-2,1.088351E-2,-5.464849E-2,1.126374E-2,-2.9197762E-2,6.275442E-2,-3.9797006E-3,-8.730054E-3,3.267146E-2,-5.0539196E-2,-4.0197903E-3],"categories":[],"categories_nodes":[],"categories_segments":[],"categories_sizes":[],"default_left":[1,1,1,1,1,1,1,1,1,0,1,1,0,0,1,1,1,1,0,1,1,1,0,0,1,1,1,0,0,0,0,1,0,0,1,0,0,1,1,0,0,0,0,0,0,0,0,0,0,0,0],"id":13,"left_children":[1,3,5,7,9,11,13,15,17,-1,19,21,-1,-1,23,25,27,29,-1,31,33,35,-1,-1,37,39,41,-1,-1,-1,-1,43,-1,-1,45,-1,-1,47,49,-1,-1,-1,-1,-1,-1,-1,-1,-1,-1,-1,-1],"loss_changes":[3.939613E-3,9.711203E-3,9.684125E-3,7.522432E-3,1.9882893E-2,1.1698477E-2,5.91901E-3,5.7104323E-3,1.3113425E-3,0E0,6.543233E-3,4.4870623E-3,0E0,0E0,7.7281394E-3,6.2837573E-3,8.538887E-4,3.0871123E-4,0E0,1.3634158E-2,2.8993312E-2,1.0994109E-3,0E0,0E0,4.7446163E-3,2.0304136E-3,3.6559852E-3,0E0,0E0,0E0,0E0,4.608885E-3,0E0,0E0,7.3667495E-3,0E0,0E0,4.7399956E-3,4.28656E-3,0E0,0E0,0E0,0E0,0E0,0E0,0E0,0E0,0E0,0E0,0E0,0E0],"parents":[2147483647,0,0,1,1,2,2,3,3,4,4,5,5,6,6,7,7,8,8,10,10,11,11,14,14,15,15,16,16,17,17,19,19,20,20,21,21,24,24,25,25,26,26,31,31,34,34,37,37,38,38],"right_children":[2,4,6,8,10,12,14,16,18,-1,20,22,-1,-1,24,26,28,30,-1,32,34,36,-1,-1,38,40,42,-1,-1,-1,-1,44,-1,-1,46,-1,-1,48,50,-1,-1,-1,-1,-1,-1,-1,-1,-1,-1,-1,-1],"split_conditions":[1.0529046E-1,9.339376E-1,1.6866669E-1,8.990499E-2,9.3692094E-1,8.2522917E-1,1.6916797E-1,8.2033485E-2,9.226123E-1,-3.0817019E-2,7.8963734E-2,7.958952E-1,-3.2218203E-2,1.2187154E-2,1.6944855E-1,8.109294E-2,8.8077344E-2,8.556022E-1,-7.148391E-3,3.2727946E-2,8.396112E-2,7.388673E-1,9.528003E-3,-1.982186E-2,1.7330311E-1,7.845132E-2,9.0945005E-1,1.6723296E-2,5.3131524E-3,2.9732527E-3,-1.3885081E-3,9.683667E-1,1.1337839E-2,-3.1093819E-2,8.4547944E-2,-3.74347E-4,-1.2948731E-2,1.7078854E-1,1.7356913E-1,1.9319863E-3,1.3762701E-2,3.2650533E-3,-1.6394548E-2,3.3791221E-3,-8.759329E-3,1.8826328E-2,-1.1939103E-3,-2.6190162E-3,9.801438E-3,-1.5161759E-2,-1.2059371E-3],"split_indices":[1,0,1,1,0,0,1,1,0,0,1,0,0,0,1,1,1,0,0,1,1,0,0,0,1,1,0,0,0,0,0,0,0,0,1,0,0,1,1,0,0,0,0,0,0,0,0,0,0,0,0],"split_type":[0,0,0,0,0,0,0,0,0,0,0,0,0,0,0,0,0,0,0,0,0,0,0,0,0,0,0,0,0,0,0,0,0,0,0,0,0,0,0,0,0,0,0,0,0,0,0,0,0,0,0],"sum_hessian":[4.4E2,5.3E1,3.87E2,2.1E1,3.2E1,4E0,3.83E2,1.5E1,6E0,1E0,3.1E1,3E0,1E0,2E0,3.81E2,7E0,8E0,4E0,2E0,1.9E1,1.2E1,2E0,1E0,1E0,3.8E2,5E0,2E0,6E0,2E0,2E0,2E0,1E1,9E0,2E0,1E1,1E0,1E0,1E1,3.7E2,3E0,2E0,1E0,1E0,4E0,6E0,1E0,9E0,4E0,6E0,1E0,3.69E2],"tree_param":{"num_deleted":"0","num_feature":"2","num_nodes":"51","size_leaf_vector":"0"}},{"base_weights":[-2.3714055E-3,-3.8339734E-2,-2.2025234E-3,4.4965953E-2,-2.412397E-3,-6.1902434E-2,-2.1352451E-3,1.2085704E-2,-2.7030671E-3,1.647671E-2,-2.908519E-2,-4.4410005E-2,-2.096485E-3,-4.0220916E-3,1.8111436E-2,-6.8115704E-2,3.7059247E-2,1.9704511E-2,-2.846776E-3],"categories":[],"categories_nodes":[],"categories_segments":[],"categories_sizes":[],"default_left":[1,0,1,0,1,0,1,1,1,1,0,1,1,0,0,0,0,0,0],"id":14,"left_children":[1,-1,3,-1,5,-1,7,9,11,13,-1,15,17,-1,-1,-1,-1,-1,-1],"loss_changes":[2.594367E-3,0E0,4.4642156E-3,0E0,7.105954E-3,0E0,3.5695045E-3,3.5525155E-3,1.0582938E-2,6.0900487E-4,0E0,1.411203E-2,6.877E-3,0E0,0E0,0E0,0E0,0E0,0E0],"parents":[2147483647,0,0,2,2,4,4,6,6,7,7,8,8,9,9,11,11,12,12],"right_children":[2,-1,4,-1,6,-1,8,10,12,14,-1,16,18,-1,-1,-1,-1,-1,-1],"split_conditions":[1.1868194E-2,-1.150192E-2,1.4102479E-2,1.3489787E-2,1.6359046E-2,-1.857073E-2,7.663457E-2,9.9926114E-1,7.966129E-2,1.8637309E-2,-8.7255575E-3,9.599295E-1,8.683109E-2,-1.2066276E-3,5.433431E-3,-2.0434711E-2,1.1117775E-2,5.9113535E-3,-8.5403287E-4],"split_indices":[1,0,1,0,1,0,1,0,1,1,0,0,1,0,0,0,0,0,0],"split_type":[0,0,0,0,0,0,0,0,0,0,0,0,0,0,0,0,0,0,0],"sum_hessian":[4.4E2,1E0,4.39E2,1E0,4.38E2,1E0,4.37E2,1.6E1,4.21E2,1.5E1,1E0,5E0,4.16E2,1E0,1.4E1,4E0,1E0,1.3E1,4.03E2],"tree_param":{"num_deleted":"0","num_feature":"2","num_nodes":"19","size_leaf_vector":"0"}},{"base_weights":[-1.7174488E-3,7.936825E-4,-3.55221E-3,-2.3492396E-2,1.3173273E-3,-3.0395442E-3,-1.1020186E-2,3.7548542E-3,-5.2617073E-2,1.5947159E-3,-2.4722397E-2,-3.6046614E-3,3.1203534E-2,-7.20815E-3,-1.3931205E-2,-3.258878E-2,3.822106E-2,7.113867E-4,2.082862E-2,-3.0782458E-3,-4.3638986E-2,5.3598884E-2,-1.799126E-2,-1.0344204E-2,-3.916089E-3,1.5432984E-3,-4.777662E-2,-3.4187734E-3,2.478093E-2,1.0703252E-2,-3.8027982E-3,-2.3847697E-3,-1.2202425E-2,-4.9063833E-3,5.176924E-4,5.55787E-4,2.9100984E-2,-6.1556727E-2,-1.0108203E-2,1.2745887E-2,3.0620739E-2,4.6779905E-3,1.820302E-2,-4.918747E-2,-3.378708E-3],"categories":[],"categories_nodes":[],"categories_segments":[],"categories_sizes":[],"default_left":[1,1,1,1,1,1,1,1,0,1,0,1,1,1,0,0,0,1,1,1,0,0,0,1,1,1,1,0,1,1,1,0,0,0,0,0,0,0,0,0,0,0,0,0,0],"id":15,"left_children":[1,3,5,7,9,11,13,15,-1,17,-1,19,21,23,-1,-1,-1,25,27,29,-1,-1,-1,31,33,35,37,-1,39,41,43,-1,-1,-1,-1,-1,-1,-1,-1,-1,-1,-1,-1,-1,-1],"loss_changes":[2.0346502E-3,2.4090782E-3,9.427911E-4,3.371839E-3,1.36848E-3,4.7568027E-3,7.713237E-5,5.0034593E-3,0E0,3.0943288E-3,0E0,4.8603695E-3,5.37125E-3,5.240788E-5,0E0,0E0,0E0,7.1731755E-3,8.5138646E-4,2.3872755E-3,0E0,0E0,0E0,3.006155E-5,2.8884511E-5,4.71898E-3,9.349971E-4,0E0,1.0168785E-4,4.5710301E-4,4.1451827E-3,0E0,0E0,0E0,0E0,0E0,0E0,0E0,0E0,0E0,0E0,0E0,0E0,0E0,0E0],"parents":[2147483647,0,0,1,1,2,2,3,3,4,4,5,5,6,6,7,7,9,9,11,11,12,12,13,13,17,17,18,18,19,19,23,23,24,24,25,25,26,26,28,28,29,29,30,30],"right_children":[2,4,6,8,10,12,14,16,-1,18,-1,20,22,24,-1,-1,-1,26,28,30,-1,-1,-1,32,34,36,38,-1,40,42,44,-1,-1,-1,-1,-1,-1,-1,-1,-1,-1,-1,-1,-1,-1],"split_conditions":[4.5500433E-1,1.6359046E-2,9.318695E-2,9.707339E-1,9.9926114E-1,3.202586E-2,4.6276814E-1,9.538895E-1,-1.5785122E-2,9.7144735E-1,-7.4167196E-3,3.0899731E-2,5.4061055E-1,4.5778215E-1,-4.1793617E-3,-9.776634E-3,1.1466319E-2,9.6538305E-1,1.8637309E-2,5.4391915E-1,-1.3091696E-2,1.6079666E-2,-5.397378E-3,4.559113E-1,2.1830411E-1,9.5734084E-1,9.6917254E-1,-1.025632E-3,9.817878E-1,5.429293E-1,5.440532E-1,-7.1543094E-4,-3.6607275E-3,-1.471915E-3,1.5530773E-4,1.667361E-4,8.730296E-3,-1.8467018E-2,-3.032461E-3,3.8237663E-3,9.186222E-3,1.4033972E-3,5.4609063E-3,-1.4756242E-2,-1.0136124E-3],"split_indices":[1,1,0,0,0,0,1,0,0,0,0,0,1,1,0,0,0,0,1,1,0,0,0,1,0,0,0,0,0,1,1,0,0,0,0,0,0,0,0,0,0,0,0,0,0],"split_type":[0,0,0,0,0,0,0,0,0,0,0,0,0,0,0,0,0,0,0,0,0,0,0,0,0,0,0,0,0,0,0,0,0,0,0,0,0,0,0,0,0,0,0,0,0],"sum_hessian":[4.4E2,1.86E2,2.54E2,3E0,1.83E2,2.39E2,1.5E1,2E0,1E0,1.82E2,1E0,2.36E2,3E0,8E0,7E0,1E0,1E0,1.75E2,7E0,2.34E2,2E0,2E0,1E0,3E0,5E0,1.73E2,2E0,1E0,6E0,1.1E1,2.23E2,1E0,2E0,4E0,1E0,1.68E2,5E0,1E0,1E0,3E0,3E0,7E0,4E0,1E0,2.22E2],"tree_param":{"num_deleted":"0","num_feature":"2","num_nodes":"45","size_leaf_vector":"0"}},{"base_weights":[-1.300435E-3,-1.996854E-2,-1.126981E-3,3.1916301E-3,-4.4724524E-2,7.233775E-3,-1.4817711E-3,-2.7700454E-2,3.24879E-2,1.013153E-2,-2.1014035E-2,-7.718089E-2,-1.1177711E-3,1.8581977E-2,3.8329253E-3,3.1151911E-2,-1.3466976E-3,3.2928388E-3,2.4039065E-2,7.038432E-3,-1.4111072E-2,-8.174159E-2,-9.578811E-4,1.40070915E-5,4.925251E-3,2.913922E-4,9.888394E-3,3.2648485E-2,-1.1985105E-3],"categories":[],"categories_nodes":[],"categories_segments":[],"categories_sizes":[],"default_left":[1,1,1,1,0,1,1,0,0,1,0,0,1,1,1,0,1,1,0,1,0,0,1,0,0,0,0,0,0],"id":16,"left_children":[1,3,5,7,-1,9,11,-1,-1,13,-1,-1,15,17,19,-1,21,23,-1,25,-1,-1,27,-1,-1,-1,-1,-1,-1],"loss_changes":[1.4054792E-3,2.4361552E-3,1.3099641E-3,3.614998E-3,0E0,1.6862989E-3,1.1514166E-2,0E0,0E0,8.3361927E-4,0E0,0E0,3.1446537E-3,5.048823E-4,7.320355E-4,0E0,1.2987903E-2,1.5988226E-5,0E0,1.8940668E-4,0E0,0E0,3.4112753E-3,0E0,0E0,0E0,0E0,0E0,0E0],"parents":[2147483647,0,0,1,1,2,2,3,3,5,5,6,6,9,9,12,12,13,13,14,14,16,16,17,17,19,19,22,22],"right_children":[2,4,6,8,-1,10,12,-1,-1,14,-1,-1,16,18,20,-1,22,24,-1,26,-1,-1,28,-1,-1,-1,-1,-1,-1],"split_conditions":[1.6359046E-2,9.707339E-1,7.7149145E-2,9.538895E-1,-1.3417358E-2,9.9926114E-1,7.770832E-2,-8.310136E-3,9.74637E-3,9.4681233E-1,-6.3042105E-3,-2.3154268E-2,7.8963734E-2,9.0901667E-1,4.247421E-2,9.345573E-3,7.966129E-2,7.582336E-1,7.21172E-3,9.7144735E-1,-4.2333216E-3,-2.4522478E-2,8.109294E-2,4.2021275E-6,1.4775754E-3,8.741766E-5,2.9665183E-3,9.794546E-3,-3.5955317E-4],"split_indices":[1,0,1,0,0,0,1,0,0,0,0,0,1,0,1,0,1,0,0,0,0,0,1,0,0,0,0,0,0],"split_type":[0,0,0,0,0,0,0,0,0,0,0,0,0,0,0,0,0,0,0,0,0,0,0,0,0,0,0,0,0],"sum_hessian":[4.4E2,3E0,4.37E2,2E0,1E0,1.7E1,4.2E2,1E0,1E0,1.6E1,1E0,1E0,4.19E2,6E0,1E1,2E0,4.17E2,2E0,4E0,9E0,1E0,1E0,4.16E2,1E0,1E0,3E0,6E0,2E0,4.14E2],"tree_param":{"num_deleted":"0","num_feature":"2","num_nodes":"29","size_leaf_vector":"0"}},{"base_weights":[-1.0002566E-3,-1.3582127E-2,-7.954903E-4,2.7128856E-3,-2.0642709E-2,-1.043445E-3,1.710718E-2,-2.3545384E-2,2.7614713E-2,-3.8015842E-2,-6.795466E-3,-7.643061E-4,-4.0519435E-2,5.4390132E-3,2.696234E-2,2.8473337E-3,-1.7861933E-2,-1.0733895E-3,2.115346E-2,-5.2143455E-2,-8.6357E-3,-4.3892264E-3,8.660227E-3,-7.466424E-4,-6.9480345E-2,-1.19944215E-2,3.018192E-2,1.3102187E-2,-1.0459004E-3,4.5775097E-2,4.5281053E-3],"categories":[],"categories_nodes":[],"categories_segments":[],"categories_sizes":[],"default_left":[1,1,1,1,1,1,1,0,0,0,1,1,1,0,0,1,0,1,1,0,0,0,0,1,0,0,1,0,0,0,0],"id":17,"left_children":[1,3,5,7,9,11,13,-1,-1,-1,15,17,19,-1,-1,21,-1,23,25,-1,-1,-1,-1,27,-1,-1,29,-1,-1,-1,-1],"loss_changes":[1.1253632E-3,8.613673E-4,1.9488377E-3,2.6118355E-3,9.445145E-4,4.7073215E-3,5.433016E-4,0E0,0E0,0E0,4.7770582E-4,2.922157E-3,6.615566E-4,0E0,0E0,1.6420776E-4,0E0,9.402925E-3,2.1576604E-3,0E0,0E0,0E0,0E0,1.7626293E-3,0E0,0E0,1.7928481E-3,0E0,0E0,0E0,0E0],"parents":[2147483647,0,0,1,1,2,2,3,3,4,4,5,5,6,6,10,10,11,11,12,12,15,15,17,17,18,18,23,23,26,26],"right_children":[2,4,6,8,10,12,14,-1,-1,-1,16,18,20,-1,-1,22,-1,24,26,-1,-1,-1,-1,28,-1,-1,30,-1,-1,-1,-1],"split_conditions":[2.3256514E-2,9.707339E-1,9.7144735E-1,9.538895E-1,9.82508E-1,9.6538305E-1,3.8795758E-2,-7.0636156E-3,8.284414E-3,-1.1404753E-2,9.9926114E-1,9.5734084E-1,9.6917254E-1,1.631704E-3,8.088702E-3,9.942219E-1,-5.35858E-3,9.5664895E-1,6.1167285E-2,-1.5643038E-2,-2.59071E-3,-1.316768E-3,2.5980682E-3,7.7149145E-2,-2.0844104E-2,-3.5983266E-3,8.5161254E-2,3.9306562E-3,-3.1377014E-4,1.3732529E-2,1.3584316E-3],"split_indices":[1,0,0,0,0,0,1,0,0,0,0,0,0,0,0,0,0,0,1,0,0,0,0,1,0,0,1,0,0,0,0],"split_type":[0,0,0,0,0,0,0,0,0,0,0,0,0,0,0,0,0,0,0,0,0,0,0,0,0,0,0,0,0,0,0],"sum_hessian":[4.4E2,6E0,4.34E2,2E0,4E0,4.29E2,5E0,1E0,1E0,1E0,3E0,4.27E2,2E0,3E0,2E0,2E0,1E0,4.22E2,5E0,1E0,1E0,1E0,1E0,4.21E2,1E0,1E0,4E0,8E0,4.13E2,2E0,2E0],"tree_param":{"num_deleted":"0","num_feature":"2","num_nodes":"31","size_leaf_vector":"0"}},{"base_weights":[-7.6482847E-4,-7.3751477E-3,-3.1590633E-4,2.3035776E-5,-2.5873486E-2,1.0613382E-2,-9.859499E-4,-1.15447985E-2,5.4198224E-3,-6.544688E-2,-1.0870589E-2,2.4105059E-2,-7.5226966E-3,-2.414662E-2,-5.008683E-4,2.3059647E-3,-1.7546296E-2,9.608295E-3,-7.39617E-4,2.0448586E-2,-2.7487975E-2,3.2253087E-2,2.9879927E-3,-2.076836E-2,2.0849302E-2,-1.7091121E-3,-9.060459E-2,3.340612E-2,-7.658424E-4,-2.001357E-2,2.3472518E-2,-3.2313466E-2,-5.776137E-3,1.7847617E-4,1.2277032E-2,-1.1690398E-2,5.978775E-3,-4.8308223E-3,-5.9058294E-2,1.1835247E-2,3.931284E-2,-1.0451362E-2,2.8372705E-2,2.754569E-3,-2.906843E-2,-2.4258733E-2,1.2162482E-2,-5.5481628E-2,-4.7661032E-4,2.4202466E-3,-1.5182644E-2,-1.953423E-3,2.2211373E-3,1.5125168E-2,3.4377973E-3,2.0759304E-3,7.888694E-3,2.6327968E-2,-4.9153596E-2,1.5750011E-2,4.5478344E-5,4.5992695E-2,1.5075465E-2,6.3302517E-3,-1.8155316E-2,-3.5202086E-2,3.933394E-2,-1.7153347E-2,-4.4321924E-2,-3.8033724E-4,-3.6007762E-2,2.306644E-2,-2.7956367E-3,1.2125629E-2,-1.0622581E-3],"categories":[],"categories_nodes":[],"categories_segments":[],"categories_sizes":[],"default_left":[1,1,1,1,1,1,1,1,1,0,1,1,1,1,1,1,1,1,1,0,1,1,1,1,0,1,0,0,1,0,0,0,1,1,1,0,1,1,0,1,1,1,0,1,1,1,1,0,1,0,0,0,0,0,0,0,0,0,0,0,0,0,0,0,0,0,0,0,0,0,0,0,0,0,0],"id":18,"left_children":[1,3,5,7,9,11,13,15,17,-1,19,21,23,25,27,29,31,33,35,-1,37,39,41,43,-1,45,-1,-1,47,-1,-1,-1,49,51,53,-1,55,57,-1,59,61,63,-1,65,67,69,71,-1,73,-1,-1,-1,-1,-1,-1,-1,-1,-1,-1,-1,-1,-1,-1,-1,-1,-1,-1,-1,-1,-1,-1,-1,-1,-1,-1],"loss_changes":[1.3063458E-3,3.8325111E-3,3.0422274E-3,1.3735825E-3,4.0382785E-3,6.0538016E-3,4.380718E-3,6.223383E-4,3.9408618E-4,0E0,4.20519E-3,2.312502E-3,4.5668706E-3,1.17743565E-2,3.475621E-3,1.8870519E-3,6.8241276E-4,2.243002E-4,5.848957E-4,0E0,3.2911673E-3,9.7617134E-4,2.002304E-3,1.6420071E-3,0E0,2.4846408E-3,0E0,0E0,6.0189203E-3,0E0,0E0,0E0,3.4514308E-4,1.7403063E-5,1.2423005E-4,0E0,2.0894222E-5,6.81829E-3,0E0,1.839003E-4,4.3995492E-4,6.3206686E-4,0E0,5.5499286E-3,3.302102E-4,8.279488E-4,8.799989E-4,0E0,2.8248413E-3,0E0,0E0,0E0,0E0,0E0,0E0,0E0,0E0,0E0,0E0,0E0,0E0,0E0,0E0,0E0,0E0,0E0,0E0,0E0,0E0,0E0,0E0,0E0,0E0,0E0,0E0],"parents":[2147483647,0,0,1,1,2,2,3,3,4,4,5,5,6,6,7,7,8,8,10,10,11,11,12,12,13,13,14,14,15,15,16,16,17,17,18,18,20,20,21,21,22,22,23,23,25,25,28,28,32,32,33,33,34,34,36,36,37,37,39,39,40,40,41,41,43,43,44,44,45,45,46,46,48,48],"right_children":[2,4,6,8,10,12,14,16,18,-1,20,22,24,26,28,30,32,34,36,-1,38,40,42,44,-1,46,-1,-1,48,-1,-1,-1,50,52,54,-1,56,58,-1,60,62,64,-1,66,68,70,72,-1,74,-1,-1,-1,-1,-1,-1,-1,-1,-1,-1,-1,-1,-1,-1,-1,-1,-1,-1,-1,-1,-1,-1,-1,-1,-1,-1],"split_conditions":[8.150105E-2,7.7149145E-2,1.0005339E-1,2.3256514E-2,7.770832E-2,9.39022E-1,1.6866669E-1,9.707339E-1,9.5809734E-1,-1.9634066E-2,7.8963734E-2,8.990499E-2,9.36286E-2,1.684443E-1,1.6916797E-1,9.538895E-1,9.82508E-1,9.0901667E-1,9.7144735E-1,6.134576E-3,9.4493437E-1,8.292658E-2,9.344095E-1,8.4547944E-2,6.254791E-3,7.8413016E-1,-2.7181378E-2,1.00218365E-2,1.6944855E-1,-6.0040713E-3,7.0417556E-3,-9.69404E-3,9.9926114E-1,7.582336E-1,9.4681233E-1,-3.5071194E-3,3.5140473E-2,8.109294E-2,-1.7717488E-2,8.2465515E-2,8.8077344E-2,7.4289703E-1,8.5118115E-3,9.499155E-1,9.637781E-1,7.388673E-1,8.6736727E-1,-1.6644489E-2,1.7638688E-1,7.26074E-4,-4.5547932E-3,-5.8602693E-4,6.663412E-4,4.5375503E-3,1.0313393E-3,6.2277913E-4,2.3666085E-3,7.89839E-3,-1.4746079E-2,4.7250036E-3,1.3643504E-5,1.3797809E-2,4.52264E-3,1.8990756E-3,-5.446595E-3,-1.0560626E-2,1.1800182E-2,-5.1460043E-3,-1.3296578E-2,-1.14101174E-4,-1.0802329E-2,6.9199326E-3,-8.38691E-4,3.637689E-3,-3.1867746E-4],"split_indices":[1,1,1,1,1,0,1,0,0,0,1,1,1,1,1,0,0,0,0,0,0,1,0,1,0,0,0,0,1,0,0,0,0,0,0,0,1,1,0,1,1,0,0,0,0,0,0,0,1,0,0,0,0,0,0,0,0,0,0,0,0,0,0,0,0,0,0,0,0,0,0,0,0,0,0],"split_type":[0,0,0,0,0,0,0,0,0,0,0,0,0,0,0,0,0,0,0,0,0,0,0,0,0,0,0,0,0,0,0,0,0,0,0,0,0,0,0,0,0,0,0,0,0,0,0,0,0,0,0,0,0,0,0,0,0,0,0,0,0,0,0,0,0,0,0,0,0,0,0,0,0,0,0],"sum_hessian":[4.4E2,2.7E1,4.13E2,2E1,7E0,2.3E1,3.9E2,6E0,1.4E1,1E0,6E0,1.3E1,1E1,7E0,3.83E2,2E0,4E0,8E0,6E0,2E0,4E0,9E0,4E0,7E0,3E0,6E0,1E0,2E0,3.81E2,1E0,1E0,1E0,3E0,2E0,6E0,2E0,4E0,3E0,1E0,3E0,6E0,3E0,1E0,2E0,5E0,2E0,4E0,1E0,3.8E2,2E0,1E0,1E0,1E0,4E0,2E0,2E0,2E0,2E0,1E0,2E0,1E0,4E0,2E0,1E0,2E0,1E0,1E0,4E0,1E0,1E0,1E0,2E0,2E0,1.6E1,3.64E2],"tree_param":{"num_deleted":"0","num_feature":"2","num_nodes":"75","size_leaf_vector":"0"}},{"base_weights":[-6.797374E-4,-6.7846766E-3,-2.652011E-4,-3.3403578E-4,-2.2869524E-2,8.14084E-3,-7.8049465E-4,-9.864926E-3,4.135982E-3,-5.562985E-2,-1.0242356E-2,1.8875215E-2,-6.26117E-3,-2.0904701E-2,-3.592078E-4,1.960079E-3,-1.4986944E-2,7.353511E-3,-5.916953E-4,1.6358873E-2,-2.4154622E-2,2.4883073E-2,3.084457E-3,-1.6688213E-2,1.6158208E-2,-1.8871172E-3,-7.7013895E-2,2.6724875E-2,-5.709697E-4,-1.7011523E-2,1.9951642E-2,-2.7466446E-2,-5.000457E-3,1.241897E-2,2.750953E-3,-9.352307E-3,4.7830106E-3,-5.0935E-3,-5.0199553E-2,9.469345E-3,3.0136194E-2,-8.202821E-3,2.4116784E-2,-2.6013458E-2,-8.596033E-4,6.403625E-3,2.2710979E-2,-1.0273755E-2,2.4216354E-2,-4.715939E-2,-3.2491246E-4,1.9362172E-3,-1.290524E-2,2.0712584E-2,2.7502377E-3,-1.6604066E-3,3.965306E-3,1.6607245E-3,6.31096E-3,2.1062374E-2,-4.178056E-2,1.2600024E-2,3.8653612E-5,3.495444E-2,1.2060384E-2,5.38072E-3,-1.4524241E-2,-3.437497E-2,-8.980791E-3,2.3969611E-2,-3.7673622E-2,-8.586645E-5,-3.0606598E-2,1.1860544E-2,-6.516051E-4],"categories":[],"categories_nodes":[],"categories_segments":[],"categories_sizes":[],"default_left":[1,1,1,1,1,1,1,1,1,0,1,1,1,1,1,1,1,1,1,0,1,1,1,1,1,1,0,0,1,0,0,0,1,1,1,0,1,1,0,1,1,1,0,1,1,0,0,1,0,0,1,0,0,0,0,0,0,0,0,0,0,0,0,0,0,0,0,0,0,0,0,0,0,0,0],"id":19,"left_children":[1,3,5,7,9,11,13,15,17,-1,19,21,23,25,27,29,31,33,35,-1,37,39,41,43,45,47,-1,-1,49,-1,-1,-1,51,53,55,-1,57,59,-1,61,63,65,-1,67,69,-1,-1,71,-1,-1,73,-1,-1,-1,-1,-1,-1,-1,-1,-1,-1,-1,-1,-1,-1,-1,-1,-1,-1,-1,-1,-1,-1,-1,-1],"loss_changes":[1.1142478E-3,2.8975727E-3,1.7996273E-3,9.3546946E-4,2.7395803E-3,3.828499E-3,3.3074135E-3,4.5335083E-4,2.3252264E-4,0E0,2.9857259E-3,1.2514102E-3,2.8410978E-3,8.391157E-3,2.2176437E-3,1.3633942E-3,4.8578717E-4,1.7566266E-4,3.7433213E-4,0E0,2.2265366E-3,5.243318E-4,1.3848143E-3,1.158484E-3,1.1024554E-4,1.7812354E-3,0E0,0E0,4.3637026E-3,0E0,0E0,0E0,2.4431894E-4,2.6379043E-4,3.8725717E-5,0E0,1.3372708E-5,4.7183265E-3,0E0,1.1761085E-4,1.8809177E-4,4.2161994E-4,0E0,4.0338025E-4,4.5592748E-3,0E0,0E0,1.2402644E-3,0E0,0E0,1.5244506E-3,0E0,0E0,0E0,0E0,0E0,0E0,0E0,0E0,0E0,0E0,0E0,0E0,0E0,0E0,0E0,0E0,0E0,0E0,0E0,0E0,0E0,0E0,0E0,0E0],"parents":[2147483647,0,0,1,1,2,2,3,3,4,4,5,5,6,6,7,7,8,8,10,10,11,11,12,12,13,13,14,14,15,15,16,16,17,17,18,18,20,20,21,21,22,22,23,23,24,24,25,25,28,28,32,32,33,33,34,34,36,36,37,37,39,39,40,40,41,41,43,43,44,44,47,47,50,50],"right_children":[2,4,6,8,10,12,14,16,18,-1,20,22,24,26,28,30,32,34,36,-1,38,40,42,44,46,48,-1,-1,50,-1,-1,-1,52,54,56,-1,58,60,-1,62,64,66,-1,68,70,-1,-1,72,-1,-1,74,-1,-1,-1,-1,-1,-1,-1,-1,-1,-1,-1,-1,-1,-1,-1,-1,-1,-1,-1,-1,-1,-1,-1,-1],"split_conditions":[8.150105E-2,7.7149145E-2,1.0005339E-1,2.3256514E-2,7.770832E-2,9.39022E-1,1.6866669E-1,9.707339E-1,9.5809734E-1,-1.6688956E-2,7.8963734E-2,8.990499E-2,9.36286E-2,1.684443E-1,1.6916797E-1,9.538895E-1,9.82508E-1,4.2488612E-2,9.7144735E-1,4.907662E-3,9.4493437E-1,8.292658E-2,9.344095E-1,9.567038E-1,9.702197E-1,1.682396E-1,-2.3104168E-2,8.017463E-3,1.6944855E-1,-5.1034573E-3,5.985493E-3,-8.239934E-3,9.9926114E-1,9.4465524E-1,7.582336E-1,-2.8056921E-3,3.5140473E-2,8.109294E-2,-1.5059867E-2,8.2465515E-2,8.8077344E-2,7.4289703E-1,7.2350358E-3,8.667099E-2,9.637781E-1,1.9210876E-3,6.813294E-3,1.3716613E-1,7.2649065E-3,-1.4147817E-2,1.730003E-1,5.808652E-4,-3.8715722E-3,6.2137754E-3,8.2507136E-4,-4.98122E-4,1.1895918E-3,4.9821736E-4,1.893288E-3,6.3187126E-3,-1.2534169E-2,3.7800074E-3,1.1596084E-5,1.0486333E-2,3.6181153E-3,1.614216E-3,-4.3572723E-3,-1.0312492E-2,-2.6942375E-3,7.1908836E-3,-1.1302087E-2,-2.5759937E-5,-9.18198E-3,3.5581633E-3,-1.9548154E-4],"split_indices":[1,1,1,1,1,0,1,0,0,0,1,1,1,1,1,0,0,1,0,0,0,1,0,0,0,1,0,0,1,0,0,0,0,0,0,0,1,1,0,1,1,0,0,1,0,0,0,1,0,0,1,0,0,0,0,0,0,0,0,0,0,0,0,0,0,0,0,0,0,0,0,0,0,0,0],"split_type":[0,0,0,0,0,0,0,0,0,0,0,0,0,0,0,0,0,0,0,0,0,0,0,0,0,0,0,0,0,0,0,0,0,0,0,0,0,0,0,0,0,0,0,0,0,0,0,0,0,0,0,0,0,0,0,0,0,0,0,0,0,0,0,0,0,0,0,0,0,0,0,0,0,0,0],"sum_hessian":[4.4E2,2.7E1,4.13E2,2E1,7E0,2.3E1,3.9E2,6E0,1.4E1,1E0,6E0,1.3E1,1E1,7E0,3.83E2,2E0,4E0,8E0,6E0,2E0,4E0,9E0,4E0,7E0,3E0,6E0,1E0,2E0,3.81E2,1E0,1E0,1E0,3E0,3E0,5E0,2E0,4E0,3E0,1E0,3E0,6E0,3E0,1E0,4E0,3E0,2E0,1E0,5E0,1E0,1E0,3.8E2,2E0,1E0,1E0,2E0,1E0,4E0,2E0,2E0,2E0,1E0,2E0,1E0,4E0,2E0,1E0,2E0,2E0,2E0,2E0,1E0,4E0,1E0,9E0,3.71E2],"tree_param":{"num_deleted":"0","num_feature":"2","num_nodes":"75","size_leaf_vector":"0"}},{"base_weights":[-5.896444E-4,-3.3953963E-3,1.6992542E-4,-1.490227E-3,-9.0288065E-2,6.998352E-2,-4.3588592E-4,-2.721133E-3,7.932994E-3,-8.3671406E-2,4.790229E-5,-7.7226834E-4,-2.3769911E-2,-6.684333E-3,2.1228155E-2,1.8431088E-2,-6.699035E-4,-3.5885815E-3,1.33687025E-2,-4.3317746E-2,-7.287228E-3,-1.2605226E-2,1.1460066E-2,1.945436E-3,2.469561E-2,3.34979E-2,1.0561255E-2,-3.676155E-4,-1.1511425E-2,-1.9289511E-3,-5.4902464E-2,3.4456808E-2,6.4020646E-3,3.0393004E-3,-2.4296671E-2,-1.7560938E-2,-3.447771E-3,2.8354004E-2,5.0310194E-3,-5.3742245E-2,2.3677448E-2,6.5062735E-3,-1.0630515E-3,-4.2163104E-2,-2.4095764E-3],"categories":[],"categories_nodes":[],"categories_segments":[],"categories_sizes":[],"default_left":[1,1,1,1,0,0,1,1,1,0,1,1,1,1,1,1,1,1,1,0,1,1,0,0,1,0,1,1,1,0,0,0,0,0,0,0,0,0,0,0,0,0,0,0,0],"id":20,"left_children":[1,3,5,7,-1,-1,9,11,13,-1,15,17,19,21,23,25,27,29,31,-1,33,35,-1,-1,37,-1,39,41,43,-1,-1,-1,-1,-1,-1,-1,-1,-1,-1,-1,-1,-1,-1,-1,-1],"loss_changes":[9.4042055E-4,1.5426702E-2,1.4748772E-2,1.1003029E-3,0E0,0E0,1.39368605E-2,3.3864044E-3,2.279633E-3,0E0,4.564814E-3,3.1145308E-3,1.9397391E-3,7.8904297E-4,3.5312818E-4,1.1876728E-3,1.0870962E-3,5.4296306E-3,1.6892774E-3,0E0,9.5208746E-4,1.6636256E-4,0E0,0E0,2.170545E-4,0E0,9.706651E-3,1.5605303E-3,2.4092873E-3,0E0,0E0,0E0,0E0,0E0,0E0,0E0,0E0,0E0,0E0,0E0,0E0,0E0,0E0,0E0,0E0],"parents":[2147483647,0,0,1,1,2,2,3,3,6,6,7,7,8,8,10,10,11,11,12,12,13,13,14,14,15,15,16,16,17,17,18,18,20,20,21,21,24,24,26,26,27,27,28,28],"right_children":[2,4,6,8,-1,-1,10,12,14,-1,16,18,20,22,24,26,28,30,32,-1,34,36,-1,-1,38,-1,40,42,44,-1,-1,-1,-1,-1,-1,-1,-1,-1,-1,-1,-1,-1,-1,-1,-1],"split_conditions":[2.6173976E-1,2.6158386E-1,2.6207554E-1,1.8259381E-1,-2.708642E-2,2.0995056E-2,2.6225668E-1,1.7638688E-1,8.1588876E-1,-2.5101423E-2,2.6552224E-1,1.7078854E-1,1.7831641E-1,2.614351E-1,1.8374753E-1,2.628606E-1,6.61995E-1,1.7041948E-1,1.7159843E-1,-1.2995324E-2,1.8147331E-1,7.4062645E-1,3.43802E-3,5.836308E-4,1.8939093E-1,1.004937E-2,2.6308393E-1,3.5855225E-1,6.630895E-1,-5.786854E-4,-1.647074E-2,1.0337043E-2,1.9206194E-3,9.117902E-4,-7.2890017E-3,-5.268282E-3,-1.0343314E-3,8.506201E-3,1.5093059E-3,-1.6122675E-2,7.1032345E-3,1.9518822E-3,-3.1891547E-4,-1.2648932E-2,-7.2287297E-4],"split_indices":[1,1,1,1,0,0,1,1,0,0,1,1,1,1,1,1,0,1,1,0,1,0,0,0,1,0,1,1,0,0,0,0,0,0,0,0,0,0,0,0,0,0,0,0,0],"split_type":[0,0,0,0,0,0,0,0,0,0,0,0,0,0,0,0,0,0,0,0,0,0,0,0,0,0,0,0,0,0,0,0,0,0,0,0,0,0,0,0,0,0,0,0,0],"sum_hessian":[4.4E2,9.3E1,3.47E2,9.2E1,1E0,2E0,3.45E2,8.2E1,1E1,1E0,3.44E2,7.6E1,6E0,5E0,5E0,1.2E1,3.32E2,6.4E1,1.2E1,2E0,4E0,4E0,1E0,1E0,4E0,3E0,9E0,3.24E2,8E0,6.3E1,1E0,2E0,1E1,3E0,1E0,2E0,2E0,3E0,1E0,1E0,8E0,2.9E1,2.95E2,1E0,7E0],"tree_param":{"num_deleted":"0","num_feature":"2","num_nodes":"45","size_leaf_vector":"0"}},{"base_weights":[-5.4501975E-4,-5.49085E-3,-2.092027E-4,1.586335E-4,-1.9634388E-2,-6.827218E-4,6.3429796E-3,-7.930645E-3,3.9230543E-3,-4.6996042E-2,-9.01186E-3,-3.592308E-4,-3.156718E-2,1.2689497E-2,-4.618867E-3,2.05187E-3,-1.23340245E-2,6.5207877E-3,2.2675309E-5,1.3472895E-2,-2.0700341E-2,-6.061875E-4,1.8481325E-2,-5.079159E-2,1.305303E-2,8.947078E-3,2.8419236E-2,-1.3315119E-2,1.3928354E-2,-1.4170438E-2,1.7248243E-2,-2.3057133E-2,-3.8889647E-3,9.990203E-3,1.7472148E-3,-7.096032E-3,4.289365E-3,-4.6852827E-3,-4.238029E-2,-1.18585645E-4,-2.3264851E-2,2.6848892E-2,3.9533176E-3,1.11612715E-2,-1.2132913E-2,3.7677288E-3,-1.9637356E-2,5.5086813E-3,1.9593686E-2,1.9347867E-3,-1.0680109E-2,1.7895043E-2,3.5402328E-3,-1.1219978E-3,2.7450174E-3,1.7143687E-3,5.4345727E-3,1.7235717E-2,-3.522414E-2,-3.4779153E-4,1.6820526E-2,2.0873249E-2,-3.2552186E-2,2.7795374E-2,7.987738E-3,-2.447617E-2,3.0127764E-2,-1.0871542E-2,-3.1733215E-2,6.575465E-3,1.6875565E-3],"categories":[],"categories_nodes":[],"categories_segments":[],"categories_sizes":[],"default_left":[1,1,1,1,1,1,1,1,1,0,1,1,1,1,1,1,1,1,1,0,1,1,1,0,0,1,0,1,1,0,0,0,1,1,1,0,1,1,0,1,1,0,0,1,0,1,1,1,0,0,0,0,0,0,0,0,0,0,0,0,0,0,0,0,0,0,0,0,0,0,0],"id":21,"left_children":[1,3,5,7,9,11,13,15,17,-1,19,21,23,25,27,29,31,33,35,-1,37,39,41,-1,-1,43,-1,45,47,-1,-1,-1,49,51,53,-1,55,57,-1,59,61,-1,-1,63,-1,65,67,69,-1,-1,-1,-1,-1,-1,-1,-1,-1,-1,-1,-1,-1,-1,-1,-1,-1,-1,-1,-1,-1,-1,-1],"loss_changes":[7.313057E-4,2.240418E-3,1.2888002E-3,6.705928E-4,1.9016778E-3,3.8551167E-3,2.0065587E-3,3.3300545E-4,1.5183432E-4,0E0,2.118582E-3,1.7978793E-3,4.094173E-3,8.053421E-4,1.959662E-3,9.83976E-4,3.6311813E-4,1.3159853E-4,2.4305069E-4,0E0,1.5374646E-3,4.1956357E-3,5.016781E-4,0E0,0E0,8.8222174E-4,0E0,9.380027E-4,8.286565E-5,0E0,0E0,0E0,1.7886348E-4,1.915773E-4,1.7394443E-5,0E0,5.427668E-6,3.2848825E-3,0E0,1.454039E-3,3.958873E-3,0E0,0E0,5.698111E-4,0E0,2.970943E-3,2.911915E-4,1.1324737E-6,0E0,0E0,0E0,0E0,0E0,0E0,0E0,0E0,0E0,0E0,0E0,0E0,0E0,0E0,0E0,0E0,0E0,0E0,0E0,0E0,0E0,0E0,0E0],"parents":[2147483647,0,0,1,1,2,2,3,3,4,4,5,5,6,6,7,7,8,8,10,10,11,11,12,12,13,13,14,14,15,15,16,16,17,17,18,18,20,20,21,21,22,22,25,25,27,27,28,28,32,32,33,33,34,34,36,36,37,37,39,39,40,40,43,43,45,45,46,46,47,47],"right_children":[2,4,6,8,10,12,14,16,18,-1,20,22,24,26,28,30,32,34,36,-1,38,40,42,-1,-1,44,-1,46,48,-1,-1,-1,50,52,54,-1,56,58,-1,60,62,-1,-1,64,-1,66,68,70,-1,-1,-1,-1,-1,-1,-1,-1,-1,-1,-1,-1,-1,-1,-1,-1,-1,-1,-1,-1,-1,-1,-1],"split_conditions":[8.150105E-2,7.7149145E-2,8.4882224E-1,2.3256514E-2,7.770832E-2,8.431572E-1,9.39022E-1,9.707339E-1,9.5809734E-1,-1.4098813E-2,7.8963734E-2,8.3368504E-1,1.8059203E-1,9.304491E-1,9.36286E-2,9.538895E-1,9.82508E-1,4.7436535E-2,9.7144735E-1,4.0418687E-3,9.4493437E-1,8.207482E-1,1.790959E-1,-1.5237478E-2,3.915909E-3,9.293337E-1,8.525771E-3,8.4547944E-2,9.702197E-1,-4.251132E-3,5.174473E-3,-6.91714E-3,9.9926114E-1,9.408001E-1,7.582336E-1,-2.1288097E-3,3.5140473E-2,8.109294E-2,-1.2714087E-2,8.1277716E-1,1.684443E-1,8.054668E-3,1.1859953E-3,8.498266E-1,-3.639874E-3,9.499155E-1,9.637781E-1,9.4981086E-1,5.878106E-3,5.80436E-4,-3.204033E-3,5.368513E-3,1.0620699E-3,-3.3659936E-4,8.235053E-4,5.143106E-4,1.6303719E-3,5.170715E-3,-1.0567242E-2,-1.04337465E-4,5.046158E-3,6.261975E-3,-9.765657E-3,8.3386125E-3,2.3963214E-3,-7.3428513E-3,9.038329E-3,-3.2614626E-3,-9.519964E-3,1.9726397E-3,5.0626695E-4],"split_indices":[1,1,0,1,1,0,0,0,0,0,1,0,1,0,1,0,0,1,0,0,0,0,1,0,0,0,0,1,0,0,0,0,0,0,0,0,1,1,0,0,1,0,0,0,0,0,0,0,0,0,0,0,0,0,0,0,0,0,0,0,0,0,0,0,0,0,0,0,0,0,0],"split_type":[0,0,0,0,0,0,0,0,0,0,0,0,0,0,0,0,0,0,0,0,0,0,0,0,0,0,0,0,0,0,0,0,0,0,0,0,0,0,0,0,0,0,0,0,0,0,0,0,0,0,0,0,0,0,0,0,0,0,0,0,0,0,0,0,0,0,0,0,0,0,0],"sum_hessian":[4.4E2,2.7E1,4.13E2,2E1,7E0,3.86E2,2.7E1,6E0,1.4E1,1E0,6E0,3.83E2,3E0,1.7E1,1E1,2E0,4E0,8E0,6E0,2E0,4E0,3.79E2,4E0,2E0,1E0,1.5E1,2E0,7E0,3E0,1E0,1E0,1E0,3E0,4E0,4E0,2E0,4E0,3E0,1E0,3.72E2,7E0,2E0,2E0,1.4E1,1E0,2E0,5E0,2E0,1E0,2E0,1E0,1E0,3E0,1E0,3E0,2E0,2E0,2E0,1E0,3.68E2,4E0,1E0,6E0,1E0,1.3E1,1E0,1E0,4E0,1E0,1E0,1E0],"tree_param":{"num_deleted":"0","num_feature":"2","num_nodes":"71","size_leaf_vector":"0"}},{"base_weights":[-4.214321E-4,-4.909724E-3,-1.16858195E-4,3.0846822E-5,-1.7265007E-2,5.8987685E-3,-4.8580498E-4,-6.782506E-3,3.208355E-3,-3.994663E-2,-8.318113E-3,1.28474785E-2,-3.481296E-3,-1.7379828E-2,-1.3258104E-4,1.7440915E-3,-1.0541963E-2,6.052077E-3,6.4008764E-4,1.07783275E-2,-1.8112356E-2,1.6944027E-2,2.0848871E-3,-1.0706335E-2,1.1839107E-2,-2.6370457E-3,-6.028965E-2,1.8282017E-2,-2.7685123E-4,-1.2044877E-2,1.4661014E-2,-1.9598573E-2,-3.3781677E-3,1.52107775E-2,1.990497E-3,2.1413714E-3,-5.685091E-3,-4.628822E-3,-3.6023244E-2,6.213203E-3,2.065535E-2,-5.656749E-3,1.6525716E-2,-4.5291698E-3,-2.6973248E-2,4.682382E-3,1.665464E-2,-8.990635E-3,1.7742246E-2,-3.2177404E-2,-1.0866761E-4,1.5478333E-3,-9.078085E-3,-9.537041E-4,2.7700781E-3,6.8133074E-4,4.347662E-3,1.3788581E-2,-2.9940516E-2,3.408591E-4,1.19151175E-2,2.6772022E-3,2.320551E-2,4.915118E-3,-1.08190775E-2,-1.6922355E-2,1.7635861E-2,-5.191207E-4,-2.5674105E-2,1.3834715E-2,-2.5592916E-4],"categories":[],"categories_nodes":[],"categories_segments":[],"categories_sizes":[],"default_left":[1,1,1,1,1,1,1,1,1,0,1,1,1,1,1,1,1,1,1,0,1,1,1,1,1,1,0,0,1,0,0,0,1,0,1,1,0,1,0,1,1,1,0,1,0,0,0,1,0,0,1,0,0,0,0,0,0,0,0,0,0,0,0,0,0,0,0,0,0,0,0],"id":22,"left_children":[1,3,5,7,9,11,13,15,17,-1,19,21,23,25,27,29,31,33,35,-1,37,39,41,43,45,47,-1,-1,49,-1,-1,-1,51,-1,53,55,-1,57,-1,59,61,63,-1,65,-1,-1,-1,67,-1,-1,69,-1,-1,-1,-1,-1,-1,-1,-1,-1,-1,-1,-1,-1,-1,-1,-1,-1,-1,-1,-1],"loss_changes":[6.022806E-4,1.7097129E-3,9.2171633E-4,4.7639984E-4,1.29116E-3,1.6090304E-3,2.3309386E-3,2.4277385E-4,1.056777E-4,0E0,1.5044669E-3,5.8192643E-4,1.344349E-3,4.901895E-3,1.0252255E-3,7.109232E-4,2.5819126E-4,2.3011456E-4,9.7636876E-5,0E0,1.0407653E-3,2.699194E-4,6.524601E-4,6.817008E-4,5.987048E-5,1.0658858E-3,0E0,0E0,2.0459907E-3,0E0,0E0,0E0,1.2636257E-4,0E0,1.6413296E-5,2.2807999E-5,0E0,2.2775398E-3,0E0,1.2987303E-4,2.588043E-4,2.7147884E-4,0E0,2.2213077E-3,0E0,8.1835606E-7,0E0,8.346776E-4,0E0,0E0,7.8585715E-4,0E0,0E0,0E0,0E0,0E0,0E0,0E0,0E0,0E0,0E0,0E0,0E0,0E0,0E0,0E0,0E0,0E0,0E0,0E0,0E0],"parents":[2147483647,0,0,1,1,2,2,3,3,4,4,5,5,6,6,7,7,8,8,10,10,11,11,12,12,13,13,14,14,15,15,16,16,17,17,18,18,20,20,21,21,22,22,23,23,24,24,25,25,28,28,32,32,34,34,35,35,37,37,39,39,40,40,41,41,43,43,47,47,50,50],"right_children":[2,4,6,8,10,12,14,16,18,-1,20,22,24,26,28,30,32,34,36,-1,38,40,42,44,46,48,-1,-1,50,-1,-1,-1,52,-1,54,56,-1,58,-1,60,62,64,-1,66,-1,-1,-1,68,-1,-1,70,-1,-1,-1,-1,-1,-1,-1,-1,-1,-1,-1,-1,-1,-1,-1,-1,-1,-1,-1,-1],"split_conditions":[8.150105E-2,7.7149145E-2,1.0005339E-1,2.3256514E-2,7.770832E-2,9.39022E-1,1.6866669E-1,9.707339E-1,9.4681233E-1,-1.198399E-2,7.8963734E-2,8.990499E-2,9.36286E-2,1.684443E-1,1.6916797E-1,9.538895E-1,9.82508E-1,4.2488612E-2,4.247421E-2,3.2334984E-3,9.4493437E-1,8.292658E-2,9.344095E-1,9.637781E-1,9.702197E-1,1.682396E-1,-1.8086895E-2,5.484605E-3,1.6944855E-1,-3.6134631E-3,4.3983045E-3,-5.879572E-3,9.9926114E-1,4.5632333E-3,7.582336E-1,3.5140473E-2,-1.7055274E-3,8.109294E-2,-1.0806974E-2,9.271766E-1,7.5449383E-1,7.4289703E-1,4.957715E-3,9.567038E-1,-8.091975E-3,1.4047147E-3,4.9963924E-3,1.3716613E-1,5.3226743E-3,-9.653222E-3,1.7041948E-1,4.6435E-4,-2.7234256E-3,-2.8611126E-4,8.310235E-4,2.0439923E-4,1.3042986E-3,4.1365745E-3,-8.9821555E-3,1.0225773E-4,3.5745355E-3,8.031607E-4,6.961653E-3,1.4745356E-3,-3.2457234E-3,-5.0767064E-3,5.290759E-3,-1.5573623E-4,-7.702232E-3,4.150415E-3,-7.677875E-5],"split_indices":[1,1,1,1,1,0,1,0,0,0,1,1,1,1,1,0,0,1,1,0,0,1,0,0,0,1,0,0,1,0,0,0,0,0,0,1,0,1,0,0,0,0,0,0,0,0,0,1,0,0,1,0,0,0,0,0,0,0,0,0,0,0,0,0,0,0,0,0,0,0,0],"split_type":[0,0,0,0,0,0,0,0,0,0,0,0,0,0,0,0,0,0,0,0,0,0,0,0,0,0,0,0,0,0,0,0,0,0,0,0,0,0,0,0,0,0,0,0,0,0,0,0,0,0,0,0,0,0,0,0,0,0,0,0,0,0,0,0,0,0,0,0,0,0,0],"sum_hessian":[4.4E2,2.7E1,4.13E2,2E1,7E0,2.3E1,3.9E2,6E0,1.4E1,1E0,6E0,1.3E1,1E1,7E0,3.83E2,2E0,4E0,6E0,8E0,2E0,4E0,9E0,4E0,7E0,3E0,6E0,1E0,2E0,3.81E2,1E0,1E0,1E0,3E0,1E0,5E0,7E0,1E0,3E0,1E0,3E0,6E0,3E0,1E0,6E0,1E0,2E0,1E0,5E0,1E0,1E0,3.8E2,2E0,1E0,1E0,4E0,5E0,2E0,2E0,1E0,2E0,1E0,1E0,5E0,1E0,2E0,4E0,2E0,4E0,1E0,3E0,3.77E2],"tree_param":{"num_deleted":"0","num_feature":"2","num_nodes":"71","size_leaf_vector":"0"}},{"base_weights":[-3.7303357E-4,-2.7014143E-3,2.5696875E-4,-1.0819819E-3,-7.665431E-2,5.610752E-2,-2.2802727E-4,1.4313281E-2,-1.5776282E-3,-7.103014E-2,1.830807E-4,1.7292082E-2,4.1778386E-3,-2.6512772E-3,6.471753E-3,2.6096702E-2,-1.205379E-4,-1.5881455E-3,-1.3663219E-2,-5.0055683E-3,1.6870448E-2,-4.5590356E-2,1.4650074E-4,-2.61517E-3,1.3313234E-2,6.56271E-3,-2.3066133E-2,-9.939325E-3,9.831607E-3,1.0989904E-3,1.9804943E-2,1.7524414E-2,-3.2361256E-4],"categories":[],"categories_nodes":[],"categories_segments":[],"categories_sizes":[],"default_left":[1,1,1,1,0,0,1,1,1,0,1,0,0,1,1,0,1,1,1,1,1,0,1,0,0,0,0,0,0,0,0,0,0],"id":23,"left_children":[1,3,5,7,-1,-1,9,11,13,-1,15,-1,-1,17,19,-1,21,23,25,27,29,-1,31,-1,-1,-1,-1,-1,-1,-1,-1,-1,-1],"loss_changes":[6.4759055E-4,1.1174661E-2,9.439172E-3,7.322271E-4,0E0,0E0,1.0084135E-2,1.8330873E-5,8.035995E-4,0E0,2.7175564E-3,0E0,0E0,9.265796E-4,1.3972871E-3,0E0,4.159311E-3,1.1826226E-3,1.4826551E-3,5.369377E-4,2.5592197E-4,0E0,2.7915007E-3,0E0,0E0,0E0,0E0,0E0,0E0,0E0,0E0,0E0,0E0],"parents":[2147483647,0,0,1,1,2,2,3,3,6,6,7,7,8,8,10,10,13,13,14,14,16,16,17,17,18,18,19,19,20,20,22,22],"right_children":[2,4,6,8,-1,-1,10,12,14,-1,16,-1,-1,18,20,-1,22,24,26,28,30,-1,32,-1,-1,-1,-1,-1,-1,-1,-1,-1,-1],"split_conditions":[2.6173976E-1,2.6158386E-1,2.6207554E-1,5.748887E-1,-2.2996293E-2,1.6832257E-2,2.6225668E-1,5.4515046E-1,1.8259381E-1,-2.1309042E-2,2.628606E-1,5.187625E-3,1.2533516E-3,1.7638688E-1,8.1588876E-1,7.8290105E-3,2.6308393E-1,1.7356913E-1,8.3107346E-1,2.614351E-1,1.8374753E-1,-1.3677107E-2,2.6552224E-1,-7.845511E-4,3.9939703E-3,1.9688131E-3,-6.9198404E-3,-2.9817976E-3,2.9494823E-3,3.2969716E-4,5.941483E-3,5.2573243E-3,-9.708377E-5],"split_indices":[1,1,1,0,0,0,1,0,1,0,1,0,0,1,0,0,1,1,0,1,1,0,1,0,0,0,0,0,0,0,0,0,0],"split_type":[0,0,0,0,0,0,0,0,0,0,0,0,0,0,0,0,0,0,0,0,0,0,0,0,0,0,0,0,0,0,0,0,0],"sum_hessian":[4.4E2,9.3E1,3.47E2,9.2E1,1E0,2E0,3.45E2,2E0,9E1,1E0,3.44E2,1E0,1E0,8E1,1E1,3E0,3.41E2,7.4E1,6E0,5E0,5E0,1E0,3.4E2,7E1,4E0,2E0,4E0,4E0,1E0,1E0,4E0,8E0,3.32E2],"tree_param":{"num_deleted":"0","num_feature":"2","num_nodes":"33","size_leaf_vector":"0"}},{"base_weights":[-3.0017245E-4,2.1734097E-4,-1.9377606E-3,-8.961415E-5,1.7114809E-2,-4.576693E-2,-6.548253E-4,1.4497366E-4,-3.8751796E-2,-3.494233E-3,-6.515616E-2,6.943889E-4,-9.377944E-3,1.119711E-2,-1.6438721E-4,-8.030192E-4,4.4886034E-2,-6.0375616E-2,-8.1076816E-4,2.3942709E-3,1.7760526E-2,2.6777384E-4,-5.541544E-3,-1.84398E-3,8.654852E-3,1.5391457E-2,-9.721919E-3,1.2166281E-2,-8.17583E-3,3.9514303E-3,2.0224944E-2,-6.3262606E-4,8.362447E-3,-3.4792706E-2,2.939889E-4,5.9871175E-3,-3.1601114E-3,1.8439174E-2,6.894966E-4,4.130274E-3,3.0218095E-2,-5.0382573E-2,1.6584843E-3],"categories":[],"categories_nodes":[],"categories_segments":[],"categories_sizes":[],"default_left":[1,1,1,1,0,1,1,1,0,0,0,1,1,1,1,1,0,0,1,1,1,1,1,1,1,1,1,0,0,0,0,0,0,0,0,0,0,0,0,0,0,0,0],"id":24,"left_children":[1,3,5,7,-1,9,11,13,-1,-1,-1,15,17,19,21,23,-1,-1,25,27,29,31,33,35,37,39,41,-1,-1,-1,-1,-1,-1,-1,-1,-1,-1,-1,-1,-1,-1,-1,-1],"loss_changes":[3.741571E-4,1.7442863E-3,5.9304098E-3,3.0076809E-3,0E0,2.2312342E-3,1.230525E-3,1.1301433E-3,0E0,0E0,0E0,6.057781E-3,6.0677333E-3,4.7746662E-4,7.4974674E-4,8.9218875E-4,0E0,0E0,2.0265805E-3,6.159251E-4,9.023945E-5,2.184535E-3,4.1069356E-3,8.537669E-4,6.887066E-4,7.1001844E-4,4.24817E-3,0E0,0E0,0E0,0E0,0E0,0E0,0E0,0E0,0E0,0E0,0E0,0E0,0E0,0E0,0E0,0E0],"parents":[2147483647,0,0,1,1,2,2,3,3,5,5,6,6,7,7,11,11,12,12,13,13,14,14,15,15,18,18,19,19,20,20,21,21,22,22,23,23,24,24,25,25,26,26],"right_children":[2,4,6,8,-1,10,12,14,-1,-1,-1,16,18,20,22,24,-1,-1,26,28,30,32,34,36,38,40,42,-1,-1,-1,-1,-1,-1,-1,-1,-1,-1,-1,-1,-1,-1,-1,-1],"split_conditions":[6.519811E-1,6.3609904E-1,6.5758675E-1,6.3067585E-1,5.134443E-3,6.5444434E-1,2.6207554E-1,2.6424804E-1,-1.16255395E-2,-1.0482699E-3,-1.954685E-2,2.6166368E-1,2.628018E-1,2.6185602E-1,4.3675292E-1,1.8374753E-1,1.3465811E-2,-1.8112686E-2,2.6947683E-1,5.748887E-1,5.549595E-1,2.1245599E-1,4.4468296E-1,8.056779E-1,1.8740241E-1,6.746832E-1,2.7035254E-1,3.6498846E-3,-2.4527493E-3,1.1854292E-3,6.067483E-3,-1.8978782E-4,2.5087341E-3,-1.0437813E-2,8.819668E-5,1.7961353E-3,-9.4803347E-4,5.5317525E-3,2.0684898E-4,1.2390823E-3,9.065429E-3,-1.5114772E-2,4.9754535E-4],"split_indices":[0,0,0,0,0,0,1,1,0,0,0,1,1,1,0,1,0,0,1,0,0,0,0,0,1,0,1,0,0,0,0,0,0,0,0,0,0,0,0,0,0,0,0],"split_type":[0,0,0,0,0,0,0,0,0,0,0,0,0,0,0,0,0,0,0,0,0,0,0,0,0,0,0,0,0,0,0,0,0,0,0,0,0,0,0,0,0,0,0],"sum_hessian":[4.4E2,3.35E2,1.05E2,3.3E2,5E0,2E0,1.03E2,3.29E2,1E0,1E0,1E0,9E1,1.3E1,8E0,3.21E2,8.8E1,2E0,1E0,1.2E1,4E0,4E0,2.98E2,2.3E1,8E1,8E0,4E0,8E0,2E0,2E0,1E0,3E0,2.69E2,2.9E1,3E0,2E1,1.1E1,6.9E1,3E0,5E0,3E0,1E0,1E0,7E0],"tree_param":{"num_deleted":"0","num_feature":"2","num_nodes":"43","size_leaf_vector":"0"}},{"base_weights":[-2.759738E-4,1.3406696E-4,-1.5731221E-3,-9.658648E-5,1.2836103E-2,-3.890189E-2,-4.8120457E-4,1.0275133E-4,-3.293903E-2,-2.9700994E-3,-5.5382736E-2,7.064179E-4,-8.166378E-3,7.1292496E-3,-2.0789135E-4,-6.812425E-4,3.1058341E-2,-5.131927E-2,-8.992891E-4,1.9154071E-3,9.023246E-3,5.120197E-5,-1.6385555E-2,-4.047255E-3,1.513048E-3,8.253455E-3,3.590882E-2,1.2834919E-2,-8.4294835E-3,7.703766E-3,-1.06190145E-2,1.5674353E-2,3.9335787E-3,-2.6928505E-4,3.3257958E-2,-1.558695E-3,-2.2943921E-2,-1.1541926E-3,1.0944572E-2,3.2009631E-3,2.568537E-2,-4.282519E-2,1.2231283E-3],"categories":[],"categories_nodes":[],"categories_segments":[],"categories_sizes":[],"default_left":[1,1,1,1,0,1,1,1,0,0,0,1,1,1,1,1,1,0,1,1,1,1,0,1,1,0,0,1,1,0,0,0,0,0,0,0,0,0,0,0,0,0,0],"id":25,"left_children":[1,3,5,7,-1,9,11,13,-1,-1,-1,15,17,19,21,23,25,-1,27,29,31,33,-1,35,37,-1,-1,39,41,-1,-1,-1,-1,-1,-1,-1,-1,-1,-1,-1,-1,-1,-1],"loss_changes":[2.347716E-4,9.85642E-4,4.301834E-3,2.170356E-3,0E0,1.6120663E-3,9.5498574E-4,7.217831E-4,0E0,0E0,0E0,3.853911E-3,4.344192E-3,1.2096675E-4,1.3295524E-3,6.560924E-4,1.4608656E-4,0E0,1.452668E-3,4.445751E-4,2.76863E-4,3.3400066E-3,0E0,1.6101294E-3,1.371064E-3,0E0,0E0,5.3678546E-4,3.0404562E-3,0E0,0E0,0E0,0E0,0E0,0E0,0E0,0E0,0E0,0E0,0E0,0E0,0E0,0E0],"parents":[2147483647,0,0,1,1,2,2,3,3,5,5,6,6,7,7,11,11,12,12,13,13,14,14,15,15,16,16,18,18,19,19,20,20,21,21,23,23,24,24,27,27,28,28],"right_children":[2,4,6,8,-1,10,12,14,-1,-1,-1,16,18,20,22,24,26,-1,28,30,32,34,-1,36,38,-1,-1,40,42,-1,-1,-1,-1,-1,-1,-1,-1,-1,-1,-1,-1,-1,-1],"split_conditions":[6.519811E-1,6.3609904E-1,6.5758675E-1,6.3067585E-1,3.8508312E-3,6.5444434E-1,2.6207554E-1,2.7886128E-1,-9.88171E-3,-8.910299E-4,-1.661482E-2,2.2676001E-1,2.628018E-1,2.6185602E-1,4.7043777E-1,8.4882224E-1,6.6494167E-1,-1.5395782E-2,2.6947683E-1,2.1785316E-1,2.6335627E-1,4.579296E-1,-4.9156668E-3,8.431572E-1,9.36286E-2,2.4760365E-3,1.07726455E-2,6.746832E-1,2.7035254E-1,2.31113E-3,-3.1857046E-3,4.702306E-3,1.1800737E-3,-8.078552E-5,9.977387E-3,-4.676085E-4,-6.8831765E-3,-3.462578E-4,3.283372E-3,9.60289E-4,7.705611E-3,-1.2847557E-2,3.669385E-4],"split_indices":[0,0,0,0,0,0,1,1,0,0,0,1,1,1,0,0,0,0,1,1,1,0,0,0,1,0,0,0,1,0,0,0,0,0,0,0,0,0,0,0,0,0,0],"split_type":[0,0,0,0,0,0,0,0,0,0,0,0,0,0,0,0,0,0,0,0,0,0,0,0,0,0,0,0,0,0,0,0,0,0,0,0,0,0,0,0,0,0,0],"sum_hessian":[4.4E2,3.35E2,1.05E2,3.3E2,5E0,2E0,1.03E2,3.29E2,1E0,1E0,1E0,9E1,1.3E1,1.3E1,3.16E2,8.7E1,3E0,1E0,1.2E1,4E0,9E0,3.12E2,4E0,3.4E1,5.3E1,1E0,2E0,4E0,8E0,3E0,1E0,3E0,6E0,3.1E2,2E0,3.1E1,3E0,4.2E1,1.1E1,3E0,1E0,1E0,7E0],"tree_param":{"num_deleted":"0","num_feature":"2","num_nodes":"43","size_leaf_vector":"0"}},{"base_weights":[-2.4743262E-4,2.8121163E-4,-1.3285354E-3,7.4170064E-3,-3.1662287E-4,-1.8326377E-2,-5.9056695E-4,4.152566E-3,3.9617345E-2,-5.3807694E-2,7.497846E-5,-3.7712898E-2,-6.906493E-3,1.3633971E-2,-1.3292326E-3,1.4002442E-2,4.3187072E-4,9.5674135E-3,-5.117163E-4,9.978831E-3,-2.1489652E-2,-3.7159324E-3,1.7144943E-2,-4.089053E-2,-7.2433165E-4,-5.290389E-3,1.8919086E-2,-2.9959574E-2,4.2038094E-3,7.4119186E-3,1.6437253E-2,-1.282188E-4,-5.0881E-3,-5.1542744E-3,-2.7080204E-2,2.539362E-2,1.04164835E-2,-3.2850486E-4,-1.340762E-2,1.5551734E-2,-8.748099E-4,1.089254E-2,-1.8918082E-2,-5.6957896E-4,2.6054423E-2,2.3005463E-3,-7.0790458E-3,1.9009989E-2,-9.350046E-4,-2.1906339E-2,6.0442686E-3],"categories":[],"categories_nodes":[],"categories_segments":[],"categories_sizes":[],"default_left":[1,1,1,1,1,1,1,1,0,0,1,0,1,1,1,1,1,1,1,0,1,0,1,0,1,0,0,0,1,1,0,1,1,0,0,0,0,1,1,0,0,0,0,0,0,0,0,0,0,0,0],"id":26,"left_children":[1,3,5,7,9,11,13,15,-1,-1,17,-1,19,21,23,25,27,29,31,-1,33,-1,35,-1,37,-1,-1,-1,39,41,-1,43,45,-1,-1,-1,-1,47,49,-1,-1,-1,-1,-1,-1,-1,-1,-1,-1,-1,-1],"loss_changes":[2.524134E-4,1.2693575E-3,1.8080381E-3,2.2531562E-3,5.7645077E-3,1.0678871E-3,1.4891276E-3,8.0021727E-4,0E0,0E0,1.5308461E-3,0E0,1.4456484E-3,4.9011456E-4,3.177091E-3,6.692251E-4,2.0747338E-3,1.1509494E-4,4.5390078E-4,0E0,1.3439264E-4,0E0,6.849319E-5,0E0,6.633068E-4,0E0,0E0,0E0,9.357134E-4,1.4890928E-3,0E0,2.788274E-3,3.1049357E-4,0E0,0E0,0E0,0E0,1.5425173E-3,7.936723E-4,0E0,0E0,0E0,0E0,0E0,0E0,0E0,0E0,0E0,0E0,0E0,0E0],"parents":[2147483647,0,0,1,1,2,2,3,3,4,4,5,5,6,6,7,7,10,10,12,12,13,13,14,14,15,15,16,16,17,17,18,18,20,20,22,22,24,24,28,28,29,29,31,31,32,32,37,37,38,38],"right_children":[2,4,6,8,10,12,14,16,-1,-1,18,-1,20,22,24,26,28,30,32,-1,34,-1,36,-1,38,-1,-1,-1,40,42,-1,44,46,-1,-1,-1,-1,48,50,-1,-1,-1,-1,-1,-1,-1,-1,-1,-1,-1,-1],"split_conditions":[4.3022743E-1,4.478302E-1,4.4468296E-1,4.476055E-1,4.4805282E-1,3.5745266E-1,4.5069334E-1,3.5612488E-1,1.1885204E-2,-1.6142309E-2,4.5161694E-1,-1.131387E-2,3.643414E-1,4.4634223E-1,4.5097464E-1,3.7517974E-1,3.5631716E-1,2.1245599E-1,8.5429765E-2,2.9936493E-3,4.3822548E-1,-1.1147797E-3,4.4769436E-1,-1.2267159E-2,3.628399E-1,-1.5871167E-3,5.675726E-3,-8.987873E-3,3.573627E-1,2.1020533E-1,4.931176E-3,3.202586E-2,4.5500433E-1,-1.5462824E-3,-8.124062E-3,7.6180864E-3,3.124945E-3,4.8575908E-1,3.6462325E-1,4.6655205E-3,-2.6244298E-4,3.2677623E-3,-5.675425E-3,-1.708737E-4,7.816328E-3,6.901639E-4,-2.1237137E-3,5.7029966E-3,-2.805014E-4,-6.571902E-3,1.8132806E-3],"split_indices":[0,1,0,1,1,1,0,1,0,0,1,0,1,0,0,0,1,0,0,0,0,0,0,0,1,0,0,0,1,0,0,0,1,0,0,0,0,0,1,0,0,0,0,0,0,0,0,0,0,0,0],"split_type":[0,0,0,0,0,0,0,0,0,0,0,0,0,0,0,0,0,0,0,0,0,0,0,0,0,0,0,0,0,0,0,0,0,0,0,0,0,0,0,0,0,0,0,0,0,0,0,0,0,0,0],"sum_hessian":[4.4E2,2.96E2,1.44E2,2.2E1,2.74E2,5E0,1.39E2,2.1E1,1E0,1E0,2.73E2,1E0,4E0,6E0,1.33E2,5E0,1.6E1,1.5E1,2.58E2,2E0,2E0,1E0,5E0,1E0,1.32E2,1E0,4E0,1E0,1.5E1,1.3E1,2E0,2.39E2,1.9E1,1E0,1E0,1E0,4E0,1.29E2,3E0,4E0,1.1E1,1.2E1,1E0,2.36E2,3E0,4E0,1.5E1,3E0,1.26E2,2E0,1E0],"tree_param":{"num_deleted":"0","num_feature":"2","num_nodes":"51","size_leaf_vector":"0"}},{"base_weights":[-2.0944707E-4,2.6395093E-4,-1.1022744E-3,9.6425805E-3,-2.485705E-4,-1.6836528E-2,-6.753458E-4,5.5206576E-3,3.3674747E-2,-4.573654E-2,8.4365674E-5,-5.471612E-3,-2.5465637E-2,-1.1761625E-4,-7.7123265E-3,1.2520775E-2,2.405064E-4,1.07285995E-2,-1.9397016E-4,-6.871696E-4,9.365911E-3,-1.25311855E-2,3.8534738E-3,-4.4968277E-3,1.682366E-2,1.0742992E-2,-4.294917E-3,1.6952887E-2,1.8221624E-3,-1.2397666E-2,-5.5605276E-5,-1.657551E-4,-3.4756944E-2,1.092577E-2,3.1242222E-3,-2.301817E-2,-7.7447346E-3,8.058722E-3,-4.381135E-3,-8.3345175E-3,8.1841275E-4,-1.6080372E-2,1.3149798E-2,8.971412E-3,-3.3421736E-4,-6.405133E-4,3.1013787E-2,-1.5749311E-2,2.196025E-3],"categories":[],"categories_nodes":[],"categories_segments":[],"categories_sizes":[],"default_left":[1,1,1,1,1,1,1,1,0,0,1,0,0,1,1,1,1,1,1,1,1,1,1,0,0,0,1,0,1,0,1,1,0,0,0,0,1,0,0,0,0,0,0,0,0,0,0,0,0],"id":27,"left_children":[1,3,5,7,9,11,13,15,-1,-1,17,-1,-1,19,21,23,25,27,29,31,33,35,37,-1,-1,-1,39,-1,41,-1,43,45,-1,-1,-1,-1,47,-1,-1,-1,-1,-1,-1,-1,-1,-1,-1,-1,-1],"loss_changes":[1.8668517E-4,1.3915473E-3,1.0163921E-3,1.2999742E-3,4.168621E-3,2.5293836E-4,5.878026E-4,5.1445223E-4,0E0,0E0,8.138531E-4,0E0,0E0,7.6262845E-4,6.613622E-4,5.15002E-4,4.7483927E-4,3.5716273E-4,4.5184552E-4,2.356914E-3,4.3754757E-5,2.232939E-4,1.7382065E-4,0E0,0E0,0E0,1.5141175E-4,0E0,1.0226271E-3,0E0,6.7199796E-4,1.9738271E-3,0E0,0E0,0E0,0E0,5.915869E-4,0E0,0E0,0E0,0E0,0E0,0E0,0E0,0E0,0E0,0E0,0E0,0E0],"parents":[2147483647,0,0,1,1,2,2,3,3,4,4,5,5,6,6,7,7,10,10,13,13,14,14,15,15,16,16,17,17,18,18,19,19,20,20,21,21,22,22,26,26,28,28,30,30,31,31,36,36],"right_children":[2,4,6,8,10,12,14,16,-1,-1,18,-1,-1,20,22,24,26,28,30,32,34,36,38,-1,-1,-1,40,-1,42,-1,44,46,-1,-1,-1,-1,48,-1,-1,-1,-1,-1,-1,-1,-1,-1,-1,-1,-1],"split_conditions":[3.9843684E-1,4.478302E-1,4.0971023E-1,4.476055E-1,4.4805282E-1,4.0694523E-1,3.619818E-1,3.572536E-1,1.0102425E-2,-1.3720962E-2,4.4936422E-1,-1.6414836E-3,-7.6396917E-3,3.555748E-1,3.694532E-1,3.5524076E-1,2.3867378E-1,1.9683065E-1,4.498E-1,3.553989E-1,3.6033463E-1,4.4468296E-1,3.7424988E-1,-1.3490483E-3,5.0470983E-3,3.2228979E-3,3.6306474E-1,5.0858664E-3,2.1245599E-1,-3.7193E-3,4.5161694E-1,3.5522592E-1,-1.0427084E-2,3.2777311E-3,9.372667E-4,-6.9054514E-3,3.6462325E-1,2.4176168E-3,-1.3143406E-3,-2.5003552E-3,2.4552384E-4,-4.8241117E-3,3.9449395E-3,2.6914235E-3,-1.0026521E-4,-1.9215401E-4,9.304136E-3,-4.7247936E-3,6.588076E-4],"split_indices":[0,1,0,1,1,0,1,1,0,0,1,0,0,1,1,1,0,0,1,1,1,0,1,0,0,0,1,0,0,0,1,1,0,0,0,0,1,0,0,0,0,0,0,0,0,0,0,0,0],"split_type":[0,0,0,0,0,0,0,0,0,0,0,0,0,0,0,0,0,0,0,0,0,0,0,0,0,0,0,0,0,0,0,0,0,0,0,0,0,0,0,0,0,0,0,0,0,0,0,0,0],"sum_hessian":[4.4E2,2.88E2,1.52E2,1.4E1,2.74E2,3E0,1.49E2,1.3E1,1E0,1E0,2.73E2,2E0,1E0,1.39E2,1E1,5E0,8E0,6E0,2.67E2,1.32E2,7E0,7E0,3E0,1E0,4E0,2E0,6E0,3E0,3E0,2E0,2.65E2,1.31E2,1E0,5E0,2E0,1E0,6E0,2E0,1E0,3E0,3E0,1E0,2E0,7E0,2.58E2,1.3E2,1E0,3E0,3E0],"tree_param":{"num_deleted":"0","num_feature":"2","num_nodes":"49","size_leaf_vector":"0"}},{"base_weights":[-1.7409946E-4,1.7506585E-3,-4.2470958E-4,7.14965E-4,1.8083433E-2,-1.0861441E-2,-8.328495E-6,6.7742183E-3,-3.0218344E-3,-5.174381E-3,-4.5240134E-2,1.7157942E-2,-2.8518145E-4,3.4219201E-3,2.3512503E-2,-3.2678887E-2,-9.439697E-4,4.957229E-3,-1.6014168E-2,5.425433E-3,2.1667838E-2,-2.789257E-2,-6.056699E-5,-7.057627E-3,8.376534E-3,3.5630167E-3,-9.052675E-3,-1.4523546E-2,1.3871412E-2,-4.990977E-2,-2.0466049E-3,-3.1370819E-3,-3.8701773E-2,1.4858389E-2,-2.6421237E-4,1.2003183E-3,-2.4173677E-2,1.3307472E-2,-4.812211E-3,-5.5797575E-3,6.197445E-3,-3.0889759E-2,-7.677939E-4,7.331371E-5,-2.1858633E-2,3.8599968E-3,1.5101695E-2,6.666708E-3,-2.2806585E-2,2.167795E-2,3.0860305E-3,-1.641789E-2,-8.5482556E-5],"categories":[],"categories_nodes":[],"categories_segments":[],"categories_sizes":[],"default_left":[1,1,1,1,0,1,1,1,1,1,0,1,1,1,0,0,1,1,1,0,0,1,1,1,1,1,1,1,1,0,1,0,0,1,1,0,0,0,0,0,0,0,0,0,0,0,0,0,0,0,0,0,0],"id":28,"left_children":[1,3,5,7,-1,9,11,13,15,17,-1,19,21,23,-1,-1,25,27,29,-1,-1,31,33,35,37,39,41,43,45,-1,47,-1,-1,49,51,-1,-1,-1,-1,-1,-1,-1,-1,-1,-1,-1,-1,-1,-1,-1,-1,-1,-1],"loss_changes":[2.1346599E-4,8.4977417E-4,1.6990616E-3,1.1299391E-3,0E0,2.6986157E-3,1.7965977E-3,9.856648E-4,1.8794758E-3,1.6169285E-3,0E0,1.9991712E-4,2.3050895E-3,9.4179425E-4,0E0,0E0,1.1286295E-3,1.5907036E-3,3.2119274E-3,0E0,0E0,6.813507E-4,1.1280512E-3,8.770765E-4,8.444329E-4,5.162999E-4,1.966377E-3,3.2281026E-4,1.560885E-5,0E0,1.2373741E-3,0E0,0E0,3.345128E-4,1.0552913E-3,0E0,0E0,0E0,0E0,0E0,0E0,0E0,0E0,0E0,0E0,0E0,0E0,0E0,0E0,0E0,0E0,0E0,0E0],"parents":[2147483647,0,0,1,1,2,2,3,3,5,5,6,6,7,7,8,8,9,9,11,11,12,12,13,13,16,16,17,17,18,18,21,21,22,22,23,23,24,24,25,25,26,26,27,27,28,28,30,30,33,33,34,34],"right_children":[2,4,6,8,-1,10,12,14,16,18,-1,20,22,24,-1,-1,26,28,30,-1,-1,32,34,36,38,40,42,44,46,-1,48,-1,-1,50,52,-1,-1,-1,-1,-1,-1,-1,-1,-1,-1,-1,-1,-1,-1,-1,-1,-1,-1],"split_conditions":[1.0005339E-1,9.675651E-2,1.7078854E-1,9.339376E-1,5.42503E-3,1.7041948E-1,1.730003E-1,9.304563E-1,9.3718565E-1,8.2522917E-1,-1.3572041E-2,7.7109444E-1,1.7356913E-1,8.150105E-2,7.053751E-3,-9.803667E-3,7.8963734E-2,7.726853E-1,8.33548E-1,1.62763E-3,6.5003517E-3,8.017522E-1,1.7547587E-1,8.109294E-2,8.990499E-2,1.8637309E-2,8.396112E-2,7.388673E-1,1.3636392E-1,-1.4972932E-2,1.6916797E-1,-9.4112457E-4,-1.1610532E-2,8.042698E-1,1.7831641E-1,3.6009552E-4,-7.252103E-3,3.992242E-3,-1.4436633E-3,-1.6739273E-3,1.8592336E-3,-9.266928E-3,-2.3033818E-4,2.1994114E-5,-6.55759E-3,1.157999E-3,4.530509E-3,2.0000124E-3,-6.8419757E-3,6.5033855E-3,9.258092E-4,-4.9253674E-3,-2.5644767E-5],"split_indices":[1,1,1,0,0,1,1,0,0,0,0,0,1,1,0,0,1,0,0,0,0,0,1,1,1,1,1,0,1,0,1,0,0,0,1,0,0,0,0,0,0,0,0,0,0,0,0,0,0,0,0,0,0],"split_type":[0,0,0,0,0,0,0,0,0,0,0,0,0,0,0,0,0,0,0,0,0,0,0,0,0,0,0,0,0,0,0,0,0,0,0,0,0,0,0,0,0,0,0,0,0,0,0,0,0,0,0,0,0],"sum_hessian":[4.4E2,5E1,3.9E2,4.8E1,2E0,1.4E1,3.76E2,1.8E1,3E1,1.3E1,1E0,5E0,3.71E2,1.6E1,2E0,1E0,2.9E1,7E0,6E0,2E0,3E0,2E0,3.69E2,5E0,1.1E1,1.9E1,1E1,2E0,5E0,1E0,5E0,1E0,1E0,4E0,3.65E2,4E0,1E0,8E0,3E0,4E0,1.5E1,2E0,8E0,1E0,1E0,1E0,4E0,4E0,1E0,2E0,2E0,3E0,3.62E2],"tree_param":{"num_deleted":"0","num_feature":"2","num_nodes":"53","size_leaf_vector":"0"}},{"base_weights":[-2.2881178E-4,2.2459857E-4,-1.0837581E-3,7.7583073E-3,-1.8714773E-4,-1.408663E-2,-7.297897E-4,4.221565E-3,2.8636351E-2,-3.8863238E-2,9.5842515E-5,-4.360194E-3,-2.163297E-2,6.9299713E-3,-1.0417124E-3,9.4022555E-3,2.9870868E-4,8.132954E-3,-1.1443965E-4,1.2090762E-2,1.3268851E-3,-1.5106027E-2,-4.3151516E-4,-3.8094819E-3,1.2806499E-2,8.61149E-3,-3.3065847E-3,1.3157718E-2,1.0749511E-3,-9.901047E-3,-3.6341576E-6,-8.352101E-4,2.3259867E-3,-3.1947065E-2,-5.3484067E-3,9.8329205E-3,-9.644968E-4,-7.5287125E-3,-1.1199117E-4,-1.3655491E-2,1.0536929E-2,1.0412671E-2,-1.6204323E-4,6.5951645E-3,-1.5509176E-2,2.1693468E-2,4.240585E-3,-2.9530585E-2,-5.276797E-4],"categories":[],"categories_nodes":[],"categories_segments":[],"categories_sizes":[],"default_left":[1,1,1,1,1,1,1,1,0,0,1,0,0,1,1,1,1,1,1,0,1,1,1,0,0,0,1,0,1,0,1,0,0,0,1,1,1,0,0,0,0,0,0,0,0,0,0,0,0],"id":29,"left_children":[1,3,5,7,9,11,13,15,-1,-1,17,-1,-1,19,21,23,25,27,29,-1,31,33,35,-1,-1,-1,37,-1,39,-1,41,-1,-1,-1,43,45,47,-1,-1,-1,-1,-1,-1,-1,-1,-1,-1,-1,-1],"loss_changes":[1.7119331E-4,8.9792325E-4,6.939182E-4,9.867137E-4,3.0135878E-3,1.9927206E-4,3.6560692E-4,2.817149E-4,0E0,0E0,4.640075E-4,0E0,0E0,1.5745507E-4,1.2378723E-3,3.1864195E-4,2.9820477E-4,2.3410973E-4,2.905859E-4,0E0,1.05833005E-5,8.151048E-4,7.7538955E-4,0E0,0E0,0E0,9.3572715E-5,0E0,7.014034E-4,0E0,4.4059716E-4,0E0,0E0,0E0,7.0906495E-4,3.7230417E-4,1.6564901E-3,0E0,0E0,0E0,0E0,0E0,0E0,0E0,0E0,0E0,0E0,0E0,0E0],"parents":[2147483647,0,0,1,1,2,2,3,3,4,4,5,5,6,6,7,7,10,10,13,13,14,14,15,15,16,16,17,17,18,18,20,20,21,21,22,22,26,26,28,28,30,30,34,34,35,35,36,36],"right_children":[2,4,6,8,10,12,14,16,-1,-1,18,-1,-1,20,22,24,26,28,30,-1,32,34,36,-1,-1,-1,38,-1,40,-1,42,-1,-1,-1,44,46,48,-1,-1,-1,-1,-1,-1,-1,-1,-1,-1,-1,-1],"split_conditions":[3.9843684E-1,4.478302E-1,4.0971023E-1,4.476055E-1,4.4805282E-1,4.0694523E-1,4.3022743E-1,3.572536E-1,8.590906E-3,-1.1658972E-2,4.4936422E-1,-1.3080582E-3,-6.489891E-3,3.5603905E-1,4.4468296E-1,3.5524076E-1,2.3867378E-1,1.9683065E-1,4.498E-1,3.6272288E-3,4.213149E-1,3.5745266E-1,4.5069334E-1,-1.1428446E-3,3.8419499E-3,2.5834471E-3,3.0117995E-1,3.9473157E-3,2.1245599E-1,-2.9703141E-3,4.5046055E-1,-2.5056303E-4,6.9779606E-4,-9.58412E-3,3.643414E-1,3.557089E-1,4.5097464E-1,-2.258614E-3,-3.3597353E-5,-4.0966477E-3,3.1610788E-3,3.1238014E-3,-4.8612972E-5,1.9785494E-3,-4.652753E-3,6.5080407E-3,1.2721756E-3,-8.859176E-3,-1.5830391E-4],"split_indices":[0,1,0,1,1,0,0,1,0,0,1,0,0,1,0,1,0,0,1,0,0,1,0,0,0,0,0,0,0,0,1,0,0,0,1,1,0,0,0,0,0,0,0,0,0,0,0,0,0],"split_type":[0,0,0,0,0,0,0,0,0,0,0,0,0,0,0,0,0,0,0,0,0,0,0,0,0,0,0,0,0,0,0,0,0,0,0,0,0,0,0,0,0,0,0,0,0,0,0,0,0],"sum_hessian":[4.4E2,2.88E2,1.52E2,1.4E1,2.74E2,3E0,