{"learner":{"attributes":{"best_iteration":"99","best_ntree_limit":"100","scikit_learn":"{\"n_estimators\": 100, \"objective\": \"reg:squarederror\", \"max_depth\": null, \"max_leaves\": null, \"max_bin\": null, \"grow_policy\": null, \"learning_rate\": null, \"verbosity\": null, \"booster\": null, \"tree_method\": null, \"gamma\": null, \"min_child_weight\": null, \"max_delta_step\": null, \"subsample\": null, \"sampling_method\": null, \"colsample_bytree\": null, \"colsample_bylevel\": null, \"colsample_bynode\": null, \"reg_alpha\": null, \"reg_lambda\": null, \"scale_pos_weight\": null, \"base_score\": null, \"missing\": NaN, \"num_parallel_tree\": null, \"random_state\": null, \"n_jobs\": null, \"monotone_constraints\": null, \"interaction_constraints\": null, \"importance_type\": null, \"gpu_id\": null, \"validate_parameters\": null, \"predictor\": null, \"enable_categorical\": false, \"feature_types\": null, \"max_cat_to_onehot\": null, \"max_cat_threshold\": null, \"eval_metric\": null, \"early_stopping_rounds\": null, \"callbacks\": null, \"_estimator_type\": \"regressor\"}"},"feature_names":["GHI","SZA_30min_before"],"feature_types":["float","float"],"gradient_booster":{"model":{"gbtree_model_param":{"num_parallel_tree":"1","num_trees":"100","size_leaf_vector":"0"},"tree_info":[0,0,0,0,0,0,0,0,0,0,0,0,0,0,0,0,0,0,0,0,0,0,0,0,0,0,0,0,0,0,0,0,0,0,0,0,0,0,0,0,0,0,0,0,0,0,0,0,0,0,0,0,0,0,0,0,0,0,0,0,0,0,0,0,0,0,0,0,0,0,0,0,0,0,0,0,0,0,0,0,0,0,0,0,0,0,0,0,0,0,0,0,0,0,0,0,0,0,0,0],"trees":[{"base_weights":[4.5928207E2,9.776363E2,7.543909E1,4.2395764E2,1.2250519E3,-4.5E-1,3.0325635E2],"categories":[],"categories_nodes":[],"categories_segments":[],"categories_sizes":[],"default_left":[1,1,1,0,0,0,0],"id":0,"left_children":[1,3,5,-1,-1,-1,-1],"loss_changes":[3.7066138E6,5.7654E5,2.076026E5,0E0,0E0,0E0,0E0],"parents":[2147483647,0,0,1,1,2,2],"right_children":[2,4,6,-1,-1,-1,-1],"split_conditions":[7.776607E1,6.3743706E1,3.8679752E1,1.27187294E2,3.6751556E2,-1.35E-1,9.0976906E1],"split_indices":[1,1,0,0,0,0,0],"split_type":[0,0,0,0,0,0,0],"sum_hessian":[1.8E1,7E0,1.1E1,3E0,4E0,9E0,2E0],"tree_param":{"num_deleted":"0","num_feature":"2","num_nodes":"7","size_leaf_vector":"0"}},{"base_weights":[3.5231558E2,7.461832E2,6.0377518E1,3.2856717E2,9.310394E2,-3.285E-1,2.4260507E2,7.979523E1,3.8489273E2],"categories":[],"categories_nodes":[],"categories_segments":[],"categories_sizes":[],"default_left":[1,1,1,1,0,0,0,0,0],"id":1,"left_children":[1,3,5,7,-1,-1,-1,-1,-1],"loss_changes":[2.1396618E6,3.116825E5,1.328274E5,2.5336281E4,0E0,0E0,0E0,0E0,0E0],"parents":[2147483647,0,0,1,1,2,2,3,3],"right_children":[2,4,6,8,-1,-1,-1,-1,-1],"split_conditions":[7.776607E1,6.3743706E1,3.8679752E1,3.873405E1,2.7931183E2,-9.855001E-2,7.2781525E1,2.3938568E1,1.1546783E2],"split_indices":[1,1,0,0,0,0,0,0,0],"split_type":[0,0,0,0,0,0,0,0,0],"sum_hessian":[1.8E1,7E0,1.1E1,3E0,4E0,9E0,2E0,1E0,2E0],"tree_param":{"num_deleted":"0","num_feature":"2","num_nodes":"9","size_leaf_vector":"0"}},{"base_weights":[2.7248413E2,-2.3980498E-1,5.1795966E2,5.746681E2,1.9408406E2,2.648486E2,7.0759E2,6.782594E1,3.0791418E2],"categories":[],"categories_nodes":[],"categories_segments":[],"categories_sizes":[],"default_left":[1,0,1,1,0,1,0,0,0],"id":2,"left_children":[1,-1,3,5,-1,7,-1,-1,-1],"loss_changes":[1.2721182E6,0E0,7.21305E4,1.420505E5,0E0,1.3055E4,0E0,0E0,0E0],"parents":[2147483647,0,0,2,2,3,3,5,5],"right_children":[2,-1,4,6,-1,8,-1,-1,-1],"split_conditions":[1.53368E1,-7.1941495E-2,7.776607E1,6.3743706E1,5.822522E1,3.873405E1,2.1227702E2,2.0347784E1,9.237426E1],"split_indices":[0,0,1,1,0,0,0,0,0],"split_type":[0,0,0,0,0,0,0,0,0],"sum_hessian":[1.8E1,9E0,9E0,7E0,2E0,3E0,4E0,1E0,2E0],"tree_param":{"num_deleted":"0","num_feature":"2","num_nodes":"9","size_leaf_vector":"0"}},{"base_weights":[2.109048E2,-1.7505765E-1,4.0089417E2,2.8476984E2,5.769277E2],"categories":[],"categories_nodes":[],"categories_segments":[],"categories_sizes":[],"default_left":[1,0,1,0,0],"id":3,"left_children":[1,-1,3,-1,-1],"loss_changes":[7.620258E5,0E0,4.0126125E4,0E0,0E0],"parents":[2147483647,0,0,2,2],"right_children":[2,-1,4,-1,-1],"split_conditions":[1.53368E1,-5.25173E-2,1.191245E2,8.5430954E1,1.7307831E2],"split_indices":[0,0,0,0,0],"split_type":[0,0,0,0,0],"sum_hessian":[1.8E1,9E0,9E0,7E0,2E0],"tree_param":{"num_deleted":"0","num_feature":"2","num_nodes":"5","size_leaf_vector":"0"}},{"base_weights":[1.6123634E2,3.4622858E2,2.4471823E1,1.4950131E2,4.343647E2,-1.2779208E-1,9.831326E1,1.4936569E1,1.8937738E2,2.3682312E2,4.724295E1],"categories":[],"categories_nodes":[],"categories_segments":[],"categories_sizes":[],"default_left":[1,1,1,1,0,0,0,0,1,0,0],"id":4,"left_children":[1,3,5,7,-1,-1,-1,-1,9,-1,-1],"loss_changes":[4.7223425E5,7.377206E4,2.1810215E4,1.8635E4,0E0,0E0,0E0,0E0,9.042797E3,0E0,0E0],"parents":[2147483647,0,0,1,1,2,2,3,3,8,8],"right_children":[2,4,6,8,-1,-1,-1,-1,10,-1,-1],"split_conditions":[7.776607E1,6.3743706E1,3.8679752E1,3.873405E1,1.3030942E2,-3.8337626E-2,2.949398E1,4.480971E0,4.525895E1,7.1046936E1,1.4172886E1],"split_indices":[1,1,0,0,0,0,0,0,0,0,0],"split_type":[0,0,0,0,0,0,0,0,0,0,0],"sum_hessian":[1.8E1,7E0,1.1E1,3E0,4E0,9E0,2E0,1E0,2E0,1E0,1E0],"tree_param":{"num_deleted":"0","num_feature":"2","num_nodes":"11","size_leaf_vector":"0"}},{"base_weights":[1.2599521E2,2.6986127E2,1.9584911E1,4.015651E1,2.9693958E2,-9.328821E-2,7.8650604E1,9.972917E1,1.8246735E1],"categories":[],"categories_nodes":[],"categories_segments":[],"categories_sizes":[],"default_left":[1,1,1,0,0,0,1,0,0],"id":5,"left_children":[1,3,5,-1,-1,-1,7,-1,-1],"loss_changes":[2.8558253E5,3.7836062E4,1.3955016E4,0E0,0E0,0E0,1.9999492E3,0E0,0E0],"parents":[2147483647,0,0,1,1,2,2,6,6],"right_children":[2,4,6,-1,-1,-1,8,-1,-1],"split_conditions":[7.776607E1,6.055126E1,3.8679752E1,1.2046953E1,8.908188E1,-2.7986465E-2,7.747145E1,2.9918753E1,5.4740205E0],"split_indices":[1,1,0,0,0,0,0,0,0],"split_type":[0,0,0,0,0,0,0,0,0],"sum_hessian":[1.8E1,7E0,1.1E1,1E0,6E0,9E0,2E0,1E0,1E0],"tree_param":{"num_deleted":"0","num_feature":"2","num_nodes":"9","size_leaf_vector":"0"}},{"base_weights":[9.5380516E1,5.0963882E1,3.1528125E2,-6.810039E-2,1.0838338E2,1.3692194E2,1.5178477E1,3.4133026E1,1.506531E2],"categories":[],"categories_nodes":[],"categories_segments":[],"categories_sizes":[],"default_left":[1,1,0,0,1,1,0,0,0],"id":6,"left_children":[1,3,-1,-1,5,7,-1,-1,-1],"loss_changes":[1.6950978E5,4.9821297E4,0E0,0E0,1.9201195E4,3.3262266E3,0E0,0E0,0E0],"parents":[2147483647,0,0,1,1,4,4,5,5],"right_children":[2,4,-1,-1,6,8,-1,-1,-1],"split_conditions":[1.191245E2,1.53368E1,9.458438E1,-2.0430118E-2,7.747145E1,6.055126E1,4.5535436E0,1.0239908E1,4.5195934E1],"split_indices":[0,0,0,0,0,1,0,0,0],"split_type":[0,0,0,0,0,0,0,0,0],"sum_hessian":[1.8E1,1.6E1,2E0,9E0,7E0,5E0,2E0,1E0,4E0],"tree_param":{"num_deleted":"0","num_feature":"2","num_nodes":"9","size_leaf_vector":"0"}},{"base_weights":[7.490075E1,3.92023E1,2.5222502E2,-4.9713288E-2,8.3367035E1,1.0508466E2,1.2142761E1,5.4365517E1,1.3768198E2,-5.444281E1,1.0878256E2,1.3416077E2,2.9013077E1],"categories":[],"categories_nodes":[],"categories_segments":[],"categories_sizes":[],"default_left":[1,1,0,0,1,1,0,1,0,0,1,0,0],"id":7,"left_children":[1,3,-1,-1,5,7,-1,9,-1,-1,11,-1,-1],"loss_changes":[1.10386016E5,2.9474574E4,0E0,0E0,1.109857E4,2.4346953E3,0E0,2.960654E4,0E0,0E0,2.1808008E3,0E0,0E0],"parents":[2147483647,0,0,1,1,4,4,5,5,7,7,10,10],"right_children":[2,4,-1,-1,6,8,-1,10,-1,-1,12,-1,-1],"split_conditions":[1.191245E2,1.53368E1,7.566751E1,-1.4913986E-2,7.747145E1,6.440879E1,3.6428285E0,3.873405E1,4.1304596E1,-1.6332844E1,4.525895E1,4.024823E1,8.703923E0],"split_indices":[0,0,0,0,0,1,0,0,0,0,0,0,0],"split_type":[0,0,0,0,0,0,0,0,0,0,0,0,0],"sum_hessian":[1.8E1,1.6E1,2E0,9E0,7E0,5E0,2E0,3E0,2E0,1E0,2E0,1E0,1E0],"tree_param":{"num_deleted":"0","num_feature":"2","num_nodes":"13","size_leaf_vector":"0"}},{"base_weights":[6.04947E1,3.2003487E1,2.0178003E2,8.64481E1,8.601446E0,1.2369885E2,4.6210693E1,-3.62907E-2,2.8045425E1,-4.6276382E1,9.246518E1,3.5287373E1,3.15979E0,1.1403665E2,2.4661118E1],"categories":[],"categories_nodes":[],"categories_segments":[],"categories_sizes":[],"default_left":[1,1,0,1,1,0,1,0,1,0,1,0,0,0,0],"id":8,"left_children":[1,3,-1,5,7,-1,9,-1,11,-1,13,-1,-1,-1,-1],"loss_changes":[7.002476E4,2.0916377E4,0E0,1.7781562E3,2.1843936E3,0E0,2.1390723E4,0E0,6.0938135E2,0E0,1.5756309E3,0E0,0E0,0E0,0E0],"parents":[2147483647,0,0,1,1,3,3,4,4,6,6,8,8,10,10],"right_children":[2,4,-1,6,8,-1,10,-1,12,-1,14,-1,-1,-1,-1],"split_conditions":[1.191245E2,6.9693924E1,6.053401E1,3.192715E1,3.8679752E1,3.7109657E1,3.873405E1,-1.0887211E-2,9.396E1,-1.38829155E1,4.525895E1,1.0586212E1,9.479371E-1,3.4211E1,7.3983355E0],"split_indices":[0,1,0,0,0,0,0,0,0,0,0,0,0,0,0],"split_type":[0,0,0,0,0,0,0,0,0,0,0,0,0,0,0],"sum_hessian":[1.8E1,1.6E1,2E0,4E0,1.2E1,1E0,3E0,9E0,3E0,1E0,2E0,2E0,1E0,1E0,1E0],"tree_param":{"num_deleted":"0","num_feature":"2","num_nodes":"15","size_leaf_vector":"0"}},{"base_weights":[4.9551197E1,1.07131E2,7.035398E0,3.9279083E1,1.3998633E2,-2.649221E-2,2.8229898E1,-3.933493E1,7.85954E1,3.6226425E1,6.1184235E0,9.693115E1,2.0961945E1],"categories":[],"categories_nodes":[],"categories_segments":[],"categories_sizes":[],"default_left":[1,1,1,1,0,0,1,0,1,0,0,0,0],"id":9,"left_children":[1,3,5,7,-1,-1,9,-1,11,-1,-1,-1,-1],"loss_changes":[4.5759266E4,1.2335836E4,1.7968267E3,1.5454796E4,0E0,0E0,3.087964E2,0E0,1.1383945E3,0E0,0E0,0E0,0E0],"parents":[2147483647,0,0,1,1,2,2,3,3,6,6,8,8],"right_children":[2,4,6,8,-1,-1,10,-1,12,-1,-1,-1,-1],"split_conditions":[7.776607E1,6.3743706E1,3.8679752E1,3.873405E1,4.19959E1,-7.947664E-3,7.747145E1,-1.180048E1,4.525895E1,1.0867928E1,1.8355271E0,2.9079348E1,6.2885838E0],"split_indices":[1,1,0,0,0,0,0,0,0,0,0,0,0],"split_type":[0,0,0,0,0,0,0,0,0,0,0,0,0],"sum_hessian":[1.8E1,7E0,1.1E1,3E0,4E0,9E0,2E0,1E0,2E0,1E0,1E0,1E0,1E0],"tree_param":{"num_deleted":"0","num_feature":"2","num_nodes":"13","size_leaf_vector":"0"}},{"base_weights":[3.8804737E1,1.98241E1,1.3342676E2,6.0368225E1,2.705275E0,8.414612E1,3.3387222E1,5.982737E0,-1.8312134E1,-3.3434692E1,6.680609E1,-1.9339314E-2,2.3995413E1,8.239148E1,1.7817657E1,3.0792465E1,5.200653E0],"categories":[],"categories_nodes":[],"categories_segments":[],"categories_sizes":[],"default_left":[1,1,0,1,1,0,1,1,0,0,1,0,1,0,0,0,0],"id":10,"left_children":[1,3,-1,5,7,-1,9,11,-1,-1,13,-1,15,-1,-1,-1,-1],"loss_changes":[3.147867E4,1.163584E4,0E0,3.9835156E2,1.0050456E3,0E0,1.1166092E4,1.2978254E3,0E0,0E0,8.224883E2,0E0,2.2310608E2,0E0,0E0,0E0,0E0],"parents":[2147483647,0,0,1,1,3,3,4,4,6,6,7,7,10,10,12,12],"right_children":[2,4,-1,6,8,-1,10,12,-1,-1,14,-1,16,-1,-1,-1,-1],"split_conditions":[1.191245E2,6.9693924E1,4.002803E1,3.192715E1,9.396E1,2.5243837E1,3.873405E1,3.8679752E1,-5.4936404E0,-1.0030408E1,4.525895E1,-5.801794E-3,7.747145E1,2.4717445E1,5.3452973E0,9.23774E0,1.560196E0],"split_indices":[0,1,0,0,0,0,0,0,0,0,0,0,0,0,0,0,0],"split_type":[0,0,0,0,0,0,0,0,0,0,0,0,0,0,0,0,0],"sum_hessian":[1.8E1,1.6E1,2E0,4E0,1.2E1,1E0,3E0,1.1E1,1E0,1E0,2E0,9E0,2E0,1E0,1E0,1E0,1E0],"tree_param":{"num_deleted":"0","num_feature":"2","num_nodes":"17","size_leaf_vector":"0"}},{"base_weights":[3.1931868E1,1.6851845E1,1.0674137E2,5.131297E1,2.3012693E0,7.152417E1,2.8379128E1,5.08726E0,-1.5565308E1,-2.8419495E1,5.6785168E1,-1.41177E-2,2.0396097E1,7.0032745E1,1.5145004E1,2.61736E1,4.4205475E0],"categories":[],"categories_nodes":[],"categories_segments":[],"categories_sizes":[],"default_left":[1,1,0,1,1,0,1,1,0,0,1,0,1,0,0,0,0],"id":11,"left_children":[1,3,-1,5,7,-1,9,11,-1,-1,13,-1,15,-1,-1,-1,-1],"loss_changes":[1.963566E4,8.406211E3,0E0,2.8780957E2,7.262742E2,0E0,8.0675005E3,9.374419E2,0E0,0E0,5.9424805E2,0E0,1.611947E2,0E0,0E0,0E0,0E0],"parents":[2147483647,0,0,1,1,3,3,4,4,6,6,7,7,10,10,12,12],"right_children":[2,4,-1,6,8,-1,10,12,-1,-1,14,-1,16,-1,-1,-1,-1],"split_conditions":[1.191245E2,6.9693924E1,3.202241E1,3.192715E1,9.396E1,2.1457253E1,3.873405E1,3.8679752E1,-4.6695924E0,-8.525848E0,4.525895E1,-4.23531E-3,7.747145E1,2.1009825E1,4.5435014E0,7.85208E0,1.3261642E0],"split_indices":[0,1,0,0,0,0,0,0,0,0,0,0,0,0,0,0,0],"split_type":[0,0,0,0,0,0,0,0,0,0,0,0,0,0,0,0,0],"sum_hessian":[1.8E1,1.6E1,2E0,4E0,1.2E1,1E0,3E0,1.1E1,1E0,1E0,2E0,9E0,2E0,1E0,1E0,1E0,1E0],"tree_param":{"num_deleted":"0","num_feature":"2","num_nodes":"17","size_leaf_vector":"0"}},{"base_weights":[2.6300276E1,1.4325061E1,8.539307E1,4.361602E1,1.9573786E0,6.0795532E1,2.4122261E1,4.3255816E0,-1.323053E1,-2.415657E1,4.8267395E1,-1.0305921E-2,1.733668E1,5.9527832E1,1.28732605E1,2.2247559E1,3.7574615E0],"categories":[],"categories_nodes":[],"categories_segments":[],"categories_sizes":[],"default_left":[1,1,0,1,1,0,1,1,0,0,1,0,1,0,0,0,0],"id":12,"left_children":[1,3,-1,5,7,-1,9,11,-1,-1,13,-1,15,-1,-1,-1,-1],"loss_changes":[1.2222068E4,6.0730693E3,0E0,2.0794043E2,5.248144E2,0E0,5.8287695E3,6.7715454E2,0E0,0E0,4.2934326E2,0E0,1.1646338E2,0E0,0E0,0E0,0E0],"parents":[2147483647,0,0,1,1,3,3,4,4,6,6,7,7,10,10,12,12],"right_children":[2,4,-1,6,8,-1,10,12,-1,-1,14,-1,16,-1,-1,-1,-1],"split_conditions":[1.191245E2,6.9693924E1,2.5617922E1,3.192715E1,9.396E1,1.823866E1,3.873405E1,3.8679752E1,-3.9691591E0,-7.2469716E0,4.525895E1,-3.0917763E-3,7.747145E1,1.785835E1,3.8619783E0,6.674268E0,1.1272385E0],"split_indices":[0,1,0,0,0,0,0,0,0,0,0,0,0,0,0,0,0],"split_type":[0,0,0,0,0,0,0,0,0,0,0,0,0,0,0,0,0],"sum_hessian":[1.8E1,1.6E1,2E0,4E0,1.2E1,1E0,3E0,1.1E1,1E0,1E0,2E0,9E0,2E0,1E0,1E0,1E0,1E0],"tree_param":{"num_deleted":"0","num_feature":"2","num_nodes":"17","size_leaf_vector":"0"}},{"base_weights":[2.168173E1,5.3847103E1,6.347876E0,2.050393E1,8.035563E1,1.6647216E0,3.361444E1,-2.0533081E1,4.1027294E1,3.677777E0,-1.1245972E1,5.0598663E1,1.0942276E1,-7.5233215E-3,1.4736186E1,1.891043E1,3.1938477E0],"categories":[],"categories_nodes":[],"categories_segments":[],"categories_sizes":[],"default_left":[1,1,1,1,0,1,0,0,1,1,0,0,0,0,1,0,0],"id":13,"left_children":[1,3,5,7,-1,9,-1,-1,11,13,-1,-1,-1,-1,15,-1,-1],"loss_changes":[9.029348E3,3.655664E3,1.7317507E3,4.2112866E3,0E0,3.792294E2,0E0,0E0,3.101997E2,4.8915356E2,0E0,0E0,0E0,0E0,8.414459E1,0E0,0E0],"parents":[2147483647,0,0,1,1,2,2,3,3,5,5,8,8,9,9,14,14],"right_children":[2,4,6,8,-1,10,-1,-1,12,14,-1,-1,-1,-1,16,-1,-1],"split_conditions":[6.9693924E1,6.3743706E1,1.381429E2,3.873405E1,2.410669E1,9.396E1,1.0084332E1,-6.1599245E0,4.525895E1,3.8679752E1,-3.3737917E0,1.51796E1,3.282683E0,-2.2569965E-3,7.747145E1,5.6731296E0,9.581543E-1],"split_indices":[1,1,0,0,0,0,0,0,0,0,0,0,0,0,0,0,0],"split_type":[0,0,0,0,0,0,0,0,0,0,0,0,0,0,0,0,0],"sum_hessian":[1.8E1,5E0,1.3E1,3E0,2E0,1.2E1,1E0,1E0,2E0,1.1E1,1E0,1E0,1E0,9E0,2E0,1E0,1E0],"tree_param":{"num_deleted":"0","num_feature":"2","num_nodes":"17","size_leaf_vector":"0"}},{"base_weights":[1.7795555E1,4.376114E1,5.396337E0,1.742833E1,6.428451E1,1.4157066E0,2.8572266E1,-1.7453125E1,3.4873188E1,3.1268625E0,-9.559082E0,4.300885E1,9.300934E0,-5.4920246E-3,1.2525757E1,1.6073868E1,2.7147675E0],"categories":[],"categories_nodes":[],"categories_segments":[],"categories_sizes":[],"default_left":[1,1,1,1,0,1,0,0,1,1,0,0,0,0,1,0,0],"id":14,"left_children":[1,3,5,7,-1,9,-1,-1,11,13,-1,-1,-1,-1,15,-1,-1],"loss_changes":[5.880956E3,2.122255E3,1.2511174E3,3.0426543E3,0E0,2.740244E2,0E0,0E0,2.2411914E2,3.533568E2,0E0,0E0,0E0,0E0,6.0794647E1,0E0,0E0],"parents":[2147483647,0,0,1,1,2,2,3,3,5,5,8,8,9,9,14,14],"right_children":[2,4,6,8,-1,10,-1,-1,12,14,-1,-1,-1,-1,16,-1,-1],"split_conditions":[6.9693924E1,6.3743706E1,1.381429E2,3.873405E1,1.9285353E1,9.396E1,8.57168E0,-5.2359376E0,4.525895E1,3.8679752E1,-2.8677247E0,1.2902656E1,2.7902803E0,-1.6476074E-3,7.747145E1,4.8221607E0,8.144303E-1],"split_indices":[1,1,0,0,0,0,0,0,0,0,0,0,0,0,0,0,0],"split_type":[0,0,0,0,0,0,0,0,0,0,0,0,0,0,0,0,0],"sum_hessian":[1.8E1,5E0,1.3E1,3E0,2E0,1.2E1,1E0,1E0,2E0,1.1E1,1E0,1E0,1E0,9E0,2E0,1E0,1E0],"tree_param":{"num_deleted":"0","num_feature":"2","num_nodes":"17","size_leaf_vector":"0"}},{"base_weights":[1.4619053E1,3.558984E1,4.587355E0,1.4814079E1,5.142757E1,1.2038534E0,2.4286438E1,-1.4835159E1,2.9642212E1,2.658382E0,-8.125244E0,3.6557526E1,7.905792E0,-4.009178E-3,1.0646892E1,1.3662781E1,2.3075562E0],"categories":[],"categories_nodes":[],"categories_segments":[],"categories_sizes":[],"default_left":[1,1,1,1,0,1,0,0,1,1,0,0,0,0,1,0,0],"id":15,"left_children":[1,3,5,7,-1,9,-1,-1,11,13,-1,-1,-1,-1,15,-1,-1],"loss_changes":[3.8338164E3,1.2123931E3,9.0388904E2,2.1983184E3,0E0,1.9800269E2,0E0,0E0,1.6192627E2,2.552651E2,0E0,0E0,0E0,0E0,4.392392E1,0E0,0E0],"parents":[2147483647,0,0,1,1,2,2,3,3,5,5,8,8,9,9,14,14],"right_children":[2,4,6,8,-1,10,-1,-1,12,14,-1,-1,-1,-1,16,-1,-1],"split_conditions":[6.9693924E1,6.3743706E1,1.381429E2,3.873405E1,1.5428271E1,9.396E1,7.2859316E0,-4.450548E0,4.525895E1,3.8679752E1,-2.4375734E0,1.0967258E1,2.3717377E0,-1.2027534E-3,7.747145E1,4.0988345E0,6.922669E-1],"split_indices":[1,1,0,0,0,0,0,0,0,0,0,0,0,0,0,0,0],"split_type":[0,0,0,0,0,0,0,0,0,0,0,0,0,0,0,0,0],"sum_hessian":[1.8E1,5E0,1.3E1,3E0,2E0,1.2E1,1E0,1E0,2E0,1.1E1,1E0,1E0,1E0,9E0,2E0,1E0,1E0],"tree_param":{"num_deleted":"0","num_feature":"2","num_nodes":"17","size_leaf_vector":"0"}},{"base_weights":[1.2020452E1,6.365143E0,4.0060383E1,2.5195871E1,2.174654E0,3.1073883E1,6.719925E0,-1.2609879E1,4.1313977E0,2.2266052E1,1.0236511E0,2.2600274E0,-6.906433E0,-2.9266998E-3,9.049866E0],"categories":[],"categories_nodes":[],"categories_segments":[],"categories_sizes":[],"default_left":[1,1,0,1,1,0,0,0,1,0,1,1,0,0,0],"id":16,"left_children":[1,3,-1,5,7,-1,-1,-1,9,-1,11,13,-1,-1,-1],"loss_changes":[2.7579253E3,1.286677E3,0E0,1.1699121E2,4.8603952E2,0E0,0E0,0E0,7.662181E2,0E0,1.4306815E2,1.8440761E2,0E0,0E0,0E0],"parents":[2147483647,0,0,1,1,3,3,4,4,8,8,10,10,11,11],"right_children":[2,4,-1,6,8,-1,-1,-1,10,-1,12,14,-1,-1,-1],"split_conditions":[1.191245E2,6.155313E1,1.2018115E1,4.525895E1,6.440879E1,9.3221655E0,2.0159776E0,-3.7829638E0,6.9693924E1,6.679816E0,9.396E1,3.8679752E1,-2.07193E0,-8.7801E-4,2.7149599E0],"split_indices":[0,1,0,0,1,0,0,0,1,0,0,0,0,0,0],"split_type":[0,0,0,0,0,0,0,0,0,0,0,0,0,0,0],"sum_hessian":[1.8E1,1.6E1,2E0,2E0,1.4E1,1E0,1E0,1E0,1.3E1,1E0,1.2E1,1.1E1,1E0,9E0,2E0],"tree_param":{"num_deleted":"0","num_feature":"2","num_nodes":"15","size_leaf_vector":"0"}},{"base_weights":[9.82986E0,2.459018E1,2.8018754E0,5.4718323E0,3.2781395E1,7.659488E-1,1.463446E1,1.8926147E1,-1.0718399E1,5.7119293E0,3.9900574E1,1.8081918E0,-5.8704834E0,-2.136491E-3,7.2398887E0,1.025589E1,6.039429E-1],"categories":[],"categories_nodes":[],"categories_segments":[],"categories_sizes":[],"default_left":[1,1,1,1,1,1,0,0,0,0,0,1,0,0,1,0,0],"id":17,"left_children":[1,3,5,7,9,11,-1,-1,-1,-1,-1,13,-1,-1,15,-1,-1],"loss_changes":[1.9020719E3,7.602407E2,3.260546E2,8.563434E2,5.429404E2,1.0053303E2,0E0,0E0,0E0,0E0,0E0,1.1801331E2,0E0,0E0,5.38481E1,0E0,0E0],"parents":[2147483647,0,0,1,1,2,2,3,3,4,4,5,5,11,11,14,14],"right_children":[2,4,6,8,10,12,-1,-1,-1,-1,-1,14,-1,-1,16,-1,-1],"split_conditions":[6.9693924E1,3.873405E1,1.381429E2,3.192715E1,6.055126E1,9.396E1,4.3903384E0,5.6778445E0,-3.21552E0,1.7135788E0,1.1970173E1,3.8679752E1,-1.7611451E0,-6.409473E-4,7.747145E1,3.0767672E0,1.8118286E-1],"split_indices":[1,0,0,0,1,0,0,0,0,0,0,0,0,0,0,0,0],"split_type":[0,0,0,0,0,0,0,0,0,0,0,0,0,0,0,0,0],"sum_hessian":[1.8E1,5E0,1.3E1,2E0,3E0,1.2E1,1E0,1E0,1E0,1E0,2E0,1.1E1,1E0,9E0,2E0,1E0,1E0],"tree_param":{"num_deleted":"0","num_feature":"2","num_nodes":"17","size_leaf_vector":"0"}},{"base_weights":[8.0405035E0,1.9904129E1,2.3817704E0,4.651052E0,2.6367905E1,6.5124965E-1,1.243927E1,1.608722E1,-9.1106415E0,4.855133E0,3.192045E1,1.5371753E0,-4.989929E0,-1.5596383E-3,6.1539E0,8.717499E0,5.1335144E-1],"categories":[],"categories_nodes":[],"categories_segments":[],"categories_sizes":[],"default_left":[1,1,1,1,1,1,0,0,0,0,0,1,0,0,1,0,0],"id":18,"left_children":[1,3,5,7,9,11,-1,-1,-1,-1,-1,13,-1,-1,15,-1,-1],"loss_changes":[1.2281217E3,4.6891626E2,2.3556491E2,6.1870795E2,3.2282422E2,7.2640045E1,0E0,0E0,0E0,0E0,0E0,8.5256584E1,0E0,0E0,3.890516E1,0E0,0E0],"parents":[2147483647,0,0,1,1,2,2,3,3,4,4,5,5,11,11,14,14],"right_children":[2,4,6,8,10,12,-1,-1,-1,-1,-1,14,-1,-1,16,-1,-1],"split_conditions":[6.9693924E1,3.873405E1,1.381429E2,3.192715E1,6.055126E1,9.396E1,3.7317812E0,4.826166E0,-2.7331924E0,1.45654E0,9.576136E0,3.8679752E1,-1.4969788E0,-4.678915E-4,7.747145E1,2.6152496E0,1.5400544E-1],"split_indices":[1,0,0,0,1,0,0,0,0,0,0,0,0,0,0,0,0],"split_type":[0,0,0,0,0,0,0,0,0,0,0,0,0,0,0,0,0],"sum_hessian":[1.8E1,5E0,1.3E1,2E0,3E0,1.2E1,1E0,1E0,1E0,1E0,2E0,1.1E1,1E0,9E0,2E0,1E0,1E0],"tree_param":{"num_deleted":"0","num_feature":"2","num_nodes":"17","size_leaf_vector":"0"}},{"base_weights":[6.5825195E0,3.4465547E0,2.2158813E1,1.3177693E1,1.2705564E0,1.5639679E1,4.1268616E0,-7.744049E0,2.4676032E0,1.3674133E1,5.5370605E-1,1.3067575E0,-4.241455E0,-1.1385359E-3,5.230825E0],"categories":[],"categories_nodes":[],"categories_segments":[],"categories_sizes":[],"default_left":[1,1,0,1,1,0,0,0,1,0,1,1,0,0,0],"id":19,"left_children":[1,3,-1,5,7,-1,-1,-1,9,-1,11,13,-1,-1,-1],"loss_changes":[8.51716E2,3.43231E2,0E0,2.3062744E0,1.8097281E2,0E0,0E0,0E0,2.927026E2,0E0,5.2485584E1,6.1593224E1,0E0,0E0,0E0],"parents":[2147483647,0,0,1,1,3,3,4,4,8,8,10,10,11,11],"right_children":[2,4,-1,6,8,-1,-1,-1,10,-1,12,14,-1,-1,-1],"split_conditions":[1.191245E2,6.155313E1,6.6476445E0,4.525895E1,6.440879E1,4.691904E0,1.2380586E0,-2.3232148E0,6.9693924E1,4.10224E0,9.396E1,3.8679752E1,-1.2724366E0,-3.4156078E-4,1.5692476E0],"split_indices":[0,1,0,0,1,0,0,0,1,0,0,0,0,0,0],"split_type":[0,0,0,0,0,0,0,0,0,0,0,0,0,0,0],"sum_hessian":[1.8E1,1.6E1,2E0,2E0,1.4E1,1E0,1E0,1E0,1.3E1,1E0,1.2E1,1.1E1,1E0,9E0,2E0],"tree_param":{"num_deleted":"0","num_feature":"2","num_nodes":"15","size_leaf_vector":"0"}},{"base_weights":[5.37897E0,1.3727702E1,1.4167298E0,5.109558E0,2.064266E1,4.103996E-1,7.2495117E0,-6.582443E0,1.1201039E1,1.0454704E0,-3.6052246E0,1.3293732E1,3.5078278E0,-8.311312E-4,4.184652E0,6.625244E0,-3.482666E-1],"categories":[],"categories_nodes":[],"categories_segments":[],"categories_sizes":[],"default_left":[1,1,1,1,0,1,0,0,1,1,0,0,0,0,1,0,0],"id":20,"left_children":[1,3,5,7,-1,9,-1,-1,11,13,-1,-1,-1,-1,15,-1,-1],"loss_changes":[6.0906555E2,2.520896E2,7.920067E1,3.5861667E2,0E0,3.6921825E1,0E0,0E0,1.6664429E0,3.9417843E1,0E0,0E0,0E0,0E0,3.5496365E1,0E0,0E0],"parents":[2147483647,0,0,1,1,2,2,3,3,5,5,8,8,9,9,14,14],"right_children":[2,4,6,8,-1,10,-1,-1,12,14,-1,-1,-1,-1,16,-1,-1],"split_conditions":[6.9693924E1,6.3743706E1,1.381429E2,3.873405E1,6.192798E0,9.396E1,2.1748536E0,-1.974733E0,4.525895E1,3.8679752E1,-1.0815674E0,3.9881196E0,1.0523484E0,-2.4933935E-4,7.747145E1,1.9875733E0,-1.0447998E-1],"split_indices":[1,1,0,0,0,0,0,0,0,0,0,0,0,0,0,0,0],"split_type":[0,0,0,0,0,0,0,0,0,0,0,0,0,0,0,0,0],"sum_hessian":[1.8E1,5E0,1.3E1,3E0,2E0,1.2E1,1E0,1E0,2E0,1.1E1,1E0,1E0,1E0,9E0,2E0,1E0,1E0],"tree_param":{"num_deleted":"0","num_feature":"2","num_nodes":"17","size_leaf_vector":"0"}},{"base_weights":[4.4092183E0,1.1152501E1,1.204296E0,1.9543558E0,1.5262985E1,3.489173E-1,6.1621094E0,8.526611E0,-5.5950775E0,2.981659E0,1.8362875E1,8.8873595E-1,-3.0644531E0,-6.0672575E-4,3.556966E0,5.6314697E0,-2.960205E-1],"categories":[],"categories_nodes":[],"categories_segments":[],"categories_sizes":[],"default_left":[1,1,1,1,1,1,0,0,0,0,0,1,0,0,1,0,0],"id":21,"left_children":[1,3,5,7,9,11,-1,-1,-1,-1,-1,13,-1,-1,15,-1,-1],"loss_changes":[3.9719138E2,1.9702368E2,5.7221245E1,1.9655746E2,9.753119E1,2.6677301E1,0E0,0E0,0E0,0E0,0E0,2.847781E1,0E0,0E0,2.5646133E1,0E0,0E0],"parents":[2147483647,0,0,1,1,2,2,3,3,4,4,5,5,11,11,14,14],"right_children":[2,4,6,8,10,12,-1,-1,-1,-1,-1,14,-1,-1,16,-1,-1],"split_conditions":[6.9693924E1,3.873405E1,1.381429E2,3.192715E1,6.055126E1,9.396E1,1.8486329E0,2.5579834E0,-1.6785233E0,8.944977E-1,5.5088625E0,3.8679752E1,-9.1933596E-1,-1.8201773E-4,7.747145E1,1.689441E0,-8.880615E-2],"split_indices":[1,0,0,0,1,0,0,0,0,0,0,0,0,0,0,0,0],"split_type":[0,0,0,0,0,0,0,0,0,0,0,0,0,0,0,0,0],"sum_hessian":[1.8E1,5E0,1.3E1,2E0,3E0,1.2E1,1E0,1E0,1E0,1E0,2E0,1.1E1,1E0,9E0,2E0,1E0,1E0],"tree_param":{"num_deleted":"0","num_feature":"2","num_nodes":"17","size_leaf_vector":"0"}},{"base_weights":[3.6029003E0,1.8234807E0,1.2485311E1,7.386444E0,5.893226E-1,-4.7558136E0,1.310819E0,7.2476196E0,2.966329E-1,7.554852E-1,-2.6047974E0,-4.4290978E-4,3.0234172E0],"categories":[],"categories_nodes":[],"categories_segments":[],"categories_sizes":[],"default_left":[1,1,0,0,1,0,1,0,1,1,0,0,0],"id":22,"left_children":[1,3,-1,-1,5,-1,7,-1,9,11,-1,-1,-1],"loss_changes":[2.7753845E2,1.12361786E2,0E0,0E0,6.408146E1,0E0,8.214441E1,0E0,1.9275148E1,2.0574062E1,0E0,0E0,0E0],"parents":[2147483647,0,0,1,1,4,4,6,6,8,8,9,9],"right_children":[2,4,-1,-1,6,-1,8,-1,10,12,-1,-1,-1],"split_conditions":[1.191245E2,6.155313E1,3.7455933E0,2.2159333E0,6.440879E1,-1.4267441E0,6.9693924E1,2.174286E0,9.396E1,3.8679752E1,-7.8143924E-1,-1.3287294E-4,9.070252E-1],"split_indices":[0,1,0,0,1,0,1,0,0,0,0,0,0],"split_type":[0,0,0,0,0,0,0,0,0,0,0,0,0],"sum_hessian":[1.8E1,1.6E1,2E0,2E0,1.4E1,1E0,1.3E1,1E0,1.2E1,1.1E1,1E0,9E0,2E0],"tree_param":{"num_deleted":"0","num_feature":"2","num_nodes":"13","size_leaf_vector":"0"}},{"base_weights":[2.881743E0,7.5330453E0,6.824887E-1,2.4106522E0,1.1851888E1,-2.2140503E0,1.075611E0,-4.0424347E0,5.909159E0,-3.2332412E-4,3.496544E0,7.4372864E0,1.4264526E0],"categories":[],"categories_nodes":[],"categories_segments":[],"categories_sizes":[],"default_left":[1,1,1,1,0,0,1,0,1,0,0,0,0],"id":23,"left_children":[1,3,5,7,-1,-1,9,-1,11,-1,-1,-1,-1],"loss_changes":[1.8921732E2,1.04166046E2,1.832317E1,1.1419206E2,0E0,0E0,3.386307E1,0E0,9.941498E0,0E0,0E0,0E0,0E0],"parents":[2147483647,0,0,1,1,2,2,3,3,6,6,8,8],"right_children":[2,4,6,8,-1,-1,10,-1,12,-1,-1,-1,-1],"split_conditions":[6.9693924E1,6.3743706E1,7.338016E1,3.873405E1,3.5555665E0,-6.642151E-1,3.8679752E1,-1.2127304E0,4.525895E1,-9.699724E-5,1.0489632E0,2.231186E0,4.279358E-1],"split_indices":[1,1,1,0,0,0,0,0,0,0,0,0,0],"split_type":[0,0,0,0,0,0,0,0,0,0,0,0,0],"sum_hessian":[1.8E1,5E0,1.3E1,3E0,2E0,1E0,1.2E1,1E0,2E0,9E0,3E0,1E0,1E0],"tree_param":{"num_deleted":"0","num_feature":"2","num_nodes":"13","size_leaf_vector":"0"}},{"base_weights":[2.3007293E0,1.0796251E0,8.45341E0,5.0227866E0,2.1901786E-1,6.321686E0,1.2124939E0,-3.4360657E0,7.2552854E-1,4.3826904E0,1.07078336E-1,6.9228476E-1,-2.0743713E0,-2.360266E-4,3.8087463E0],"categories":[],"categories_nodes":[],"categories_segments":[],"categories_sizes":[],"default_left":[1,1,0,1,1,0,0,0,1,0,1,1,0,0,0],"id":24,"left_children":[1,3,-1,5,7,-1,-1,-1,9,-1,11,13,-1,-1,-1],"loss_changes":[1.336217E2,5.658965E1,0E0,7.182556E0,3.0263046E1,0E0,0E0,0E0,3.1195522E1,0E0,1.8031834E1,2.3741257E1,0E0,0E0,0E0],"parents":[2147483647,0,0,1,1,3,3,4,4,8,8,10,10,11,11],"right_children":[2,4,-1,6,8,-1,-1,-1,10,-1,12,14,-1,-1,-1],"split_conditions":[1.191245E2,6.155313E1,2.5360231E0,4.525895E1,6.440879E1,1.8965058E0,3.637482E-1,-1.0308198E0,6.9693924E1,1.3148072E0,7.747145E1,3.8679752E1,-6.223114E-1,-7.080798E-5,1.1426239E0],"split_indices":[0,1,0,0,1,0,0,0,1,0,0,0,0,0,0],"split_type":[0,0,0,0,0,0,0,0,0,0,0,0,0,0,0],"sum_hessian":[1.8E1,1.6E1,2E0,2E0,1.4E1,1E0,1E0,1E0,1.3E1,1E0,1.2E1,1E1,2E0,9E0,1E0],"tree_param":{"num_deleted":"0","num_feature":"2","num_nodes":"15","size_leaf_vector":"0"}},{"base_weights":[1.9052743E0,5.2600913E0,3.3140463E-1,5.3641766E-1,7.4878235E0,-1.5708008E0,5.9855896E-1,3.7252808E0,-2.9206543E0,1.0306091E0,9.296692E0,-1.7229939E-4,1.9457474E0,3.2374268E0,4.3604532E-1,-9.184418E-1,1.5725098E0],"categories":[],"categories_nodes":[],"categories_segments":[],"categories_sizes":[],"default_left":[1,1,1,1,1,0,1,0,0,0,0,0,1,0,1,0,0],"id":25,"left_children":[1,3,5,7,9,-1,11,-1,-1,-1,-1,-1,13,-1,15,-1,-1],"loss_changes":[9.857763E1,5.9121887E1,8.05477E0,4.395265E1,3.7139725E1,0E0,1.0486185E1,0E0,0E0,0E0,0E0,0E0,6.3885393E0,0E0,6.062238E0,0E0,0E0],"parents":[2147483647,0,0,1,1,2,2,3,3,4,4,6,6,12,12,14,14],"right_children":[2,4,6,8,10,-1,12,-1,-1,-1,-1,-1,14,-1,16,-1,-1],"split_conditions":[6.9693924E1,3.873405E1,7.338016E1,3.192715E1,6.055126E1,-4.7124025E-1,3.8679752E1,1.1175842E0,-8.761963E-1,3.0918276E-1,2.7890077E0,-5.1689818E-5,7.747145E1,9.7122806E-1,1.225441E2,-2.7553254E-1,4.7175294E-1],"split_indices":[1,0,1,0,1,0,0,0,0,0,0,0,0,0,0,0,0],"split_type":[0,0,0,0,0,0,0,0,0,0,0,0,0,0,0,0,0],"sum_hessian":[1.8E1,5E0,1.3E1,2E0,3E0,1E0,1.2E1,1E0,1E0,1E0,2E0,9E0,3E0,1E0,2E0,1E0,1E0],"tree_param":{"num_deleted":"0","num_feature":"2","num_nodes":"17","size_leaf_vector":"0"}},{"base_weights":[1.5460908E0,4.2386527E0,2.8170076E-1,1.1861954E0,6.8957114E0,-1.3352051E0,5.087862E-1,-2.4825592E0,3.2366333E0,-1.2577856E-4,1.6538696E0,3.9789429E0,8.760071E-1,2.7518005E0,3.7062582E-1,-7.8067017E-1,1.3366089E0],"categories":[],"categories_nodes":[],"categories_segments":[],"categories_sizes":[],"default_left":[1,1,1,1,0,0,1,0,1,0,1,0,0,0,1,0,0],"id":26,"left_children":[1,3,5,7,-1,-1,9,-1,11,-1,13,-1,-1,-1,15,-1,-1],"loss_changes":[6.3490486E1,4.0483696E1,5.819795E0,3.8125347E1,0E0,0E0,7.575915E0,0E0,1.7713642E0,0E0,4.6157637E0,0E0,0E0,0E0,4.3798485E0,0E0,0E0],"parents":[2147483647,0,0,1,1,2,2,3,3,6,6,8,8,10,10,14,14],"right_children":[2,4,6,8,-1,-1,10,-1,12,-1,14,-1,-1,-1,16,-1,-1],"split_conditions":[6.9693924E1,6.3743706E1,7.338016E1,3.873405E1,2.0687134E0,-4.0056154E-1,3.8679752E1,-7.447678E-1,4.525895E1,-3.773357E-5,7.747145E1,1.1936829E0,2.6280212E-1,8.255402E-1,1.225441E2,-2.3420106E-1,4.0098268E-1],"split_indices":[1,1,1,0,0,0,0,0,0,0,0,0,0,0,0,0,0],"split_type":[0,0,0,0,0,0,0,0,0,0,0,0,0,0,0,0,0],"sum_hessian":[1.8E1,5E0,1.3E1,3E0,2E0,1E0,1.2E1,1E0,2E0,9E0,3E0,1E0,1E0,1E0,2E0,1E0,1E0],"tree_param":{"num_deleted":"0","num_feature":"2","num_nodes":"17","size_leaf_vector":"0"}},{"base_weights":[1.2597398E0,5.5161405E-1,4.852539E0,2.7511394E0,7.493472E-2,6.1427E0,1.1361084E0,3.3821106E0,7.445984E-1,-2.1101685E0,3.8173983E-1,7.4511695E-1,-1.1990153E0,-9.181835E-5,2.980774E0],"categories":[],"categories_nodes":[],"categories_segments":[],"categories_sizes":[],"default_left":[1,1,1,1,1,0,0,0,0,0,1,1,0,0,0],"id":27,"left_children":[1,3,5,7,9,-1,-1,-1,-1,-1,11,13,-1,-1,-1],"loss_changes":[4.56622E1,1.7617805E1,7.4056015E0,1.2798939E0,1.0861547E1,0E0,0E0,0E0,0E0,0E0,8.93515E0,1.9992647E1,0E0,0E0,0E0],"parents":[2147483647,0,0,1,1,2,2,3,3,4,4,10,10,11,11],"right_children":[2,4,6,8,10,-1,-1,-1,-1,-1,12,14,-1,-1,-1],"split_conditions":[1.191245E2,6.155313E1,1.477086E2,4.525895E1,6.440879E1,1.8428102E0,3.4083253E-1,1.0146332E0,2.2337952E-1,-6.3305056E-1,7.747145E1,1.53368E1,-3.5970458E-1,-2.7545506E-5,8.942322E-1],"split_indices":[0,1,0,0,1,0,0,0,0,0,0,0,0,0,0],"split_type":[0,0,0,0,0,0,0,0,0,0,0,0,0,0,0],"sum_hessian":[1.8E1,1.6E1,2E0,2E0,1.4E1,1E0,1E0,1E0,1E0,1E0,1.3E1,1.1E1,2E0,9E0,2E0],"tree_param":{"num_deleted":"0","num_feature":"2","num_nodes":"15","size_leaf_vector":"0"}},{"base_weights":[1.0567194E0,4.5315558E-1,4.1246743E0,2.3384602E0,4.588427E-2,5.2213135E0,9.6569824E-1,2.8747864E0,6.3290405E-1,-1.7936401E0,3.0539602E-1,5.9609485E-1,-9.59198E-1,-6.7027395E-5,2.3846028E0],"categories":[],"categories_nodes":[],"categories_segments":[],"categories_sizes":[],"default_left":[1,1,1,1,1,0,0,0,0,0,1,1,0,0,0],"id":28,"left_children":[1,3,5,7,9,-1,-1,-1,-1,-1,11,13,-1,-1,-1],"loss_changes":[3.331331E1,1.294582E1,5.3505554E0,9.2473984E-1,7.7084436E0,0E0,0E0,0E0,0E0,0E0,5.718397E0,1.2795044E1,0E0,0E0,0E0],"parents":[2147483647,0,0,1,1,2,2,3,3,4,4,10,10,11,11],"right_children":[2,4,6,8,10,-1,-1,-1,-1,-1,12,14,-1,-1,-1],"split_conditions":[1.191245E2,6.155313E1,1.477086E2,4.525895E1,6.440879E1,1.5663941E0,2.8970948E-1,8.6243594E-1,1.8987122E-1,-5.380921E-1,7.747145E1,1.53368E1,-2.8775942E-1,-2.0108218E-5,7.1538085E-1],"split_indices":[0,1,0,0,1,0,0,0,0,0,0,0,0,0,0],"split_type":[0,0,0,0,0,0,0,0,0,0,0,0,0,0,0],"sum_hessian":[1.8E1,1.6E1,2E0,2E0,1.4E1,1E0,1E0,1E0,1E0,1E0,1.3E1,1.1E1,2E0,9E0,2E0],"tree_param":{"num_deleted":"0","num_feature":"2","num_nodes":"15","size_leaf_vector":"0"}},{"base_weights":[8.8696283E-1,3.726088E-1,3.5059814E0,1.9876913E0,2.4751723E-2,4.4381104E0,8.208618E-1,2.443573E0,5.3796387E-1,-1.5245972E0,2.443193E-1,4.7688285E-1,-7.673747E-1,-4.893E-5,1.9076945E0],"categories":[],"categories_nodes":[],"categories_segments":[],"categories_sizes":[],"default_left":[1,1,1,1,1,0,0,0,0,0,1,1,0,0,0],"id":29,"left_children":[1,3,5,7,9,-1,-1,-1,-1,-1,11,13,-1,-1,-1],"loss_changes":[2.4288591E1,9.501704E0,3.8655586E0,6.681595E-1,5.4752903E0,0E0,0E0,0E0,0E0,0E0,3.6599119E0,8.188889E0,0E0,0E0,0E0],"parents":[2147483647,0,0,1,1,2,2,3,3,4,4,10,10,11,11],"right_children":[2,4,6,8,10,-1,-1,-1,-1,-1,12,14,-1,-1,-1],"split_conditions":[1.191245E2,6.155313E1,1.477086E2,4.525895E1,6.440879E1,1.3314332E0,2.4625856E-1,7.330719E-1,1.6138917E-1,-4.5737916E-1,7.747145E1,1.53368E1,-2.3021242E-1,-1.4679001E-5,5.7230836E-1],"split_indices":[0,1,0,0,1,0,0,0,0,0,0,0,0,0,0],"split_type":[0,0,0,0,0,0,0,0,0,0,0,0,0,0,0],"sum_hessian":[1.8E1,1.6E1,2E0,2E0,1.4E1,1E0,1E0,1E0,1E0,1E0,1.3E1,1.1E1,2E0,9E0,2E0],"tree_param":{"num_deleted":"0","num_feature":"2","num_nodes":"15","size_leaf_vector":"0"}},{"base_weights":[7.449233E-1,3.066609E-1,2.9801025E0,1.6895345E0,9.642121E-3,3.7724E0,6.977539E-1,2.0770264E0,4.572754E-1,-1.2959137E0,1.9546138E-1,3.8151118E-1,-6.138916E-1,-3.57189E-5,1.5261637E0],"categories":[],"categories_nodes":[],"categories_segments":[],"categories_sizes":[],"default_left":[1,1,1,1,1,0,0,0,0,0,1,1,0,0,0],"id":30,"left_children":[1,3,5,7,9,-1,-1,-1,-1,-1,11,13,-1,-1,-1],"loss_changes":[1.7698425E1,6.9662795E0,2.7926884E0,4.8269844E-1,3.8922622E0,0E0,0E0,0E0,0E0,0E0,2.3423257E0,5.240918E0,0E0,0E0,0E0],"parents":[2147483647,0,0,1,1,2,2,3,3,4,4,10,10,11,11],"right_children":[2,4,6,8,10,-1,-1,-1,-1,-1,12,14,-1,-1,-1],"split_conditions":[1.191245E2,6.155313E1,1.477086E2,4.525895E1,6.440879E1,1.1317201E0,2.0932618E-1,6.231079E-1,1.3718262E-1,-3.8877413E-1,7.747145E1,1.53368E1,-1.8416749E-1,-1.071567E-5,4.5784912E-1],"split_indices":[0,1,0,0,1,0,0,0,0,0,0,0,0,0,0],"split_type":[0,0,0,0,0,0,0,0,0,0,0,0,0,0,0],"sum_hessian":[1.8E1,1.6E1,2E0,2E0,1.4E1,1E0,1E0,1E0,1E0,1E0,1.3E1,1.1E1,2E0,9E0,2E0],"tree_param":{"num_deleted":"0","num_feature":"2","num_nodes":"15","size_leaf_vector":"0"}},{"base_weights":[6.259837E-1,2.5261456E-1,2.533081E0,1.4360962E0,-9.22738E-4,3.206543E0,5.930786E-1,1.7654724E0,3.8867188E-1,-1.101532E0,1.5637307E-1,3.0521E-1,-4.9109903E-1,-2.6074795E-5,1.2209269E0,-1.3264465E-1,-6.040039E-1],"categories":[],"categories_nodes":[],"categories_segments":[],"categories_sizes":[],"default_left":[1,1,1,1,1,0,0,0,0,0,1,1,1,0,0,0,0],"id":31,"left_children":[1,3,5,7,9,-1,-1,-1,-1,-1,11,13,15,-1,-1,-1,-1],"loss_changes":[1.2889082E1,5.1022897E0,2.0178204E0,3.4880066E-1,2.769068E0,0E0,0E0,0E0,0E0,0E0,1.4990371E0,3.3541498E0,4.1295826E-2,0E0,0E0,0E0,0E0],"parents":[2147483647,0,0,1,1,2,2,3,3,4,4,10,10,11,11,12,12],"right_children":[2,4,6,8,10,-1,-1,-1,-1,-1,12,14,16,-1,-1,-1,-1],"split_conditions":[1.191245E2,6.155313E1,1.477086E2,4.525895E1,6.440879E1,9.6196294E-1,1.7792359E-1,5.2964175E-1,1.16601564E-1,-3.304596E-1,7.747145E1,1.53368E1,9.396E1,-7.822438E-6,3.6627808E-1,-3.97934E-2,-1.8120117E-1],"split_indices":[0,1,0,0,1,0,0,0,0,0,0,0,0,0,0,0,0],"split_type":[0,0,0,0,0,0,0,0,0,0,0,0,0,0,0,0,0],"sum_hessian":[1.8E1,1.6E1,2E0,2E0,1.4E1,1E0,1E0,1E0,1E0,1E0,1.3E1,1.1E1,2E0,9E0,2E0,1E0,1E0],"tree_param":{"num_deleted":"0","num_feature":"2","num_nodes":"17","size_leaf_vector":"0"}},{"base_weights":[5.224445E-1,2.0394675E-1,2.153117E0,1.2206827E0,-1.2996902E-2,2.725586E0,5.0408936E-1,1.5006409E0,3.303833E-1,-9.3629456E-1,1.19831115E-1,2.4416545E-1,-4.1744995E-1,-1.90346E-5,9.767253E-1,-1.1274719E-1,-5.1342773E-1],"categories":[],"categories_nodes":[],"categories_segments":[],"categories_sizes":[],"default_left":[1,1,1,1,1,0,0,0,0,0,1,1,1,0,0,0,0],"id":32,"left_children":[1,3,5,7,9,-1,-1,-1,-1,-1,11,13,15,-1,-1,-1,-1],"loss_changes":[9.428823E0,3.7656302E0,1.4581127E0,2.5195312E-1,1.9517941E0,0E0,0E0,0E0,0E0,0E0,1.0371616E0,2.1465755E0,2.9846609E-2,0E0,0E0,0E0,0E0],"parents":[2147483647,0,0,1,1,2,2,3,3,4,4,10,10,11,11,12,12],"right_children":[2,4,6,8,10,-1,-1,-1,-1,-1,12,14,16,-1,-1,-1,-1],"split_conditions":[1.191245E2,6.155313E1,1.477086E2,4.525895E1,6.440879E1,8.176758E-1,1.5122682E-1,4.5019227E-1,9.911499E-2,-2.8088838E-1,7.747145E1,1.53368E1,9.396E1,-5.7103803E-6,2.930176E-1,-3.382416E-2,-1.5402833E-1],"split_indices":[0,1,0,0,1,0,0,0,0,0,0,0,0,0,0,0,0],"split_type":[0,0,0,0,0,0,0,0,0,0,0,0,0,0,0,0,0],"sum_hessian":[1.8E1,1.6E1,2E0,2E0,1.4E1,1E0,1E0,1E0,1E0,1E0,1.3E1,1.1E1,2E0,9E0,2E0,1E0,1E0],"tree_param":{"num_deleted":"0","num_feature":"2","num_nodes":"17","size_leaf_vector":"0"}},{"base_weights":[4.3637156E-1,1.6474007E-1,1.8301595E0,1.0375773E0,-2.0810045E-2,2.3167725E0,4.284668E-1,1.2755432E0,2.8082275E-1,-7.9585266E-1,9.1396764E-2,1.9533652E-1,-3.5482788E-1,-1.3895257E-5,7.813924E-1,-9.5840454E-2,-4.3640137E-1],"categories":[],"categories_nodes":[],"categories_segments":[],"categories_sizes":[],"default_left":[1,1,1,1,1,0,0,0,0,0,1,1,1,0,0,0,0],"id":33,"left_children":[1,3,5,7,9,-1,-1,-1,-1,-1,11,13,15,-1,-1,-1,-1],"loss_changes":[6.891836E0,2.774828E0,1.053585E0,1.8204355E-1,1.3772143E0,0E0,0E0,0E0,0E0,0E0,7.186376E-1,1.3738459E0,2.155462E-2,0E0,0E0,0E0,0E0],"parents":[2147483647,0,0,1,1,2,2,3,3,4,4,10,10,11,11,12,12],"right_children":[2,4,6,8,10,-1,-1,-1,-1,-1,12,14,16,-1,-1,-1,-1],"split_conditions":[1.191245E2,6.155313E1,1.477086E2,4.525895E1,6.440879E1,6.9503176E-1,1.2854004E-1,3.8266298E-1,8.424683E-2,-2.387558E-1,7.747145E1,1.53368E1,9.396E1,-4.1685776E-6,2.3441772E-1,-2.8752137E-2,-1.3092041E-1],"split_indices":[0,1,0,0,1,0,0,0,0,0,0,0,0,0,0,0,0],"split_type":[0,0,0,0,0,0,0,0,0,0,0,0,0,0,0,0,0],"sum_hessian":[1.8E1,1.6E1,2E0,2E0,1.4E1,1E0,1E0,1E0,1E0,1E0,1.3E1,1.1E1,2E0,9E0,2E0,1E0,1E0],"tree_param":{"num_deleted":"0","num_feature":"2","num_nodes":"17","size_leaf_vector":"0"}},{"base_weights":[3.647504E-1,1.3314043E-1,1.5556234E0,8.819377E-1,-2.5495043E-2,1.9692383E0,3.6419678E-1,1.084198E0,2.387085E-1,-6.764679E-1,6.9322154E-2,1.5627207E-1,-3.0158487E-1,-1.0143537E-5,6.251221E-1,-8.1466675E-2,-3.7091064E-1],"categories":[],"categories_nodes":[],"categories_segments":[],"categories_sizes":[],"default_left":[1,1,1,1,1,0,0,0,0,0,1,1,1,0,0,0,0],"id":34,"left_children":[1,3,5,7,9,-1,-1,-1,-1,-1,11,13,15,-1,-1,-1,-1],"loss_changes":[5.0334263E0,2.0418434E0,7.6118517E-1,1.3149214E-1,9.7274554E-1,0E0,0E0,0E0,0E0,0E0,4.9863398E-1,8.792814E-1,1.5562713E-2,0E0,0E0,0E0,0E0],"parents":[2147483647,0,0,1,1,2,2,3,3,4,4,10,10,11,11,12,12],"right_children":[2,4,6,8,10,-1,-1,-1,-1,-1,12,14,16,-1,-1,-1,-1],"split_conditions":[1.191245E2,6.155313E1,1.477086E2,4.525895E1,6.440879E1,5.907715E-1,1.0925904E-1,3.2525942E-1,7.161255E-2,-2.0294037E-1,7.747145E1,1.53368E1,9.396E1,-3.0430613E-6,1.8753663E-1,-2.4440004E-2,-1.112732E-1],"split_indices":[0,1,0,0,1,0,0,0,0,0,0,0,0,0,0,0,0],"split_type":[0,0,0,0,0,0,0,0,0,0,0,0,0,0,0,0,0],"sum_hessian":[1.8E1,1.6E1,2E0,2E0,1.4E1,1E0,1E0,1E0,1E0,1E0,1.3E1,1.1E1,2E0,9E0,2E0,1E0,1E0],"tree_param":{"num_deleted":"0","num_feature":"2","num_nodes":"17","size_leaf_vector":"0"}},{"base_weights":[3.0510604E-1,1.0765986E-1,1.3222656E0,7.496541E-1,-2.7916314E-2,1.6738281E0,3.095703E-1,9.215698E-1,2.0291138E-1,-5.7499695E-1,5.2232087E-2,1.2501927E-1,-2.563273E-1,-7.404782E-6,5.0010175E-1,-6.9244385E-2,-3.1524658E-1],"categories":[],"categories_nodes":[],"categories_segments":[],"categories_sizes":[],"default_left":[1,1,1,1,1,0,0,0,0,0,1,1,1,0,0,0,0],"id":35,"left_children":[1,3,5,7,9,-1,-1,-1,-1,-1,11,13,15,-1,-1,-1,-1],"loss_changes":[3.6734962E0,1.5005927E0,5.499096E-1,9.4984055E-2,6.8774784E-1,0E0,0E0,0E0,0E0,0E0,3.4647417E-1,5.627474E-1,1.1239305E-2,0E0,0E0,0E0,0E0],"parents":[2147483647,0,0,1,1,2,2,3,3,4,4,10,10,11,11,12,12],"right_children":[2,4,6,8,10,-1,-1,-1,-1,-1,12,14,16,-1,-1,-1,-1],"split_conditions":[1.191245E2,6.155313E1,1.477086E2,4.525895E1,6.440879E1,5.0214845E-1,9.28711E-2,2.7647096E-1,6.0873415E-2,-1.7249909E-1,7.747145E1,1.53368E1,9.396E1,-2.2214347E-6,1.5003052E-1,-2.0773316E-2,-9.457398E-2],"split_indices":[0,1,0,0,1,0,0,0,0,0,0,0,0,0,0,0,0],"split_type":[0,0,0,0,0,0,0,0,0,0,0,0,0,0,0,0,0],"sum_hessian":[1.8E1,1.6E1,2E0,2E0,1.4E1,1E0,1E0,1E0,1E0,1E0,1.3E1,1.1E1,2E0,9E0,2E0,1E0,1E0],"tree_param":{"num_deleted":"0","num_feature":"2","num_nodes":"17","size_leaf_vector":"0"}},{"base_weights":[2.5539073E-1,8.710117E-2,1.1239014E0,6.3720703E-1,-2.872675E-2,1.4227295E0,2.6312256E-1,7.833252E-1,1.7248535E-1,-4.8875427E-1,3.904338E-2,1.00016855E-1,-2.1786499E-1,-5.405491E-6,4.0008545E-1,-5.885315E-2,-2.6794434E-1],"categories":[],"categories_nodes":[],"categories_segments":[],"categories_sizes":[],"default_left":[1,1,1,1,1,0,0,0,0,0,1,1,1,0,0,0,0],"id":36,"left_children":[1,3,5,7,9,-1,-1,-1,-1,-1,11,13,15,-1,-1,-1,-1],"loss_changes":[2.679171E0,1.1015043E0,3.9732242E-1,6.8600655E-2,4.867245E-1,0E0,0E0,0E0,0E0,0E0,2.4109454E-1,3.601646E-1,8.120254E-3,0E0,0E0,0E0,0E0],"parents":[2147483647,0,0,1,1,2,2,3,3,4,4,10,10,11,11,12,12],"right_children":[2,4,6,8,10,-1,-1,-1,-1,-1,12,14,16,-1,-1,-1,-1],"split_conditions":[1.191245E2,6.155313E1,1.477086E2,4.525895E1,6.440879E1,4.2681888E-1,7.893677E-2,2.3499757E-1,5.174561E-2,-1.466263E-1,7.747145E1,1.53368E1,9.396E1,-1.6216474E-6,1.2002564E-1,-1.7655946E-2,-8.03833E-2],"split_indices":[0,1,0,0,1,0,0,0,0,0,0,0,0,0,0,0,0],"split_type":[0,0,0,0,0,0,0,0,0,0,0,0,0,0,0,0,0],"sum_hessian":[1.8E1,1.6E1,2E0,2E0,1.4E1,1E0,1E0,1E0,1E0,1E0,1.3E1,1.1E1,2E0,9E0,2E0,1E0,1E0],"tree_param":{"num_deleted":"0","num_feature":"2","num_nodes":"17","size_leaf_vector":"0"}},{"base_weights":[2.1392293E-1,7.051124E-2,9.5528156E-1,5.41626E-1,-2.8412461E-2,1.2092896E0,2.2363281E-1,6.658325E-1,1.4660645E-1,-4.154358E-1,2.8906047E-2,8.0013804E-2,-1.8516032E-1,-3.9460083E-6,3.2006836E-1,-5.001831E-2,-2.2772217E-1],"categories":[],"categories_nodes":[],"categories_segments":[],"categories_sizes":[],"default_left":[1,1,1,1,1,0,0,0,0,0,1,1,1,0,0,0,0],"id":37,"left_children":[1,3,5,7,9,-1,-1,-1,-1,-1,11,13,15,-1,-1,-1,-1],"loss_changes":[1.9527127E0,8.07664E-1,2.8709698E-1,4.95767E-2,3.4476262E-1,0E0,0E0,0E0,0E0,0E0,1.6798171E-1,2.3050475E-1,5.8654025E-3,0E0,0E0,0E0,0E0],"parents":[2147483647,0,0,1,1,2,2,3,3,4,4,10,10,11,11,12,12],"right_children":[2,4,6,8,10,-1,-1,-1,-1,-1,12,14,16,-1,-1,-1,-1],"split_conditions":[1.191245E2,6.155313E1,1.477086E2,4.525895E1,6.440879E1,3.627869E-1,6.708985E-2,1.9974977E-1,4.3981936E-2,-1.2463074E-1,7.747145E1,1.53368E1,9.396E1,-1.1838025E-6,9.602051E-2,-1.5005494E-2,-6.831665E-2],"split_indices":[0,1,0,0,1,0,0,0,0,0,0,0,0,0,0,0,0],"split_type":[0,0,0,0,0,0,0,0,0,0,0,0,0,0,0,0,0],"sum_hessian":[1.8E1,1.6E1,2E0,2E0,1.4E1,1E0,1E0,1E0,1E0,1E0,1.3E1,1.1E1,2E0,9E0,2E0,1E0,1E0],"tree_param":{"num_deleted":"0","num_feature":"2","num_nodes":"17","size_leaf_vector":"0"}},{"base_weights":[1.793037E-1,5.710926E-2,8.11971E-1,4.6036783E-1,-2.734974E-2,1.0278931E0,1.9006348E-1,5.659485E-1,1.2460327E-1,-3.531189E-1,2.1142265E-2,6.400822E-2,-1.5736897E-1,-2.8805864E-6,2.5604248E-1,-4.2510986E-2,-1.9354248E-1],"categories":[],"categories_nodes":[],"categories_segments":[],"categories_sizes":[],"default_left":[1,1,1,1,1,0,0,0,0,0,1,1,1,0,0,0,0],"id":38,"left_children":[1,3,5,7,9,-1,-1,-1,-1,-1,11,13,15,-1,-1,-1,-1],"loss_changes":[1.422489E0,5.9159076E-1,2.074858E-1,3.583169E-2,2.4442372E-1,0E0,0E0,0E0,0E0,0E0,1.1720167E-1,1.4750864E-1,4.236765E-3,0E0,0E0,0E0,0E0],"parents":[2147483647,0,0,1,1,2,2,3,3,4,4,10,10,11,11,12,12],"right_children":[2,4,6,8,10,-1,-1,-1,-1,-1,12,14,16,-1,-1,-1,-1],"split_conditions":[1.191245E2,6.155313E1,1.477086E2,4.525895E1,6.440879E1,3.0836794E-1,5.7019044E-2,1.6978455E-1,3.7380982E-2,-1.0593567E-1,7.747145E1,1.53368E1,9.396E1,-8.6417595E-7,7.6812744E-2,-1.2753297E-2,-5.8062747E-2],"split_indices":[0,1,0,0,1,0,0,0,0,0,0,0,0,0,0,0,0],"split_type":[0,0,0,0,0,0,0,0,0,0,0,0,0,0,0,0,0],"sum_hessian":[1.8E1,1.6E1,2E0,2E0,1.4E1,1E0,1E0,1E0,1E0,1E0,1.3E1,1.1E1,2E0,9E0,2E0,1E0,1E0],"tree_param":{"num_deleted":"0","num_feature":"2","num_nodes":"17","size_leaf_vector":"0"}},{"base_weights":[1.5039113E-1,4.6286747E-2,6.9018555E-1,3.9131674E-1,-2.5805032E-2,8.7371826E-1,1.6156006E-1,4.8104858E-1,1.0592651E-1,-2.0720673E-1,3.681262E-2,5.0231934E-2,-3.0976358E-1,-2.102828E-6,1.4725749E-1,2.5701904E-1,-3.6132812E-2],"categories":[],"categories_nodes":[],"categories_segments":[],"categories_sizes":[],"default_left":[1,1,1,1,1,0,0,0,0,1,1,0,0,0,1,0,0],"id":39,"left_children":[1,3,5,7,9,-1,-1,-1,-1,11,13,-1,-1,-1,15,-1,-1],"loss_changes":[1.0357578E0,4.3295297E-1,1.4990234E-1,2.5869995E-2,1.7801203E-1,0E0,0E0,0E0,0E0,1.21168435E-1,4.879228E-2,0E0,0E0,0E0,6.9674425E-2,0E0,0E0],"parents":[2147483647,0,0,1,1,2,2,3,3,4,4,9,9,10,10,14,14],"right_children":[2,4,6,8,10,-1,-1,-1,-1,12,14,-1,-1,-1,16,-1,-1],"split_conditions":[1.191245E2,6.155313E1,1.477086E2,4.525895E1,7.686766E1,2.6211548E-1,4.846802E-2,1.4431459E-1,3.1777956E-2,3.192715E1,3.8679752E1,1.5069581E-2,-9.292908E-2,-6.308484E-7,7.747145E1,7.7105716E-2,-1.0839844E-2],"split_indices":[0,1,0,0,1,0,0,0,0,0,0,0,0,0,0,0,0],"split_type":[0,0,0,0,0,0,0,0,0,0,0,0,0,0,0,0,0],"sum_hessian":[1.8E1,1.6E1,2E0,2E0,1.4E1,1E0,1E0,1E0,1E0,3E0,1.1E1,1E0,2E0,9E0,2E0,1E0,1E0],"tree_param":{"num_deleted":"0","num_feature":"2","num_nodes":"17","size_leaf_vector":"0"}},{"base_weights":[1.3028194E-1,-3.5162617E-2,3.6216354E-1,7.7667153E-3,-2.5369263E-1,6.2080383E-1,8.2818605E-2,-1.5350645E-6,4.272461E-2,9.0026855E-2,7.677205E-1,-1.1804199E-1,1.6254425E-1,2.1847534E-1,7.107544E-2,-3.0715942E-2,1.373291E-1],"categories":[],"categories_nodes":[],"categories_segments":[],"categories_sizes":[],"default_left":[1,1,1,1,0,1,1,0,0,0,0,0,1,0,1,0,0],"id":40,"left_children":[1,3,5,7,-1,9,11,-1,-1,-1,-1,-1,13,-1,15,-1,-1],"loss_changes":[7.4164206E-1,1.14546515E-1,5.2658474E-1,2.987244E-3,0E0,2.4280465E-1,9.9255756E-2,0E0,0E0,0E0,0E0,0E0,4.9355626E-3,0E0,2.4450347E-2,0E0,0E0],"parents":[2147483647,0,0,1,1,2,2,3,3,5,5,6,6,12,12,14,14],"right_children":[2,4,6,8,-1,10,12,-1,-1,-1,-1,-1,14,-1,16,-1,-1],"split_conditions":[3.873405E1,3.192715E1,6.902884E1,1.53368E1,-7.610779E-2,6.055126E1,7.338016E1,-4.6051937E-7,1.2817384E-2,2.7008059E-2,2.3031616E-1,-3.54126E-2,7.747145E1,6.554261E-2,1.225441E2,-9.214783E-3,4.119873E-2],"split_indices":[0,0,1,0,0,1,1,0,0,0,0,0,0,0,0,0,0],"split_type":[0,0,0,0,0,0,0,0,0,0,0,0,0,0,0,0,0],"sum_hessian":[1.8E1,1.1E1,7E0,1E1,1E0,3E0,4E0,9E0,1E0,1E0,2E0,1E0,3E0,1E0,2E0,1E0,1E0],"tree_param":{"num_deleted":"0","num_feature":"2","num_nodes":"17","size_leaf_vector":"0"}},{"base_weights":[1.04673095E-1,2.9434443E-2,4.9613443E-1,2.4684651E-1,-1.6010268E-2,6.2750244E-1,1.1669922E-1,2.937622E-1,7.650757E-2,-2.156372E-1,1.3651456E-2,3.700163E-2,-8.429972E-2,6.6018756E-3,1.8569946E-1,-2.6107788E-2,-1.003418E-1,-1.1205971E-6,3.6315918E-2],"categories":[],"categories_nodes":[],"categories_segments":[],"categories_sizes":[],"default_left":[1,1,1,1,1,0,0,0,0,0,1,1,1,1,0,0,0,0,0],"id":41,"left_children":[1,3,5,7,9,-1,-1,-1,-1,-1,11,13,15,17,-1,-1,-1,-1,-1],"loss_changes":[5.45004E-1,1.7191598E-1,7.630789E-2,1.4996529E-3,9.176295E-2,0E0,0E0,0E0,0E0,0E0,3.5139706E-2,5.3018562E-2,1.808554E-4,2.1582595E-3,0E0,0E0,0E0,0E0,0E0],"parents":[2147483647,0,0,1,1,2,2,3,3,4,4,10,10,11,11,12,12,13,13],"right_children":[2,4,6,8,10,-1,-1,-1,-1,-1,12,14,16,18,-1,-1,-1,-1,-1],"split_conditions":[1.191245E2,6.155313E1,1.477086E2,4.525895E1,6.440879E1,1.8825074E-1,3.5009768E-2,8.812866E-2,2.2952272E-2,-6.469116E-2,7.747145E1,5.323875E1,9.396E1,1.53368E1,5.5709843E-2,-7.832337E-3,-3.010254E-2,-3.3617914E-7,1.0894775E-2],"split_indices":[0,1,0,0,1,0,0,0,0,0,0,0,0,0,0,0,0,0,0],"split_type":[0,0,0,0,0,0,0,0,0,0,0,0,0,0,0,0,0,0,0],"sum_hessian":[1.8E1,1.6E1,2E0,2E0,1.4E1,1E0,1E0,1E0,1E0,1E0,1.3E1,1.1E1,2E0,1E1,1E0,1E0,1E0,9E0,1E0],"tree_param":{"num_deleted":"0","num_feature":"2","num_nodes":"19","size_leaf_vector":"0"}},{"base_weights":[8.897598E-2,2.5023934E-2,4.2171225E-1,2.0981853E-1,-1.3603247E-2,5.3338623E-1,9.918213E-2,2.4969482E-1,6.503296E-2,-1.8328857E-1,1.1609174E-2,3.1452768E-2,-7.1634926E-2,5.6144907E-3,1.5783691E-1,-2.218628E-2,-8.526611E-2,-8.180358E-7,3.0883789E-2],"categories":[],"categories_nodes":[],"categories_segments":[],"categories_sizes":[],"default_left":[1,1,1,1,1,0,0,0,0,0,1,1,1,1,0,0,0,0,0],"id":42,"left_children":[1,3,5,7,9,-1,-1,-1,-1,-1,11,13,15,17,-1,-1,-1,-1,-1],"loss_changes":[3.937512E-1,1.2420181E-1,5.5152297E-2,1.0821521E-3,6.63005E-2,0E0,0E0,0E0,0E0,0E0,2.5379188E-2,3.830041E-2,1.3039354E-4,1.5608693E-3,0E0,0E0,0E0,0E0,0E0],"parents":[2147483647,0,0,1,1,2,2,3,3,4,4,10,10,11,11,12,12,13,13],"right_children":[2,4,6,8,10,-1,-1,-1,-1,-1,12,14,16,18,-1,-1,-1,-1,-1],"split_conditions":[1.191245E2,6.155313E1,1.477086E2,4.525895E1,6.440879E1,1.6001588E-1,2.975464E-2,7.490845E-2,1.950989E-2,-5.4986574E-2,7.747145E1,5.323875E1,9.396E1,1.53368E1,4.7351077E-2,-6.655884E-3,-2.5579834E-2,-2.4541075E-7,9.265137E-3],"split_indices":[0,1,0,0,1,0,0,0,0,0,0,0,0,0,0,0,0,0,0],"split_type":[0,0,0,0,0,0,0,0,0,0,0,0,0,0,0,0,0,0,0],"sum_hessian":[1.8E1,1.6E1,2E0,2E0,1.4E1,1E0,1E0,1E0,1E0,1E0,1.3E1,1.1E1,2E0,1E1,1E0,1E0,1E0,9E0,1E0],"tree_param":{"num_deleted":"0","num_feature":"2","num_nodes":"19","size_leaf_vector":"0"}},{"base_weights":[7.562867E-2,2.1272196E-2,3.5843912E-1,1.7834473E-1,-1.1560457E-2,4.5336914E-1,8.428955E-2,2.1224976E-1,5.5267334E-2,-1.5579224E-1,9.86983E-3,2.6732901E-2,-6.0872395E-2,4.7712964E-3,1.3415527E-1,-1.8859863E-2,-7.244873E-2,-5.971661E-7,2.6245117E-2],"categories":[],"categories_nodes":[],"categories_segments":[],"categories_sizes":[],"default_left":[1,1,1,1,1,0,0,0,0,0,1,1,1,1,0,0,0,0,0],"id":43,"left_children":[1,3,5,7,9,-1,-1,-1,-1,-1,11,13,15,17,-1,-1,-1,-1,-1],"loss_changes":[2.8445423E-1,8.973257E-2,3.9860785E-2,7.883534E-4,4.790157E-2,0E0,0E0,0E0,0E0,0E0,1.8328331E-2,2.7669918E-2,9.2680566E-5,1.1271944E-3,0E0,0E0,0E0,0E0,0E0],"parents":[2147483647,0,0,1,1,2,2,3,3,4,4,10,10,11,11,12,12,13,13],"right_children":[2,4,6,8,10,-1,-1,-1,-1,-1,12,14,16,18,-1,-1,-1,-1,-1],"split_conditions":[1.191245E2,6.155313E1,1.477086E2,4.525895E1,6.440879E1,1.3601075E-1,2.5286866E-2,6.367493E-2,1.6580202E-2,-4.673767E-2,7.747145E1,5.323875E1,9.396E1,1.53368E1,4.0246584E-2,-5.6579593E-3,-2.173462E-2,-1.7914984E-7,7.873535E-3],"split_indices":[0,1,0,0,1,0,0,0,0,0,0,0,0,0,0,0,0,0,0],"split_type":[0,0,0,0,0,0,0,0,0,0,0,0,0,0,0,0,0,0,0],"sum_hessian":[1.8E1,1.6E1,2E0,2E0,1.4E1,1E0,1E0,1E0,1E0,1E0,1.3E1,1.1E1,2E0,1E1,1E0,1E0,1E0,9E0,1E0],"tree_param":{"num_deleted":"0","num_feature":"2","num_nodes":"19","size_leaf_vector":"0"}},{"base_weights":[6.428906E-2,1.8084101E-2,3.046875E-1,1.5159099E-1,-9.822882E-3,3.8537598E-1,7.165527E-2,1.8041992E-1,4.6966553E-2,-1.3243103E-1,8.394202E-3,2.2730146E-2,-5.174764E-2,4.061216E-3,1.1404419E-1,-1.6036987E-2,-6.1584473E-2,-4.3593124E-7,2.2338867E-2],"categories":[],"categories_nodes":[],"categories_segments":[],"categories_sizes":[],"default_left":[1,1,1,1,1,0,0,0,0,0,1,1,1,1,0,0,0,0,0],"id":44,"left_children":[1,3,5,7,9,-1,-1,-1,-1,-1,11,13,15,17,-1,-1,-1,-1,-1],"loss_changes":[2.0553443E-1,6.482722E-2,2.8794825E-2,5.749315E-4,3.4615096E-2,0E0,0E0,0E0,0E0,0E0,1.3246892E-2,1.9993668E-2,6.6209584E-5,8.1662176E-4,0E0,0E0,0E0,0E0,0E0],"parents":[2147483647,0,0,1,1,2,2,3,3,4,4,10,10,11,11,12,12,13,13],"right_children":[2,4,6,8,10,-1,-1,-1,-1,-1,12,14,16,18,-1,-1,-1,-1,-1],"split_conditions":[1.191245E2,6.155313E1,1.477086E2,4.525895E1,6.440879E1,1.156128E-1,2.1496583E-2,5.412598E-2,1.4089966E-2,-3.9729312E-2,7.747145E1,5.323875E1,9.396E1,1.53368E1,3.421326E-2,-4.8110965E-3,-1.8475343E-2,-1.3077938E-7,6.7016603E-3],"split_indices":[0,1,0,0,1,0,0,0,0,0,0,0,0,0,0,0,0,0,0],"split_type":[0,0,0,0,0,0,0,0,0,0,0,0,0,0,0,0,0,0,0],"sum_hessian":[1.8E1,1.6E1,2E0,2E0,1.4E1,1E0,1E0,1E0,1E0,1E0,1.3E1,1.1E1,2E0,1E1,1E0,1E0,1E0,9E0,1E0],"tree_param":{"num_deleted":"0","num_feature":"2","num_nodes":"19","size_leaf_vector":"0"}},{"base_weights":[5.464236E-2,1.5366311E-2,2.5899252E-1,1.2884521E-1,-8.353891E-3,3.2757568E-1,6.0913086E-2,1.5335083E-1,3.9916992E-2,-1.1256409E-1,7.129987E-3,1.9317362E-2,-4.3996174E-2,3.4509713E-3,9.692383E-2,-1.3626099E-2,-5.2368164E-2,-3.182298E-7,1.8981934E-2],"categories":[],"categories_nodes":[],"categories_segments":[],"categories_sizes":[],"default_left":[1,1,1,1,1,0,0,0,0,0,1,1,1,1,0,0,0,0,0],"id":45,"left_children":[1,3,5,7,9,-1,-1,-1,-1,-1,11,13,15,17,-1,-1,-1,-1,-1],"loss_changes":[1.4851551E-1,4.683598E-2,2.0801097E-2,4.1641667E-4,2.500625E-2,0E0,0E0,0E0,0E0,0E0,9.573202E-3,1.4441533E-2,4.9200375E-5,5.896264E-4,0E0,0E0,0E0,0E0,0E0],"parents":[2147483647,0,0,1,1,2,2,3,3,4,4,10,10,11,11,12,12,13,13],"right_children":[2,4,6,8,10,-1,-1,-1,-1,-1,12,14,16,18,-1,-1,-1,-1,-1],"split_conditions":[1.191245E2,6.155313E1,1.477086E2,4.525895E1,6.440879E1,9.827271E-2,1.8273927E-2,4.600525E-2,1.1975098E-2,-3.3769228E-2,7.747145E1,5.323875E1,9.396E1,1.53368E1,2.907715E-2,-4.08783E-3,-1.571045E-2,-9.546895E-8,5.6945803E-3],"split_indices":[0,1,0,0,1,0,0,0,0,0,0,0,0,0,0,0,0,0,0],"split_type":[0,0,0,0,0,0,0,0,0,0,0,0,0,0,0,0,0,0,0],"sum_hessian":[1.8E1,1.6E1,2E0,2E0,1.4E1,1E0,1E0,1E0,1E0,1E0,1.3E1,1.1E1,2E0,1E1,1E0,1E0,1E0,9E0,1E0],"tree_param":{"num_deleted":"0","num_feature":"2","num_nodes":"19","size_leaf_vector":"0"}},{"base_weights":[4.6446025E-2,1.3063182E-2,2.2013347E-1,1.0951742E-1,-7.0985435E-3,2.7844238E-1,5.1757812E-2,1.3034058E-1,3.3935547E-2,-9.567261E-2,6.061933E-3,1.6418263E-2,-3.7384033E-2,2.9294763E-3,8.239746E-2,-1.1581421E-2,-4.449463E-2,-2.3230777E-7,1.6113281E-2],"categories":[],"categories_nodes":[],"categories_segments":[],"categories_sizes":[],"default_left":[1,1,1,1,1,0,0,0,0,0,1,1,1,1,0,0,0,0,0],"id":46,"left_children":[1,3,5,7,9,-1,-1,-1,-1,-1,11,13,15,17,-1,-1,-1,-1,-1],"loss_changes":[1.07289776E-1,3.3837035E-2,1.5041843E-2,2.9838085E-4,1.8065115E-2,0E0,0E0,0E0,0E0,0E0,6.912952E-3,1.04383705E-2,3.5104807E-5,4.2487553E-4,0E0,0E0,0E0,0E0,0E0],"parents":[2147483647,0,0,1,1,2,2,3,3,4,4,10,10,11,11,12,12,13,13],"right_children":[2,4,6,8,10,-1,-1,-1,-1,-1,12,14,16,18,-1,-1,-1,-1,-1],"split_conditions":[1.191245E2,6.155313E1,1.477086E2,4.525895E1,6.440879E1,8.353272E-2,1.5527344E-2,3.9102174E-2,1.0180664E-2,-2.8701784E-2,7.747145E1,5.323875E1,9.396E1,1.53368E1,2.471924E-2,-3.4744265E-3,-1.3348389E-2,-6.9692334E-8,4.8339847E-3],"split_indices":[0,1,0,0,1,0,0,0,0,0,0,0,0,0,0,0,0,0,0],"split_type":[0,0,0,0,0,0,0,0,0,0,0,0,0,0,0,0,0,0,0],"sum_hessian":[1.8E1,1.6E1,2E0,2E0,1.4E1,1E0,1E0,1E0,1E0,1E0,1.3E1,1.1E1,2E0,1E1,1E0,1E0,1E0,9E0,1E0],"tree_param":{"num_deleted":"0","num_feature":"2","num_nodes":"19","size_leaf_vector":"0"}},{"base_weights":[3.947681E-2,1.1097528E-2,1.8713379E-1,9.307861E-2,-6.0385247E-3,2.3669434E-1,4.4006348E-2,1.1077881E-1,2.8839111E-2,-8.131409E-2,5.1464504E-3,1.39514785E-2,-3.1789143E-2,2.4856413E-3,7.003784E-2,-9.841919E-3,-3.7841797E-2,-1.6958467E-7,1.3671875E-2],"categories":[],"categories_nodes":[],"categories_segments":[],"categories_sizes":[],"default_left":[1,1,1,1,1,0,0,0,0,0,1,1,1,1,0,0,0,0,0],"id":47,"left_children":[1,3,5,7,9,-1,-1,-1,-1,-1,11,13,15,17,-1,-1,-1,-1,-1],"loss_changes":[7.7540845E-2,2.4444202E-2,1.0864377E-2,2.1639466E-4,1.3047808E-2,0E0,0E0,0E0,0E0,0E0,4.9965708E-3,7.542836E-3,2.608099E-5,3.058778E-4,0E0,0E0,0E0,0E0,0E0],"parents":[2147483647,0,0,1,1,2,2,3,3,4,4,10,10,11,11,12,12,13,13],"right_children":[2,4,6,8,10,-1,-1,-1,-1,-1,12,14,16,18,-1,-1,-1,-1,-1],"split_conditions":[1.191245E2,6.155313E1,1.477086E2,4.525895E1,6.440879E1,7.10083E-2,1.32019045E-2,3.3233643E-2,8.651733E-3,-2.4394227E-2,7.747145E1,5.323875E1,9.396E1,1.53368E1,2.1011353E-2,-2.952576E-3,-1.1352539E-2,-5.0875403E-8,4.101563E-3],"split_indices":[0,1,0,0,1,0,0,0,0,0,0,0,0,0,0,0,0,0,0],"split_type":[0,0,0,0,0,0,0,0,0,0,0,0,0,0,0,0,0,0,0],"sum_hessian":[1.8E1,1.6E1,2E0,2E0,1.4E1,1E0,1E0,1E0,1E0,1E0,1.3E1,1.1E1,2E0,1E1,1E0,1E0,1E0,9E0,1E0],"tree_param":{"num_deleted":"0","num_feature":"2","num_nodes":"19","size_leaf_vector":"0"}},{"base_weights":[3.355321E-2,9.431654E-3,1.5905762E-1,7.912191E-2,-5.135174E-3,2.0117188E-1,3.741455E-2,9.4177246E-2,2.4505615E-2,-6.9122314E-2,4.3726447E-3,1.1855976E-2,-2.7018229E-2,2.1083746E-3,5.9539795E-2,-8.361816E-3,-3.2165527E-2,-1.2379681E-7,1.159668E-2],"categories":[],"categories_nodes":[],"categories_segments":[],"categories_sizes":[],"default_left":[1,1,1,1,1,0,0,0,0,0,1,1,1,1,0,0,0,0,0],"id":48,"left_children":[1,3,5,7,9,-1,-1,-1,-1,-1,11,13,15,17,-1,-1,-1,-1,-1],"loss_changes":[5.601969E-2,1.7664125E-2,7.841967E-3,1.5892833E-4,9.427919E-3,0E0,0E0,0E0,0E0,0E0,3.6090438E-3,5.452102E-3,1.9128202E-5,2.2006828E-4,0E0,0E0,0E0,0E0,0E0],"parents":[2147483647,0,0,1,1,2,2,3,3,4,4,10,10,11,11,12,12,13,13],"right_children":[2,4,6,8,10,-1,-1,-1,-1,-1,12,14,16,18,-1,-1,-1,-1,-1],"split_conditions":[1.191245E2,6.155313E1,1.477086E2,4.525895E1,6.440879E1,6.0351565E-2,1.1224366E-2,2.8253175E-2,7.351685E-3,-2.0736694E-2,7.747145E1,5.323875E1,9.396E1,1.53368E1,1.786194E-2,-2.508545E-3,-9.649659E-3,-3.7139046E-8,3.4790041E-3],"split_indices":[0,1,0,0,1,0,0,0,0,0,0,0,0,0,0,0,0,0,0],"split_type":[0,0,0,0,0,0,0,0,0,0,0,0,0,0,0,0,0,0,0],"sum_hessian":[1.8E1,1.6E1,2E0,2E0,1.4E1,1E0,1E0,1E0,1E0,1E0,1.3E1,1.1E1,2E0,1E1,1E0,1E0,1E0,9E0,1E0],"tree_param":{"num_deleted":"0","num_feature":"2","num_nodes":"19","size_leaf_vector":"0"}},{"base_weights":[2.8517826E-2,8.011709E-3,1.3521321E-1,6.726074E-2,-4.372212E-3,1.7102051E-1,3.1799316E-2,8.004761E-2,2.0843506E-2,-5.8761597E-2,3.710001E-3,1.0070725E-2,-2.2969564E-2,1.7865833E-3,5.0598145E-2,-7.1105957E-3,-2.734375E-2,-9.0371664E-8,9.82666E-3],"categories":[],"categories_nodes":[],"categories_segments":[],"categories_sizes":[],"default_left":[1,1,1,1,1,0,0,0,0,0,1,1,1,1,0,0,0,0,0],"id":49,"left_children":[1,3,5,7,9,-1,-1,-1,-1,-1,11,13,15,17,-1,-1,-1,-1,-1],"loss_changes":[4.0486965E-2,1.2767579E-2,5.670581E-3,1.1212006E-4,6.8118046E-3,0E0,0E0,0E0,0E0,0E0,2.6071393E-3,3.938421E-3,1.3679848E-5,1.5801581E-4,0E0,0E0,0E0,0E0,0E0],"parents":[2147483647,0,0,1,1,2,2,3,3,4,4,10,10,11,11,12,12,13,13],"right_children":[2,4,6,8,10,-1,-1,-1,-1,-1,12,14,16,18,-1,-1,-1,-1,-1],"split_conditions":[1.191245E2,6.155313E1,1.477086E2,4.525895E1,6.440879E1,5.1306155E-2,9.539795E-3,2.4014283E-2,6.253052E-3,-1.762848E-2,7.747145E1,5.323875E1,9.396E1,1.53368E1,1.5179444E-2,-2.1331788E-3,-8.203126E-3,-2.71115E-8,2.9479982E-3],"split_indices":[0,1,0,0,1,0,0,0,0,0,0,0,0,0,0,0,0,0,0],"split_type":[0,0,0,0,0,0,0,0,0,0,0,0,0,0,0,0,0,0,0],"sum_hessian":[1.8E1,1.6E1,2E0,2E0,1.4E1,1E0,1E0,1E0,1E0,1E0,1.3E1,1.1E1,2E0,1E1,1E0,1E0,1E0,9E0,1E0],"tree_param":{"num_deleted":"0","num_feature":"2","num_nodes":"19","size_leaf_vector":"0"}},{"base_weights":[2.4245378E-2,6.812562E-3,1.1494955E-1,5.718994E-2,-3.7170849E-3,1.4538574E-1,2.7038574E-2,6.80542E-2,1.7730713E-2,-4.9942017E-2,3.1519828E-3,8.560126E-3,-1.953125E-2,1.5202702E-3,4.2999268E-2,-6.0424805E-3,-2.3254395E-2,-6.597132E-8,8.361816E-3],"categories":[],"categories_nodes":[],"categories_segments":[],"categories_sizes":[],"default_left":[1,1,1,1,1,0,0,0,0,0,1,1,1,1,0,0,0,0,0],"id":50,"left_children":[1,3,5,7,9,-1,-1,-1,-1,-1,11,13,15,17,-1,-1,-1,-1,-1],"loss_changes":[2.926025E-2,9.230332E-3,4.096005E-3,7.943623E-5,4.920249E-3,0E0,0E0,0E0,0E0,0E0,1.8846282E-3,2.8439886E-3,1.0147691E-5,1.1441651E-4,0E0,0E0,0E0,0E0,0E0],"parents":[2147483647,0,0,1,1,2,2,3,3,4,4,10,10,11,11,12,12,13,13],"right_children":[2,4,6,8,10,-1,-1,-1,-1,-1,12,14,16,18,-1,-1,-1,-1,-1],"split_conditions":[1.191245E2,6.155313E1,1.477086E2,4.525895E1,6.440879E1,4.3615725E-2,8.111573E-3,2.041626E-2,5.319214E-3,-1.4982605E-2,7.747145E1,5.323875E1,9.396E1,1.53368E1,1.2899781E-2,-1.8127442E-3,-6.9763185E-3,-1.9791397E-8,2.508545E-3],"split_indices":[0,1,0,0,1,0,0,0,0,0,0,0,0,0,0,0,0,0,0],"split_type":[0,0,0,0,0,0,0,0,0,0,0,0,0,0,0,0,0,0,0],"sum_hessian":[1.8E1,1.6E1,2E0,2E0,1.4E1,1E0,1E0,1E0,1E0,1E0,1.3E1,1.1E1,2E0,1E1,1E0,1E0,1E0,9E0,1E0],"tree_param":{"num_deleted":"0","num_feature":"2","num_nodes":"19","size_leaf_vector":"0"}},{"base_weights":[2.061219E-2,5.789336E-3,9.773763E-2,4.8624676E-2,-3.1636877E-3,1.2359619E-1,2.3010254E-2,5.7861328E-2,1.5075684E-2,-4.244995E-2,2.6746134E-3,7.273316E-3,-1.6611734E-2,1.2872431E-3,3.656006E-2,-5.142212E-3,-1.977539E-2,-4.815906E-8,7.080078E-3],"categories":[],"categories_nodes":[],"categories_segments":[],"categories_sizes":[],"default_left":[1,1,1,1,1,0,0,0,0,0,1,1,1,1,0,0,0,0,0],"id":51,"left_children":[1,3,5,7,9,-1,-1,-1,-1,-1,11,13,15,17,-1,-1,-1,-1,-1],"loss_changes":[2.1155328E-2,6.673432E-3,2.953047E-3,5.7341997E-5,3.5540126E-3,0E0,0E0,0E0,0E0,0E0,1.3625129E-3,2.0566892E-3,7.167633E-6,8.202807E-5,0E0,0E0,0E0,0E0,0E0],"parents":[2147483647,0,0,1,1,2,2,3,3,4,4,10,10,11,11,12,12,13,13],"right_children":[2,4,6,8,10,-1,-1,-1,-1,-1,12,14,16,18,-1,-1,-1,-1,-1],"split_conditions":[1.191245E2,6.155313E1,1.477086E2,4.525895E1,6.440879E1,3.7078857E-2,6.9030765E-3,1.73584E-2,4.5227055E-3,-1.2734986E-2,7.747145E1,5.323875E1,9.396E1,1.53368E1,1.0968018E-2,-1.5426637E-3,-5.9326175E-3,-1.4447719E-8,2.1240236E-3],"split_indices":[0,1,0,0,1,0,0,0,0,0,0,0,0,0,0,0,0,0,0],"split_type":[0,0,0,0,0,0,0,0,0,0,0,0,0,0,0,0,0,0,0],"sum_hessian":[1.8E1,1.6E1,2E0,2E0,1.4E1,1E0,1E0,1E0,1E0,1E0,1.3E1,1.1E1,2E0,1E1,1E0,1E0,1E0,9E0,1E0],"tree_param":{"num_deleted":"0","num_feature":"2","num_nodes":"19","size_leaf_vector":"0"}},{"base_weights":[1.752189E-2,4.9276706E-3,8.30485E-2,4.1341145E-2,-2.683536E-3,1.05041504E-1,1.953125E-2,4.9194336E-2,1.2817383E-2,-3.6087036E-2,2.280074E-3,6.1848667E-3,-1.4099121E-2,1.0986008E-3,3.1066895E-2,-4.3640137E-3,-1.6784668E-2,-3.5156116E-8,6.0424805E-3],"categories":[],"categories_nodes":[],"categories_segments":[],"categories_sizes":[],"default_left":[1,1,1,1,1,0,0,0,0,0,1,1,1,1,0,0,0,0,0],"id":52,"left_children":[1,3,5,7,9,-1,-1,-1,-1,-1,11,13,15,17,-1,-1,-1,-1,-1],"loss_changes":[1.5270639E-2,4.8224987E-3,2.1392126E-3,4.146481E-5,2.5693104E-3,0E0,0E0,0E0,0E0,0E0,9.826042E-4,1.4845491E-3,5.1837415E-6,5.9746977E-5,0E0,0E0,0E0,0E0,0E0],"parents":[2147483647,0,0,1,1,2,2,3,3,4,4,10,10,11,11,12,12,13,13],"right_children":[2,4,6,8,10,-1,-1,-1,-1,-1,12,14,16,18,-1,-1,-1,-1,-1],"split_conditions":[1.191245E2,6.155313E1,1.477086E2,4.525895E1,6.440879E1,3.1512454E-2,5.859375E-3,1.4758301E-2,3.845215E-3,-1.0826111E-2,7.747145E1,5.323875E1,9.396E1,1.53368E1,9.320069E-3,-1.3092041E-3,-5.0354004E-3,-1.0546835E-8,1.8127442E-3],"split_indices":[0,1,0,0,1,0,0,0,0,0,0,0,0,0,0,0,0,0,0],"split_type":[0,0,0,0,0,0,0,0,0,0,0,0,0,0,0,0,0,0,0],"sum_hessian":[1.8E1,1.6E1,2E0,2E0,1.4E1,1E0,1E0,1E0,1E0,1E0,1.3E1,1.1E1,2E0,1E1,1E0,1E0,1E0,9E0,1E0],"tree_param":{"num_deleted":"0","num_feature":"2","num_nodes":"19","size_leaf_vector":"0"}},{"base_weights":[1.4890959E-2,4.1844836E-3,7.059733E-2,3.5135906E-2,-2.2847664E-3,8.929443E-2,1.6601562E-2,4.1809082E-2,1.0894775E-2,-3.0670166E-2,1.9334882E-3,5.2540884E-3,-1.1993408E-2,9.3214994E-4,2.6397705E-2,-3.7078857E-3,-1.4282227E-2,-2.5663963E-8,5.126953E-3],"categories":[],"categories_nodes":[],"categories_segments":[],"categories_sizes":[],"default_left":[1,1,1,1,1,0,0,0,0,0,1,1,1,1,0,0,0,0,0],"id":53,"left_children":[1,3,5,7,9,-1,-1,-1,-1,-1,11,13,15,17,-1,-1,-1,-1,-1],"loss_changes":[1.1036545E-2,3.4842293E-3,1.5462665E-3,2.979557E-5,1.8553531E-3,0E0,0E0,0E0,0E0,0E0,7.104536E-4,1.0719702E-3,3.9353035E-6,4.301336E-5,0E0,0E0,0E0,0E0,0E0],"parents":[2147483647,0,0,1,1,2,2,3,3,4,4,10,10,11,11,12,12,13,13],"right_children":[2,4,6,8,10,-1,-1,-1,-1,-1,12,14,16,18,-1,-1,-1,-1,-1],"split_conditions":[1.191245E2,6.155313E1,1.477086E2,4.525895E1,6.440879E1,2.6788332E-2,4.980469E-3,1.2542726E-2,3.2684328E-3,-9.20105E-3,7.747145E1,5.323875E1,9.396E1,1.53368E1,7.9193115E-3,-1.1123657E-3,-4.2846682E-3,-7.69919E-9,1.538086E-3],"split_indices":[0,1,0,0,1,0,0,0,0,0,0,0,0,0,0,0,0,0,0],"split_type":[0,0,0,0,0,0,0,0,0,0,0,0,0,0,0,0,0,0,0],"sum_hessian":[1.8E1,1.6E1,2E0,2E0,1.4E1,1E0,1E0,1E0,1E0,1E0,1.3E1,1.1E1,2E0,1E1,1E0,1E0,1E0,9E0,1E0],"tree_param":{"num_deleted":"0","num_feature":"2","num_nodes":"19","size_leaf_vector":"0"}},{"base_weights":[1.265033E-2,3.5472086E-3,6.0017902E-2,2.9846191E-2,-1.9490685E-3,7.5927734E-2,1.4099121E-2,3.552246E-2,9.246826E-3,-2.607727E-2,1.6370367E-3,4.460637E-3,-1.0203044E-2,7.8789133E-4,2.243042E-2,-3.1585693E-3,-1.2145996E-2,-1.8734694E-8,4.333496E-3],"categories":[],"categories_nodes":[],"categories_segments":[],"categories_sizes":[],"default_left":[1,1,1,1,1,0,0,0,0,0,1,1,1,1,0,0,0,0,0],"id":54,"left_children":[1,3,5,7,9,-1,-1,-1,-1,-1,11,13,15,17,-1,-1,-1,-1,-1],"loss_changes":[7.9797665E-3,2.5154627E-3,1.1211662E-3,2.2312626E-5,1.3405835E-3,0E0,0E0,0E0,0E0,0E0,5.1355525E-4,7.743085E-4,2.6972557E-6,3.0729876E-5,0E0,0E0,0E0,0E0,0E0],"parents":[2147483647,0,0,1,1,2,2,3,3,4,4,10,10,11,11,12,12,13,13],"right_children":[2,4,6,8,10,-1,-1,-1,-1,-1,12,14,16,18,-1,-1,-1,-1,-1],"split_conditions":[1.191245E2,6.155313E1,1.477086E2,4.525895E1,6.440879E1,2.2778321E-2,4.2297365E-3,1.0656739E-2,2.774048E-3,-7.823181E-3,7.747145E1,5.323875E1,9.396E1,1.53368E1,6.7291264E-3,-9.4757084E-4,-3.6437989E-3,-5.6204086E-9,1.3000489E-3],"split_indices":[0,1,0,0,1,0,0,0,0,0,0,0,0,0,0,0,0,0,0],"split_type":[0,0,0,0,0,0,0,0,0,0,0,0,0,0,0,0,0,0,0],"sum_hessian":[1.8E1,1.6E1,2E0,2E0,1.4E1,1E0,1E0,1E0,1E0,1E0,1.3E1,1.1E1,2E0,1E1,1E0,1E0,1E0,9E0,1E0],"tree_param":{"num_deleted":"0","num_feature":"2","num_nodes":"19","size_leaf_vector":"0"}},{"base_weights":[1.0746999E-2,3.0140516E-3,5.09847E-2,2.537028E-2,-1.6581309E-3,6.451416E-2,1.1962891E-2,3.0181885E-2,7.873535E-3,-2.217102E-2,1.3907199E-3,3.7892545E-3,-8.666992E-3,6.658256E-4,1.9073486E-2,-2.6855469E-3,-1.0314941E-2,-1.3676326E-8,3.6621094E-3],"categories":[],"categories_nodes":[],"categories_segments":[],"categories_sizes":[],"default_left":[1,1,1,1,1,0,0,0,0,0,1,1,1,1,0,0,0,0,0],"id":55,"left_children":[1,3,5,7,9,-1,-1,-1,-1,-1,11,13,15,17,-1,-1,-1,-1,-1],"loss_changes":[5.758295E-3,1.8177577E-3,8.12056E-4,1.4924095E-5,9.6894475E-4,0E0,0E0,0E0,0E0,0E0,3.7057427E-4,5.601709E-4,1.8700957E-6,2.1945529E-5,0E0,0E0,0E0,0E0,0E0],"parents":[2147483647,0,0,1,1,2,2,3,3,4,4,10,10,11,11,12,12,13,13],"right_children":[2,4,6,8,10,-1,-1,-1,-1,-1,12,14,16,18,-1,-1,-1,-1,-1],"split_conditions":[1.191245E2,6.155313E1,1.477086E2,4.525895E1,6.440879E1,1.9354248E-2,3.5888674E-3,9.054566E-3,2.3620606E-3,-6.6513065E-3,7.747145E1,5.323875E1,9.396E1,1.53368E1,5.722046E-3,-8.056641E-4,-3.0944825E-3,-4.102898E-9,1.0986328E-3],"split_indices":[0,1,0,0,1,0,0,0,0,0,0,0,0,0,0,0,0,0,0],"split_type":[0,0,0,0,0,0,0,0,0,0,0,0,0,0,0,0,0,0,0],"sum_hessian":[1.8E1,1.6E1,2E0,2E0,1.4E1,1E0,1E0,1E0,1E0,1E0,1.3E1,1.1E1,2E0,1E1,1E0,1E0,1E0,9E0,1E0],"tree_param":{"num_deleted":"0","num_feature":"2","num_nodes":"19","size_leaf_vector":"0"}},{"base_weights":[9.1311755E-3,2.5580851E-3,4.333496E-2,2.1565756E-2,-1.4139878E-3,5.480957E-2,1.0192871E-2,2.5665283E-2,6.6833496E-3,-1.8844604E-2,1.1770994E-3,3.219596E-3,-7.385254E-3,5.6595326E-4,1.6204834E-2,-2.2888184E-3,-8.7890625E-3,-9.983718E-9,3.112793E-3],"categories":[],"categories_nodes":[],"categories_segments":[],"categories_sizes":[],"default_left":[1,1,1,1,1,0,0,0,0,0,1,1,1,1,0,0,0,0,0],"id":56,"left_children":[1,3,5,7,9,-1,-1,-1,-1,-1,11,13,15,17,-1,-1,-1,-1,-1],"loss_changes":[4.160812E-3,1.3139913E-3,5.822107E-4,1.1502416E-5,6.9964567E-4,0E0,0E0,0E0,0E0,0E0,2.6861764E-4,4.04327E-4,1.3466924E-6,1.5855625E-5,0E0,0E0,0E0,0E0,0E0],"parents":[2147483647,0,0,1,1,2,2,3,3,4,4,10,10,11,11,12,12,13,13],"right_children":[2,4,6,8,10,-1,-1,-1,-1,-1,12,14,16,18,-1,-1,-1,-1,-1],"split_conditions":[1.191245E2,6.155313E1,1.477086E2,4.525895E1,6.440879E1,1.6442873E-2,3.0578615E-3,7.699585E-3,2.005005E-3,-5.6533813E-3,7.747145E1,5.323875E1,9.396E1,1.53368E1,4.8614503E-3,-6.866455E-4,-2.6367188E-3,-2.9951155E-9,9.338379E-4],"split_indices":[0,1,0,0,1,0,0,0,0,0,0,0,0,0,0,0,0,0,0],"split_type":[0,0,0,0,0,0,0,0,0,0,0,0,0,0,0,0,0,0,0],"sum_hessian":[1.8E1,1.6E1,2E0,2E0,1.4E1,1E0,1E0,1E0,1E0,1E0,1.3E1,1.1E1,2E0,1E1,1E0,1E0,1E0,9E0,1E0],"tree_param":{"num_deleted":"0","num_feature":"2","num_nodes":"19","size_leaf_vector":"0"}},{"base_weights":[7.759492E-3,2.1739244E-3,3.6824543E-2,1.8330893E-2,-1.2023974E-3,4.6569824E-2,8.666992E-3,2.1820068E-2,5.6762695E-3,-1.6021729E-2,1.0005354E-3,2.7313172E-3,-6.2561035E-3,4.7717732E-4,1.3763428E-2,-7.288114E-9,2.6245117E-3],"categories":[],"categories_nodes":[],"categories_segments":[],"categories_sizes":[],"default_left":[1,1,1,1,1,0,0,0,0,0,1,1,0,1,0,0,0],"id":57,"left_children":[1,3,5,7,9,-1,-1,-1,-1,-1,11,13,-1,15,-1,-1,-1],"loss_changes":[3.0044978E-3,9.4941014E-4,4.1958923E-4,8.606003E-6,5.057202E-4,0E0,0E0,0E0,0E0,0E0,1.9292261E-4,2.9184745E-4,9.885989E-7,1.1271443E-5,0E0,0E0,0E0],"parents":[2147483647,0,0,1,1,2,2,3,3,4,4,10,10,11,11,13,13],"right_children":[2,4,6,8,10,-1,-1,-1,-1,-1,12,14,-1,16,-1,-1,-1],"split_conditions":[1.191245E2,6.155313E1,1.477086E2,4.525895E1,6.440879E1,1.3970948E-2,2.6000978E-3,6.546021E-3,1.702881E-3,-4.8065186E-3,7.747145E1,5.323875E1,-1.8768312E-3,1.53368E1,4.1290284E-3,-2.1864344E-9,7.8735355E-4],"split_indices":[0,1,0,0,1,0,0,0,0,0,0,0,0,0,0,0,0],"split_type":[0,0,0,0,0,0,0,0,0,0,0,0,0,0,0,0,0],"sum_hessian":[1.8E1,1.6E1,2E0,2E0,1.4E1,1E0,1E0,1E0,1E0,1E0,1.3E1,1.1E1,2E0,1E1,1E0,9E0,1E0],"tree_param":{"num_deleted":"0","num_feature":"2","num_nodes":"17","size_leaf_vector":"0"}},{"base_weights":[6.6496166E-3,1.9028577E-3,3.133138E-2,1.558431E-2,-9.6029E-4,3.9611816E-2,7.385254E-3,1.8554688E-2,4.8217773E-3,-1.3626099E-2,9.177034E-4,2.3244177E-3,-5.015055E-3,4.105953E-4,1.1688232E-2,-9.918213E-4,-6.5307617E-3,-5.3203233E-9,2.2583008E-3],"categories":[],"categories_nodes":[],"categories_segments":[],"categories_sizes":[],"default_left":[1,1,1,1,1,0,0,0,0,0,1,1,1,1,0,0,0,0,0],"id":58,"left_children":[1,3,5,7,9,-1,-1,-1,-1,-1,11,13,15,17,-1,-1,-1,-1,-1],"loss_changes":[2.1663902E-3,6.8088976E-4,3.0230987E-4,6.4398046E-6,3.692993E-4,0E0,0E0,0E0,0E0,0E0,1.2849685E-4,2.1024901E-4,1.1816774E-5,8.3453715E-6,0E0,0E0,0E0,0E0,0E0],"parents":[2147483647,0,0,1,1,2,2,3,3,4,4,10,10,11,11,12,12,13,13],"right_children":[2,4,6,8,10,-1,-1,-1,-1,-1,12,14,16,18,-1,-1,-1,-1,-1],"split_conditions":[1.191245E2,6.155313E1,1.477086E2,4.525895E1,6.440879E1,1.1883546E-2,2.2155764E-3,5.5664065E-3,1.4465332E-3,-4.08783E-3,7.747145E1,5.323875E1,9.396E1,1.53368E1,3.5064698E-3,-2.975464E-4,-1.9592287E-3,-1.596097E-9,6.7749026E-4],"split_indices":[0,1,0,0,1,0,0,0,0,0,0,0,0,0,0,0,0,0,0],"split_type":[0,0,0,0,0,0,0,0,0,0,0,0,0,0,0,0,0,0,0],"sum_hessian":[1.8E1,1.6E1,2E0,2E0,1.4E1,1E0,1E0,1E0,1E0,1E0,1.3E1,1.1E1,2E0,1E1,1E0,1E0,1E0,9E0,1E0],"tree_param":{"num_deleted":"0","num_feature":"2","num_nodes":"19","size_leaf_vector":"0"}},{"base_weights":[5.653781E-3,1.6156342E-3,2.6652018E-2,1.3244629E-2,-8.178737E-4,3.3691406E-2,6.286621E-3,1.5777588E-2,4.0893555E-3,-1.1581421E-2,7.7819545E-4,1.9734667E-3,-4.2622886E-3,3.440128E-4,9.9487305E-3,-8.392334E-4,-5.554199E-3,-3.883836E-9,1.8920898E-3],"categories":[],"categories_nodes":[],"categories_segments":[],"categories_sizes":[],"default_left":[1,1,1,1,1,0,0,0,0,0,1,1,1,1,0,0,0,0,0],"id":59,"left_children":[1,3,5,7,9,-1,-1,-1,-1,-1,11,13,15,17,-1,-1,-1,-1,-1],"loss_changes":[1.5680254E-3,4.919197E-4,2.1827477E-4,5.049631E-6,2.667031E-4,0E0,0E0,0E0,0E0,0E0,9.2757924E-5,1.5252142E-4,8.605577E-6,5.858215E-6,0E0,0E0,0E0,0E0,0E0],"parents":[2147483647,0,0,1,1,2,2,3,3,4,4,10,10,11,11,12,12,13,13],"right_children":[2,4,6,8,10,-1,-1,-1,-1,-1,12,14,16,18,-1,-1,-1,-1,-1],"split_conditions":[1.191245E2,6.155313E1,1.477086E2,4.525895E1,6.440879E1,1.0107422E-2,1.8859864E-3,4.7332766E-3,1.2268067E-3,-3.4744265E-3,7.747145E1,5.323875E1,9.396E1,1.53368E1,2.9846192E-3,-2.5177002E-4,-1.6662598E-3,-1.1651509E-9,5.6762696E-4],"split_indices":[0,1,0,0,1,0,0,0,0,0,0,0,0,0,0,0,0,0,0],"split_type":[0,0,0,0,0,0,0,0,0,0,0,0,0,0,0,0,0,0,0],"sum_hessian":[1.8E1,1.6E1,2E0,2E0,1.4E1,1E0,1E0,1E0,1E0,1E0,1.3E1,1.1E1,2E0,1E1,1E0,1E0,1E0,9E0,1E0],"tree_param":{"num_deleted":"0","num_feature":"2","num_nodes":"19","size_leaf_vector":"0"}},{"base_weights":[4.805714E-3,1.3714941E-3,2.2664389E-2,1.12508135E-2,-6.958027E-4,2.8625488E-2,5.3710938E-3,1.3397217E-2,3.479004E-3,-9.841919E-3,6.6048553E-4,1.6733782E-3,-3.6112468E-3,2.8852726E-4,8.453369E-3,-7.171631E-4,-4.699707E-3,-2.8352003E-9,1.5869141E-3],"categories":[],"categories_nodes":[],"categories_segments":[],"categories_sizes":[],"default_left":[1,1,1,1,1,0,0,0,0,0,1,1,1,1,0,0,0,0,0],"id":60,"left_children":[1,3,5,7,9,-1,-1,-1,-1,-1,11,13,15,17,-1,-1,-1,-1,-1],"loss_changes":[1.1341977E-3,3.5502765E-4,1.5551096E-4,3.4353288E-6,1.92572E-4,0E0,0E0,0E0,0E0,0E0,6.661827E-5,1.10232286E-4,6.07983E-6,4.120865E-6,0E0,0E0,0E0,0E0,0E0],"parents":[2147483647,0,0,1,1,2,2,3,3,4,4,10,10,11,11,12,12,13,13],"right_children":[2,4,6,8,10,-1,-1,-1,-1,-1,12,14,16,18,-1,-1,-1,-1,-1],"split_conditions":[1.191245E2,6.155313E1,1.477086E2,4.525895E1,6.440879E1,8.587647E-3,1.6113282E-3,4.0191654E-3,1.0437012E-3,-2.952576E-3,7.747145E1,5.323875E1,9.396E1,1.53368E1,2.536011E-3,-2.1514893E-4,-1.4099121E-3,-8.505601E-10,4.7607423E-4],"split_indices":[0,1,0,0,1,0,0,0,0,0,0,0,0,0,0,0,0,0,0],"split_type":[0,0,0,0,0,0,0,0,0,0,0,0,0,0,0,0,0,0,0],"sum_hessian":[1.8E1,1.6E1,2E0,2E0,1.4E1,1E0,1E0,1E0,1E0,1E0,1.3E1,1.1E1,2E0,1E1,1E0,1E0,1E0,9E0,1E0],"tree_param":{"num_deleted":"0","num_feature":"2","num_nodes":"19","size_leaf_vector":"0"}},{"base_weights":[4.0893545E-3,1.1668473E-3,1.928711E-2,9.562175E-3,-5.9000787E-4,2.4353027E-2,4.5776367E-3,1.1383057E-2,2.960205E-3,-8.361816E-3,5.6239386E-4,1.4190656E-3,-3.0517578E-3,2.4413875E-4,7.171631E-3,-6.1035156E-4,-3.967285E-3,-2.0696962E-9,1.3427734E-3],"categories":[],"categories_nodes":[],"categories_segments":[],"categories_sizes":[],"default_left":[1,1,1,1,1,0,0,0,0,0,1,1,1,1,0,0,0,0,0],"id":61,"left_children":[1,3,5,7,9,-1,-1,-1,-1,-1,11,13,15,17,-1,-1,-1,-1,-1],"loss_changes":[8.2139025E-4,2.563811E-4,1.1207163E-4,2.3680332E-6,1.3904633E-4,0E0,0E0,0E0,0E0,0E0,4.767663E-5,7.935525E-5,4.284084E-6,2.95044E-6,0E0,0E0,0E0,0E0,0E0],"parents":[2147483647,0,0,1,1,2,2,3,3,4,4,10,10,11,11,12,12,13,13],"right_children":[2,4,6,8,10,-1,-1,-1,-1,-1,12,14,16,18,-1,-1,-1,-1,-1],"split_conditions":[1.191245E2,6.155313E1,1.477086E2,4.525895E1,6.440879E1,7.3059085E-3,1.373291E-3,3.414917E-3,8.8806154E-4,-2.508545E-3,7.747145E1,5.323875E1,9.396E1,1.53368E1,2.1514893E-3,-1.8310547E-4,-1.1901855E-3,-6.209089E-10,4.0283205E-4],"split_indices":[0,1,0,0,1,0,0,0,0,0,0,0,0,0,0,0,0,0,0],"split_type":[0,0,0,0,0,0,0,0,0,0,0,0,0,0,0,0,0,0,0],"sum_hessian":[1.8E1,1.6E1,2E0,2E0,1.4E1,1E0,1E0,1E0,1E0,1E0,1.3E1,1.1E1,2E0,1E1,1E0,1E0,1E0,9E0,1E0],"tree_param":{"num_deleted":"0","num_feature":"2","num_nodes":"19","size_leaf_vector":"0"}},{"base_weights":[3.4790032E-3,9.945132E-4,1.6398111E-2,8.117676E-3,-4.9642025E-4,2.0690918E-2,3.90625E-3,9.674072E-3,2.5024414E-3,-7.1105957E-3,4.839205E-4,1.2105294E-3,-2.5838215E-3,2.1084734E-4,6.1035156E-3,-5.187988E-4,-3.3569336E-3,-1.5108782E-9,1.159668E-3],"categories":[],"categories_nodes":[],"categories_segments":[],"categories_sizes":[],"default_left":[1,1,1,1,1,0,0,0,0,0,1,1,1,1,0,0,0,0,0],"id":62,"left_children":[1,3,5,7,9,-1,-1,-1,-1,-1,11,13,15,17,-1,-1,-1,-1,-1],"loss_changes":[5.935424E-4,1.8457252E-4,8.005154E-5,2.0097941E-6,1.0070315E-4,0E0,0E0,0E0,0E0,0E0,3.4334473E-5,5.7410252E-5,3.0479077E-6,2.200637E-6,0E0,0E0,0E0,0E0,0E0],"parents":[2147483647,0,0,1,1,2,2,3,3,4,4,10,10,11,11,12,12,13,13],"right_children":[2,4,6,8,10,-1,-1,-1,-1,-1,12,14,16,18,-1,-1,-1,-1,-1],"split_conditions":[1.191245E2,6.155313E1,1.477086E2,4.525895E1,6.440879E1,6.2072757E-3,1.171875E-3,2.9022219E-3,7.5073243E-4,-2.1331788E-3,7.747145E1,5.323875E1,9.396E1,1.53368E1,1.8310548E-3,-1.5563966E-4,-1.0070801E-3,-4.5326348E-10,3.479004E-4],"split_indices":[0,1,0,0,1,0,0,0,0,0,0,0,0,0,0,0,0,0,0],"split_type":[0,0,0,0,0,0,0,0,0,0,0,0,0,0,0,0,0,0,0],"sum_hessian":[1.8E1,1.6E1,2E0,2E0,1.4E1,1E0,1E0,1E0,1E0,1E0,1.3E1,1.1E1,2E0,1E1,1E0,1E0,1E0,9E0,1E0],"tree_param":{"num_deleted":"0","num_feature":"2","num_nodes":"19","size_leaf_vector":"0"}},{"base_weights":[2.9505673E-3,8.419255E-4,1.3916016E-2,6.8969727E-3,-4.2521232E-4,1.7578125E-2,3.2958984E-3,8.2092285E-3,2.1362305E-3,-6.0424805E-3,4.0762685E-4,1.0274242E-3,-2.2074382E-3,1.7755582E-4,5.1879883E-3,-4.4250488E-4,-2.8686523E-3,-1.1029412E-9,9.765625E-4],"categories":[],"categories_nodes":[],"categories_segments":[],"categories_sizes":[],"default_left":[1,1,1,1,1,0,0,0,0,0,1,1,1,1,0,0,0,0,0],"id":63,"left_children":[1,3,5,7,9,-1,-1,-1,-1,-1,11,13,15,17,-1,-1,-1,-1,-1],"loss_changes":[4.2760564E-4,1.3336653E-4,5.8740377E-5,1.2051314E-6,7.263729E-5,0E0,0E0,0E0,0E0,0E0,2.495932E-5,4.1510026E-5,2.2316044E-6,1.5605619E-6,0E0,0E0,0E0,0E0,0E0],"parents":[2147483647,0,0,1,1,2,2,3,3,4,4,10,10,11,11,12,12,13,13],"right_children":[2,4,6,8,10,-1,-1,-1,-1,-1,12,14,16,18,-1,-1,-1,-1,-1],"split_conditions":[1.191245E2,6.155313E1,1.477086E2,4.525895E1,6.440879E1,5.2734376E-3,9.887696E-4,2.4627687E-3,6.4086914E-4,-1.8127442E-3,7.747145E1,5.323875E1,9.396E1,1.53368E1,1.5563966E-3,-1.3275148E-4,-8.605957E-4,-3.3088238E-10,2.9296876E-4],"split_indices":[0,1,0,0,1,0,0,0,0,0,0,0,0,0,0,0,0,0,0],"split_type":[0,0,0,0,0,0,0,0,0,0,0,0,0,0,0,0,0,0,0],"sum_hessian":[1.8E1,1.6E1,2E0,2E0,1.4E1,1E0,1E0,1E0,1E0,1E0,1.3E1,1.1E1,2E0,1E1,1E0,1E0,1E0,9E0,1E0],"tree_param":{"num_deleted":"0","num_feature":"2","num_nodes":"19","size_leaf_vector":"0"}},{"base_weights":[2.5088657E-3,7.144699E-4,1.184082E-2,5.859375E-3,-3.6214245E-4,1.4953613E-2,2.8076172E-3,6.9885254E-3,1.8005371E-3,-5.142212E-3,3.4659193E-4,8.748366E-4,-1.8819174E-3,1.5536149E-4,4.3945312E-3,-3.8146973E-4,-2.4414062E-3,-8.05147E-10,8.544922E-4],"categories":[],"categories_nodes":[],"categories_segments":[],"categories_sizes":[],"default_left":[1,1,1,1,1,0,0,0,0,0,1,1,1,1,0,0,0,0,0],"id":64,"left_children":[1,3,5,7,9,-1,-1,-1,-1,-1,11,13,15,17,-1,-1,-1,-1,-1],"loss_changes":[3.0969927E-4,9.6286094E-5,4.2371452E-5,1.1660159E-6,5.2599244E-5,0E0,0E0,0E0,0E0,0E0,1.8127144E-5,2.9705252E-5,1.5871292E-6,1.1948047E-6,0E0,0E0,0E0,0E0,0E0],"parents":[2147483647,0,0,1,1,2,2,3,3,4,4,10,10,11,11,12,12,13,13],"right_children":[2,4,6,8,10,-1,-1,-1,-1,-1,12,14,16,18,-1,-1,-1,-1,-1],"split_conditions":[1.191245E2,6.155313E1,1.477086E2,4.525895E1,6.440879E1,4.486084E-3,8.4228517E-4,2.0965578E-3,5.4016116E-4,-1.5426637E-3,7.747145E1,5.323875E1,9.396E1,1.53368E1,1.3183594E-3,-1.14440925E-4,-7.324219E-4,-2.4154412E-10,2.5634767E-4],"split_indices":[0,1,0,0,1,0,0,0,0,0,0,0,0,0,0,0,0,0,0],"split_type":[0,0,0,0,0,0,0,0,0,0,0,0,0,0,0,0,0,0,0],"sum_hessian":[1.8E1,1.6E1,2E0,2E0,1.4E1,1E0,1E0,1E0,1E0,1E0,1.3E1,1.1E1,2E0,1E1,1E0,1E0,1E0,9E0,1E0],"tree_param":{"num_deleted":"0","num_feature":"2","num_nodes":"19","size_leaf_vector":"0"}},{"base_weights":[2.1314116E-3,6.085561E-4,1.0050456E-2,4.9845376E-3,-3.072107E-4,1.26953125E-2,2.380371E-3,-4.3640137E-3,2.9427622E-4,7.425939E-4,-1.5970865E-3,1.3316708E-4,3.7231445E-3,-3.2043457E-4,-2.0751953E-3],"categories":[],"categories_nodes":[],"categories_segments":[],"categories_sizes":[],"default_left":[1,1,1,0,1,0,0,0,1,1,1,0,0,0,0],"id":65,"left_children":[1,3,5,-1,7,-1,-1,-1,9,11,13,-1,-1,-1,-1],"loss_changes":[2.230154E-4,6.9656744E-5,3.063926E-5,9.468422E-7,3.7885933E-5,0E0,0E0,0E0,1.3057026E-5,2.130133E-5,1.1661714E-6,8.778154E-7,0E0,0E0,0E0],"parents":[2147483647,0,0,1,1,2,2,4,4,8,8,9,9,10,10],"right_children":[2,4,6,-1,8,-1,-1,-1,10,12,14,-1,-1,-1,-1],"split_conditions":[1.191245E2,6.155313E1,1.477086E2,1.4953613E-3,6.440879E1,3.8085938E-3,7.141114E-4,-1.3092041E-3,7.747145E1,5.323875E1,9.396E1,3.9950126E-5,1.1169434E-3,-9.6130374E-5,-6.2255864E-4],"split_indices":[0,1,0,0,1,0,0,0,0,0,0,0,0,0,0],"split_type":[0,0,0,0,0,0,0,0,0,0,0,0,0,0,0],"sum_hessian":[1.8E1,1.6E1,2E0,2E0,1.4E1,1E0,1E0,1E0,1.3E1,1.1E1,2E0,1E1,1E0,1E0,1E0],"tree_param":{"num_deleted":"0","num_feature":"2","num_nodes":"15","size_leaf_vector":"0"}},{"base_weights":[1.7623388E-3,4.617454E-4,8.544922E-3,3.967285E-3,-2.701456E-4,1.0803223E-2,2.0141602E-3,5.1879883E-3,7.6293945E-4,-3.7078857E-3,2.4025625E-4,6.210786E-4,-1.3631185E-3,-3.59557E-5,2.6041667E-3],"categories":[],"categories_nodes":[],"categories_segments":[],"categories_sizes":[],"default_left":[1,1,1,1,1,0,0,0,0,0,1,1,0,0,0],"id":66,"left_children":[1,3,5,7,9,-1,-1,-1,-1,-1,11,13,-1,-1,-1],"loss_changes":[1.636607E-4,4.4688182E-5,2.2485852E-5,7.7765435E-6,2.7210275E-5,0E0,0E0,0E0,0E0,0E0,9.395016E-6,1.5729118E-5,8.4253634E-7,0E0,8.7420085E-7],"parents":[2147483647,0,0,1,1,2,2,3,3,4,4,10,10,11,11],"right_children":[2,4,6,8,10,-1,-1,-1,-1,-1,12,14,-1,-1,-1],"split_conditions":[1.191245E2,6.155313E1,1.477086E2,4.525895E1,6.440879E1,3.240967E-3,6.042481E-4,1.5563966E-3,2.2888185E-4,-1.1123657E-3,7.747145E1,1.53368E1,-4.0893556E-4,-1.0786711E-5,7.8125007E-4],"split_indices":[0,1,0,0,1,0,0,0,0,0,0,0,0,0,0],"split_type":[0,0,0,0,0,0,0,0,0,0,0,0,0,0,0],"sum_hessian":[1.8E1,1.6E1,2E0,2E0,1.4E1,1E0,1E0,1E0,1E0,1E0,1.3E1,1.1E1,2E0,9E0,2E0],"tree_param":{"num_deleted":"0","num_feature":"2","num_nodes":"15","size_leaf_vector":"0"}},{"base_weights":[1.483153E-3,3.7949358E-4,7.2428384E-3,3.3569336E-3,-2.4129401E-4,9.155273E-3,1.7089844E-3,4.3945312E-3,6.4086914E-4,-2.1896362E-3,4.2826124E-4,3.6621094E-4,-3.1636555E-3,-2.6247662E-5,1.8005371E-3,2.7770996E-3,-7.6293945E-5],"categories":[],"categories_nodes":[],"categories_segments":[],"categories_sizes":[],"default_left":[1,1,1,1,1,0,0,0,0,1,1,0,0,0,1,0,0],"id":67,"left_children":[1,3,5,7,9,-1,-1,-1,-1,11,13,-1,-1,-1,15,-1,-1],"loss_changes":[1.18029275E-4,3.223209E-5,1.6103193E-5,5.638227E-6,2.0505577E-5,0E0,0E0,0E0,0E0,1.11163445E-5,7.531799E-6,0E0,0E0,0E0,5.7104044E-6,0E0,0E0],"parents":[2147483647,0,0,1,1,2,2,3,3,4,4,9,9,10,10,14,14],"right_children":[2,4,6,8,10,-1,-1,-1,-1,12,14,-1,-1,-1,16,-1,-1],"split_conditions":[1.191245E2,6.155313E1,1.477086E2,4.525895E1,7.686766E1,2.746582E-3,5.1269535E-4,1.3183594E-3,1.9226075E-4,3.192715E1,3.8679752E1,1.09863286E-4,-9.490967E-4,-7.874299E-6,7.747145E1,8.331299E-4,-2.2888184E-5],"split_indices":[0,1,0,0,1,0,0,0,0,0,0,0,0,0,0,0,0],"split_type":[0,0,0,0,0,0,0,0,0,0,0,0,0,0,0,0,0],"sum_hessian":[1.8E1,1.6E1,2E0,2E0,1.4E1,1E0,1E0,1E0,1E0,3E0,1.1E1,1E0,2E0,9E0,2E0,1E0,1E0],"tree_param":{"num_deleted":"0","num_feature":"2","num_nodes":"17","size_leaf_vector":"0"}},{"base_weights":[1.2909279E-3,3.513496E-4,6.184896E-3,2.8483074E-3,-1.7146528E-4,7.8125E-3,1.4648438E-3,3.7231445E-3,5.493164E-4,-2.6855469E-3,1.9993677E-4,3.8433695E-4,-1.0986328E-3,3.8067603E-5,1.5258789E-3,2.3498535E-3,-6.1035156E-5],"categories":[],"categories_nodes":[],"categories_segments":[],"categories_sizes":[],"default_left":[1,1,1,1,1,0,0,0,0,0,1,1,0,0,1,0,0],"id":68,"left_children":[1,3,5,7,9,-1,-1,-1,-1,-1,11,13,-1,-1,15,-1,-1],"loss_changes":[8.5194E-5,2.2680977E-5,1.1603035E-5,3.9885435E-6,1.4542965E-5,0E0,0E0,0E0,0E0,0E0,3.7746356E-6,5.0805666E-6,0E0,1.7399532E-7,4.0661544E-6,0E0,0E0],"parents":[2147483647,0,0,1,1,2,2,3,3,4,4,10,10,11,11,14,14],"right_children":[2,4,6,8,10,-1,-1,-1,-1,-1,12,14,-1,-1,16,-1,-1],"split_conditions":[1.191245E2,6.155313E1,1.477086E2,4.525895E1,6.440879E1,2.34375E-3,4.3945314E-4,1.1169434E-3,1.6479492E-4,-8.056641E-4,9.396E1,5.323875E1,-3.2958985E-4,1.1420281E-5,7.747145E1,7.0495607E-4,-1.8310548E-5],"split_indices":[0,1,0,0,1,0,0,0,0,0,0,0,0,0,0,0,0],"split_type":[0,0,0,0,0,0,0,0,0,0,0,0,0,0,0,0,0],"sum_hessian":[1.8E1,1.6E1,2E0,2E0,1.4E1,1E0,1E0,1E0,1E0,1E0,1.3E1,1.2E1,1E0,1E1,2E0,1E0,1E0],"tree_param":{"num_deleted":"0","num_feature":"2","num_nodes":"17","size_leaf_vector":"0"}},{"base_weights":[1.0943819E-3,2.9683445E-4,5.2490234E-3,2.4210613E-3,-1.4779986E-4,6.652832E-3,1.2207031E-3,3.1738281E-3,4.5776367E-4,-2.2888184E-3,1.6861706E-4,3.2243796E-4,-9.1552734E-4,-2.9439048E-5,1.121521E-3,1.7293294E-4,1.9836426E-3],"categories":[],"categories_nodes":[],"categories_segments":[],"categories_sizes":[],"default_left":[1,1,1,1,1,0,0,0,0,0,1,1,0,0,1,0,0],"id":69,"left_children":[1,3,5,7,9,-1,-1,-1,-1,-1,11,13,-1,-1,15,-1,-1],"loss_changes":[6.139886E-5,1.6414404E-5,8.843839E-6,2.9808525E-6,1.0547751E-5,0E0,0E0,0E0,0E0,0E0,2.6298978E-6,3.6883428E-6,0E0,0E0,2.9281555E-6,0E0,0E0],"parents":[2147483647,0,0,1,1,2,2,3,3,4,4,10,10,11,11,14,14],"right_children":[2,4,6,8,10,-1,-1,-1,-1,-1,12,14,-1,-1,16,-1,-1],"split_conditions":[1.191245E2,6.155313E1,1.477086E2,4.525895E1,6.440879E1,1.9958497E-3,3.6621094E-4,9.5214846E-4,1.373291E-4,-6.866455E-4,9.396E1,1.53368E1,-2.746582E-4,-8.831715E-6,8.23175E1,5.1879884E-5,5.950928E-4],"split_indices":[0,1,0,0,1,0,0,0,0,0,0,0,0,0,1,0,0],"split_type":[0,0,0,0,0,0,0,0,0,0,0,0,0,0,0,0,0],"sum_hessian":[1.8E1,1.6E1,2E0,2E0,1.4E1,1E0,1E0,1E0,1E0,1E0,1.3E1,1.2E1,1E0,9E0,3E0,2E0,1E0],"tree_param":{"num_deleted":"0","num_feature":"2","num_nodes":"17","size_leaf_vector":"0"}},{"base_weights":[9.3312794E-4,2.5304098E-4,4.4759116E-3,2.0548503E-3,-1.2419028E-4,5.6762695E-3,1.0375977E-3,2.6855469E-3,3.9672852E-4,-1.9378662E-3,1.4377701E-4,2.7690709E-4,-7.9345703E-4,-2.1490505E-5,9.536743E-4,1.5258789E-4,1.6784668E-3],"categories":[],"categories_nodes":[],"categories_segments":[],"categories_sizes":[],"default_left":[1,1,1,1,1,0,0,0,0,0,1,1,0,0,1,0,0],"id":70,"left_children":[1,3,5,7,9,-1,-1,-1,-1,-1,11,13,-1,-1,15,-1,-1],"loss_changes":[4.4646033E-5,1.1810072E-5,6.4919404E-6,2.0718826E-6,7.568708E-6,0E0,0E0,0E0,0E0,0E0,1.9665506E-6,2.6457892E-6,0E0,0E0,2.066372E-6,0E0,0E0],"parents":[2147483647,0,0,1,1,2,2,3,3,4,4,10,10,11,11,14,14],"right_children":[2,4,6,8,10,-1,-1,-1,-1,-1,12,14,-1,-1,16,-1,-1],"split_conditions":[1.191245E2,6.155313E1,1.477086E2,4.525895E1,6.440879E1,1.702881E-3,3.1127932E-4,8.056641E-4,1.1901856E-4,-5.813599E-4,9.396E1,1.53368E1,-2.3803712E-4,-6.447152E-6,8.23175E1,4.5776367E-5,5.0354004E-4],"split_indices":[0,1,0,0,1,0,0,0,0,0,0,0,0,0,1,0,0],"split_type":[0,0,0,0,0,0,0,0,0,0,0,0,0,0,0,0,0],"sum_hessian":[1.8E1,1.6E1,2E0,2E0,1.4E1,1E0,1E0,1E0,1E0,1E0,1.3E1,1.2E1,1E0,9E0,3E0,2E0,1E0],"tree_param":{"num_deleted":"0","num_feature":"2","num_nodes":"17","size_leaf_vector":"0"}},{"base_weights":[7.9323107E-4,2.1875599E-4,3.7841797E-3,1.7496744E-3,-1.0201145E-4,4.8217773E-3,8.544922E-4,2.2888184E-3,3.3569336E-4,-1.6479492E-3,1.2612334E-4,2.768436E-4,-5.187988E-4,4.1224623E-5,1.4343262E-3],"categories":[],"categories_nodes":[],"categories_segments":[],"categories_sizes":[],"default_left":[1,1,1,1,1,0,0,0,0,0,1,1,0,0,0],"id":71,"left_children":[1,3,5,7,9,-1,-1,-1,-1,-1,11,13,-1,-1,-1],"loss_changes":[3.1818472E-5,8.526656E-6,4.9993396E-6,1.518677E-6,5.4980774E-6,0E0,0E0,0E0,0E0,0E0,1.5044659E-6,3.2135688E-6,1.1688098E-7,1.700315E-7,0E0],"parents":[2147483647,0,0,1,1,2,2,3,3,4,4,10,10,11,11],"right_children":[2,4,6,8,10,-1,-1,-1,-1,-1,12,14,-1,-1,-1],"split_conditions":[1.191245E2,6.155313E1,1.477086E2,4.525895E1,6.440879E1,1.4465332E-3,2.5634767E-4,6.866455E-4,1.0070801E-4,-4.943848E-4,7.747145E1,5.323875E1,-1.5563966E-4,1.2367387E-5,4.3029786E-4],"split_indices":[0,1,0,0,1,0,0,0,0,0,0,0,0,0,0],"split_type":[0,0,0,0,0,0,0,0,0,0,0,0,0,0,0],"sum_hessian":[1.8E1,1.6E1,2E0,2E0,1.4E1,1E0,1E0,1E0,1E0,1E0,1.3E1,1.1E1,2E0,1E1,1E0],"tree_param":{"num_deleted":"0","num_feature":"2","num_nodes":"15","size_leaf_vector":"0"}},{"base_weights":[6.733335E-4,1.8528127E-4,3.2145183E-3,1.4851888E-3,-8.705232E-5,4.0893555E-3,7.324219E-4,1.953125E-3,2.746582E-4,-1.4038086E-3,1.07273736E-4,2.0942581E-4,-6.1035156E-4,-2.6818718E-5,7.4768066E-4],"categories":[],"categories_nodes":[],"categories_segments":[],"categories_sizes":[],"default_left":[1,1,1,1,1,0,0,0,0,0,1,1,0,0,0],"id":72,"left_children":[1,3,5,7,9,-1,-1,-1,-1,-1,11,13,-1,-1,-1],"loss_changes":[2.2968798E-5,6.147434E-6,3.5191588E-6,1.1629113E-6,3.9887927E-6,0E0,0E0,0E0,0E0,0E0,1.15412E-6,1.6731288E-6,0E0,0E0,8.7016565E-7],"parents":[2147483647,0,0,1,1,2,2,3,3,4,4,10,10,11,11],"right_children":[2,4,6,8,10,-1,-1,-1,-1,-1,12,14,-1,-1,-1],"split_conditions":[1.191245E2,6.155313E1,1.477086E2,4.525895E1,6.440879E1,1.2268067E-3,2.1972657E-4,5.859375E-4,8.239746E-5,-4.2114258E-4,9.396E1,1.53368E1,-1.8310547E-4,-8.045616E-6,2.2430421E-4],"split_indices":[0,1,0,0,1,0,0,0,0,0,0,0,0,0,0],"split_type":[0,0,0,0,0,0,0,0,0,0,0,0,0,0,0],"sum_hessian":[1.8E1,1.6E1,2E0,2E0,1.4E1,1E0,1E0,1E0,1E0,1E0,1.3E1,1.2E1,1E0,9E0,3E0],"tree_param":{"num_deleted":"0","num_feature":"2","num_nodes":"15","size_leaf_vector":"0"}},{"base_weights":[5.5668043E-4,1.4107162E-4,2.726237E-3,1.2613932E-3,-9.239748E-5,3.479004E-3,6.1035156E-4,-1.1901855E-3,7.102921E-5,1.9730833E-4,-4.5776367E-4,1.5494028E-5,1.0986328E-3],"categories":[],"categories_nodes":[],"categories_segments":[],"categories_sizes":[],"default_left":[1,1,1,0,1,0,0,0,1,1,0,0,0],"id":73,"left_children":[1,3,5,-1,7,-1,-1,-1,9,11,-1,-1,-1],"loss_changes":[1.6747457E-5,4.5630777E-6,2.6548896E-6,7.7734376E-7,2.775656E-6,0E0,0E0,0E0,1.0251777E-6,1.9494619E-6,1.2572855E-8,6.824737E-8,0E0],"parents":[2147483647,0,0,1,1,2,2,4,4,8,8,9,9],"right_children":[2,4,6,-1,8,-1,-1,-1,10,12,-1,-1,-1],"split_conditions":[1.191245E2,6.155313E1,1.477086E2,3.78418E-4,6.440879E1,1.0437012E-3,1.8310547E-4,-3.570557E-4,7.747145E1,5.323875E1,-1.373291E-4,4.6482087E-6,3.2958985E-4],"split_indices":[0,1,0,0,1,0,0,0,0,0,0,0,0],"split_type":[0,0,0,0,0,0,0,0,0,0,0,0,0],"sum_hessian":[1.8E1,1.6E1,2E0,2E0,1.4E1,1E0,1E0,1E0,1.3E1,1.1E1,2E0,1E1,1E0],"tree_param":{"num_deleted":"0","num_feature":"2","num_nodes":"13","size_leaf_vector":"0"}},{"base_weights":[4.6131975E-4,1.1347868E-4,2.2786458E-3,1.0172526E-3,-7.484135E-5,2.9296875E-3,4.8828125E-4,1.4648438E-3,6.1035156E-5,-1.0070801E-3,6.368142E-5],"categories":[],"categories_nodes":[],"categories_segments":[],"categories_sizes":[],"default_left":[1,1,1,1,1,0,0,0,0,0,0],"id":74,"left_children":[1,3,5,7,9,-1,-1,-1,-1,-1,-1],"loss_changes":[1.1752094E-5,2.969511E-6,2.0662937E-6,1.1945765E-6,2.0011767E-6,0E0,0E0,0E0,0E0,0E0,7.084848E-7],"parents":[2147483647,0,0,1,1,2,2,3,3,4,4],"right_children":[2,4,6,8,10,-1,-1,-1,-1,-1,-1],"split_conditions":[1.191245E2,6.155313E1,1.477086E2,4.525895E1,6.440879E1,8.789063E-4,1.4648438E-4,4.3945314E-4,1.8310548E-5,-3.0212404E-4,1.9104427E-5],"split_indices":[0,1,0,0,1,0,0,0,0,0,0],"split_type":[0,0,0,0,0,0,0,0,0,0,0],"sum_hessian":[1.8E1,1.6E1,2E0,2E0,1.4E1,1E0,1E0,1E0,1E0,1E0,1.3E1],"tree_param":{"num_deleted":"0","num_feature":"2","num_nodes":"11","size_leaf_vector":"0"}},{"base_weights":[3.928413E-4,9.438881E-5,1.953125E-3,8.748372E-4,-6.799346E-5,2.5024414E-3,4.272461E-4,-8.544922E-4,4.9220176E-5],"categories":[],"categories_nodes":[],"categories_segments":[],"categories_sizes":[],"default_left":[1,1,1,0,1,0,0,0,0],"id":75,"left_children":[1,3,5,-1,7,-1,-1,-1,-1],"loss_changes":[8.663387E-6,2.21391E-6,1.4454126E-6,8.4253656E-7,1.4248839E-6,0E0,0E0,0E0,6.9918303E-7],"parents":[2147483647,0,0,1,1,2,2,4,4],"right_children":[2,4,6,-1,8,-1,-1,-1,-1],"split_conditions":[1.191245E2,6.155313E1,1.477086E2,2.6245118E-4,6.440879E1,7.5073243E-4,1.2817384E-4,-2.5634767E-4,1.4766053E-5],"split_indices":[0,1,0,0,1,0,0,0,0],"split_type":[0,0,0,0,0,0,0,0,0],"sum_hessian":[1.8E1,1.6E1,2E0,2E0,1.4E1,1E0,1E0,1E0,1.3E1],"tree_param":{"num_deleted":"0","num_feature":"2","num_nodes":"9","size_leaf_vector":"0"}},{"base_weights":[3.280241E-4,7.221028E-5,1.6682943E-3,-1.3675647E-4,4.7810873E-4,2.1362305E-3,3.6621094E-4,1.0070801E-3,-3.86556E-4,-6.1035156E-5,1.3834635E-3],"categories":[],"categories_nodes":[],"categories_segments":[],"categories_sizes":[],"default_left":[1,1,1,0,1,0,0,1,0,0,0],"id":76,"left_children":[1,3,5,-1,7,-1,-1,9,-1,-1,-1],"loss_changes":[6.393865E-6,1.5073122E-6,1.0455651E-6,8.5127914E-7,3.1335903E-6,0E0,0E0,1.6925237E-6,4.5324356E-8,0E0,0E0],"parents":[2147483647,0,0,1,1,2,2,4,4,7,7],"right_children":[2,4,6,-1,8,-1,-1,10,-1,-1,-1],"split_conditions":[1.191245E2,3.873405E1,1.477086E2,-4.1026942E-5,7.747145E1,6.4086914E-4,1.09863286E-4,6.055126E1,-1.159668E-4,-1.8310548E-5,4.1503907E-4],"split_indices":[0,0,0,0,0,0,0,1,0,0,0],"split_type":[0,0,0,0,0,0,0,0,0,0,0],"sum_hessian":[1.8E1,1.6E1,2E0,1.1E1,5E0,1E0,1E0,3E0,2E0,1E0,2E0],"tree_param":{"num_deleted":"0","num_feature":"2","num_nodes":"11","size_leaf_vector":"0"}},{"base_weights":[2.783918E-4,5.982254E-5,1.4241537E-3],"categories":[],"categories_nodes":[],"categories_segments":[],"categories_sizes":[],"default_left":[1,0,0],"id":77,"left_children":[1,-1,-1],"loss_changes":[4.6729415E-6,9.446285E-7,8.071461E-7],"parents":[2147483647,0,0],"right_children":[2,-1,-1],"split_conditions":[1.191245E2,1.7946762E-5,4.2724612E-4],"split_indices":[0,0,0],"split_type":[0,0,0],"sum_hessian":[1.8E1,1.6E1,2E0],"tree_param":{"num_deleted":"0","num_feature":"2","num_nodes":"3","size_leaf_vector":"0"}},{"base_weights":[2.1528029E-4,-1.1944634E-4,6.904602E-4,1.2207031E-3,1.2817382E-4,-6.1035156E-5,1.6682943E-3,7.324219E-4,-2.0599365E-4],"categories":[],"categories_nodes":[],"categories_segments":[],"categories_sizes":[],"default_left":[1,0,1,1,1,0,0,0,0],"id":78,"left_children":[1,-1,3,5,7,-1,-1,-1,-1],"loss_changes":[3.1045251E-6,9.017646E-7,2.228725E-6,2.3966031E-6,1.1604745E-6,0E0,0E0,0E0,1.9565536E-7],"parents":[2147483647,0,0,2,2,3,3,4,4],"right_children":[2,-1,4,6,8,-1,-1,-1,-1],"split_conditions":[3.873405E1,-3.5833902E-5,6.902884E1,6.055126E1,7.747145E1,-1.8310548E-5,5.004883E-4,2.1972657E-4,-6.17981E-5],"split_indices":[0,0,1,1,0,0,0,0,0],"split_type":[0,0,0,0,0,0,0,0,0],"sum_hessian":[1.8E1,1.1E1,7E0,3E0,4E0,1E0,2E0,1E0,3E0],"tree_param":{"num_deleted":"0","num_feature":"2","num_nodes":"9","size_leaf_vector":"0"}},{"base_weights":[1.8567478E-4,3.518432E-5,9.765625E-4],"categories":[],"categories_nodes":[],"categories_segments":[],"categories_sizes":[],"default_left":[1,0,0],"id":79,"left_children":[1,-1,-1],"loss_changes":[2.2270406E-6,5.457569E-7,7.748604E-7],"parents":[2147483647,0,0],"right_children":[2,-1,-1],"split_conditions":[1.191245E2,1.0555296E-5,2.9296876E-4],"split_indices":[0,0,0],"split_type":[0,0,0],"sum_hessian":[1.8E1,1.6E1,2E0],"tree_param":{"num_deleted":"0","num_feature":"2","num_nodes":"3","size_leaf_vector":"0"}},{"base_weights":[1.5497589E-4,-9.7944256E-5,5.1498413E-4,9.1552734E-4,9.1552734E-5,-6.1035156E-5,1.2613932E-3],"categories":[],"categories_nodes":[],"categories_segments":[],"categories_sizes":[],"default_left":[1,0,1,1,0,0,0],"id":80,"left_children":[1,-1,3,5,-1,-1,-1],"loss_changes":[1.7804532E-6,9.196269E-7,1.2730015E-6,1.4280281E-6,8.486677E-7,0E0,0E0],"parents":[2147483647,0,0,2,2,3,3],"right_children":[2,-1,4,6,-1,-1,-1],"split_conditions":[3.873405E1,-2.9383278E-5,6.902884E1,6.055126E1,2.7465821E-5,-1.8310548E-5,3.78418E-4],"split_indices":[0,0,1,1,0,0,0],"split_type":[0,0,0,0,0,0,0],"sum_hessian":[1.8E1,1.1E1,7E0,3E0,4E0,1E0,2E0],"tree_param":{"num_deleted":"0","num_feature":"2","num_nodes":"7","size_leaf_vector":"0"}},{"base_weights":[1.3034577E-4,-7.336366E-5,4.196167E-4],"categories":[],"categories_nodes":[],"categories_segments":[],"categories_sizes":[],"default_left":[1,0,0],"id":81,"left_children":[1,-1,-1],"loss_changes":[1.1504018E-6,9.456611E-7,7.736496E-7],"parents":[2147483647,0,0],"right_children":[2,-1,-1],"split_conditions":[3.873405E1,-2.2009099E-5,1.2588501E-4],"split_indices":[0,0,0],"split_type":[0,0,0],"sum_hessian":[1.8E1,1.1E1,7E0],"tree_param":{"num_deleted":"0","num_feature":"2","num_nodes":"3","size_leaf_vector":"0"}},{"base_weights":[9.7404045E-5],"categories":[],"categories_nodes":[],"categories_segments":[],"categories_sizes":[],"default_left":[0],"id":82,"left_children":[-1],"loss_changes":[9.373463E-7],"parents":[2147483647],"right_children":[-1],"split_conditions":[2.9221215E-5],"split_indices":[0],"split_type":[0],"sum_hessian":[1.8E1],"tree_param":{"num_deleted":"0","num_feature":"2","num_nodes":"1","size_leaf_vector":"0"}},{"base_weights":[8.0350044E-5,-1.790611E-5,6.1035156E-4],"categories":[],"categories_nodes":[],"categories_segments":[],"categories_sizes":[],"default_left":[1,0,0],"id":83,"left_children":[1,-1,-1],"loss_changes":[1.0003713E-6,4.4293657E-7,7.972121E-7],"parents":[2147483647,0,0],"right_children":[2,-1,-1],"split_conditions":[1.191245E2,-5.371833E-6,1.8310547E-4],"split_indices":[0,0,0],"split_type":[0,0,0],"sum_hessian":[1.8E1,1.6E1,2E0],"tree_param":{"num_deleted":"0","num_feature":"2","num_nodes":"3","size_leaf_vector":"0"}},{"base_weights":[6.362033E-5],"categories":[],"categories_nodes":[],"categories_segments":[],"categories_sizes":[],"default_left":[0],"id":84,"left_children":[-1],"loss_changes":[6.422091E-7],"parents":[2147483647],"right_children":[-1],"split_conditions":[1.9086101E-5],"split_indices":[0],"split_type":[0],"sum_hessian":[1.8E1],"tree_param":{"num_deleted":"0","num_feature":"2","num_nodes":"1","size_leaf_vector":"0"}},{"base_weights":[5.1367177E-5],"categories":[],"categories_nodes":[],"categories_segments":[],"categories_sizes":[],"default_left":[0],"id":85,"left_children":[-1],"loss_changes":[6.7918086E-7],"parents":[2147483647],"right_children":[-1],"split_conditions":[1.5410154E-5],"split_indices":[0],"split_type":[0],"sum_hessian":[1.8E1],"tree_param":{"num_deleted":"0","num_feature":"2","num_nodes":"1","size_leaf_vector":"0"}},{"base_weights":[4.085525E-5],"categories":[],"categories_nodes":[],"categories_segments":[],"categories_sizes":[],"default_left":[0],"id":86,"left_children":[-1],"loss_changes":[7.114337E-7],"parents":[2147483647],"right_children":[-1],"split_conditions":[1.2256576E-5],"split_indices":[0],"split_type":[0],"sum_hessian":[1.8E1],"tree_param":{"num_deleted":"0","num_feature":"2","num_nodes":"1","size_leaf_vector":"0"}},{"base_weights":[3.5049503E-5],"categories":[],"categories_nodes":[],"categories_segments":[],"categories_sizes":[],"default_left":[0],"id":87,"left_children":[-1],"loss_changes":[7.2945875E-7],"parents":[2147483647],"right_children":[-1],"split_conditions":[1.0514851E-5],"split_indices":[0],"split_type":[0],"sum_hessian":[1.8E1],"tree_param":{"num_deleted":"0","num_feature":"2","num_nodes":"1","size_leaf_vector":"0"}},{"base_weights":[3.0068786E-5],"categories":[],"categories_nodes":[],"categories_segments":[],"categories_sizes":[],"default_left":[0],"id":88,"left_children":[-1],"loss_changes":[7.450424E-7],"parents":[2147483647],"right_children":[-1],"split_conditions":[9.020636E-6],"split_indices":[0],"split_type":[0],"sum_hessian":[1.8E1],"tree_param":{"num_deleted":"0","num_feature":"2","num_nodes":"1","size_leaf_vector":"0"}},{"base_weights":[2.5795853E-5],"categories":[],"categories_nodes":[],"categories_segments":[],"categories_sizes":[],"default_left":[0],"id":89,"left_children":[-1],"loss_changes":[7.5849994E-7],"parents":[2147483647],"right_children":[-1],"split_conditions":[7.738756E-6],"split_indices":[0],"split_type":[0],"sum_hessian":[1.8E1],"tree_param":{"num_deleted":"0","num_feature":"2","num_nodes":"1","size_leaf_vector":"0"}},{"base_weights":[2.2130125E-5],"categories":[],"categories_nodes":[],"categories_segments":[],"categories_sizes":[],"default_left":[0],"id":90,"left_children":[-1],"loss_changes":[7.7011015E-7],"parents":[2147483647],"right_children":[-1],"split_conditions":[6.639038E-6],"split_indices":[0],"split_type":[0],"sum_hessian":[1.8E1],"tree_param":{"num_deleted":"0","num_feature":"2","num_nodes":"1","size_leaf_vector":"0"}},{"base_weights":[1.8985318E-5],"categories":[],"categories_nodes":[],"categories_segments":[],"categories_sizes":[],"default_left":[0],"id":91,"left_children":[-1],"loss_changes":[7.8011834E-7],"parents":[2147483647],"right_children":[-1],"split_conditions":[5.6955955E-6],"split_indices":[0],"split_type":[0],"sum_hessian":[1.8E1],"tree_param":{"num_deleted":"0","num_feature":"2","num_nodes":"1","size_leaf_vector":"0"}},{"base_weights":[1.6287404E-5],"categories":[],"categories_nodes":[],"categories_segments":[],"categories_sizes":[],"default_left":[0],"id":92,"left_children":[-1],"loss_changes":[7.8873956E-7],"parents":[2147483647],"right_children":[-1],"split_conditions":[4.886221E-6],"split_indices":[0],"split_type":[0],"sum_hessian":[1.8E1],"tree_param":{"num_deleted":"0","num_feature":"2","num_nodes":"1","size_leaf_vector":"0"}},{"base_weights":[1.3972877E-5],