{"learner":{"attributes":{"best_iteration":"99","best_ntree_limit":"100","scikit_learn":"{\"n_estimators\": 100, \"objective\": \"reg:squarederror\", \"max_depth\": null, \"max_leaves\": null, \"max_bin\": null, \"grow_policy\": null, \"learning_rate\": null, \"verbosity\": null, \"booster\": null, \"tree_method\": null, \"gamma\": null, \"min_child_weight\": null, \"max_delta_step\": null, \"subsample\": null, \"sampling_method\": null, \"colsample_bytree\": null, \"colsample_bylevel\": null, \"colsample_bynode\": null, \"reg_alpha\": null, \"reg_lambda\": null, \"scale_pos_weight\": null, \"base_score\": null, \"missing\": NaN, \"num_parallel_tree\": null, \"random_state\": null, \"n_jobs\": null, \"monotone_constraints\": null, \"interaction_constraints\": null, \"importance_type\": null, \"gpu_id\": null, \"validate_parameters\": null, \"predictor\": null, \"enable_categorical\": false, \"feature_types\": null, \"max_cat_to_onehot\": null, \"max_cat_threshold\": null, \"eval_metric\": null, \"early_stopping_rounds\": null, \"callbacks\": null, \"_estimator_type\": \"regressor\"}"},"feature_names":["GHI","SZA_30min_before"],"feature_types":["float","float"],"gradient_booster":{"model":{"gbtree_model_param":{"num_parallel_tree":"1","num_trees":"100","size_leaf_vector":"0"},"tree_info":[0,0,0,0,0,0,0,0,0,0,0,0,0,0,0,0,0,0,0,0,0,0,0,0,0,0,0,0,0,0,0,0,0,0,0,0,0,0,0,0,0,0,0,0,0,0,0,0,0,0,0,0,0,0,0,0,0,0,0,0,0,0,0,0,0,0,0,0,0,0,0,0,0,0,0,0,0,0,0,0,0,0,0,0,0,0,0,0,0,0,0,0,0,0,0,0,0,0,0,0],"trees":[{"base_weights":[3.4893436E2,9.776363E2,5.0126057E1,4.2395764E2,1.2250519E3,-4.6875E-1,3.0325635E2],"categories":[],"categories_nodes":[],"categories_segments":[],"categories_sizes":[],"default_left":[1,1,1,0,0,0,0],"id":0,"left_children":[1,3,5,-1,-1,-1,-1],"loss_changes":[4.647529E6,5.7654E5,2.3066956E5,0E0,0E0,0E0,0E0],"parents":[2147483647,0,0,1,1,2,2],"right_children":[2,4,6,-1,-1,-1,-1],"split_conditions":[7.776607E1,6.3743706E1,3.8679752E1,1.27187294E2,3.6751556E2,-1.40625E-1,9.0976906E1],"split_indices":[1,1,0,0,0,0,0],"split_type":[0,0,0,0,0,0,0],"sum_hessian":[2.4E1,7E0,1.7E1,3E0,4E0,1.5E1,2E0],"tree_param":{"num_deleted":"0","num_feature":"2","num_nodes":"7","size_leaf_vector":"0"}},{"base_weights":[2.6767563E2,-3.3691406E-1,6.697281E2,7.461832E2,2.4260507E2,3.2856717E2,9.310394E2,7.979523E1,3.8489273E2],"categories":[],"categories_nodes":[],"categories_segments":[],"categories_sizes":[],"default_left":[1,0,1,1,0,1,0,0,0],"id":1,"left_children":[1,-1,3,5,-1,7,-1,-1,-1],"loss_changes":[2.694103E6,0E0,1.4553E5,3.116825E5,0E0,2.5336281E4,0E0,0E0,0E0],"parents":[2147483647,0,0,2,2,3,3,5,5],"right_children":[2,-1,4,6,-1,8,-1,-1,-1],"split_conditions":[1.53368E1,-1.01074226E-1,7.776607E1,6.3743706E1,7.2781525E1,3.873405E1,2.7931183E2,2.3938568E1,1.1546783E2],"split_indices":[0,0,1,1,0,0,0,0,0],"split_type":[0,0,0,0,0,0,0,0,0],"sum_hessian":[2.4E1,1.5E1,9E0,7E0,2E0,3E0,4E0,1E0,2E0],"tree_param":{"num_deleted":"0","num_feature":"2","num_nodes":"9","size_leaf_vector":"0"}},{"base_weights":[2.0702888E2,-2.4215698E-1,5.1795966E2,5.746681E2,1.9408406E2,2.648486E2,7.0759E2,6.782594E1,3.0791418E2],"categories":[],"categories_nodes":[],"categories_segments":[],"categories_sizes":[],"default_left":[1,0,1,1,0,1,0,0,0],"id":2,"left_children":[1,-1,3,5,-1,7,-1,-1,-1],"loss_changes":[1.6112992E6,0E0,7.21305E4,1.420505E5,0E0,1.3055E4,0E0,0E0,0E0],"parents":[2147483647,0,0,2,2,3,3,5,5],"right_children":[2,-1,4,6,-1,8,-1,-1,-1],"split_conditions":[1.53368E1,-7.2647095E-2,7.776607E1,6.3743706E1,5.822522E1,3.873405E1,2.1227702E2,2.0347784E1,9.237426E1],"split_indices":[0,0,1,1,0,0,0,0,0],"split_type":[0,0,0,0,0,0,0,0,0],"sum_hessian":[2.4E1,1.5E1,9E0,7E0,2E0,3E0,4E0,1E0,2E0],"tree_param":{"num_deleted":"0","num_feature":"2","num_nodes":"9","size_leaf_vector":"0"}},{"base_weights":[1.6024628E2,-1.7405033E-1,4.0089417E2,2.8476984E2,5.769277E2],"categories":[],"categories_nodes":[],"categories_segments":[],"categories_sizes":[],"default_left":[1,0,1,0,0],"id":3,"left_children":[1,-1,3,-1,-1],"loss_changes":[9.651901E5,0E0,4.0126125E4,0E0,0E0],"parents":[2147483647,0,0,2,2],"right_children":[2,-1,4,-1,-1],"split_conditions":[1.53368E1,-5.2215103E-2,1.191245E2,8.5430954E1,1.7307831E2],"split_indices":[0,0,0,0,0],"split_type":[0,0,0,0,0],"sum_hessian":[2.4E1,1.5E1,9E0,7E0,2E0],"tree_param":{"num_deleted":"0","num_feature":"2","num_nodes":"5","size_leaf_vector":"0"}},{"base_weights":[1.2251067E2,3.4622858E2,1.6274345E1,1.4950131E2,4.343647E2,-1.2509868E-1,9.831326E1,1.4936569E1,1.8937738E2,2.3682312E2,4.724295E1],"categories":[],"categories_nodes":[],"categories_segments":[],"categories_sizes":[],"default_left":[1,1,1,1,0,0,0,0,1,0,0],"id":4,"left_children":[1,3,5,7,-1,-1,-1,-1,9,-1,-1],"loss_changes":[5.8853956E5,7.377206E4,2.4229365E4,1.8635E4,0E0,0E0,0E0,0E0,9.042797E3,0E0,0E0],"parents":[2147483647,0,0,1,1,2,2,3,3,8,8],"right_children":[2,4,6,8,-1,-1,-1,-1,10,-1,-1],"split_conditions":[7.776607E1,6.3743706E1,3.8679752E1,3.873405E1,1.3030942E2,-3.7529603E-2,2.949398E1,4.480971E0,4.525895E1,7.1046936E1,1.4172886E1],"split_indices":[1,1,0,0,0,0,0,0,0,0,0],"split_type":[0,0,0,0,0,0,0,0,0,0,0],"sum_hessian":[2.4E1,7E0,1.7E1,3E0,4E0,1.5E1,2E0,1E0,2E0,1E0,1E0],"tree_param":{"num_deleted":"0","num_feature":"2","num_nodes":"11","size_leaf_vector":"0"}},{"base_weights":[9.573613E1,2.6986127E2,1.302851E1,4.015651E1,2.9693958E2,-8.991467E-2,7.8650604E1,9.972917E1,1.8246735E1],"categories":[],"categories_nodes":[],"categories_segments":[],"categories_sizes":[],"default_left":[1,1,1,0,0,0,1,0,0],"id":5,"left_children":[1,3,5,-1,-1,-1,7,-1,-1],"loss_changes":[3.5652103E5,3.7836062E4,1.5502523E4,0E0,0E0,0E0,1.9999492E3,0E0,0E0],"parents":[2147483647,0,0,1,1,2,2,6,6],"right_children":[2,4,6,-1,-1,-1,8,-1,-1],"split_conditions":[7.776607E1,6.055126E1,3.8679752E1,1.2046953E1,8.908188E1,-2.6974402E-2,7.747145E1,2.9918753E1,5.4740205E0],"split_indices":[1,1,0,0,0,0,0,0,0],"split_type":[0,0,0,0,0,0,0,0,0],"sum_hessian":[2.4E1,7E0,1.7E1,1E0,6E0,1.5E1,2E0,1E0,1E0],"tree_param":{"num_deleted":"0","num_feature":"2","num_nodes":"9","size_leaf_vector":"0"}},{"base_weights":[7.247507E1,3.765361E1,3.1528125E2,-6.462617E-2,1.0838338E2,1.3692194E2,1.5178477E1,3.4133026E1,1.506531E2],"categories":[],"categories_nodes":[],"categories_segments":[],"categories_sizes":[],"default_left":[1,1,0,0,1,1,0,0,0],"id":6,"left_children":[1,3,-1,-1,5,7,-1,-1,-1],"loss_changes":[1.9950017E5,6.1366453E4,0E0,0E0,1.9201195E4,3.3262266E3,0E0,0E0,0E0],"parents":[2147483647,0,0,1,1,4,4,5,5],"right_children":[2,4,-1,-1,6,8,-1,-1,-1],"split_conditions":[1.191245E2,1.53368E1,9.458438E1,-1.9387852E-2,7.747145E1,6.055126E1,4.5535436E0,1.0239908E1,4.5195934E1],"split_indices":[0,0,0,0,0,1,0,0,0],"split_type":[0,0,0,0,0,0,0,0,0],"sum_hessian":[2.4E1,2.2E1,2E0,1.5E1,7E0,5E0,2E0,1E0,4E0],"tree_param":{"num_deleted":"0","num_feature":"2","num_nodes":"9","size_leaf_vector":"0"}},{"base_weights":[5.6914726E1,2.8964916E1,2.5222502E2,-4.645006E-2,8.3367035E1,1.0508466E2,1.2142761E1,5.4365517E1,1.3768198E2,-5.444281E1,1.0878256E2,1.3416077E2,2.9013077E1],"categories":[],"categories_nodes":[],"categories_segments":[],"categories_sizes":[],"default_left":[1,1,0,0,1,1,0,1,0,0,1,0,0],"id":7,"left_children":[1,3,-1,-1,5,7,-1,9,-1,-1,11,-1,-1],"loss_changes":[1.29166445E5,3.630431E4,0E0,0E0,1.109857E4,2.4346953E3,0E0,2.960654E4,0E0,0E0,2.1808008E3,0E0,0E0],"parents":[2147483647,0,0,1,1,4,4,5,5,7,7,10,10],"right_children":[2,4,-1,-1,6,8,-1,10,-1,-1,12,-1,-1],"split_conditions":[1.191245E2,1.53368E1,7.566751E1,-1.3935018E-2,7.747145E1,6.440879E1,3.6428285E0,3.873405E1,4.1304596E1,-1.6332844E1,4.525895E1,4.024823E1,8.703923E0],"split_indices":[0,0,0,0,0,1,0,0,0,0,0,0,0],"split_type":[0,0,0,0,0,0,0,0,0,0,0,0,0],"sum_hessian":[2.4E1,2.2E1,2E0,1.5E1,7E0,5E0,2E0,3E0,2E0,1E0,2E0,1E0,1E0],"tree_param":{"num_deleted":"0","num_feature":"2","num_nodes":"13","size_leaf_vector":"0"}},{"base_weights":[4.5969124E1,1.3048752E2,5.8515525E0,4.6210693E1,1.7181148E2,-3.338598E-2,3.5287373E1,-4.6276382E1,9.246518E1,1.1403665E2,2.4661118E1],"categories":[],"categories_nodes":[],"categories_segments":[],"categories_sizes":[],"default_left":[1,1,1,1,0,0,0,0,1,0,0],"id":8,"left_children":[1,3,5,7,-1,-1,-1,-1,9,-1,-1],"loss_changes":[8.400325E4,1.9921688E4,3.1192822E3,2.1390723E4,0E0,0E0,0E0,0E0,1.5756309E3,0E0,0E0],"parents":[2147483647,0,0,1,1,2,2,3,3,8,8],"right_children":[2,4,6,8,-1,-1,-1,-1,10,-1,-1],"split_conditions":[7.776607E1,6.3743706E1,3.8679752E1,3.873405E1,5.1543446E1,-1.0015795E-2,1.0586212E1,-1.38829155E1,4.525895E1,3.4211E1,7.3983355E0],"split_indices":[1,1,0,0,0,0,0,0,0,0,0],"split_type":[0,0,0,0,0,0,0,0,0,0,0],"sum_hessian":[2.4E1,7E0,1.7E1,3E0,4E0,1.5E1,2E0,1E0,2E0,1E0,1E0],"tree_param":{"num_deleted":"0","num_feature":"2","num_nodes":"11","size_leaf_vector":"0"}},{"base_weights":[3.5772224E1,1.704576E1,1.6741772E2,7.059412E1,2.056941E0,9.7927124E1,3.9279083E1,4.6836534E0,-2.2611938E1,-3.933493E1,7.85954E1,-2.3996172E-2,2.8229898E1,9.693115E1,2.0961945E1,3.6226425E1,6.1184235E0],"categories":[],"categories_nodes":[],"categories_segments":[],"categories_sizes":[],"default_left":[1,1,0,1,1,0,1,1,0,0,1,0,1,0,0,0,0],"id":9,"left_children":[1,3,-1,5,7,-1,9,11,-1,-1,13,-1,15,-1,-1,-1,-1],"loss_changes":[5.8777617E4,1.8315203E4,0E0,4.3318164E2,1.3370693E3,0E0,1.5454796E4,1.9959319E3,0E0,0E0,1.1383945E3,0E0,3.087964E2,0E0,0E0,0E0,0E0],"parents":[2147483647,0,0,1,1,3,3,4,4,6,6,7,7,10,10,12,12],"right_children":[2,4,-1,6,8,-1,10,12,-1,-1,14,-1,16,-1,-1,-1,-1],"split_conditions":[1.191245E2,6.9693924E1,5.022532E1,3.192715E1,9.396E1,2.9378138E1,3.873405E1,3.8679752E1,-6.7835817E0,-1.180048E1,4.525895E1,-7.198852E-3,7.747145E1,2.9079348E1,6.2885838E0,1.0867928E1,1.8355271E0],"split_indices":[0,1,0,0,0,0,0,0,0,0,0,0,0,0,0,0,0],"split_type":[0,0,0,0,0,0,0,0,0,0,0,0,0,0,0,0,0],"sum_hessian":[2.4E1,2.2E1,2E0,4E0,1.8E1,1E0,3E0,1.7E1,1E0,1E0,2E0,1.5E1,2E0,1E0,1E0,1E0,1E0],"tree_param":{"num_deleted":"0","num_feature":"2","num_nodes":"17","size_leaf_vector":"0"}},{"base_weights":[2.9403896E1,1.4491084E1,1.3393416E2,6.0004993E1,1.7510512E0,8.323804E1,3.3387222E1,3.9839044E0,-1.9220154E1,-3.3434692E1,6.680609E1,-1.7247248E-2,2.3995413E1,8.239148E1,1.7817657E1,3.0792465E1,5.200653E0],"categories":[],"categories_nodes":[],"categories_segments":[],"categories_sizes":[],"default_left":[1,1,0,1,1,0,1,1,0,0,1,0,1,0,0,0,0],"id":10,"left_children":[1,3,-1,5,7,-1,9,11,-1,-1,13,-1,15,-1,-1,-1,-1],"loss_changes":[3.7030152E4,1.3231449E4,0E0,3.1297266E2,9.6625806E2,0E0,1.1166092E4,1.4416572E3,0E0,0E0,8.224883E2,0E0,2.2310608E2,0E0,0E0,0E0,0E0],"parents":[2147483647,0,0,1,1,3,3,4,4,6,6,7,7,10,10,12,12],"right_children":[2,4,-1,6,8,-1,10,12,-1,-1,14,-1,16,-1,-1,-1,-1],"split_conditions":[1.191245E2,6.9693924E1,4.018025E1,3.192715E1,9.396E1,2.4971413E1,3.873405E1,3.8679752E1,-5.7660465E0,-1.0030408E1,4.525895E1,-5.174175E-3,7.747145E1,2.4717445E1,5.3452973E0,9.23774E0,1.560196E0],"split_indices":[0,1,0,0,0,0,0,0,0,0,0,0,0,0,0,0,0],"split_type":[0,0,0,0,0,0,0,0,0,0,0,0,0,0,0,0,0],"sum_hessian":[2.4E1,2.2E1,2E0,4E0,1.8E1,1E0,3E0,1.7E1,1E0,1E0,2E0,1.5E1,2E0,1E0,1E0,1E0,1E0],"tree_param":{"num_deleted":"0","num_feature":"2","num_nodes":"17","size_leaf_vector":"0"}},{"base_weights":[2.4191147E1,1.2318991E1,1.071473E2,5.100423E1,1.4902965E0,7.075232E1,2.8379128E1,3.3883305E0,-1.6337158E1,-2.8419495E1,5.6785168E1,-1.23964595E-2,2.0396097E1,7.0032745E1,1.5145004E1,2.61736E1,4.4205475E0],"categories":[],"categories_nodes":[],"categories_segments":[],"categories_sizes":[],"default_left":[1,1,0,1,1,0,1,1,0,0,1,0,1,0,0,0,0],"id":11,"left_children":[1,3,-1,5,7,-1,9,11,-1,-1,13,-1,15,-1,-1,-1,-1],"loss_changes":[2.3301762E4,9.558932E3,0E0,2.2612402E2,6.982609E2,0E0,8.0675005E3,1.0413508E3,0E0,0E0,5.9424805E2,0E0,1.611947E2,0E0,0E0,0E0,0E0],"parents":[2147483647,0,0,1,1,3,3,4,4,6,6,7,7,10,10,12,12],"right_children":[2,4,-1,6,8,-1,10,12,-1,-1,14,-1,16,-1,-1,-1,-1],"split_conditions":[1.191245E2,6.9693924E1,3.214419E1,3.192715E1,9.396E1,2.1225697E1,3.873405E1,3.8679752E1,-4.901148E0,-8.525848E0,4.525895E1,-3.718938E-3,7.747145E1,2.1009825E1,4.5435014E0,7.85208E0,1.3261642E0],"split_indices":[0,1,0,0,0,0,0,0,0,0,0,0,0,0,0,0,0],"split_type":[0,0,0,0,0,0,0,0,0,0,0,0,0,0,0,0,0],"sum_hessian":[2.4E1,2.2E1,2E0,4E0,1.8E1,1E0,3E0,1.7E1,1E0,1E0,2E0,1.5E1,2E0,1E0,1E0,1E0,1E0],"tree_param":{"num_deleted":"0","num_feature":"2","num_nodes":"17","size_leaf_vector":"0"}},{"base_weights":[1.9920633E1,5.5768543E1,2.8815267E0,3.149913E1,8.571786E1,-8.909956E-3,1.733668E1,4.3353596E1,-1.3886597E1,2.2247559E1,3.7574615E0,6.0139465E1,2.4122261E1,-2.415657E1,4.8267395E1,5.9527832E1,1.28732605E1],"categories":[],"categories_nodes":[],"categories_segments":[],"categories_sizes":[],"default_left":[1,1,1,1,0,0,1,1,0,0,0,0,1,0,1,0,0],"id":12,"left_children":[1,3,5,7,-1,-1,9,11,-1,-1,-1,-1,13,-1,15,-1,-1],"loss_changes":[1.5109709E4,3.1147793E3,7.5222516E2,3.8301743E3,0E0,0E0,1.1646338E2,1.6337402E2,0E0,0E0,0E0,0E0,5.8287695E3,0E0,4.2934326E2,0E0,0E0],"parents":[2147483647,0,0,1,1,2,2,3,3,6,6,7,7,12,12,14,14],"right_children":[2,4,6,8,-1,-1,10,12,-1,-1,-1,-1,14,-1,16,-1,-1],"split_conditions":[7.776607E1,1.191245E2,3.8679752E1,7.8283554E1,2.5715359E1,-2.6729868E-3,7.747145E1,3.192715E1,-4.1659794E0,6.674268E0,1.1272385E0,1.804184E1,3.873405E1,-7.2469716E0,4.525895E1,1.785835E1,3.8619783E0],"split_indices":[1,0,0,0,0,0,0,0,0,0,0,0,0,0,0,0,0],"split_type":[0,0,0,0,0,0,0,0,0,0,0,0,0,0,0,0,0],"sum_hessian":[2.4E1,7E0,1.7E1,5E0,2E0,1.5E1,2E0,4E0,1E0,1E0,1E0,1E0,3E0,1E0,2E0,1E0,1E0],"tree_param":{"num_deleted":"0","num_feature":"2","num_nodes":"17","size_leaf_vector":"0"}},{"base_weights":[1.6418983E1,5.372617E1,4.4058785E0,2.050393E1,8.011377E1,1.0788902E0,3.3809326E1,-2.0533081E1,4.1027294E1,2.4503384E0,-1.1803589E1,5.0598663E1,1.0942276E1,-6.4040297E-3,1.4736186E1,1.891043E1,3.1938477E0],"categories":[],"categories_nodes":[],"categories_segments":[],"categories_sizes":[],"default_left":[1,1,1,1,0,1,0,0,1,1,0,0,0,0,1,0,0],"id":13,"left_children":[1,3,5,7,-1,9,-1,-1,11,13,-1,-1,-1,-1,15,-1,-1],"loss_changes":[1.0967668E4,3.6172832E3,1.9200217E3,4.2112866E3,0E0,3.646082E2,0E0,0E0,3.101997E2,5.4339136E2,0E0,0E0,0E0,0E0,8.414459E1,0E0,0E0],"parents":[2147483647,0,0,1,1,2,2,3,3,5,5,8,8,9,9,14,14],"right_children":[2,4,6,8,-1,10,-1,-1,12,14,-1,-1,-1,-1,16,-1,-1],"split_conditions":[6.9693924E1,6.3743706E1,1.381429E2,3.873405E1,2.4034132E1,9.396E1,1.0142798E1,-6.1599245E0,4.525895E1,3.8679752E1,-3.541077E0,1.51796E1,3.282683E0,-1.9212089E-3,7.747145E1,5.6731296E0,9.581543E-1],"split_indices":[1,1,0,0,0,0,0,0,0,0,0,0,0,0,0,0,0],"split_type":[0,0,0,0,0,0,0,0,0,0,0,0,0,0,0,0,0],"sum_hessian":[2.4E1,5E0,1.9E1,3E0,2E0,1.8E1,1E0,1E0,2E0,1.7E1,1E0,1E0,1E0,1.5E1,2E0,1E0,1E0],"tree_param":{"num_deleted":"0","num_feature":"2","num_nodes":"17","size_leaf_vector":"0"}},{"base_weights":[1.3475987E1,4.366438E1,3.7456708E0,1.742833E1,6.409098E1,9.177676E-1,2.8737915E1,-1.7453125E1,3.4873188E1,2.0835347E0,-1.003302E1,4.300885E1,9.300934E0,-4.6028965E-3,1.2525757E1,1.6073868E1,2.7147675E0],"categories":[],"categories_nodes":[],"categories_segments":[],"categories_sizes":[],"default_left":[1,1,1,1,0,1,0,0,1,1,0,0,0,0,1,0,0],"id":14,"left_children":[1,3,5,7,-1,9,-1,-1,11,13,-1,-1,-1,-1,15,-1,-1],"loss_changes":[7.180012E3,2.0984805E3,1.3871382E3,3.0426543E3,0E0,2.634594E2,0E0,0E0,2.2411914E2,3.9254398E2,0E0,0E0,0E0,0E0,6.0794647E1,0E0,0E0],"parents":[2147483647,0,0,1,1,2,2,3,3,5,5,8,8,9,9,14,14],"right_children":[2,4,6,8,-1,10,-1,-1,12,14,-1,-1,-1,-1,16,-1,-1],"split_conditions":[6.9693924E1,6.3743706E1,1.381429E2,3.873405E1,1.9227295E1,9.396E1,8.621375E0,-5.2359376E0,4.525895E1,3.8679752E1,-3.009906E0,1.2902656E1,2.7902803E0,-1.380869E-3,7.747145E1,4.8221607E0,8.144303E-1],"split_indices":[1,1,0,0,0,0,0,0,0,0,0,0,0,0,0,0,0],"split_type":[0,0,0,0,0,0,0,0,0,0,0,0,0,0,0,0,0],"sum_hessian":[2.4E1,5E0,1.9E1,3E0,2E0,1.8E1,1E0,1E0,2E0,1.7E1,1E0,1E0,1E0,1.5E1,2E0,1E0,1E0],"tree_param":{"num_deleted":"0","num_feature":"2","num_nodes":"17","size_leaf_vector":"0"}},{"base_weights":[1.107043E1,3.5512447E1,3.184304E0,1.4814079E1,5.1272785E1,7.806099E-1,2.4427246E1,-1.4835159E1,2.9642212E1,1.7715411E0,-8.528076E0,3.6557526E1,7.905792E0,-3.3083318E-3,1.0646892E1,1.3662781E1,2.3075562E0],"categories":[],"categories_nodes":[],"categories_segments":[],"categories_sizes":[],"default_left":[1,1,1,1,0,1,0,0,1,1,0,0,0,0,1,0,0],"id":15,"left_children":[1,3,5,7,-1,9,-1,-1,11,13,-1,-1,-1,-1,15,-1,-1],"loss_changes":[4.7057383E3,1.1977207E3,1.00216254E3,2.1983184E3,0E0,1.9036893E2,0E0,0E0,1.6192627E2,2.835786E2,0E0,0E0,0E0,0E0,4.392392E1,0E0,0E0],"parents":[2147483647,0,0,1,1,2,2,3,3,5,5,8,8,9,9,14,14],"right_children":[2,4,6,8,-1,10,-1,-1,12,14,-1,-1,-1,-1,16,-1,-1],"split_conditions":[6.9693924E1,6.3743706E1,1.381429E2,3.873405E1,1.5381836E1,9.396E1,7.328174E0,-4.450548E0,4.525895E1,3.8679752E1,-2.558423E0,1.0967258E1,2.3717377E0,-9.924996E-4,7.747145E1,4.0988345E0,6.922669E-1],"split_indices":[1,1,0,0,0,0,0,0,0,0,0,0,0,0,0,0,0],"split_type":[0,0,0,0,0,0,0,0,0,0,0,0,0,0,0,0,0],"sum_hessian":[2.4E1,5E0,1.9E1,3E0,2E0,1.8E1,1E0,1E0,2E0,1.7E1,1E0,1E0,1E0,1.5E1,2E0,1E0,1E0],"tree_param":{"num_deleted":"0","num_feature":"2","num_nodes":"17","size_leaf_vector":"0"}},{"base_weights":[9.102511E0,1.0186638E0,2.6153355E1,2.5621002E0,-1.2609879E1,3.876214E1,1.0835657E1,-2.3778635E-3,2.1796875E1,6.719925E0,4.72029E1,-7.2488403E0,1.7168991E1],"categories":[],"categories_nodes":[],"categories_segments":[],"categories_sizes":[],"default_left":[1,1,1,1,0,1,1,0,0,0,0,0,0],"id":16,"left_children":[1,3,5,7,-1,9,11,-1,-1,-1,-1,-1,-1],"loss_changes":[3.4192693E3,4.10934E2,1.1250869E3,8.386135E2,0E0,7.6464307E2,6.971312E2,0E0,0E0,0E0,0E0,0E0,0E0],"parents":[2147483647,0,0,1,1,2,2,3,3,5,5,6,6],"right_children":[2,4,6,8,-1,10,12,-1,-1,-1,-1,-1,-1],"split_conditions":[3.873405E1,3.192715E1,6.902884E1,1.53368E1,-3.7829638E0,6.055126E1,7.338016E1,-7.133591E-4,6.539063E0,2.0159776E0,1.4160871E1,-2.174652E0,5.1506977E0],"split_indices":[0,0,1,0,0,1,1,0,0,0,0,0,0],"split_type":[0,0,0,0,0,0,0,0,0,0,0,0,0],"sum_hessian":[2.4E1,1.7E1,7E0,1.6E1,1E0,3E0,4E0,1.5E1,1E0,1E0,2E0,1E0,3E0],"tree_param":{"num_deleted":"0","num_feature":"2","num_nodes":"13","size_leaf_vector":"0"}},{"base_weights":[7.248086E0,3.4576733E0,3.3891888E1,1.980358E1,9.5789295E-1,2.3993439E1,5.7119293E0,-1.0718399E1,2.0776274E0,1.8527344E1,2.3672958E-1,9.3449223E-1,-6.161499E0,-1.7090893E-3,5.6160684E0],"categories":[],"categories_nodes":[],"categories_segments":[],"categories_sizes":[],"default_left":[1,1,0,1,1,0,0,0,1,0,1,1,0,0,0],"id":17,"left_children":[1,3,-1,5,7,-1,-1,-1,9,-1,11,13,-1,-1,-1],"loss_changes":[2.4075874E3,9.208372E2,0E0,4.0077393E1,2.9683014E2,0E0,0E0,0E0,6.012589E2,0E0,9.058233E1,7.890176E1,0E0,0E0,0E0],"parents":[2147483647,0,0,1,1,3,3,4,4,8,8,10,10,11,11],"right_children":[2,4,-1,6,8,-1,-1,-1,10,-1,12,14,-1,-1,-1],"split_conditions":[1.191245E2,6.155313E1,1.0167566E1,4.525895E1,6.440879E1,7.198032E0,1.7135788E0,-3.21552E0,6.9693924E1,5.558203E0,9.396E1,3.8679752E1,-1.8484498E0,-5.127268E-4,1.6848205E0],"split_indices":[0,1,0,0,1,0,0,0,1,0,0,0,0,0,0],"split_type":[0,0,0,0,0,0,0,0,0,0,0,0,0,0,0],"sum_hessian":[2.4E1,2.2E1,2E0,2E0,2E1,1E0,1E0,1E0,1.9E1,1E0,1.8E1,1.7E1,1E0,1.5E1,2E0],"tree_param":{"num_deleted":"0","num_feature":"2","num_nodes":"15","size_leaf_vector":"0"}},{"base_weights":[5.923966E0,2.9025521E0,2.7113485E1,1.6833029E1,7.7426726E-1,2.039441E1,4.855133E0,-9.1106415E0,1.7240447E0,1.574823E1,1.5707552E-1,9.6303415E-1,-4.462382E0,-1.2284078E-3,8.195618E0],"categories":[],"categories_nodes":[],"categories_segments":[],"categories_sizes":[],"default_left":[1,1,0,1,1,0,0,0,1,0,1,1,0,0,0],"id":18,"left_children":[1,3,-1,5,7,-1,-1,-1,9,-1,11,13,-1,-1,-1],"loss_changes":[1.5218594E3,6.688712E2,0E0,2.8955994E1,2.1286491E2,0E0,0E0,0E0,4.3703568E2,0E0,7.503617E1,1.1856995E2,0E0,0E0,0E0],"parents":[2147483647,0,0,1,1,3,3,4,4,8,8,10,10,11,11],"right_children":[2,4,-1,6,8,-1,-1,-1,10,-1,12,14,-1,-1,-1],"split_conditions":[1.191245E2,6.155313E1,8.134046E0,4.525895E1,6.440879E1,6.118323E0,1.45654E0,-2.7331924E0,6.9693924E1,4.724469E0,7.747145E1,3.8679752E1,-1.3387146E0,-3.6852236E-4,2.4586854E0],"split_indices":[0,1,0,0,1,0,0,0,1,0,0,0,0,0,0],"split_type":[0,0,0,0,0,0,0,0,0,0,0,0,0,0,0],"sum_hessian":[2.4E1,2.2E1,2E0,2E0,2E1,1E0,1E0,1E0,1.9E1,1E0,1.8E1,1.6E1,2E0,1.5E1,1E0],"tree_param":{"num_deleted":"0","num_feature":"2","num_nodes":"15","size_leaf_vector":"0"}},{"base_weights":[4.899568E0,1.6867746E1,1.0641359E0,3.7612915E0,2.2480652E1,1.6888122E-1,9.036987E0,1.3385986E1,-7.744049E0,4.1268616E0,2.7222961E1,6.858047E-1,-4.567871E0,-8.8291813E-4,4.1195374E0,6.966278E0,-7.8697205E-1],"categories":[],"categories_nodes":[],"categories_segments":[],"categories_sizes":[],"default_left":[1,1,1,1,1,1,0,0,0,0,0,1,0,0,1,0,0],"id":19,"left_children":[1,3,5,7,9,11,-1,-1,-1,-1,-1,13,-1,-1,15,-1,-1],"loss_changes":[1.1296289E3,3.5683533E2,1.4122847E2,4.3586792E2,2.3581201E2,4.9654903E1,0E0,0E0,0E0,0E0,0E0,4.2445866E1,0E0,0E0,4.7384945E1,0E0,0E0],"parents":[2147483647,0,0,1,1,2,2,3,3,4,4,5,5,11,11,14,14],"right_children":[2,4,6,8,10,12,-1,-1,-1,-1,-1,14,-1,-1,16,-1,-1],"split_conditions":[6.9693924E1,3.873405E1,1.381429E2,3.192715E1,6.055126E1,9.396E1,2.7110963E0,4.015796E0,-2.3232148E0,1.2380586E0,8.166889E0,3.8679752E1,-1.3703613E0,-2.6487545E-4,7.747145E1,2.0898836E0,-2.3609163E-1],"split_indices":[1,0,0,0,1,0,0,0,0,0,0,0,0,0,0,0,0],"split_type":[0,0,0,0,0,0,0,0,0,0,0,0,0,0,0,0,0],"sum_hessian":[2.4E1,5E0,1.9E1,2E0,3E0,1.8E1,1E0,1E0,1E0,1E0,2E0,1.7E1,1E0,1.5E1,2E0,1E0,1E0],"tree_param":{"num_deleted":"0","num_feature":"2","num_nodes":"17","size_leaf_vector":"0"}},{"base_weights":[4.0013723E0,1.3657023E1,9.046086E-1,5.0885925E0,2.0529257E1,1.436451E-1,7.6814575E0,-6.582443E0,1.1173085E1,5.830354E-1,-3.8826904E0,1.3251801E1,3.5078278E0,-6.345974E-4,3.5015972E0,5.9213257E0,-6.6893005E-1],"categories":[],"categories_nodes":[],"categories_segments":[],"categories_sizes":[],"default_left":[1,1,1,1,0,1,0,0,1,1,0,0,0,0,1,0,0],"id":20,"left_children":[1,3,5,7,-1,9,-1,-1,11,13,-1,-1,-1,-1,15,-1,-1],"loss_changes":[7.351775E2,2.4884045E2,1.0203529E2,3.5759555E2,0E0,3.5877274E1,0E0,0E0,1.3166199E0,3.0664808E1,0E0,0E0,0E0,0E0,3.4235588E1,0E0,0E0],"parents":[2147483647,0,0,1,1,2,2,3,3,5,5,8,8,9,9,14,14],"right_children":[2,4,6,8,-1,10,-1,-1,12,14,-1,-1,-1,-1,16,-1,-1],"split_conditions":[6.9693924E1,6.3743706E1,1.381429E2,3.873405E1,6.158777E0,9.396E1,2.3044374E0,-1.974733E0,4.525895E1,3.8679752E1,-1.1648072E0,3.9755404E0,1.0523484E0,-1.9037923E-4,7.747145E1,1.7763978E0,-2.0067902E-1],"split_indices":[1,1,0,0,0,0,0,0,0,0,0,0,0,0,0,0,0],"split_type":[0,0,0,0,0,0,0,0,0,0,0,0,0,0,0,0,0],"sum_hessian":[2.4E1,5E0,1.9E1,3E0,2E0,1.8E1,1E0,1E0,2E0,1.7E1,1E0,1E0,1E0,1.5E1,2E0,1E0,1E0],"tree_param":{"num_deleted":"0","num_feature":"2","num_nodes":"17","size_leaf_vector":"0"}},{"base_weights":[3.2780406E0,1.5747745E0,1.5243733E1,9.497131E0,3.6802E-1,1.1264038E1,2.981659E0,-5.5950775E0,9.4592875E-1,8.298706E0,1.2216646E-1,4.956527E-1,-3.300293E0,-4.5611686E-4,2.9763489E0],"categories":[],"categories_nodes":[],"categories_segments":[],"categories_sizes":[],"default_left":[1,1,0,1,1,0,0,0,1,0,1,1,0,0,0],"id":21,"left_children":[1,3,-1,5,7,-1,-1,-1,9,-1,11,13,-1,-1,-1],"loss_changes":[4.8551352E2,2.1639268E2,0E0,9.511719E-1,7.7661194E1,0E0,0E0,0E0,1.2012499E2,0E0,2.5922388E1,2.2153873E1,0E0,0E0,0E0],"parents":[2147483647,0,0,1,1,3,3,4,4,8,8,10,10,11,11],"right_children":[2,4,-1,6,8,-1,-1,-1,10,-1,12,14,-1,-1,-1],"split_conditions":[1.191245E2,6.155313E1,4.57312E0,4.525895E1,6.440879E1,3.3792117E0,8.944977E-1,-1.6785233E0,6.9693924E1,2.4896119E0,9.396E1,3.8679752E1,-9.900879E-1,-1.3683506E-4,8.929047E-1],"split_indices":[0,1,0,0,1,0,0,0,1,0,0,0,0,0,0],"split_type":[0,0,0,0,0,0,0,0,0,0,0,0,0,0,0],"sum_hessian":[2.4E1,2.2E1,2E0,2E0,2E1,1E0,1E0,1E0,1.9E1,1E0,1.8E1,1.7E1,1E0,1.5E1,2E0],"tree_param":{"num_deleted":"0","num_feature":"2","num_nodes":"15","size_leaf_vector":"0"}},{"base_weights":[2.6770535E0,9.485576E0,5.006441E-1,1.5320536E0,1.3079323E1,8.039635E-2,4.242676E0,7.053894E0,-4.7558136E0,2.5344086E0,1.5749492E1,5.3929967E-1,-2.5468547E0,-3.27834E-4,4.58667E0],"categories":[],"categories_nodes":[],"categories_segments":[],"categories_sizes":[],"default_left":[1,1,1,1,1,1,0,0,0,0,0,1,0,0,0],"id":22,"left_children":[1,3,5,7,9,11,-1,-1,-1,-1,-1,13,-1,-1,-1],"loss_changes":[3.6570438E2,1.5145941E2,3.1110512E1,1.377088E2,7.271112E1,2.4280947E1,0E0,0E0,0E0,0E0,0E0,3.713073E1,0E0,0E0,0E0],"parents":[2147483647,0,0,1,1,2,2,3,3,4,4,5,5,11,11],"right_children":[2,4,6,8,10,12,-1,-1,-1,-1,-1,14,-1,-1,-1],"split_conditions":[6.9693924E1,3.873405E1,1.381429E2,3.192715E1,6.055126E1,7.747145E1,1.2728028E0,2.1161683E0,-1.4267441E0,7.6032263E-1,4.724848E0,3.8679752E1,-7.6405644E-1,-9.83502E-5,1.376001E0],"split_indices":[1,0,0,0,1,0,0,0,0,0,0,0,0,0,0],"split_type":[0,0,0,0,0,0,0,0,0,0,0,0,0,0,0],"sum_hessian":[2.4E1,5E0,1.9E1,2E0,3E0,1.8E1,1E0,1E0,1E0,1E0,2E0,1.6E1,2E0,1.5E1,1E0],"tree_param":{"num_deleted":"0","num_feature":"2","num_nodes":"15","size_leaf_vector":"0"}},{"base_weights":[2.1963055E0,7.6689963E0,4.4468302E-1,1.302236E0,1.0526817E1,8.848084E-2,3.6062622E0,5.9957886E0,-4.0424347E0,2.154251E0,1.2599589E1,4.5844665E-1,-2.0374858E0,-2.356307E-4,3.8986816E0,-6.3301086E-1,-2.4232178E0],"categories":[],"categories_nodes":[],"categories_segments":[],"categories_sizes":[],"default_left":[1,1,1,1,1,1,0,0,0,0,0,1,1,0,0,0,0],"id":23,"left_children":[1,3,5,7,9,11,-1,-1,-1,-1,-1,13,15,-1,-1,-1,-1],"loss_changes":[2.3624193E2,9.5461975E1,2.2204144E1,9.9494064E1,4.2274994E1,1.58782425E1,0E0,0E0,0E0,0E0,0E0,2.682649E1,9.133053E-2,0E0,0E0,0E0,0E0],"parents":[2147483647,0,0,1,1,2,2,3,3,4,4,5,5,11,11,12,12],"right_children":[2,4,6,8,10,12,-1,-1,-1,-1,-1,14,16,-1,-1,-1,-1],"split_conditions":[6.9693924E1,3.873405E1,1.381429E2,3.192715E1,6.055126E1,7.747145E1,1.0818787E0,1.7987367E0,-1.2127304E0,6.4627534E-1,3.779877E0,3.8679752E1,9.396E1,-7.068921E-5,1.1696045E0,-1.8990327E-1,-7.2696537E-1],"split_indices":[1,0,0,0,1,0,0,0,0,0,0,0,0,0,0,0,0],"split_type":[0,0,0,0,0,0,0,0,0,0,0,0,0,0,0,0,0],"sum_hessian":[2.4E1,5E0,1.9E1,2E0,3E0,1.8E1,1E0,1E0,1E0,1E0,2E0,1.6E1,2E0,1.5E1,1E0,1E0,1E0],"tree_param":{"num_deleted":"0","num_feature":"2","num_nodes":"17","size_leaf_vector":"0"}},{"base_weights":[1.7912784E0,8.2854325E-1,8.575154E0,4.7687783E0,2.2619805E-1,-3.4360657E0,5.8111453E-1,5.0964355E0,7.523259E-2,3.8970804E-1,-1.7318726E0,-1.6935954E-4,3.3138733E0,-5.380554E-1,-2.0597534E0],"categories":[],"categories_nodes":[],"categories_segments":[],"categories_sizes":[],"default_left":[1,1,0,0,1,0,1,0,1,1,1,0,0,0,0],"id":24,"left_children":[1,3,-1,-1,5,-1,7,-1,9,11,13,-1,-1,-1,-1],"loss_changes":[1.5617201E2,5.3509094E1,0E0,0E0,2.92925E1,0E0,4.530097E1,0E0,1.1472439E1,1.9381681E1,6.602764E-2,0E0,0E0,0E0,0E0],"parents":[2147483647,0,0,1,1,4,4,6,6,8,8,9,9,10,10],"right_children":[2,4,-1,-1,6,-1,8,-1,10,12,14,-1,-1,-1,-1],"split_conditions":[1.191245E2,6.155313E1,2.5725465E0,1.4306335E0,6.440879E1,-1.0308198E0,6.9693924E1,1.5289308E0,7.747145E1,3.8679752E1,9.396E1,-5.0807863E-5,9.94162E-1,-1.6141663E-1,-6.1792606E-1],"split_indices":[0,1,0,0,1,0,1,0,0,0,0,0,0,0,0],"split_type":[0,0,0,0,0,0,0,0,0,0,0,0,0,0,0],"sum_hessian":[2.4E1,2.2E1,2E0,2E0,2E1,1E0,1.9E1,1E0,1.8E1,1.6E1,2E0,1.5E1,1E0,1E0,1E0],"tree_param":{"num_deleted":"0","num_feature":"2","num_nodes":"15","size_leaf_vector":"0"}},{"base_weights":[1.4425429E0,5.215017E0,2.3867367E-1,1.4009552E0,8.562093E0,-1.7507935E0,4.355295E-1,-2.9206543E0,3.8150432E0,-1.2172717E-4,2.069252E0,4.6067505E0,1.1158142E0,2.816803E0,8.8113403E-1,-4.5735168E-1,1.7790527E0],"categories":[],"categories_nodes":[],"categories_segments":[],"categories_sizes":[],"default_left":[1,1,1,1,0,0,1,0,1,0,1,0,0,0,1,0,0],"id":25,"left_children":[1,3,5,7,-1,-1,9,-1,11,-1,13,-1,-1,-1,15,-1,-1],"loss_changes":[1.1229443E2,6.460065E1,8.595286E0,5.2873405E1,0E0,0E0,1.3523184E1,0E0,1.2707214E0,0E0,1.070734E0,0E0,0E0,0E0,4.4192066E0,0E0,0E0],"parents":[2147483647,0,0,1,1,2,2,3,3,6,6,8,8,10,10,14,14],"right_children":[2,4,6,8,-1,-1,10,-1,12,-1,14,-1,-1,-1,16,-1,-1],"split_conditions":[6.9693924E1,6.3743706E1,7.338016E1,3.873405E1,2.5686278E0,-5.2523804E-1,3.8679752E1,-8.761963E-1,4.525895E1,-3.651815E-5,7.747145E1,1.3820252E0,3.3474427E-1,8.450409E-1,1.225441E2,-1.3720551E-1,5.3371584E-1],"split_indices":[1,1,1,0,0,0,0,0,0,0,0,0,0,0,0,0,0],"split_type":[0,0,0,0,0,0,0,0,0,0,0,0,0,0,0,0,0],"sum_hessian":[2.4E1,5E0,1.9E1,3E0,2E0,1E0,1.8E1,1E0,2E0,1.5E1,3E0,1E0,1E0,1E0,2E0,1E0,1E0],"tree_param":{"num_deleted":"0","num_feature":"2","num_nodes":"17","size_leaf_vector":"0"}},{"base_weights":[1.1748048E0,5.170422E-1,5.82605E0,3.2427979E0,1.0302753E-1,7.2268677E0,1.512207E0,3.915741E0,9.484558E-1,-2.4825592E0,3.5643482E-1,3.0476685E0,5.438735E-2,2.8159848E-1,-1.2512716E0,-8.749141E-5,2.394287E0,-3.8874817E-1,-1.4881592E0],"categories":[],"categories_nodes":[],"categories_segments":[],"categories_sizes":[],"default_left":[1,1,1,1,1,0,0,0,0,0,1,0,1,1,1,0,0,0,0],"id":26,"left_children":[1,3,5,7,9,-1,-1,-1,-1,-1,11,-1,13,15,17,-1,-1,-1,-1],"loss_changes":[7.347307E1,2.562147E1,7.2001953E0,9.179783E-1,1.4644208E1,0E0,0E0,0E0,0E0,0E0,1.6091852E1,0E0,5.988901E0,1.0117161E1,3.4444332E-2,0E0,0E0,0E0,0E0],"parents":[2147483647,0,0,1,1,2,2,3,3,4,4,10,10,12,12,13,13,14,14],"right_children":[2,4,6,8,10,-1,-1,-1,-1,-1,12,-1,14,16,18,-1,-1,-1,-1],"split_conditions":[1.191245E2,6.155313E1,1.477086E2,4.525895E1,6.440879E1,2.1680603E0,4.5366213E-1,1.1747223E0,2.8453675E-1,-7.447678E-1,6.9693924E1,9.1430056E-1,7.747145E1,3.8679752E1,9.396E1,-2.6247424E-5,7.1828616E-1,-1.1662445E-1,-4.4644776E-1],"split_indices":[0,1,0,0,1,0,0,0,0,0,1,0,0,0,0,0,0,0,0],"split_type":[0,0,0,0,0,0,0,0,0,0,0,0,0,0,0,0,0,0,0],"sum_hessian":[2.4E1,2.2E1,2E0,2E0,2E1,1E0,1E0,1E0,1E0,1E0,1.9E1,1E0,1.8E1,1.6E1,2E0,1.5E1,1E0,1E0,1E0],"tree_param":{"num_deleted":"0","num_feature":"2","num_nodes":"19","size_leaf_vector":"0"}},{"base_weights":[9.9859136E-1,4.3949297E-1,4.9521484E0,2.756368E0,8.758259E-2,6.1428223E0,1.2854004E0,3.3283691E0,8.0618286E-1,-2.1101685E0,3.0297858E-1,2.5905151E0,4.6239E-2,2.3937096E-1,-1.0635885E0,-6.288445E-5,2.0351562E0,-3.3042908E-1,-1.2649536E0],"categories":[],"categories_nodes":[],"categories_segments":[],"categories_sizes":[],"default_left":[1,1,1,1,1,0,0,0,0,0,1,0,1,1,1,0,0,0,0],"id":27,"left_children":[1,3,5,7,9,-1,-1,-1,-1,-1,11,-1,13,15,17,-1,-1,-1,-1],"loss_changes":[5.308425E1,1.8511236E1,5.2017136E0,6.6324997E-1,1.0580457E1,0E0,0E0,0E0,0E0,0E0,1.162624E1,0E0,4.327112E0,7.309648E0,2.492094E-2,0E0,0E0,0E0,0E0],"parents":[2147483647,0,0,1,1,2,2,3,3,4,4,10,10,12,12,13,13,14,14],"right_children":[2,4,6,8,10,-1,-1,-1,-1,-1,12,-1,14,16,18,-1,-1,-1,-1],"split_conditions":[1.191245E2,6.155313E1,1.477086E2,4.525895E1,6.440879E1,1.8428468E0,3.8562015E-1,9.985108E-1,2.4185486E-1,-6.3305056E-1,6.9693924E1,7.7715456E-1,7.747145E1,3.8679752E1,9.396E1,-1.8865336E-5,6.105469E-1,-9.912873E-2,-3.794861E-1],"split_indices":[0,1,0,0,1,0,0,0,0,0,1,0,0,0,0,0,0,0,0],"split_type":[0,0,0,0,0,0,0,0,0,0,0,0,0,0,0,0,0,0,0],"sum_hessian":[2.4E1,2.2E1,2E0,2E0,2E1,1E0,1E0,1E0,1E0,1E0,1.9E1,1E0,1.8E1,1.6E1,2E0,1.5E1,1E0,1E0,1E0],"tree_param":{"num_deleted":"0","num_feature":"2","num_nodes":"19","size_leaf_vector":"0"}},{"base_weights":[8.4880775E-1,3.735767E-1,4.20931E0,2.3428955E0,7.4456066E-2,5.2213745E0,1.0925903E0,2.8291016E0,6.852417E-1,-1.7936401E0,2.5754288E-1,2.2019653E0,3.9311945E-2,2.034738E-1,-9.0404254E-1,-4.5198198E-5,1.7298889E0,-2.8086853E-1,-1.0751953E0],"categories":[],"categories_nodes":[],"categories_segments":[],"categories_sizes":[],"default_left":[1,1,1,1,1,0,0,0,0,0,1,0,1,1,1,0,0,0,0],"id":28,"left_children":[1,3,5,7,9,-1,-1,-1,-1,-1,11,-1,13,15,17,-1,-1,-1,-1],"loss_changes":[3.835288E1,1.3374025E1,3.7581406E0,4.792652E-1,7.6444387E0,0E0,0E0,0E0,0E0,0E0,8.400099E0,0E0,3.1263428E0,5.281204E0,1.7985344E-2,0E0,0E0,0E0,0E0],"parents":[2147483647,0,0,1,1,2,2,3,3,4,4,10,10,12,12,13,13,14,14],"right_children":[2,4,6,8,10,-1,-1,-1,-1,-1,12,-1,14,16,18,-1,-1,-1,-1],"split_conditions":[1.191245E2,6.155313E1,1.477086E2,4.525895E1,6.440879E1,1.5664124E0,3.2777712E-1,8.487305E-1,2.0557252E-1,-5.380921E-1,6.9693924E1,6.6058964E-1,7.747145E1,3.8679752E1,9.396E1,-1.355946E-5,5.189667E-1,-8.426056E-2,-3.225586E-1],"split_indices":[0,1,0,0,1,0,0,0,0,0,1,0,0,0,0,0,0,0,0],"split_type":[0,0,0,0,0,0,0,0,0,0,0,0,0,0,0,0,0,0,0],"sum_hessian":[2.4E1,2.2E1,2E0,2E0,2E1,1E0,1E0,1E0,1E0,1E0,1.9E1,1E0,1.8E1,1.6E1,2E0,1.5E1,1E0,1E0,1E0],"tree_param":{"num_deleted":"0","num_feature":"2","num_nodes":"19","size_leaf_vector":"0"}},{"base_weights":[7.2148556E-1,3.1753802E-1,3.5779216E0,1.9914551E0,6.328614E-2,4.4381714E0,9.2871094E-1,2.4047241E0,5.824585E-1,-1.5245972E0,2.1891017E-1,1.8716431E0,3.3416696E-2,1.7295742E-1,-7.6845294E-1,-3.2486205E-5,1.470398E0,-2.3873901E-1,-9.139404E-1],"categories":[],"categories_nodes":[],"categories_segments":[],"categories_sizes":[],"default_left":[1,1,1,1,1,0,0,0,0,0,1,0,1,1,1,0,0,0,0],"id":29,"left_children":[1,3,5,7,9,-1,-1,-1,-1,-1,11,-1,13,15,17,-1,-1,-1,-1],"loss_changes":[2.7710133E1,9.662687E0,2.715168E0,3.462324E-1,5.5231185E0,0E0,0E0,0E0,0E0,0E0,6.068879E0,0E0,2.2588854E0,3.8155975E0,1.3007045E-2,0E0,0E0,0E0,0E0],"parents":[2147483647,0,0,1,1,2,2,3,3,4,4,10,10,12,12,13,13,14,14],"right_children":[2,4,6,8,10,-1,-1,-1,-1,-1,12,-1,14,16,18,-1,-1,-1,-1],"split_conditions":[1.191245E2,6.155313E1,1.477086E2,4.525895E1,6.440879E1,1.3314514E0,2.786133E-1,7.2141725E-1,1.7473756E-1,-4.5737916E-1,6.9693924E1,5.614929E-1,7.747145E1,3.8679752E1,9.396E1,-9.7458615E-6,4.411194E-1,-7.162171E-2,-2.7418214E-1],"split_indices":[0,1,0,0,1,0,0,0,0,0,1,0,0,0,0,0,0,0,0],"split_type":[0,0,0,0,0,0,0,0,0,0,0,0,0,0,0,0,0,0,0],"sum_hessian":[2.4E1,2.2E1,2E0,2E0,2E1,1E0,1E0,1E0,1E0,1E0,1.9E1,1E0,1.8E1,1.6E1,2E0,1.5E1,1E0,1E0,1E0],"tree_param":{"num_deleted":"0","num_feature":"2","num_nodes":"19","size_leaf_vector":"0"}},{"base_weights":[6.132663E-1,2.6990774E-1,3.0412598E0,1.6927286E0,5.3794872E-2,3.772461E0,7.894287E-1,2.0440063E0,4.9508667E-1,-1.2959137E0,1.8607599E-1,1.5908813E0,2.8408265E-2,1.470189E-1,-6.5318805E-1,-2.334946E-5,1.2498474E0,-2.0292664E-1,-7.7685547E-1],"categories":[],"categories_nodes":[],"categories_segments":[],"categories_sizes":[],"default_left":[1,1,1,1,1,0,0,0,0,0,1,0,1,1,1,0,0,0,0],"id":30,"left_children":[1,3,5,7,9,-1,-1,-1,-1,-1,11,-1,13,15,17,-1,-1,-1,-1],"loss_changes":[2.0020947E1,6.981209E0,1.9615364E0,2.501545E-1,3.9904983E0,0E0,0E0,0E0,0E0,0E0,4.3846555E0,0E0,1.6320779E0,2.7567897E0,9.403348E-3,0E0,0E0,0E0,0E0],"parents":[2147483647,0,0,1,1,2,2,3,3,4,4,10,10,12,12,13,13,14,14],"right_children":[2,4,6,8,10,-1,-1,-1,-1,-1,12,-1,14,16,18,-1,-1,-1,-1],"split_conditions":[1.191245E2,6.155313E1,1.477086E2,4.525895E1,6.440879E1,1.1317383E0,2.3682863E-1,6.132019E-1,1.4852601E-1,-3.8877413E-1,6.9693924E1,4.7726443E-1,7.747145E1,3.8679752E1,9.396E1,-7.004838E-6,3.7495422E-1,-6.0877994E-2,-2.3305665E-1],"split_indices":[0,1,0,0,1,0,0,0,0,0,1,0,0,0,0,0,0,0,0],"split_type":[0,0,0,0,0,0,0,0,0,0,0,0,0,0,0,0,0,0,0],"sum_hessian":[2.4E1,2.2E1,2E0,2E0,2E1,1E0,1E0,1E0,1E0,1E0,1.9E1,1E0,1.8E1,1.6E1,2E0,1.5E1,1E0,1E0,1E0],"tree_param":{"num_deleted":"0","num_feature":"2","num_nodes":"19","size_leaf_vector":"0"}},{"base_weights":[5.212783E-1,2.2942214E-1,2.585083E0,1.4388224E0,4.5725796E-2,3.206604E0,6.710205E-1,1.7373962E0,4.208374E-1,-1.101532E0,1.5816529E-1,1.3522339E0,2.4149364E-2,1.2496984E-1,-5.552165E-1,-1.6782426E-5,1.0623779E0,-1.7248535E-1,-6.6033936E-1],"categories":[],"categories_nodes":[],"categories_segments":[],"categories_sizes":[],"default_left":[1,1,1,1,1,0,0,0,0,0,1,0,1,1,1,0,0,0,0],"id":31,"left_children":[1,3,5,7,9,-1,-1,-1,-1,-1,11,-1,13,15,17,-1,-1,-1,-1],"loss_changes":[1.446528E1,5.043944E0,1.4171944E0,1.8066931E-1,2.8831627E0,0E0,0E0,0E0,0E0,0E0,3.1678286E0,0E0,1.1792122E0,1.9917969E0,6.8024993E-3,0E0,0E0,0E0,0E0],"parents":[2147483647,0,0,1,1,2,2,3,3,4,4,10,10,12,12,13,13,14,14],"right_children":[2,4,6,8,10,-1,-1,-1,-1,-1,12,-1,14,16,18,-1,-1,-1,-1],"split_conditions":[1.191245E2,6.155313E1,1.477086E2,4.525895E1,6.440879E1,9.6198124E-1,2.0130616E-1,5.212189E-1,1.2625122E-1,-3.304596E-1,6.9693924E1,4.056702E-1,7.747145E1,3.8679752E1,9.396E1,-5.034728E-6,3.187134E-1,-5.174561E-2,-1.9810182E-1],"split_indices":[0,1,0,0,1,0,0,0,0,0,1,0,0,0,0,0,0,0,0],"split_type":[0,0,0,0,0,0,0,0,0,0,0,0,0,0,0,0,0,0,0],"sum_hessian":[2.4E1,2.2E1,2E0,2E0,2E1,1E0,1E0,1E0,1E0,1E0,1.9E1,1E0,1.8E1,1.6E1,2E0,1.5E1,1E0,1E0,1E0],"tree_param":{"num_deleted":"0","num_feature":"2","num_nodes":"19","size_leaf_vector":"0"}},{"base_weights":[4.4308677E-1,1.9501087E-1,2.1973064E0,1.2229818E0,3.8871657E-2,2.725586E0,5.7037354E-1,1.4767761E0,3.5769653E-1,-9.3629456E-1,1.344447E-1,1.1494141E0,2.0529779E-2,1.0622572E-1,-4.7192383E-1,-1.2062367E-5,9.0301514E-1,-1.4660645E-1,-5.612793E-1],"categories":[],"categories_nodes":[],"categories_segments":[],"categories_sizes":[],"default_left":[1,1,1,1,1,0,0,0,0,0,1,0,1,1,1,0,0,0,0],"id":32,"left_children":[1,3,5,7,9,-1,-1,-1,-1,-1,11,-1,13,15,17,-1,-1,-1,-1],"loss_changes":[1.0450992E1,3.644112E0,1.0238237E0,1.3057566E-1,2.0830712E0,0E0,0E0,0E0,0E0,0E0,2.288806E0,0E0,8.5195476E-1,1.4390464E0,4.9194694E-3,0E0,0E0,0E0,0E0],"parents":[2147483647,0,0,1,1,2,2,3,3,4,4,10,10,12,12,13,13,14,14],"right_children":[2,4,6,8,10,-1,-1,-1,-1,-1,12,-1,14,16,18,-1,-1,-1,-1],"split_conditions":[1.191245E2,6.155313E1,1.477086E2,4.525895E1,6.440879E1,8.176758E-1,1.7111206E-1,4.4303286E-1,1.0730896E-1,-2.8088838E-1,6.9693924E1,3.4482422E-1,7.747145E1,3.8679752E1,9.396E1,-3.6187103E-6,2.7090454E-1,-4.3981936E-2,-1.6838379E-1],"split_indices":[0,1,0,0,1,0,0,0,0,0,1,0,0,0,0,0,0,0,0],"split_type":[0,0,0,0,0,0,0,0,0,0,0,0,0,0,0,0,0,0,0],"sum_hessian":[2.4E1,2.2E1,2E0,2E0,2E1,1E0,1E0,1E0,1E0,1E0,1.9E1,1E0,1.8E1,1.6E1,2E0,1.5E1,1E0,1E0,1E0],"tree_param":{"num_deleted":"0","num_feature":"2","num_nodes":"19","size_leaf_vector":"0"}},{"base_weights":[3.7662286E-1,1.6575749E-1,1.8677164E0,1.0395304E0,3.3039574E-2,2.3167725E0,4.8480225E-1,1.255249E0,3.0404663E-1,-7.9585266E-1,1.1427682E-1,9.7698975E-1,1.745036E-2,9.029515E-2,-4.0115356E-1,-8.6698265E-6,7.675781E-1,-1.2461853E-1,-4.7711182E-1],"categories":[],"categories_nodes":[],"categories_segments":[],"categories_sizes":[],"default_left":[1,1,1,1,1,0,0,0,0,0,1,0,1,1,1,0,0,0,0],"id":33,"left_children":[1,3,5,7,9,-1,-1,-1,-1,-1,11,-1,13,15,17,-1,-1,-1,-1],"loss_changes":[7.550913E0,2.632857E0,7.398405E-1,9.431815E-2,1.5050229E0,0E0,0E0,0E0,0E0,0E0,1.65362E0,0E0,6.1559147E-1,1.0397477E0,3.5583675E-3,0E0,0E0,0E0,0E0],"parents":[2147483647,0,0,1,1,2,2,3,3,4,4,10,10,12,12,13,13,14,14],"right_children":[2,4,6,8,10,-1,-1,-1,-1,-1,12,-1,14,16,18,-1,-1,-1,-1],"split_conditions":[1.191245E2,6.155313E1,1.477086E2,4.525895E1,6.440879E1,6.9503176E-1,1.4544068E-1,3.7657472E-1,9.1213994E-2,-2.387558E-1,6.9693924E1,2.9309693E-1,7.747145E1,3.8679752E1,9.396E1,-2.600948E-6,2.3027344E-1,-3.738556E-2,-1.4313355E-1],"split_indices":[0,1,0,0,1,0,0,0,0,0,1,0,0,0,0,0,0,0,0],"split_type":[0,0,0,0,0,0,0,0,0,0,0,0,0,0,0,0,0,0,0],"sum_hessian":[2.4E1,2.2E1,2E0,2E0,2E1,1E0,1E0,1E0,1E0,1E0,1.9E1,1E0,1.8E1,1.6E1,2E0,1.5E1,1E0,1E0,1E0],"tree_param":{"num_deleted":"0","num_feature":"2","num_nodes":"19","size_leaf_vector":"0"}},{"base_weights":[3.2013395E-1,1.4089797E-1,1.5875651E0,8.8360596E-1,2.808741E-2,1.9692383E0,4.1210938E-1,1.0669556E0,2.5845337E-1,-6.764679E-1,9.713857E-2,8.3044434E-1,1.4835932E-2,7.675123E-2,-3.4096274E-1,-6.231438E-6,6.524353E-1,-1.0592651E-1,-4.0551758E-1],"categories":[],"categories_nodes":[],"categories_segments":[],"categories_sizes":[],"default_left":[1,1,1,1,1,0,0,0,0,0,1,0,1,1,1,0,0,0,0],"id":34,"left_children":[1,3,5,7,9,-1,-1,-1,-1,-1,11,-1,13,15,17,-1,-1,-1,-1],"loss_changes":[5.4555464E0,1.902244E0,5.3437805E-1,6.8106174E-2,1.0873687E0,0E0,0E0,0E0,0E0,0E0,1.1947395E0,0E0,4.4472757E-1,7.5120085E-1,2.5630891E-3,0E0,0E0,0E0,0E0],"parents":[2147483647,0,0,1,1,2,2,3,3,4,4,10,10,12,12,13,13,14,14],"right_children":[2,4,6,8,10,-1,-1,-1,-1,-1,12,-1,14,16,18,-1,-1,-1,-1],"split_conditions":[1.191245E2,6.155313E1,1.477086E2,4.525895E1,6.440879E1,5.907715E-1,1.2363282E-1,3.200867E-1,7.753602E-2,-2.0294037E-1,6.9693924E1,2.491333E-1,7.747145E1,3.8679752E1,9.396E1,-1.8694315E-6,1.957306E-1,-3.1777956E-2,-1.2165528E-1],"split_indices":[0,1,0,0,1,0,0,0,0,0,1,0,0,0,0,0,0,0,0],"split_type":[0,0,0,0,0,0,0,0,0,0,0,0,0,0,0,0,0,0,0],"sum_hessian":[2.4E1,2.2E1,2E0,2E0,2E1,1E0,1E0,1E0,1E0,1E0,1.9E1,1E0,1.8E1,1.6E1,2E0,1.5E1,1E0,1E0,1E0],"tree_param":{"num_deleted":"0","num_feature":"2","num_nodes":"19","size_leaf_vector":"0"}},{"base_weights":[2.7211383E-1,1.1976644E-1,1.3494059E0,7.510783E-1,2.3875866E-2,1.6738281E0,3.5028076E-1,9.069214E-1,2.1969604E-1,-5.7499695E-1,8.256935E-2,7.058716E-1,1.2612837E-2,6.5238774E-2,-2.8980508E-1,-4.4788458E-6,5.545654E-1,-9.0042114E-2,-3.4466553E-1],"categories":[],"categories_nodes":[],"categories_segments":[],"categories_sizes":[],"default_left":[1,1,1,1,1,0,0,0,0,0,1,0,1,1,1,0,0,0,0],"id":35,"left_children":[1,3,5,7,9,-1,-1,-1,-1,-1,11,-1,13,15,17,-1,-1,-1,-1],"loss_changes":[3.9414527E0,1.374415E0,3.8610554E-1,4.9189806E-2,7.8562576E-1,0E0,0E0,0E0,0E0,0E0,8.63178E-1,0E0,3.2129204E-1,5.4273194E-1,1.8428564E-3,0E0,0E0,0E0,0E0],"parents":[2147483647,0,0,1,1,2,2,3,3,4,4,10,10,12,12,13,13,14,14],"right_children":[2,4,6,8,10,-1,-1,-1,-1,-1,12,-1,14,16,18,-1,-1,-1,-1],"split_conditions":[1.191245E2,6.155313E1,1.477086E2,4.525895E1,6.440879E1,5.0214845E-1,1.0508423E-1,2.7207643E-1,6.590882E-2,-1.7249909E-1,6.9693924E1,2.1176149E-1,7.747145E1,3.8679752E1,9.396E1,-1.3436538E-6,1.6636963E-1,-2.7012635E-2,-1.03399664E-1],"split_indices":[0,1,0,0,1,0,0,0,0,0,1,0,0,0,0,0,0,0,0],"split_type":[0,0,0,0,0,0,0,0,0,0,0,0,0,0,0,0,0,0,0],"sum_hessian":[2.4E1,2.2E1,2E0,2E0,2E1,1E0,1E0,1E0,1E0,1E0,1.9E1,1E0,1.8E1,1.6E1,2E0,1.5E1,1E0,1E0,1E0],"tree_param":{"num_deleted":"0","num_feature":"2","num_nodes":"19","size_leaf_vector":"0"}},{"base_weights":[2.3129067E-1,1.0179777E-1,1.1469727E0,6.384074E-1,2.0291736E-2,1.4227295E0,2.977295E-1,7.70874E-1,1.8673706E-1,-4.8875427E-1,7.018175E-2,5.999756E-1,1.0720203E-2,5.5452794E-2,-2.4633789E-1,-3.2191704E-6,4.713745E-1,-7.6538086E-2,-2.9296875E-1],"categories":[],"categories_nodes":[],"categories_segments":[],"categories_sizes":[],"default_left":[1,1,1,1,1,0,0,0,0,0,1,0,1,1,1,0,0,0,0],"id":36,"left_children":[1,3,5,7,9,-1,-1,-1,-1,-1,11,-1,13,15,17,-1,-1,-1,-1],"loss_changes":[2.8475986E0,9.929948E-1,2.7896523E-1,3.5542965E-2,5.676242E-1,0E0,0E0,0E0,0E0,0E0,6.236154E-1,0E0,2.3213875E-1,3.9211264E-1,1.3304651E-3,0E0,0E0,0E0,0E0],"parents":[2147483647,0,0,1,1,2,2,3,3,4,4,10,10,12,12,13,13,14,14],"right_children":[2,4,6,8,10,-1,-1,-1,-1,-1,12,-1,14,16,18,-1,-1,-1,-1],"split_conditions":[1.191245E2,6.155313E1,1.477086E2,4.525895E1,6.440879E1,4.2681888E-1,8.931885E-2,2.3126222E-1,5.602112E-2,-1.466263E-1,6.9693924E1,1.7999268E-1,7.747145E1,3.8679752E1,9.396E1,-9.657512E-7,1.4141236E-1,-2.2961427E-2,-8.7890625E-2],"split_indices":[0,1,0,0,1,0,0,0,0,0,1,0,0,0,0,0,0,0,0],"split_type":[0,0,0,0,0,0,0,0,0,0,0,0,0,0,0,0,0,0,0],"sum_hessian":[2.4E1,2.2E1,2E0,2E0,2E1,1E0,1E0,1E0,1E0,1E0,1.9E1,1E0,1.8E1,1.6E1,2E0,1.5E1,1E0,1E0,1E0],"tree_param":{"num_deleted":"0","num_feature":"2","num_nodes":"19","size_leaf_vector":"0"}},{"base_weights":[1.9659519E-1,8.653032E-2,9.748942E-1,5.4264325E-1,1.7250841E-2,1.2092896E0,2.5305176E-1,6.552429E-1,1.5872192E-1,-4.154358E-1,5.9656963E-2,5.1000977E-1,9.111564E-3,4.7134914E-2,-2.0939128E-1,-2.3137789E-6,4.0066528E-1,-6.506348E-2,-2.4902344E-1],"categories":[],"categories_nodes":[],"categories_segments":[],"categories_sizes":[],"default_left":[1,1,1,1,1,0,0,0,0,0,1,0,1,1,1,0,0,0,0],"id":37,"left_children":[1,3,5,7,9,-1,-1,-1,-1,-1,11,-1,13,15,17,-1,-1,-1,-1],"loss_changes":[2.0572267E0,7.17422E-1,2.0157671E-1,2.568686E-2,4.1010344E-1,0E0,0E0,0E0,0E0,0E0,4.5061824E-1,0E0,1.6772562E-1,2.8329644E-1,9.5774233E-4,0E0,0E0,0E0,0E0],"parents":[2147483647,0,0,1,1,2,2,3,3,4,4,10,10,12,12,13,13,14,14],"right_children":[2,4,6,8,10,-1,-1,-1,-1,-1,12,-1,14,16,18,-1,-1,-1,-1],"split_conditions":[1.191245E2,6.155313E1,1.477086E2,4.525895E1,6.440879E1,3.627869E-1,7.591553E-2,1.9657288E-1,4.761658E-2,-1.2463074E-1,6.9693924E1,1.5300293E-1,7.747145E1,3.8679752E1,9.396E1,-6.941337E-7,1.2019959E-1,-1.9519044E-2,-7.470703E-2],"split_indices":[0,1,0,0,1,0,0,0,0,0,1,0,0,0,0,0,0,0,0],"split_type":[0,0,0,0,0,0,0,0,0,0,0,0,0,0,0,0,0,0,0],"sum_hessian":[2.4E1,2.2E1,2E0,2E0,2E1,1E0,1E0,1E0,1E0,1E0,1.9E1,1E0,1.8E1,1.6E1,2E0,1.5E1,1E0,1E0,1E0],"tree_param":{"num_deleted":"0","num_feature":"2","num_nodes":"19","size_leaf_vector":"0"}},{"base_weights":[1.6710831E-1,7.3554166E-2,8.28654E-1,4.6124268E-1,1.4667516E-2,1.0278931E0,2.1508789E-1,5.569458E-1,1.3491821E-1,-3.531189E-1,5.071278E-2,4.335327E-1,7.746852E-3,4.006622E-2,-1.7797852E-1,-1.6630286E-6,3.4057617E-1,-5.529785E-2,-2.1166992E-1],"categories":[],"categories_nodes":[],"categories_segments":[],"categories_sizes":[],"default_left":[1,1,1,1,1,0,0,0,0,0,1,0,1,1,1,0,0,0,0],"id":38,"left_children":[1,3,5,7,9,-1,-1,-1,-1,-1,11,-1,13,15,17,-1,-1,-1,-1],"loss_changes":[1.4863074E0,5.1831734E-1,1.4565206E-1,1.8548667E-2,2.9630378E-1,0E0,0E0,0E0,0E0,0E0,3.2560578E-1,0E0,1.2117893E-1,2.0469412E-1,6.9496036E-4,0E0,0E0,0E0,0E0],"parents":[2147483647,0,0,1,1,2,2,3,3,4,4,10,10,12,12,13,13,14,14],"right_children":[2,4,6,8,10,-1,-1,-1,-1,-1,12,-1,14,16,18,-1,-1,-1,-1],"split_conditions":[1.191245E2,6.155313E1,1.477086E2,4.525895E1,6.440879E1,3.0836794E-1,6.452637E-2,1.6708374E-1,4.0475465E-2,-1.0593567E-1,6.9693924E1,1.3005982E-1,7.747145E1,3.8679752E1,9.396E1,-4.989086E-7,1.0217286E-1,-1.6589357E-2,-6.350098E-2],"split_indices":[0,1,0,0,1,0,0,0,0,0,1,0,0,0,0,0,0,0,0],"split_type":[0,0,0,0,0,0,0,0,0,0,0,0,0,0,0,0,0,0,0],"sum_hessian":[2.4E1,2.2E1,2E0,2E0,2E1,1E0,1E0,1E0,1E0,1E0,1.9E1,1E0,1.8E1,1.6E1,2E0,1.5E1,1E0,1E0,1E0],"tree_param":{"num_deleted":"0","num_feature":"2","num_nodes":"19","size_leaf_vector":"0"}},{"base_weights":[1.4204147E-1,6.2521726E-2,7.043457E-1,3.9204916E-1,1.2469153E-2,8.7371826E-1,1.828003E-1,4.7338867E-1,1.1468506E-1,-3.0015564E-1,4.3108176E-2,3.6853027E-1,6.5843654E-3,3.4056492E-2,-1.5128581E-1,-1.1953018E-6,2.8948975E-1,-4.699707E-2,-1.7993164E-1],"categories":[],"categories_nodes":[],"categories_segments":[],"categories_sizes":[],"default_left":[1,1,1,1,1,0,0,0,0,0,1,0,1,1,1,0,0,0,0],"id":39,"left_children":[1,3,5,7,9,-1,-1,-1,-1,-1,11,-1,13,15,17,-1,-1,-1,-1],"loss_changes":[1.0738204E0,3.7446648E-1,1.0529065E-1,1.3391376E-2,2.1408805E-1,0E0,0E0,0E0,0E0,0E0,2.3528656E-1,0E0,8.7555826E-2,1.4789125E-1,5.060509E-4,0E0,0E0,0E0,0E0],"parents":[2147483647,0,0,1,1,2,2,3,3,4,4,10,10,12,12,13,13,14,14],"right_children":[2,4,6,8,10,-1,-1,-1,-1,-1,12,-1,14,16,18,-1,-1,-1,-1],"split_conditions":[1.191245E2,6.155313E1,1.477086E2,4.525895E1,6.440879E1,2.6211548E-1,5.484009E-2,1.420166E-1,3.440552E-2,-9.00467E-2,6.9693924E1,1.1055908E-1,7.747145E1,3.8679752E1,9.396E1,-3.5859057E-7,8.6846925E-2,-1.4099122E-2,-5.3979494E-2],"split_indices":[0,1,0,0,1,0,0,0,0,0,1,0,0,0,0,0,0,0,0],"split_type":[0,0,0,0,0,0,0,0,0,0,0,0,0,0,0,0,0,0,0],"sum_hessian":[2.4E1,2.2E1,2E0,2E0,2E1,1E0,1E0,1E0,1E0,1E0,1.9E1,1E0,1.8E1,1.6E1,2E0,1.5E1,1E0,1E0,1E0],"tree_param":{"num_deleted":"0","num_feature":"2","num_nodes":"19","size_leaf_vector":"0"}},{"base_weights":[1.2073431E-1,5.3139795E-2,5.987142E-1,3.332316E-1,1.0596211E-2,7.426758E-1,1.5539551E-1,4.0237427E-1,9.7473145E-2,-2.5512695E-1,3.6638718E-2,3.1323242E-1,5.5952366E-3,2.8947808E-2,-1.2860107E-1,-8.5912313E-7,2.4606323E-1,-3.994751E-2,-1.529541E-1],"categories":[],"categories_nodes":[],"categories_segments":[],"categories_sizes":[],"default_left":[1,1,1,1,1,0,0,0,0,0,1,0,1,1,1,0,0,0,0],"id":40,"left_children":[1,3,5,7,9,-1,-1,-1,-1,-1,11,-1,13,15,17,-1,-1,-1,-1],"loss_changes":[7.75905E-1,2.7053952E-1,7.6054096E-2,9.682208E-3,1.5466957E-1,0E0,0E0,0E0,0E0,0E0,1.6997601E-1,0E0,6.3265465E-2,1.0684864E-1,3.668107E-4,0E0,0E0,0E0,0E0],"parents":[2147483647,0,0,1,1,2,2,3,3,4,4,10,10,12,12,13,13,14,14],"right_children":[2,4,6,8,10,-1,-1,-1,-1,-1,12,-1,14,16,18,-1,-1,-1,-1],"split_conditions":[1.191245E2,6.155313E1,1.477086E2,4.525895E1,6.440879E1,2.2280274E-1,4.6618655E-2,1.2071229E-1,2.9241944E-2,-7.6538086E-2,6.9693924E1,9.396973E-2,7.747145E1,3.8679752E1,9.396E1,-2.5773696E-7,7.3818974E-2,-1.1984253E-2,-4.5886233E-2],"split_indices":[0,1,0,0,1,0,0,0,0,0,1,0,0,0,0,0,0,0,0],"split_type":[0,0,0,0,0,0,0,0,0,0,0,0,0,0,0,0,0,0,0],"sum_hessian":[2.4E1,2.2E1,2E0,2E0,2E1,1E0,1E0,1E0,1E0,1E0,1.9E1,1E0,1.8E1,1.6E1,2E0,1.5E1,1E0,1E0,1E0],"tree_param":{"num_deleted":"0","num_feature":"2","num_nodes":"19","size_leaf_vector":"0"}},{"base_weights":[1.0262534E-1,4.5169566E-2,5.0891113E-1,2.832438E-1,9.008028E-3,6.312866E-1,1.3208008E-1,3.420105E-1,8.2855225E-2,-2.1685791E-1,3.114422E-2,2.6623535E-1,4.758616E-3,2.4607359E-2,-1.09303795E-1,-6.174947E-7,2.0916748E-1,-3.3950806E-2,-1.3000488E-1],"categories":[],"categories_nodes":[],"categories_segments":[],"categories_sizes":[],"default_left":[1,1,1,1,1,0,0,0,0,0,1,0,1,1,1,0,0,0,0],"id":41,"left_children":[1,3,5,7,9,-1,-1,-1,-1,-1,11,-1,13,15,17,-1,-1,-1,-1],"loss_changes":[5.605993E-1,1.9545855E-1,5.4964244E-2,6.991163E-3,1.1174992E-1,0E0,0E0,0E0,0E0,0E0,1.2279352E-1,0E0,4.5705587E-2,7.720819E-2,2.6589632E-4,0E0,0E0,0E0,0E0],"parents":[2147483647,0,0,1,1,2,2,3,3,4,4,10,10,12,12,13,13,14,14],"right_children":[2,4,6,8,10,-1,-1,-1,-1,-1,12,-1,14,16,18,-1,-1,-1,-1],"split_conditions":[1.191245E2,6.155313E1,1.477086E2,4.525895E1,6.440879E1,1.89386E-1,3.9624024E-2,1.0260315E-1,2.485657E-2,-6.5057375E-2,6.9693924E1,7.987061E-2,7.747145E1,3.8679752E1,9.396E1,-1.8524842E-7,6.275025E-2,-1.0185242E-2,-3.9001465E-2],"split_indices":[0,1,0,0,1,0,0,0,0,0,1,0,0,0,0,0,0,0,0],"split_type":[0,0,0,0,0,0,0,0,0,0,0,0,0,0,0,0,0,0,0],"sum_hessian":[2.4E1,2.2E1,2E0,2E0,2E1,1E0,1E0,1E0,1E0,1E0,1.9E1,1E0,1.8E1,1.6E1,2E0,1.5E1,1E0,1E0,1E0],"tree_param":{"num_deleted":"0","num_feature":"2","num_nodes":"19","size_leaf_vector":"0"}},{"base_weights":[8.723238E-2,3.8394786E-2,4.325765E-1,2.4076335E-1,7.6566674E-3,5.366211E-1,1.1224365E-1,2.9071045E-1,7.043457E-2,-1.8432617E-1,2.6472118E-2,2.2631836E-1,4.0424024E-3,2.091669E-2,-9.2926025E-2,-4.4382435E-7,1.7779541E-1,-2.885437E-2,-1.1053467E-1],"categories":[],"categories_nodes":[],"categories_segments":[],"categories_sizes":[],"default_left":[1,1,1,1,1,0,0,0,0,0,1,0,1,1,1,0,0,0,0],"id":42,"left_children":[1,3,5,7,9,-1,-1,-1,-1,-1,11,-1,13,15,17,-1,-1,-1,-1],"loss_changes":[4.0503573E-1,1.4122641E-1,3.975439E-2,5.0462186E-3,8.0736615E-2,0E0,0E0,0E0,0E0,0E0,8.873502E-2,0E0,3.303289E-2,5.578478E-2,1.9523688E-4,0E0,0E0,0E0,0E0],"parents":[2147483647,0,0,1,1,2,2,3,3,4,4,10,10,12,12,13,13,14,14],"right_children":[2,4,6,8,10,-1,-1,-1,-1,-1,12,-1,14,16,18,-1,-1,-1,-1],"split_conditions":[1.191245E2,6.155313E1,1.477086E2,4.525895E1,6.440879E1,1.6098633E-1,3.3673096E-2,8.7213136E-2,2.1130372E-2,-5.5297855E-2,6.9693924E1,6.789551E-2,7.747145E1,3.8679752E1,9.396E1,-1.3314731E-7,5.3338625E-2,-8.656312E-3,-3.3160403E-2],"split_indices":[0,1,0,0,1,0,0,0,0,0,1,0,0,0,0,0,0,0,0],"split_type":[0,0,0,0,0,0,0,0,0,0,0,0,0,0,0,0,0,0,0],"sum_hessian":[2.4E1,2.2E1,2E0,2E0,2E1,1E0,1E0,1E0,1E0,1E0,1.9E1,1E0,1.8E1,1.6E1,2E0,1.5E1,1E0,1E0,1E0],"tree_param":{"num_deleted":"0","num_feature":"2","num_nodes":"19","size_leaf_vector":"0"}},{"base_weights":[7.414897E-2,3.2638993E-2,3.6767578E-1,2.0465088E-1,6.5116268E-3,4.5611572E-1,9.539795E-2,2.4710083E-1,5.987549E-2,-1.5667725E-1,2.2504933E-2,1.9238281E-1,3.4385805E-3,1.777888E-2,-7.896932E-2,-3.1899876E-7,1.5112305E-1,-2.4520874E-2,-9.3933105E-2],"categories":[],"categories_nodes":[],"categories_segments":[],"categories_sizes":[],"default_left":[1,1,1,1,1,0,0,0,0,0,1,0,1,1,1,0,0,0,0],"id":43,"left_children":[1,3,5,7,9,-1,-1,-1,-1,-1,11,-1,13,15,17,-1,-1,-1,-1],"loss_changes":[2.926067E-1,1.020344E-1,2.8728187E-2,3.641829E-3,5.8334533E-2,0E0,0E0,0E0,0E0,0E0,6.4117506E-2,0E0,2.3857314E-2,4.0302843E-2,1.4094263E-4,0E0,0E0,0E0,0E0],"parents":[2147483647,0,0,1,1,2,2,3,3,4,4,10,10,12,12,13,13,14,14],"right_children":[2,4,6,8,10,-1,-1,-1,-1,-1,12,-1,14,16,18,-1,-1,-1,-1],"split_conditions":[1.191245E2,6.155313E1,1.477086E2,4.525895E1,6.440879E1,1.3683473E-1,2.8619386E-2,7.413025E-2,1.7962648E-2,-4.7003176E-2,6.9693924E1,5.7714846E-2,7.747145E1,3.8679752E1,9.396E1,-9.569963E-8,4.5336917E-2,-7.3562623E-3,-2.8179932E-2],"split_indices":[0,1,0,0,1,0,0,0,0,0,1,0,0,0,0,0,0,0,0],"split_type":[0,0,0,0,0,0,0,0,0,0,0,0,0,0,0,0,0,0,0],"sum_hessian":[2.4E1,2.2E1,2E0,2E0,2E1,1E0,1E0,1E0,1E0,1E0,1.9E1,1E0,1.8E1,1.6E1,2E0,1.5E1,1E0,1E0,1E0],"tree_param":{"num_deleted":"0","num_feature":"2","num_nodes":"19","size_leaf_vector":"0"}},{"base_weights":[6.3027196E-2,2.7741646E-2,3.1254068E-1,1.739502E-1,5.5336794E-3,3.876953E-1,8.111572E-2,2.1002197E-1,5.090332E-2,-1.3317871E-1,1.9128235E-2,1.6351318E-1,2.9230698E-3,1.5111371E-2,-6.7118324E-2,-2.2928033E-7,1.2844849E-1,-2.0843506E-2,-7.9833984E-2],"categories":[],"categories_nodes":[],"categories_segments":[],"categories_sizes":[],"default_left":[1,1,1,1,1,0,0,0,0,0,1,0,1,1,1,0,0,0,0],"id":44,"left_children":[1,3,5,7,9,-1,-1,-1,-1,-1,11,-1,13,15,17,-1,-1,-1,-1],"loss_changes":[2.1143511E-1,7.371828E-2,2.072978E-2,2.6247501E-3,4.2147875E-2,0E0,0E0,0E0,0E0,0E0,4.6317674E-2,0E0,1.7234277E-2,2.9116016E-2,1.0122452E-4,0E0,0E0,0E0,0E0],"parents":[2147483647,0,0,1,1,2,2,3,3,4,4,10,10,12,12,13,13,14,14],"right_children":[2,4,6,8,10,-1,-1,-1,-1,-1,12,-1,14,16,18,-1,-1,-1,-1],"split_conditions":[1.191245E2,6.155313E1,1.477086E2,4.525895E1,6.440879E1,1.163086E-1,2.4334718E-2,6.3006595E-2,1.5270997E-2,-3.9953616E-2,6.9693924E1,4.9053956E-2,7.747145E1,3.8679752E1,9.396E1,-6.8784104E-8,3.8534548E-2,-6.253052E-3,-2.3950197E-2],"split_indices":[0,1,0,0,1,0,0,0,0,0,1,0,0,0,0,0,0,0,0],"split_type":[0,0,0,0,0,0,0,0,0,0,0,0,0,0,0,0,0,0,0],"sum_hessian":[2.4E1,2.2E1,2E0,2E0,2E1,1E0,1E0,1E0,1E0,1E0,1.9E1,1E0,1.8E1,1.6E1,2E0,1.5E1,1E0,1E0,1E0],"tree_param":{"num_deleted":"0","num_feature":"2","num_nodes":"19","size_leaf_vector":"0"}},{"base_weights":[5.3574115E-2,2.3580685E-2,2.6566568E-1,1.4786784E-1,4.702488E-3,3.295288E-1,6.896973E-2,1.7852783E-1,4.3273926E-2,-1.13204956E-1,1.6258107E-2,1.3897705E-1,2.4846345E-3,1.284595E-2,-5.7057697E-2,-1.6479522E-7,1.09191895E-1,-1.7715454E-2,-6.7871094E-2],"categories":[],"categories_nodes":[],"categories_segments":[],"categories_sizes":[],"default_left":[1,1,1,1,1,0,0,0,0,0,1,0,1,1,1,0,0,0,0],"id":45,"left_children":[1,3,5,7,9,-1,-1,-1,-1,-1,11,-1,13,15,17,-1,-1,-1,-1],"loss_changes":[1.5276924E-1,5.3269953E-2,1.4957339E-2,1.8949434E-3,3.0452864E-2,0E0,0E0,0E0,0E0,0E0,3.3460014E-2,0E0,1.2454761E-2,2.1040427E-2,7.390231E-5,0E0,0E0,0E0,0E0],"parents":[2147483647,0,0,1,1,2,2,3,3,4,4,10,10,12,12,13,13,14,14],"right_children":[2,4,6,8,10,-1,-1,-1,-1,-1,12,-1,14,16,18,-1,-1,-1,-1],"split_conditions":[1.191245E2,6.155313E1,1.477086E2,4.525895E1,6.440879E1,9.885865E-2,2.0690918E-2,5.3558353E-2,1.29821785E-2,-3.396149E-2,6.9693924E1,4.1693117E-2,7.747145E1,3.8679752E1,9.396E1,-4.943857E-8,3.275757E-2,-5.3146365E-3,-2.0361328E-2],"split_indices":[0,1,0,0,1,0,0,0,0,0,1,0,0,0,0,0,0,0,0],"split_type":[0,0,0,0,0,0,0,0,0,0,0,0,0,0,0,0,0,0,0],"sum_hessian":[2.4E1,2.2E1,2E0,2E0,2E1,1E0,1E0,1E0,1E0,1E0,1.9E1,1E0,1.8E1,1.6E1,2E0,1.5E1,1E0,1E0,1E0],"tree_param":{"num_deleted":"0","num_feature":"2","num_nodes":"19","size_leaf_vector":"0"}},{"base_weights":[4.553093E-2,2.0039352E-2,2.2578938E-1,1.2567139E-1,3.994806E-3,2.8009033E-1,5.859375E-2,1.517334E-1,3.677368E-2,-9.6221924E-2,1.38167385E-2,1.1810303E-1,2.112038E-3,1.0918001E-2,-4.849243E-2,-1.1844657E-7,9.2803955E-2,-1.5060425E-2,-5.7678223E-2],"categories":[],"categories_nodes":[],"categories_segments":[],"categories_sizes":[],"default_left":[1,1,1,1,1,0,0,0,0,0,1,0,1,1,1,0,0,0,0],"id":46,"left_children":[1,3,5,7,9,-1,-1,-1,-1,-1,11,-1,13,15,17,-1,-1,-1,-1],"loss_changes":[1.1035214E-1,3.847878E-2,1.0825098E-2,1.3707615E-3,2.2000236E-2,0E0,0E0,0E0,0E0,0E0,2.4163358E-2,0E0,8.996241E-3,1.5198702E-2,5.2640215E-5,0E0,0E0,0E0,0E0],"parents":[2147483647,0,0,1,1,2,2,3,3,4,4,10,10,12,12,13,13,14,14],"right_children":[2,4,6,8,10,-1,-1,-1,-1,-1,12,-1,14,16,18,-1,-1,-1,-1],"split_conditions":[1.191245E2,6.155313E1,1.477086E2,4.525895E1,6.440879E1,8.4027104E-2,1.7578125E-2,4.5520023E-2,1.10321045E-2,-2.8866578E-2,6.9693924E1,3.543091E-2,7.747145E1,3.8679752E1,9.396E1,-3.5533972E-8,2.7841188E-2,-4.5181275E-3,-1.7303467E-2],"split_indices":[0,1,0,0,1,0,0,0,0,0,1,0,0,0,0,0,0,0,0],"split_type":[0,0,0,0,0,0,0,0,0,0,0,0,0,0,0,0,0,0,0],"sum_hessian":[2.4E1,2.2E1,2E0,2E0,2E1,1E0,1E0,1E0,1E0,1E0,1.9E1,1E0,1.8E1,1.6E1,2E0,1.5E1,1E0,1E0,1E0],"tree_param":{"num_deleted":"0","num_feature":"2","num_nodes":"19","size_leaf_vector":"0"}},{"base_weights":[3.870478E-2,1.7035384E-2,1.9193523E-1,1.0681152E-1,3.3990121E-3,2.3809814E-1,4.9804688E-2,1.2896729E-1,3.125E-2,-8.178711E-2,1.1747673E-2,1.0040283E-1,1.797253E-3,9.280854E-3,-4.1208904E-2,-8.513347E-8,7.888794E-2,-1.2802124E-2,-4.901123E-2],"categories":[],"categories_nodes":[],"categories_segments":[],"categories_sizes":[],"default_left":[1,1,1,1,1,0,0,0,0,0,1,0,1,1,1,0,0,0,0],"id":47,"left_children":[1,3,5,7,9,-1,-1,-1,-1,-1,11,-1,13,15,17,-1,-1,-1,-1],"loss_changes":[7.9740584E-2,2.7794026E-2,7.825084E-3,9.921417E-4,1.58958E-2,0E0,0E0,0E0,0E0,0E0,1.7462673E-2,0E0,6.497431E-3,1.0982332E-2,3.746897E-5,0E0,0E0,0E0,0E0],"parents":[2147483647,0,0,1,1,2,2,3,3,4,4,10,10,12,12,13,13,14,14],"right_children":[2,4,6,8,10,-1,-1,-1,-1,-1,12,-1,14,16,18,-1,-1,-1,-1],"split_conditions":[1.191245E2,6.155313E1,1.477086E2,4.525895E1,6.440879E1,7.142945E-2,1.4941406E-2,3.8690187E-2,9.375E-3,-2.4536135E-2,6.9693924E1,3.0120851E-2,7.747145E1,3.8679752E1,9.396E1,-2.5540043E-8,2.3666384E-2,-3.8406374E-3,-1.470337E-2],"split_indices":[0,1,0,0,1,0,0,0,0,0,1,0,0,0,0,0,0,0,0],"split_type":[0,0,0,0,0,0,0,0,0,0,0,0,0,0,0,0,0,0,0],"sum_hessian":[2.4E1,2.2E1,2E0,2E0,2E1,1E0,1E0,1E0,1E0,1E0,1.9E1,1E0,1.8E1,1.6E1,2E0,1.5E1,1E0,1E0,1E0],"tree_param":{"num_deleted":"0","num_feature":"2","num_nodes":"19","size_leaf_vector":"0"}},{"base_weights":[3.289669E-2,1.4474577E-2,1.6316731E-1,9.0779625E-2,2.8845912E-3,2.0239258E-1,4.23584E-2,1.0961914E-1,2.6550293E-2,-6.951904E-2,9.980725E-3,8.532715E-2,1.5242212E-3,7.887838E-3,-3.5044353E-2,-6.118968E-8,6.704712E-2,-1.0879517E-2,-4.168701E-2],"categories":[],"categories_nodes":[],"categories_segments":[],"categories_sizes":[],"default_left":[1,1,1,1,1,0,0,0,0,0,1,0,1,1,1,0,0,0,0],"id":48,"left_children":[1,3,5,7,9,-1,-1,-1,-1,-1,11,-1,13,15,17,-1,-1,-1,-1],"loss_changes":[5.7634726E-2,2.007875E-2,5.643256E-3,7.1972795E-4,1.1483354E-2,0E0,0E0,0E0,0E0,0E0,1.2613289E-2,0E0,4.697884E-3,7.9329265E-3,2.8021866E-5,0E0,0E0,0E0,0E0],"parents":[2147483647,0,0,1,1,2,2,3,3,4,4,10,10,12,12,13,13,14,14],"right_children":[2,4,6,8,10,-1,-1,-1,-1,-1,12,-1,14,16,18,-1,-1,-1,-1],"split_conditions":[1.191245E2,6.155313E1,1.477086E2,4.525895E1,6.440879E1,6.0717776E-2,1.270752E-2,3.2885745E-2,7.965088E-3,-2.0855714E-2,6.9693924E1,2.5598146E-2,7.747145E1,3.8679752E1,9.396E1,-1.8356905E-8,2.0114137E-2,-3.2638551E-3,-1.2506104E-2],"split_indices":[0,1,0,0,1,0,0,0,0,0,1,0,0,0,0,0,0,0,0],"split_type":[0,0,0,0,0,0,0,0,0,0,0,0,0,0,0,0,0,0,0],"sum_hessian":[2.4E1,2.2E1,2E0,2E0,2E1,1E0,1E0,1E0,1E0,1E0,1.9E1,1E0,1.8E1,1.6E1,2E0,1.5E1,1E0,1E0,1E0],"tree_param":{"num_deleted":"0","num_feature":"2","num_nodes":"19","size_leaf_vector":"0"}},{"base_weights":[2.7957736E-2,1.22959E-2,1.3871257E-1,7.714844E-2,2.4457325E-3,1.720581E-1,3.6010742E-2,9.3170166E-2,2.255249E-2,-5.909729E-2,8.477748E-3,7.2509766E-2,1.2913384E-3,6.703055E-3,-2.9805502E-2,-4.398008E-8,5.697632E-2,-9.246826E-3,-3.5461426E-2],"categories":[],"categories_nodes":[],"categories_segments":[],"categories_sizes":[],"default_left":[1,1,1,1,1,0,0,0,0,0,1,0,1,1,1,0,0,0,0],"id":49,"left_children":[1,3,5,7,9,-1,-1,-1,-1,-1,11,-1,13,15,17,-1,-1,-1,-1],"loss_changes":[4.1660003E-2,1.45039065E-2,4.0780045E-3,5.229451E-4,8.296809E-3,0E0,0E0,0E0,0E0,0E0,9.109572E-3,0E0,3.3972461E-3,5.7287756E-3,2.092938E-5,0E0,0E0,0E0,0E0],"parents":[2147483647,0,0,1,1,2,2,3,3,4,4,10,10,12,12,13,13,14,14],"right_children":[2,4,6,8,10,-1,-1,-1,-1,-1,12,-1,14,16,18,-1,-1,-1,-1],"split_conditions":[1.191245E2,6.155313E1,1.477086E2,4.525895E1,6.440879E1,5.1617432E-2,1.0803223E-2,2.795105E-2,6.7657474E-3,-1.7729187E-2,6.9693924E1,2.1752931E-2,7.747145E1,3.8679752E1,9.396E1,-1.31940245E-8,1.7092897E-2,-2.774048E-3,-1.0638428E-2],"split_indices":[0,1,0,0,1,0,0,0,0,0,1,0,0,0,0,0,0,0,0],"split_type":[0,0,0,0,0,0,0,0,0,0,0,0,0,0,0,0,0,0,0],"sum_hessian":[2.4E1,2.2E1,2E0,2E0,2E1,1E0,1E0,1E0,1E0,1E0,1.9E1,1E0,1.8E1,1.6E1,2E0,1.5E1,1E0,1E0,1E0],"tree_param":{"num_deleted":"0","num_feature":"2","num_nodes":"19","size_leaf_vector":"0"}},{"base_weights":[2.3765849E-2,1.0451585E-2,1.1791992E-1,6.5572105E-2,2.0795309E-3,1.4624023E-1,3.0639648E-2,7.9193115E-2,1.9165039E-2,-5.0231934E-2,7.2067007E-3,6.1645508E-2,1.097E-3,5.6977817E-3,-2.5339762E-2,-3.1610682E-8,4.8431396E-2,-7.858276E-3,-3.0151367E-2],"categories":[],"categories_nodes":[],"categories_segments":[],"categories_sizes":[],"default_left":[1,1,1,1,1,0,0,0,0,0,1,0,1,1,1,0,0,0,0],"id":50,"left_children":[1,3,5,7,9,-1,-1,-1,-1,-1,11,-1,13,15,17,-1,-1,-1,-1],"loss_changes":[3.0107353E-2,1.0477495E-2,2.9346645E-3,3.7859473E-4,5.9944117E-3,0E0,0E0,0E0,0E0,0E0,6.5844716E-3,0E0,2.4553463E-3,4.1393E-3,1.5404192E-5,0E0,0E0,0E0,0E0],"parents":[2147483647,0,0,1,1,2,2,3,3,4,4,10,10,12,12,13,13,14,14],"right_children":[2,4,6,8,10,-1,-1,-1,-1,-1,12,-1,14,16,18,-1,-1,-1,-1],"split_conditions":[1.191245E2,6.155313E1,1.477086E2,4.525895E1,6.440879E1,4.3872073E-2,9.191895E-3,2.3757936E-2,5.749512E-3,-1.5069581E-2,6.9693924E1,1.8493652E-2,7.747145E1,3.8679752E1,9.396E1,-9.483205E-9,1.4529419E-2,-2.357483E-3,-9.045411E-3],"split_indices":[0,1,0,0,1,0,0,0,0,0,1,0,0,0,0,0,0,0,0],"split_type":[0,0,0,0,0,0,0,0,0,0,0,0,0,0,0,0,0,0,0],"sum_hessian":[2.4E1,2.2E1,2E0,2E0,2E1,1E0,1E0,1E0,1E0,1E0,1.9E1,1E0,1.8E1,1.6E1,2E0,1.5E1,1E0,1E0,1E0],"tree_param":{"num_deleted":"0","num_feature":"2","num_nodes":"19","size_leaf_vector":"0"}},{"base_weights":[2.0202622E-2,8.881927E-3,1.00260414E-1,5.574544E-2,1.7641893E-3,1.2432861E-1,2.6062012E-2,6.732178E-2,1.6296387E-2,-4.269409E-2,6.121808E-3,5.2368164E-2,9.315701E-4,4.843298E-3,-2.154541E-2,-2.2720176E-8,4.1168213E-2,-6.6833496E-3,-2.5634766E-2],"categories":[],"categories_nodes":[],"categories_segments":[],"categories_sizes":[],"default_left":[1,1,1,1,1,0,0,0,0,0,1,0,1,1,1,0,0,0,0],"id":51,"left_children":[1,3,5,7,9,-1,-1,-1,-1,-1,11,-1,13,15,17,-1,-1,-1,-1],"loss_changes":[2.1767244E-2,7.573584E-3,2.117211E-3,2.72925E-4,4.329742E-3,0E0,0E0,0E0,0E0,0E0,4.751807E-3,0E0,1.7749036E-3,2.9908654E-3,1.1002645E-5,0E0,0E0,0E0,0E0],"parents":[2147483647,0,0,1,1,2,2,3,3,4,4,10,10,12,12,13,13,14,14],"right_children":[2,4,6,8,10,-1,-1,-1,-1,-1,12,-1,14,16,18,-1,-1,-1,-1],"split_conditions":[1.191245E2,6.155313E1,1.477086E2,4.525895E1,6.440879E1,3.7298586E-2,7.818604E-3,2.0196535E-2,4.8889164E-3,-1.2808228E-2,6.9693924E1,1.571045E-2,7.747145E1,3.8679752E1,9.396E1,-6.816053E-9,1.2350464E-2,-2.005005E-3,-7.69043E-3],"split_indices":[0,1,0,0,1,0,0,0,0,0,1,0,0,0,0,0,0,0,0],"split_type":[0,0,0,0,0,0,0,0,0,0,0,0,0,0,0,0,0,0,0],"sum_hessian":[2.4E1,2.2E1,2E0,2E0,2E1,1E0,1E0,1E0,1E0,1E0,1.9E1,1E0,1.8E1,1.6E1,2E0,1.5E1,1E0,1E0,1E0],"tree_param":{"num_deleted":"0","num_feature":"2","num_nodes":"19","size_leaf_vector":"0"}},{"base_weights":[1.71704E-2,7.549772E-3,8.520508E-2,4.7383625E-2,1.4997085E-3,1.05651855E-1,2.2155762E-2,5.722046E-2,1.38549805E-2,-3.62854E-2,5.203234E-3,4.449463E-2,7.934433E-4,4.1180626E-3,-1.8310547E-2,-1.6330125E-8,3.5003662E-2,-5.6762695E-3,-2.178955E-2],"categories":[],"categories_nodes":[],"categories_segments":[],"categories_sizes":[],"default_left":[1,1,1,1,1,0,0,0,0,0,1,0,1,1,1,0,0,0,0],"id":52,"left_children":[1,3,5,7,9,-1,-1,-1,-1,-1,11,-1,13,15,17,-1,-1,-1,-1],"loss_changes":[1.5720129E-2,5.4718778E-3,1.5266687E-3,1.9665854E-4,3.1275018E-3,0E0,0E0,0E0,0E0,0E0,3.4300326E-3,0E0,1.2821604E-3,2.1622193E-3,8.1807375E-6,0E0,0E0,0E0,0E0],"parents":[2147483647,0,0,1,1,2,2,3,3,4,4,10,10,12,12,13,13,14,14],"right_children":[2,4,6,8,10,-1,-1,-1,-1,-1,12,-1,14,16,18,-1,-1,-1,-1],"split_conditions":[1.191245E2,6.155313E1,1.477086E2,4.525895E1,6.440879E1,3.169556E-2,6.6467286E-3,1.7166138E-2,4.1564945E-3,-1.08856205E-2,6.9693924E1,1.3348389E-2,7.747145E1,3.8679752E1,9.396E1,-4.8990376E-9,1.0501099E-2,-1.702881E-3,-6.5368656E-3],"split_indices":[0,1,0,0,1,0,0,0,0,0,1,0,0,0,0,0,0,0,0],"split_type":[0,0,0,0,0,0,0,0,0,0,0,0,0,0,0,0,0,0,0],"sum_hessian":[2.4E1,2.2E1,2E0,2E0,2E1,1E0,1E0,1E0,1E0,1E0,1.9E1,1E0,1.8E1,1.6E1,2E0,1.5E1,1E0,1E0,1E0],"tree_param":{"num_deleted":"0","num_feature":"2","num_nodes":"19","size_leaf_vector":"0"}},{"base_weights":[1.4600823E-2,6.4232787E-3,7.242838E-2,4.0283203E-2,1.2802761E-3,8.9782715E-2,1.8859863E-2,4.864502E-2,1.1779785E-2,-3.0838013E-2,4.428091E-3,3.7841797E-2,6.778016E-4,3.5005347E-3,-1.554362E-2,-1.1737278E-8,2.9754639E-2,-4.8217773E-3,-1.8493652E-2],"categories":[],"categories_nodes":[],"categories_segments":[],"categories_sizes":[],"default_left":[1,1,1,1,1,0,0,0,0,0,1,0,1,1,1,0,0,0,0],"id":53,"left_children":[1,3,5,7,9,-1,-1,-1,-1,-1,11,-1,13,15,17,-1,-1,-1,-1],"loss_changes":[1.1356958E-2,3.953685E-3,1.095647E-3,1.4199317E-4,2.2597048E-3,0E0,0E0,0E0,0E0,0E0,2.480572E-3,0E0,9.243971E-4,1.5623635E-3,5.7170982E-6,0E0,0E0,0E0,0E0],"parents":[2147483647,0,0,1,1,2,2,3,3,4,4,10,10,12,12,13,13,14,14],"right_children":[2,4,6,8,10,-1,-1,-1,-1,-1,12,-1,14,16,18,-1,-1,-1,-1],"split_conditions":[1.191245E2,6.155313E1,1.477086E2,4.525895E1,6.440879E1,2.6934816E-2,5.6579593E-3,1.4593506E-2,3.5339356E-3,-9.251405E-3,6.9693924E1,1.1352539E-2,7.747145E1,3.8679752E1,9.396E1,-3.5211836E-9,8.926392E-3,-1.4465332E-3,-5.548096E-3],"split_indices":[0,1,0,0,1,0,0,0,0,0,1,0,0,0,0,0,0,0,0],"split_type":[0,0,0,0,0,0,0,0,0,0,0,0,0,0,0,0,0,0,0],"sum_hessian":[2.4E1,2.2E1,2E0,2E0,2E1,1E0,1E0,1E0,1E0,1E0,1.9E1,1E0,1.8E1,1.6E1,2E0,1.5E1,1E0,1E0,1E0],"tree_param":{"num_deleted":"0","num_feature":"2","num_nodes":"19","size_leaf_vector":"0"}},{"base_weights":[1.2408442E-2,5.4573333E-3,6.156413E-2,3.4240723E-2,1.0855474E-3,7.6293945E-2,1.6052246E-2,4.135132E-2,1.0009766E-2,-2.62146E-2,3.7612848E-3,3.2165527E-2,5.7340215E-4,2.9763535E-3,-1.3234456E-2,-8.436168E-9,2.5299072E-2,-4.1046143E-3,-1.574707E-2],"categories":[],"categories_nodes":[],"categories_segments":[],"categories_sizes":[],"default_left":[1,1,1,1,1,0,0,0,0,0,1,0,1,1,1,0,0,0,0],"id":54,"left_children":[1,3,5,7,9,-1,-1,-1,-1,-1,11,-1,13,15,17,-1,-1,-1,-1],"loss_changes":[8.206187E-3,2.8570308E-3,7.864563E-4,1.0297261E-4,1.632609E-3,0E0,0E0,0E0,0E0,0E0,1.7925441E-3,0E0,6.69803E-4,1.1294886E-3,4.1836756E-6,0E0,0E0,0E0,0E0],"parents":[2147483647,0,0,1,1,2,2,3,3,4,4,10,10,12,12,13,13,14,14],"right_children":[2,4,6,8,10,-1,-1,-1,-1,-1,12,-1,14,16,18,-1,-1,-1,-1],"split_conditions":[1.191245E2,6.155313E1,1.477086E2,4.525895E1,6.440879E1,2.2888184E-2,4.815674E-3,1.2405396E-2,3.0029297E-3,-7.86438E-3,6.9693924E1,9.649659E-3,7.747145E1,3.8679752E1,9.396E1,-2.5308506E-9,7.589722E-3,-1.2313843E-3,-4.724121E-3],"split_indices":[0,1,0,0,1,0,0,0,0,0,1,0,0,0,0,0,0,0,0],"split_type":[0,0,0,0,0,0,0,0,0,0,0,0,0,0,0,0,0,0,0],"sum_hessian":[2.4E1,2.2E1,2E0,2E0,2E1,1E0,1E0,1E0,1E0,1E0,1.9E1,1E0,1.8E1,1.6E1,2E0,1.5E1,1E0,1E0,1E0],"tree_param":{"num_deleted":"0","num_feature":"2","num_nodes":"19","size_leaf_vector":"0"}},{"base_weights":[1.0550533E-2,4.642648E-3,5.2327473E-2,2.911377E-2,9.2569523E-4,6.4819336E-2,1.3671875E-2,3.515625E-2,8.514404E-3,-2.2277832E-2,3.1997631E-3,2.734375E-2,4.898823E-4,2.531158E-3,-1.1240642E-2,-6.063496E-9,2.1514893E-2,-3.4942627E-3,-1.3366699E-2],"categories":[],"categories_nodes":[],"categories_segments":[],"categories_sizes":[],"default_left":[1,1,1,1,1,0,0,0,0,0,1,0,1,1,1,0,0,0,0],"id":55,"left_children":[1,3,5,7,9,-1,-1,-1,-1,-1,11,-1,13,15,17,-1,-1,-1,-1],"loss_changes":[5.927395E-3,2.0650837E-3,5.624397E-4,7.407926E-5,1.1793781E-3,0E0,0E0,0E0,0E0,0E0,1.2951514E-3,0E0,4.834113E-4,8.168663E-4,2.700981E-6,0E0,0E0,0E0,0E0],"parents":[2147483647,0,0,1,1,2,2,3,3,4,4,10,10,12,12,13,13,14,14],"right_children":[2,4,6,8,10,-1,-1,-1,-1,-1,12,-1,14,16,18,-1,-1,-1,-1],"split_conditions":[1.191245E2,6.155313E1,1.477086E2,4.525895E1,6.440879E1,1.9445801E-2,4.101563E-3,1.0546875E-2,2.5543214E-3,-6.68335E-3,6.9693924E1,8.203126E-3,7.747145E1,3.8679752E1,9.396E1,-1.8190488E-9,6.4544682E-3,-1.0482789E-3,-4.01001E-3],"split_indices":[0,1,0,0,1,0,0,0,0,0,1,0,0,0,0,0,0,0,0],"split_type":[0,0,0,0,0,0,0,0,0,0,0,0,0,0,0,0,0,0,0],"sum_hessian":[2.4E1,2.2E1,2E0,2E0,2E1,1E0,1E0,1E0,1E0,1E0,1.9E1,1E0,1.8E1,1.6E1,2E0,1.5E1,1E0,1E0,1E0],"tree_param":{"num_deleted":"0","num_feature":"2","num_nodes":"19","size_leaf_vector":"0"}},{"base_weights":[8.967282E-3,3.9460524E-3,4.4474285E-2,2.4739584E-2,7.8764086E-4,5.5114746E-2,1.159668E-2,2.9876709E-2,7.232666E-3,-1.8936157E-2,2.7206386E-3,2.3254395E-2,4.159991E-4,2.1505875E-3,-9.552002E-3,-4.3581374E-9,1.828003E-2,-2.9754639E-3,-1.1352539E-2],"categories":[],"categories_nodes":[],"categories_segments":[],"categories_sizes":[],"default_left":[1,1,1,1,1,0,0,0,0,0,1,0,1,1,1,0,0,0,0],"id":56,"left_children":[1,3,5,7,9,-1,-1,-1,-1,-1,11,-1,13,15,17,-1,-1,-1,-1],"loss_changes":[4.281723E-3,1.4910283E-3,4.103505E-4,5.3717406E-5,8.521656E-4,0E0,0E0,0E0,0E0,0E0,9.367843E-4,0E0,3.490596E-4,5.896935E-4,1.7448328E-6,0E0,0E0,0E0,0E0],"parents":[2147483647,0,0,1,1,2,2,3,3,4,4,10,10,12,12,13,13,14,14],"right_children":[2,4,6,8,10,-1,-1,-1,-1,-1,12,-1,14,16,18,-1,-1,-1,-1],"split_conditions":[1.191245E2,6.155313E1,1.477086E2,4.525895E1,6.440879E1,1.6534425E-2,3.4790041E-3,8.963013E-3,2.1698E-3,-5.6808474E-3,6.9693924E1,6.9763185E-3,7.747145E1,3.8679752E1,9.396E1,-1.3074413E-9,5.484009E-3,-8.926392E-4,-3.405762E-3],"split_indices":[0,1,0,0,1,0,0,0,0,0,1,0,0,0,0,0,0,0,0],"split_type":[0,0,0,0,0,0,0,0,0,0,0,0,0,0,0,0,0,0,0],"sum_hessian":[2.4E1,2.2E1,2E0,2E0,2E1,1E0,1E0,1E0,1E0,1E0,1.9E1,1E0,1.8E1,1.6E1,2E0,1.5E1,1E0,1E0,1E0],"tree_param":{"num_deleted":"0","num_feature":"2","num_nodes":"19","size_leaf_vector":"0"}},{"base_weights":[7.620848E-3,3.3529508E-3,3.7801106E-2,2.101644E-2,6.699311E-4,4.6875E-2,9.82666E-3,2.5390625E-2,6.134033E-3,-1.6098022E-2,2.31323E-3,1.977539E-2,3.533588E-4,1.8274614E-3,-8.117676E-3,-3.1324114E-9,1.5533447E-2,-2.532959E-3,-9.643555E-3],"categories":[],"categories_nodes":[],"categories_segments":[],"categories_sizes":[],"default_left":[1,1,1,1,1,0,0,0,0,0,1,0,1,1,1,0,0,0,0],"id":57,"left_children":[1,3,5,7,9,-1,-1,-1,-1,-1,11,-1,13,15,17,-1,-1,-1,-1],"loss_changes":[3.0934107E-3,1.0759247E-3,3.0088658E-4,3.9548264E-5,6.1588833E-4,0E0,0E0,0E0,0E0,0E0,6.7748385E-4,0E0,2.5209103E-4,4.2580251E-4,1.1380762E-6,0E0,0E0,0E0,0E0],"parents":[2147483647,0,0,1,1,2,2,3,3,4,4,10,10,12,12,13,13,14,14],"right_children":[2,4,6,8,10,-1,-1,-1,-1,-1,12,-1,14,16,18,-1,-1,-1,-1],"split_conditions":[1.191245E2,6.155313E1,1.477086E2,4.525895E1,6.440879E1,1.4062501E-2,2.9479982E-3,7.6171877E-3,1.84021E-3,-4.8294067E-3,6.9693924E1,5.9326175E-3,7.747145E1,3.8679752E1,9.396E1,-9.397235E-10,4.6600346E-3,-7.5988774E-4,-2.8930665E-3],"split_indices":[0,1,0,0,1,0,0,0,0,0,1,0,0,0,0,0,0,0,0],"split_type":[0,0,0,0,0,0,0,0,0,0,0,0,0,0,0,0,0,0,0],"sum_hessian":[2.4E1,2.2E1,2E0,2E0,2E1,1E0,1E0,1E0,1E0,1E0,1.9E1,1E0,1.8E1,1.6E1,2E0,1.5E1,1E0,1E0,1E0],"tree_param":{"num_deleted":"0","num_feature":"2","num_nodes":"19","size_leaf_vector":"0"}},{"base_weights":[6.4794905E-3,2.8500748E-3,3.2145184E-2,1.7862955E-2,5.6965975E-4,3.9855957E-2,8.361816E-3,2.1575928E-2,5.218506E-3,-1.3687134E-2,1.9668562E-3,1.6784668E-2,3.035677E-4,1.5545993E-3,-6.8868003E-3,-2.2514208E-9,1.3214111E-2],"categories":[],"categories_nodes":[],"categories_segments":[],"categories_sizes":[],"default_left":[1,1,1,1,1,0,0,0,0,0,1,0,1,1,0,0,0],"id":58,"left_children":[1,3,5,7,9,-1,-1,-1,-1,-1,11,-1,13,15,-1,-1,-1],"loss_changes":[2.2371705E-3,7.77243E-4,2.1689641E-4,2.825138E-5,4.4523098E-4,0E0,0E0,0E0,0E0,0E0,4.8783058E-4,0E0,1.8161836E-4,3.0814024E-4,7.56394E-7,0E0,0E0],"parents":[2147483647,0,0,1,1,2,2,3,3,4,4,10,10,12,12,13,13],"right_children":[2,4,6,8,10,-1,-1,-1,-1,-1,12,-1,14,16,-1,-1,-1],"split_conditions":[1.191245E2,6.155313E1,1.477086E2,4.525895E1,6.440879E1,1.1956788E-2,2.508545E-3,6.4727785E-3,1.5655519E-3,-4.10614E-3,6.9693924E1,5.0354004E-3,7.747145E1,3.8679752E1,-2.0660402E-3,-6.7542627E-10,3.9642337E-3],"split_indices":[0,1,0,0,1,0,0,0,0,0,1,0,0,0,0,0,0],"split_type":[0,0,0,0,0,0,0,0,0,0,0,0,0,0,0,0,0],"sum_hessian":[2.4E1,2.2E1,2E0,2E0,2E1,1E0,1E0,1E0,1E0,1E0,1.9E1,1E0,1.8E1,1.6E1,2E0,1.5E1,1E0],"tree_param":{"num_deleted":"0","num_feature":"2","num_nodes":"17","size_leaf_vector":"0"}},{"base_weights":[5.548095E-3,2.469269E-3,2.730306E-2,1.5177409E-2,5.362362E-4,3.387451E-2,7.080078E-3,1.8341064E-2,4.425049E-3,-1.1627197E-2,1.7257677E-3,1.4282227E-2,3.1320535E-4,1.1240627E-3,-7.1411133E-3,-1.6182086E-9,6.7443848E-3],"categories":[],"categories_nodes":[],"categories_segments":[],"categories_sizes":[],"default_left":[1,1,1,1,1,0,0,0,0,0,1,0,1,1,0,0,0],"id":59,"left_children":[1,3,5,7,9,-1,-1,-1,-1,-1,11,-1,13,15,-1,-1,-1],"loss_changes":[1.6070749E-3,5.568621E-4,1.5884894E-4,2.0890206E-5,3.239104E-4,0E0,0E0,0E0,0E0,0E0,3.5026236E-4,0E0,1.2287045E-4,1.1371687E-4,0E0,0E0,0E0],"parents":[2147483647,0,0,1,1,2,2,3,3,4,4,10,10,12,12,13,13],"right_children":[2,4,6,8,10,-1,-1,-1,-1,-1,12,-1,14,16,-1,-1,-1],"split_conditions":[1.191245E2,6.155313E1,1.477086E2,4.525895E1,6.440879E1,1.01623535E-2,2.1240236E-3,5.5023194E-3,1.3275146E-3,-3.4881593E-3,6.9693924E1,4.2846682E-3,9.396E1,3.8679752E1,-2.1423341E-3,-4.854626E-10,2.0233155E-3],"split_indices":[0,1,0,0,1,0,0,0,0,0,1,0,0,0,0,0,0],"split_type":[0,0,0,0,0,0,0,0,0,0,0,0,0,0,0,0,0],"sum_hessian":[2.4E1,2.2E1,2E0,2E0,2E1,1E0,1E0,1E0,1E0,1E0,1.9E1,1E0,1.8E1,1.7E1,1E0,1.5E1,2E0],"tree_param":{"num_deleted":"0","num_feature":"2","num_nodes":"17","size_leaf_vector":"0"}},{"base_weights":[4.681396E-3,2.0579454E-3,2.3234049E-2,1.2898763E-2,4.112598E-4,2.8808594E-2,6.0424805E-3,1.5594482E-2,3.753662E-3,-9.887695E-3,1.4205923E-3,1.2145996E-2,2.1683445E-4,1.2027505E-3,-5.4423013E-3,-1.1630873E-9,1.0223389E-2],"categories":[],"categories_nodes":[],"categories_segments":[],"categories_sizes":[],"default_left":[1,1,1,1,1,0,0,0,0,0,1,0,1,1,0,0,0],"id":60,"left_children":[1,3,5,7,9,-1,-1,-1,-1,-1,11,-1,13,15,-1,-1,-1],"loss_changes":[1.1689847E-3,4.0527788E-4,1.13430084E-4,1.542148E-5,2.3234286E-4,0E0,0E0,0E0,0E0,0E0,2.555821E-4,0E0,1.1255496E-4,1.8444301E-4,0E0,0E0,0E0],"parents":[2147483647,0,0,1,1,2,2,3,3,4,4,10,10,12,12,13,13],"right_children":[2,4,6,8,10,-1,-1,-1,-1,-1,12,-1,14,16,-1,-1,-1],"split_conditions":[1.191245E2,6.155313E1,1.477086E2,4.525895E1,6.440879E1,8.6425785E-3,1.8127442E-3,4.678345E-3,1.1260987E-3,-2.9663087E-3,6.9693924E1,3.6437989E-3,7.747145E1,3.8679752E1,-1.6326904E-3,-3.489262E-10,3.0670168E-3],"split_indices":[0,1,0,0,1,0,0,0,0,0,1,0,0,0,0,0,0],"split_type":[0,0,0,0,0,0,0,0,0,0,0,0,0,0,0,0,0],"sum_hessian":[2.4E1,2.2E1,2E0,2E0,2E1,1E0,1E0,1E0,1E0,1E0,1.9E1,1E0,1.8E1,1.6E1,2E0,1.5E1,1E0],"tree_param":{"num_deleted":"0","num_feature":"2","num_nodes":"17","size_leaf_vector":"0"}},{"base_weights":[4.0087886E-3,1.7832875E-3,1.9734701E-2,1.0965983E-2,3.8655536E-4,2.4475098E-2,5.126953E-3,1.3244629E-2,3.2043457E-3,-8.407593E-3,1.2466424E-3,1.0314941E-2,2.2647185E-4,1.0232356E-3,-4.3640137E-3,-8.35969E-10,8.69751E-3,-1.2969971E-3,-5.2490234E-3],"categories":[],"categories_nodes":[],"categories_segments":[],"categories_sizes":[],"default_left":[1,1,1,1,1,0,0,0,0,0,1,0,1,1,1,0,0,0,0],"id":61,"left_children":[1,3,5,7,9,-1,-1,-1,-1,-1,11,-1,13,15,17,-1,-1,-1,-1],"loss_changes":[8.397582E-4,2.9075367E-4,8.2256855E-5,1.06176885E-5,1.6931964E-4,0E0,0E0,0E0,0E0,0E0,1.8268818E-4,0E0,7.395854E-5,1.3349416E-4,1.3350509E-6,0E0,0E0,0E0,0E0],"parents":[2147483647,0,0,1,1,2,2,3,3,4,4,10,10,12,12,13,13,14,14],"right_children":[2,4,6,8,10,-1,-1,-1,-1,-1,12,-1,14,16,18,-1,-1,-1,-1],"split_conditions":[1.191245E2,6.155313E1,1.477086E2,4.525895E1,6.440879E1,7.3425295E-3,1.538086E-3,3.973389E-3,9.6130377E-4,-2.5222779E-3,6.9693924E1,3.0944825E-3,7.747145E1,3.8679752E1,9.396E1,-2.5079072E-10,2.609253E-3,-3.8909915E-4,-1.5747071E-3],"split_indices":[0,1,0,0,1,0,0,0,0,0,1,0,0,0,0,0,0,0,0],"split_type":[0,0,0,0,0,0,0,0,0,0,0,0,0,0,0,0,0,0,0],"sum_hessian":[2.4E1,2.2E1,2E0,2E0,2E1,1E0,1E0,1E0,1E0,1E0,1.9E1,1E0,1.8E1,1.6E1,2E0,1.5E1,1E0,1E0,1E0],"tree_param":{"num_deleted":"0","num_feature":"2","num_nodes":"19","size_leaf_vector":"0"}},{"base_weights":[3.4082027E-3,1.5179174E-3,1.6764322E-2,9.318034E-3,3.3133326E-4,2.0812988E-2,4.333496E-3,1.1260986E-2,2.7160645E-3,-7.1411133E-3,1.0620112E-3,8.7890625E-3,1.927421E-4,8.6885283E-4,-3.7027996E-3,-6.008527E-10,7.385254E-3],"categories":[],"categories_nodes":[],"categories_segments":[],"categories_sizes":[],"default_left":[1,1,1,1,1,0,0,0,0,0,1,0,1,1,0,0,0],"id":62,"left_children":[1,3,5,7,9,-1,-1,-1,-1,-1,11,-1,13,15,-1,-1,-1],"loss_changes":[6.057251E-4,2.09789E-4,6.079179E-5,7.896364E-6,1.2224294E-4,0E0,0E0,0E0,0E0,0E0,1.3264372E-4,0E0,5.325972E-5,9.625056E-5,9.859614E-7,0E0,0E0],"parents":[2147483647,0,0,1,1,2,2,3,3,4,4,10,10,12,12,13,13],"right_children":[2,4,6,8,10,-1,-1,-1,-1,-1,12,-1,14,16,-1,-1,-1],"split_conditions":[1.191245E2,6.155313E1,1.477086E2,4.525895E1,6.440879E1,6.2438967E-3,1.3000489E-3,3.378296E-3,8.1481936E-4,-2.1423341E-3,6.9693924E1,2.6367188E-3,7.747145E1,3.8679752E1,-1.1108399E-3,-1.8025582E-10,2.2155764E-3],"split_indices":[0,1,0,0,1,0,0,0,0,0,1,0,0,0,0,0,0],"split_type":[0,0,0,0,0,0,0,0,0,0,0,0,0,0,0,0,0],"sum_hessian":[2.4E1,2.2E1,2E0,2E0,2E1,1E0,1E0,1E0,1E0,1E0,1.9E1,1E0,1.8E1,1.6E1,2E0,1.5E1,1E0],"tree_param":{"num_deleted":"0","num_feature":"2","num_nodes":"17","size_leaf_vector":"0"}},{"base_weights":[2.9174802E-3,1.3135824E-3,1.4241536E-2,7.93457E-3,3.0517546E-4,1.7700195E-2,3.6621094E-3,9.5825195E-3,2.319336E-3,-6.072998E-3,9.27734E-4,7.446289E-3,1.9274224E-4,6.374779E-4,-3.90625E-3,-4.3186288E-10,3.8248699E-3],"categories":[],"categories_nodes":[],"categories_segments":[],"categories_sizes":[],"default_left":[1,1,1,1,1,0,0,0,0,0,1,0,1,1,0,0,0],"id":63,"left_children":[1,3,5,7,9,-1,-1,-1,-1,-1,11,-1,13,15,-1,-1,-1],"loss_changes":[4.3535826E-4,1.5114152E-4,4.4951856E-5,5.5357814E-6,8.902065E-5,0E0,0E0,0E0,0E0,0E0,9.438647E-5,0E0,3.712654E-5,3.6574078E-5,0E0,0E0,0E0],"parents":[2147483647,0,0,1,1,2,2,3,3,4,4,10,10,12,12,13,13],"right_children":[2,4,6,8,10,-1,-1,-1,-1,-1,12,-1,14,16,-1,-1,-1],"split_conditions":[1.191245E2,6.155313E1,1.477086E2,4.525895E1,6.440879E1,5.3100586E-3,1.0986328E-3,2.874756E-3,6.958008E-4,-1.8218994E-3,6.9693924E1,2.2338869E-3,9.396E1,3.8679752E1,-1.171875E-3,-1.2955886E-10,1.147461E-3],"split_indices":[0,1,0,0,1,0,0,0,0,0,1,0,0,0,0,0,0],"split_type":[0,0,0,0,0,0,0,0,0,0,0,0,0,0,0,0,0],"sum_hessian":[2.4E1,2.2E1,2E0,2E0,2E1,1E0,1E0,1E0,1E0,1E0,1.9E1,1E0,1.8E1,1.7E1,1E0,1.5E1,2E0],"tree_param":{"num_deleted":"0","num_feature":"2","num_nodes":"17","size_leaf_vector":"0"}},{"base_weights":[2.4584958E-3,8.77889E-3,4.3945288E-4,7.9345703E-4,1.2573242E-2,-3.2958984E-3,8.095187E-4,6.3476562E-3,-5.1574707E-3,1.9836426E-3,1.54418945E-2,-3.1040145E-10,3.8452148E-3,5.706787E-3,1.3224283E-3,-1.1291504E-3,3.112793E-3],"categories":[],"categories_nodes":[],"categories_segments":[],"categories_sizes":[],"default_left":[1,1,1,1,1,0,1,0,0,0,0,0,1,0,1,0,0],"id":64,"left_children":[1,3,5,7,9,-1,11,-1,-1,-1,-1,-1,13,-1,15,-1,-1],"loss_changes":[3.1517076E-4,1.7182095E-4,3.0314604E-5,1.3189577E-4,9.088032E-5,0E0,4.669162E-5,0E0,0E0,0E0,0E0,0E0,1.1238582E-5,0E0,1.668247E-5,0E0,0E0],"parents":[2147483647,0,0,1,1,2,2,3,3,4,4,6,6,12,12,14,14],"right_children":[2,4,6,8,10,-1,12,-1,-1,-1,-1,-1,14,-1,16,-1,-1],"split_conditions":[6.9693924E1,3.873405E1,7.338016E1,3.192715E1,6.055126E1,-9.887696E-4,3.8679752E1,1.9042969E-3,-1.5472412E-3,5.950928E-4,4.6325685E-3,-9.312044E-11,7.747145E1,1.7120362E-3,1.225441E2,-3.3874513E-4,9.338379E-4],"split_indices":[1,0,1,0,1,0,0,0,0,0,0,0,0,0,0,0,0],"split_type":[0,0,0,0,0,0,0,0,0,0,0,0,0,0,0,0,0],"sum_hessian":[2.4E1,5E0,1.9E1,2E0,3E0,1E0,1.8E1,1E0,1E0,1E0,2E0,1.5E1,3E0,1E0,2E0,1E0,1E0],"tree_param":{"num_deleted":"0","num_feature":"2","num_nodes":"17","size_leaf_vector":"0"}},{"base_weights":[1.9921875E-3,8.332624E-4,1.0213216E-2,5.004883E-3,1.9763748E-4,1.26953125E-2,2.6245117E-3,-4.3792725E-3,6.454466E-4,5.3710938E-3,1.1403918E-4,5.70858E-4,-2.512614E-3,-2.2310101E-10,4.852295E-3],"categories":[],"categories_nodes":[],"categories_segments":[],"categories_sizes":[],"default_left":[1,1,1,0,1,0,0,0,1,0,1,1,0,0,0],"id":65,"left_children":[1,3,5,-1,7,-1,-1,-1,9,-1,11,13,-1,-1,-1],"loss_changes":[2.2967861E-4,5.999732E-5,2.318868E-5,0E0,4.5867808E-5,0E0,0E0,0E0,4.9612365E-5,0E0,2.4232535E-5,4.1549592E-5,0E0,0E0,0E0],"parents":[2147483647,0,0,1,1,2,2,4,4,8,8,10,10,11,11],"right_children":[2,4,6,-1,8,-1,-1,-1,10,-1,12,14,-1,-1,-1],"split_conditions":[1.191245E2,6.155313E1,1.477086E2,1.5014649E-3,6.440879E1,3.8085938E-3,7.8735355E-4,-1.3137818E-3,6.9693924E1,1.6113282E-3,7.747145E1,3.8679752E1,-7.5378426E-4,-6.693031E-11,1.4556885E-3],"split_indices":[0,1,0,0,1,0,0,0,1,0,0,0,0,0,0],"split_type":[0,0,0,0,0,0,0,0,0,0,0,0,0,0,0],"sum_hessian":[2.4E1,2.2E1,2E0,2E0,2E1,1E0,1E0,1E0,1.9E1,1E0,1.8E1,1.6E1,2E0,1.5E1,1E0],"tree_param":{"num_deleted":"0","num_feature":"2","num_nodes":"15","size_leaf_vector":"0"}},{"base_weights":[1.6796874E-3,6.8996253E-4,8.707683E-3,3.9876304E-3,1.8601178E-4,1.0803223E-2,2.2583008E-3,5.065918E-3,9.1552734E-4,-3.7231445E-3,5.6762685E-4,4.5776367E-3,1.15645424E-4,4.846908E-4,-2.0141602E-3,-1.6035386E-10,4.119873E-3],"categories":[],"categories_nodes":[],"categories_segments":[],"categories_sizes":[],"default_left":[1,1,1,1,1,0,0,0,0,0,1,0,1,1,0,0,0],"id":66,"left_children":[1,3,5,7,9,-1,-1,-1,-1,-1,11,-1,13,15,-1,-1,-1],"loss_changes":[1.6788655E-4,3.7481084E-5,1.6147897E-5,5.2998475E-6,3.3441007E-5,0E0,0E0,0E0,0E0,0E0,3.5719615E-5,0E0,1.5910147E-5,2.995298E-5,4.2282045E-7,0E0,0E0],"parents":[2147483647,0,0,1,1,2,2,3,3,4,4,10,10,12,12,13,13],"right_children":[2,4,6,8,10,-1,-1,-1,-1,-1,12,-1,14,16,-1,-1,-1],"split_conditions":[1.191245E2,6.155313E1,1.477086E2,4.525895E1,6.440879E1,3.240967E-3,6.7749026E-4,1.5197755E-3,2.746582E-4,-1.1169434E-3,6.9693924E1,1.373291E-3,7.747145E1,3.8679752E1,-6.042481E-4,-4.8106158E-11,1.2359619E-3],"split_indices":[0,1,0,0,1,0,0,0,0,0,1,0,0,0,0,0,0],"split_type":[0,0,0,0,0,0,0,0,0,0,0,0,0,0,0,0,0],"sum_hessian":[2.4E1,2.2E1,2E0,2E0,2E1,1E0,1E0,1E0,1E0,1E0,1.9E1,1E0,1.8E1,1.6E1,2E0,1.5E1,1E0],"tree_param":{"num_deleted":"0","num_feature":"2","num_nodes":"17","size_leaf_vector":"0"}},{"base_weights":[1.4367675E-3,6.0106354E-4,7.3649087E-3,3.3772786E-3,1.7583929E-4,9.155273E-3,1.8920898E-3,4.3029785E-3,7.6293945E-4,-3.1585693E-3,5.004882E-4,3.90625E-3,1.1564546E-4,3.5942916E-4,-2.1362305E-3,-1.1525433E-10,2.1565754E-3],"categories":[],"categories_nodes":[],"categories_segments":[],"categories_sizes":[],"default_left":[1,1,1,1,1,0,0,0,0,0,1,0,1,1,0,0,0],"id":67,"left_children":[1,3,5,7,9,-1,-1,-1,-1,-1,11,-1,13,15,-1,-1,-1],"loss_changes":[1.19427496E-4,2.6557962E-5,1.2072429E-5,3.9773695E-6,2.4313582E-5,0E0,0E0,0E0,0E0,0E0,2.576191E-5,0E0,1.1198265E-5,1.1627046E-5,0E0,0E0,0E0],"parents":[2147483647,0,0,1,1,2,2,3,3,4,4,10,10,12,12,13,13],"right_children":[2,4,6,8,10,-1,-1,-1,-1,-1,12,-1,14,16,-1,-1,-1],"split_conditions":[1.191245E2,6.155313E1,1.477086E2,4.525895E1,6.440879E1,2.746582E-3,5.6762696E-4,1.2908936E-3,2.2888185E-4,-9.4757084E-4,6.9693924E1,1.171875E-3,9.396E1,3.8679752E1,-6.4086914E-4,-3.45763E-11,6.469727E-4],"split_indices":[0,1,0,0,1,0,0,0,0,0,1,0,0,0,0,0,0],"split_type":[0,0,0,0,0,0,0,0,0,0,0,0,0,0,0,0,0],"sum_hessian":[2.4E1,2.2E1,2E0,2E0,2E1,1E0,1E0,1E0,1E0,1E0,1.9E1,1E0,1.8E1,1.7E1,1E0,1.5E1,2E0],"tree_param":{"num_deleted":"0","num_feature":"2","num_nodes":"17","size_leaf_vector":"0"}},{"base_weights":[1.204834E-3,4.922617E-4,6.266276E-3,2.8686523E-3,1.2933635E-4,7.8125E-3,1.5869141E-3,3.6621094E-3,6.4086914E-4,-2.6855469E-3,4.0435785E-4,3.2958984E-3,7.870316E-5,3.7339146E-4,-1.6174316E-3,-8.283905E-11,3.1738281E-3],"categories":[],"categories_nodes":[],"categories_segments":[],"categories_sizes":[],"default_left":[1,1,1,1,1,0,0,0,0,0,1,0,1,1,0,0,0],"id":68,"left_children":[1,3,5,7,9,-1,-1,-1,-1,-1,11,-1,13,15,-1,-1,-1],"loss_changes":[8.708142E-5,1.9465386E-5,9.308256E-6,2.9560179E-6,1.7343144E-5,0E0,0E0,0E0,0E0,0E0,1.8573479E-5,0E0,1.0100725E-5,1.777621E-5,0E0,0E0,0E0],"parents":[2147483647,0,0,1,1,2,2,3,3,4,4,10,10,12,12,13,13],"right_children":[2,4,6,8,10,-1,-1,-1,-1,-1,12,-1,14,16,-1,-1,-1],"split_conditions":[1.191245E2,6.155313E1,1.477086E2,4.525895E1,6.440879E1,2.34375E-3,4.7607423E-4,1.0986328E-3,1.9226075E-4,-8.056641E-4,6.9693924E1,9.887696E-4,7.747145E1,3.8679752E1,-4.852295E-4,-2.4851716E-11,9.5214846E-4],"split_indices":[0,1,0,0,1,0,0,0,0,0,1,0,0,0,0,0,0],"split_type":[0,0,0,0,0,0,0,0,0,0,0,0,0,0,0,0,0],"sum_hessian":[2.4E1,2.2E1,2E0,2E0,2E1,1E0,1E0,1E0,1E0,1E0,1.9E1,1E0,1.8E1,1.6E1,2E0,1.5E1,1E0],"tree_param":{"num_deleted":"0","num_feature":"2","num_nodes":"17","size_leaf_vector":"0"}},{"base_weights":[1.0339355E-3,4.285729E-4,5.330404E-3,2.4414062E-3,1.2061705E-4,6.652832E-3,1.3427734E-3,3.112793E-3,5.493164E-4,-2.2888184E-3,3.5552974E-4,2.8076172E-3,7.8703175E-5,3.1594664E-4,-1.2919108E-3,-5.954056E-11,2.6855469E-3],"categories":[],"categories_nodes":[],"categories_segments":[],"categories_sizes":[],"default_left":[1,1,1,1,1,0,0,0,0,0,1,0,1,1,0,0,0],"id":69,"left_children":[1,3,5,7,9,-1,-1,-1,-1,-1,11,-1,13,15,-1,-1,-1],"loss_changes":[6.273856E-5,1.3962392E-5,6.8868176E-6,2.1010637E-6,1.2699889E-5,0E0,0E0,0E0,0E0,0E0,1.3355091E-5,0E0,6.5863896E-6,1.2727345E-5,2.7582655E-7,0E0,0E0],"parents":[2147483647,0,0,1,1,2,2,3,3,4,4,10,10,12,12,13,13],"right_children":[2,4,6,8,10,-1,-1,-1,-1,-1,12,-1,14,16,-1,-1,-1],"split_conditions":[1.191245E2,6.155313E1,1.477086E2,4.525895E1,6.440879E1,1.9958497E-3,4.0283205E-4,9.338379E-4,1.6479492E-4,-6.866455E-4,6.9693924E1,8.4228517E-4,7.747145E1,3.8679752E1,-3.8757324E-4,-1.7862168E-11,8.056641E-4],"split_indices":[0,1,0,0,1,0,0,0,0,0,1,0,0,0,0,0,0],"split_type":[0,0,0,0,0,0,0,0,0,0,0,0,0,0,0,0,0],"sum_hessian":[2.4E1,2.2E1,2E0,2E0,2E1,1E0,1E0,1E0,1E0,1E0,1.9E1,1E0,1.8E1,1.6E1,2E0,1.5E1,1E0],"tree_param":{"num_deleted":"0","num_feature":"2","num_nodes":"17","size_leaf_vector":"0"}},{"base_weights":[8.898926E-4,3.7284516E-4,4.5572915E-3,2.0751953E-3,1.1189775E-4,5.6762695E-3,1.159668E-3,2.6550293E-3,4.5776367E-4,-1.9378662E-3,3.1127926E-4,2.380371E-3,7.7097E-5,2.3735891E-4,-1.4038086E-3,-4.2794778E-11,1.4241537E-3],"categories":[],"categories_nodes":[],"categories_segments":[],"categories_sizes":[],"default_left":[1,1,1,1,1,0,0,0,0,0,1,0,1,1,0,0,0],"id":70,"left_children":[1,3,5,7,9,-1,-1,-1,-1,-1,11,-1,13,15,-1,-1,-1],"loss_changes":[4.5706318E-5,9.984939E-6,4.8230067E-6,1.5981495E-6,9.185604E-6,0E0,0E0,0E0,0E0,0E0,9.507372E-6,0E0,4.8425286E-6,5.0705344E-6,0E0,0E0,0E0],"parents":[2147483647,0,0,1,1,2,2,3,3,4,4,10,10,12,12,13,13],"right_children":[2,4,6,8,10,-1,-1,-1,-1,-1,12,-1,14,16,-1,-1,-1],"split_conditions":[1.191245E2,6.155313E1,1.477086E2,4.525895E1,6.440879E1,1.702881E-3,3.479004E-4,7.965088E-4,1.373291E-4,-5.813599E-4,6.9693924E1,7.141114E-4,9.396E1,3.8679752E1,-4.2114258E-4,-1.2838434E-11,4.2724612E-4],"split_indices":[0,1,0,0,1,0,0,0,0,0,1,0,0,0,0,0,0],"split_type":[0,0,0,0,0,0,0,0,0,0,0,0,0,0,0,0,0],"sum_hessian":[2.4E1,2.2E1,2E0,2E0,2E1,1E0,1E0,1E0,1E0,1E0,1.9E1,1E0,1.8E1,1.7E1,1E0,1.5E1,2E0],"tree_param":{"num_deleted":"0","num_feature":"2","num_nodes":"17","size_leaf_vector":"0"}},{"base_weights":[7.446289E-4,3.0517575E-4,3.8655598E-3,1.7700195E-3,8.138018E-5,4.8217773E-3,9.765625E-4,2.2583008E-3,3.9672852E-4,-1.6479492E-3,2.502441E-4,2.0141602E-3,5.1398E-5,2.441406E-4,-1.0579427E-3,-3.0758746E-11,2.0751953E-3],"categories":[],"categories_nodes":[],"categories_segments":[],"categories_sizes":[],"default_left":[1,1,1,1,1,0,0,0,0,0,1,0,1,1,0,0,0],"id":71,"left_children":[1,3,5,7,9,-1,-1,-1,-1,-1,11,-1,13,15,-1,-1,-1],"loss_changes":[3.3107895E-5,7.3959427E-6,3.5787634E-6,1.1157244E-6,6.5448385E-6,0E0,0E0,0E0,0E0,0E0,6.911433E-6,0E0,4.320814E-6,7.599592E-6,0E0,0E0,0E0],"parents":[2147483647,0,0,1,1,2,2,3,3,4,4,10,10,12,12,13,13],"right_children":[2,4,6,8,10,-1,-1,-1,-1,-1,12,-1,14,16,-1,-1,-1],"split_conditions":[1.191245E2,6.155313E1,1.477086E2,4.525895E1,6.440879E1,1.4465332E-3,2.9296876E-4,6.7749026E-4,1.1901856E-4,-4.943848E-4,6.9693924E1,6.042481E-4,7.747145E1,3.8679752E1,-3.1738283E-4,-9.227624E-12,6.2255864E-4],"split_indices":[0,1,0,0,1,0,0,0,0,0,1,0,0,0,0,0,0],"split_type":[0,0,0,0,0,0,0,0,0,0,0,0,0,0,0,0,0],"sum_hessian":[2.4E1,2.2E1,2E0,2E0,2E1,1E0,1E0,1E0,1E0,1E0,1.9E1,1E0,1.8E1,1.6E1,2E0,1.5E1,1E0],"tree_param":{"num_deleted":"0","num_feature":"2","num_nodes":"17","size_leaf_vector":"0"}},{"base_weights":[6.420898E-4,2.6802393E-4,3.2958984E-3,1.5055338E-3,7.847376E-5,4.0893555E-3,8.544922E-4,-1.4038086E-3,2.227783E-4,1.7089844E-3,5.4610384E-5,2.0823757E-4,-8.3414715E-4,-2.2107849E-11,1.7700195E-3],"categories":[],"categories_nodes":[],"categories_segments":[],"categories_sizes":[],"default_left":[1,1,1,0,1,0,0,0,1,0,1,1,0,0,0],"id":72,"left_children":[1,3,5,-1,7,-1,-1,-1,9,-1,11,13,-1,-1,-1],"loss_changes":[2.3934103E-5,5.27697E-6,2.3171306E-6,8.1832195E-7,4.80464E-6,0E0,0E0,0E0,4.9053156E-6,0E0,2.7679098E-6,5.528769E-6,1.5708315E-7,0E0,0E0],"parents":[2147483647,0,0,1,1,2,2,4,4,8,8,10,10,11,11],"right_children":[2,4,6,-1,8,-1,-1,-1,10,-1,12,14,-1,-1,-1],"split_conditions":[1.191245E2,6.155313E1,1.477086E2,4.5166016E-4,6.440879E1,1.2268067E-3,2.5634767E-4,-4.2114258E-4,6.9693924E1,5.1269535E-4,7.747145E1,3.8679752E1,-2.5024416E-4,-6.632355E-12,5.310059E-4],"split_indices":[0,1,0,0,1,0,0,0,1,0,0,0,0,0,0],"split_type":[0,0,0,0,0,0,0,0,0,0,0,0,0,0,0],"sum_hessian":[2.4E1,2.2E1,2E0,2E0,2E1,1E0,1E0,1E0,1.9E1,1E0,1.8E1,1.6E1,2E0,1.5E1,1E0],"tree_param":{"num_deleted":"0","num_feature":"2","num_nodes":"15","size_leaf_vector":"0"}},{"base_weights":[5.444336E-4,2.255647E-4,2.8076172E-3,1.2207031E-3,7.2660885E-5,3.479004E-3,7.324219E-4,1.7089844E-3,1.2207031E-4,-1.1901855E-3,1.9531249E-4,1.4648438E-3,5.1398012E-5,1.5597872E-4,-9.1552734E-4,-1.5890015E-11,9.358724E-4],"categories":[],"categories_nodes":[],"categories_segments":[],"categories_sizes":[],"default_left":[1,1,1,1,1,0,0,0,0,0,1,0,1,1,0,0,0],"id":73,"left_children":[1,3,5,7,9,-1,-1,-1,-1,-1,11,-1,13,15,-1,-1,-1],"loss_changes":[1.740817E-5,3.410993E-6,1.6316772E-6,1.4007092E-6,3.485151E-6,0E0,0E0,0E0,0E0,0E0,3.5787882E-6,0E0,2.0641157E-6,2.1896428E-6,0E0,0E0,0E0],"parents":[2147483647,0,0,1,1,2,2,3,3,4,4,10,10,12,12,13,13],"right_children":[2,4,6,8,10,-1,-1,-1,-1,-1,12,-1,14,16,-1,-1,-1],"split_conditions":[1.191245E2,6.155313E1,1.477086E2,4.525895E1,6.440879E1,1.0437012E-3,2.1972657E-4,5.1269535E-4,3.6621095E-5,-3.570557E-4,6.9693924E1,4.3945314E-4,9.396E1,3.8679752E1,-2.746582E-4,-4.7670045E-12,2.807617E-4],"split_indices":[0,1,0,0,1,0,0,0,0,0,1,0,0,0,0,0,0],"split_type":[0,0,0,0,0,0,0,0,0,0,0,0,0,0,0,0,0],"sum_hessian":[2.4E1,2.2E1,2E0,2E0,2E1,1E0,1E0,1E0,1E0,1E0,1.9E1,1E0,1.8E1,1.7E1,1E0,1.5E1,2E0],"tree_param":{"num_deleted":"0","num_feature":"2","num_nodes":"17","size_leaf_vector":"0"}},{"base_weights":[4.5043946E-4,1.8177861E-4,2.3600261E-3,1.0375977E-3,5.086262E-5,2.9296875E-3,6.1035156E-4,1.4648438E-3,9.1552734E-5,-1.0070801E-3,1.5411376E-4,1.2207031E-3,3.3729946E-5,1.5797334E-4,-6.8155926E-4,-1.1420949E-11,1.3427734E-3],"categories":[],"categories_nodes":[],"categories_segments":[],"categories_sizes":[],"default_left":[1,1,1,1,1,0,0,0,0,0,1,0,1,1,0,0,0],"id":74,"left_children":[1,3,5,7,9,-1,-1,-1,-1,-1,11,-1,13,15,-1,-1,-1],"loss_changes":[1.2396777E-5,2.524154E-6,1.2020264E-6,1.0784715E-6,2.4491146E-6,0E0,0E0,0E0,0E0,0E0,2.5268275E-6,0E0,1.7961974E-6,3.1818363E-6,0E0,0E0,0E0],"parents":[2147483647,0,0,1,1,2,2,3,3,4,4,10,10,12,12,13,13],"right_children":[2,4,6,8,10,-1,-1,-1,-1,-1,12,-1,14,16,-1,-1,-1],"split_conditions":[1.191245E2,6.155313E1,1.477086E2,4.525895E1,6.440879E1,8.789063E-4,1.8310547E-4,4.3945314E-4,2.7465821E-5,-3.0212404E-4,6.9693924E1,3.6621094E-4,7.747145E1,3.8679752E1,-2.0446778E-4,-3.4262849E-12,4.0283205E-4],"split_indices":[0,1,0,0,1,0,0,0,0,0,1,0,0,0,0,0,0],"split_type":[0,0,0,0,0,0,0,0,0,0,0,0,0,0,0,0,0],"sum_hessian":[2.4E1,2.2E1,2E0,2E0,2E1,1E0,1E0,1E0,1E0,1E0,1.9E1,1E0,1.8E1,1.6E1,2E0,1.5E1,1E0],"tree_param":{"num_deleted":"0","num_feature":"2","num_nodes":"17","size_leaf_vector":"0"}},{"base_weights":[3.881836E-4,1.6187584E-4,1.9938152E-3,8.951823E-4,4.9409406E-5,2.5024414E-3,4.8828125E-4,-8.544922E-4,1.373291E-4,1.0375977E-3,3.5336136E-5,1.3284122E-4,-5.289714E-4,-8.208806E-12,1.1291504E-3],"categories":[],"categories_nodes":[],"categories_segments":[],"categories_sizes":[],"default_left":[1,1,1,0,1,0,0,0,1,0,1,1,0,0,0],"id":75,"left_children":[1,3,5,-1,7,-1,-1,-1,9,-1,11,13,-1,-1,-1],"loss_changes":[8.76142E-6,1.8526339E-6,1.0753674E-6,7.438164E-7,1.7862324E-6,0E0,0E0,0E0,1.7997563E-6,0E0,1.1157033E-6,2.2499657E-6,9.189051E-8,0E0,0E0],"parents":[2147483647,0,0,1,1,2,2,4,4,8,8,10,10,11,11],"right_children":[2,4,6,-1,8,-1,-1,-1,10,-1,12,14,-1,-1,-1],"split_conditions":[1.191245E2,6.155313E1,1.477086E2,2.685547E-4,6.440879E1,7.5073243E-4,1.4648438E-4,-2.5634767E-4,6.9693924E1,3.1127932E-4,7.747145E1,3.8679752E1,-1.5869141E-4,-2.4626419E-12,3.3874513E-4],"split_indices":[0,1,0,0,1,0,0,0,1,0,0,0,0,0,0],"split_type":[0,0,0,0,0,0,0,0,0,0,0,0,0,0,0],"sum_hessian":[2.4E1,2.2E1,2E0,2E0,2E1,1E0,1E0,1E0,1.9E1,1E0,1.8E1,1.6E1,2E0,1.5E1,1E0],"tree_param":{"num_deleted":"0","num_feature":"2","num_nodes":"15","size_leaf_vector":"0"}},{"base_weights":[3.2592774E-4,1.3135826E-4,1.7089844E-3,7.324219E-4,3.9236882E-5,-7.324219E-4,1.1444091E-4,8.544922E-4,3.0517573E-5],"categories":[],"categories_nodes":[],"categories_segments":[],"categories_sizes":[],"default_left":[1,1,0,0,1,0,1,0,0],"id":76,"left_children":[1,3,-1,-1,5,-1,7,-1,-1],"loss_changes":[6.503026E-6,1.2447907E-6,7.301569E-7,9.4249845E-7,1.3024879E-6,0E0,1.2160745E-6,0E0,9.0747034E-7],"parents":[2147483647,0,0,1,1,4,4,6,6],"right_children":[2,4,-1,-1,6,-1,8,-1,-1],"split_conditions":[1.191245E2,6.155313E1,5.1269535E-4,2.1972657E-4,6.440879E1,-2.1972657E-4,6.9693924E1,2.5634767E-4,9.155272E-6],"split_indices":[0,1,0,0,1,0,1,0,0],"split_type":[0,0,0,0,0,0,0,0,0],"sum_hessian":[2.4E1,2.2E1,2E0,2E0,2E1,1E0,1.9E1,1E0,1.8E1],"tree_param":{"num_deleted":"0","num_feature":"2","num_nodes":"9","size_leaf_vector":"0"}},{"base_weights":[2.6062012E-4,1.0283096E-4,1.3834635E-3,1.6299161E-4,-6.1035156E-4,1.8920898E-3,1.8310547E-4,4.2385486E-6,7.019043E-4,-1.5258789E-4,9.536743E-4,1.3020834E-3,-4.5776367E-5],"categories":[],"categories_nodes":[],"categories_segments":[],"categories_sizes":[],"default_left":[1,1,1,1,0,0,0,0,1,0,1,0,0],"id":77,"left_children":[1,3,5,7,-1,-1,-1,-1,9,-1,11,-1,-1],"loss_changes":[4.2870497E-6,1.0863091E-6,1.4851489E-6,1.8792138E-6,0E0,0E0,0E0,8.861177E-7,1.2211967E-6,0E0,1.4524753E-6,0E0,0E0],"parents":[2147483647,0,0,1,1,2,2,3,3,8,8,10,10],"right_children":[2,4,6,8,-1,-1,-1,-1,10,-1,12,-1,-1],"split_conditions":[1.191245E2,9.396E1,1.477086E2,3.873405E1,-1.8310547E-4,5.6762696E-4,5.4931643E-5,1.2715647E-6,6.055126E1,-4.5776367E-5,7.747145E1,3.9062503E-4,-1.3732911E-5],"split_indices":[0,0,0,0,0,0,0,0,1,0,0,0,0],"split_type":[0,0,0,0,0,0,0,0,0,0,0,0,0],"sum_hessian":[2.4E1,2.2E1,2E0,2.1E1,1E0,1E0,1E0,1.7E1,4E0,1E0,3E0,2E0,1E0],"tree_param":{"num_deleted":"0","num_feature":"2","num_nodes":"13","size_leaf_vector":"0"}},{"base_weights":[2.1347046E-4,7.811836E-5,1.1800131E-3],"categories":[],"categories_nodes":[],"categories_segments":[],"categories_sizes":[],"default_left":[1,0,0],"id":78,"left_children":[1,-1,-1],"loss_changes":[3.1784084E-6,8.4418923E-7,9.2635537E-7],"parents":[2147483647,0,0],"right_children":[2,-1,-1],"split_conditions":[1.191245E2,2.343551E-5,3.5400392E-4],"split_indices":[0,0,0],"split_type":[0,0,0],"sum_hessian":[2.4E1,2.2E1,2E0],"tree_param":{"num_deleted":"0","num_feature":"2","num_nodes":"3","size_leaf_vector":"0"}},{"base_weights":[1.6767086E-4,7.324219E-4,-1.01379765E-5,3.0517578E-5,1.4241537E-3,-6.4086914E-4,4.679362E-4],"categories":[],"categories_nodes":[],"categories_segments":[],"categories_sizes":[],"default_left":[1,1,0,1,0,0,0],"id":79,"left_children":[1,3,-1,5,-1,-1,-1],"loss_changes":[2.5178683E-6,2.8697154E-6,6.43683E-7,1.474594E-6,0E0,0E0,7.307778E-7],"parents":[2147483647,0,0,1,1,3,3],"right_children":[2,4,-1,6,-1,-1,-1],"split_conditions":[6.9693924E1,6.3743706E1,-3.041393E-6,3.873405E1,4.2724612E-4,-1.9226075E-4,1.4038086E-4],"split_indices":[1,1,0,0,0,0,0],"split_type":[0,0,0,0,0,0,0],"sum_hessian":[2.4E1,5E0,1.9E1,3E0,2E0,1E0,2E0],"tree_param":{"num_deleted":"0","num_feature":"2","num_nodes":"7","size_leaf_vector":"0"}},{"base_weights":[1.2799179E-4,5.5948895E-4,-7.856931E-6,1.5258789E-5,1.0986328E-3,-5.493164E-4,3.86556E-4],"categories":[],"categories_nodes":[],"categories_segments":[],"categories_sizes":[],"default_left":[1,1,0,1,0,0,0],"id":80,"left_children":[1,3,-1,5,-1,-1,-1],"loss_changes":[1.4698543E-6,1.7437463E-6,6.489156E-7,1.0508423E-6,0E0,0E0,7.829318E-7],"parents":[2147483647,0,0,1,1,3,3],"right_children":[2,4,-1,6,-1,-1,-1],"split_conditions":[6.9693924E1,6.3743706E1,-2.3570794E-6,3.873405E1,3.2958985E-4,-1.6479492E-4,1.159668E-4],"split_indices":[1,1,0,0,0,0,0],"split_type":[0,0,0,0,0,0,0],"sum_hessian":[2.4E1,5E0,1.9E1,3E0,2E0,1E0,2E0],"tree_param":{"num_deleted":"0","num_feature":"2","num_nodes":"7","size_leaf_vector":"0"}},{"base_weights":[9.644706E-5,-4.236953E-5,3.9672852E-4],"categories":[],"categories_nodes":[],"categories_segments":[],"categories_sizes":[],"default_left":[1,0,0],"id":81,"left_children":[1,-1,-1],"loss_changes":[1.0589105E-6,4.1716572E-7,8.167699E-7],"parents":[2147483647,0,0],"right_children":[2,-1,-1],"split_conditions":[3.873405E1,-1.271086E-5,1.1901856E-4],"split_indices":[0,0,0],"split_type":[0,0,0],"sum_hessian":[2.4E1,1.7E1,7E0],"tree_param":{"num_deleted":"0","num_feature":"2","num_nodes":"3","size_leaf_vector":"0"}},{"base_weights":[6.989389E-5],"categories":[],"categories_nodes":[],"categories_segments":[],"categories_sizes":[],"default_left":[0],"id":82,"left_children":[-1],"loss_changes":[8.514777E-7],"parents":[2147483647],"right_children":[-1],"split_conditions":[2.0968168E-5],"split_indices":[0],"split_type":[0],"sum_hessian":[2.4E1],"tree_param":{"num_deleted":"0","num_feature":"2","num_nodes":"1","size_leaf_vector":"0"}},{"base_weights":[5.4871583E-5],"categories":[],"categories_nodes":[],"categories_segments":[],"categories_sizes":[],"default_left":[0],"id":83,"left_children":[-1],"loss_changes":[9.0321373E-7],"parents":[2147483647],"right_children":[-1],"split_conditions":[1.6461476E-5],"split_indices":[0],"split_type":[0],"sum_hessian":[2.4E1],"tree_param":{"num_deleted":"0","num_feature":"2","num_nodes":"1","size_leaf_vector":"0"}},{"base_weights":[4.2553293E-5],"categories":[],"categories_nodes":[],"categories_segments":[],"categories_sizes":[],"default_left":[0],"id":84,"left_children":[-1],"loss_changes":[9.4636954E-7],"parents":[2147483647],"right_children":[-1],"split_conditions":[1.2765989E-5],"split_indices":[0],"split_type":[0],"sum_hessian":[2.4E1],"tree_param":{"num_deleted":"0","num_feature":"2","num_nodes":"1","size_leaf_vector":"0"}},{"base_weights":[3.48937E-5],"categories":[],"categories_nodes":[],"categories_segments":[],"categories_sizes":[],"default_left":[0],"id":85,"left_children":[-1],"loss_changes":[9.735368E-7],"parents":[2147483647],"right_children":[-1],"split_conditions":[1.046811E-5],"split_indices":[0],"split_type":[0],"sum_hessian":[2.4E1],"tree_param":{"num_deleted":"0","num_feature":"2","num_nodes":"1","size_leaf_vector":"0"}},