{"learner":{"attributes":{"best_iteration":"99","best_ntree_limit":"100","scikit_learn":"{\"n_estimators\": 100, \"objective\": \"reg:squarederror\", \"max_depth\": null, \"max_leaves\": null, \"max_bin\": null, \"grow_policy\": null, \"learning_rate\": null, \"verbosity\": null, \"booster\": null, \"tree_method\": null, \"gamma\": null, \"min_child_weight\": null, \"max_delta_step\": null, \"subsample\": null, \"sampling_method\": null, \"colsample_bytree\": null, \"colsample_bylevel\": null, \"colsample_bynode\": null, \"reg_alpha\": null, \"reg_lambda\": null, \"scale_pos_weight\": null, \"base_score\": null, \"missing\": NaN, \"num_parallel_tree\": null, \"random_state\": null, \"n_jobs\": null, \"monotone_constraints\": null, \"interaction_constraints\": null, \"importance_type\": null, \"gpu_id\": null, \"validate_parameters\": null, \"predictor\": null, \"enable_categorical\": false, \"feature_types\": null, \"max_cat_to_onehot\": null, \"max_cat_threshold\": null, \"eval_metric\": null, \"early_stopping_rounds\": null, \"callbacks\": null, \"_estimator_type\": \"regressor\"}"},"feature_names":["GHI","SZA_30min_before"],"feature_types":["float","float"],"gradient_booster":{"model":{"gbtree_model_param":{"num_parallel_tree":"1","num_trees":"100","size_leaf_vector":"0"},"tree_info":[0,0,0,0,0,0,0,0,0,0,0,0,0,0,0,0,0,0,0,0,0,0,0,0,0,0,0,0,0,0,0,0,0,0,0,0,0,0,0,0,0,0,0,0,0,0,0,0,0,0,0,0,0,0,0,0,0,0,0,0,0,0,0,0,0,0,0,0,0,0,0,0,0,0,0,0,0,0,0,0,0,0,0,0,0,0,0,0,0,0,0,0,0,0,0,0,0,0,0,0],"trees":[{"base_weights":[-2.3740992E-1,1.8055427E-1,-4.513045E-1,1.8233411E-2,3.223571E-1,-2.2447503E-1,-4.8232552E-1,-1.2882954E-1,9.138503E-2,2.6638648E-1,3.6665463E-1,-2.962201E-1,-1.409155E-1,-3.9509064E-1,-4.952598E-1,1.1627718E-2,-2.2998671E-1,2.1126431E-1,6.5765046E-2,2.7104068E-1,4.4763833E-2,-2.968767E-1,-6.4009584E-2,-8.932475E-2,1.5063563E-1,4.5306206E-2,2.2850029E-1,2.6207376E-2,1.4895022E-1,-8.923199E-2,-3.3938784E-2,7.26465E-2,-1.284277E-1,1.747435E-1,2.7102053E-2,8.471935E-2,-3.4051757E-2,-1.9168094E-2,-9.7714625E-2,-4.132339E-2,-7.8566475E-3],"categories":[],"categories_nodes":[],"categories_segments":[],"categories_sizes":[],"default_left":[1,1,1,1,1,1,1,1,1,1,0,0,1,0,0,1,0,1,1,0,0,0,1,1,1,0,0,1,0,1,1,0,0,0,0,0,0,0,0,0,0],"id":0,"left_children":[1,3,5,7,9,11,13,15,17,19,-1,-1,21,-1,-1,23,-1,25,27,-1,-1,-1,29,31,33,-1,-1,35,-1,37,39,-1,-1,-1,-1,-1,-1,-1,-1,-1,-1],"loss_changes":[3.9507004E1,3.4467554E0,1.9463844E0,7.7558357E-1,1.0067749E-1,1.8007243E-1,9.3177795E-2,3.436724E-1,1.335288E-1,2.809453E-2,0E0,0E0,2.0888945E-1,0E0,0E0,1.6782059E-1,0E0,1.25311315E-2,1.3101149E-1,0E0,0E0,0E0,7.5899847E-3,5.36647E-2,1.0154761E-2,0E0,0E0,1.0513539E-1,0E0,2.2872798E-3,1.2161871E-3,0E0,0E0,0E0,0E0,0E0,0E0,0E0,0E0,0E0,0E0],"parents":[2147483647,0,0,1,1,2,2,3,3,4,4,5,5,6,6,7,7,8,8,9,9,12,12,15,15,17,17,18,18,22,22,23,23,24,24,27,27,29,29,30,30],"right_children":[2,4,6,8,10,12,14,16,18,20,-1,-1,22,-1,-1,24,-1,26,28,-1,-1,-1,30,32,34,-1,-1,36,-1,38,40,-1,-1,-1,-1,-1,-1,-1,-1,-1,-1],"split_conditions":[3.3015126E-1,6.727798E-1,4.334542E-1,4.0065086E-1,8.394313E-1,4.1232565E-1,5.3859115E-1,2.0378903E-1,1.3385528E-1,8.373819E-1,1.0999639E-1,-8.886603E-2,1.9192201E-1,-1.185272E-1,-1.4857794E-1,2.452451E-1,-6.899602E-2,2.0596452E-2,3.0891407E-1,8.131221E-2,1.3429151E-2,-8.906301E-2,2.5673625E-1,1.3242324E-1,1.6630572E-1,1.3591862E-2,6.855009E-2,2.2813466E-1,4.4685066E-2,4.1370666E-1,2.9141328E-1,2.179395E-2,-3.8528312E-2,5.2423052E-2,8.1306165E-3,2.5415806E-2,-1.0215527E-2,-5.7504284E-3,-2.931439E-2,-1.2397017E-2,-2.3569944E-3],"split_indices":[1,0,1,0,0,1,1,1,1,0,0,0,0,0,0,0,0,1,1,0,0,0,0,0,1,0,0,1,0,1,0,0,0,0,0,0,0,0,0,0,0],"split_type":[0,0,0,0,0,0,0,0,0,0,0,0,0,0,0,0,0,0,0,0,0,0,0,0,0,0,0,0,0,0,0,0,0,0,0,0,0,0,0,0,0],"sum_hessian":[4.4E2,1.49E2,2.91E2,7E1,7.9E1,3.6E1,2.55E2,2.3E1,4.7E1,3.8E1,4.1E1,1.8E1,1.8E1,3.7E1,2.18E2,1E1,1.3E1,7E0,4E1,3.7E1,1E0,5E0,1.3E1,6E0,4E0,1E0,6E0,2.8E1,1.2E1,6E0,7E0,1E0,5E0,3E0,1E0,1.4E1,1.4E1,1E0,5E0,5E0,2E0],"tree_param":{"num_deleted":"0","num_feature":"2","num_nodes":"41","size_leaf_vector":"0"}},{"base_weights":[-1.6657983E-1,1.2853192E-1,-3.1760785E-1,8.084061E-3,2.2307327E-1,-1.6328786E-1,-3.3867127E-1,-9.122971E-2,6.207148E-2,2.4656272E-1,1.4566837E-1,-2.1203123E-1,-1.0595041E-1,-3.4677935E-1,-2.7337185E-1,1.21229775E-2,-1.6591899E-1,1.7342043E-1,4.6601076E-2,1.8721408E-1,8.710322E-2,-2.226575E-1,-4.8365194E-2,-3.2930052E-1,-1.8430407E-1,-6.491794E-2,1.1755566E-1,3.8510263E-2,1.975204E-1,1.196447E-2,1.03531115E-1,2.04321E-1,-4.810542E-4,-7.539448E-2,-2.774404E-1,-6.764593E-2,-2.54489E-2,6.1749518E-2,-9.632077E-2,5.4457873E-2,1.8497342E-1,-9.1945566E-2,5.5086356E-2,1.0668122E-1,2.9714823E-2,8.53098E-2,2.2128905E-1,-1.2193486E-1,8.843139E-3,-1.6292885E-2,-7.3489286E-2,-6.6492036E-3,-3.539888E-2],"categories":[],"categories_nodes":[],"categories_segments":[],"categories_sizes":[],"default_left":[1,1,1,1,1,1,1,1,1,0,1,0,1,0,1,1,0,1,1,1,0,1,1,0,0,1,1,0,0,1,1,1,0,1,0,1,1,0,0,0,0,0,0,0,0,0,0,0,0,0,0,0,0],"id":1,"left_children":[1,3,5,7,9,11,13,15,17,-1,19,-1,21,-1,23,25,-1,27,29,31,-1,33,35,-1,-1,37,39,-1,-1,41,43,45,-1,47,-1,49,51,-1,-1,-1,-1,-1,-1,-1,-1,-1,-1,-1,-1,-1,-1,-1,-1],"loss_changes":[1.9696255E1,1.7062924E0,8.938484E-1,3.6489627E-1,1.1681223E-1,8.0943525E-2,4.073906E-2,1.8727553E-1,6.771341E-2,0E0,3.722191E-2,0E0,1.169226E-1,0E0,1.0369611E-1,9.698041E-2,0E0,8.650094E-3,7.763584E-2,3.8628936E-2,0E0,2.7487487E-2,4.4642836E-3,0E0,0E0,3.379178E-2,1.11963E-2,0E0,0E0,1.21565655E-1,3.1791627E-4,3.335178E-3,0E0,1.283964E-2,0E0,9.0317056E-4,1.2610783E-3,0E0,0E0,0E0,0E0,0E0,0E0,0E0,0E0,0E0,0E0,0E0,0E0,0E0,0E0,0E0,0E0],"parents":[2147483647,0,0,1,1,2,2,3,3,4,4,5,5,6,6,7,7,8,8,10,10,12,12,14,14,15,15,17,17,18,18,19,19,21,21,22,22,25,25,26,26,29,29,30,30,31,31,33,33,35,35,36,36],"right_children":[2,4,6,8,10,12,14,16,18,-1,20,-1,22,-1,24,26,-1,28,30,32,-1,34,36,-1,-1,38,40,-1,-1,42,44,46,-1,48,-1,50,52,-1,-1,-1,-1,-1,-1,-1,-1,-1,-1,-1,-1,-1,-1,-1,-1],"split_conditions":[3.3015126E-1,6.483909E-1,4.334542E-1,4.0065086E-1,1.4680102E-1,4.1232565E-1,4.927627E-2,2.0378903E-1,9.3163416E-2,7.396882E-2,7.270175E-1,-6.360937E-2,1.9192201E-1,-1.04033805E-1,5.174236E-1,2.452451E-1,-4.97757E-2,2.0596452E-2,2.8453094E-1,2.4113218E-1,2.6130967E-2,4.2232722E-1,4.2362085E-1,-9.879016E-2,-5.5291224E-2,1.3242324E-1,3.435089E-1,1.1553079E-2,5.9256125E-2,5.48821E-1,5.351029E-1,6.713798E-1,-1.4431626E-4,1.4592926E-1,-8.323212E-2,4.1370666E-1,4.2800254E-1,1.8524855E-2,-2.8896233E-2,1.6337363E-2,5.549203E-2,-2.7583672E-2,1.6525907E-2,3.2004368E-2,8.914447E-3,2.5592942E-2,6.638672E-2,-3.658046E-2,2.6529417E-3,-4.887866E-3,-2.2046786E-2,-1.9947612E-3,-1.0619664E-2],"split_indices":[1,0,1,0,1,1,0,1,1,0,0,0,0,0,1,0,0,1,1,1,0,1,1,0,0,0,0,0,0,0,0,0,0,0,0,1,1,0,0,0,0,0,0,0,0,0,0,0,0,0,0,0,0],"split_type":[0,0,0,0,0,0,0,0,0,0,0,0,0,0,0,0,0,0,0,0,0,0,0,0,0,0,0,0,0,0,0,0,0,0,0,0,0,0,0,0,0,0,0,0,0,0,0,0,0,0,0,0,0],"sum_hessian":[4.4E2,1.49E2,2.91E2,6.6E1,8.3E1,3.6E1,2.55E2,2.3E1,4.3E1,6.2E1,2.1E1,1.8E1,1.8E1,2.23E2,3.2E1,1E1,1.3E1,4E0,3.9E1,1.1E1,1E1,5E0,1.3E1,1.8E1,1.4E1,6E0,4E0,1E0,3E0,2.5E1,1.4E1,1E1,1E0,2E0,3E0,6E0,7E0,1E0,5E0,3E0,1E0,7E0,1.8E1,1.3E1,1E0,2E0,8E0,1E0,1E0,1E0,5E0,3E0,4E0],"tree_param":{"num_deleted":"0","num_feature":"2","num_nodes":"53","size_leaf_vector":"0"}},{"base_weights":[-1.1700077E-1,9.200092E-2,-2.2396398E-1,7.3357425E-3,1.5843622E-1,-1.2025605E-1,-2.3807815E-1,-1.0077755E-1,3.522927E-2,1.2170528E-1,1.8476261E-1,-1.9915938E-1,-9.1622055E-2,-1.9754542E-1,-2.440241E-1,-8.281189E-3,-1.3694797E-1,1.02087684E-1,-7.10179E-3,1.6757165E-1,9.409112E-2,1.8659666E-1,5.0198287E-2,-1.4509368E-1,-3.204229E-2,-2.4130201E-1,-1.5063287E-1,-4.6835855E-2,7.296874E-2,3.7369587E-2,1.6954063E-1,-6.1568953E-2,3.9139073E-2,-5.4787576E-2,1.0878049E-1,-5.5522703E-2,-1.0219495E-2,-1.8242827E-1,-1.0514358E-1,5.2487075E-2,-9.743919E-2,1.157869E-1,-3.5183765E-2,1.0491044E-1,2.1318874E-1,3.873697E-2,-7.0838474E-2,-7.6870665E-2,7.5199716E-2,-3.5894215E-3,-7.859194E-2,1.2506662E-1,5.136178E-2,-1.38489455E-2,-6.016017E-2,-1.5608635E-2,1.6446814E-2],"categories":[],"categories_nodes":[],"categories_segments":[],"categories_sizes":[],"default_left":[1,1,1,1,1,1,1,1,1,1,1,0,1,1,0,1,0,1,1,0,1,0,0,0,1,0,1,1,0,1,1,1,1,1,1,1,1,0,0,0,0,0,0,0,0,0,0,0,0,0,0,0,0,0,0,0,0],"id":2,"left_children":[1,3,5,7,9,11,13,15,17,19,21,-1,23,25,-1,27,-1,29,31,-1,33,-1,-1,-1,35,-1,37,39,-1,41,43,45,47,49,51,53,55,-1,-1,-1,-1,-1,-1,-1,-1,-1,-1,-1,-1,-1,-1,-1,-1,-1,-1,-1,-1],"loss_changes":[9.8793745E0,8.4255135E-1,3.9878654E-1,2.055996E-1,5.8740854E-2,6.534737E-2,1.3491631E-2,4.5704767E-2,1.5355515E-1,3.23624E-2,2.2324324E-3,0E0,8.7739855E-2,4.1655898E-2,0E0,1.908037E-2,0E0,8.533828E-2,8.804244E-2,0E0,6.282012E-2,0E0,0E0,0E0,7.1187103E-3,0E0,1.1192203E-2,2.5218587E-2,0E0,7.234708E-2,5.844116E-3,1.7620683E-2,8.526498E-2,3.3741193E-3,1.6019434E-2,5.196687E-4,1.5500884E-3,0E0,0E0,0E0,0E0,0E0,0E0,0E0,0E0,0E0,0E0,0E0,0E0,0E0,0E0,0E0,0E0,0E0,0E0,0E0,0E0],"parents":[2147483647,0,0,1,1,2,2,3,3,4,4,5,5,6,6,7,7,8,8,9,9,10,10,12,12,13,13,15,15,17,17,18,18,20,20,24,24,26,26,27,27,29,29,30,30,31,31,32,32,33,33,34,34,35,35,36,36],"right_children":[2,4,6,8,10,12,14,16,18,20,22,-1,24,26,-1,28,-1,30,32,-1,34,-1,-1,-1,36,-1,38,40,-1,42,44,46,48,50,52,54,56,-1,-1,-1,-1,-1,-1,-1,-1,-1,-1,-1,-1,-1,-1,-1,-1,-1,-1,-1,-1],"split_conditions":[3.3015126E-1,6.483909E-1,4.334542E-1,2.9168087E-1,8.177591E-1,1.9192201E-1,5.3859115E-1,8.90318E-2,2.2107324E-1,1.2404237E-1,1.5241925E-1,-5.974782E-2,3.871912E-1,5.146048E-1,-7.320723E-2,1.8120003E-1,-4.1084394E-2,5.563799E-1,2.8453094E-1,5.0271496E-2,1.2849826E-1,5.5979002E-2,1.5059487E-2,-4.3528106E-2,2.5673625E-1,-7.239061E-2,6.681886E-2,1.3242324E-1,2.1890622E-2,1.3342735E-1,1.7929465E-1,3.3990693E-1,4.0065086E-1,7.259861E-1,7.8730357E-1,4.1370666E-1,3.1436318E-1,-5.4728482E-2,-3.1543076E-2,1.5746124E-2,-2.9231759E-2,3.473607E-2,-1.05551295E-2,3.1473134E-2,6.3956626E-2,1.16210915E-2,-2.1251542E-2,-2.3061201E-2,2.2559915E-2,-1.0768265E-3,-2.3577584E-2,3.7519988E-2,1.5408535E-2,-4.154684E-3,-1.8048052E-2,-4.6825907E-3,4.9340446E-3],"split_indices":[1,0,1,0,0,0,1,1,1,1,1,0,1,1,0,0,0,0,1,0,1,0,0,0,0,0,0,0,0,1,1,0,0,0,0,1,0,0,0,0,0,0,0,0,0,0,0,0,0,0,0,0,0,0,0,0,0],"split_type":[0,0,0,0,0,0,0,0,0,0,0,0,0,0,0,0,0,0,0,0,0,0,0,0,0,0,0,0,0,0,0,0,0,0,0,0,0,0,0,0,0,0,0,0,0,0,0,0,0,0,0,0,0,0,0,0,0],"sum_hessian":[4.4E2,1.49E2,2.91E2,6.6E1,8.3E1,3.6E1,2.55E2,1.3E1,5.3E1,3.7E1,4.6E1,8E0,2.8E1,3.7E1,2.18E2,4E0,9E0,2E1,3.3E1,1.2E1,2.5E1,4.5E1,1E0,1.4E1,1.4E1,1.7E1,2E1,3E0,1E0,1.1E1,9E0,1.5E1,1.8E1,2E0,2.3E1,6E0,8E0,1E1,1E1,1E0,2E0,5E0,6E0,5E0,4E0,1E0,1.4E1,4E0,1.4E1,1E0,1E0,1.7E1,6E0,1E0,5E0,7E0,1E0],"tree_param":{"num_deleted":"0","num_feature":"2","num_nodes":"57","size_leaf_vector":"0"}},{"base_weights":[-8.219694E-2,6.5909855E-2,-1.5799771E-1,8.653834E-3,1.159007E-1,-8.756375E-2,-1.6756044E-1,-7.287854E-2,2.818486E-2,1.353381E-1,9.411055E-2,-1.4605021E-1,-6.639334E-2,-4.115832E-3,-9.997204E-2,7.8295946E-2,-2.3726781E-3,9.62646E-2,1.4864585E-1,6.309426E-2,1.06257595E-1,-1.04467444E-1,-2.389302E-2,-3.6156505E-2,6.202343E-2,-1.5428284E-1,-6.710898E-2,2.8173774E-2,1.2585688E-1,-7.0212886E-2,1.3022616E-2,1.1223118E-1,-4.7667176E-2,8.956819E-2,-2.548261E-2,1.5063222E-1,8.42931E-2,-4.2037714E-2,-7.125699E-3,4.4614017E-2,-7.795135E-2,-6.0341656E-3,-7.497193E-2,5.9222512E-2,-8.471328E-2,8.204406E-2,1.6202344E-1,3.2926425E-2,-9.289051E-2,-2.4026792E-2,5.414377E-2,1.3478519E-1,6.721298E-2,1.3171157E-1,4.6670318E-2,-6.680316E-2,1.0558625E-2,1.2892756E-1,4.6908233E-2,-5.0188534E-2,-1.4440437E-2,-1.3245161E-2,9.528279E-3],"categories":[],"categories_nodes":[],"categories_segments":[],"categories_sizes":[],"default_left":[1,1,1,1,1,1,0,1,1,1,1,0,1,1,1,1,1,1,0,1,1,0,1,1,0,0,1,1,1,1,1,1,0,1,1,0,1,1,1,0,0,0,0,0,0,0,0,0,0,0,0,0,0,0,0,0,0,0,0,0,0,0,0],"id":3,"left_children":[1,3,5,7,9,11,-1,13,15,17,19,-1,21,23,25,27,29,31,-1,33,35,-1,37,39,-1,-1,41,43,45,47,49,51,-1,53,55,-1,57,59,61,-1,-1,-1,-1,-1,-1,-1,-1,-1,-1,-1,-1,-1,-1,-1,-1,-1,-1,-1,-1,-1,-1,-1,-1],"loss_changes":[4.961348E0,4.2833853E-1,1.8200207E-1,1.15115225E-1,2.1146894E-2,3.6116004E-2,0E0,2.5670849E-2,8.899951E-2,6.489873E-3,8.74275E-3,0E0,4.4430643E-2,1.2838284E-2,7.4944273E-3,4.889898E-2,3.9557893E-2,3.5225034E-2,0E0,3.5112116E-2,1.4593422E-2,0E0,4.2640204E-3,1.698089E-2,0E0,0E0,3.389433E-3,4.707694E-2,4.137099E-3,1.943123E-2,4.852985E-2,3.1247735E-3,0E0,1.3739452E-2,6.6623236E-3,0E0,2.899395E-2,8.4983837E-4,1.0434241E-3,0E0,0E0,0E0,0E0,0E0,0E0,0E0,0E0,0E0,0E0,0E0,0E0,0E0,0E0,0E0,0E0,0E0,0E0,0E0,0E0,0E0,0E0,0E0,0E0],"parents":[2147483647,0,0,1,1,2,2,3,3,4,4,5,5,7,7,8,8,9,9,10,10,12,12,13,13,14,14,15,15,16,16,17,17,19,19,20,20,22,22,23,23,26,26,27,27,28,28,29,29,30,30,31,31,33,33,34,34,36,36,37,37,38,38],"right_children":[2,4,6,8,10,12,-1,14,16,18,20,-1,22,24,26,28,30,32,-1,34,36,-1,38,40,-1,-1,42,44,46,48,50,52,-1,54,56,-1,58,60,62,-1,-1,-1,-1,-1,-1,-1,-1,-1,-1,-1,-1,-1,-1,-1,-1,-1,-1,-1,-1,-1,-1,-1,-1],"split_conditions":[3.3015126E-1,6.727798E-1,4.334542E-1,2.9168087E-1,9.099738E-2,1.9192201E-1,-5.0268136E-2,8.90318E-2,2.2107324E-1,5.1101442E-2,1.30705E-1,-4.3815065E-2,3.871912E-1,1.8120003E-1,1.24593645E-1,5.563799E-1,4.0065086E-1,4.970374E-2,4.4593755E-2,1.2617476E-1,1.4425643E-1,-3.1340234E-2,2.5673625E-1,1.3242324E-1,1.860703E-2,-4.6284854E-2,1.3890702E-1,2.0969975E-1,1.7929465E-1,3.3990693E-1,2.8453094E-1,9.4726217E-1,-1.4300154E-2,8.48949E-1,1.272597E-1,4.5189667E-2,7.270175E-1,4.2362085E-1,2.9872298E-1,1.3384205E-2,-2.3385406E-2,-1.8102498E-3,-2.249158E-2,1.7766755E-2,-2.5413984E-2,2.4613218E-2,4.8607033E-2,9.877928E-3,-2.7867153E-2,-7.208038E-3,1.6243132E-2,4.043556E-2,2.0163894E-2,3.9513472E-2,1.4001096E-2,-2.0040948E-2,3.1675876E-3,3.867827E-2,1.407247E-2,-1.5056561E-2,-4.3321312E-3,-3.9735483E-3,2.858484E-3],"split_indices":[1,0,1,0,1,0,0,1,1,1,1,0,1,0,0,0,0,1,0,1,1,0,0,0,0,0,0,1,1,0,1,0,0,0,1,0,0,1,0,0,0,0,0,0,0,0,0,0,0,0,0,0,0,0,0,0,0,0,0,0,0,0,0],"split_type":[0,0,0,0,0,0,0,0,0,0,0,0,0,0,0,0,0,0,0,0,0,0,0,0,0,0,0,0,0,0,0,0,0,0,0,0,0,0,0,0,0,0,0,0,0,0,0,0,0,0,0,0,0,0,0,0,0,0,0,0,0,0,0],"sum_hessian":[4.4E2,1.49E2,2.91E2,7E1,7.9E1,3.6E1,2.55E2,1.3E1,5.7E1,3.9E1,4E1,8E0,2.8E1,4E0,9E0,2.1E1,3.6E1,1.2E1,2.7E1,1.3E1,2.7E1,1.4E1,1.4E1,3E0,1E0,2E0,7E0,1.1E1,1E1,6E0,3E1,1.1E1,1E0,1E1,3E0,7E0,2E1,6E0,8E0,1E0,2E0,1E0,6E0,9E0,2E0,6E0,4E0,1E0,5E0,1.6E1,1.4E1,6E0,5E0,4E0,6E0,1E0,2E0,8E0,1.2E1,4E0,2E0,6E0,2E0],"tree_param":{"num_deleted":"0","num_feature":"2","num_nodes":"63","size_leaf_vector":"0"}},{"base_weights":[-5.7369642E-2,4.7604315E-2,-1.1109815E-1,-1.1361606E-2,7.379464E-2,-1.1593575E-1,-4.6457734E-2,-7.726984E-2,4.1393093E-3,8.373696E-2,-1.787561E-2,-6.17352E-2,-1.1799141E-1,-6.971879E-2,-5.11189E-3,3.7921906E-2,-9.6409045E-2,6.0191557E-2,-1.0003106E-2,1.00765385E-1,6.925728E-2,-8.323856E-3,-2.0417035E-2,-1.1632197E-1,-1.990157E-2,-1.0466803E-1,-1.23228304E-1,-8.888513E-3,1.2550548E-2,-1.1131108E-2,8.5820965E-2,-4.8386756E-2,1.5446423E-2,5.6848433E-2,9.292076E-2,-1.6120335E-2,7.5327903E-3,-4.1028976E-2,9.806693E-4,-1.3199367E-1,-9.335959E-2,-1.1120324E-2,-1.4620522E-3,-2.3178965E-2,6.482303E-3,1.6441802E-2,1.1640009E-1,8.719176E-3,-7.473597E-2,-4.5970645E-2,3.8983487E-2,5.4006227E-3,7.760863E-2,1.0389332E-1,3.1286612E-2,-1.9090861E-2,-5.0896406E-3,-5.1876415E-2,-4.243329E-3,5.9298113E-2,-2.842322E-2,-1.360288E-1,-2.5645554E-2,-1.0645216E-1,-3.2118306E-2,-1.4652163E-3,-1.27583025E-2],"categories":[],"categories_nodes":[],"categories_segments":[],"categories_sizes":[],"default_left":[1,1,1,1,1,1,1,1,1,1,1,1,1,0,1,0,0,1,1,0,1,1,0,0,1,1,0,1,0,1,1,1,1,1,1,1,0,1,1,1,1,1,0,0,0,0,0,0,0,0,0,0,0,0,0,0,0,0,0,0,0,0,0,0,0,0,0],"id":4,"left_children":[1,3,5,7,9,11,13,15,17,19,21,23,25,-1,27,-1,-1,29,31,-1,33,35,-1,-1,37,39,-1,41,-1,43,45,47,49,51,53,55,-1,57,59,61,63,65,-1,-1,-1,-1,-1,-1,-1,-1,-1,-1,-1,-1,-1,-1,-1,-1,-1,-1,-1,-1,-1,-1,-1,-1,-1],"loss_changes":[2.49257E0,2.324889E-1,8.592343E-2,4.833683E-2,9.628397E-2,2.2910118E-2,2.080207E-2,2.3498122E-2,3.1517956E-2,1.6198456E-2,9.707734E-5,2.5087766E-2,5.2428246E-3,0E0,7.11895E-4,0E0,0E0,1.5578942E-2,3.200647E-2,0E0,1.0573953E-2,6.159351E-4,0E0,0E0,3.5697364E-3,1.2397945E-2,0E0,1.16337265E-4,0E0,7.8686455E-4,1.0815501E-2,2.0212691E-2,3.0703645E-2,4.01674E-2,8.246377E-3,1.1353404E-6,0E0,1.3759909E-3,1.0259242E-2,5.523145E-3,4.4689298E-2,7.619546E-5,0E0,0E0,0E0,0E0,0E0,0E0,0E0,0E0,0E0,0E0,0E0,0E0,0E0,0E0,0E0,0E0,0E0,0E0,0E0,0E0,0E0,0E0,0E0,0E0,0E0],"parents":[2147483647,0,0,1,1,2,2,3,3,4,4,5,5,6,6,7,7,8,8,9,9,10,10,11,11,12,12,14,14,17,17,18,18,20,20,21,21,24,24,25,25,27,27,29,29,30,30,31,31,32,32,33,33,34,34,35,35,37,37,38,38,39,39,40,40,41,41],"right_children":[2,4,6,8,10,12,14,16,18,20,22,24,26,-1,28,-1,-1,30,32,-1,34,36,-1,-1,38,40,-1,42,-1,44,46,48,50,52,54,56,-1,58,60,62,64,66,-1,-1,-1,-1,-1,-1,-1,-1,-1,-1,-1,-1,-1,-1,-1,-1,-1,-1,-1,-1,-1,-1,-1,-1,-1],"split_conditions":[3.3015126E-1,5.563799E-1,2.5778583E-1,1.8562824E-1,2.348012E-1,4.2590132E-1,3.871912E-1,3.2377616E-2,1.3342735E-1,8.615413E-2,6.3377345E-1,4.1232565E-1,6.429677E-1,-2.0915639E-2,3.1436318E-1,1.1376572E-2,-2.8922714E-2,4.2723283E-2,2.7401623E-1,3.0229617E-2,2.0540184E-1,6.0267806E-1,-6.1251107E-3,-3.4896594E-2,4.164949E-1,4.912955E-1,-3.6968492E-2,2.9141328E-1,3.7651644E-3,4.3173093E-1,2.452451E-1,3.4493452E-1,4.0065086E-1,7.770933E-1,2.2813466E-1,5.6901395E-1,2.2598372E-3,2.0671389E-1,1.8623695E-1,2.4845855E-1,6.5670714E-2,2.647782E-1,-4.3861568E-4,-6.9536897E-3,1.9446911E-3,4.9325405E-3,3.492003E-2,2.6157529E-3,-2.2420792E-2,-1.3791194E-2,1.1695046E-2,1.6201868E-3,2.328259E-2,3.1167997E-2,9.385984E-3,-5.7272585E-3,-1.5268923E-3,-1.5562925E-2,-1.2729988E-3,1.7789435E-2,-8.526966E-3,-4.080864E-2,-7.6936665E-3,-3.193565E-2,-9.635492E-3,-4.395649E-4,-3.8274908E-3],"split_indices":[1,0,0,0,1,1,1,1,1,1,0,1,1,0,0,0,0,1,1,0,1,0,0,0,1,1,0,0,0,0,0,0,0,0,1,0,0,0,0,0,0,0,0,0,0,0,0,0,0,0,0,0,0,0,0,0,0,0,0,0,0,0,0,0,0,0,0],"split_type":[0,0,0,0,0,0,0,0,0,0,0,0,0,0,0,0,0,0,0,0,0,0,0,0,0,0,0,0,0,0,0,0,0,0,0,0,0,0,0,0,0,0,0,0,0,0,0,0,0,0,0,0,0,0,0,0,0,0,0,0,0,0,0,0,0,0,0],"sum_hessian":[4.4E2,1.49E2,2.91E2,4.6E1,1.03E2,2.7E2,2.1E1,8E0,3.8E1,9.3E1,1E1,1.1E1,2.59E2,1.3E1,8E0,1E0,7E0,7E0,3.1E1,4E1,5.3E1,3E0,7E0,4E0,7E0,7.9E1,1.8E2,7E0,1E0,2E0,5E0,1.2E1,1.9E1,3.7E1,1.6E1,2E0,1E0,3E0,4E0,2E1,5.9E1,5E0,2E0,1E0,1E0,2E0,3E0,4E0,8E0,5E0,1.4E1,1.1E1,2.6E1,1.3E1,3E0,1E0,1E0,2E0,1E0,1E0,3E0,1.9E1,1E0,4.8E1,1.1E1,1E0,4E0],"tree_param":{"num_deleted":"0","num_feature":"2","num_nodes":"67","size_leaf_vector":"0"}},{"base_weights":[-4.0411368E-2,-7.258061E-2,4.826023E-2,-3.0449364E-2,-8.223673E-2,6.3437514E-2,2.5593497E-2,2.0113774E-2,-4.0559847E-2,-8.323506E-2,-1.407578E-2,4.371712E-2,6.942309E-2,3.7435263E-2,6.5511735E-3,-1.0452585E-2,1.0510826E-1,-1.0617855E-1,-3.1320017E-2,-7.478336E-2,-8.646406E-2,-2.0260522E-2,-3.1991105E-3,5.2545045E-2,-5.759278E-2,1.1864036E-1,6.398855E-2,-6.236319E-2,4.679098E-2,3.1085325E-2,-1.2395372E-2,5.978282E-3,-4.530708E-2,-2.3839563E-2,-1.1787844E-1,-3.9856054E-2,-3.1019028E-3,-9.726059E-2,-6.604456E-2,7.847929E-2,3.3037983E-2,-7.781774E-3,6.8838395E-2,-7.58947E-2,-1.7650083E-2,1.3653025E-2,6.7430064E-2,-3.315735E-2,4.326033E-2,8.5532665E-6,-1.3523779E-2,-2.0834958E-2,4.8674256E-2,-2.0165814E-2,-5.4599956E-2,5.04034E-2,-1.2548149E-2,-7.516825E-2,-2.328577E-2,5.509943E-3,8.972252E-2,-5.5631906E-2,4.615633E-2,8.902173E-3,-2.8916806E-2,5.8846366E-2,1.16101645E-1,1.8851294E-3,3.6717534E-2,8.510412E-2,4.2263784E-2,1.4851868E-2,5.0254505E-2,-7.9081105E-3,-1.868096E-2],"categories":[],"categories_nodes":[],"categories_segments":[],"categories_sizes":[],"default_left":[1,1,1,1,1,1,1,1,1,1,1,1,1,1,1,1,0,1,1,1,0,0,0,1,0,0,1,1,1,1,1,1,0,0,0,1,1,0,1,1,1,1,1,0,0,1,1,0,1,0,1,0,0,0,0,0,0,0,0,0,0,0,0,0,0,0,0,0,0,0,0,0,0,0,0],"id":5,"left_children":[1,3,5,7,9,11,13,15,17,19,21,23,25,27,29,31,-1,33,35,37,-1,-1,-1,39,-1,-1,41,43,45,47,49,51,-1,-1,-1,53,55,-1,57,59,61,63,65,-1,-1,67,69,-1,71,-1,73,-1,-1,-1,-1,-1,-1,-1,-1,-1,-1,-1,-1,-1,-1,-1,-1,-1,-1,-1,-1,-1,-1,-1,-1],"loss_changes":[1.2614546E0,1.2930691E-1,3.897068E-2,3.2511313E-2,1.6724944E-2,5.227685E-3,1.08039975E-2,2.9676348E-2,2.8202392E-2,6.0224533E-4,2.715314E-4,2.0018987E-2,6.31696E-3,3.092862E-2,9.682063E-3,5.425064E-3,0E0,2.9699728E-3,1.11973025E-2,9.09397E-3,0E0,0E0,0E0,6.5134168E-3,0E0,0E0,1.7591342E-2,4.7556031E-4,1.8229615E-2,8.473791E-3,1.6807579E-4,9.027848E-3,0E0,0E0,0E0,9.350143E-3,6.6975607E-3,0E0,2.1656722E-2,5.248513E-3,1.6526192E-2,1.6678853E-3,1.489161E-2,0E0,0E0,3.1878317E-3,3.964603E-3,0E0,8.4317755E-4,0E0,1.7084018E-4,0E0,0E0,0E0,0E0,0E0,0E0,0E0,0E0,0E0,0E0,0E0,0E0,0E0,0E0,0E0,0E0,0E0,0E0,0E0,0E0,0E0,0E0,0E0,0E0],"parents":[2147483647,0,0,1,1,2,2,3,3,4,4,5,5,6,6,7,7,8,8,9,9,10,10,11,11,12,12,13,13,14,14,15,15,17,17,18,18,19,19,23,23,26,26,27,27,28,28,29,29,30,30,31,31,35,35,36,36,38,38,39,39,40,40,41,41,42,42,45,45,46,46,48,48,50,50],"right_children":[2,4,6,8,10,12,14,16,18,20,22,24,26,28,30,32,-1,34,36,38,-1,-1,-1,40,-1,-1,42,44,46,48,50,52,-1,-1,-1,54,56,-1,58,60,62,64,66,-1,-1,68,70,-1,72,-1,74,-1,-1,-1,-1,-1,-1,-1,-1,-1,-1,-1,-1,-1,-1,-1,-1,-1,-1,-1,-1,-1,-1,-1,-1],"split_conditions":[4.6886122E-1,4.273619E-1,1.4680102E-1,1.3342735E-1,2.4845855E-1,7.7662957E-1,2.348012E-1,3.3552182E-1,1.24593645E-1,6.429677E-1,4.3096668E-1,7.63927E-1,7.8799325E-1,5.48821E-1,5.351029E-1,8.90318E-2,3.153248E-2,7.3760554E-2,3.871912E-1,4.912955E-1,-2.593922E-2,-6.078157E-3,-9.597332E-4,4.7833383E-2,-1.7277835E-2,3.559211E-2,8.1303275E-1,5.278464E-1,2.0540184E-1,4.7921193E-1,5.546091E-1,5.3894803E-2,-1.3592125E-2,-7.151869E-3,-3.5363533E-2,3.2113224E-1,1.8623695E-1,-2.9178178E-2,6.5670714E-2,5.587805E-1,5.650635E-2,8.013073E-1,1.3436216E-1,-2.276841E-2,-5.295025E-3,8.1093013E-1,2.2308871E-1,-9.947205E-3,3.1864864E-1,2.5659801E-6,2.5433213E-1,-6.2504876E-3,1.4602277E-2,-6.0497443E-3,-1.6379988E-2,1.5121021E-2,-3.7644447E-3,-2.2550477E-2,-6.9857314E-3,1.6529829E-3,2.6916757E-2,-1.6689572E-2,1.3846899E-2,2.6706518E-3,-8.675043E-3,1.765391E-2,3.4830496E-2,5.655388E-4,1.1015261E-2,2.5531238E-2,1.2679135E-2,4.455561E-3,1.5076352E-2,-2.3724332E-3,-5.604288E-3],"split_indices":[0,1,1,1,0,0,1,0,0,1,1,0,0,0,0,1,0,0,1,1,0,0,0,1,0,0,0,0,1,0,0,1,0,0,0,1,0,0,0,0,1,0,1,0,0,0,1,0,1,0,1,0,0,0,0,0,0,0,0,0,0,0,0,0,0,0,0,0,0,0,0,0,0,0,0],"split_type":[0,0,0,0,0,0,0,0,0,0,0,0,0,0,0,0,0,0,0,0,0,0,0,0,0,0,0,0,0,0,0,0,0,0,0,0,0,0,0,0,0,0,0,0,0,0,0,0,0,0,0,0,0,0,0,0,0,0,0,0,0,0,0,0,0,0,0,0,0,0,0,0,0,0,0],"sum_hessian":[4.4E2,3.23E2,1.17E2,6.1E1,2.62E2,6.9E1,4.8E1,1E1,5.1E1,2.58E2,4E0,1.8E1,5.1E1,2.9E1,1.9E1,8E0,2E0,5E0,4.6E1,7.8E1,1.8E2,2E0,2E0,1.7E1,1E0,3E0,4.8E1,2E0,2.7E1,8E0,1.1E1,6E0,2E0,1E0,4E0,3.5E1,1.1E1,1.9E1,5.9E1,6E0,1.1E1,3E0,4.5E1,1E0,1E0,1.1E1,1.6E1,1E0,7E0,1E0,1E1,4E0,2E0,1.6E1,1.9E1,1E0,1E1,4.8E1,1.1E1,1E0,5E0,1E0,1E1,2E0,1E0,3.9E1,6E0,8E0,3E0,8E0,8E0,2E0,5E0,6E0,4E0],"tree_param":{"num_deleted":"0","num_feature":"2","num_nodes":"75","size_leaf_vector":"0"}},{"base_weights":[-2.8299581E-2,-5.5293147E-2,2.5513986E-2,5.3779143E-3,-5.65758E-2,4.1011833E-2,-7.6276027E-3,-1.5834559E-2,3.8939398E-2,-4.3598536E-2,-6.0088955E-2,5.30807E-2,3.152076E-2,-1.1780721E-2,5.8596075E-2,3.5358876E-2,-3.7472636E-2,-5.055522E-2,-1.464524E-2,-6.0478285E-2,-2.3556232E-2,3.5129473E-2,6.1442804E-2,2.8701384E-2,9.752232E-2,-1.08578004E-1,-4.913162E-3,-5.6622744E-2,-2.2792395E-2,-5.4515515E-2,-3.4572359E-3,-5.896659E-2,-7.34465E-2,6.771105E-2,-5.9159845E-3,4.759557E-2,7.85162E-2,3.8036287E-3,3.3196814E-2,4.4201054E-3,-2.5228743E-2,-4.37066E-2,-6.448874E-2,-5.4822594E-2,-3.928248E-3,4.8503626E-2,-1.869977E-2,-6.012454E-2,-3.552546E-2,4.6834648E-3,7.500406E-2,2.8101483E-2,-7.197893E-2,5.5033308E-2,-3.942299E-2,1.6085327E-2,-1.864025E-2,2.602115E-2,8.028556E-2,-1.25737125E-2,1.7391957E-2,-2.9100213E-2,1.255019E-2],"categories":[],"categories_nodes":[],"categories_segments":[],"categories_sizes":[],"default_left":[1,1,1,1,1,1,1,1,0,1,1,1,1,1,0,0,0,1,1,1,0,1,1,1,0,0,1,1,1,0,1,1,0,1,1,1,0,1,1,1,1,0,0,0,0,0,0,0,0,0,0,0,0,0,0,0,0,0,0,0,0,0,0],"id":6,"left_children":[1,3,5,7,9,11,13,15,-1,17,19,21,23,25,-1,-1,-1,27,29,31,-1,33,35,37,-1,-1,39,41,43,-1,45,47,-1,49,51,53,-1,55,57,59,61,-1,-1,-1,-1,-1,-1,-1,-1,-1,-1,-1,-1,-1,-1,-1,-1,-1,-1,-1,-1,-1,-1],"loss_changes":[6.420162E-1,2.3183405E-2,7.632906E-2,5.6000417E-3,1.0510445E-2,9.89604E-3,1.3891972E-2,6.8636276E-3,0E0,1.2351841E-2,1.7613173E-3,4.2962804E-3,8.179892E-3,3.0045547E-2,0E0,0E0,0E0,7.468909E-3,6.0564913E-3,1.6093254E-6,0E0,2.179779E-2,2.882719E-3,6.3654445E-3,0E0,0E0,8.454387E-3,1.4485419E-3,6.4310897E-3,0E0,1.0411191E-2,3.3742785E-3,0E0,3.7856735E-3,2.0001067E-2,1.381956E-2,0E0,3.056324E-3,1.4467638E-2,7.0523624E-3,2.4128547E-3,0E0,0E0,0E0,0E0,0E0,0E0,0E0,0E0,0E0,0E0,0E0,0E0,0E0,0E0,0E0,0E0,0E0,0E0,0E0,0E0,0E0,0E0],"parents":[2147483647,0,0,1,1,2,2,3,3,4,4,5,5,6,6,7,7,9,9,10,10,11,11,12,12,13,13,17,17,18,18,19,19,21,21,22,22,23,23,26,26,27,27,28,28,30,30,31,31,33,33,34,34,35,35,37,37,38,38,39,39,40,40],"right_children":[2,4,6,8,10,12,14,16,-1,18,20,22,24,26,-1,-1,-1,28,30,32,-1,34,36,38,-1,-1,40,42,44,-1,46,48,-1,50,52,54,-1,56,58,60,62,-1,-1,-1,-1,-1,-1,-1,-1,-1,-1,-1,-1,-1,-1,-1,-1,-1,-1,-1,-1,-1,-1],"split_conditions":[3.1299266E-1,8.90318E-2,2.2813466E-1,5.3894803E-2,5.342214E-1,8.615413E-2,6.838398E-1,1.3242324E-1,1.1681819E-2,5.174236E-1,6.277314E-2,5.1101442E-2,2.27165E-1,2.329007E-1,1.7578823E-2,1.0607664E-2,-1.1241791E-2,2.5778583E-1,2.3604153E-2,2.476182E-3,-7.06687E-3,4.0456265E-2,9.275291E-1,1.1661089E-1,2.9256696E-2,-3.2573402E-2,3.3015126E-1,4.2590132E-1,3.8145524E-1,-1.6354656E-2,5.526691E-2,7.686247E-5,-2.203395E-2,5.587805E-1,9.1907454E-1,9.2313206E-1,2.3554862E-2,1.0601598E-1,8.394313E-1,3.0675822E-1,3.871912E-1,-1.3111981E-2,-1.9346623E-2,-1.6446779E-2,-1.1784744E-3,1.4551088E-2,-5.6099314E-3,-1.8037362E-2,-1.0657638E-2,1.4050395E-3,2.2501219E-2,8.430446E-3,-2.1593679E-2,1.6509993E-2,-1.1826897E-2,4.825598E-3,-5.592075E-3,7.8063454E-3,2.4085669E-2,-3.772114E-3,5.2175876E-3,-8.730064E-3,3.765057E-3],"split_indices":[0,1,1,1,1,1,0,0,0,1,0,1,1,1,0,0,0,0,0,0,0,1,0,1,0,0,1,1,1,0,0,0,0,0,0,0,0,1,0,1,1,0,0,0,0,0,0,0,0,0,0,0,0,0,0,0,0,0,0,0,0,0,0],"split_type":[0,0,0,0,0,0,0,0,0,0,0,0,0,0,0,0,0,0,0,0,0,0,0,0,0,0,0,0,0,0,0,0,0,0,0,0,0,0,0,0,0,0,0,0,0,0,0,0,0,0,0,0,0,0,0,0,0,0,0,0,0,0,0],"sum_hessian":[4.4E2,2.93E2,1.47E2,6E0,2.87E2,1E2,4.7E1,4E0,2E0,6.4E1,2.23E2,4.2E1,5.8E1,4.5E1,2E0,1E0,3E0,5.1E1,1.3E1,2.2E2,3E0,1.5E1,2.7E1,5.7E1,1E0,2E0,4.3E1,4.1E1,1E1,2E0,1.1E1,2.02E2,1.8E1,8E0,7E0,1.7E1,1E1,9E0,4.8E1,3E1,1.3E1,1.8E1,2.3E1,3E0,7E0,2E0,9E0,1.91E2,1.1E1,1E0,7E0,5E0,2E0,1.6E1,1E0,6E0,3E0,4.3E1,5E0,1.3E1,1.7E1,1.2E1,1E0],"tree_param":{"num_deleted":"0","num_feature":"2","num_nodes":"63","size_leaf_vector":"0"}},{"base_weights":[-1.986276E-2,-3.6440313E-2,2.5300367E-2,1.6620906E-2,-3.8188662E-2,1.2292633E-2,3.3044357E-2,-4.8630833E-4,9.384653E-2,-4.0743966E-2,-1.8624123E-2,2.5558239E-2,2.0109757E-3,3.0141786E-2,6.707151E-2,9.706244E-3,-2.7504345E-2,-1.0937449E-2,-4.1031446E-2,-4.1569836E-2,-1.2101872E-2,8.011979E-2,1.8469747E-2,-4.304897E-2,9.437176E-3,3.3336654E-2,-3.3744064E-3,-1.1211013E-2,3.3426255E-2,-5.0790064E-2,1.9276777E-2,-6.856761E-2,-4.0155847E-2,1.5713103E-2,-7.908222E-2,2.5782526E-2,-1.8669283E-2,-6.873276E-2,3.277197E-2,6.956551E-2,8.0889463E-4,5.534774E-2,2.920386E-2,-5.635224E-2,2.9087175E-2,3.0055046E-2,-2.904129E-2,9.6156895E-3,3.815788E-2,-1.3707638E-2,-7.542634E-2,1.478292E-3,-4.1282453E-2,-9.240404E-3,2.7111074E-2,-9.863233E-2,-3.3171374E-2,3.5024405E-2,7.946472E-3,-2.6433121E-2,-2.0459294E-4,4.829862E-2,3.691239E-3,8.289397E-2,2.1454304E-2,1.604074E-2,-1.3221038E-2,-6.739712E-3,3.623007E-2,5.3524956E-2,-3.4331977E-2],"categories":[],"categories_nodes":[],"categories_segments":[],"categories_sizes":[],"default_left":[1,1,1,1,1,1,1,1,0,1,1,1,1,1,0,1,0,1,1,1,1,0,1,0,1,1,1,1,1,0,0,1,1,1,1,1,1,0,1,1,1,0,1,0,1,0,0,0,0,0,0,0,0,0,0,0,0,0,0,0,0,0,0,0,0,0,0,0,0,0,0],"id":7,"left_children":[1,3,5,7,9,11,13,15,-1,17,19,21,23,25,-1,27,-1,29,31,33,35,-1,37,-1,39,41,43,45,47,-1,-1,49,51,53,55,57,59,-1,61,63,65,-1,67,-1,69,-1,-1,-1,-1,-1,-1,-1,-1,-1,-1,-1,-1,-1,-1,-1,-1,-1,-1,-1,-1,-1,-1,-1,-1,-1,-1],"loss_changes":[3.3109605E-1,3.0599296E-2,1.1580884E-2,1.4577908E-2,1.4889091E-2,6.222654E-3,5.2870438E-3,3.0207913E-3,0E0,1.9161999E-3,5.1839203E-3,6.2553883E-3,9.441114E-3,7.6080784E-3,0E0,4.344003E-3,0E0,5.7955324E-3,3.8288236E-3,1.8433187E-2,8.194217E-3,0E0,2.5949111E-2,0E0,1.239503E-2,4.20554E-3,1.3677336E-2,4.5517636E-3,8.3736144E-5,0E0,0E0,1.5999712E-3,1.2584716E-2,1.3881944E-3,1.2160353E-3,5.458726E-4,3.865228E-3,0E0,7.4976664E-3,1.4531147E-4,4.9135135E-3,0E0,1.4386818E-2,0E0,9.586735E-3,0E0,0E0,0E0,0E0,0E0,0E0,0E0,0E0,0E0,0E0,0E0,0E0,0E0,0E0,0E0,0E0,0E0,0E0,0E0,0E0,0E0,0E0,0E0,0E0,0E0,0E0],"parents":[2147483647,0,0,1,1,2,2,3,3,4,4,5,5,6,6,7,7,9,9,10,10,11,11,12,12,13,13,15,15,17,17,18,18,19,19,20,20,22,22,24,24,25,25,26,26,27,27,28,28,31,31,32,32,33,33,34,34,35,35,36,36,38,38,39,39,40,40,42,42,44,44],"right_children":[2,4,6,8,10,12,14,16,-1,18,20,22,24,26,-1,28,-1,30,32,34,36,-1,38,-1,40,42,44,46,48,-1,-1,50,52,54,56,58,60,-1,62,64,66,-1,68,-1,70,-1,-1,-1,-1,-1,-1,-1,-1,-1,-1,-1,-1,-1,-1,-1,-1,-1,-1,-1,-1,-1,-1,-1,-1,-1,-1],"split_conditions":[4.6782744E-1,1.3342735E-1,6.93782E-1,1.2506394E-1,2.5778583E-1,2.2107324E-1,9.6751547E-1,8.90318E-2,2.815396E-2,3.0533385E-1,2.7544698E-1,4.7620025E-1,2.260536E-1,9.4726217E-1,2.0121455E-2,5.3894803E-2,-8.251304E-3,1.24593645E-1,4.1232565E-1,3.4493452E-1,3.1785598E-1,2.4035938E-2,5.354054E-1,-1.2914692E-2,2.2813466E-1,7.330593E-1,9.529607E-1,1.3242324E-1,5.858628E-2,-1.5237019E-2,5.7830336E-3,7.3760554E-2,4.2590132E-1,2.9985964E-1,4.2095137E-1,4.1281965E-1,3.871912E-1,-2.0619828E-2,6.551199E-1,6.6387695E-1,5.546091E-1,1.6604323E-2,7.770933E-1,-1.6905673E-2,9.6416515E-1,9.016514E-3,-8.712388E-3,2.884707E-3,1.1447364E-2,-4.1122916E-3,-2.2627903E-2,4.4348763E-4,-1.2384736E-2,-2.7721212E-3,8.133323E-3,-2.95897E-2,-9.951413E-3,1.0507322E-2,2.3839416E-3,-7.929937E-3,-6.137788E-5,1.4489586E-2,1.1073718E-3,2.4868192E-2,6.4362916E-3,4.8122224E-3,-3.9663115E-3,-2.0219136E-3,1.0869021E-2,1.6057488E-2,-1.0299593E-2],"split_indices":[0,1,0,1,0,1,0,1,0,1,1,0,1,0,0,1,0,0,1,0,1,0,0,0,1,0,0,0,1,0,0,0,1,0,0,0,1,0,0,0,0,0,0,0,0,0,0,0,0,0,0,0,0,0,0,0,0,0,0,0,0,0,0,0,0,0,0,0,0,0,0],"split_type":[0,0,0,0,0,0,0,0,0,0,0,0,0,0,0,0,0,0,0,0,0,0,0,0,0,0,0,0,0,0,0,0,0,0,0,0,0,0,0,0,0,0,0,0,0,0,0,0,0,0,0,0,0,0,0,0,0,0,0,0,0,0,0,0,0,0,0,0,0,0,0],"sum_hessian":[4.4E2,3.22E2,1.18E2,1E1,3.12E2,4.5E1,7.3E1,9E0,1E0,2.75E2,3.7E1,1.9E1,2.6E1,6.9E1,4E0,7E0,2E0,3E0,2.72E2,7E0,3E1,1E0,1.8E1,3E0,2.3E1,6.3E1,6E0,4E0,3E0,1E0,2E0,6E0,2.66E2,3E0,4E0,4E0,2.6E1,2E0,1.6E1,2E0,2.1E1,8E0,5.5E1,2E0,4E0,1E0,3E0,1E0,2E0,1E0,5E0,7E0,2.59E2,1E0,2E0,2E0,2E0,2E0,2E0,1.8E1,8E0,1E1,6E0,1E0,1E0,1E1,1.1E1,9E0,4.6E1,3E0,1E0],"tree_param":{"num_deleted":"0","num_feature":"2","num_nodes":"71","size_leaf_vector":"0"}},{"base_weights":[-1.3836366E-2,-2.559201E-2,1.85591E-2,1.4774534E-2,-2.6924621E-2,2.8249392E-2,1.3032459E-2,2.9807686E-4,7.976955E-2,-1.908114E-2,-2.9990837E-2,2.2905141E-2,4.5299962E-2,6.810182E-2,1.1411785E-2,8.623898E-3,-2.2003472E-2,-2.2963446E-2,-8.308988E-4,-3.0235644E-2,-8.967519E-3,2.8331267E-2,-1.42326355E-2,7.657498E-3,6.284494E-2,-3.3733588E-2,1.30877895E-2,-7.786882E-3,2.6981398E-2,-5.527085E-2,-1.8824877E-2,-3.5355918E-2,6.129498E-3,-6.270644E-2,-2.9501153E-2,-1.4314793E-2,-2.4134964E-3,1.9918703E-2,4.5747392E-2,-4.5741946E-2,5.5902302E-2,1.4596373E-2,4.7908226E-4,-7.5582922E-3,1.6062759E-2,2.554679E-2,-2.2506997E-2,8.1733465E-3,3.05263E-2,-1.1651494E-2,-5.9837688E-2,-1.1802806E-2,-3.29709E-2,-8.425448E-3,-4.460843E-2,3.19714E-2,-6.1740475E-3,-2.4376154E-2,-3.041413E-2,2.457617E-2,-3.8944066E-2,-5.324006E-3,5.279682E-2,1.586616E-3,-8.6799264E-4,7.28215E-3,-1.8665612E-2,1.2285655E-2,5.115667E-2],"categories":[],"categories_nodes":[],"categories_segments":[],"categories_sizes":[],"default_left":[1,1,1,1,1,1,1,1,0,1,1,1,1,0,1,1,0,1,1,1,1,1,1,1,0,0,1,1,1,1,1,1,1,0,1,0,0,1,1,0,0,0,1,1,1,0,0,0,0,0,0,0,0,0,0,0,0,0,0,0,0,0,0,0,0,0,0,0,0],"id":8,"left_children":[1,3,5,7,9,11,13,15,-1,17,19,21,23,-1,25,27,-1,29,31,33,35,37,39,41,-1,-1,43,45,47,49,51,53,55,-1,57,-1,-1,59,61,-1,-1,-1,63,65,67,-1,-1,-1,-1,-1,-1,-1,-1,-1,-1,-1,-1,-1,-1,-1,-1,-1,-1,-1,-1,-1,-1,-1,-1],"loss_changes":[1.6842079E-1,1.7826706E-2,5.951304E-3,1.0326096E-2,6.979376E-3,2.789542E-3,6.0950443E-3,2.0465427E-3,0E0,6.428547E-3,8.817315E-4,7.2547123E-3,5.462693E-3,0E0,6.1919503E-3,2.6201883E-3,0E0,8.987512E-3,4.3019475E-3,3.4208298E-3,1.0563593E-4,3.4841988E-3,1.3606598E-2,1.9224765E-4,0E0,0E0,4.666594E-3,3.0283588E-3,1.718849E-5,8.9642033E-4,6.36559E-3,3.7167757E-4,4.966598E-3,0E0,2.786368E-4,0E0,0E0,6.9884285E-3,3.5213064E-3,0E0,0E0,0E0,5.852964E-6,1.784301E-3,7.987475E-3,0E0,0E0,0E0,0E0,0E0,0E0,0E0,0E0,0E0,0E0,0E0,0E0,0E0,0E0,0E0,0E0,0E0,0E0,0E0,0E0,0E0,0E0,0E0,0E0],"parents":[2147483647,0,0,1,1,2,2,3,3,4,4,5,5,6,6,7,7,9,9,10,10,11,11,12,12,14,14,15,15,17,17,18,18,19,19,20,20,21,21,22,22,23,23,26,26,27,27,28,28,29,29,30,30,31,31,32,32,34,34,37,37,38,38,42,42,43,43,44,44],"right_children":[2,4,6,8,10,12,14,16,-1,18,20,22,24,-1,26,28,-1,30,32,34,36,38,40,42,-1,-1,44,46,48,50,52,54,56,-1,58,-1,-1,60,62,-1,-1,-1,64,66,68,-1,-1,-1,-1,-1,-1,-1,-1,-1,-1,-1,-1,-1,-1,-1,-1,-1,-1,-1,-1,-1,-1,-1,-1],"split_conditions":[4.6886122E-1,1.3342735E-1,8.615413E-2,1.2506394E-1,5.342214E-1,7.401676E-2,4.696126E-1,8.90318E-2,2.3930866E-2,4.912955E-1,6.277314E-2,6.88187E-2,8.9424735E-1,2.0430548E-2,4.8579955E-1,5.3894803E-2,-6.6010416E-3,1.256389E-1,2.3604153E-2,5.3976583E-1,5.3628236E-1,5.8723688E-2,9.541551E-1,6.625148E-1,1.8853482E-2,-1.0120077E-2,1.1661089E-1,1.3242324E-1,5.858628E-2,7.3760554E-2,4.273619E-1,1.762175E-2,6.1243616E-2,-1.8811934E-2,6.429677E-1,-4.2944383E-3,-7.2404894E-4,5.805833E-2,7.170088E-1,-1.3722585E-2,1.677069E-2,4.378912E-3,7.9491746E-1,9.749618E-2,8.394313E-1,7.664037E-3,-6.7520994E-3,2.452004E-3,9.15789E-3,-3.4954483E-3,-1.7951308E-2,-3.5408419E-3,-9.891271E-3,-2.5276346E-3,-1.3382529E-2,9.59142E-3,-1.8522143E-3,-7.3128464E-3,-9.12424E-3,7.3728515E-3,-1.168322E-2,-1.5972019E-3,1.5839046E-2,4.7598482E-4,-2.603978E-4,2.184645E-3,-5.5996836E-3,3.6856967E-3,1.5347001E-2],"split_indices":[0,1,1,1,1,1,0,1,0,1,0,1,0,0,0,1,0,0,0,1,1,1,0,0,0,0,1,0,1,0,1,0,0,0,1,0,0,1,0,0,0,0,0,1,0,0,0,0,0,0,0,0,0,0,0,0,0,0,0,0,0,0,0,0,0,0,0,0,0],"split_type":[0,0,0,0,0,0,0,0,0,0,0,0,0,0,0,0,0,0,0,0,0,0,0,0,0,0,0,0,0,0,0,0,0,0,0,0,0,0,0,0,0,0,0,0,0,0,0,0,0,0,0,0,0,0,0,0,0,0,0,0,0,0,0,0,0,0,0,0,0],"sum_hessian":[4.4E2,3.23E2,1.17E2,1E1,3.13E2,4.1E1,7.6E1,9E0,1E0,9E1,2.23E2,3.3E1,8E0,1E0,7.5E1,7E0,2E0,7.4E1,1.6E1,2.2E2,3E0,2.9E1,4E0,3E0,5E0,2E0,7.3E1,4E0,3E0,7E0,6.7E1,2E0,1.4E1,3E0,2.17E2,1E0,2E0,2.1E1,8E0,3E0,1E0,1E0,2E0,9E0,6.4E1,1E0,3E0,1E0,2E0,1E0,6E0,4.6E1,2.1E1,1E0,1E0,4E0,1E1,3.7E1,1.8E2,2E1,1E0,1E0,7E0,1E0,1E0,4E0,5E0,5.9E1,5E0],"tree_param":{"num_deleted":"0","num_feature":"2","num_nodes":"69","size_leaf_vector":"0"}},{"base_weights":[-9.665299E-3,-1.9698756E-2,9.930934E-3,7.936318E-3,-2.0207856E-2,1.5901448E-2,-2.7001582E-3,-4.97368E-3,2.250421E-2,-3.4750037E-2,-1.9334814E-2,1.4700136E-2,6.8617016E-2,-4.7651663E-2,1.2673674E-3,2.1714777E-2,-2.110809E-2,2.6808977E-2,6.9473386E-3,-1.1431715E-2,-4.9025394E-2,4.3316754E-3,-2.0251151E-2,1.2982819E-2,4.507606E-2,-7.5725354E-2,1.8284708E-2,4.0689886E-2,-1.4493354E-3,-2.7954563E-2,-3.7075728E-3,-2.6673596E-2,1.7781993E-2,-9.903766E-3,-5.2677628E-2,2.657167E-2,-3.5629538E-3,-2.063616E-2,3.7425638E-3,1.380282E-2,-3.2868624E-2,-3.0247986E-2,1.3956388E-3,-3.39032E-2,-1.0552794E-2,-1.1090055E-2,5.094756E-2,-1.2004597E-2,1.7321864E-2,-5.3637058E-2,-2.003991E-2,1.2561679E-5,4.671924E-3,1.4650041E-2,-1.7344385E-2,-4.3221533E-2,-1.1516293E-2,9.969102E-3,-6.461857E-3],"categories":[],"categories_nodes":[],"categories_segments":[],"categories_sizes":[],"default_left":[1,1,1,1,1,1,1,1,1,1,1,1,0,1,1,0,1,0,0,1,1,1,1,1,0,0,0,0,1,0,0,1,0,0,0,1,1,1,1,1,0,1,1,0,0,0,0,0,0,0,0,0,0,0,0,0,0,0,0],"id":9,"left_children":[1,3,5,7,9,11,13,15,17,19,21,23,-1,25,27,-1,29,-1,-1,31,33,35,37,39,-1,-1,-1,-1,41,-1,-1,43,-1,-1,-1,45,47,49,51,53,-1,55,57,-1,-1,-1,-1,-1,-1,-1,-1,-1,-1,-1,-1,-1,-1,-1,-1],"loss_changes":[8.690415E-2,4.268527E-3,1.13550555E-2,1.2403576E-3,2.971843E-3,5.4507647E-3,8.799359E-3,2.1807675E-3,1.4654943E-5,4.432719E-3,6.0081333E-3,4.683459E-3,0E0,8.788927E-3,4.9855397E-3,0E0,2.5375292E-4,0E0,0E0,3.591213E-3,7.642247E-4,2.0260154E-3,2.5067702E-3,4.1007064E-3,0E0,0E0,0E0,0E0,3.6471977E-3,0E0,0E0,2.2496167E-4,0E0,0E0,0E0,3.3191254E-3,1.7946616E-3,4.0213987E-3,1.7273887E-5,2.7873982E-3,0E0,4.7431444E-4,2.8264227E-3,0E0,0E0,0E0,0E0,0E0,0E0,0E0,0E0,0E0,0E0,0E0,0E0,0E0,0E0,0E0,0E0],"parents":[2147483647,0,0,1,1,2,2,3,3,4,4,5,5,6,6,7,7,8,8,9,9,10,10,11,11,13,13,14,14,16,16,19,19,20,20,21,21,22,22,23,23,28,28,31,31,35,35,36,36,37,37,38,38,39,39,41,41,42,42],"right_children":[2,4,6,8,10,12,14,16,18,20,22,24,-1,26,28,-1,30,-1,-1,32,34,36,38,40,-1,-1,-1,-1,42,-1,-1,44,-1,-1,-1,46,48,50,52,54,-1,56,58,-1,-1,-1,-1,-1,-1,-1,-1,-1,-1,-1,-1,-1,-1,-1,-1],"split_conditions":[2.9969132E-1,8.90318E-2,2.2813466E-1,1.8120003E-1,4.1232565E-1,2.27165E-1,2.3119187E-1,1.3242324E-1,2.4091077E-1,3.0533385E-1,4.273619E-1,9.6751547E-1,2.0585105E-2,6.855624E-1,2.3651001E-1,6.5144333E-3,1.7297462E-1,8.042693E-3,2.0842017E-3,2.2161365E-1,7.3760554E-2,1.8623695E-1,2.4845855E-1,9.6416515E-1,1.3522819E-2,-2.2717606E-2,5.4854127E-3,1.2206966E-2,2.4397168E-1,-8.38637E-3,-1.1122719E-3,1.8996257E-1,5.334598E-3,-2.97113E-3,-1.5803289E-2,1.4592926E-1,4.2362085E-1,4.3264115E-1,4.2948034E-1,2.2513252E-1,-9.860587E-3,5.319488E-1,3.2373166E-1,-1.0170961E-2,-3.1658383E-3,-3.3270167E-3,1.5284269E-2,-3.6013792E-3,5.1965592E-3,-1.6091118E-2,-6.0119736E-3,3.7685038E-6,1.4015771E-3,4.3950127E-3,-5.203316E-3,-1.2966461E-2,-3.454888E-3,2.9907308E-3,-1.9385571E-3],"split_indices":[0,1,1,0,1,1,1,0,0,1,1,0,0,0,1,0,0,0,0,1,0,0,0,0,0,0,0,0,1,0,0,0,0,0,0,0,1,1,1,1,0,0,1,0,0,0,0,0,0,0,0,0,0,0,0,0,0,0,0],"split_type":[0,0,0,0,0,0,0,0,0,0,0,0,0,0,0,0,0,0,0,0,0,0,0,0,0,0,0,0,0,0,0,0,0,0,0,0,0,0,0,0,0,0,0,0,0,0,0,0,0,0,0,0,0,0,0,0,0,0,0],"sum_hessian":[4.4E2,2.91E2,1.49E2,5E0,2.86E2,1.01E2,4.8E1,3E0,2E0,1.4E1,2.72E2,1E2,1E0,3E0,4.5E1,1E0,2E0,1E0,1E0,6E0,8E0,1E1,2.62E2,9.6E1,4E0,2E0,1E0,2E0,4.3E1,1E0,1E0,4E0,2E0,1E0,7E0,2E0,8E0,2.58E2,4E0,9.5E1,1E0,3E0,4E1,2E0,2E0,1E0,1E0,6E0,2E0,3E0,2.55E2,1E0,3E0,9.3E1,2E0,1E0,2E0,1.9E1,2.1E1],"tree_param":{"num_deleted":"0","num_feature":"2","num_nodes":"59","size_leaf_vector":"0"}},{"base_weights":[-6.8195276E-3,-1.2798714E-2,9.655693E-3,1.2420424E-2,-1.3641426E-2,5.5689037E-2,8.78627E-3,5.411416E-4,6.5606624E-2,-3.7121862E-2,-1.306349E-2,3.5696924E-2,7.266179E-3,1.8457562E-2,-3.500412E-3,-1.4514551E-2,-5.044871E-2,-1.5063571E-2,-6.048021E-3,-9.147793E-3,4.6495426E-2,-1.1826017E-2,9.253904E-3,-1.9243114E-2,7.5781248E-3,-2.9110417E-2,5.4210424E-5,-4.015146E-2,-1.4355917E-2,-8.200516E-3,2.3574512E-2,-1.7335594E-3,-5.6375295E-2,-1.1023792E-3,1.4680357E-2,-3.1514317E-3,-2.355653E-2,2.278763E-2,-2.13027E-5,-4.501E-3,4.5823157E-3,-2.199933E-3,-4.7301777E-2,1.643016E-2,-1.523814E-2,1.0067743E-2,-1.2037218E-2,7.60976E-3,3.1681094E-2,1.7353168E-2,-3.4701943E-2,-5.2232146E-3,1.6715826E-2,1.2190521E-2,3.796194E-2],"categories":[],"categories_nodes":[],"categories_segments":[],"categories_sizes":[],"default_left":[1,1,1,1,1,0,1,1,0,1,1,1,1,0,1,1,0,1,1,0,0,1,1,1,1,0,1,1,1,1,1,1,0,1,1,0,0,0,0,0,0,0,0,0,0,0,0,0,0,0,0,0,0,0,0],"id":10,"left_children":[1,3,5,7,9,-1,11,13,-1,15,17,19,21,-1,23,25,-1,27,29,-1,-1,31,33,35,37,-1,39,41,43,45,47,49,-1,51,53,-1,-1,-1,-1,-1,-1,-1,-1,-1,-1,-1,-1,-1,-1,-1,-1,-1,-1,-1,-1],"loss_changes":[4.356579E-2,7.055238E-3,4.2333445E-3,6.9144503E-3,3.776107E-3,0E0,4.526696E-3,7.887107E-4,0E0,1.376749E-3,4.230596E-3,3.330865E-3,4.359842E-3,0E0,1.7154816E-3,8.521528E-4,0E0,3.6666803E-3,4.6566874E-3,0E0,0E0,4.8479987E-3,5.748367E-3,2.0340364E-4,6.9398666E-4,0E0,8.250442E-5,1.5241327E-3,6.605841E-3,4.7471193E-3,4.0601264E-4,6.8947743E-3,0E0,2.7306424E-3,3.4210347E-3,0E0,0E0,0E0,0E0,0E0,0E0,0E0,0E0,0E0,0E0,0E0,0E0,0E0,0E0,0E0,0E0,0E0,0E0,0E0,0E0],"parents":[2147483647,0,0,1,1,2,2,3,3,4,4,6,6,7,7,9,9,10,10,11,11,12,12,14,14,15,15,17,17,18,18,21,21,22,22,23,23,24,24,26,26,27,27,28,28,29,29,30,30,31,31,33,33,34,34],"right_children":[2,4,6,8,10,-1,12,14,-1,16,18,20,22,-1,24,26,-1,28,30,-1,-1,32,34,36,38,-1,40,42,44,46,48,50,-1,52,54,-1,-1,-1,-1,-1,-1,-1,-1,-1,-1,-1,-1,-1,-1,-1,-1,-1,-1,-1,-1],"split_conditions":[4.6886122E-1,1.3342735E-1,4.696126E-1,1.2506394E-1,2.3169743E-1,1.6706713E-2,3.450751E-2,1.3242324E-1,1.9681988E-2,3.4493452E-1,8.128427E-2,5.587805E-1,5.1101442E-2,5.5372687E-3,1.8562824E-1,1.9958669E-1,-1.5134613E-2,5.174236E-1,4.9199736E-1,-2.744338E-3,1.3948629E-2,4.970374E-2,6.746961E-1,4.8174046E-2,1.9283536E-1,-8.733125E-3,3.0488724E-1,5.2398734E-2,5.274677E-1,3.2113224E-1,8.422153E-2,9.4726217E-1,-1.6912589E-2,3.1864864E-1,2.1901827E-1,-9.4542955E-4,-7.0669595E-3,6.8362895E-3,-6.39081E-6,-1.3503E-3,1.3746948E-3,-6.599799E-4,-1.4190533E-2,4.929048E-3,-4.571442E-3,3.020323E-3,-3.6111653E-3,2.282928E-3,9.5043285E-3,5.2059507E-3,-1.0410584E-2,-1.5669644E-3,5.0147483E-3,3.6571564E-3,1.1388583E-2],"split_indices":[0,1,0,1,1,0,1,0,0,0,0,0,1,0,0,0,0,1,1,0,0,1,0,1,0,0,0,0,1,1,0,0,0,1,1,0,0,0,0,0,0,0,0,0,0,0,0,0,0,0,0,0,0,0,0],"split_type":[0,0,0,0,0,0,0,0,0,0,0,0,0,0,0,0,0,0,0,0,0,0,0,0,0,0,0,0,0,0,0,0,0,0,0,0,0,0,0,0,0,0,0,0,0,0,0,0,0,0,0,0,0,0,0],"sum_hessian":[4.4E2,3.23E2,1.17E2,1E1,3.13E2,1E0,1.16E2,9E0,1E0,6E0,3.07E2,5E0,1.11E2,1E0,8E0,3E0,3E0,2.38E2,6.9E1,1E0,4E0,1E1,1.01E2,3E0,5E0,1E0,2E0,5E0,2.33E2,6.5E1,4E0,9E0,1E0,3.5E1,6.6E1,1E0,2E0,1E0,4E0,1E0,1E0,1E0,4E0,6E0,2.27E2,1.1E1,5.4E1,2E0,2E0,6E0,3E0,2.9E1,6E0,6.1E1,5E0],"tree_param":{"num_deleted":"0","num_feature":"2","num_nodes":"55","size_leaf_vector":"0"}},{"base_weights":[-4.725634E-3,-8.686892E-3,8.1938915E-3,8.676891E-3,-9.297529E-3,4.279633E-2,6.7423703E-3,-6.735054E-4,5.576563E-2,-2.7878173E-2,-8.623445E-3,-2.567245E-2,7.996624E-3,1.5688926E-2,-3.8786412E-3,-1.1685252E-3,-4.2973895E-2,-9.272462E-3,1.4617628E-2,-3.4090232E-2,-2.0955503E-4,6.9585885E-3,3.854823E-2,-1.4440114E-2,5.569026E-3,-3.61013E-2,3.415376E-2,-1.9046465E-2,-4.8735574E-2,1.758939E-2,-9.504752E-3,-1.9231439E-4,2.2054652E-2,-9.142954E-3,9.367654E-3,-2.0227894E-2,-7.936195E-3,1.6453087E-2,-1.0799398E-2,3.894955E-3,4.7335684E-2,-2.4743855E-2,-3.8258433E-3,4.703447E-3,2.1680638E-2,-3.8248464E-2,-9.285823E-3,1.7885963E-3,-3.0675232E-3,3.1018853E-3,2.522483E-2,4.9520622E-5,-3.9801043E-2,6.994644E-3,2.4479931E-2],"categories":[],"categories_nodes":[],"categories_segments":[],"categories_sizes":[],"default_left":[1,1,1,1,1,0,1,1,0,1,1,1,1,0,1,1,1,1,1,0,0,1,0,1,1,0,1,1,0,1,1,1,1,1,1,0,0,0,0,0,0,0,0,0,0,0,0,0,0,0,0,0,0,0,0],"id":11,"left_children":[1,3,5,7,9,-1,11,13,-1,15,17,19,21,-1,23,25,27,29,31,-1,-1,33,-1,35,37,-1,39,41,-1,43,45,47,49,51,53,-1,-1,-1,-1,-1,-1,-1,-1,-1,-1,-1,-1,-1,-1,-1,-1,-1,-1,-1,-1],"loss_changes":[2.2640485E-2,3.6644824E-3,4.934973E-3,5.3211385E-3,3.8552396E-3,0E0,4.3115923E-3,6.3773367E-4,0E0,4.385001E-3,4.9171224E-3,8.502202E-4,2.8396985E-3,0E0,1.0782301E-3,7.402523E-3,3.679376E-5,2.0952635E-3,9.955185E-4,0E0,0E0,3.8094553E-3,0E0,2.7683796E-5,1.246613E-3,0E0,1.012238E-3,1.654874E-4,0E0,5.6185003E-5,1.5767254E-3,2.8268689E-5,2.822571E-4,3.665679E-3,2.8411439E-3,0E0,0E0,0E0,0E0,0E0,0E0,0E0,0E0,0E0,0E0,0E0,0E0,0E0,0E0,0E0,0E0,0E0,0E0,0E0,0E0],"parents":[2147483647,0,0,1,1,2,2,3,3,4,4,6,6,7,7,9,9,10,10,11,11,12,12,14,14,15,15,16,16,17,17,18,18,21,21,23,23,24,24,26,26,27,27,29,29,30,30,31,31,32,32,33,33,34,34],"right_children":[2,4,6,8,10,-1,12,14,-1,16,18,20,22,-1,24,26,28,30,32,-1,-1,34,-1,36,38,-1,40,42,-1,44,46,48,50,52,54,-1,-1,-1,-1,-1,-1,-1,-1,-1,-1,-1,-1,-1,-1,-1,-1,-1,-1,-1,-1],"split_conditions":[5.563799E-1,1.3342735E-1,5.6416166E-1,1.2506394E-1,2.3169743E-1,1.2838899E-2,5.820167E-1,1.3242324E-1,1.672969E-2,2.0378903E-1,4.7921193E-1,2.5969434E-1,9.795027E-1,4.706678E-3,5.3894803E-2,1.4038956E-1,3.2381445E-1,2.3899756E-1,3.1864864E-1,-1.022707E-2,-6.2866515E-5,5.136232E-2,1.156447E-2,1.7297462E-1,8.90318E-2,-1.083039E-2,3.9766908E-1,1.9958669E-1,-1.4620673E-2,2.5335294E-1,2.7331042E-1,5.2246654E-1,4.8915106E-1,4.9223304E-2,9.275291E-1,-6.0683684E-3,-2.3808584E-3,4.9359263E-3,-3.2398195E-3,1.1684865E-3,1.4200706E-2,-7.423157E-3,-1.1477531E-3,1.4110343E-3,6.5041916E-3,-1.14745395E-2,-2.7857472E-3,5.365789E-4,-9.20257E-4,9.3056564E-4,7.567449E-3,1.4856188E-5,-1.19403135E-2,2.0983934E-3,7.3439796E-3],"split_indices":[0,1,0,1,1,0,0,0,0,1,0,1,0,0,1,1,0,1,1,0,0,1,0,0,1,0,0,0,0,0,1,0,0,1,0,0,0,0,0,0,0,0,0,0,0,0,0,0,0,0,0,0,0,0,0],"split_type":[0,0,0,0,0,0,0,0,0,0,0,0,0,0,0,0,0,0,0,0,0,0,0,0,0,0,0,0,0,0,0,0,0,0,0,0,0,0,0,0,0,0,0,0,0,0,0,0,0,0,0,0,0,0,0],"sum_hessian":[4.4E2,3.37E2,1.03E2,1.1E1,3.26E2,3E0,1E2,1E1,1E0,1E1,3.16E2,3E0,9.7E1,1E0,9E0,4E0,6E0,3.08E2,8E0,2E0,1E0,9.5E1,2E0,4E0,5E0,2E0,2E0,2E0,4E0,2E0,3.06E2,3E0,5E0,1.2E1,8.3E1,1E0,3E0,3E0,2E0,1E0,1E0,1E0,1E0,1E0,1E0,1E0,3.05E2,2E0,1E0,1E0,4E0,1E1,2E0,7.3E1,1E1],"tree_param":{"num_deleted":"0","num_feature":"2","num_nodes":"55","size_leaf_vector":"0"}},{"base_weights":[-3.2865596E-3,-7.1354625E-3,4.227882E-3,-6.9220713E-3,-3.46162E-2,2.4330566E-2,3.0736907E-3,-7.2756214E-3,3.740251E-3,1.1094995E-2,4.2691518E-2,-3.232038E-2,4.062995E-3,1.3335586E-2,-7.3964284E-3,-3.6294684E-3,7.417198E-3,-6.112655E-4,1.7100941E-2,-4.019505E-2,-4.3481886E-3,1.033779E-2,1.2683098E-3,-1.3383893E-2,-7.032352E-3,-7.1329377E-3,3.4404695E-3,-4.2276084E-3,3.3107102E-3,6.347394E-3,2.470735E-2,-1.5844006E-2,3.1767911E-3,-2.9885843E-2,-4.66629E-3,1.9388422E-2,-7.507909E-3,2.0665267E-2,-6.7974078E-3,2.0198524E-4,3.692637E-2,-6.465503E-3,-2.8295383E-2,4.8981234E-2,1.0094125E-3],"categories":[],"categories_nodes":[],"categories_segments":[],"categories_sizes":[],"default_left":[1,1,1,1,0,1,1,1,1,1,0,1,1,0,1,1,0,1,0,0,0,1,1,1,1,0,0,0,0,1,1,1,1,0,0,0,0,0,0,0,0,0,0,0,0],"id":12,"left_children":[1,3,5,7,-1,9,11,13,15,17,-1,19,21,-1,23,25,-1,27,-1,-1,-1,29,31,33,35,-1,-1,-1,-1,37,39,41,43,-1,-1,-1,-1,-1,-1,-1,-1,-1,-1,-1,-1],"loss_changes":[1.2784928E-2,1.4727181E-3,3.4055668E-3,1.1241846E-3,0E0,1.4704792E-3,5.1385355E-3,8.0081075E-4,2.9790113E-4,4.3229625E-4,0E0,7.063113E-4,2.4419385E-3,0E0,5.1843E-4,1.236179E-4,0E0,5.654601E-5,0E0,0E0,0E0,2.3088031E-3,3.2508695E-3,2.0184058E-3,3.5003107E-3,0E0,0E0,0E0,0E0,6.7276666E-3,2.6874244E-3,9.848089E-4,8.786083E-3,0E0,0E0,0E0,0E0,0E0,0E0,0E0,0E0,0E0,0E0,0E0,0E0],"parents":[2147483647,0,0,1,1,2,2,3,3,5,5,6,6,7,7,8,8,9,9,11,11,12,12,14,14,15,15,17,17,21,21,22,22,23,23,24,24,29,29,30,30,31,31,32,32],"right_children":[2,4,6,8,-1,10,12,14,16,18,-1,20,22,-1,24,26,-1,28,-1,-1,-1,30,32,34,36,-1,-1,-1,-1,38,40,42,44,-1,-1,-1,-1,-1,-1,-1,-1,-1,-1,-1,-1],"split_conditions":[2.9969132E-1,2.9573095E-1,3.6243606E-1,2.5778583E-1,-1.03848595E-2,3.2602513E-1,3.726768E-1,3.2377616E-2,3.7035334E-1,2.1873787E-1,1.2807456E-2,3.403369E-1,8.615413E-2,4.000676E-3,4.1232565E-1,2.9168087E-1,2.2251594E-3,3.1802025E-1,5.1302826E-3,-1.2058516E-2,-1.3044566E-3,7.401676E-2,1.1661089E-1,1.24593645E-1,4.1932747E-1,-2.1398815E-3,1.0321409E-3,-1.2682825E-3,9.932132E-4,8.996068E-1,8.9424735E-1,1.0601598E-1,1.2498895E-1,-8.965753E-3,-1.399887E-3,5.8165267E-3,-2.252373E-3,6.1995806E-3,-2.0392225E-3,6.0595576E-5,1.1077912E-2,-1.939651E-3,-8.488615E-3,1.4694371E-2,3.0282376E-4],"split_indices":[0,0,0,0,0,0,0,1,1,1,0,1,1,0,1,0,0,0,0,0,0,1,1,0,1,0,0,0,0,0,0,1,1,0,0,0,0,0,0,0,0,0,0,0,0],"split_type":[0,0,0,0,0,0,0,0,0,0,0,0,0,0,0,0,0,0,0,0,0,0,0,0,0,0,0,0,0,0,0,0,0,0,0,0,0,0,0,0,0,0,0,0,0],"sum_hessian":[4.4E2,2.91E2,1.49E2,2.9E2,1E0,7E0,1.42E2,2.81E2,9E0,5E0,2E0,3E0,1.39E2,1E0,2.8E2,3E0,6E0,2E0,3E0,2E0,1E0,4.2E1,9.7E1,1.4E1,2.66E2,2E0,1E0,1E0,1E0,3.4E1,8E0,9E0,8.8E1,4E0,1E1,4E0,2.62E2,1.6E1,1.8E1,3E0,5E0,6E0,3E0,3E0,8.5E1],"tree_param":{"num_deleted":"0","num_feature":"2","num_nodes":"45","size_leaf_vector":"0"}},{"base_weights":[-2.273162E-3,3.2812436E-3,-5.0615254E-3,2.200347E-3,1.9730607E-2,-1.6757905E-2,-4.5906743E-3,3.2047916E-3,-4.473756E-2,3.670947E-2,9.635295E-3,-2.0478796E-2,1.0225505E-2,-5.2096765E-3,3.0178812E-3,1.4936189E-2,2.0710786E-3,-1.5433133E-2,2.2749294E-2,-3.0670369E-2,-1.1729499E-2,-4.7005364E-3,-1.2775739E-2,2.429375E-2,8.4789924E-4,5.485505E-3,4.145974E-2,-3.5227314E-2,3.2575503E-3,-1.4288425E-3,-2.1720856E-2,5.7174563E-3,3.219803E-2,9.988248E-5,-2.7535303E-2,-5.072568E-3,4.3595627E-2,8.4709525E-3,-1.4756915E-2,-9.893174E-3,3.957162E-3,2.1141037E-2,-4.244157E-3,-4.102828E-2,-8.912206E-3,1.490891E-2,1.6391145E-3,1.9744486E-2,-1.1168301E-2,-4.499823E-3,2.3747645E-3,-2.1620885E-2,-4.641318E-3,-2.4880929E-2,-8.813553E-3,-1.3998002E-2,-5.3674667E-3,8.034175E-3,-1.6337503E-3],"categories":[],"categories_nodes":[],"categories_segments":[],"categories_sizes":[],"default_left":[1,1,1,1,1,1,1,1,0,0,1,1,0,1,1,1,1,1,1,0,1,1,1,0,1,1,0,1,1,0,0,1,0,1,0,1,0,0,1,1,1,0,0,0,0,0,0,0,0,0,0,0,0,0,0,0,0,0,0],"id":13,"left_children":[1,3,5,7,9,11,13,15,-1,-1,17,19,-1,21,23,25,27,29,31,-1,33,35,37,-1,39,41,-1,43,45,-1,-1,47,-1,49,-1,51,-1,-1,53,55,57,-1,-1,-1,-1,-1,-1,-1,-1,-1,-1,-1,-1,-1,-1,-1,-1,-1,-1],"loss_changes":[6.846684E-3,2.5880348E-3,1.5422027E-3,6.7438884E-3,1.1889553E-3,1.3138317E-3,1.3532806E-3,1.804471E-3,0E0,0E0,2.6523238E-3,5.3194305E-4,0E0,9.5307175E-4,9.951029E-4,2.7805606E-3,5.734947E-3,2.3312971E-4,6.2055583E-4,0E0,1.3115604E-3,4.67713E-3,7.9850014E-4,0E0,7.404821E-4,1.6129563E-3,0E0,2.4495972E-4,2.3138279E-3,0E0,0E0,9.3108334E-4,0E0,6.3004954E-5,0E0,1.6623563E-3,0E0,0E0,6.832706E-4,1.7752405E-5,4.0062767E-4,0E0,0E0,0E0,0E0,0E0,0E0,0E0,0E0,0E0,0E0,0E0,0E0,0E0,0E0,0E0,0E0,0E0,0E0],"parents":[2147483647,0,0,1,1,2,2,3,3,4,4,5,5,6,6,7,7,10,10,11,11,13,13,14,14,15,15,16,16,17,17,18,18,20,20,21,21,22,22,24,24,25,25,27,27,28,28,31,31,33,33,35,35,38,38,39,39,40,40],"right_children":[2,4,6,8,10,12,14,16,-1,-1,18,20,-1,22,24,26,28,30,32,-1,34,36,38,-1,40,42,-1,44,46,-1,-1,48,-1,50,-1,52,-1,-1,54,56,58,-1,-1,-1,-1,-1,-1,-1,-1,-1,-1,-1,-1,-1,-1,-1,-1,-1,-1],"split_conditions":[3.282517E-1,9.529607E-1,3.4789896E-1,9.4726217E-1,9.5989114E-1,4.7983348E-1,2.2556692E-1,4.9223304E-2,-1.3421268E-2,1.1012841E-2,9.6751547E-1,3.3391488E-1,3.0676515E-3,1.7858523E-1,2.2784695E-1,4.497038E-2,5.2456856E-2,9.6416515E-1,9.795027E-1,-9.201111E-3,3.4312177E-1,1.7035118E-1,4.1370666E-1,7.2881253E-3,2.4845855E-1,2.8233115E-2,1.2437922E-2,7.6629245E-1,6.962013E-2,-4.2865277E-4,-6.5162573E-3,9.723257E-1,9.6594095E-3,2.3854086E-1,-8.260591E-3,4.3911988E-1,1.3078689E-2,2.541286E-3,4.3264115E-1,4.293695E-1,3.452984E-1,6.3423114E-3,-1.2732472E-3,-1.2308485E-2,-2.6736618E-3,4.472673E-3,4.9173436E-4,5.923346E-3,-3.3504905E-3,-1.349947E-3,7.124294E-4,-6.4862655E-3,-1.3923955E-3,-7.464279E-3,-2.6440658E-3,-4.1994005E-3,-1.6102401E-3,2.4102526E-3,-4.901251E-4],"split_indices":[1,0,1,0,0,0,0,1,0,0,0,1,0,0,0,1,1,0,0,0,1,0,1,0,0,1,0,0,1,0,0,0,0,0,0,1,0,0,1,1,0,0,0,0,0,0,0,0,0,0,0,0,0,0,0,0,0,0,0],"split_type":[0,0,0,0,0,0,0,0,0,0,0,0,0,0,0,0,0,0,0,0,0,0,0,0,0,0,0,0,0,0,0,0,0,0,0,0,0,0,0,0,0,0,0,0,0,0,0,0,0,0,0,0,0,0,0,0,0,0,0],"sum_hessian":[4.4E2,1.47E2,2.93E2,1.39E2,8E0,1E1,2.83E2,1.37E2,2E0,2E0,6E0,9E0,1E0,2.62E2,2.1E1,1.1E1,1.26E2,2E0,4E0,3E0,6E0,2.47E2,1.5E1,1E0,2E1,9E0,2E0,3E0,1.23E2,1E0,1E0,2E0,2E0,4E0,2E0,2.46E2,1E0,1E0,1.4E1,4E0,1.6E1,3E0,6E0,2E0,1E0,1.4E1,1.09E2,1E0,1E0,1E0,3E0,5E0,2.41E2,4E0,1E1,1E0,3E0,9E0,7E0],"tree_param":{"num_deleted":"0","num_feature":"2","num_nodes":"59","size_leaf_vector":"0"}},{"base_weights":[-1.5994492E-3,3.4595488E-3,-3.2911391E-3,2.4426093E-3,5.7661444E-2,-3.1235596E-2,-2.940319E-3,1.1734338E-3,1.50170205E-2,-4.724827E-2,8.401215E-3,1.9282907E-2,-3.2047885E-3,2.274119E-3,-5.4447547E-2,4.265762E-2,-2.9228968E-3,4.452005E-3,2.274254E-2,-2.402699E-2,-2.9361749E-3,1.055107E-3,1.8318836E-2,-3.075727E-2,2.5642201E-2,-3.290847E-2,-1.0097007E-2,3.8004706E-3,-3.590687E-3,4.04838E-3,-1.3790122E-2,2.8405864E-2,-4.599154E-3,-8.792192E-3,-3.5148233E-2,-5.353008E-3,9.691652E-3,-1.3097041E-2,-3.2098398E-3],"categories":[],"categories_nodes":[],"categories_segments":[],"categories_sizes":[],"default_left":[1,1,1,1,0,1,1,1,1,0,0,1,1,1,0,0,1,0,0,1,1,1,1,1,0,0,0,1,1,0,0,0,0,0,0,0,0,0,0],"id":14,"left_children":[1,3,5,7,-1,9,11,13,15,-1,-1,17,19,21,-1,-1,23,-1,-1,25,27,29,31,33,-1,-1,-1,35,37,-1,-1,-1,-1,-1,-1,-1,-1,-1,-1],"loss_changes":[3.7855764E-3,5.9774807E-3,3.1531078E-3,1.7378833E-3,0E0,2.935709E-3,1.9895737E-3,6.3071605E-3,5.083385E-3,0E0,0E0,1.039881E-4,1.7472189E-3,1.9365421E-3,0E0,0E0,6.354325E-3,0E0,0E0,1.6259844E-4,1.4334139E-3,4.232795E-3,1.7488634E-3,7.676124E-5,0E0,0E0,0E0,1.6156989E-3,1.022378E-3,0E0,0E0,0E0,0E0,0E0,0E0,0E0,0E0,0E0,0E0],"parents":[2147483647,0,0,1,1,2,2,3,3,5,5,6,6,7,7,8,8,11,11,12,12,13,13,16,16,19,19,20,20,21,21,22,22,23,23,27,27,28,28],"right_children":[2,4,6,8,-1,10,12,14,16,-1,-1,18,20,22,-1,-1,24,-1,-1,26,28,30,32,34,-1,-1,-1,36,38,-1,-1,-1,-1,-1,-1,-1,-1,-1,-1],"split_conditions":[2.2813466E-1,2.27165E-1,2.3119187E-1,2.1809685E-1,1.7298434E-2,6.855624E-1,2.3651001E-1,2.1634062E-1,2.2107324E-1,-1.4174482E-2,2.5203647E-3,2.5335294E-1,2.4397168E-1,2.0620818E-1,-1.6334265E-2,1.2797287E-2,6.4019746E-1,1.3356016E-3,6.822762E-3,5.319488E-1,3.282517E-1,1.4425643E-1,6.827086E-1,5.5963093E-1,7.6926607E-3,-9.872541E-3,-3.0291022E-3,3.0747038E-1,3.4789896E-1,1.214514E-3,-4.137037E-3,8.52176E-3,-1.3797462E-3,-2.6376576E-3,-1.05444705E-2,-1.6059024E-3,2.9074957E-3,-3.9291126E-3,-9.62952E-4],"split_indices":[1,1,1,1,0,0,1,1,1,0,0,0,1,1,0,0,0,0,0,0,1,1,0,0,0,0,0,1,1,0,0,0,0,0,0,0,0,0,0],"split_type":[0,0,0,0,0,0,0,0,0,0,0,0,0,0,0,0,0,0,0,0,0,0,0,0,0,0,0,0,0,0,0,0,0,0,0,0,0,0,0],"sum_hessian":[4.4E2,1.1E2,3.3E2,1.09E2,1E0,3E0,3.27E2,1E2,9E0,2E0,1E0,3E0,3.24E2,9.9E1,1E0,3E0,6E0,1E0,2E0,3E0,3.21E2,9.3E1,6E0,3E0,3E0,1E0,2E0,2.8E1,2.93E2,7.8E1,1.5E1,4E0,2E0,1E0,2E0,1.1E1,1.7E1,1E1,2.83E2],"tree_param":{"num_deleted":"0","num_feature":"2","num_nodes":"39","size_leaf_vector":"0"}},{"base_weights":[-1.1366116E-3,-2.0395007E-3,4.9817916E-3,-1.6780742E-3,-4.7501802E-2,5.477418E-2,1.2012114E-3,-1.9050337E-3,1.586107E-2,-5.9768766E-2,-1.14839375E-2,1.3735265E-2,6.38754E-2,-2.9758742E-2,4.9677114E-3,-1.653084E-3,-2.5112048E-2,4.2248607E-2,-1.2979656E-3,-8.182615E-3,-3.2437444E-2,-1.8273055E-3,3.165101E-2,-2.063965E-3,1.5331063E-2,-3.9501667E-2,-7.148286E-3,-1.2330323E-2,6.489595E-3,2.600103E-3,-8.724812E-2,4.145618E-2,6.5792054E-3,-1.7303511E-3,-1.383431E-2,-8.493662E-5,1.9747768E-2,1.9021034E-3,7.832289E-3,1.7376857E-2,-6.131512E-4],"categories":[],"categories_nodes":[],"categories_segments":[],"categories_sizes":[],"default_left":[1,1,1,1,1,1,1,1,1,0,0,0,0,1,1,1,1,0,1,0,0,1,1,1,1,0,0,0,1,1,0,0,0,0,0,0,0,0,0,0,0],"id":15,"left_children":[1,3,5,7,9,11,13,15,17,-1,-1,-1,-1,19,21,23,25,-1,27,-1,-1,29,31,33,35,-1,-1,-1,37,39,-1,-1,-1,-1,-1,-1,-1,-1,-1,-1,-1],"loss_changes":[2.4463506E-3,6.2463335E-3,1.066412E-2,1.5548146E-3,6.3910894E-4,6.166706E-4,6.444809E-3,2.1745008E-3,2.3187606E-3,0E0,0E0,0E0,0E0,8.1352424E-5,8.942194E-3,2.6555457E-3,7.515978E-4,0E0,4.2367945E-4,0E0,0E0,1.5354567E-2,2.185585E-3,1.4211063E-3,6.144685E-4,0E0,0E0,0E0,3.580979E-6,1.8624316E-3,0E0,0E0,0E0,0E0,0E0,0E0,0E0,0E0,0E0,0E0,0E0],"parents":[2147483647,0,0,1,1,2,2,3,3,4,4,5,5,6,6,7,7,8,8,13,13,14,14,15,15,16,16,18,18,21,21,22,22,23,23,24,24,28,28,29,29],"right_children":[2,4,6,8,10,12,14,16,18,-1,-1,-1,-1,20,22,24,26,-1,28,-1,-1,30,32,34,36,-1,-1,-1,38,40,-1,-1,-1,-1,-1,-1,-1,-1,-1,-1,-1],"split_conditions":[7.770933E-1,7.63927E-1,7.8799325E-1,7.4869E-1,7.671666E-1,7.8656566E-1,8.1093013E-1,7.330593E-1,7.531678E-1,-1.793063E-2,-3.4451813E-3,4.1205795E-3,1.9162621E-2,8.911508E-2,1.3436216E-1,6.93782E-1,7.344283E-1,1.2674582E-2,7.558813E-1,-2.4547847E-3,-9.731233E-3,1.29949E-1,1.5099251E-1,6.5760756E-1,4.4106673E-2,-1.18505005E-2,-2.144486E-3,-3.699097E-3,7.589159E-1,8.746387E-1,-2.6174435E-2,1.2436855E-2,1.9737617E-3,-5.1910535E-4,-4.1502933E-3,-2.5480987E-5,5.9243306E-3,5.7063106E-4,2.3496868E-3,5.213057E-3,-1.8394536E-4],"split_indices":[0,0,0,0,0,0,0,0,0,0,0,0,0,1,1,0,0,0,0,0,0,1,1,0,1,0,0,0,0,0,0,0,0,0,0,0,0,0,0,0,0],"split_type":[0,0,0,0,0,0,0,0,0,0,0,0,0,0,0,0,0,0,0,0,0,0,0,0,0,0,0,0,0,0,0,0,0,0,0,0,0,0,0,0,0],"sum_hessian":[4.4E2,3.84E2,5.6E1,3.82E2,2E0,3E0,5.3E1,3.78E2,4E0,1E0,1E0,1E0,2E0,5E0,4.8E1,3.75E2,3E0,1E0,3E0,1E0,4E0,3.9E1,9E0,3.67E2,8E0,1E0,2E0,1E0,2E0,3.8E1,1E0,6E0,3E0,3.58E2,9E0,2E0,6E0,1E0,1E0,6E0,3.2E1],"tree_param":{"num_deleted":"0","num_feature":"2","num_nodes":"41","size_leaf_vector":"0"}},{"base_weights":[-8.361812E-4,-1.1573082E-3,1.4706505E-2,-9.087779E-4,-3.647707E-2,7.840633E-3,3.4816742E-2,1.0904324E-2,-1.2441314E-3,1.2554441E-4,3.0923128E-2,3.951797E-3,3.0444643E-2,-2.5609449E-2,-1.0074277E-3,-1.0391146E-2,1.0610849E-2,1.0772322E-2,-8.972071E-3,-2.9509107E-2,-6.955236E-3,-1.1443496E-3,2.7976036E-2,8.204043E-3,-1.9324223E-2,-1.7297864E-3,1.5300989E-2,-4.345998E-3,2.3197562E-2,-4.994422E-4,-1.16298E-2,7.925729E-3,-1.4799387E-3],"categories":[],"categories_nodes":[],"categories_segments":[],"categories_sizes":[],"default_left":[1,1,1,1,0,1,0,1,1,1,0,1,0,1,1,1,1,1,1,0,0,1,0,0,0,0,0,0,0,0,0,0,0],"id":16,"left_children":[1,3,5,7,-1,9,-1,11,13,15,-1,17,-1,19,21,23,25,27,29,-1,-1,31,-1,-1,-1,-1,-1,-1,-1,-1,-1,-1,-1],"loss_changes":[2.2181289E-3,3.7677386E-3,9.696834E-4,1.7210008E-3,0E0,1.4207859E-3,0E0,1.5099441E-3,2.396491E-3,8.821538E-4,0E0,9.781257E-4,0E0,8.5737556E-5,1.6868664E-3,8.229859E-4,2.579847E-4,1.4157577E-3,8.426342E-5,0E0,0E0,1.2779585E-3,0E0,0E0,0E0,0E0,0E0,0E0,0E0,0E0,0E0,0E0,0E0],"parents":[2147483647,0,0,1,1,2,2,3,3,5,5,7,7,8,8,9,9,11,11,13,13,14,14,15,15,16,16,17,17,18,18,21,21],"right_children":[2,4,6,8,-1,10,-1,12,14,16,-1,18,-1,20,22,24,26,28,30,-1,-1,32,-1,-1,-1,-1,-1,-1,-1,-1,-1,-1,-1],"split_conditions":[9.529607E-1,9.4726217E-1,6.855734E-2,4.9223304E-2,-1.0943121E-2,9.8346275E-1,1.0445023E-2,4.497038E-2,5.2456856E-2,4.6947908E-2,9.276939E-3,3.7586354E-2,9.133393E-3,7.6629245E-1,9.437466E-1,9.609557E-1,9.652566E-1,5.587805E-1,4.2305645E-1,-8.852732E-3,-2.086571E-3,6.962013E-2,8.392811E-3,2.461213E-3,-5.797267E-3,-5.1893597E-4,4.590297E-3,-1.3037995E-3,6.959269E-3,-1.4983267E-4,-3.4889402E-3,2.377719E-3,-4.4398164E-4],"split_indices":[0,0,1,1,0,0,0,1,1,1,0,1,0,0,0,0,0,0,0,0,0,1,0,0,0,0,0,0,0,0,0,0,0],"split_type":[0,0,0,0,0,0,0,0,0,0,0,0,0,0,0,0,0,0,0,0,0,0,0,0,0,0,0,0,0,0,0,0,0],"sum_hessian":[4.4E2,4.32E2,8E0,4.3E2,2E0,7E0,1E0,1.1E1,4.19E2,6E0,1E0,9E0,2E0,3E0,4.16E2,3E0,3E0,6E0,3E0,2E0,1E0,4.15E2,1E0,1E0,2E0,1E0,2E0,3E0,3E0,1E0,2E0,1.4E1,4.01E2],"tree_param":{"num_deleted":"0","num_feature":"2","num_nodes":"33","size_leaf_vector":"0"}},{"base_weights":[-5.398558E-4,1.624155E-2,-7.6955435E-4,-1.2551963E-2,2.4510646E-2,8.6240197E-4,-2.3179345E-3,1.3821632E-2,3.363335E-2,-1.7762528E-5,1.1700537E-2,-2.4241626E-2,-1.9106371E-3,2.3168644E-2,-7.1097016E-3,-9.9889105E-3,6.221922E-4,-2.059272E-2,1.7784769E-2,-3.0523777E-2,-2.697587E-3,-7.861003E-3,-1.3120335E-3,7.3782005E-3,-1.4200153E-2,-8.025958E-3,1.3684353E-3,-2.441898E-3,-2.8447181E-2,4.69581E-2,9.0093715E-3,-1.051709E-2,1.069585E-2,8.562237E-3,-2.5049723E-3,1.6672462E-3,-1.8375408E-2,-3.812884E-3,-2.3607293E-2,7.2201167E-4,1.6594768E-2,-1.4049287E-2,1.8256623E-2,-8.429932E-3,-2.2999376E-2,5.0373212E-3,1.1629215E-2],"categories":[],"categories_nodes":[],"categories_segments":[],"categories_sizes":[],"default_left":[1,1,1,0,1,1,1,1,0,1,1,1,1,0,0,1,1,1,1,0,0,1,1,0,1,1,1,0,0,0,1,1,0,1,0,0,0,0,0,0,0,0,0,0,0,0,0],"id":17,"left_children":[1,3,5,-1,7,9,11,13,-1,15,17,19,21,-1,-1,23,25,27,29,-1,-1,31,33,-1,35,37,39,-1,-1,-1,41,43,-1,45,-1,-1,-1,-1,-1,-1,-1,-1,-1,-1,-1,-1,-1],"loss_changes":[1.712406E-3,1.7362344E-3,1.1037225E-3,0E0,2.2695865E-5,2.0320874E-3,1.9538822E-3,9.473039E-4,0E0,1.2696696E-3,3.5099105E-3,4.590312E-4,7.7686843E-4,0E0,0E0,9.824167E-4,1.2178104E-3,3.5822974E-4,3.161043E-3,0E0,0E0,1.0982613E-3,2.400887E-3,7.8234007E-7,6.931408E-4,8.94668E-4,1.6907989E-3,0E0,0E0,0E0,2.815243E-3,2.7506147E-4,0E0,1.7925841E-4,0E0,0E0,0E0,0E0,0E0,0E0,0E0,0E0,0E0,0E0,0E0,0E0,0E0],"parents":[2147483647,0,0,1,1,2,2,4,4,5,5,6,6,7,7,9,9,10,10,11,11,12,12,15,15,16,16,17,17,18,18,21,21,22,22,24,24,25,25,26,26,30,30,31,31,33,33],"right_children":[2,4,6,-1,8,10,12,14,-1,16,18,20,22,-1,-1,24,26,28,30,-1,-1,32,34,-1,36,38,40,-1,-1,-1,42,44,-1,46,-1,-1,-1,-1,-1,-1,-1,-1,-1,-1,-1,-1,-1],"split_conditions":[2.8233115E-2,1.6013695E-2,5.342214E-1,-3.765589E-3,2.5135916E-2,5.146048E-1,5.367672E-1,2.2066437E-2,1.0090006E-2,1.5085834E-1,2.3604153E-2,4.8104968E-2,6.171221E-1,6.9505936E-3,-2.1329105E-3,7.3760554E-2,5.2195977E-2,1.762175E-2,5.526691E-2,-9.157133E-3,-8.092761E-4,6.277314E-2,6.429677E-1,2.2134602E-3,3.0533385E-1,4.970374E-2,9.437466E-1,-7.3256943E-4,-8.534155E-3,1.408743E-2,6.5670714E-2,5.326111E-2,3.208755E-3,7.686247E-5,-7.514917E-4,5.001739E-4,-5.5126227E-3,-1.1438653E-3,-7.082188E-3,2.1660351E-4,4.9784305E-3,-4.2147865E-3,5.476987E-3,-2.52898E-3,-6.899813E-3,1.5111965E-3,3.4887649E-3],"split_indices":[1,1,1,0,1,1,1,1,0,0,0,0,1,0,0,0,1,0,0,0,0,0,1,0,1,1,0,0,0,0,0,0,0,0,0,0,0,0,0,0,0,0,0,0,0,0,0],"split_type":[0,0,0,0,0,0,0,0,0,0,0,0,0,0,0,0,0,0,0,0,0,0,0,0,0,0,0,0,0,0,0,0,0,0,0,0,0,0,0,0,0,0,0,0,0,0,0],"sum_hessian":[4.4E2,5E0,4.35E2,1E0,4E0,2.12E2,2.23E2,3E0,1E0,1.97E2,1.5E1,3E0,2.2E2,2E0,1E0,1.1E1,1.86E2,2E0,1.3E1,2E0,1E0,1.9E1,2.01E2,2E0,9E0,1.4E1,1.72E2,1E0,1E0,2E0,1.1E1,1.7E1,2E0,2.1E1,1.8E2,2E0,7E0,1.2E1,2E0,1.66E2,6E0,3E0,8E0,1.6E1,1E0,1.1E1,1E1],"tree_param":{"num_deleted":"0","num_feature":"2","num_nodes":"47","size_leaf_vector":"0"}},{"base_weights":[-3.7912984E-4,1.3226092E-2,-5.654881E-4,-1.0669172E-2,2.0138979E-2,-1.4164228E-3,1.1344262E-3,1.0879546E-2,2.8588355E-2,-1.262992E-3,-2.2955675E-2,1.9545615E-2,6.6628076E-5,1.8534899E-2,-6.0432553E-3,-5.878588E-3,-9.540406E-4,1.0761508E-2,4.051718E-2,-3.211609E-2,5.3256145E-4,4.9929917E-3,2.2809356E-2,-1.634887E-2,-1.7193028E-3,1.6914716E-2,-1.282627E-3,-2.0807087E-3,1.3248662E-2,-3.7989928E-3,3.8156083E-3,7.652238E-3,-2.4262207E-2,4.7412897E-3,-1.1123641E-2,2.1878965E-3,3.7910998E-2,-1.5542886E-3,4.1865767E-3,-1.0108696E-3,-4.258E-2,2.9166147E-2,1.708597E-3],"categories":[],"categories_nodes":[],"categories_segments":[],"categories_sizes":[],"default_left":[1,1,1,0,1,1,1,1,0,1,0,1,1,1,0,1,1,1,0,0,1,0,0,1,1,1,1,0,0,1,1,0,0,0,0,0,0,0,0,0,0,0,0],"id":18,"left_children":[1,3,5,-1,7,9,11,13,-1,15,-1,17,19,21,-1,23,25,27,-1,-1,29,-1,-1,31,33,35,37,-1,-1,39,41,-1,-1,-1,-1,-1,-1,-1,-1,-1,-1,-1,-1],"loss_changes":[1.1256107E-3,1.2059778E-3,6.322878E-4,0E0,8.015381E-5,9.3269936E-4,2.8689746E-3,6.302112E-4,0E0,4.0793014E-4,0E0,1.0377059E-3,2.101409E-3,5.9766113E-5,0E0,7.5577135E-4,1.6245958E-3,2.5115063E-4,0E0,0E0,1.9769515E-3,0E0,0E0,1.1353045E-3,9.0334675E-4,1.4630969E-3,4.0617996E-4,0E0,0E0,6.444531E-3,4.169863E-3,0E0,0E0,0E0,0E0,0E0,0E0,0E0,0E0,0E0,0E0,0E0,0E0],"parents":[2147483647,0,0,1,1,2,2,4,4,5,5,6,6,7,7,9,9,11,11,12,12,13,13,15,15,16,16,17,17,20,20,23,23,24,24,25,25,26,26,29,29,30,30],"right_children":[2,4,6,-1,8,10,12,14,-1,16,-1,18,20,22,-1,24,26,28,-1,-1,30,-1,-1,32,34,36,38,-1,-1,40,42,-1,-1,-1,-1,-1,-1,-1,-1,-1,-1,-1,-1],"split_conditions":[2.8233115E-2,1.6013695E-2,2.9969132E-1,-3.2007517E-3,2.5135916E-2,2.9573095E-1,3.6243606E-1,2.2066437E-2,8.576507E-3,4.1232565E-1,-6.8867025E-3,3.435267E-1,3.6420777E-1,5.3838044E-1,-1.8129767E-3,1.24593645E-1,4.179023E-1,1.1598708E-1,1.2155155E-2,-9.634827E-3,1.3679166E-1,1.4978976E-3,6.8428074E-3,7.3760554E-2,1.939617E-1,4.164949E-1,2.2556692E-1,-6.2421267E-4,3.974599E-3,1.3324067E-1,1.4292523E-1,2.2956715E-3,-7.278662E-3,1.422387E-3,-3.3370925E-3,6.5636897E-4,1.13733E-2,-4.6628658E-4,1.255973E-3,-3.032609E-4,-1.2774001E-2,8.7498445E-3,5.125791E-4],"split_indices":[1,1,0,0,1,0,0,1,0,1,0,0,0,0,0,0,1,1,0,0,1,0,0,0,0,1,0,0,0,1,1,0,0,0,0,0,0,0,0,0,0,0,0],"split_type":[0,0,0,0,0,0,0,0,0,0,0,0,0,0,0,0,0,0,0,0,0,0,0,0,0,0,0,0,0,0,0,0,0,0,0,0,0,0,0,0,0,0,0],"sum_hessian":[4.4E2,5E0,4.35E2,1E0,4E0,2.9E2,1.45E2,3E0,1E0,2.89E2,1E0,7E0,1.38E2,2E0,1E0,1.7E1,2.72E2,6E0,1E0,1E0,1.37E2,1E0,1E0,4E0,1.3E1,4E0,2.68E2,1E0,5E0,5.9E1,7.8E1,1E0,3E0,8E0,5E0,3E0,1E0,2.56E2,1.2E1,5.6E1,3E0,5E0,7.3E1],"tree_param":{"num_deleted":"0","num_feature":"2","num_nodes":"43","size_leaf_vector":"0"}},{"base_weights":[-2.3592587E-4,-4.422582E-4,9.717166E-3,-2.3370028E-4,-3.0257663E-2,2.3302456E-2,2.506733E-3,-4.2584862E-4,9.979375E-3,-1.2775798E-2,1.1174905E-2,-2.3274051E-4,-4.1055292E-2,2.1176815E-3,1.7311648E-2,-3.8079023E-3,-1.5355796E-2,4.2746514E-3,1.938796E-2,7.6774135E-3,-7.067679E-4,4.6997666E-3,-1.1702975E-3,2.449272E-2,-2.115786E-3,-5.136758E-3,9.124041E-3,-2.606406E-4,2.3586102E-2,-4.188766E-2,-3.9458336E-4,-2.00665E-3,2.5120378E-4,1.1634827E-2,2.0512342E-3],"categories":[],"categories_nodes":[],"categories_segments":[],"categories_sizes":[],"default_left":[1,1,1,1,0,0,1,1,1,1,1,1,0,1,1,0,0,1,0,1,1,0,1,0,0,0,1,0,0,0,0,0,0,0,0],"id":19,"left_children":[1,3,5,7,-1,-1,9,11,13,15,17,19,-1,21,23,-1,-1,25,-1,27,29,-1,31,-1,-1,-1,33,-1,-1,-1,-1,-1,-1,-1,-1],"loss_changes":[9.099549E-4,2.6854263E-3,8.2318933E-4,8.500551E-4,0E0,0E0,1.0700696E-3,3.317096E-3,4.2449211E-4,1.0938034E-5,2.0048406E-4,1.5915197E-3,0E0,4.7949336E-5,6.0986076E-4,0E0,0E0,2.2942637E-4,0E0,3.0369638E-3,5.125887E-3,0E0,4.070707E-6,0E0,0E0,0E0,2.940913E-5,0E0,0E0,0E0,0E0,0E0,0E0,0E0,0E0],"parents":[2147483647,0,0,1,1,2,2,3,3,6,6,7,7,8,8,9,9,10,10,11,11,13,13,14,14,17,17,19,19,20,20,22,22,26,26],"right_children":[2,4,6,8,-1,-1,10,12,14,16,18,20,-1,22,24,-1,-1,26,-1,28,30,-1,32,-1,-1,-1,34,-1,-1,-1,-1,-1,-1,-1,-1],"split_conditions":[9.529607E-1,9.4726217E-1,9.5989114E-1,9.275291E-1,-9.077299E-3,6.9907373E-3,9.6751547E-1,9.2369616E-1,6.8316154E-2,9.6416515E-1,9.8346275E-1,6.962013E-2,-1.2316588E-2,9.373359E-1,8.467422E-2,-1.1423707E-3,-4.6067387E-3,3.7927255E-2,5.8163884E-3,7.745527E-1,7.516686E-2,1.4099301E-3,9.435091E-1,7.347816E-3,-6.3473586E-4,-1.5410275E-3,9.757838E-1,-7.8192184E-5,7.075831E-3,-1.2566298E-2,-1.18375014E-4,-6.0199504E-4,7.536114E-5,3.4904482E-3,6.153703E-4],"split_indices":[0,0,0,0,0,0,0,0,1,0,0,1,0,0,1,0,0,1,0,0,1,0,0,0,0,0,0,0,0,0,0,0,0,0,0],"split_type":[0,0,0,0,0,0,0,0,0,0,0,0,0,0,0,0,0,0,0,0,0,0,0,0,0,0,0,0,0,0,0,0,0,0,0],"sum_hessian":[4.4E2,4.32E2,8E0,4.3E2,2E0,2E0,6E0,4.23E2,7E0,2E0,4E0,4.22E2,1E0,4E0,3E0,1E0,1E0,3E0,1E0,2.3E1,3.99E2,2E0,2E0,2E0,1E0,1E0,2E0,1.6E1,7E0,2E0,3.97E2,1E0,1E0,1E0,1E0],"tree_param":{"num_deleted":"0","num_feature":"2","num_nodes":"35","size_leaf_vector":"0"}},{"base_weights":[-1.8751045E-4,1.0568718E-2,-3.3510188E-4,-9.029686E-3,1.6294336E-2,-6.0114237E-3,-3.338095E-5,8.198321E-3,2.4339199E-2,-2.9741582E-3,-3.4897E-2,-3.4840882E-4,1.0575339E-2,1.3841927E-2,-4.366249E-3,-6.552748E-3,5.1191277E-3,3.5739497E-5,-1.5487427E-2,-3.0948818E-3,2.0781908E-2,4.28313E-3,1.647976E-2,-1.9348661E-3,-1.8768206E-2,1.1226535E-3,7.83582E-3,-2.8512138E-4,2.5119912E-2,-3.351015E-2,-6.7929775E-3,3.7598014E-3,-7.4621737E-3,2.7000094E-2,3.4909646E-3,5.2375067E-3,-1.7588988E-2,-3.391862E-3,-2.2763034E-2,2.1901925E-3,-1.0399818E-3,9.28539E-3,1.7435551E-3,-4.605267E-5,-1.5617688E-2,2.0746648E-2,-1.36910165E-2,-1.7056465E-3,-8.812468E-3,7.034868E-3,-1.7984211E-3],"categories":[],"categories_nodes":[],"categories_segments":[],"categories_sizes":[],"default_left":[1,1,1,0,1,1,1,1,0,1,0,1,1,1,0,1,1,1,1,1,1,0,0,1,1,1,1,1,0,0,1,0,1,0,1,0,0,0,0,0,0,0,0,0,0,0,0,0,0,0,0],"id":20,"left_children":[1,3,5,-1,7,9,11,13,-1,15,-1,17,19,21,-1,23,25,27,29,31,33,-1,-1,35,37,39,41,43,-1,-1,45,-1,47,-1,49,-1,-1,-1,-1,-1,-1,-1,-1,-1,-1,-1,-1,-1,-1,-1,-1],"loss_changes":[7.03641E-4,8.204107E-4,7.4652134E-4,0E0,1.261161E-4,1.8263401E-3,1.3906321E-3,3.440753E-4,0E0,6.4175786E-4,0E0,2.3500673E-3,1.7386305E-3,5.0585368E-6,0E0,8.098291E-4,6.720342E-5,3.1863316E-3,1.3393427E-3,2.0767469E-4,6.583715E-4,0E0,0E0,1.4394488E-3,1.6849441E-4,1.1512551E-5,1.913507E-5,1.4325058E-3,0E0,0E0,1.803798E-3,0E0,1.6061065E-5,0E0,6.8886875E-5,0E0,0E0,0E0,0E0,0E0,0E0,0E0,0E0,0E0,0E0,0E0,0E0,0E0,0E0,0E0,0E0],"parents":[2147483647,0,0,1,1,2,2,4,4,5,5,6,6,7,7,9,9,11,11,12,12,13,13,15,15,16,16,17,17,18,18,19,19,20,20,23,23,24,24,25,25,26,26,27,27,30,30,32,32,34,34],"right_children":[2,4,6,-1,8,10,12,14,-1,16,-1,18,20,22,-1,24,26,28,30,32,34,-1,-1,36,38,40,42,44,-1,-1,46,-1,48,-1,50,-1,-1,-1,-1,-1,-1,-1,-1,-1,-1,-1,-1,-1,-1,-1,-1],"split_conditions":[2.8233115E-2,1.6013695E-2,5.8723688E-2,-2.708906E-3,2.5135916E-2,5.805833E-2,9.210105E-1,2.2066437E-2,7.30176E-3,5.2195977E-2,-1.04691E-2,8.746387E-1,7.0243254E-2,5.3838044E-1,-1.3098747E-3,4.9223304E-2,9.065982E-1,8.5723805E-1,7.546452E-2,9.373359E-1,8.467422E-2,1.2849391E-3,4.943928E-3,9.4726217E-1,4.5310098E-1,8.811925E-1,9.757838E-1,8.373819E-1,7.535974E-3,-1.0053045E-2,8.015586E-2,1.1279405E-3,9.4518256E-1,8.100028E-3,9.322176E-1,1.5712521E-3,-5.2766968E-3,-1.0175586E-3,-6.8289107E-3,6.5705774E-4,-3.1199458E-4,2.7856173E-3,5.2306656E-4,-1.3815802E-5,-4.6853065E-3,6.223995E-3,-4.1073053E-3,-5.11694E-4,-2.6437403E-3,2.1104605E-3,-5.3952634E-4],"split_indices":[1,1,1,0,1,1,0,1,0,1,0,0,1,0,0,1,0,0,1,0,1,0,0,0,0,0,0,0,0,0,1,0,0,0,0,0,0,0,0,0,0,0,0,0,0,0,0,0,0,0,0],"split_type":[0,0,0,0,0,0,0,0,0,0,0,0,0,0,0,0,0,0,0,0,0,0,0,0,0,0,0,0,0,0,0,0,0,0,0,0,0,0,0,0,0,0,0,0,0,0,0,0,0,0,0],"sum_hessian":[4.4E2,5E0,4.35E2,1E0,4E0,2.1E1,4.14E2,3E0,1E0,2E1,1E0,4.03E2,1.1E1,2E0,1E0,1.4E1,6E0,3.94E2,9E0,5E0,6E0,1E0,1E0,1.1E1,3E0,3E0,3E0,3.9E2,4E0,2E0,7E0,2E0,3E0,4E0,2E0,8E0,3E0,1E0,2E0,2E0,1E0,2E0,1E0,3.85E2,5E0,1E0,6E0,1E0,2E0,1E0,1E0],"tree_param":{"num_deleted":"0","num_feature":"2","num_nodes":"51","size_leaf_vector":"0"}},{"base_weights":[-1.4556696E-4,-3.075989E-4,7.666144E-3,-1.5891509E-4,-2.1565974E-2,1.7700851E-2,2.270392E-3,-5.3119427E-4,2.8939869E-3,-8.219282E-3,8.110118E-3,-2.1903413E-4,-4.020657E-2,4.215589E-2,-7.4104965E-4,-1.914829E-3,-1.0414094E-2,3.133744E-3,1.4007807E-2,-3.9434683E-4,1.31134745E-2,-5.047202E-2,-9.837836E-3,1.2006402E-2,4.8203588E-2,-2.2280356E-2,2.591691E-3,-3.711313E-3,6.652534E-3,-2.3401067E-4,-1.5367359E-2,3.6242753E-2,-1.7295331E-3,-8.697748E-3,-2.6897222E-2,-3.877759E-3,2.1740872E-2,8.496791E-3,1.4820099E-3],"categories":[],"categories_nodes":[],"categories_segments":[],"categories_sizes":[],"default_left":[1,1,1,1,0,0,1,1,1,1,1,1,1,1,1,0,0,1,0,1,1,0,0,0,0,1,1,0,1,0,0,0,0,0,0,0,0,0,0],"id":21,"left_children":[1,3,5,7,-1,-1,9,11,13,15,17,19,21,23,25,-1,-1,27,-1,29,31,-1,-1,-1,-1,33,35,-1,37,-1,-1,-1,-1,-1,-1,-1,-1,-1,-1],"loss_changes":[5.6055246E-4,1.3651889E-3,4.4711522E-4,4.9138244E-4,0E0,0E0,4.954571E-4,4.759446E-3,6.7390073E-3,2.1570071E-5,1.0284863E-4,9.003794E-4,4.3871067E-4,1.5058788E-4,3.2162801E-3,0E0,0E0,1.21034915E-4,0E0,9.06275E-4,1.7792233E-3,0E0,0E0,0E0,0E0,1.4230912E-4,4.9158074E-3,0E0,1.601498E-5,0E0,0E0,0E0,0E0,0E0,0E0,0E0,0E0,0E0,0E0],"parents":[2147483647,0,0,1,1,2,2,3,3,6,6,7,7,8,8,9,9,10,10,11,11,12,12,13,13,14,14,17,17,19,19,20,20,25,25,26,26,28,28],"right_children":[2,4,6,8,-1,-1,10,12,14,16,18,20,22,24,26,-1,-1,28,-1,30,32,-1,-1,-1,-1,34,36,-1,38,-1,-1,-1,-1,-1,-1,-1,-1,-1,-1],"split_conditions":[9.529607E-1,9.4726217E-1,9.5989114E-1,7.770933E-1,-6.469792E-3,5.3102556E-3,9.6751547E-1,7.63927E-1,7.8799325E-1,9.6416515E-1,9.8346275E-1,7.4869E-1,7.671666E-1,7.8656566E-1,8.1093013E-1,-5.744487E-4,-3.1242282E-3,3.7927255E-2,4.202342E-3,7.330593E-1,7.531678E-1,-1.5141607E-2,-2.951351E-3,3.6019208E-3,1.4461077E-2,8.013073E-1,1.3436216E-1,-1.1133939E-3,9.757838E-1,-7.0203205E-5,-4.610208E-3,1.0872826E-2,-5.1885995E-4,-2.6093246E-3,-8.069167E-3,-1.1633277E-3,6.522262E-3,2.5490373E-3,4.4460298E-4],"split_indices":[0,0,0,0,0,0,0,0,0,0,0,0,0,0,0,0,0,1,0,0,0,0,0,0,0,0,1,0,0,0,0,0,0,0,0,0,0,0,0],"split_type":[0,0,0,0,0,0,0,0,0,0,0,0,0,0,0,0,0,0,0,0,0,0,0,0,0,0,0,0,0,0,0,0,0,0,0,0,0,0,0],"sum_hessian":[4.4E2,4.32E2,8E0,4.3E2,2E0,2E0,6E0,3.84E2,4.6E1,2E0,4E0,3.82E2,2E0,3E0,4.3E1,1E0,1E0,3E0,1E0,3.78E2,4E0,1E0,1E0,1E0,2E0,5E0,3.8E1,1E0,2E0,3.75E2,3E0,1E0,3E0,2E0,3E0,2.9E1,9E0,1E0,1E0],"tree_param":{"num_deleted":"0","num_feature":"2","num_nodes":"39","size_leaf_vector":"0"}},{"base_weights":[-9.83851E-5,8.503695E-3,-2.165367E-4,-7.6401234E-3,1.3260484E-2,-4.3132766E-3,1.1616487E-6,6.2138885E-3,2.0723432E-2,-1.7490699E-3,-2.9080808E-2,6.6258647E-3,-4.2241567E-4,1.0388255E-2,-3.1546056E-3,-4.402288E-3,4.1862642E-3,2.938354E-3,1.1051937E-2,-1.7477721E-2,-6.599677E-5,-1.0772148E-3,-1.3276935E-2,6.3824654E-4,5.477822E-3,8.991924E-3,-1.0967171E-2,2.1101221E-2,4.645802E-3,-2.313286E-2,-6.039366E-3,1.6921014E-2,-3.347463E-4,-5.044298E-3,2.1280348E-2,-2.8479695E-3,-1.5803933E-2,-3.0234456E-4,1.2597144E-3,4.5740604E-4,6.6185743E-3,4.015714E-3,2.9377013E-2,-2.2237048E-2,1.7056167E-2,-7.2336197E-3,9.811212E-3,-6.80995E-3,-2.55111E-2,-4.5494437E-3,2.2124995E-2,-3.196782E-2,2.6660446E-6],"categories":[],"categories_nodes":[],"categories_segments":[],"categories_sizes":[],"default_left":[1,1,1,0,1,1,1,1,0,1,0,1,1,0,0,1,1,1,1,1,1,1,1,1,1,1,1,0,1,1,0,1,1,0,0,0,0,0,0,0,0,0,0,0,0,0,0,0,0,0,0,0,0],"id":22,"left_children":[1,3,5,-1,7,9,11,13,-1,15,-1,17,19,-1,-1,21,23,25,27,29,31,33,35,37,39,41,43,-1,45,47,-1,49,51,-1,-1,-1,-1,-1,-1,-1,-1,-1,-1,-1,-1,-1,-1,-1,-1,-1,-1,-1,-1],"loss_changes":[4.500515E-4,5.620682E-4,3.8885314E-4,0E0,1.3416877E-4,1.3463352E-3,1.1673195E-3,1.8920096E-4,0E0,3.491316E-4,0E0,3.7555525E-4,2.3756702E-3,0E0,0E0,4.2833065E-4,2.8581082E-5,1.3612871E-3,6.101157E-4,3.7777633E-4,1.7587205E-3,1.1716761E-3,6.0406805E-5,2.1345095E-6,2.5607878E-5,9.978756E-4,1.9583767E-3,0E0,5.6186726E-4,2.0369655E-5,0E0,7.7104755E-4,4.0452997E-3,0E0,0E0,0E0,0E0,0E0,0E0,0E0,0E0,0E0,0E0,0E0,0E0,0E0,0E0,0E0,0E0,0E0,0E0,0E0,0E0],"parents":[2147483647,0,0,1,1,2,2,4,4,5,5,6,6,7,7,9,9,11,11,12,12,15,15,16,16,17,17,18,18,19,19,20,20,21,21,22,22,23,23,24,24,25,25,26,26,28,28,29,29,31,31,32,32],"right_children":[2,4,6,-1,8,10,12,14,-1,16,-1,18,20,-1,-1,22,24,26,28,30,32,34,36,38,40,42,44,-1,46,48,-1,50,52,-1,-1,-1,-1,-1,-1,-1,-1,-1,-1,-1,-1,-1,-1,-1,-1,-1,-1,-1,-1],"split_conditions":[2.8233115E-2,1.6013695E-2,5.8723688E-2,-2.292037E-3,2.5135916E-2,5.805833E-2,9.099738E-2,2.2066437E-2,6.21703E-3,5.2195977E-2,-8.724242E-3,7.401676E-2,1.1457975E-1,3.1164766E-3,-9.463817E-4,4.9223304E-2,5.380402E-2,6.88187E-2,7.857861E-2,8.856063E-1,1.2498895E-1,4.790405E-2,4.5310098E-1,9.3759847E-1,5.8173466E-1,6.809934E-2,9.541551E-1,6.3303667E-3,8.981223E-1,3.7162983E-1,-1.81181E-3,4.742117E-1,1.2849826E-1,-1.5132894E-3,6.384105E-3,-8.543909E-4,-4.74118E-3,-9.070337E-5,3.7791432E-4,1.3722182E-4,1.9855723E-3,1.2047142E-3,8.813105E-3,-6.6711144E-3,5.11685E-3,-2.170086E-3,2.9433637E-3,-2.042985E-3,-7.6533305E-3,-1.3648332E-3,6.6374987E-3,-9.590346E-3,7.998134E-7],"split_indices":[1,1,1,0,1,1,1,1,0,1,0,1,1,0,0,1,1,1,1,0,1,1,0,0,0,1,0,0,0,0,0,0,1,0,0,0,0,0,0,0,0,0,0,0,0,0,0,0,0,0,0,0,0],"split_type":[0,0,0,0,0,0,0,0,0,0,0,0,0,0,0,0,0,0,0,0,0,0,0,0,0,0,0,0,0,0,0,0,0,0,0,0,0,0,0,0,0,0,0,0,0,0,0,0,0,0,0,0,0],"sum_hessian":[4.4E2,5E0,4.35E2,1E0,4E0,2.1E1,4.14E2,3E0,1E0,2E1,1E0,2.4E1,3.9E2,2E0,1E0,1.4E1,6E0,1.4E1,1E1,7E0,3.83E2,1.1E1,3E0,2E0,4E0,1E1,4E0,3E0,7E0,4E0,3E0,5E0,3.78E2,1E1,1E0,1E0,2E0,1E0,1E0,1E0,3E0,9E0,1E0,3E0,1E0,2E0,5E0,1E0,3E0,1E0,4E0,3E0,3.75E2],"tree_param":{"num_deleted":"0","num_feature":"2","num_nodes":"53","size_leaf_vector":"0"}},{"base_weights":[-7.159146E-5,-6.485215E-4,1.7132811E-3,-3.7381653E-4,-4.606265E-2,-1.0705583E-3,8.986949E-3,-5.334274E-4,8.413881E-3,-8.119267E-3,1.7924393E-3,2.995494E-2,1.3029977E-3,-3.2976683E-4,-1.6947493E-2,-7.4682635E-4,1.3180941E-2,4.0049214E-4,-1.9235004E-2,3.206411E-2,-4.8310007E-4,4.042402E-2,-9.68198E-4,-9.289701E-3,1.3703186E-2,-5.4887065E-4,3.5329938E-2,-2.326554E-2,1.003325E-3,5.9229136E-4,-1.7125309E-3,-4.9831867E-3,2.180171E-2,-3.7078064E-2,-1.013948E-2,1.18568735E-2,4.634291E-2,-1.090616E-2,2.7545874E-3,-2.921313E-3,1.4690161E-3,1.7162472E-2,-1.2924254E-2,3.400035E-2,-2.7523849E-3,-2.9019918E-4,-2.1170039E-2,4.362992E-3,-1.5056531E-2,2.7487576E-2,5.214989E-3,-1.3685276E-2,3.3193827E-4,-1.0354867E-3,-6.467712E-2,1.3963645E-2,-7.2556915E-4,-2.449897E-2,-6.3439077E-3,4.922998E-2,1.7885447E-2,-2.2175223E-2,4.180625E-3],"categories":[],"categories_nodes":[],"categories_segments":[],"categories_sizes":[],"default_left":[1,1,1,1,0,1,1,1,1,1,1,1,1,1,1,1,0,1,1,1,1,0,1,1,1,1,0,0,0,0,0,1,1,0,1,0,0,1,1,0,0,0,1,1,1,0,0,0,0,0,0,0,0,0,0,0,0,0,0,0,0,0,0],"id":23,"left_children":[1,3,5,7,-1,9,11,13,15,17,19,21,23,25,27,29,-1,31,33,35,37,-1,39,41,43,45,-1,-1,-1,-1,-1,47,49,-1,51,-1,-1,53,55,-1,-1,-1,57,59,61,-1,-1,-1,-1,-1,-1,-1,-1,-1,-1,-1,-1,-1,-1,-1,-1,-1,-1],"loss_changes":[4.5522943E-4,4.1495943E-3,2.1964833E-3,4.7155807E-4,0E0,1.6088077E-3,4.7944793E-3,1.0908819E-3,2.718617E-4,2.1858811E-3,3.941899E-3,2.6290324E-3,3.148382E-3,2.5586744E-3,4.7699944E-4,4.893893E-6,0E0,1.721684E-3,1.2469671E-3,6.046584E-4,1.852359E-3,0E0,1.8571935E-5,1.4716559E-3,3.7675975E-3,1.7221073E-3,0E0,0E0,0E0,0E0,0E0,1.1954589E-3,1.395822E-4,0E0,3.0157866E-4,0E0,0E0,6.8328506E-3,1.6485213E-3,0E0,0E0,0E0,7.585685E-4,3.466201E-4,1.0353173E-3,0E0,0E0,0E0,0E0,0E0,0E0,0E0,0E0,0E0,0E0,0E0,0E0,0E0,0E0,0E0,0E0,0E0,0E0],"parents":[2147483647,0,0,1,1,2,2,3,3,5,5,6,6,7,7,8,8,9,9,10,10,11,11,12,12,13,13,14,14,15,15,17,17,18,18,19,19,20,20,22,22,23,23,24,24,25,25,31,31,32,32,34,34,37,37,38,38,42,42,43,43,44,44],"right_children":[2,4,6,8,-1,10,12,14,16,18,20,22,24,26,28,30,-1,32,34,36,38,-1,40,42,44,46,-1,-1,-1,-1,-1,48,50,-1,52,-1,-1,54,56,-1,-1,-1,58,60,62,-1,-1,-1,-1,-1,-1,-1,-1,-1,-1,-1,-1,-1,-1,-1,-1,-1,-1],"split_conditions":[5.2128035E-1,5.163065E-1,2.0540184E-1,4.8915106E-1,-1.3818795E-2,7.770933E-1,2.2107324E-1,4.696126E-1,3.194344E-1,1.2196046E-1,7.8799325E-1,6.827086E-1,6.471586E-1,4.6886122E-1,4.8579955E-1,4.996959E-1,3.9542825E-3,7.427027E-1,1.2975648E-1,1.272207E-1,8.394313E-1,1.2127207E-2,6.907344E-1,5.3174466E-1,2.2813466E-1,4.5421863E-1,1.0598982E-2,-6.9796625E-3,3.0099752E-4,1.7768741E-4,-5.1375927E-4,4.7833383E-2,7.5620234E-1,-1.112342E-2,1.7008008E-1,3.5570622E-3,1.3902874E-2,8.373819E-1,8.746387E-1,-8.763939E-4,4.4070484E-4,5.148742E-3,2.3180124E-1,6.6387695E-1,2.2907434E-1,-8.705976E-5,-6.351012E-3,1.3088976E-3,-4.5169597E-3,8.246273E-3,1.5644968E-3,-4.105583E-3,9.9581484E-5,-3.1064602E-4,-1.9403137E-2,4.1890936E-3,-2.1767075E-4,-7.349691E-3,-1.9031723E-3,1.4768994E-2,5.3656343E-3,-6.652567E-3,1.2541875E-3],"split_indices":[0,0,1,0,0,0,1,0,1,1,0,0,0,0,0,0,0,0,1,1,0,0,0,0,1,0,0,0,0,0,0,1,0,0,1,0,0,0,0,0,0,0,1,0,1,0,0,0,0,0,0,0,0,0,0,0,0,0,0,0,0,0,0],"split_type":[0,0,0,0,0,0,0,0,0,0,0,0,0,0,0,0,0,0,0,0,0,0,0,0,0,0,0,0,0,0,0,0,0,0,0,0,0,0,0,0,0,0,0,0,0,0,0,0,0,0,0,0,0,0,0,0,0,0,0,0,0,0,0],"sum_hessian":[4.4E2,3.33E2,1.07E2,3.32E2,1E0,7.8E1,2.9E1,3.27E2,5E0,2.2E1,5.6E1,7E0,2.2E1,3.24E2,3E0,2E0,3E0,1.3E1,9E0,3E0,5.3E1,5E0,2E0,1.2E1,1E1,3.23E2,1E0,2E0,1E0,1E0,1E0,1.1E1,2E0,2E0,7E0,2E0,1E0,1.2E1,4.1E1,1E0,1E0,1E0,1.1E1,4E0,6E0,3.2E2,3E0,6E0,5E0,1E0,1E0,5E0,2E0,1.1E1,1E0,9E0,3.2E1,3E0,8E0,1E0,3E0,1E0,5E0],"tree_param":{"num_deleted":"0","num_feature":"2","num_nodes":"63","size_leaf_vector":"0"}},{"base_weights":[-4.3773736E-5,8.8015187E-4,-9.186646E-4,2.3048028E-2,2.4259275E-4,-1.2036585E-3,1.5270658E-2,-1.69814E-3,2.833689E-2,-1.2398058E-2,8.045891E-4,-2.133191E-2,-5.518171E-4,1.5790723E-3,3.4631576E-2,-1.7538527E-2,-1.5878379E-3,3.8064978E-4,2.1694422E-2,-3.153929E-2,2.7910273E-3,-1.1625565E-4,-5.1076314E-3,-1.0410299E-3,-2.5527019E-2,1.866743E-3,-3.3616126E-3,1.1421959E-3,-5.219882E-3,1.7370358E-3,2.7767872E-2,6.1020255E-3,-1.9154847E-3,-7.96967E-4,1.0614636E-2,-1.0520418E-2,-3.851985E-3,6.6487193E-3,-8.210264E-3,-7.4532256E-3,-2.9067209E-2,5.466957E-4,8.566798E-3,-1.5596983E-2,-1.6681716E-3,-6.610189E-4,-9.0054115E-3,5.556651E-3,1.24490475E-2,8.293271E-3,-5.129393E-3],"categories":[],"categories_nodes":[],"categories_segments":[],"categories_sizes":[],"default_left":[1,1,1,1,1,1,0,0,1,1,1,1,1,0,0,1,1,1,1,0,1,1,1,1,1,0,0,1,1,0,0,0,0,1,1,0,1,0,0,0,0,0,0,0,0,0,0,0,0,0,0],"id":24,"left_children":[1,3,5,7,9,11,-1,-1,13,15,17,19,21,-1,-1,23,25,27,29,-1,31,33,35,37,39,-1,-1,41,43,-1,-1,-1,-1,45,47,-1,49,-1,-1,-1,-1,-1,-1,-1,-1,-1,-1,-1,-1,-1,-1],"loss_changes":[3.572839E-4,3.0330748E-3,1.0657264E-3,8.3339424E-4,1.5018152E-3,2.9272041E-3,0E0,0E0,7.874742E-4,4.7227822E-4,1.7806583E-3,1.8116513E-3,4.319917E-4,0E0,0E0,7.6416635E-4,3.0785857E-5,8.5470953E-4,4.3660682E-4,0E0,5.8438098E-5,1.4693876E-3,8.860987E-5,2.1997657E-4,3.929413E-5,0E0,0E0,7.734745E-4,8.585365E-4,0E0,0E0,0E0,0E0,2.0495662E-4,4.2166095E-5,0E0,3.0628502E-4,0E0,0E0,0E0,0E0,0E0,0E0,0E0,0E0,0E0,0E0,0E0,0E0,0E0,0E0],"parents":[2147483647,0,0,1,1,2,2,3,3,4,4,5,5,8,8,9,9,10,10,11,11,12,12,15,15,16,16,17,17,18,18,20,20,21,21,22,22,23,23,24,24,27,27,28,28,33,33,34,34,36,36],"right_children":[2,4,6,8,10,12,-1,-1,14,16,18,20,22,-1,-1,24,26,28,30,-1,32,34,36,38,40,-1,-1,42,44,-1,-1,-1,-1,46,48,-1,50,-1,-1,-1,-1,-1,-1,-1,-1,-1,-1,-1,-1,-1,-1],"split_conditions":[5.3170073E-1,6.1243616E-2,6.8306565E-2,1.92761E-2,8.1955224E-2,5.3976583E-1,4.5811976E-3,-5.0944206E-4,5.160171E-1,5.2242196E-1,4.9199736E-1,6.277314E-2,1.0690037E-3,4.737217E-4,1.0389473E-2,4.1027337E-1,6.730446E-2,4.273619E-1,8.422153E-2,-9.4617875E-3,6.7829624E-2,1.5514925E-5,1.3976658E-3,7.3760554E-2,6.361684E-2,5.600229E-4,-1.0084838E-3,3.871912E-1,4.3164837E-1,5.211108E-4,8.330362E-3,1.8306078E-3,-5.746454E-4,1.678664E-6,6.263737E-1,-3.1561255E-3,2.476182E-3,1.994616E-3,-2.4630793E-3,-2.2359677E-3,-8.720163E-3,1.6400873E-4,2.5700394E-3,-4.679095E-3,-5.004515E-4,-1.9830567E-4,-2.7016236E-3,1.6669953E-3,3.7347144E-3,2.4879815E-3,-1.538818E-3],"split_indices":[1,0,0,0,0,1,0,0,1,1,1,0,0,0,0,1,0,1,0,0,0,0,0,0,0,0,0,1,1,0,0,0,0,0,1,0,0,0,0,0,0,0,0,0,0,0,0,0,0,0,0],"split_type":[0,0,0,0,0,0,0,0,0,0,0,0,0,0,0,0,0,0,0,0,0,0,0,0,0,0,0,0,0,0,0,0,0,0,0,0,0,0,0,0,0,0,0,0,0,0,0,0,0,0,0],"sum_hessian":[4.4E2,2.14E2,2.26E2,5E0,2.09E2,2.23E2,3E0,1E0,4E0,8E0,2.01E2,6E0,2.17E2,1E0,3E0,5E0,3E0,1.98E2,3E0,4E0,2E0,1.99E2,1.8E1,2E0,3E0,1E0,2E0,1.75E2,2.3E1,1E0,2E0,1E0,1E0,1.88E2,1.1E1,2E0,1.6E1,1E0,1E0,1E0,2E0,1.63E2,1.2E1,5E0,1.8E1,1.86E2,2E0,4E0,7E0,1E0,1.5E1],"tree_param":{"num_deleted":"0","num_feature":"2","num_nodes":"51","size_leaf_vector":"0"}},{"base_weights":[-2.7116677E-5,-1.3983849E-4,5.3990684E-3,-3.9636754E-5,-1.4488876E-2,1.2995283E-2,1.3722522E-3,4.919996E-3,-1.8124617E-4,-1.9670486E-2,-2.0628273E-3,-6.8477592E-3,6.0298084E-3,-1.72472E-4,2.025489E-2,-9.303613E-3,1.8468749E-5,2.3496598E-3,1.0375202E-2,3.8816333E-3,-7.2240382E-3,-4.293602E-3,-2.469185E-2,5.225596E-3,-2.7456263E-4,-2.6545823E-3,4.9026012E-3,-3.456682E-3,1.024954E-2,-5.570054E-4,-9.260714E-3,-1.1143287E-2,-1.531591E-4,1.1353692E-3,9.2126075E-3,-1.3667051E-2,4.0860217E-5,6.256312E-3,1.0975897E-3],"categories":[],"categories_nodes":[],"categories_segments":[],"categories_sizes":[],"default_left":[1,1,1,1,1,0,1,1,1,0,0,0,1,1,0,1,1,1,0,1,1,1,0,1,1,0,1,0,0,0,0,0,0,0,0,0,0,0,0],"id":25,"left_children":[1,3,5,7,9,-1,11,13,15,-1,-1,-1,17,19,-1,21,23,25,-1,27,29,31,-1,33,35,-1,37,-1,-1,-1,-1,-1,-1,-1,-1,-1,-1,-1,-1],"loss_changes":[2.704924E-4,6.2199245E-4,2.5746418E-4,3.0359626E-4,1.5258405E-4,0E0,3.0928684E-4,9.406029E-4,7.6535833E-4,0E0,0E0,0E0,5.558027E-5,3.1391898E-4,0E0,5.878402E-4,6.3008565E-4,6.4116495E-5,0E0,3.6253736E-4,4.9156093E-5,2.2517916E-4,0E0,3.483115E-4,1.6522584E-3,0E0,8.585797E-6,0E0,0E0,0E0,0E0,0E0,0E0,0E0,0E0,0E0,0E0,0E0,0E0],"parents":[2147483647,0,0,1,1,2,2,3,3,4,4,6,6,7,7,8,8,12,12,13,13,15,15,16,16,17,17,19,19,20,20,21,21,23,23,24,24,26,26],"right_children":[2,4,6,8,10,-1,12,14,16,-1,-1,-1,18,20,-1,22,24,26,-1,28,30,32,-1,34,36,-1,38,-1,-1,-1,-1,-1,-1,-1,-1,-1,-1,-1,-1],"split_conditions":[9.529607E-1,9.4726217E-1,9.5989114E-1,4.9223304E-2,9.489356E-1,3.898585E-3,9.6751547E-1,4.497038E-2,5.8723688E-2,-5.901146E-3,-6.1884825E-4,-2.0543279E-3,9.8346275E-1,3.7586354E-2,6.076467E-3,9.2234385E-1,9.099738E-2,3.7927255E-2,3.1125606E-3,5.587805E-1,4.2305645E-1,5.1037055E-2,-7.4075554E-3,7.401676E-2,1.1661089E-1,-7.963747E-4,9.757838E-1,-1.0370046E-3,3.0748623E-3,-1.6710162E-4,-2.7782144E-3,-3.342986E-3,-4.594773E-5,3.4061077E-4,2.7637824E-3,-4.1001155E-3,1.2258066E-5,1.8768937E-3,3.2927693E-4],"split_indices":[0,0,0,1,0,0,0,1,1,0,0,0,0,1,0,0,1,1,0,0,0,1,0,1,1,0,0,0,0,0,0,0,0,0,0,0,0,0,0],"split_type":[0,0,0,0,0,0,0,0,0,0,0,0,0,0,0,0,0,0,0,0,0,0,0,0,0,0,0,0,0,0,0,0,0,0,0,0,0,0,0],"sum_hessian":[4.4E2,4.32E2,8E0,4.3E2,2E0,2E0,6E0,1.1E1,4.19E2,1E0,1E0,2E0,4E0,9E0,2E0,8E0,4.11E2,3E0,1E0,6E0,3E0,7E0,1E0,2.1E1,3.9E2,1E0,2E0,3E0,3E0,1E0,2E0,2E0,5E0,1.1E1,1E1,8E0,3.82E2,1E0,1E0],"tree_param":{"num_deleted":"0","num_feature":"2","num_nodes":"39","size_leaf_vector":"0"}},{"base_weights":[-3.4323242E-5,-5.48882E-4,9.6757995E-4,-4.17049E-4,-1.9456137E-2,1.5234239E-2,1.6267884E-4,-1.3442364E-4,-2.7831192E-3,7.5546163E-3,3.44958E-2,-2.0234285E-2,7.442872E-4,-6.3818233E-4,5.106131E-3,-9.961745E-3,-2.742807E-4,1.6667445E-4,1.0476458E-2,-2.5114862E-2,-2.7962774E-3,2.8466642E-2,3.4004985E-4,-1.16321305E-2,-3.5355898E-4,1.6008985E-3,1.740479E-2,-1.6947463E-3,-1.4582994E-2,-5.958523E-3,2.9402482E-3,1.4933348E-3,-1.2433231E-3,3.0789077E-3,1.1556119E-2,-2.0844856E-2,8.0147083E-4,-8.9304644E-4,-1.6778411E-2,1.5564794E-2,-6.980729E-4,5.8473735E-3,-4.9689263E-3,7.6655746E-3,2.8180823E-2,3.5024732E-3,-4.594644E-3,6.58004E-3,-8.348349E-3,1.15030855E-2,-4.9978574E-3,2.2571206E-2,3.117621E-4],"categories":[],"categories_nodes":[],"categories_segments":[],"categories_sizes":[],"default_left":[1,1,1,1,0,1,1,1,1,1,0,1,1,1,1,1,1,1,1,0,0,0,1,1,1,1,1,1,0,1,1,0,0,0,0,0,1,0,0,0,0,0,0,0,0,0,0,0,0,0,0,0,0],"id":26,"left_children":[1,3,5,7,-1,9,11,13,15,17,-1,19,21,23,25,27,29,31,33,-1,-1,-1,35,37,39,41,43,45,-1,47,49,-1,-1,-1,-1,-1,51,-1,-1,-1,-1,-1,-1,-1,-1,-1,-1,-1,-1,-1,-1,-1,-1],"loss_changes":[2.2788334E-4,7.1972486E-4,1.7200091E-3,1.9422092E-4,0E0,9.2276966E-4,1.7114755E-3,6.922922E-4,5.5557815E-4,1.4935862E-4,0E0,2.7020194E-4,1.5592177E-3,7.4375054E-4,9.6365885E-4,2.8091646E-4,4.5605144E-4,7.468461E-6,4.3540495E-6,0E0,0E0,0E0,1.3754538E-3,3.1661417E-4,1.2941434E-3,5.591285E-4,3.087283E-4,7.637823E-5,0E0,3.2461723E-4,1.1450541E-3,0E0,0E0,0E0,0E0,0E0,1.4534969E-3,0E0,0E0,0E0,0E0,0E0,0E0,0E0,0E0,0E0,0E0,0E0,0E0,0E0,0E0,0E0,0E0],"parents":[2147483647,0,0,1,1,2,2,3,3,5,5,6,6,7,7,8,8,9,9,11,11,12,12,13,13,14,14,15,15,16,16,17,17,18,18,22,22,23,23,24,24,25,25,26,26,27,27,29,29,30,30,36,36],"right_children":[2,4,6,8,-1,10,12,14,16,18,-1,20,22,24,26,28,30,32,34,-1,-1,-1,36,38,40,42,44,46,-1,48,50,-1,-1,-1,-1,-1,52,-1,-1,-1,-1,-1,-1,-1,-1,-1,-1,-1,-1,-1,-1,-1,-1],"split_conditions":[2.9969132E-1,2.9573095E-1,3.6243606E-1,1.8934776E-1,-5.836841E-3,3.435267E-1,3.726768E-1,8.128427E-2,2.0374992E-1,3.1299266E-1,1.0348741E-2,3.403369E-1,3.8197488E-1,5.174236E-1,4.82316E-1,4.1792896E-1,4.2362085E-1,3.0635828E-1,2.1873787E-1,-7.534459E-3,-8.388833E-4,8.539993E-3,4.0065086E-1,4.1027337E-1,5.238513E-1,4.2232722E-1,9.686893E-2,1.939617E-1,-4.3748985E-3,2.201786E-1,4.347697E-1,4.4800044E-4,-3.7299693E-4,9.2367234E-4,3.4668357E-3,-6.253457E-3,4.106114E-1,-2.6791394E-4,-5.033524E-3,4.669438E-3,-2.0942188E-4,1.7542121E-3,-1.4906779E-3,2.2996725E-3,8.454247E-3,1.050742E-3,-1.3783933E-3,1.974012E-3,-2.5045048E-3,3.4509257E-3,-1.4993573E-3,6.771362E-3,9.352863E-5],"split_indices":[0,0,0,0,0,0,0,0,0,0,0,1,0,1,1,1,1,0,1,0,0,0,0,1,1,1,0,0,0,0,1,0,0,0,0,0,0,0,0,0,0,0,0,0,0,0,0,0,0,0,0,0,0],"split_type":[0,0,0,0,0,0,0,0,0,0,0,0,0,0,0,0,0,0,0,0,0,0,0,0,0,0,0,0,0,0,0,0,0,0,0,0,0,0,0,0,0,0,0,0,0,0,0,0,0,0,0,0,0],"sum_hessian":[4.4E2,2.91E2,1.49E2,2.9E2,1E0,7E0,1.42E2,2.6E2,3E1,6E0,1E0,3E0,1.39E2,2.38E2,2.2E1,7E0,2.3E1,2E0,4E0,2E0,1E0,1E0,1.38E2,5E0,2.33E2,1.8E1,4E0,3E0,4E0,8E0,1.5E1,1E0,1E0,1E0,3E0,2E0,1.36E2,2E0,3E0,4E0,2.29E2,1.1E1,7E0,3E0,1E0,1E0,2E0,1E0,7E0,7E0,8E0,2E0,1.34E2],"tree_param":{"num_deleted":"0","num_feature":"2","num_nodes":"53","size_leaf_vector":"0"}},{"base_weights":[1.373081E-5,5.5749514E-3,-6.283124E-5,-6.758839E-3,9.393478E-3,-3.4803937E-3,1.1849215E-4,4.09472E-3,1.5294254E-2,-1.642809E-3,-2.1034837E-2,6.387185E-3,-5.206122E-5,6.995062E-3,-2.3031533E-3,-4.520316E-3,1.3840442E-3,2.5105358E-3,2.2576839E-2,-1.4591336E-2,5.630078E-5,1.7204285E-3,8.772165E-3,-1.6190142E-3,-1.6766667E-2,-5.1862746E-3,7.723689E-3,5.137099E-3,-1.0564268E-2,-2.0086855E-2,-1.8001497E-3,-1.212644E-4,1.011874E-2,-3.8394034E-3,9.182245E-3,-8.389421E-3,8.1334513E-4,1.5030116E-2,3.2563806E-3,-6.735325E-6,9.253514E-3,-6.0641808E-3,1.1180351E-4,1.4219332E-2,-8.849303E-5],"categories":[],"categories_nodes":[],"categories_segments":[],"categories_sizes":[],"default_left":[1,1,1,0,1,1,1,1,0,1,0,1,1,1,0,1,1,1,0,1,1,0,0,1,0,1,1,1,0,0,0,1,1,0,0,0,0,0,0,0,0,0,0,0,0],"id":27,"left_children":[1,3,5,-1,7,9,11,13,-1,15,-1,17,19,21,-1,23,25,27,-1,29,31,-1,-1,33,-1,35,37,39,-1,-1,-1,41,43,-1,-1,-1,-1,-1,-1,-1,-1,-1,-1,-1,-1],"loss_changes":[1.8811859E-4,3.460704E-4,2.7059464E-4,0E0,9.370822E-5,6.7511486E-4,4.4402838E-4,9.033478E-5,0E0,1.8916195E-4,0E0,6.3369784E-4,6.38901E-4,1.302881E-5,0E0,3.636885E-4,4.982456E-4,3.976877E-4,0E0,1.7472327E-4,7.2128273E-4,0E0,0E0,2.7508434E-4,0E0,1.2212945E-4,1.4689655E-4,1.9062975E-4,0E0,0E0,0E0,5.505639E-4,2.9424817E-4,0E0,0E0,0E0,0E0,0E0,0E0,0E0,0E0,0E0,0E0,0E0,0E0],"parents":[2147483647,0,0,1,1,2,2,4,4,5,5,6,6,7,7,9,9,11,11,12,12,13,13,15,15,16,16,17,17,19,19,20,20,23,23,25,25,26,26,27,27,31,31,32,32],"right_children":[2,4,6,-1,8,10,12,14,-1,16,-1,18,20,22,-1,24,26,28,-1,30,32,-1,-1,34,-1,36,38,40,-1,-1,-1,42,44,-1,-1,-1,-1,-1,-1,-1,-1,-1,-1,-1,-1],"split_conditions":[2.8233115E-2,1.6013695E-2,5.8723688E-2,-2.0276518E-3,2.5135916E-2,5.805833E-2,6.88187E-2,2.2066437E-2,4.588276E-3,4.790405E-2,-6.3104513E-3,6.809934E-2,7.104468E-2,5.3838044E-1,-6.90946E-4,4.6275355E-2,8.804304E-1,6.6686906E-2,6.773052E-3,9.287058E-1,9.210105E-1,5.1612855E-4,2.6316494E-3,4.497038E-2,-5.0300006E-3,5.3478755E-2,8.9147407E-1,6.264286E-2,-3.1692805E-3,-6.0260566E-3,-5.400449E-4,1.1661089E-1,8.467422E-2,-1.1518211E-3,2.7546734E-3,-2.5168264E-3,2.4400355E-4,4.509035E-3,9.769142E-4,-2.0205975E-6,2.7760542E-3,-1.8192542E-3,3.3541055E-5,4.2657997E-3,-2.6547908E-5],"split_indices":[1,1,1,0,1,1,1,1,0,1,0,1,1,0,0,1,0,1,0,0,0,0,0,1,0,1,0,1,0,0,0,1,1,0,0,0,0,0,0,0,0,0,0,0,0],"split_type":[0,0,0,0,0,0,0,0,0,0,0,0,0,0,0,0,0,0,0,0,0,0,0,0,0,0,0,0,0,0,0,0,0,0,0,0,0,0,0,0,0,0,0,0,0],"sum_hessian":[4.4E2,5E0,4.35E2,1E0,4E0,2.1E1,4.14E2,3E0,1E0,2E1,1E0,1E1,4.04E2,2E0,1E0,1E1,1E1,9E0,1E0,2E0,4.02E2,1E0,1E0,9E0,1E0,5E0,5E0,8E0,1E0,1E0,1E0,3.96E2,6E0,8E0,1E0,3E0,2E0,1E0,4E0,4E0,4E0,1.4E1,3.82E2,4E0,2E0],"tree_param":{"num_deleted":"0","num_feature":"2","num_nodes":"45","size_leaf_vector":"0"}},{"base_weights":[1.1329361E-5,-3.4214064E-4,1.1043631E-3,-1.07102635E-4,-3.9304897E-2,-1.0503916E-3,6.7417384E-3,5.371909E-3,-2.9336277E-4,-6.2287915E-3,1.0575663E-3,2.216442E-2,1.0842085E-3,4.8169495E-5,2.9304653E-2,-2.4005592E-2,-7.083926E-5,6.6020235E-4,-1.5250504E-2,2.5814593E-2,-7.958721E-4,3.0065179E-2,-1.0252396E-3,-7.098489E-3,1.0656104E-2,1.8061027E-3,-4.655709E-3,2.9878765E-2,-2.5780292E-4,-2.8602069E-3,2.321276E-2,-2.9864708E-2,-7.863864E-3,8.259614E-3,3.9239764E-2,-1.5595992E-2,1.0326297E-3,-2.6348233E-3,1.0969639E-3,-1.2127548E-2,7.2487816E-3,2.7584469E-2,-2.9578847E-3,-7.9699076E-4,1.0013878E-2,-9.649675E-3,1.3942761E-5,1.9499233E-3,-7.261736E-3,-1.0516793E-2,6.328026E-5,1.3198555E-3,-1.9243132E-2,-2.2542314E-3,1.4076811E-2,-1.9214228E-2,-6.3455105E-3,1.4436394E-2,4.0779512E-5,4.1693777E-2,1.3633698E-2,-1.0005206E-2,9.773612E-3],"categories":[],"categories_nodes":[],"categories_segments":[],"categories_sizes":[],"default_left":[1,1,1,1,0,1,1,1,1,1,1,1,1,1,0,0,1,1,1,1,1,0,1,1,1,1,0,0,1,1,0,0,1,0,0,1,1,0,0,1,1,1,1,0,0,0,0,0,0,0,0,0,0,0,0,0,0,0,0,0,0,0,0],"id":28,"left_children":[1,3,5,7,-1,9,11,13,15,17,19,21,23,25,-1,-1,27,29,31,33,35,-1,37,39,41,43,-1,-1,45,47,-1,-1,49,-1,-1,51,53,-1,-1,55,57,59,61,-1,-1,-1,-1,-1,-1,-1,-1,-1,-1,-1,-1,-1,-1,-1,-1,-1,-1,-1,-1],"loss_changes":[1.7076025E-4,3.0544717E-3,1.3189749E-3,3.4140958E-4,0E0,8.6893945E-4,2.5935974E-3,1.4001171E-3,1.7026182E-3,1.4395302E-3,2.6360257E-3,1.4965516E-3,1.8770926E-3,9.1099726E-5,0E0,0E0,1.8051383E-3,1.1779126E-3,8.4464694E-4,6.1860913E-4,1.4774556E-3,0E0,1.3137898E-5,1.0259026E-3,2.61668E-3,1.7890583E-4,0E0,0E0,8.168387E-4,2.8939493E-4,0E0,0E0,1.6890664E-4,0E0,0E0,3.9556506E-4,2.1325785E-3,0E0,0E0,2.8783036E-4,2.0664459E-4,4.157382E-4,7.258476E-4,0E0,0E0,0E0,0E0,0E0,0E0,0E0,0E0,0E0,0E0,0E0,0E0,0E0,0E0,0E0,0E0,0E0,0E0,0E0,0E0],"parents":[2147483647,0,0,1,1,2,2,3,3,5,5,6,6,7,7,8,8,9,9,10,10,11,11,12,12,13,13,16,16,17,17,18,18,19,19,20,20,22,22,23,23,24,24,25,25,28,28,29,29,32,32,35,35,36,36,39,39,40,40,41,41,42,42],"right_children":[2,4,6,8,-1,10,12,14,16,18,20,22,24,26,-1,-1,28,30,32,34,36,-1,38,40,42,44,-1,-1,46,48,-1,-1,50,-1,-1,52,54,-1,-1,56,58,60,62,-1,-1,-1,-1,-1,-1,-1,-1,-1,-1,-1,-1,-1,-1,-1,-1,-1,-1,-1,-1],"split_conditions":[5.2128035E-1,5.163065E-1,2.0540184E-1,1.3342735E-1,-1.17914695E-2,7.770933E-1,2.2107324E-1,1.2506394E-1,1.4038956E-1,1.2196046E-1,7.8799325E-1,6.827086E-1,6.471586E-1,8.90318E-2,8.791396E-3,-7.2016777E-3,1.7195359E-1,1.13621324E-1,1.2975648E-1,1.272207E-1,8.1093013E-1,9.019554E-3,6.907344E-1,2.6237598E-1,2.2813466E-1,6.300381E-2,-1.3967127E-3,8.96363E-3,2.7331042E-1,4.7833383E-2,6.9638286E-3,-8.959413E-3,1.7008008E-1,2.4778843E-3,1.1771929E-2,8.911508E-2,1.3436216E-1,-7.9044705E-4,3.2908918E-4,2.3180124E-1,5.351029E-1,6.6387695E-1,6.838398E-1,-2.3909724E-4,3.0041637E-3,-2.8949026E-3,4.1828284E-6,5.8497704E-4,-2.178521E-3,-3.155038E-3,1.898408E-5,3.9595665E-4,-5.77294E-3,-6.762694E-4,4.2230436E-3,-5.7642683E-3,-1.9036533E-3,4.330918E-3,1.2233854E-5,1.2508133E-2,4.09011E-3,-3.0015619E-3,2.9320838E-3],"split_indices":[0,0,1,1,0,0,1,1,1,1,0,0,0,1,0,0,1,1,1,1,0,0,0,1,1,1,0,0,1,1,0,0,1,0,0,1,1,0,0,1,0,0,0,0,0,0,0,0,0,0,0,0,0,0,0,0,0,0,0,0,0,0,0],"split_type":[0,0,0,0,0,0,0,0,0,0,0,0,0,0,0,0,0,0,0,0,0,0,0,0,0,0,0,0,0,0,0,0,0,0,0,0,0,0,0,0,0,0,0,0,0,0,0,0,0,0,0,0,0,0,0,0,0,0,0,0,0,0,0],"sum_hessian":[4.4E2,3.33E2,1.07E2,3.32E2,1E0,7.8E1,2.9E1,1E1,3.22E2,2.2E1,5.6E1,7E0,2.2E1,9E0,1E0,2E0,3.2E2,1.3E1,9E0,3E0,5.3E1,5E0,2E0,1.2E1,1E1,7E0,2E0,1E0,3.19E2,1.2E1,1E0,2E0,7E0,2E0,1E0,5E0,4.8E1,1E0,1E0,9E0,3E0,4E0,6E0,6E0,1E0,8E0,3.11E2,6E0,6E0,5E0,2E0,1E0,4E0,3.9E1,9E0,3E0,6E0,1E0,2E0,1E0,3E0,4E0,2E0],"tree_param":{"num_deleted":"0","num_feature":"2","num_nodes":"63","size_leaf_vector":"0"}},{"base_weights":[6.3931984E-5,1.6875169E-3,-2.4175317E-4,3.9408013E-5,2.8871462E-2,-5.4789096E-2,5.295422E-5,1.2718192E-3,-1.9689023E-2,-2.481498E-4,1.3746567E-2,9.914071E-5,1.2591188E-2,-2.8216332E-2,-7.441143E-3,-1.0145525E-2,8.900787E-5,1.6434355E-2,-2.5339723E-3,1.4299795E-3,-1.1894931E-2,-2.5408417E-3,1.6125763E-2,6.580631E-3,-1.4148819E-2,-3.9706138E-4,4.8144385E-3,2.4715811E-2,4.0443093E-3,-6.368538E-5,5.702142E-3,-1.4505535E-2,-4.449149E-3,1.8077776E-2,4.1588545E-3,-1.5525997E-2,2.5396943E-2,-2.7154127E-2,-7.5032264E-3,-1.8949491E-4,-3.3409163E-2,1.0099803E-2,-1.4324989E-3,-6.4955354E-3,9.722769E-3],"categories":[],"categories_nodes":[],"categories_segments":[],"categories_sizes":[],"default_left":[1,1,1,1,0,0,1,1,1,1,1,1,1,0,0,1,1,1,0,1,1,0,1,1,1,1,1,0,1,0,0,0,0,0,0,0,0,0,0,0,0,0,0,0,0],"id":29,"left_children":[1,3,5,7,-1,-1,9,11,13,15,17,19,21,-1,-1,23,25,27,-1,29,31,-1,33,35,37,39,41,-1,43,-1,-1,-1,-1,-1,-1,-1,-1,-1,-1,-1,-1,-1,-1,-1,-1],"loss_changes":[2.1927882E-4,3.1350092E-3,5.982989E-3,1.654048E-3,0E0,0E0,1.533119E-3,8.482865E-4,2.0780414E-4,1.2155623E-3,3.9171334E-4,9.587779E-4,3.6188465E-4,0E0,0E0,8.966249E-4,8.1271265E-4,6.182947E-4,0E0,3.4494686E-4,5.2090618E-5,0E0,4.1614985E-5,1.6422085E-3,6.6053635E-4,2.193227E-3,1.1040403E-3,0E0,3.0255492E-4,0E0,0E0,0E0,0E0,0E0,0E0,0E0,0E0,0E0,0E0,0E0,0E0,0E0,0E0,0E0,0E0],"parents":[2147483647,0,0,1,1,2,2,3,3,6,6,7,7,8,8,9,9,10,10,11,11,12,12,15,15,16,16,17,17,19,19,20,20,22,22,23,23,24,24,25,25,26,26,28,28],"right_children":[2,4,6,8,-1,-1,10,12,14,16,18,20,22,-1,-1,24,26,28,-1,30,32,-1,34,36,38,40,42,-1,44,-1,-1,-1,-1,-1,-1,-1,-1,-1,-1,-1,-1,-1,-1,-1,-1],"split_conditions":[1.3324067E-1,1.2959552E-1,1.3436216E-1,1.2617476E-1,8.661439E-3,-1.643673E-2,8.1888324E-1,1.1661089E-1,1.272597E-1,1.6858947E-1,1.5241925E-1,1.0077684E-1,4.742117E-1,-8.4649E-3,-2.232343E-3,4.7620025E-1,5.2128035E-1,8.461648E-1,-7.601917E-4,7.401676E-2,1.12574026E-1,-7.6225254E-4,8.3157086E-1,4.6829706E-1,1.4578563E-1,5.163065E-1,2.2813466E-1,7.414744E-3,8.547623E-1,-1.9105615E-5,1.7106427E-3,-4.3516606E-3,-1.3347447E-3,5.423333E-3,1.2476564E-3,-4.6577994E-3,7.6190834E-3,-8.1462385E-3,-2.250968E-3,-5.6848476E-5,-1.0022749E-2,3.029941E-3,-4.297497E-4,-1.9486607E-3,2.9168308E-3],"split_indices":[1,1,1,1,0,0,0,1,1,1,1,1,0,0,0,0,0,0,0,1,1,0,0,0,1,0,1,0,0,0,0,0,0,0,0,0,0,0,0,0,0,0,0,0,0],"split_type":[0,0,0,0,0,0,0,0,0,0,0,0,0,0,0,0,0,0,0,0,0,0,0,0,0,0,0,0,0,0,0,0,0,0,0,0,0,0,0,0,0,0,0,0,0],"sum_hessian":[4.4E2,6.9E1,3.71E2,6.6E1,3E0,1E0,3.7E2,6.3E1,3E0,3.63E2,7E0,5.8E1,5E0,1E0,2E0,1.1E1,3.52E2,6E0,1E0,5.3E1,5E0,1E0,4E0,2E0,9E0,3.2E2,3.2E1,3E0,3E0,4E1,1.3E1,3E0,2E0,3E0,1E0,1E0,1E0,2E0,7E0,3.19E2,1E0,1.7E1,1.5E1,1E0,2E0],"tree_param":{"num_deleted":"0","num_feature":"2","num_nodes":"45","size_leaf_vector":"0"}},{"base_weights":[-9.328655E-6,-9.3942486E-5,4.062573E-3,-2.4371857E-5,-1.0057609E-2,9.759505E-3,1.040663E-3,3.093623E-3,-1.21053396E-4,-1.39039755E-2,-1.182437E-3,-5.618354E-3,4.8279404E-3,-3.33637E-4,1.0888368E-2,-6.868124E-3,1.0251506E-5,2.1329075E-3,7.804036E-3,2.742214E-3,-5.6329668E-3,1.3763527E-2,1.1314452E-3,-2.84017E-3,-1.7531902E-2,6.2772157E-3,-1.4528172E-4,5.1303506E-3,-5.7635707E-4,-6.027937E-3,5.2085617E-3,-6.455481E-4,-7.080257E-3,-1.1169672E-2,4.0969253E-4,2.6329027E-3,1.9538015E-2,-1.8760145E-2,-5.6561107E-6,-1.6099811E-3,7.454455E-4],"categories":[],"categories_nodes":[],"categories_segments":[],"categories_sizes":[],"default_left":[1,1,1,1,1,0,1,1,1,0,0,0,1,1,1,1,1,1,0,1,1,0,0,1,0,1,1,0,1,0,0,0,0,0,0,0,0,0,0,0,0],"id":30,"left_children":[1,3,5,7,9,-1,11,13,15,-1,-1,-1,17,19,21,23,25,27,-1,29,31,-1,-1,33,-1,35,37,-1,39,-1,-1,-1,-1,-1,-1,-1,-1,-1,-1,-1,-1],"loss_changes":[1.5232344E-4,2.9990115E-4,1.447842E-4,1.3030054E-4,8.597094E-5,0E0,2.0366187E-4,3.509228E-4,3.7127233E-4,0E0,0E0,0E0,2.3458088E-5,1.7844627E-4,9.6638134E-5,2.9383207E-4,4.0249707E-4,3.544038E-5,0E0,1.8280858E-4,2.4302324E-5,0E0,0E0,1.9406427E-4,0E0,4.3182334E-4,1.0473359E-3,0E0,5.2988935E-6,0E0,0E0,0E0,0E0,0E0,0E0,0E0,0E0,0E0,0E0,0E0,0E0],"parents":[2147483647,0,0,1,1,2,2,3,3,4,4,6,6,7,7,8,8,12,12,13,13,14,14,15,15,16,16,17,17,19,19,20,20,23,23,25,25,26,26,28,28],"right_children":[2,4,6,8,10,-1,12,14,16,-1,-1,-1,18,20,22,24,26,28,-1,30,32,-1,-1,34,-1,36,38,-1,40,-1,-1,-1,-1,-1,-1,-1,-1,-1,-1,-1,-1],"split_conditions":[9.529607E-1,9.4726217E-1,9.5989114E-1,4.970374E-2,9.489356E-1,2.9278516E-3,9.6751547E-1,4.497038E-2,5.8723688E-2,-4.1711926E-3,-3.547311E-4,-1.6855062E-3,9.8346275E-1,3.7586354E-2,4.9223304E-2,9.2234385E-1,6.962013E-2,9.723257E-1,2.3412108E-3,1.7526973E-2,4.2305645E-1,4.129058E-3,3.3943355E-4,5.1037055E-2,-5.2595707E-3,6.809934E-2,7.401676E-2,1.5391052E-3,9.795027E-1,-1.8083812E-3,1.5625686E-3,-1.9366444E-4,-2.1240772E-3,-3.3509017E-3,1.2290776E-4,7.8987086E-4,5.861405E-3,-5.628044E-3,-1.6968332E-6,-4.8299434E-4,2.2363366E-4],"split_indices":[0,0,0,1,0,0,0,1,1,0,0,0,0,1,1,0,1,0,0,1,0,0,0,1,0,1,1,0,0,0,0,0,0,0,0,0,0,0,0,0,0],"split_type":[0,0,0,0,0,0,0,0,0,0,0,0,0,0,0,0,0,0,0,0,0,0,0,0,0,0,0,0,0,0,0,0,0,0,0,0,0,0,0,0,0],"sum_hessian":[4.4E2,4.32E2,8E0,4.3E2,2E0,2E0,6E0,1.2E1,4.18E2,1E0,1E0,2E0,4E0,9E0,3E0,7E0,4.11E2,3E0,1E0,6E0,3E0,2E0,1E0,6E0,1E0,9E0,4.02E2,1E0,2E0,1E0,5E0,1E0,2E0,1E0,5E0,8E0,1E0,2E0,4E2,1E0,1E0],"tree_param":{"num_deleted":"0","num_feature":"2","num_nodes":"41","size_leaf_vector":"0"}},{"base_weights":[-1.838029E-5,4.2957664E-3,-7.7707125E-5,-2.8757055E-3,8.600429E-3,-3.5132007E-3,1.1185216E-5,8.1017613E-4,-5.1237345E-3,1.19359195E-2,3.5099585E-3,-1.500845E-3,-1.1818379E-2,1.1058778E-2,-4.082977E-5,-1.3684928E-3,6.6334307E-3,-2.8803747E-3,5.457461E-3,-1.3178191E-4,5.4091387E-3,-5.134493E-4,-3.978262E-3,-5.002843E-3,-2.4795709E-5,1.0276198E-3,1.0908623E-2,-1.1331141E-3,7.081032E-5,-6.593734E-3,-2.1364212E-3,-1.9026697E-3,-1.4902115E-2,5.0591705E-3,-1.5120086E-4,-1.6169151E-3,3.3296149E-3],"categories":[],"categories_nodes":[],"categories_segments":[],"categories_sizes":[],"default_left":[1,1,1,1,1,1,1,0,0,0,1,1,0,0,1,0,0,1,0,1,1,1,1,1,1,1,0,0,0,0,0,0,0,0,0,0,0],"id":31,"left_children":[1,3,5,7,9,11,13,-1,-1,-1,15,17,-1,-1,