{"learner":{"attributes":{"best_iteration":"99","best_ntree_limit":"100","scikit_learn":"{\"n_estimators\": 100, \"objective\": \"reg:squarederror\", \"max_depth\": null, \"max_leaves\": null, \"max_bin\": null, \"grow_policy\": null, \"learning_rate\": null, \"verbosity\": null, \"booster\": null, \"tree_method\": null, \"gamma\": null, \"min_child_weight\": null, \"max_delta_step\": null, \"subsample\": null, \"sampling_method\": null, \"colsample_bytree\": null, \"colsample_bylevel\": null, \"colsample_bynode\": null, \"reg_alpha\": null, \"reg_lambda\": null, \"scale_pos_weight\": null, \"base_score\": null, \"missing\": NaN, \"num_parallel_tree\": null, \"random_state\": null, \"n_jobs\": null, \"monotone_constraints\": null, \"interaction_constraints\": null, \"importance_type\": null, \"gpu_id\": null, \"validate_parameters\": null, \"predictor\": null, \"enable_categorical\": false, \"feature_types\": null, \"max_cat_to_onehot\": null, \"max_cat_threshold\": null, \"eval_metric\": null, \"early_stopping_rounds\": null, \"callbacks\": null, \"_estimator_type\": \"regressor\"}"},"feature_names":["GHI","SZA_30min_before"],"feature_types":["float","float"],"gradient_booster":{"model":{"gbtree_model_param":{"num_parallel_tree":"1","num_trees":"100","size_leaf_vector":"0"},"tree_info":[0,0,0,0,0,0,0,0,0,0,0,0,0,0,0,0,0,0,0,0,0,0,0,0,0,0,0,0,0,0,0,0,0,0,0,0,0,0,0,0,0,0,0,0,0,0,0,0,0,0,0,0,0,0,0,0,0,0,0,0,0,0,0,0,0,0,0,0,0,0,0,0,0,0,0,0,0,0,0,0,0,0,0,0,0,0,0,0,0,0,0,0,0,0,0,0,0,0,0,0],"trees":[{"base_weights":[2.5503157E3,5.1888855E2,6.6096396E3,2.4648738E3,1.4949019E2,4.33695E3,7.538391E3,7.3730176E2,2.7487664E3,3.9113106E1,1.0192839E3,4.844629E3,1.7679431E3,7.6863735E3,3.8649485E3,9.292704E2,1.0759731E2,2.8314377E3,1.296863E3,1.827106E2,-4.9714285E-1,1.4034624E3,1.8741641E2,9.862778E1,1.0756733E3,3.9330417E2,1.307593E2,1.769997E2,1.06187E3,5.6561966E0,1.841729E2],"categories":[],"categories_nodes":[],"categories_segments":[],"categories_sizes":[],"default_left":[1,1,1,1,1,1,1,1,1,1,1,0,0,0,0,1,0,0,0,1,0,0,0,0,0,1,1,0,0,0,0],"id":0,"left_children":[1,3,5,7,9,11,13,15,17,19,21,-1,-1,-1,-1,23,-1,-1,-1,25,-1,-1,-1,-1,-1,27,29,-1,-1,-1,-1],"loss_changes":[3.633154E9,2.1169045E8,2.7758848E8,2.1024224E7,2.3865452E7,5.012531E7,2.628352E7,8.670805E5,1.129248E6,1.2628119E6,8.685366E6,0E0,0E0,0E0,0E0,6.235605E5,0E0,0E0,0E0,4.7372125E5,0E0,0E0,0E0,0E0,0E0,1.1135735E6,2.6624656E5,0E0,0E0,0E0,0E0],"parents":[2147483647,0,0,1,1,2,2,3,3,4,4,5,5,6,6,7,7,8,8,9,9,10,10,15,15,19,19,25,25,26,26],"right_children":[2,4,6,8,10,12,14,16,18,20,22,-1,-1,-1,-1,24,-1,-1,-1,26,-1,-1,-1,-1,-1,28,30,-1,-1,-1,-1],"split_conditions":[3.893887E2,7.335416E1,6.48933E2,1.326683E2,5.8895E1,6.1629345E1,5.02901E1,7.172266E1,3.793986E2,9.711427E1,1.397049E2,1.4533887E3,5.3038293E2,2.305912E3,1.1594846E3,3.8179302E1,3.2279194E1,8.4943134E2,3.8905893E2,8.4810745E1,-1.4914286E-1,4.2103873E2,5.6224926E1,2.9588335E1,3.2270203E2,8.468023E1,9.4111984E1,5.309991E1,3.18561E2,1.696859E0,5.5251873E1],"split_indices":[0,1,0,0,0,1,1,1,0,1,0,0,0,0,0,0,0,0,0,1,0,0,0,0,0,1,1,0,0,0,0],"split_type":[0,0,0,0,0,0,0,0,0,0,0,0,0,0,0,0,0,0,0,0,0,0,0,0,0,0,0,0,0,0,0],"sum_hessian":[4.4E2,2.94E2,1.46E2,4.6E1,2.48E2,4.4E1,1.02E2,7E0,3.9E1,2.21E2,2.7E1,3.6E1,8E0,9.7E1,5E0,5E0,2E0,3.6E1,3E0,4.7E1,1.74E2,1.8E1,9E0,1E0,4E0,8E0,3.9E1,7E0,1E0,1.2E1,2.7E1],"tree_param":{"num_deleted":"0","num_feature":"2","num_nodes":"31","size_leaf_vector":"0"}},{"base_weights":[1.8033115E3,3.6372797E2,4.6508403E3,1.7385686E3,1.0828059E2,3.4455718E3,5.659928E3,5.6418243E2,1.9348896E3,2.9309175E1,7.305439E2,3.7019612E3,1.2964916E3,7.092043E2,8.607785E1,3.4015369E3,1.763678E3,3.1660858E2,1.708953E1,1.0045836E3,1.3681398E2,3.7649675E3,1.2078462E3,8.383361E1,8.175117E2,1.8279731E3,4.256748E2,1.3053726E2,9.025895E2,9.295522E1,-3.4885225E-1,6.979273E2,1.3389951E3,2.4101958E2,-4.0199932E1,1.290474E2,-2.0137873E0,7.9969696E2,-2.1076936E2],"categories":[],"categories_nodes":[],"categories_segments":[],"categories_sizes":[],"default_left":[1,1,1,1,1,1,0,1,1,1,1,1,0,1,0,0,1,1,1,1,0,0,0,0,0,0,0,1,0,1,0,1,0,0,0,0,0,0,0],"id":1,"left_children":[1,3,5,7,9,11,-1,13,15,17,19,21,-1,23,-1,-1,25,27,29,31,-1,-1,-1,-1,-1,-1,-1,33,-1,35,-1,37,-1,-1,-1,-1,-1,-1,-1],"loss_changes":[1.8060801E9,1.0306438E8,1.604992E8,9.513968E6,1.2214699E7,3.377056E7,0E0,4.936385E5,3.793968E6,7.7396375E5,4.418315E6,5.19552E6,0E0,3.3785875E5,0E0,0E0,2.404888E6,8.6348656E5,2.831491E5,1.013916E6,0E0,0E0,0E0,0E0,0E0,0E0,0E0,1.6059648E5,0E0,1.3736534E5,0E0,1.2782845E6,0E0,0E0,0E0,0E0,0E0,0E0,0E0],"parents":[2147483647,0,0,1,1,2,2,3,3,4,4,5,5,7,7,8,8,9,9,10,10,11,11,13,13,16,16,17,17,18,18,19,19,27,27,29,29,31,31],"right_children":[2,4,6,8,10,12,-1,14,16,18,20,22,-1,24,-1,-1,26,28,30,32,-1,-1,-1,-1,-1,-1,-1,34,-1,36,-1,38,-1,-1,-1,-1,-1,-1,-1],"split_conditions":[3.8748993E2,7.335416E1,6.8978735E2,1.326683E2,5.8895E1,6.1629345E1,1.6979785E3,7.172266E1,2.7568882E1,8.4810745E1,1.397049E2,6.841593E2,3.8894748E2,3.8179302E1,2.5823357E1,1.0204611E3,3.793986E2,8.468023E1,9.711427E1,8.396338E1,4.1044197E1,1.1294904E3,3.6235388E2,2.5150084E1,2.4525352E2,5.4839197E2,1.27702446E2,8.367761E1,2.7077686E2,1.6389101E1,-1.04655676E-1,8.388045E1,4.0169855E2,7.230588E1,-1.205998E1,3.871422E1,-6.041362E-1,2.399091E2,-6.3230812E1],"split_indices":[0,1,0,0,0,1,0,1,1,1,0,0,0,0,0,0,0,1,1,1,0,0,0,0,0,0,0,1,0,0,0,1,0,0,0,0,0,0,0],"split_type":[0,0,0,0,0,0,0,0,0,0,0,0,0,0,0,0,0,0,0,0,0,0,0,0,0,0,0,0,0,0,0,0,0,0,0,0,0,0,0],"sum_hessian":[4.4E2,2.93E2,1.47E2,4.5E1,2.48E2,6.9E1,7.8E1,7E0,3.8E1,2.21E2,2.7E1,6.1E1,8E0,5E0,2E0,2E0,3.6E1,8E0,2.13E2,1.8E1,9E0,5.9E1,2E0,1E0,4E0,3.4E1,2E0,7E0,1E0,3.9E1,1.74E2,1.1E1,7E0,4E0,3E0,2.8E1,1.1E1,1E1,1E0],"tree_param":{"num_deleted":"0","num_feature":"2","num_nodes":"39","size_leaf_vector":"0"}},{"base_weights":[1.2771934E3,3.8244513E2,3.5873354E3,1.4385669E3,7.976608E1,3.0754065E3,4.2976895E3,2.342284E3,1.2696034E3,1.5832211E1,4.9776254E2,3.2419329E3,2.367966E3,5.9452E2,2.470422E3,5.354234E2,1.4004952E3,8.089369E1,-2.4479459E-1,6.659322E2,1.4797137E2,6.089221E2,3.3250952E3,1.8507697E3,3.3425232E3,6.167184E2,-1.3876312E2,4.8914075E2,1.4463099E3,2.675003E2,7.008162E1,2.4801399E2,7.742602E2,-3.307239E2,2.2155495E2,8.298174E2,8.3565796E1,8.7886475E2,3.3535928E3,2.0527004E3,-3.8716516E2,7.450746E2,6.8862274E1,5.7784973E2,1.11506836E2,2.0447214E3,1.2192771E3,1.0312727E2,-2.1126455E1,7.6720105E2,-9.26362E0,5.2623535E2,9.875088E2,7.1918115E2,9.987421E1,3.3796038E3,9.7450366E2],"categories":[],"categories_nodes":[],"categories_segments":[],"categories_sizes":[],"default_left":[1,1,1,1,1,1,0,1,1,1,1,1,1,0,0,1,1,1,0,1,1,1,1,1,0,1,0,1,1,0,1,1,1,0,1,0,0,0,1,0,0,0,0,0,0,0,0,0,0,0,0,0,0,0,0,0,0],"id":2,"left_children":[1,3,5,7,9,11,-1,13,15,17,19,21,23,-1,-1,25,27,29,-1,31,33,35,37,39,-1,41,-1,43,45,-1,47,49,51,-1,53,-1,-1,-1,55,-1,-1,-1,-1,-1,-1,-1,-1,-1,-1,-1,-1,-1,-1,-1,-1,-1,-1],"loss_changes":[9.101731E8,1.0185867E8,3.1511808E7,7.8676E6,6.646428E6,1.15872E6,0E0,7.70836E5,5.208232E6,2.2700047E5,1.8426605E6,1.0675456E7,2.88644E6,0E0,0E0,6.884655E5,1.463728E6,6.8010125E4,0E0,8.03963E5,4.9596284E5,2.7880188E5,9.56544E5,7.121444E6,0E0,6.5190025E5,0E0,6.956394E4,4.164008E6,0E0,1.28768E5,8.085584E5,3.79484E5,0E0,5.9423906E5,0E0,0E0,0E0,1.1008E5,0E0,0E0,0E0,0E0,0E0,0E0,0E0,0E0,0E0,0E0,0E0,0E0,0E0,0E0,0E0,0E0,0E0,0E0],"parents":[2147483647,0,0,1,1,2,2,3,3,4,4,5,5,7,7,8,8,9,9,10,10,11,11,12,12,15,15,16,16,17,17,19,19,20,20,21,21,22,22,23,23,25,25,27,27,28,28,30,30,31,31,32,32,34,34,38,38],"right_children":[2,4,6,8,10,12,-1,14,16,18,20,22,24,-1,-1,26,28,30,-1,32,34,36,38,40,-1,42,-1,44,46,-1,48,50,52,-1,54,-1,-1,-1,56,-1,-1,-1,-1,-1,-1,-1,-1,-1,-1,-1,-1,-1,-1,-1,-1,-1,-1],"split_conditions":[4.759139E2,7.335416E1,8.3040063E2,4.7100204E1,4.9282898E1,5.02901E1,1.2893069E3,1.852945E2,1.738887E2,9.711427E1,8.33846E1,5.4441095E2,6.026043E1,1.7835602E2,7.4112665E2,1.6401291E2,4.8776386E1,8.256482E1,-7.343838E-2,5.8895E1,9.03049E1,5.2170886E2,2.4971012E1,5.9828094E1,1.002757E3,7.21261E1,-4.1628937E1,4.1172055E2,6.0425957E1,8.025009E1,1.057755E1,5.0748848E1,8.396338E1,-9.921718E1,1.397049E2,2.4894522E2,2.506974E1,2.6365942E2,8.286343E2,6.158102E2,-1.1614955E2,2.2352238E2,2.0658684E1,1.7335492E2,3.3452053E1,6.1341644E2,3.6578314E2,3.0938183E1,-6.337937E0,2.3016032E2,-2.779086E0,1.578706E2,2.9625266E2,2.1575435E2,2.9962263E1,1.01388116E3,2.923511E2],"split_indices":[0,1,0,1,0,1,0,0,0,1,0,0,1,0,0,0,1,1,0,0,0,0,1,1,0,1,0,0,1,0,0,0,1,0,0,0,0,0,0,0,0,0,0,0,0,0,0,0,0,0,0,0,0,0,0,0,0],"split_type":[0,0,0,0,0,0,0,0,0,0,0,0,0,0,0,0,0,0,0,0,0,0,0,0,0,0,0,0,0,0,0,0,0,0,0,0,0,0,0,0,0,0,0,0,0,0,0,0,0,0,0,0,0,0,0,0,0],"sum_hessian":[4.4E2,3.18E2,1.22E2,7E1,2.48E2,7.4E1,4.8E1,9E0,6.1E1,2.16E2,3.2E1,5.7E1,1.7E1,1E0,8E0,1E1,5.1E1,4.2E1,1.74E2,2.1E1,1.1E1,2E0,5.5E1,1.3E1,4E0,9E0,1E0,3E0,4.8E1,1E0,4.1E1,5E0,1.6E1,1E0,1E1,1E0,1E0,1E0,5.4E1,1.2E1,1E0,7E0,2E0,2E0,1E0,1.1E1,3.7E1,3E1,1.1E1,1E0,4E0,9E0,7E0,1E0,9E0,5.3E1,1E0],"tree_param":{"num_deleted":"0","num_feature":"2","num_nodes":"57","size_leaf_vector":"0"}},{"base_weights":[9.1189575E2,2.778709E2,2.5488228E3,1.0395044E3,5.958236E1,2.2474106E3,3.2717134E3,1.731547E3,9.111184E2,1.156539E1,3.735248E2,2.4903005E3,1.9722072E3,5.0534204E2,1.811643E3,5.5216327E2,1.0815061E3,5.906396E1,-1.7177586E-1,4.832182E2,7.290817E1,7.053447E2,2.5154077E3,2.08128E3,1.1803165E3,8.697481E2,-1.0944056E3,8.573171E2,2.2463892E3,1.6347238E2,4.4163803E1,9.1338477E2,4.0259464E2,1.03246666E2,3.5474728E1,5.088501E1,1.3343947E3,2.5177621E2,1.4007452E3,1.0447458E3,-6.842284E1,2.7458566E2,6.704765E1,-3.556646E0,7.102952E1,5.1193158E2,-4.6051636E2,3.8810505E1,9.397919E0],"categories":[],"categories_nodes":[],"categories_segments":[],"categories_sizes":[],"default_left":[1,1,1,1,1,1,0,1,1,1,1,1,1,0,0,1,1,1,0,1,1,0,0,0,1,1,0,1,0,1,1,0,1,0,1,0,0,0,0,0,0,0,0,0,0,0,0,0,0],"id":3,"left_children":[1,3,5,7,9,11,-1,13,15,17,19,21,23,-1,-1,25,27,29,-1,31,33,-1,-1,-1,35,37,-1,39,-1,41,43,-1,45,-1,47,-1,-1,-1,-1,-1,-1,-1,-1,-1,-1,-1,-1,-1,-1],"loss_changes":[4.569847E8,5.297369E7,1.9447296E7,4.7306E6,3.7492468E6,1.104608E6,0E0,6.6644E4,3.194848E6,1.2098732E5,1.0529665E6,1.97632E5,1.603024E6,0E0,0E0,1.2456215E7,8.781444E6,5.967564E4,0E0,4.64633E5,7.6940938E3,0E0,0E0,0E0,1.324265E6,5.882009E6,0E0,6.317856E6,0E0,3.5160016E4,5.0252336E4,0E0,2.3118912E6,0E0,1.5718066E2,0E0,0E0,0E0,0E0,0E0,0E0,0E0,0E0,0E0,0E0,0E0,0E0,0E0,0E0],"parents":[2147483647,0,0,1,1,2,2,3,3,4,4,5,5,7,7,8,8,9,9,10,10,11,11,12,12,15,15,16,16,17,17,19,19,20,20,24,24,25,25,27,27,29,29,30,30,32,32,34,34],"right_children":[2,4,6,8,10,12,-1,14,16,18,20,22,24,-1,-1,26,28,30,-1,32,34,-1,-1,-1,36,38,-1,40,-1,42,44,-1,46,-1,48,-1,-1,-1,-1,-1,-1,-1,-1,-1,-1,-1,-1,-1,-1],"split_conditions":[4.759139E2,7.335416E1,8.9156885E2,4.7100204E1,4.9282898E1,4.0484253E1,9.8151404E2,1.852945E2,2.5413385E2,9.711427E1,1.397049E2,5.353804E2,6.991211E2,1.5160262E2,5.434929E2,2.4303156E2,7.216724E1,8.367761E1,-5.153276E-2,8.296807E1,7.4416855E1,2.1160342E2,7.546223E2,6.2438403E2,7.2072314E2,7.1043274E1,-3.2832172E2,7.108085E1,6.7391675E2,1.057755E1,9.453839E1,2.7401544E2,7.59935E1,3.0974E1,7.55334E1,1.5265504E1,4.0031842E2,7.553287E1,4.202236E2,3.1342377E2,-2.0526852E1,8.23757E1,2.0114296E1,-1.0669938E0,2.1308857E1,1.5357948E2,-1.381549E2,1.1643152E1,2.8193758E0],"split_indices":[0,1,0,1,0,1,0,0,0,1,0,0,0,0,0,0,1,1,0,1,1,0,0,0,0,1,0,1,0,0,1,0,0,0,1,0,0,0,0,0,0,0,0,0,0,0,0,0,0],"split_type":[0,0,0,0,0,0,0,0,0,0,0,0,0,0,0,0,0,0,0,0,0,0,0,0,0,0,0,0,0,0,0,0,0,0,0,0,0,0,0,0,0,0,0,0,0,0,0,0,0],"sum_hessian":[4.4E2,3.18E2,1.22E2,7E1,2.48E2,8.9E1,3.3E1,9E0,6.1E1,2.16E2,3.2E1,4.3E1,4.6E1,1E0,8E0,2.1E1,4E1,4.2E1,1.74E2,2.3E1,9E0,1E0,4.2E1,3.9E1,7E0,1.8E1,3E0,3.5E1,5E0,4E0,3.8E1,2E0,2.1E1,4E0,5E0,1E0,6E0,9E0,9E0,2.9E1,6E0,1E0,3E0,1.4E1,2.4E1,1.9E1,2E0,4E0,1E0],"tree_param":{"num_deleted":"0","num_feature":"2","num_nodes":"49","size_leaf_vector":"0"}},{"base_weights":[6.5028754E2,1.635861E3,1.2102162E2,1.2011093E3,2.033396E3,9.973397E0,4.9439636E2,6.356037E2,1.3784602E3,2.1158618E3,1.252796E3,1.3708812E2,3.986853E0,-6.394124E2,5.216767E2,1.8648164E3,3.9542358E2,1.4378212E3,-1.6931267E2,3.6972412E2,2.1358098E3,1.8342012E3,8.7816956E2,2.4468756E1,5.753312E2,6.2102647E0,-1.1429483E2,3.4622375E2,8.069828E2,4.784373E2,-5.079048E2,1.9851726E3,1.2875748E3,-3.000681E2,4.609912E1,4.3252197E1,9.912646E2,8.6350876E1,-7.447162E1,2.2962193E0,6.564755E1,4.8086023E2,-5.4173846E2,1.7626523E3,4.6271964E2,3.2470795E2,1.4690535E3,1.1292267E3,2.3675986E3,-7.837642E2,1.3995394E3,2.3339783E2,1.026192E1,-3.518204E1,-9.6170166E1,-1.12194695E2,5.8253393E0,5.5245957E0,1.9954306E2,3.4996066E2,1.0988478E3,-8.481643E2,4.7408825E1,-9.357924E2,6.822971E2],"categories":[],"categories_nodes":[],"categories_segments":[],"categories_sizes":[],"default_left":[1,1,1,1,1,1,1,1,1,1,1,1,1,0,1,0,1,1,1,0,0,0,1,1,0,1,0,1,1,1,0,1,1,0,0,0,0,1,1,1,1,1,1,0,1,0,0,0,0,0,0,0,0,0,0,0,0,0,0,0,0,0,0,0,0],"id":4,"left_children":[1,3,5,7,9,11,13,15,17,19,21,23,25,-1,27,-1,29,31,33,-1,-1,-1,35,37,-1,39,-1,41,43,45,-1,47,49,-1,-1,-1,-1,51,53,55,57,59,61,-1,63,-1,-1,-1,-1,-1,-1,-1,-1,-1,-1,-1,-1,-1,-1,-1,-1,-1,-1,-1,-1],"loss_changes":[2.2984102E8,2.4173376E7,1.1936299E7,6.746104E6,2.43472E6,1.6915153E5,2.374992E6,5.167257E6,5.480456E6,1.648544E6,5.67358E5,4.7946894E5,5.698943E4,0E0,2.97436E6,0E0,1.592796E6,1.967E6,9.8331664E4,0E0,0E0,0E0,7.12526E5,6.153445E4,0E0,4.893635E4,0E0,5.281689E6,7.080429E6,2.111862E6,0E0,5.99804E5,1.1765072E7,0E0,0E0,0E0,0E0,6.473678E4,2.6644531E1,8.105995E4,1.0355015E5,2.608535E6,1.1233902E6,0E0,6.47304E6,0E0,0E0,0E0,0E0,0E0,0E0,0E0,0E0,0E0,0E0,0E0,0E0,0E0,0E0,0E0,0E0,0E0,0E0,0E0,0E0],"parents":[2147483647,0,0,1,1,2,2,3,3,4,4,5,5,6,6,7,7,8,8,9,9,10,10,11,11,12,12,14,14,16,16,17,17,18,18,22,22,23,23,25,25,27,27,28,28,29,29,31,31,32,32,37,37,38,38,39,39,40,40,41,41,42,42,44,44],"right_children":[2,4,6,8,10,12,14,16,18,20,22,24,26,-1,28,-1,30,32,34,-1,-1,-1,36,38,-1,40,-1,42,44,46,-1,48,50,-1,-1,-1,-1,52,54,56,58,60,62,-1,64,-1,-1,-1,-1,-1,-1,-1,-1,-1,-1,-1,-1,-1,-1,-1,-1,-1,-1,-1,-1],"split_conditions":[6.126691E1,6.8978735E2,5.8895E1,4.0265802E2,4.0484253E1,8.4810745E1,6.135858E1,2.7568882E1,6.841593E2,2.4971012E1,6.991211E2,8.468023E1,4.930085E1,-1.9182373E2,2.5413385E2,5.5944495E2,3.923572E2,4.6340173E2,6.866949E2,1.10917244E2,6.40743E2,5.502604E2,7.2072314E2,8.367761E1,1.7259937E2,2.2375E-1,-3.4288452E1,2.4303156E2,2.7146228E2,3.893887E2,-1.5237144E2,5.4058388E1,4.665031E2,-9.002044E1,1.3829737E1,1.2975659E1,2.973794E2,1.057755E1,4.0708702E1,9.505615E1,9.4111984E1,2.2427385E2,7.360846E1,5.287957E2,2.766129E2,9.741239E1,4.4071606E2,3.38768E2,7.102796E2,-2.3512927E2,4.1986185E2,7.001935E1,3.078576E0,-1.0554613E1,-2.8851051E1,-3.365841E1,1.7476019E0,1.6573788E0,5.986292E1,1.04988205E2,3.2965436E2,-2.544493E2,1.4222648E1,-2.8073773E2,2.0468915E2],"split_indices":[1,0,0,0,1,1,1,1,0,1,0,1,0,0,0,0,0,0,0,0,0,0,0,1,0,0,0,0,0,0,0,1,0,0,0,0,0,0,0,1,1,0,1,0,0,0,0,0,0,0,0,0,0,0,0,0,0,0,0,0,0,0,0,0,0],"split_type":[0,0,0,0,0,0,0,0,0,0,0,0,0,0,0,0,0,0,0,0,0,0,0,0,0,0,0,0,0,0,0,0,0,0,0,0,0,0,0,0,0,0,0,0,0,0,0,0,0,0,0,0,0,0,0,0,0,0,0,0,0,0,0,0,0],"sum_hessian":[4.4E2,1.53E2,2.87E2,7.5E1,7.8E1,2.22E2,6.5E1,1.9E1,5.6E1,6.9E1,9E0,9E0,2.13E2,1E0,6.4E1,2E0,1.7E1,5.4E1,2E0,1E0,6.8E1,2E0,7E0,8E0,1E0,2.1E2,3E0,4.1E1,2.3E1,1.6E1,1E0,9E0,4.5E1,1E0,1E0,1E0,6E0,5E0,3E0,1.98E2,1.2E1,3.6E1,5E0,5E0,1.8E1,1.5E1,1E0,4E0,5E0,2E0,4.3E1,1E0,4E0,2E0,1E0,5E0,1.93E2,9E0,3E0,3.1E1,5E0,3E0,2E0,2E0,1.6E1],"tree_param":{"num_deleted":"0","num_feature":"2","num_nodes":"65","size_leaf_vector":"0"}},{"base_weights":[4.6511514E2,1.1692263E3,8.6996216E1,8.1701855E2,1.4240979E3,7.8854704E0,3.5297653E2,9.02278E2,-2.0016585E2,1.2674865E3,1.8363195E3,1.16590836E2,2.7689326E0,-5.4350055E2,3.7513004E2,7.47427E2,1.5522758E3,-7.2369165E2,5.645905E2,3.1426538E2,1.2771676E3,2.087171E1,4.890315E2,4.4875145E0,-8.857849E1,2.4698558E2,5.837524E2,8.316861E2,-3.7173786E1,2.1100725E3,4.6090536E2,1.7567916E3,1.2090542E3,7.262859E1,-6.198155E1,3.561511E1,-1.693013E0,3.4834924E2,-4.192547E2,3.1037222E2,1.3521642E3,4.5609448E2,1.0293182E3,-3.1267957E2,8.046328E1,8.598417E2,-5.674199E2,1.9490616E2,1.2768031E3,8.4279174E-1,2.1577881E2,-2.8145634E1,-8.1744644E1,7.3576195E1,1.2610359E1,-7.423037E1,-8.591054E-1,2.4825336E2,8.241358E2,-6.5732733E2,3.7927063E1,1.3532509E3,1.0807765E2,4.0145837E2,1.4620137E3],"categories":[],"categories_nodes":[],"categories_segments":[],"categories_sizes":[],"default_left":[1,1,1,1,1,1,1,1,1,1,0,1,1,0,1,1,1,0,0,0,1,1,0,1,0,1,1,1,1,0,1,0,1,1,1,1,1,1,1,1,1,0,0,0,0,0,0,0,0,0,0,0,0,0,0,0,0,0,0,0,0,0,0,0,0],"id":5,"left_children":[1,3,5,7,9,11,13,15,17,19,-1,21,23,-1,25,27,29,-1,-1,-1,31,33,-1,35,-1,37,39,41,43,-1,45,-1,47,49,51,53,55,57,59,61,63,-1,-1,-1,-1,-1,-1,-1,-1,-1,-1,-1,-1,-1,-1,-1,-1,-1,-1,-1,-1,-1,-1,-1,-1],"loss_changes":[1.1730916E8,1.2660704E7,6.057284E6,5.991152E6,3.353664E6,1.2370869E5,1.514651E6,5.080264E6,2.8108072E6,2.1692E5,0E0,3.4629E5,3.3992938E4,0E0,1.593518E6,3.468624E6,5.723846E6,0E0,0E0,0E0,3.2088E4,4.309567E4,0E0,4.065352E4,0E0,2.9824148E6,4.6219715E6,3.019296E6,2.1961738E5,0E0,2.5390728E6,0E0,3.942296E6,6.147507E4,3.7405566E2,2.963716E4,1.0642861E4,1.557504E6,6.7798525E5,3.862149E6,3.967E4,0E0,0E0,0E0,0E0,0E0,0E0,0E0,0E0,0E0,0E0,0E0,0E0,0E0,0E0,0E0,0E0,0E0,0E0,0E0,0E0,0E0,0E0,0E0,0E0],"parents":[2147483647,0,0,1,1,2,2,3,3,4,4,5,5,6,6,7,7,8,8,9,9,11,11,12,12,14,14,15,15,16,16,20,20,21,21,23,23,25,25,26,26,27,27,28,28,30,30,32,32,33,33,34,34,35,35,36,36,37,37,38,38,39,39,40,40],"right_children":[2,4,6,8,10,12,14,16,18,20,-1,22,24,-1,26,28,30,-1,-1,-1,32,34,-1,36,-1,38,40,42,44,-1,46,-1,48,50,52,54,56,58,60,62,64,-1,-1,-1,-1,-1,-1,-1,-1,-1,-1,-1,-1,-1,-1,-1,-1,-1,-1,-1,-1,-1,-1,-1,-1],"split_conditions":[6.126691E1,6.702092E2,5.8895E1,6.608008E2,9.13151E2,8.4810745E1,6.135858E1,6.48933E2,5.004178E1,2.4971012E1,5.508959E2,8.468023E1,4.930085E1,-1.6305017E2,2.5413385E2,6.113932E2,4.968563E1,-2.171075E2,1.6937717E2,9.427962E1,2.8175007E1,8.367761E1,1.4670946E2,9.688519E1,-2.657355E1,2.4303156E2,7.216724E1,3.893887E2,4.785364E1,6.330218E2,6.578523E2,5.2703754E2,2.9130356E1,3.92659E1,4.0708702E1,9.85E-3,9.697536E1,2.2427385E2,7.360846E1,2.6826074E2,2.6219714E2,1.3682835E2,3.0879547E2,-9.380387E1,2.4138985E1,2.579525E2,-1.7022598E2,5.847185E1,3.8304095E2,2.5283754E-1,6.473364E1,-8.44369E0,-2.4523394E1,2.2072859E1,3.783108E0,-2.2269112E1,-2.5773165E-1,7.447601E1,2.4724075E2,-1.9719821E2,1.1378119E1,4.0597528E2,3.2423298E1,1.20437515E2,4.3860413E2],"split_indices":[1,0,0,0,0,1,1,0,1,1,0,1,0,0,0,0,1,0,0,0,1,1,0,1,0,0,1,0,1,0,0,0,1,0,0,0,1,0,1,0,0,0,0,0,0,0,0,0,0,0,0,0,0,0,0,0,0,0,0,0,0,0,0,0,0],"split_type":[0,0,0,0,0,0,0,0,0,0,0,0,0,0,0,0,0,0,0,0,0,0,0,0,0,0,0,0,0,0,0,0,0,0,0,0,0,0,0,0,0,0,0,0,0,0,0,0,0,0,0,0,0,0,0,0,0,0,0,0,0,0,0,0,0],"sum_hessian":[4.4E2,1.53E2,2.87E2,6.6E1,8.7E1,2.22E2,6.5E1,6.1E1,5E0,6.6E1,2.1E1,9E0,2.13E2,1E0,6.4E1,5.1E1,1E1,3E0,2E0,1E0,6.5E1,8E0,1E0,2.1E2,3E0,4.1E1,2.3E1,4.6E1,5E0,6E0,4E0,5E0,6E1,5E0,3E0,3.4E1,1.76E2,3.6E1,5E0,1.8E1,5E0,1.7E1,2.9E1,1E0,4E0,3E0,1E0,4E0,5.6E1,4E0,1E0,2E0,1E0,1.2E1,2.2E1,1E0,1.75E2,3.1E1,5E0,3E0,2E0,2E0,1.6E1,1E0,4E0],"tree_param":{"num_deleted":"0","num_feature":"2","num_nodes":"65","size_leaf_vector":"0"}},{"base_weights":[3.341712E2,8.33589E2,6.059307E1,1.1509022E3,6.6850446E2,3.3299615E2,1.8778168E1,2.671255E2,1.1629934E3,1.1344149E2,7.389057E2,1.5782329E2,5.401025E2,1.0792526E2,2.7103953E0,1.5896569E3,1.0820592E3,2.173265E2,-5.6658936E2,4.2375162E2,7.8939185E2,3.4845792E2,-1.5625542E2,-3.4470203E2,6.810565E2,1.9474756E2,-1.5465192E2,2.2498299E1,-1.6018943E0,1.715982E3,4.7901562E2,-8.190096E1,1.1368279E3,3.310837E2,-2.3430638E2,5.178165E2,-4.4657837E2,6.972161E2,1.6378824E3,7.9077673E2,9.245272E1,4.7334604E2,-1.0615938E3,9.720199E2,3.0496106E2,4.2191626E2,1.4152393E2,-3.5585265E0,-2.5478775E2,4.931044E1,4.80328E0,5.685327E1,-1.7970471E2,7.6168665E2,1.2695746E3,4.080541E1,6.132009E2,8.421804E2,7.314111E1,1.261779E3,6.4620123E2,1.8223003E3,2.6568774E2,1.2255541E2,1.1954059E3,-1.16310875E2,1.5918248E2,-8.2000287E2,8.9601636E2,3.738595E2,1.2561443E3,-8.696987E1,7.1863446E2,-4.5218872E1,5.5000476E2,2.174898E2,-4.880559E2,-3.6272533E1,3.0341654E1,-1.1465631E2,-3.567004E2,1.5335E2,2.15082E1,-3.6973267E1,3.728462E1],"categories":[],"categories_nodes":[],"categories_segments":[],"categories_sizes":[],"default_left":[1,1,1,1,1,1,1,0,1,1,1,1,1,1,1,1,1,1,0,1,1,1,1,0,1,1,1,1,0,0,0,1,1,1,0,1,0,1,1,1,1,1,0,1,1,1,1,1,1,1,1,0,0,0,0,0,0,0,0,0,0,0,0,0,0,0,0,0,0,0,0,0,0,0,0,0,0,0,0,0,0,0,0,0,0],"id":6,"left_children":[1,3,5,7,9,11,13,-1,15,17,19,21,23,25,27,29,31,33,-1,35,37,39,41,-1,43,45,47,49,-1,-1,-1,51,53,55,-1,57,-1,59,61,63,65,67,-1,69,71,73,75,77,79,81,83,-1,-1,-1,-1,-1,-1,-1,-1,-1,-1,-1,-1,-1,-1,-1,-1,-1,-1,-1,-1,-1,-1,-1,-1,-1,-1,-1,-1,-1,-1,-1,-1,-1,-1],"loss_changes":[6.0203228E7,7.40244E6,3.2514322E6,2.45008E5,4.019276E6,1.293377E6,3.563739E5,0E0,4.1008E4,1.0415201E6,1.145204E6,1.3716825E6,2.354947E6,8.964251E5,1.8126246E4,1.9828E4,3.02554E6,6.94093E5,0E0,1.4592582E6,5.036648E6,1.5121935E6,5.632522E6,0E0,1.345022E6,2.9092038E5,1.5039194E5,1.7791918E4,0E0,0E0,0E0,5.092885E4,1.224132E6,7.9390325E5,0E0,1.9577152E6,0E0,1.28712E6,1.287238E6,1.2054055E6,1.578221E5,4.0146972E6,0E0,8.89994E5,1.3595508E6,3.240438E5,1.3018121E6,6.645622E3,4.4789094E4,4.0089715E4,3.3945527E4,0E0,0E0,0E0,0E0,0E0,0E0,0E0,0E0,0E0,0E0,0E0,0E0,0E0,0E0,0E0,0E0,0E0,0E0,0E0,0E0,0E0,0E0,0E0,0E0,0E0,0E0,0E0,0E0,0E0,0E0,0E0,0E0,0E0,0E0],"parents":[2147483647,0,0,1,1,2,2,3,3,4,4,5,5,6,6,8,8,9,9,10,10,11,11,12,12,13,13,14,14,15,15,16,16,17,17,19,19,20,20,21,21,22,22,24,24,25,25,26,26,27,27,31,31,32,32,33,33,35,35,37,37,38,38,39,39,40,40,41,41,43,43,44,44,45,45,46,46,47,47,48,48,49,49,50,50],"right_children":[2,4,6,8,10,12,14,-1,16,18,20,22,24,26,28,30,32,34,-1,36,38,40,42,-1,44,46,48,50,-1,-1,-1,52,54,56,-1,58,-1,60,62,64,66,68,-1,70,72,74,76,78,80,82,84,-1,-1,-1,-1,-1,-1,-1,-1,-1,-1,-1,-1,-1,-1,-1,-1,-1,-1,-1,-1,-1,-1,-1,-1,-1,-1,-1,-1,-1,-1,-1,-1,-1,-1],"split_conditions":[6.1493164E1,3.3485023E1,7.335416E1,2.4971012E1,3.8748993E2,7.171769E1,8.532955E1,8.013765E1,2.6709007E1,6.0359566E1,3.808516E1,7.096454E1,1.4046811E2,1.397049E2,9.711427E1,8.2543256E2,3.8918124E2,3.6003415E2,-1.699768E2,3.7965183E1,8.254713E2,3.4775226E2,2.6826074E2,-1.03410614E2,7.262642E1,8.290273E1,7.4416855E1,9.85E-3,-4.805683E-1,5.147946E2,1.437047E2,2.9492267E2,8.9156885E2,1.7805121E2,-7.0291916E1,8.318718E2,-1.3397351E2,3.8632683E1,4.0484253E1,1.9468889E2,6.195382E1,7.1043274E1,-3.1847815E2,7.200244E1,2.5585681E2,2.6697449E1,7.59935E1,2.333309E2,2.261477E2,9.580377E1,2.2375E-1,1.7055983E1,-5.3911415E1,2.28506E2,3.8087238E2,1.2241623E1,1.8396028E2,2.5265413E2,2.1942335E1,3.7853372E2,1.9386038E2,5.466901E2,7.970633E1,3.6766624E1,3.5862177E2,-3.4893265E1,4.7754745E1,-2.4600087E2,2.6880493E2,1.1215785E2,3.768433E2,-2.6090963E1,2.1559035E2,-1.3565662E1,1.6500143E2,6.524695E1,-1.4641678E2,-1.0881761E1,9.102496E0,-3.4396896E1,-1.07010124E2,4.6005005E1,6.4524603E0,-1.109198E1,1.1185386E1],"split_indices":[1,1,1,1,0,1,1,0,1,1,1,1,0,0,1,0,0,0,0,1,0,0,0,0,1,1,1,0,0,0,0,0,0,0,0,0,0,1,1,0,1,1,0,1,0,0,0,0,0,1,0,0,0,0,0,0,0,0,0,0,0,0,0,0,0,0,0,0,0,0,0,0,0,0,0,0,0,0,0,0,0,0,0,0,0],"split_type":[0,0,0,0,0,0,0,0,0,0,0,0,0,0,0,0,0,0,0,0,0,0,0,0,0,0,0,0,0,0,0,0,0,0,0,0,0,0,0,0,0,0,0,0,0,0,0,0,0,0,0,0,0,0,0,0,0,0,0,0,0,0,0,0,0,0,0,0,0,0,0,0,0,0,0,0,0,0,0,0,0,0,0,0,0],"sum_hessian":[4.4E2,1.55E2,2.85E2,5.1E1,1.04E2,3.7E1,2.48E2,1E0,5E1,1.2E1,9.2E1,2.1E1,1.6E1,3.7E1,2.11E2,5E0,4.5E1,1.1E1,1E0,1.4E1,7.8E1,1.3E1,8E0,2E0,1.4E1,2.8E1,9E0,3.7E1,1.74E2,4E0,1E0,2E0,4.3E1,9E0,2E0,1.3E1,1E0,7.2E1,6E0,4E0,9E0,5E0,3E0,7E0,7E0,4E0,2.4E1,4E0,5E0,1.4E1,2.3E1,1E0,1E0,1.3E1,3E1,5E0,4E0,7E0,6E0,4E0,6.8E1,5E0,1E0,2E0,2E0,2E0,7E0,1E0,4E0,3E0,4E0,4E0,3E0,1E0,3E0,2.2E1,2E0,2E0,2E0,3E0,2E0,2E0,1.2E1,1E1,1.3E1],"tree_param":{"num_deleted":"0","num_feature":"2","num_nodes":"85","size_leaf_vector":"0"}},{"base_weights":[2.4134235E2,6.8075E2,7.683841E1,2.5837042E2,7.432472E2,3.0111194E2,1.4482734E1,6.041622E2,-3.2192664E2,7.040868E2,1.546235E3,3.6160602E2,-5.6229492E1,7.5826845E0,5.869593E2,1.0574376E3,3.859412E2,2.3327942E1,-7.9004205E2,7.227124E2,-5.7923706E2,2.7140723E2,9.1397217E2,-1.1310078E3,1.6434912E2,1.6471207E1,-3.0459885E2,7.103408E1,6.2366003E2,-2.7895624E2,1.6863805E2,1.1136488E3,6.567478E2,3.568241E2,-3.408786E2,7.6562805E1,1.4011052E3,6.1941196E1,3.024757E2,3.3898814E0,1.3678717E2,-3.622618E2,2.0689438E1,2.3641658E2,-1.1802645E2,7.566013E2,4.594751E1,3.2969934E2,5.051168E0,4.9305637E2,1.4398871E3,-7.2095483E2,7.1385443E2,-4.8305183E1,4.4116614E2,-9.621152E2,1.0003906E2,8.3711115E2,-1.1025411E3,3.060703E2,-2.9758707E1,6.2983446E0,-1.2409709E2,3.4082867E2,-8.359647E0],"categories":[],"categories_nodes":[],"categories_segments":[],"categories_sizes":[],"default_left":[1,1,1,1,1,1,1,1,1,1,0,1,1,1,0,0,1,1,0,1,0,1,1,0,1,1,1,1,1,0,1,1,1,1,1,1,0,1,0,1,1,0,0,0,0,0,0,0,0,0,0,0,0,0,0,0,0,0,0,0,0,0,0,0,0],"id":7,"left_children":[1,3,5,7,9,11,13,15,17,19,-1,21,23,25,-1,-1,27,29,-1,31,-1,33,35,-1,37,39,41,43,45,-1,47,49,51,53,55,57,-1,59,-1,61,63,-1,-1,-1,-1,-1,-1,-1,-1,-1,-1,-1,-1,-1,-1,-1,-1,-1,-1,-1,-1,-1,-1,-1,-1],"loss_changes":[3.1825064E7,2.975672E6,4.498721E6,3.605749E6,2.181628E6,1.533526E6,9.949288E5,6.79948E5,1.1497631E6,2.832792E6,0E0,2.7413065E6,2.7936842E6,7.015001E5,0E0,0E0,6.294331E5,2.6666738E5,0E0,1.847408E6,0E0,2.8935098E6,3.1561655E6,0E0,1.22716875E5,3.851399E5,1.3879462E5,1.8423992E5,3.4924512E5,0E0,1.03724695E5,1.922048E6,7.43814E6,1.627274E6,2.0136482E6,4.5100115E6,0E0,1.6581458E5,0E0,8.309725E4,7.136326E5,0E0,0E0,0E0,0E0,0E0,0E0,0E0,0E0,0E0,0E0,0E0,0E0,0E0,0E0,0E0,0E0,0E0,0E0,0E0,0E0,0E0,0E0,0E0,0E0],"parents":[2147483647,0,0,1,1,2,2,3,3,4,4,5,5,6,6,7,7,8,8,9,9,11,11,12,12,13,13,16,16,17,17,19,19,21,21,22,22,24,24,25,25,26,26,27,27,28,28,30,30,31,31,32,32,33,33,34,34,35,35,37,37,39,39,40,40],"right_children":[2,4,6,8,10,12,14,16,18,20,-1,22,24,26,-1,-1,28,30,-1,32,-1,34,36,-1,38,40,42,44,46,-1,48,50,52,54,56,58,-1,60,-1,62,64,-1,-1,-1,-1,-1,-1,-1,-1,-1,-1,-1,-1,-1,-1,-1,-1,-1,-1,-1,-1,-1,-1,-1,-1],"split_conditions":[5.02901E1,5.4441095E2,7.292273E1,4.7100204E1,4.9790123E1,5.092566E2,2.5842874E2,2.7568882E1,4.1173608E2,4.968563E1,4.638705E2,4.759139E2,5.187968E2,2.261477E2,1.760878E2,3.172313E2,3.8374017E2,2.006018E2,-2.3701262E2,6.608008E2,-1.7377112E2,4.63464E2,6.026043E1,-3.3930237E2,6.602306E2,5.8895E1,2.498534E2,2.7634875E2,4.8329712E2,-8.3686874E1,3.1171085E2,4.7623203E1,6.694027E2,1.549697E2,4.665031E2,5.9828094E1,4.2033157E2,5.730082E2,9.0742714E1,5.0748848E1,6.676255E1,-1.0867855E2,6.2068315E0,7.092498E1,-3.5407936E1,2.2698041E2,1.3784253E1,9.8909805E1,1.5153505E0,1.4791692E2,4.3196616E2,-2.1628645E2,2.1415634E2,-1.4491555E1,1.3234985E2,-2.8863455E2,3.001172E1,2.5113335E2,-3.3076236E2,9.18211E1,-8.927612E0,1.8895035E0,-3.722913E1,1.02248604E2,-2.507894E0],"split_indices":[1,0,1,1,1,0,0,1,0,1,0,0,0,0,0,0,0,0,0,0,0,0,1,0,0,0,0,0,0,0,0,1,0,0,0,1,0,0,0,0,0,0,0,0,0,0,0,0,0,0,0,0,0,0,0,0,0,0,0,0,0,0,0,0,0],"split_type":[0,0,0,0,0,0,0,0,0,0,0,0,0,0,0,0,0,0,0,0,0,0,0,0,0,0,0,0,0,0,0,0,0,0,0,0,0,0,0,0,0,0,0,0,0,0,0,0,0,0,0,0,0,0,0,0,0,0,0,0,0,0,0,0,0],"sum_hessian":[4.4E2,1.19E2,3.21E2,1.6E1,1.03E2,6.9E1,2.52E2,1E1,6E0,1E2,3E0,5.9E1,1E1,2.5E2,2E0,2E0,8E0,4E0,2E0,9.9E1,1E0,5.2E1,7E0,1E0,9E0,2.44E2,6E0,4E0,4E0,1E0,3E0,1.2E1,8.7E1,4.6E1,6E0,3E0,4E0,6E0,3E0,2.21E2,2.3E1,5E0,1E0,2E0,2E0,3E0,1E0,1E0,2E0,5E0,7E0,3E0,8.4E1,8E0,3.8E1,2E0,4E0,2E0,1E0,1E0,5E0,2.17E2,4E0,9E0,1.4E1],"tree_param":{"num_deleted":"0","num_feature":"2","num_nodes":"65","size_leaf_vector":"0"}},{"base_weights":[1.7214459E2,4.6504507E2,4.415495E1,6.254248E2,3.5896326E2,-8.064148E2,5.516519E1,8.8274036E2,5.510392E2,4.2509182E1,3.9215158E2,9.774902E1,-1.1403857E3,2.0266087E1,3.4220428E2,4.9441882E2,1.1721781E3,1.323805E2,6.908162E2,1.5411188E2,-2.3206683E2,1.3923389E2,4.4791574E2,3.3323414E1,-8.6616986E2,6.9125E2,1.6039093E2,8.4595E2,1.0716571E2,-3.8294643E1,3.0943808E2,5.6989764E2,8.448558E2,-7.8682404E0,2.7756403E2,2.784718E2,-3.1328833E2,3.628323E2,1.0524406E3,1.7554495E1,7.2423004E2,2.6737076E2,9.999209E2,-1.0183533E3,2.60259E2,-8.1454834E1,3.3651367E2,2.5398064E2,-2.0600089E2,6.0296124E2,-4.56875E1,2.708371E2,-1.9104906E2,3.7447647E2,-6.58667E0,5.4473224E2,7.725006E1,1.0117041E2,-7.783323E2,1.6014044E2,4.7408078E2,1.1882618E3,1.1875635E2,2.2384894E2,5.156203E0,6.9570886E2,-9.371599E2,1.5347455E2,8.8540234E2],"categories":[],"categories_nodes":[],"categories_segments":[],"categories_sizes":[],"default_left":[1,1,1,1,1,1,1,1,1,1,1,0,0,1,1,1,0,1,1,1,0,1,1,1,0,1,1,0,1,1,0,1,0,1,1,1,1,1,1,1,0,1,0,0,1,0,0,0,0,0,0,0,0,0,0,0,0,0,0,0,0,0,0,0,0,0,0,0,0],"id":8,"left_children":[1,3,5,7,9,11,13,15,17,19,21,-1,-1,23,25,27,-1,29,31,33,-1,35,37,39,-1,41,43,-1,45,47,-1,49,-1,51,53,55,57,59,61,63,-1,65,-1,-1,67,-1,-1,-1,-1,-1,-1,-1,-1,-1,-1,-1,-1,-1,-1,-1,-1,-1,-1,-1,-1,-1,-1,-1,-1],"loss_changes":[1.6511776E7,2.055286E6,2.9288995E6,5.08886E5,8.55044E5,1.3193295E6,3.048374E6,5.444025E5,2.424861E6,3.1155506E5,9.95415E5,0E0,0E0,3.1886975E6,1.983349E6,7.261324E5,0E0,3.7448175E5,1.14558E5,1.4216148E5,0E0,1.0323656E6,2.755679E6,2.928896E6,0E0,1.1718805E6,2.9725705E6,0E0,2.0044962E5,3.9543494E5,0E0,4.549705E5,0E0,2.5595705E5,1.1261753E5,6.008481E5,8.497103E5,1.1642845E6,7.46586E5,6.766359E5,0E0,3.7476688E6,0E0,0E0,1.3327362E6,0E0,0E0,0E0,0E0,0E0,0E0,0E0,0E0,0E0,0E0,0E0,0E0,0E0,0E0,0E0,0E0,0E0,0E0,0E0,0E0,0E0,0E0,0E0,0E0],"parents":[2147483647,0,0,1,1,2,2,3,3,4,4,5,5,6,6,7,7,8,8,9,9,10,10,13,13,14,14,15,15,17,17,18,18,19,19,21,21,22,22,23,23,25,25,26,26,28,28,29,29,31,31,33,33,34,34,35,35,36,36,37,37,38,38,39,39,41,41,44,44],"right_children":[2,4,6,8,10,12,14,16,18,20,22,-1,-1,24,26,28,-1,30,32,34,-1,36,38,40,-1,42,44,-1,46,48,-1,50,-1,52,54,56,58,60,62,64,-1,66,-1,-1,68,-1,-1,-1,-1,-1,-1,-1,-1,-1,-1,-1,-1,-1,-1,-1,-1,-1,-1,-1,-1,-1,-1,-1,-1],"split_conditions":[5.921186E1,3.3485023E1,5.949801E1,7.572085E2,3.8748993E2,2.703062E2,2.78074E2,5.572348E2,8.9156885E2,3.3031488E2,3.808516E1,2.9324709E1,-3.4211572E2,2.7146228E2,6.0732132E1,2.7568882E1,3.5165344E2,2.9130356E1,3.123544E1,1.7805121E2,-6.9620056E1,3.7697994E1,8.254713E2,2.5413385E2,-2.5985098E2,5.9998768E1,6.0821594E1,2.5378502E2,3.8918124E2,2.814381E1,9.283143E1,3.1077175E1,2.5345674E2,4.2007362E1,2.61623E2,8.14729E2,8.326417E2,4.740534E1,4.0484253E1,7.283867E1,2.1726903E2,4.8599585E2,2.999763E2,-3.0550598E2,4.791246E2,-2.4436451E1,1.0095411E2,7.619419E1,-6.1800266E1,1.8088838E2,-1.370625E1,8.125113E1,-5.731472E1,1.1234295E2,-1.976001E0,1.6341968E2,2.3175018E1,3.0351124E1,-2.334997E2,4.8042133E1,1.4222424E2,3.5647858E2,3.5626907E1,6.7154686E1,1.5468609E0,2.0871266E2,-2.8114798E2,4.6042366E1,2.6562073E2],"split_indices":[1,1,1,0,0,0,0,0,0,0,1,0,0,0,1,1,0,1,1,0,0,1,0,0,0,1,1,0,0,1,0,1,0,1,0,0,0,1,1,1,0,0,0,0,0,0,0,0,0,0,0,0,0,0,0,0,0,0,0,0,0,0,0,0,0,0,0,0,0],"split_type":[0,0,0,0,0,0,0,0,0,0,0,0,0,0,0,0,0,0,0,0,0,0,0,0,0,0,0,0,0,0,0,0,0,0,0,0,0,0,0,0,0,0,0,0,0,0,0,0,0,0,0,0,0,0,0,0,0,0,0,0,0,0,0,0,0,0,0,0,0],"sum_hessian":[4.4E2,1.33E2,3.07E2,5.1E1,8.2E1,3E0,3.04E2,9E0,4.2E1,8E0,7.4E1,1E0,2E0,2.72E2,3.2E1,5E0,4E0,1.1E1,3.1E1,6E0,2E0,1.4E1,6E1,2.69E2,3E0,1E1,2.2E1,2E0,3E0,6E0,5E0,2E1,1.1E1,3E0,3E0,1.1E1,3E0,5.4E1,6E0,2.64E2,5E0,5E0,5E0,1E0,2.1E1,2E0,1E0,2E0,4E0,1.9E1,1E0,1E0,2E0,2E0,1E0,4E0,7E0,2E0,1E0,2E1,3.4E1,5E0,1E0,1.4E1,2.5E2,4E0,1E0,1.9E1,2E0],"tree_param":{"num_deleted":"0","num_feature":"2","num_nodes":"69","size_leaf_vector":"0"}},{"base_weights":[1.2455418E2,3.593291E2,3.6673603E1,3.4070374E2,9.721512E2,-5.894796E-1,1.2185238E2,3.5481274E2,-6.5502576E2,1.7578652E0,-8.656055E1,1.5315985E2,-1.3968492E2,4.570076E2,2.567849E2,-1.7166202E0,3.8133508E2,-2.0803436E1,-9.555128E1,1.1382843E2,5.322456E2,-7.902988E2,4.4063478E0,6.6800653E2,3.966164E2,2.1345385E1,3.128635E2,-8.020593E1,-6.2360376E-1,1.6483604E2,-2.2575063E2,1.6239502E1,8.386014E2,-6.670557E1,1.2775061E2,4.1339923E2,8.9085547E2,1.3756638E2,4.8399976E2,1.606279E2,-3.3219727E2,2.0716005E2,7.149613E2,-1.2464966E2,4.3407593E0,9.9193085E1,-1.5449454E0,1.10356384E2,6.4717065E2,3.8395404E2,-5.0238416E2,5.5270996E2,-7.9658594E2,1.890476E2,-1.4083904E2,1.6712093E2,4.819824E0],"categories":[],"categories_nodes":[],"categories_segments":[],"categories_sizes":[],"default_left":[1,1,1,1,0,1,1,1,0,1,1,1,1,1,1,1,0,0,0,1,1,0,1,1,1,1,1,1,1,1,1,1,0,1,1,0,0,0,0,0,0,0,0,0,0,0,0,0,0,0,0,0,0,0,0,0,0],"id":9,"left_children":[1,3,5,7,-1,9,11,13,-1,15,17,19,21,23,25,27,-1,-1,-1,29,31,-1,33,35,37,39,41,43,45,47,49,51,-1,53,55,-1,-1,-1,-1,-1,-1,-1,-1,-1,-1,-1,-1,-1,-1,-1,-1,-1,-1,-1,-1,-1,-1],"loss_changes":[9.085603E6,1.038471E6,1.02210756E6,1.890166E6,0E0,4.5558E4,8.238251E5,1.054746E6,0E0,2.9079844E5,1.5594375E3,1.2514941E6,1.034708E6,4.48636E5,8.119145E5,1.8738016E4,0E0,0E0,0E0,1.4402224E6,1.2510332E6,0E0,9.623415E4,2.558495E5,9.747045E5,6.9351025E5,1.9770455E6,1.1813783E4,2.0109709E4,1.7942782E6,2.0482048E6,2.1845082E6,0E0,1.5934436E5,1.8553805E4,0E0,0E0,0E0,0E0,0E0,0E0,0E0,0E0,0E0,0E0,0E0,0E0,0E0,0E0,0E0,0E0,0E0,0E0,0E0,0E0,0E0,0E0],"parents":[2147483647,0,0,1,1,2,2,3,3,5,5,6,6,7,7,9,9,10,10,11,11,12,12,13,13,14,14,15,15,19,19,20,20,22,22,23,23,24,24,25,25,26,26,27,27,28,28,29,29,30,30,31,31,33,33,34,34],"right_children":[2,4,6,8,-1,10,12,14,-1,16,18,20,22,24,26,28,-1,-1,-1,30,32,-1,34,36,38,40,42,44,46,48,50,52,-1,54,56,-1,-1,-1,-1,-1,-1,-1,-1,-1,-1,-1,-1,-1,-1,-1,-1,-1,-1,-1,-1,-1,-1],"split_conditions":[5.02901E1,5.0038734E1,5.8895E1,4.993321E1,2.9164536E2,5.0748848E1,5.092566E2,3.640121E1,-1.9650774E2,4.9282898E1,7.175244E1,4.759139E2,5.187968E2,7.572085E2,3.808516E1,7.659527E1,1.1440053E2,-6.241031E0,-2.8665384E1,4.5793704E2,6.026043E1,-2.3708966E2,6.602306E2,6.0931805E2,8.9156885E2,8.419706E2,8.17569E2,3.8179302E1,8.256482E1,4.338305E2,6.029604E1,5.9828094E1,2.5158043E2,5.730082E2,6.710277E2,1.24019775E2,2.6725665E2,4.1269913E1,1.4519994E2,4.8188374E1,-9.965919E1,6.2148018E1,2.144884E2,-3.7394897E1,1.3022279E0,2.9757927E1,-4.6348363E-1,3.310692E1,1.941512E2,1.1518622E2,-1.5071526E2,1.6581299E2,-2.3897578E2,5.6714283E1,-4.2251713E1,5.013628E1,1.4459473E0],"split_indices":[1,1,0,1,0,0,0,1,0,0,1,0,0,0,1,1,0,0,0,0,1,0,0,0,0,0,0,0,1,0,1,1,0,0,0,0,0,0,0,0,0,0,0,0,0,0,0,0,0,0,0,0,0,0,0,0,0],"split_type":[0,0,0,0,0,0,0,0,0,0,0,0,0,0,0,0,0,0,0,0,0,0,0,0,0,0,0,0,0,0,0,0,0,0,0,0,0,0,0,0,0,0,0,0,0,0,0,0,0,0,0,0,0,0,0,0,0],"sum_hessian":[4.4E2,1.19E2,3.21E2,1.17E2,2E0,2.24E2,9.7E1,1.16E2,1E0,2.19E2,5E0,8.7E1,1E1,5.5E1,6.1E1,2.18E2,1E0,1E0,4E0,8E1,7E0,1E0,9E0,1E1,4.5E1,1.2E1,4.9E1,2E0,2.16E2,7E1,1E1,3E0,4E0,6E0,3E0,6E0,4E0,1.2E1,3.3E1,9E0,3E0,4E1,9E0,1E0,1E0,1E0,2.15E2,6.4E1,6E0,3E0,7E0,2E0,1E0,1E0,5E0,2E0,1E0],"tree_param":{"num_deleted":"0","num_feature":"2","num_nodes":"57","size_leaf_vector":"0"}},{"base_weights":[8.984063E1,2.4789323E2,2.0785795E1,2.3707248E2,8.4352686E2,-5.999692E2,2.8858694E1,3.03451E2,1.3115302E2,6.65332E1,-8.443144E2,6.6386395E2,2.247627E1,2.721923E2,1.0254463E3,-9.7274376E1,2.1564682E2,-7.157046E2,2.729046E1,3.0788602E2,-8.307544E1,-2.4982356E2,3.8469177E2,-1.0650268E2,3.3040533E2,7.860696E2,2.2158073E1,2.740472E2,7.065166E2,-6.7759375E2,6.808413E2,-1.3386523E2,-5.530768E2,5.171232E2,-6.3012695E0,-3.0749484E2,1.1223994E2,1.5142998E3,1.8662428E2,-6.77098E2,2.674592E1],"categories":[],"categories_nodes":[],"categories_segments":[],"categories_sizes":[],"default_left":[1,1,1,1,0,1,1,1,1,0,0,0,1,1,0,1,1,0,1,1,1,1,1,1,1,0,1,0,0,0,0,0,0,0,0,0,0,0,0,0,0],"id":10,"left_children":[1,3,5,7,-1,9,11,13,15,-1,-1,-1,17,19,-1,21,23,-1,25,27,29,31,33,35,37,-1,39,-1,-1,-1,-1,-1,-1,-1,-1,-1,-1,-1,-1,-1,-1],"loss_changes":[4.808052E6,6.636805E5,1.5607922E6,8.952945E5,0E0,7.076015E5,1.221205E6,1.5489405E6,1.04391375E6,0E0,0E0,0E0,1.0963161E6,1.0273635E6,0E0,1.1989582E6,1.4769959E6,0E0,1.1586755E6,7.77602E5,4.0946338E6,3.47939E5,2.1037762E5,5.1813425E5,4.653822E6,0E0,9.8374175E5,0E0,0E0,0E0,0E0,0E0,0E0,0E0,0E0,0E0,0E0,0E0,0E0,0E0,0E0],"parents":[2147483647,0,0,1,1,2,2,3,3,5,5,6,6,7,7,8,8,12,12,13,13,15,15,16,16,18,18,19,19,20,20,21,21,22,22,23,23,24,24,26,26],"right_children":[2,4,6,8,-1,10,12,14,16,-1,-1,-1,18,20,-1,22,24,-1,26,28,30,32,34,36,38,-1,40,-1,-1,-1,-1,-1,-1,-1,-1,-1,-1,-1,-1,-1,-1],"split_conditions":[5.921186E1,5.9093956E1,5.949801E1,3.9896336E1,2.5305806E2,2.703062E2,5.9704178E1,3.960679E1,4.740534E1,1.995996E1,-2.5329433E2,1.991592E2,5.978914E1,3.8632683E1,3.076339E2,8.254713E2,5.644575E2,-2.1471138E2,5.9913055E1,3.808516E1,8.245016E2,4.7189857E1,8.3184143E2,5.428131E1,6.113932E2,2.3582088E2,5.9998768E1,8.2214165E1,2.1195499E2,-2.0327814E2,2.042524E2,-4.0159573E1,-1.6592303E2,1.5513698E2,-1.890381E0,-9.224846E1,3.367198E1,4.5428995E2,5.5987286E1,-2.0312941E2,8.023776E0],"split_indices":[1,1,1,1,0,0,1,1,1,0,0,0,1,1,0,0,0,0,1,1,0,1,0,1,0,0,1,0,0,0,0,0,0,0,0,0,0,0,0,0,0],"split_type":[0,0,0,0,0,0,0,0,0,0,0,0,0,0,0,0,0,0,0,0,0,0,0,0,0,0,0,0,0,0,0,0,0,0,0,0,0,0,0,0,0],"sum_hessian":[4.4E2,1.33E2,3.07E2,1.32E2,1E0,3E0,3.04E2,8E1,5.2E1,1E0,2E0,2E0,3.02E2,7.8E1,2E0,1.4E1,3.8E1,1E0,3.01E2,7.1E1,7E0,1.1E1,3E0,1E1,2.8E1,1E0,3E2,6.7E1,4E0,4E0,3E0,9E0,2E0,2E0,1E0,5E0,5E0,2E0,2.6E1,1E0,2.99E2],"tree_param":{"num_deleted":"0","num_feature":"2","num_nodes":"41","size_leaf_vector":"0"}},{"base_weights":[6.5261536E1,1.695303E2,4.751526E-1,1.6094843E2,8.0564355E2,1.1335043E1,-9.806933E2,4.811167E2,1.4612048E2,3.349202E0,7.236204E2,6.271341E2,7.7382164E1,1.1644849E2,3.2964914E2,-8.1732007E2,9.4611025E0,2.013916E1,9.593408E1,1.3328961E2,-2.846919E2,3.9238788E2,3.7859764E1,4.4770166E2,-4.007808E0,1.14708115E2,4.5933334E2,-3.4149835E2,-3.2983398E-1,2.3758946E2,7.473459E2,3.3236426E2,-1.1885742E2,6.118785E2,-3.5076804E2,7.081282E-1,-6.150756E2],"categories":[],"categories_nodes":[],"categories_segments":[],"categories_sizes":[],"default_left":[1,1,1,1,0,1,0,1,1,1,0,0,1,1,1,0,1,0,0,1,1,1,1,1,1,0,0,0,0,0,0,0,0,0,0,0,0],"id":11,"left_children":[1,3,5,7,-1,9,-1,11,13,15,-1,-1,17,19,21,-1,23,-1,-1,25,27,29,31,33,35,-1,-1,-1,-1,-1,-1,-1,-1,-1,-1,-1,-1],"loss_changes":[2.978961E6,7.92913E5,2.9200352E6,7.27268E5,0E0,1.539078E6,0E0,3.6413675E5,8.438095E5,1.3569962E6,0E0,0E0,1.2538711E3,9.9049425E5,3.8788725E5,0E0,1.5836972E6,0E0,0E0,7.7125075E5,9.680897E4,8.114835E5,2.7027353E5,1.263349E6,7.525741E5,0E0,0E0,0E0,0E0,0E0,0E0,0E0,0E0,0E0,0E0,0E0,0E0],"parents":[2147483647,0,0,1,1,2,2,3,3,5,5,7,7,8,8,9,9,12,12,13,13,14,14,16,16,19,19,20,20,21,21,22,22,23,23,24,24],"right_children":[2,4,6,8,-1,10,-1,12,14,16,-1,-1,18,20,22,-1,24,-1,-1,26,28,30,32,34,36,-1,-1,-1,-1,-1,-1,-1,-1,-1,-1,-1,-1],"split_conditions":[7.096454E1,7.086458E1,2.8316064E2,2.6709007E1,2.4169307E2,2.766129E2,-2.94208E2,7.8922095E2,9.13151E2,7.1043274E1,2.1708614E2,1.8814023E2,8.634048E2,9.08761E2,3.209288E1,-2.4519603E2,7.192076E1,6.0417485E0,2.8780226E1,8.9156885E2,3.2939083E1,3.0807667E1,9.210315E2,2.6826074E2,2.7155295E2,3.4412437E1,1.378E2,-1.0244951E2,-9.89502E-2,7.127684E1,2.2420378E2,9.970928E1,-3.5657227E1,1.8356355E2,-1.05230415E2,2.1243848E-1,-1.8452269E2],"split_indices":[1,1,0,1,0,0,0,0,0,1,0,0,0,0,1,0,1,0,0,0,1,1,0,0,0,0,0,0,0,0,0,0,0,0,0,0,0],"split_type":[0,0,0,0,0,0,0,0,0,0,0,0,0,0,0,0,0,0,0,0,0,0,0,0,0,0,0,0,0,0,0,0,0,0,0,0,0],"sum_hessian":[4.4E2,1.68E2,2.72E2,1.67E2,1E0,2.7E2,2E0,6E0,1.61E2,2.68E2,2E0,4E0,2E0,1.4E2,2.1E1,1E0,2.67E2,1E0,1E0,1.35E2,5E0,1.7E1,4E0,7E0,2.6E2,1.29E2,6E0,4E0,1E0,1.3E1,4E0,1E0,3E0,6E0,1E0,2.59E2,1E0],"tree_param":{"num_deleted":"0","num_feature":"2","num_nodes":"37","size_leaf_vector":"0"}},{"base_weights":[4.673875E1,1.1877894E1,1.6102118E2,2.04635E1,-5.657333E2,4.7494482E2,1.2215902E2,1.4891617E1,6.321213E2,-2.2344173E2,-7.19447E2,7.9163873E2,-6.3415627E1,-6.1103156E2,1.6197693E2,1.8095089E1,-5.2433057E2,9.882776E2,-4.0095703E1,6.4882715E2,-4.036831E2,-7.881847E2,4.8790527E1,1.20393456E2,6.3189856E2,1.3349338E1,7.944695E2,-1.1175244E2,-6.3973755E2,-2.519831E2,1.5800687E2,1.350114E1,8.765573E2,1.9563889E1,-3.2653287E2,2.3448056E2,-7.970669E2,3.684594E2,1.1278983E2,6.1354736E1,-4.1103027E1],"categories":[],"categories_nodes":[],"categories_segments":[],"categories_sizes":[],"default_left":[1,1,1,1,1,1,1,1,1,0,0,0,1,1,1,1,0,0,0,0,1,0,0,1,1,1,0,0,0,1,1,1,0,0,0,0,0,0,0,0,0],"id":12,"left_children":[1,3,5,7,9,11,13,15,17,-1,-1,-1,19,21,23,25,-1,-1,-1,-1,27,-1,-1,29,31,33,-1,-1,-1,35,37,39,-1,-1,-1,-1,-1,-1,-1,-1,-1],"loss_changes":[1.7550238E6,1.6927259E6,1.1985555E6,1.1322951E6,1.0232E5,1.9256522E6,2.8140255E6,5.847064E5,7.578686E5,0E0,0E0,0E0,1.4736858E6,6.2290375E5,1.6630702E6,1.2126418E6,0E0,0E0,0E0,0E0,2.0415388E5,0E0,0E0,1.2023422E6,1.04723975E6,7.055316E5,0E0,0E0,0E0,2.3082045E6,6.816604E5,1.0360883E4,0E0,0E0,0E0,0E0,0E0,0E0,0E0,0E0,0E0],"parents":[2147483647,0,0,1,1,2,2,3,3,4,4,5,5,6,6,7,7,8,8,12,12,13,13,14,14,15,15,20,20,23,23,24,24,25,25,29,29,30,30,31,31],"right_children":[2,4,6,8,10,12,14,16,18,-1,-1,-1,20,22,24,26,-1,-1,-1,-1,28,-1,-1,30,32,34,-1,-1,-1,36,38,40,-1,-1,-1,-1,-1,-1,-1,-1,-1],"split_conditions":[6.48933E2,6.2527985E2,6.608008E2,6.024127E2,6.4379626E2,4.968563E1,6.672495E2,5.999278E2,6.113932E2,-6.7032524E1,-2.1583412E2,2.3749162E2,6.5015924E2,5.0339523E1,4.87922E1,5.7812915E2,-1.5729918E2,2.9648328E2,-1.2028711E1,1.9464815E2,6.578523E2,-2.3645541E2,1.4637158E1,7.1593713E2,6.7649225E2,5.092566E2,2.3834085E2,-3.3525734E1,-1.9192126E2,6.8368933E2,8.1160455E2,6.710277E2,2.629672E2,5.869167E0,-9.795986E1,7.034417E1,-2.3912007E2,1.1053783E2,3.3836952E1,1.8406422E1,-1.2330909E1],"split_indices":[0,0,0,0,0,1,0,0,0,0,0,0,0,1,1,0,0,0,0,0,0,0,0,0,0,0,0,0,0,0,0,0,0,0,0,0,0,0,0,0,0],"split_type":[0,0,0,0,0,0,0,0,0,0,0,0,0,0,0,0,0,0,0,0,0,0,0,0,0,0,0,0,0,0,0,0,0,0,0,0,0,0,0,0,0],"sum_hessian":[4.4E2,3.38E2,1.02E2,3.34E2,4E0,1E1,9.2E1,3.32E2,2E0,2E0,2E0,6E0,4E0,4E0,8.8E1,3.31E2,1E0,1E0,1E0,1E0,3E0,3E0,1E0,8.2E1,6E0,3.3E2,1E0,2E0,1E0,7E0,7.5E1,2E0,4E0,3.25E2,5E0,4E0,3E0,1.2E1,6.3E1,1E0,1E0],"tree_param":{"num_deleted":"0","num_feature":"2","num_nodes":"41","size_leaf_vector":"0"}},{"base_weights":[3.3216133E1,9.811964E1,-7.0838995E0,9.058627E1,6.818624E2,1.5922422E0,-7.884674E2,8.130949E1,4.5060718E2,-4.8083754E0,5.749836E2,4.321311E2,7.214532E1,-6.976566E2,3.8007542E-1,5.760417E2,1.9970703E-1,-8.924549E1,9.293893E1,6.599747E0,-5.512242E2,5.425748E1,-4.0921152E2,7.362509E1,2.8189948E2,4.2588574E2,-9.740562E0],"categories":[],"categories_nodes":[],"categories_segments":[],"categories_sizes":[],"default_left":[1,1,1,1,0,1,0,1,0,1,0,1,1,0,1,0,0,1,1,1,0,0,0,0,0,0,0],"id":13,"left_children":[1,3,5,7,-1,9,-1,11,-1,13,-1,15,17,-1,19,-1,-1,21,23,25,-1,-1,-1,-1,-1,-1,-1],"loss_changes":[1.1541808E6,6.814181E5,1.8520299E6,5.244541E5,0E0,9.973506E5,0E0,4.9929712E5,0E0,9.6726875E5,0E0,2.4852288E5,5.519497E5,0E0,9.230916E5,0E0,0E0,8.946082E5,5.0478088E5,1.8265842E6,0E0,0E0,0E0,0E0,0E0,0E0,0E0],"parents":[2147483647,0,0,1,1,2,2,3,3,5,5,7,7,9,9,11,11,12,12,14,14,17,17,18,18,19,19],"right_children":[2,4,6,8,-1,10,-1,12,-1,14,-1,16,18,-1,20,-1,-1,22,24,26,-1,-1,-1,-1,-1,-1,-1],"split_conditions":[7.096454E1,7.086458E1,2.8316064E2,9.526421E2,2.0455873E2,2.766129E2,-2.3654024E2,2.565664E1,1.3518216E2,7.1043274E1,1.7249509E2,7.782175E2,2.9615078E1,-2.09297E2,2.7146228E2,1.7281252E2,5.991211E-2,2.8817919E1,9.13151E2,7.233362E1,-1.6536726E2,1.6277245E1,-1.2276346E2,2.2087528E1,8.456985E1,1.27765724E2,-2.9221687E0],"split_indices":[1,1,0,0,0,0,0,1,0,1,0,0,1,0,0,0,0,1,0,1,0,0,0,0,0,0,0],"split_type":[0,0,0,0,0,0,0,0,0,0,0,0,0,0,0,0,0,0,0,0,0,0,0,0,0,0,0],"sum_hessian":[4.4E2,1.68E2,2.72E2,1.67E2,1E0,2.7E2,2E0,1.64E2,3E0,2.68E2,2E0,3E0,1.61E2,1E0,2.67E2,2E0,1E0,1.8E1,1.43E2,2.65E2,2E0,1.3E1,5E0,1.31E2,1.2E1,9E0,2.56E2],"tree_param":{"num_deleted":"0","num_feature":"2","num_nodes":"27","size_leaf_vector":"0"}},{"base_weights":[2.3702345E1,7.618103E1,-4.4414744E0,6.470268E1,6.3235693E2,-6.079405E2,-2.2043101E-1,7.286155E1,-5.8364307E2,-6.018996E0,4.1153278E2,6.286775E1,7.859658E2,1.0835648E0,-2.5119278E2,7.43694E1,-8.254391E2,3.9354932E2,-6.108422E0,-3.3289905E2,-4.0493164E0,6.569351E1,4.746979E2,-1.4114867E2,5.62511E2,8.2923424E-1,-6.3077386E2,-5.517383E1,4.9099854E1],"categories":[],"categories_nodes":[],"categories_segments":[],"categories_sizes":[],"default_left":[1,1,1,1,0,0,1,1,0,1,0,1,0,1,1,1,0,1,1,0,1,0,0,0,0,0,0,0,0],"id":14,"left_children":[1,3,5,7,-1,-1,9,11,-1,13,-1,15,-1,17,19,21,-1,23,25,-1,27,-1,-1,-1,-1,-1,-1,-1,-1],"loss_changes":[6.516736E5,9.422176E5,7.335159E5,8.4656956E5,0E0,0E0,6.8771175E5,1.02670794E6,0E0,4.9481888E5,0E0,1.5939368E6,0E0,7.842665E5,1.6019738E5,4.863227E5,0E0,5.31115E5,1.1836271E6,0E0,1.0860704E4,0E0,0E0,0E0,0E0,0E0,0E0,0E0,0E0],"parents":[2147483647,0,0,1,1,2,2,3,3,6,6,7,7,9,9,11,11,13,13,14,14,15,15,17,17,18,18,20,20],"right_children":[2,4,6,8,-1,-1,10,12,-1,14,-1,16,-1,18,20,22,-1,24,26,-1,28,-1,-1,-1,-1,-1,-1,-1,-1],"split_conditions":[6.126691E1,6.1043037E1,6.135858E1,6.0952835E1,1.8970709E2,-1.8238216E2,4.664876E2,6.0821594E1,-1.7509293E2,3.4775226E2,1.2345984E2,6.0732132E1,2.3578975E2,7.096454E1,4.5527362E2,6.051393E1,-2.4763173E2,6.450215E1,2.8316064E2,-9.986972E1,4.6079578E2,1.9708054E1,1.4240938E2,-4.23446E1,1.687533E2,2.4877028E-1,-1.8923216E2,-1.6552149E1,1.4729957E1],"split_indices":[1,1,1,1,0,0,0,1,0,0,0,1,0,1,0,1,0,0,0,0,0,0,0,0,0,0,0,0,0],"split_type":[0,0,0,0,0,0,0,0,0,0,0,0,0,0,0,0,0,0,0,0,0,0,0,0,0,0,0,0,0],"sum_hessian":[4.4E2,1.53E2,2.87E2,1.51E2,2E0,1E0,2.86E2,1.5E2,1E0,2.83E2,3E0,1.49E2,1E0,2.76E2,7E0,1.48E2,1E0,4E0,2.72E2,5E0,2E0,1.46E2,2E0,1E0,3E0,2.7E2,2E0,1E0,1E0],"tree_param":{"num_deleted":"0","num_feature":"2","num_nodes":"29","size_leaf_vector":"0"}},{"base_weights":[1.6459457E1,8.473696E1,1.0939798E0,5.9486244E1,7.2142694E2,8.369612E0,-2.1120312E2,8.292335E1,-1.5888348E2,-1.0939058E0,3.6705334E2,-3.8163184E2,2.2506226E2,5.925531E1,6.0753644E2,-6.103085E2,4.4511865E2,4.063335E0,-3.4950458E2,6.2853638E1,5.0867758E2,3.403353E2,-6.0378418E1,1.6228317E2,1.9737495E0,-8.321782E-1,5.5100635E2,-6.1705975E2,3.4552082E1,5.216033E2,-2.6393066E2,-5.5835205E1,6.327472E2,1.16689625E1,3.2447617E2,4.5877254E1,-6.4260223E2,-4.0080643E2,5.194037E0,9.172119E0,-4.050681E2],"categories":[],"categories_nodes":[],"categories_segments":[],"categories_sizes":[],"default_left":[1,1,1,1,0,1,1,1,1,1,1,0,1,1,0,0,0,1,1,1,1,0,0,1,1,1,0,0,0,0,1,0,0,0,0,0,0,0,0,0,0],"id":15,"left_children":[1,3,5,7,-1,9,11,13,15,17,19,-1,21,23,-1,-1,-1,25,27,29,31,-1,-1,33,35,37,-1,-1,-1,-1,39,-1,-1,-1,-1,-1,-1,-1,-1,-1,-1],"loss_changes":[4.6256766E5,1.2593122E6,5.593667E5,4.1749353E5,0E0,1.188445E6,9.7811675E5,8.5799275E5,2.452953E6,6.159387E5,3.5576612E5,0E0,1.5216333E5,4.127915E5,0E0,0E0,0E0,9.0547606E5,5.351023E5,7.373158E5,4.5556275E5,0E0,0E0,6.069279E5,1.3312414E6,8.1195294E5,0E0,0E0,0E0,0E0,1.1935041E5,0E0,0E0,0E0,0E0,0E0,0E0,0E0,0E0,0E0,0E0],"parents":[2147483647,0,0,1,1,2,2,3,3,5,5,6,6,7,7,8,8,9,9,10,10,12,12,13,13,17,17,18,18,19,19,20,20,23,23,24,24,25,25,30,30],"right_children":[2,4,6,8,-1,10,12,14,16,18,20,-1,22,24,-1,-1,-1,26,28,30,32,-1,-1,34,36,38,-1,-1,-1,-1,40,-1,-1,-1,-1,-1,-1,-1,-1,-1,-1],"split_conditions":[3.9896336E1,3.960679E1,6.991211E2,3.8632683E1,2.1642809E2,6.702092E2,8.254713E2,3.8357224E1,8.245016E2,6.606756E2,4.87922E1,-1.14489555E2,8.3184143E2,8.2486804E2,1.8226094E2,-1.8309254E2,1.335356E2,6.592747E2,5.004178E1,6.776896E2,6.7649225E2,1.0210059E2,-1.8113525E1,7.068019E2,3.7059998E1,4.7623203E1,1.6530191E2,-1.8511794E2,1.0365625E1,1.5648099E2,6.8602234E2,-1.6750563E1,1.8982416E2,3.5006888E0,9.734286E1,1.3763177E1,-1.9278069E2,-1.20241936E2,1.5582112E0,2.7516358E0,-1.2152044E2],"split_indices":[1,1,0,1,0,0,0,1,0,0,1,0,0,0,0,0,0,0,1,0,0,0,0,0,1,1,0,0,0,0,0,0,0,0,0,0,0,0,0,0,0],"split_type":[0,0,0,0,0,0,0,0,0,0,0,0,0,0,0,0,0,0,0,0,0,0,0,0,0,0,0,0,0,0,0,0,0,0,0,0,0,0,0,0,0],"sum_hessian":[4.4E2,8E1,3.6E2,7.8E1,2E0,3.49E2,1.1E1,7.1E1,7E0,3.41E2,8E0,8E0,3E0,6.9E1,2E0,4E0,3E0,3.37E2,4E0,3E0,5E0,2E0,1E0,2.4E1,4.5E1,3.35E2,2E0,2E0,2E0,1E0,2E0,1E0,4E0,1.3E1,1.1E1,4.3E1,2E0,4E0,3.31E2,1E0,1E0],"tree_param":{"num_deleted":"0","num_feature":"2","num_nodes":"41","size_leaf_vector":"0"}},{"base_weights":[1.225435E1,9.378309E0,3.241172E2,3.0227722E2,6.663427E0,4.1408023E2,-1.6565918E1,-1.1082201E2,1.2000501E1,5.4172276E1,-3.0016812E2,1.1828418E2,3.1583292E0,1.5410205E2,-2.4945034E1,-3.5263348E2,5.9777344E1,2.1880833E2,2.7942709E1,-1.543565E2,7.758076E0,8.650879E0,1.8830212E2,-1.8376855E2,3.2153645E1,-1.3869678E2,-5.31896E2,3.0471152E2,1.4538559E2,-2.9087207E2,1.7293855E2,1.3294592E2,-4.1593286E2,-2.7540307E0,3.015003E2],"categories":[],"categories_nodes":[],"categories_segments":[],"categories_sizes":[],"default_left":[1,1,0,1,1,0,0,1,1,1,1,1,1,1,1,1,0,1,1,1,1,0,0,0,0,0,0,0,0,0,0,0,0,0,0],"id":16,"left_children":[1,3,-1,5,7,-1,-1,9,11,13,15,17,19,21,23,25,-1,27,29,31,33,-1,-1,-1,-1,-1,-1,-1,-1,-1,-1,-1,-1,-1,-1],"loss_changes":[3.9250653E5,3.4627734E5,0E0,1.4945012E5,2.740873E5,0E0,0E0,6.098404E5,3.915141E5,9.0812E4,1.910415E5,2.844939E5,2.8086547E5,2.3243227E4,6.9389125E4,2.3303438E5,0E0,5.0308062E4,8.823857E5,8.8196325E5,1.1618619E6,0E0,0E0,0E0,0E0,0E0,0E0,0E0,0E0,0E0,0E0,0E0,0E0,0E0,0E0],"parents":[2147483647,0,0,1,1,3,3,4,4,7,7,8,8,9,9,10,10,11,11,12,12,13,13,14,14,15,15,17,17,18,18,19,19,20,20],"right_children":[2,4,-1,6,8,-1,-1,10,12,14,16,18,20,22,24,26,-1,28,30,32,34,-1,-1,-1,-1,-1,-1,-1,-1,-1,-1,-1,-1,-1,-1],"split_conditions":[9.526421E2,2.565664E1,9.723516E1,7.782175E2,2.9615078E1,1.24224075E2,-4.9697757E0,2.8374107E1,3.640121E1,8.717638E2,9.4218506E2,9.08761E2,3.7816563E1,2.635514E1,8.893248E2,8.223526E2,1.7933205E1,3.0841835E1,9.13151E2,8.14729E2,8.148108E2,2.5952637E0,5.649064E1,-5.513057E1,9.646093E0,-4.1609035E1,-1.595688E2,9.141346E1,4.3615677E1,-8.726163E1,5.188157E1,3.9883778E1,-1.2477986E2,-8.2620925E-1,9.0450096E1],"split_indices":[0,1,0,0,1,0,0,1,1,0,0,0,1,1,0,0,0,1,0,0,0,0,0,0,0,0,0,0,0,0,0,0,0,0,0],"split_type":[0,0,0,0,0,0,0,0,0,0,0,0,0,0,0,0,0,0,0,0,0,0,0,0,0,0,0,0,0,0,0,0,0,0,0],"sum_hessian":[4.4E2,4.37E2,3E0,3E0,4.34E2,2E0,1E0,1.8E1,4.16E2,1E1,8E0,3.1E1,3.85E2,4E0,6E0,7E0,1E0,1.4E1,1.7E1,1E1,3.75E2,1E0,3E0,1E0,5E0,4E0,3E0,5E0,9E0,5E0,1.2E1,5E0,5E0,3.63E2,1.2E1],"tree_param":{"num_deleted":"0","num_feature":"2","num_nodes":"35","size_leaf_vector":"0"}},{"base_weights":[8.92093E0,6.688053E0,2.5119067E2,2.4140771E2,4.5143366E0,3.312643E2,-1.4081055E1,-8.650419E1,8.650638E0,-1.871523E1,-4.418069E2,-1.0753219E1,4.0526283E1,6.1443577E1,-9.679457E1,-4.070371E0,-2.9298203E2,4.8080627E2,2.596832E1,1.1138314E2,-2.882666E1,-1.6613026E2,9.725358E1,-8.3875885E0,2.689319E2,-5.9349854E2,-1.1417902E2,6.956646E2,-1.8931354E2,-2.1996133E2,3.9175594E1],"categories":[],"categories_nodes":[],"categories_segments":[],"categories_sizes":[],"default_left":[1,1,0,1,1,0,0,1,1,1,0,1,1,1,1,1,1,1,1,0,0,0,0,0,0,0,0,0,0,0,0],"id":17,"left_children":[1,3,-1,5,7,-1,-1,9,11,13,-1,15,17,19,21,23,25,27,29,-1,-1,-1,-1,-1,-1,-1,-1,-1,-1,-1,-1],"loss_changes":[2.3688269E5,2.2238394E5,0E0,9.6493984E4,1.6451712E5,0E0,0E0,4.4935788E5,2.5835466E5,1.1234609E5,0E0,4.891914E5,1.0002279E6,4.3783305E4,1.3724694E5,3.0280125E5,2.546344E5,8.516029E5,5.0881834E5,0E0,0E0,0E0,0E0,0E0,0E0,0E0,0E0,0E0,0E0,0E0,0E0],"parents":[2147483647,0,0,1,1,3,3,4,4,7,7,8,8,9,9,11,11,12,12,13,13,14,14,15,15,16,16,17,17,18,18],"right_children":[2,4,-1,6,8,-1,-1,10,12,14,-1,16,18,20,22,24,26,28,30,-1,-1,-1,-1,-1,-1,-1,-1,-1,-1,-1,-1],"split_conditions":[9.526421E2,2.565664E1,7.535721E1,7.782175E2,2.9615078E1,9.9379295E1,-4.2243166E0,2.9297142E1,2.2427385E2,2.8175007E1,-1.3254207E2,1.9780695E2,2.3717834E2,9.2049255E2,9.118109E2,1.8251335E2,2.117317E2,7.4060135E1,2.5413385E2,3.3414944E1,-8.647999E0,-4.983908E1,2.9176075E1,-2.5162766E0,8.0679565E1,-1.7804956E2,-3.4253708E1,2.0869939E2,-5.6794064E1,-6.59884E1,1.1752679E1],"split_indices":[0,1,0,0,1,0,0,1,0,1,0,0,0,0,0,0,0,1,0,0,0,0,0,0,0,0,0,0,0,0,0],"split_type":[0,0,0,0,0,0,0,0,0,0,0,0,0,0,0,0,0,0,0,0,0,0,0,0,0,0,0,0,0,0,0],"sum_hessian":[4.4E2,4.37E2,3E0,3E0,4.34E2,2E0,1E0,1.8E1,4.16E2,1.6E1,2E0,2.59E2,1.57E2,8E0,8E0,2.54E2,5E0,4E0,1.53E2,5E0,3E0,6E0,2E0,2.51E2,3E0,1E0,4E0,3E0,1E0,7E0,1.46E2],"tree_param":{"num_deleted":"0","num_feature":"2","num_nodes":"31","size_leaf_vector":"0"}},{"base_weights":[6.2573833E0,4.52241E0,1.946726E2,1.9277417E2,2.780963E0,2.6501157E2,-1.1968994E1,-6.731282E1,5.9680157E0,-1.2859231E1,-3.5344556E2,2.9377837E0,1.8303334E2,4.5762478E1,-7.005214E1,-1.0923157E2,-4.2093677E2,4.467982E0,-2.0665852E2,2.7937564E2,-1.9751025E2,1.23029625E2,6.1104913E0,-1.1583508E2,1.4810571E2,2.479206E0,1.6466524E2,9.855794E0,4.1167163E2],"categories":[],"categories_nodes":[],"categories_segments":[],"categories_sizes":[],"default_left":[1,1,0,1,1,0,0,1,1,1,1,1,1,1,1,0,0,1,0,1,0,0,0,0,0,0,0,0,0],"id":18,"left_children":[1,3,-1,5,7,-1,-1,9,11,13,15,17,19,21,23,-1,-1,25,-1,27,-1,-1,-1,-1,-1,-1,-1,-1,-1],"loss_changes":[1.4328048E5,1.4305364E5,0E0,6.2332375E4,9.75775E4,0E0,0E0,2.914931E5,2.2320322E5,6.020244E4,3.4673125E3,1.3274088E5,3.118167E5,2.682239E4,1.07047016E5,0E0,0E0,1.298977E5,0E0,2.0988103E5,0E0,0E0,0E0,0E0,0E0,0E0,0E0,0E0,0E0],"parents":[2147483647,0,0,1,1,3,3,4,4,7,7,8,8,9,9,10,10,11,11,12,12,13,13,14,14,17,17,19,19],"right_children":[2,4,-1,6,8,-1,-1,10,12,14,16,18,20,22,24,-1,-1,26,-1,28,-1,-1,-1,-1,-1,-1,-1,-1,-1],"split_conditions":[9.526421E2,2.565664E1,5.8401783E1,7.782175E2,2.9615078E1,7.950347E1,-3.5906985E0,2.9297142E1,9.2494025E2,2.8175007E1,6.32114E2,9.2133813E2,3.2274742E1,7.166045E2,2.9130356E1,-3.276947E1,-1.2628104E2,9.13151E2,-6.199756E1,3.0965933E1,-5.925308E1,3.690889E1,1.8331474E0,-3.4750526E1,4.4431717E1,7.4376184E-1,4.9399574E1,2.9567382E0,1.23501495E2],"split_indices":[0,1,0,0,1,0,0,1,0,1,0,0,1,0,1,0,0,0,0,1,0,0,0,0,0,0,0,0,0],"split_type":[0,0,0,0,0,0,0,0,0,0,0,0,0,0,0,0,0,0,0,0,0,0,0,0,0,0,0,0,0],"sum_hessian":[4.4E2,4.37E2,3E0,3E0,4.34E2,2E0,1E0,1.8E1,4.16E2,1.6E1,2E0,4.1E2,6E0,8E0,8E0,1E0,1E0,4.08E2,2E0,5E0,1E0,2E0,6E0,7E0,1E0,4.04E2,4E0,2E0,3E0],"tree_param":{"num_deleted":"0","num_feature":"2","num_nodes":"29","size_leaf_vector":"0"}},{"base_weights":[4.5594163E0,-1.2011788E1,2.0812935E1,-7.903634E1,-1.0076466E1,1.1254553E1,2.0400586E2,-1.3769339E2,2.5518494E1,1.5895607E2,-1.1616319E1,-1.1443906E2,2.135477E1,7.99109E1,4.0119434E2,7.911838E1,-4.0840637E1,-7.492404E1,-1.0661155E1,9.544135E1,-3.9791977E2,6.9247025E1,-2.571871E0,3.1893903E2,2.0130049E-1,-1.2906647E1,2.4532228E1,2.4364937E2,-1.8778302E2,-6.722073E1,-6.2913885E2,2.378799E1,3.958515E2,-3.779816E2,1.8140253E1,-8.0932144E1,1.3535661E2,-8.9192245E1,-1.0480769E1,-2.1466602E1,1.3339626E2,-1.22757545E2,4.1476364E2,6.862484E1,-4.785033E2,4.2826385E2,-3.7513687E2,4.6428444E1,-4.1430994E2,6.333142E2,-2.1102441E2,3.7753174E2,-5.6682245E2,6.205066E2,8.434914E0,-2.4380157E1,-8.89751E1],"categories":[],"categories_nodes":[],"categories_segments":[],"categories_sizes":[],"default_left":[1,1,1,1,1,1,1,0,1,0,1,1,1,1,0,0,0,0,1,1,1,1,1,0,1,1,1,1,1,1,0,1,1,1,1,1,0,0,0,0,0,0,0,0,0,0,0,0,0,0,0,0,0,0,0,0,0],"id":19,"left_children":[1,3,5,7,9,11,13,-1,15,-1,17,19,21,23,-1,-1,-1,-1,25,27,29,31,33,-1,35,37,39,41,43,45,-1,47,49,51,53,55,-1,-1,-1,-1,-1,-1,-1,-1,-1,-1,-1,-1,-1,-1,-1,-1,-1,-1,-1,-1,-1],"loss_changes":[1.190291E5,2.7610992E4,3.881832E5,4.031099E4,5.7547516E4,2.728543E5,2.3711125E5,0E0,1.390177E4,0E0,1.2081164E4,9.8993075E5,2.2706644E5,1.5235847E5,0E0,0E0,0E0,0E0,1.6991207E4,4.6551444E5,4.9295625E5,9.704936E5,1.04100256E6,0E0,8.7714016E4,3.5892043E4,6.796259E4,4.8979753E5,3.3100906E5,7.709284E5,0E0,6.044411E5,1.286528E6,1.212696E6,7.3722975E5,1.05E2,0E0,0E0,0E0,0E0,0E0,0E0,0E0,0E0,0E0,0E0,0E0,0E0,0E0,0E0,0E0,0E0,0E0,0E0,0E0,0E0,0E0],"parents":[2147483647,0,0,1,1,2,2,3,3,4,4,5,5,6,6,8,8,10,10,11,11,12,12,13,13,18,18,19,19,20,20,21,21,22,22,24,24,25,25,26,26,27,27,28,28,29,29,31,31,32,32,33,33,34,34,35,35],"right_children":[2,4,6,8,10,12,14,-1,16,-1,18,20,22,24,-1,-1,-1,-1,26,28,30,32,34,-1,36,38,40,42,44,46,-1,48,50,52,54,56,-1,-1,-1,-1,-1,-1,-1,-1,-1,-1,-1,-1,-1,-1,-1,-1,-1,-1,-1,-1,-1],"split_conditions":[4.9282898E1,8.306523E1,8.4285164E1,3.92659E1,8.367761E1,9.478535E1,5.9984398E1,-4.1308018E1,4.4373352E1,4.768682E1,8.4923065E1,7.012135E1,4.5793704E2,5.0748848E1,1.2035831E2,2.3735514E1,-1.2252192E1,-2.2477213E1,2.2375E-1,8.388045E1,8.3021706E1,4.3792358E2,4.665031E2,9.568171E1,5.8895E1,9.505615E1,9.4111984E1,6.00271E1,6.56447E1,8.40788E1,-1.8874167E2,4.349013E2,6.214966E1,5.961997E1,4.6851447E2,5.12812E1,4.0606987E1,-2.6757675E1,-3.1442308E0,-6.439981E0,4.001888E1,-3.6827267E1,1.244291E2,2.0587452E1,-1.43551E2,1.2847916E2,-1.1254107E2,1.3928534E1,-1.24292984E2,1.8999426E2,-6.3307327E1,1.1325953E2,-1.7004674E2,1.8615198E2,2.5304742E0,-7.3140473E0,-2.669253E1],"split_indices":[0,1,1,0,1,0,0,0,0,0,1,0,0,0,0,0,0,0,0,1,1,0,0,0,0,1,1,0,0,0,0,0,1,1,0,0,0,0,0,0,0,0,0,0,0,0,0,0,0,0,0,0,0,0,0,0,0],"split_type":[0,0,0,0,0,0,0,0,0,0,0,0,0,0,0,0,0,0,0,0,0,0,0,0,0,0,0,0,0,0,0,0,0,0,0,0,0,0,0,0,0,0,0,0,0,0,0,0,0,0,0,0,0,0,0,0,0],"sum_hessian":[4.4E2,2.18E2,2.22E2,5E0,2.13E2,2.12E2,1E1,3E0,2E0,1E0,2.12E2,1.5E1,1.97E2,7E0,3E0,1E0,1E0,2E0,2.1E2,9E0,6E0,6.5E1,1.32E2,1E0,6E0,1.98E2,1.2E1,6E0,3E0,3E0,3E0,5.8E1,7E0,6E0,1.26E2,4E0,2E0,5E0,1.93E2,9E0,3E0,2E0,4E0,2E0,1E0,1E0,2E0,5.6E1,2E0,5E0,2E0,1E0,5E0,1E0,1.25E2,1E0,3E0],"tree_param":{"num_deleted":"0","num_feature":"2","num_nodes":"57","size_leaf_vector":"0"}},{"base_weights":[3.558438E0,1.6020637E0,1.0924695E2,3.4660723E0,-1.9964539E2,-1.0996094E1,1.279954E2,1.28454E0,1.5777718E2,-3.5906128E2,-2.6819662E1,1.4895769E2,1.1108398E0,4.377603E0,-1.0579093E2,2.569922E2,-1.6914893E2,9.889648E0,-5.011914E1,9.311672E-1,1.7959863E2,-2.3067644E2,1.636677E1,8.185547E0,3.1714746E2,5.0001307E0,-1.337613E2,2.3081877E2,-8.947119E1,-2.7326758E2,-8.860352E0,1.2312148E2,-1.6701335E2],"categories":[],"categories_nodes":[],"categories_segments":[],"categories_sizes":[],"default_left":[1,1,1,1,1,0,1,1,1,0,1,0,0,1,1,1,0,0,0,1,1,1,1,0,0,0,0,0,0,0,0,0,0],"id":20,"left_children":[1,3,5,7,9,-1,11,13,15,-1,17,-1,-1,19,21,23,-1,-1,-1,25,27,29,31,-1,-1,-1,-1,-1,-1,-1,-1,-1,-1],"loss_changes":[9.1008914E4,1.6349711E5,1.9442414E4,1.4488686E5,1.0057475E5,0E0,1.8453062E4,1.4155055E5,2.3808583E5,0E0,3.0615842E3,0E0,0E0,2.504463E5,1.8684416E5,7.2239125E4,0E0,0E0,0E0,2.2427681E5,1.30906E5,5.4263125E4,1.5759978E5,0E0,0E0,0E0,0E0,0E0,0E0,0E0,0E0,0E0,0E0],"parents":[2147483647,0,0,1,1,2,2,3,3,4,4,6,6,7,7,8,8,10,10,13,13,14,14,15,15,19,19,20,20,21,21,22,22],"right_children":[2,4,6,8,10,-1,12,14,16,-1,18,-1,-1,20,22,24,-1,-1,-1,26,28,30,32,-1,-1,-1,-1,-1,-1,-1,-1,-1,-1],"split_conditions":[9.430082E2,9.396321E2,2.7790672E1,9.2494025E2,9.4057513E2,-3.2988284E0,3.001756E1,9.08761E2,3.2274742E1,-1.0771839E2,9.413982E2,4.468731E1,3.3325195E-1,8.9156885E2,9.13151E2,3.0775883E1,-5.074468E1,2.9668946E0,-1.5035743E1,8.390432E2,3.3485023E1,3.2939083E1,9.2133813E2,2.4556642E0,9.514424E1,1.5000392E0,-4.0128395E1,6.9245636E1,-2.6841358E1,-8.198028E1,-2.6581056E0,3.6936447E1,-5.0104008E1],"split_indices":[0,0,1,0,0,0,1,0,1,0,0,0,0,0,0,1,0,0,0,0,1,1,0,0,0,0,0,0,0,0,0,0,0],"split_type":[0,0,0,0,0,0,0,0,0,0,0,0,0,0,0,0,0,0,0,0,0,0,0,0,0,0,0,0,0,0,0,0,0],"sum_hessian":[4.4E2,4.33E2,7E0,4.3E2,3E0,1E0,6E0,4.25E2,5E0,1E0,2E0,5E0,1E0,4.14E2,1.1E1,4E0,1E0,1E0,1E0,4.07E2,7E0,5E0,6E0,1E0,3E0,3.96E2,1.1E1,6E0,1E0,4E0,1E0,4E0,2E0],"tree_param":{"num_deleted":"0","num_feature":"2","num_nodes":"33","size_leaf_vector":"0"}},{"base_weights":[2.2069228E0,1.4804773E2,8.700046E-1,2.0552278E2,-1.2188721E1,-7.0759807E0,1.681044E1,-2.6917503E0,-3.231637E2,4.5256934E2,7.6153913E0,-5.4989977E0,1.9940118E2,1.7223145E1,6.6163086E2,-5.2343726E2,1.4989447E1,1.3394074E0,-1.9505676E2,-1.00561035E2,3.3290894E2,1.9488585E2,-2.977291E0,-6.4983654E0,3.057015E2,-4.0908963E2,4.4071646E2,3.7828946E2,-1.7421785E2,-2.5389348E2,1.5406635E1],"categories":[],"categories_nodes":[],"categories_segments":[],"categories_sizes":[],"default_left":[1,1,1,0,0,1,1,1,0,1,1,1,1,0,0,0,1,1,1,0,0,1,1,0,0,0,0,0,0,0,0],"id":21,"left_children":[1,3,5,-1,-1,7,9,11,-1,13,15,17,19,-1,-1,-1,21,23,25,-1,-1,27,29,-1,-1,-1,-1,-1,-1,-1,-1],"loss_changes":[8.585616E4,3.9343453E4,5.559711E4,0E0,0E0,4.0516988E5,5.8154994E5,1.656207E5,0E0,2.6164706E5,5.717517E5,3.7229156E5,1.936668E5,0E0,0E0,0E0,4.627779E5,6.6516144E5,1.5410564E6,0E0,0E0,9.459392E5,6.081917E5,0E0,0E0,0E0,0E0,0E0,0E0,0E0,0E0],"parents":[2147483647,0,0,1,1,2,2,5,5,6,6,7,7,9,9,10,10,11,11,12,12,16,16,17,17,18,18,21,21,22,22],"right_children":[2,4,6,-1,-1,8,10,12,-1,14,16,18,20,-1,-1,-1,22,24,26,-1,-1,28,30,-1,-1,-1,-1,-1,-1,-1,-1],"split_conditions":[2.565664E1,7.782175E2,3.8748993E2,6.1656837E1,-3.6566164E0,3.6003415E2,3.923572E2,3.0217413E2,-9.694911E1,3.893887E2,4.0265802E2,2.7146228E2,4.4754726E1,5.1669436E0,1.9848927E2,-1.5703119E2,4.5793704E2,2.5413385E2,7.216724E1,-3.0168312E1,9.987269E1,6.2006317E1,4.701854E2,-1.9495097E0,9.171046E1,-1.2272689E2,1.3221495E2,1.1348684E2,-5.2265358E1,-7.6168045E1,4.6219907E0],"split_indices":[1,0,0,0,0,0,0,0,0,0,0,0,1,0,0,0,0,0,1,0,0,1,0,0,0,0,0,0,0,0,0],"split_type":[0,0,0,0,0,0,0,0,0,0,0,0,0,0,0,0,0,0,0,0,0,0,0,0,0,0,0,0,0,0,0],"sum_hessian":[4.4E2,3E0,4.37E2,2E0,1E0,2.92E2,1.45E2,2.89E2,3E0,2E0,1.43E2,2.86E2,3E0,1E0,1E0,1E0,1.42E2,2.77E2,9E0,1E0,2E0,1.2E1,1.3E2,2.71E2,6E0,7E0,2E0,8E0,4E0,8E0,1.22E2],"tree_param":{"num_deleted":"0","num_feature":"2","num_nodes":"31","size_leaf_vector":"0"}},{"base_weights":[1.921929E0,1.1813342E2,8.562489E-1,1.6441814E2,-1.0360352E1,-2.1500362E1,7.7942533E0,-7.497671E0,-2.9725415E2,8.08198E2,2.9780803E0,-1.6324953E1,4.3320166E2,-7.962302E1,-3.3175616E2,-4.02567E0,4.6462997E2,-4.4021354E0,-2.9839136E2,-4.6319812E2,-1.335428E2,4.3744063E0,-3.9225412E2,-2.0021729E1,4.8647916E2,-4.1903906E2,-1.18495766E2,1.5415479E2,-3.54469E2,4.1732617E2,-2.0916348E0,-6.682042E2,-1.8240479E1],"categories":[],"categories_nodes":[],"categories_segments":[],"categories_sizes":[],"default_left":[1,1,1,0,0,1,1,1,1,0,1,1,0,0,1,1,0,1,1,0,1,1,1,0,0,0,0,0,0,0,0,0,0],"id":22,"left_children":[1,3,5,-1,-1,7,9,11,13,-1,15,17,-1,-1,19,21,-1,23,25,-1,27,29,31,-1,-1,-1,-1,-1,-1,-1,-1,-1,-1],"loss_changes":[5.4514176E4,2.549261E4,6.8105875E4,0E0,0E0,3.9934597E5,1.2889789E6,3.9608975E5,1.11281875E4,0E0,1.0817909E6,3.3162606E5,0E0,0E0,4.2357406E4,1.077895E6,0E0,7.458073E5,3.7161625E4,0E0,2.4532289E5,8.660058E5,7.1027525E5,0E0,0E0,0E0,0E0,0E0,0E0,0E0,0E0,0E0,0E0],"parents":[2147483647,0,0,1,1,2,2,5,5,6,6,7,7,8,8,10,10,11,11,14,14,15,15,17,17,18,18,20,20,21,21,22,22],"right_children":[2,4,6,-1,-1,8,10,12,14,-1,16,18,-1,-1,20,22,-1,24,26,-1,28,30,32,-1,-1,-1,-1,-1,-1,-1,-1,-1,-1],"split_conditions":[2.565664E1,7.782175E2,4.872421E1,4.9325443E1,-3.1081057E0,4.829622E1,4.8859833E1,4.8164658E1,4.1172055E2,2.4245941E2,6.7649225E2,4.7844334E1,1.2996051E2,-2.3886906E1,5.4813495E2,6.578523E2,1.3938899E2,4.7623203E1,6.5243713E2,-1.3895944E2,6.746655E2,4.993321E1,5.0183083E1,-6.006519E0,1.4594376E2,-1.2571172E2,-3.5548733E1,4.6246437E1,-1.06340706E2,1.2519785E2,-6.2749046E-1,-2.0046127E2,-5.4721437E0],"split_indices":[1,0,1,0,0,1,1,1,0,0,0,1,0,0,0,0,0,1,0,0,0,1,1,0,0,0,0,0,0,0,0,0,0],"split_type":[0,0,0,0,0,0,0,0,0,0,0,0,0,0,0,0,0,0,0,0,0,0,0,0,0,0,0,0,0,0,0,0,0],"sum_hessian":[4.4E2,3E0,4.37E2,2E0,1E0,1.03E2,3.34E2,9.9E1,4E0,1E0,3.33E2,9.8E1,1E0,1E0,3E0,3.29E2,4E0,9.5E1,3E0,1E0,2E0,3.23E2,6E0,9.3E1,2E0,1E0,2E0,1E0,1E0,4E0,3.19E2,3E0,3E0],"tree_param":{"num_deleted":"0","num_feature":"2","num_nodes":"33","size_leaf_vector":"0"}},{"base_weights":[1.872329E0,3.744235E-1,8.289966E1,1.94232E0,-1.6866003E2,-8.654297E0,9.7215126E1,2.8332758E-1,1.1940707E2,-3.0451E2,-2.1873373E1,1.1287207E2,1.6367188E0,2.6311212E0,-8.0934814E1,2.0052206E2,-1.4308398E2,9.098633E0,-4.190869E1,3.068164E1,1.2317383E2,8.3501585E-2,1.3223083E2,-1.744261E2,1.0762695E1,7.6499023E0,2.4682764E2,2.9787524E0,-9.570801E1,1.7265193E2,-7.53584E1,-6.343518E1,-2.6427197E2,9.468008E1,-1.3268718E2],"categories":[],"categories_nodes":[],"categories_segments":[],"categories_sizes":[],"default_left":[1,1,1,1,1,0,1,1,1,0,1,1,0,1,1,1,0,0,0,0,0,1,1,1,1,0,0,0,0,0,0,0,0,0,0],"id":23,"left_children":[1,3,5,7,9,-1,11,13,15,-1,17,19,-1,21,23,25,-1,-1,-1,-1,-1,27,29,31,33,-1,-1,-1,-1,-1,-1,-1,-1,-1,-1],"loss_changes":[5.3493695E4,1.1534998E5,1.132643E4,8.3956484E4,7.310319E4,0E0,1.0290523E4,8.144409E4,1.5644328E5,0E0,2.2429136E3,1.3010625E3,0E0,1.3700983E5,1.0475231E5,4.276708E4,0E0,0E0,0E0,0E0,0E0,1.1344E5,8.0138625E4,4.3068312E4,9.682839E4,0E0,0E0,0E0,0E0,0E0,0E0,0E0,0E0,0E0,0E0],"parents":[2147483647,0,0,1,1,2,2,3,3,4,4,6,6,7,7,8,8,10,10,11,11,13,13,14,14,15,15,21,21,22,22,23,23,24,24],"right_children":[2,4,6,8,10,-1,12,14,16,-1,18,20,-1,22,24,26,-1,-1,-1,-1,-1,28,30,32,34,-1,-1,-1,-1,-1,-1,-1,-1,-1,-1],"split_conditions":[9.430082E2,9.396321E2,2.7790672E1,9.2494025E2,9.4057513E2,-2.5962892E0,3.001756E1,9.08761E2,3.2274742E1,-9.1353004E1,9.413982E2,9.450425E2,4.9101564E-1,8.9156885E2,9.13151E2,3.0775883E1,-4.2925198E1,2.72959E0,-1.2572608E1,9.204493E0,3.695215E1,8.390432E2,3.3485023E1,9.1181964E2,9.2133813E2,2.2949708E0,7.4048294E1,8.9362574E-1,-2.8712404E1,5.179558E1,-2.2607521E1,-1.9030556E1,-7.928159E1,2.8404024E1,-3.9806156E1],"split_indices":[0,0,1,0,0,0,1,0,1,0,0,0,0,0,0,1,0,0,0,0,0,0,1,0,0,0,0,0,0,0,0,0,0,0,0],"split_type":[0,0,0,0,0,0,0,0,0,0,0,0,0,0,0,0,0,0,0,0,0,0,0,0,0,0,0,0,0,0,0,0,0,0,0],"sum_hessian":[4.4E2,4.33E2,7E0,4.3E2,3E0,1E0,6E0,4.25E2,5E0,1E0,2E0,5E0,1E0,4.14E2,1.1E1,4E0,1E0,1E0,1E0,1E0,4E0,4.07E2,7E0,5E0,6E0,1E0,3E0,3.96E2,1.1E1,6E0,1E0,3E0,2E0,4E0,2E0],"tree_param":{"num_deleted":"0","num_feature":"2","num_nodes":"35","size_leaf_vector":"0"}},{"base_weights":[1.0111661E0,-6.5811424E0,1.4256058E1,5.4543847E-1,-5.0023322E2,-1.0934846E1,1.3430338E2,-5.300728E0,2.2763284E2,-1.5787863E0,-6.276454E2,4.3038382E2,5.1225723E1,1.12189E0,-2.902238E2,-1.0583325E2,3.008494E2,-1.0145771E1,5.646316E2,1.8367407E2,5.078202E2,-6.7230164E2,1.1467249E2,-6.4092107E0,2.8176407E2,-4.8149942E2,6.155168E1,4.0305972E2,1.4897931E2,-2.0739472E0,-5.3377734E2,5.088335E2,7.167276E1,-9.976639E-1,-2.0262852E2,5.2218066E2,-2.128516E2,-2.395105E1,2.1460645E2,-1.2609099E1,4.516289E2,-3.8048645E2,1.1330504E2],"categories":[],"categories_nodes":[],"categories_segments":[],"categories_sizes":[],"default_left":[1,1,1,1,0,1,1,1,1,1,0,1,1,1,1,0,1,1,0,0,0,0,1,1,1,0,0,0,1,1,0,0,1,0,0,0,0,0,0,0,0,0,0],"id":24,"left_children":[1,3,5,7,-1,9,11,13,15,17,-1,19,21,23,25,-1,27,29,-1,-1,-1,-1,31,33,35,-1,-1,-1,37,39,-1,-1,41,-1,-1,-1,-1,-1,-1,-1,-1,-1,-1],"loss_changes":[4.4440473E4,9.888453E5,4.8834878E5,3.7027688E5,0E0,7.7218644E5,6.66688E5,4.980725E5,2.0274656E5,6.508738E5,0E0,2.13525E4,1.1329205E6,5.6612225E5,4.3335353E5,0E0,3.3088625E4,5.568123E5,0E0,0E0,0E0,0E0,3.3640456E5,2.769407E5,9.435437E5,0E0,0E0,0E0,5.0535758E4,6.318522E5,0E0,0E0,4.3842384E5,0E0,0E0,0E0,0E0,0E0,0E0,0E0,0E0,0E0,0E0],"parents":[2147483647,0,0,1,1,2,2,3,3,5,5,6,6,7,7,8,8,9,9,11,11,12,12,13,13,14,14,16,16,17,17,22,22,23,23,24,24,28,28,29,29,32,32],"right_children":[2,4,6,8,-1,10,12,14,16,18,-1,20,22,24,26,-1,28,30,-1,-1,-1,-1,32,34,36,-1,-1,-1,38,40,-1,-1,42,-1,-1,-1,-1,-1,-1,-1,-1,-1,-1],"split_conditions":[2.7586066E2,2.7146228E2,5.9998768E1,2.5413385E2,-1.5006998E2,5.9913055E1,6.0732132E1,2.4303156E2,5.0092495E1,5.978914E1,-1.8829362E2,4.228547E2,6.0821594E1,2.2427385E2,7.360846E1,-3.1749977E1,7.2318375E1,5.9704178E1,1.6938948E2,5.5102222E1,1.5234607E2,-2.016905E2,6.0952835E1,1.9780695E2,7.3641365E1,-1.4444983E2,1.8465506E1,1.2091792E2,2.6219714E2,5.949801E1,-1.6013321E2,1.5265005E2,6.1043037E1,-2.9929918E-1,-6.078856E1,1.566542E2,-6.385548E1,-7.185315E0,6.4381935E1,-3.7827299E0,1.3548868E2,-1.1414594E2,3.3991512E1],"split_indices":[0,0,1,0,0,1,1,0,1,1,0,0,1,0,1,0,1,1,0,0,0,0,1,0,1,0,0,0,0,1,0,0,1,0,0,0,0,0,0,0,0,0,0],"split_type":[0,0,0,0,0,0,0,0,0,0,0,0,0,0,0,0,0,0,0,0,0,0,0,0,0,0,0,0,0,0,0,0,0,0,0,0,0,0,0,0,0,0,0],"sum_hessian":[4.4E2,2.8E2,1.6E2,2.77E2,3E0,1.33E2,2.7E1,2.71E2,6E0,1.32E2,1E0,5E0,2.2E1,2.66E2,5E0,1E0,5E0,1.31E2,1E0,2E0,3E0,1E0,2.1E1,2.6E2,6E0,3E0,2E0,2E0,3E0,1.3E2,1E0,1E0,2E1,2.54E2,6E0,4E0,2E0,1E0,2E0,1.28E2,2E0,1E0,1.9E1],"tree_param":{"num_deleted":"0","num_feature":"2","num_nodes":"43","size_leaf_vector":"0"}},{"base_weights":[5.557918E-1,2.9017488E1,-4.0894213E0,1.2562852E1,2.64469E2,-2.7646915E2,-4.564743E-1,2.6110767E1,-3.8660815E2,3.9779184E2,-6.7749756E1,1.7723096E2,-6.380129E2,-7.542649E0,2.3536137E2,1.3197586E2,3.972776E0,-8.1681885E1,3.4752832E2,-3.059151E2,-2.0596627E-2,4.322712E2,-8.738467E1,3.169036E1,2.744815E2,-3.176258E1,5.7377174E1,-5.941621E1,-4.9123096E2,5.3909814E2,-4.5636744E0,-3.194431E2,5.0490723E1,1.7088525E2,-1.15427124E2,-6.468043E1,6.684656E1,4.3240158E1,1.6299023E2,-4.930542E2,1.7225684E2,1.8071567E0,-3.2245328E2,1.3576985E2,-1.0267334E2],"categories":[],"categories_nodes":[],"categories_segments":[],"categories_sizes":[],"default_left":[1,1,1,1,1,1,1,1,0,0,0,1,0,1,1,1,1,0,0,1,1,0,1,1,0,1,1,1,0,0,1,0,1,0,0,0,0,0,0,0,0,0,0,0,0],"id":25,"left_children":[1,3,5,7,9,11,13,15,-1,-1,-1,17,-1,19,21,23,25,-1,-1,27,29,-1,31,33,-1,35,37,39,-1,-1,41,-1,43,-1,-1,-1,-1,-1,-1,-1,-1,-1,-1,-1,-1],"loss_changes":[5.8423555E4,2.3688219E5,3.758994E5,3.291628E5,2.0411966E5,9.332378E5,6.300887E5,1.3540684E5,0E0,0E0,0E0,1.6066328E5,0E0,8.214342E5,7.368444E5,1.3421405E5,9.533527E4,0E0,0E0,3.8193425E5,8.7929475E5,0E0,1.7610466E5,1.6307081E5,0E0,1.0170369E5,2.2813344E4,5.872431E5,0E0,0E0,7.2156144E5,0E0,6.618674E4,0E0,0E0,0E0,0E0,0E0,0E0,0E0,0E0,0E0,0E0,0E0,0E0],"parents":[2147483647,0,0,1,1,2,2,3,3,4,4,5,5,6,6,7,7,11,11,13,13,14,14,15,15,16,16,19,19,20,20,22,22,23,23,25,25,26,26,27,27,30,30,32,32],"right_children":[2,4,6,8,10,12,14,16,-1,-1,-1,18,-1,20,22,24,26,-1,-1,28,30,-1,32,34,-1,36,38,40,-1,-1,42,-1,44,-1,-1,-1,-1,-1,-1,-1,-1,-1,-1,-1,-1],"split_conditions":[3.7304302E1,3.6917923E1,3.7816563E1,3.680504E1,8.497468E2,8.14729E2,8.17569E2,7.056011E2,-1.1598245E2,1.19337555E2,-2.0324928E1,5.4746606E2,-1.9140387E2,3.960679E1,4.018885E1,3.0398079E1,3.0998676E1,-2.4504566E1,1.042585E2,3.850992E1,3.9896336E1,1.2968137E2,4.0320812E1,2.831937E1,8.234445E1,9.430082E2,9.364636E2,3.808516E1,-1.473693E2,1.6172945E2,6.991211E2,-9.583294E1,8.3184143E2,5.126558E1,-3.462814E1,-1.9404129E1,2.0053968E1,1.2972048E1,4.889707E1,-1.4791626E2,5.167705E1,5.4214704E-1,-9.6735985E1,4.0730957E1,-3.0802004E1],"split_indices":[1,1,1,1,0,0,0,0,0,0,0,0,0,1,1,1,1,0,0,1,1,0,1,1,0,0,0,1,0,0,0,0,0,0,0,0,0,0,0,0,0,0,0,0,0],"split_type":[0,0,0,0,0,0,0,0,0,0,0,0,0,0,0,0,0,0,0,0,0,0,0,0,0,0,0,0,0,0,0,0,0,0,0,0,0,0,0,0,0,0,0,0,0],"sum_hessian":[4.4E2,6.1E1,3.79E2,5.8E1,3E0,4E0,3.75E2,5.7E1,1E0,2E0,1E0,2E0,2E0,3.65E2,1E1,9E0,4.8E1,1E0,1E0,8E0,3.57E2,6E0,4E0,6E0,3E0,2.9E1,1.9E1,4E0,4E0,2E0,3.55E2,1E0,3E0,3E0,3E0,2.2E1,7E0,1.8E1,1E0,1E0,3E0,3.49E2,6E0,2E0,1E0],"tree_param":{"num_deleted":"0","num_feature":"2","num_nodes":"45","size_leaf_vector":"0"}},{"base_weights":[1.591176E-1,-6.4033995E0,2.1756536E1,2.4693099E-1,-4.506949E2,4.7661572E2,8.0304575E0,-3.4975917E0,4.1580664E2,2.1242352E1,-1.1432202E2,-1.0235354E0,-4.1244214E2,6.8814185E2,-6.4431885E1,4.1377164E2,-6.0727987E0,-3.8843536E2,1.3315942E2,-4.480784E0,5.7166284E2,4.8981677E2,1.7445427E2,-2.2880919E2,1.9379105E1,-1.2986931E2,-5.1752295E2,-1.2375977E1,2.8282016E2,1.4118779E0,-3.2390195E2,-8.869154E1,-4.7948062E2,1.4297498E2,-1.1822662E1,1.9306314E1,-5.3711426E1],"categories":[],"categories_nodes":[],"categories_segments":[],"categories_sizes":[],"default_left":[1,1,1,1,0,0,1,1,1,1,1,1,0,0,0,1,1,1,1,1,0,0,0,1,1,0,0,1,0,0,0,0,0,0,0,0,0],"id":26,"left_children":[1,3,5,7,-1,-1,9,11,13,15,17,19,-1,-1,-1,21,23,25,27,29,-1,-1,-1,31,33,-1,-1,35,-1,-1,-1,-1,-1,-1,-1,-1,-1],"loss_changes":[6.2643766E4,1.00174956E6,6.392462E5,5.227387E5,0E0,0E0,1.6569578E5,3.3649122E5,4.366958E5,9.889364E5,7.301035E5,6.598946E5,0E0,0E0,0E0,2.3742938E4,4.976428E5,9.9678E4,1.3418577E5,6.2347906E5,0E0,0E0,0E0,2.7358553E5,3.063467E5,0E0,0E0,6.275377E3,0E0,0E0,0E0,0E0,0E0,0E0,0E0,0E0,0E0],"parents":[2147483647,0,0,1,1,2,2,3,3,6,6,7,7,8,8,9,9,10,10,11,11,15,15,16,16,17,17,18,18,19,19,23,23,24,24,27,27],"right_children":[2,4,6,8,-1,-1,10,12,14,16,18,20,-1,-1,-1,22,24,26,28,30,-1,-1,-1,32,34,-1,-1,36,-1,-1,-1,-1,-1,-1,-1,-1,-1],"split_conditions":[6.48933E2,6.2527985E2,6.511123E2,6.024127E2,-1.3520847E2,1.4298473E2,4.9440876E1,5.999278E2,6.113932E2,6.623755E2,6.6229407E2,5.7812915E2,-1.2373264E2,2.0644257E2,-1.9329567E1,4.8219994E1,6.8978735E2,6.578523E2,6.7649225E2,5.092566E2,1.7149886E2,1.4694504E2,5.2336285E1,6.8368933E2,8.1160455E2,-3.8960793E1,-1.552569E2,6.710277E2,8.4846054E1,4.235634E-1,-9.7170586E1,-2.6607464E1,-1.438442E2,4.2892494E1,-3.546799E0,5.7918944E0,-1.6113428E1],"split_indices":[0,0,0,0,0,0,1,0,0,0,0,0,0,0,0,1,0,0,0,0,0,0,0,0,0,0,0,0,0,0,0,0,0,0,0,0,0],"split_type":[0,0,0,0,0,0,0,0,0,0,0,0,0,0,0,0,0,0,0,0,0,0,0,0,0,0,0,0,0,0,0,0,0,0,0,0,0],"sum_hessian":[4.4E2,3.38E2,1.02E2,3.34E2,4E0,2E0,1E2,3.32E2,2E0,9.1E1,9E0,3.31E2,1E0,1E0,1E0,5E0,8.6E1,4E0,5E0,3.3E2,1E0,3E0,2E0,8E0,7.8E1,2E0,2E0,3E0,2E0,3.25E2,5E0,6E0,2E0,1.5E1,6.3E1,2E0,1E0],"tree_param":{"num_deleted":"0","num_feature":"2","num_nodes":"37","size_leaf_vector":"0"}},{"base_weights":[3.254336E-1,8.249381E0,-1.1766106E1,-3.9351032E0,3.108847E1,7.4121037E0,-2.7732693E2,2.0922575E1,3.2909116E2,1.2106326E0,5.2462964E2,-1.09024826E2,-4.6538815E2,3.0804203E1,-2.7920657E2,-6.538491E1,1.1169077E1,-4.818069E2,1.04622406E2,3.3697827E2,1.2431561E1,-1.8655743E1,-2.2053294E2,5.6366187E2,3.5241826E0,-1.6433746E2,2.4905486E2,-2.1814412E2,2.6511152E1],"categories":[],"categories_nodes":[],"categories_segments":[],"categories_sizes":[],"default_left":[1,1,0,1,1,1,1,1,0,1,0,1,0,1,0,1,1,0,1,0,1,0,0,0,0,0,0,0,0],"id":27,"left_children":[1,3,-1,5,7,9,11,13,-1,15,-1,17,-1,19,-1,21,23,-1,25,-1,27,-1,-1,-1,-1,-1,-1,-1,-1],"loss_changes":[4.2350477E4,7.442377E4,0E0,5.449465E5,2.7485472E5,5.41434E5,1.7081881E5,2.7848534E5,0E0,1.1214589E5,0E0,4.4862706E5,0E0,4.96456E5,0E0,1.5538444E5,6.189047E5,0E0,1.9631517E5,0E0,2.8172822E5,0E0,0E0,0E0,0E0,0E0,0E0,0E0,0E0],"parents":[2147483647,0,0,1,1,3,3,4,4,5,5,6,6,7,7,9,9,11,11,13,13,15,15,16,16,18,18,20,20],"right_children":[2,4,-1,6,8,10,12,14,-1,16,-1,18,-1,20,-1,22,24,-1,26,-1,28,-1,-1,-1,-1,-1,-1,-1,-1],"split_conditions":[9.711427E1,7.151692E1,-3.529832E0,7.096454E1,2.766129E2,7.086458E1,2.637169E2,2.7146228E2,9.872735E1,3.893887E2,1.573889E2,7.1043274E1,-1.3961646E2,7.21261E1,-8.376198E1,3.6003415E2,3.923572E2,-1.4454207E2,1.375938E2,1.0109348E2,7.271002E1,-5.596723E0,-6.615989E1,1.6909857E2,1.0572548E0,-4.9301243E1,7.471646E1,-6.544324E1,7.953346E0],"split_indices":[1,1,0,1,0,1,0,0,0,0,0,1,0,1,0,0,0,0,0,0,1,0,0,0,0,0,0,0,0],"split_type":[0,0,0,0,0,0,0,0,0,0,0,0,0,0,0,0,0,0,0,0,0,0,0,0,0,0,0,0,0],"sum_hessian":[4.4E2,2.66E2,1.74E2,1.74E2,9.2E1,1.68E2,6E0,9E1,2E0,1.67E2,1E0,4E0,2E0,8.8E1,2E0,2.1E1,1.46E2,1E0,3E0,4E0,8.4E1,1.7E1,4E0,1E0,1.45E2,1E0,2E0,4E0,8E1],"tree_param":{"num_deleted":"0","num_feature":"2","num_nodes":"29","size_leaf_vector":"0"}},{"base_weights":[3.4589684E-1,5.661015E1,-1.2250727E0,1.4141028E2,1.2631185E1,-6.2617554E1,5.361083E-1,-1.1532532E1,1.0297046E2,-1.3128839E2,5.9779297E1,-2.7477052E0,4.3207813E1,1.5800944E1,-2.3277182E1,-8.524048E0,-2.0324219E2,7.249154E1,2.7140625E1,-1.6936444E-1,-3.352972E2,1.22535515E2,-2.5828125E0,2.011621E1,3.585205E0,-3.558203E1,-8.229248E0,-1.0267106E2,1.369585E2,7.293429E1,-4.131163E0,-4.226648E2,-8.0281006E1,2.2043181E2,7.628836E1,-1.0812123E2,5.0370884E1,2.0572266E1,-2.4687174E1,-7.3062256E1,2.2623706E2,-2.5413095E2,-6.9519013E-1,1.3344133E2,-8.249805E1,-1.5965987E2,1.3816895E1,1.0600596E2,-7.0973434E1],"categories":[],"categories_nodes":[],"categories_segments":[],"categories_sizes":[],"default_left":[1,1,1,0,1,1,1,1,0,1,1,1,1,1,1,1,0,0,0,1,1,1,1,0,0,0,1,0,0,1,1,0,0,0,1,1,1,0,0,0,0,0,0,0,0,0,0,0,0],"id":28,"left_children":[1,3,5,-1,7,9,11,13,-1,15,17,19,21,23,25,27,-1,-1,-1,29,31,33,35,-1,-1,-1,37,-1,-1,39,41,-1,-1,-1,43,45,47,-1,-1,-1,-1,-1,-1,-1,-1,-1,-1,-1,-1],"loss_changes":[3.9049086E4,4.2966887E4,4.652658E4,0E0,2.0833902E4,1.0870947E5,5.8831477E4,2.935978E3,0E0,6.893444E4,1.0708789E2,3.343393E5,1.0929044E5,8.602179E1,8.181621E2,6.884866E4,0E0,0E0,0E0,1.1267462E5,3.29085E4,3.2985297E4,1.1721916E5,0E0,0E0,0E0,2.4039238E3,0E0,0E0,4.641629E5,3.167916E5,0E0,0E0,0E0,9.26847E4,4.6197664E4,1.020376E5,0E0,0E0,0E0,0E0,0E0,0E0,0E0,0E0,0E0,0E0,0E0,0E0],"parents":[2147483647,0,0,1,1,2,2,4,4,5,5,6,6,7,7,9,9,10,10,11,11,12,12,13,13,14,14,15,15,19,19,20,20,21,21,22,22,26,26,29,29,30,30,34,34,35,35,36,36],"right_children":[2,4,6,-1,8,10,12,14,-1,16,18,20,22,24,26,28,-1,-1,-1,30,32,34,36,-1,-1,-1,38,-1,-1,40,42,-1,-1,-1,44,46,48,-1,-1,-1,-1,-1,-1,-1,-1,-1,-1,-1,-1],"split_conditions":[2.8175007E1,7.056011E2,2.9425535E1,4.2423084E1,2.7787994E1,9.4218506E2,8.453559E2,2.5485222E1,3.0891138E1,8.223526E2,2.872137E1,8.419706E2,9.067208E2,7.782175E2,9.2049255E2,7.8924084E2,-6.097266E1,2.1747463E1,8.142188E0,3.8632683E1,8.438513E2,8.497468E2,9.13151E2,6.0348635E0,1.0755615E0,-1.067461E1,9.413982E2,-3.080132E1,4.108755E1,7.1068066E2,3.9320297E1,-1.26799446E2,-2.4084303E1,6.612955E1,3.348219E1,3.2569214E1,3.209288E1,6.17168E0,-7.4061522E0,-2.1918678E1,6.7871124E1,-7.623929E1,-2.0855705E-1,4.0032402E1,-2.4749414E1,-4.789796E1,4.1450686E0,3.1801788E1,-2.129203E1],"split_indices":[1,0,1,0,1,0,0,1,0,0,1,0,0,0,0,0,0,0,0,1,0,0,0,0,0,0,0,0,0,0,1,0,0,0,1,1,1,0,0,0,0,0,0,0,0,0,0,0,0],"split_type":[0,0,0,0,0,0,0,0,0,0,0,0,0,0,0,0,0,0,0,0,0,0,0,0,0,0,0,0,0,0,0,0,0,0,0,0,0,0,0,0,0,0,0,0,0,0,0,0,0],"sum_hessian":[4.4E2,1.1E1,4.29E2,3E0,8E0,1.1E1,4.18E2,7E0,1E0,7E0,4E0,3.89E2,2.9E1,2E0,5E0,3E0,4E0,2E0,2E0,3.87E2,2E0,1E1,1.9E1,1E0,1E0,2E0,3E0,2E0,1E0,1.9E1,3.68E2,1E0,1E0,2E0,8E0,6E0,1.3E1,1E0,2E0,1E1,9E0,4E0,3.64E2,6E0,2E0,4E0,2E0,9E0,4E0],"tree_param":{"num_deleted":"0","num_feature":"2","num_nodes":"49","size_leaf_vector":"0"}},{"base_weights":[4.825966E-2,1.6837198E1,-3.718921E0,1.4053167E0,4.1759766E2,2.0606287E0,-1.719792E2,1.3111348E1,-1.0412463E2,-3.0392072E0,1.9562543E2,-2.598097E2,6.8634155E1,-2.3751078E0,2.2110489E2,-3.2094647E2,1.9293384E2,-2.1213095E2,-5.630829E-1,2.3159839E2,-4.60791E1,-4.1074918E2,-1.5800565E2,1.4879427E2,-8.5923096E1,7.6414776E0,-3.3674316E2,3.519743E1,3.333107E2,6.453833E1,-3.2586682E2,4.1701074E2,-3.032268E0,8.416931E1,3.03222E2,-2.0014551E2,4.7416748E1,-1.49946E0,3.0547168E2,1.3822363E2,-8.542749E1,1.6884888E0,-1.9797455E2,3.822744E2,-1.4262386E2,-3.14688E2,-1.14299416E2],"categories":[],"categories_nodes":[],"categories_segments":[],"categories_sizes":[],"default_left":[1,1,1,1,0,1,1,1,1,1,1,1,1,1,1,0,0,1,1,1,0,0,1,0,0,1,0,1,0,0,0,0,1,1,0,1,0,0,0,0,0,0,0,0,0,0,0],"id":29,"left_children":[1,3,5,7,-1,9,11,13,15,17,19,21,23,25,27,-1,-1,29,31,33,-1,-1,35,-1,-1,37,-1,39,-1,-1,-1,-1,41,43,-1,45,-1,-1,-1,-1,-1,-1,-1,-1,-1,-1,-1],"loss_changes":[2.7954527E4,5.0035666E5,3.5141556E5,9.8956836E4,0E0,3.4609662E5,2.7143003E5,2.324431E5,5.771916E5,1.7694666E5,8.892525E4,7.33955E4,6.2342168E4,2.3032061E5,9.256781E4,0E0,0E0,1.4689981E5,3.5079622E5,5.895322E4,0E0,0E0,7.008556E4,0E0,0E0,1.82862E5,0E0,4.909068E4,0E0,0E0,0E0,0E0,3.1138728E5,3.2495425E5,0E0,2.3029484E4,0E0,0E0,0E0,0E0,0E0,0E0,0E0,0E0,0E0,0E0,0E0],"parents":[2147483647,0,0,1,1,2,2,3,3,5,5,6,6,7,7,8,8,9,9,10,10,11,11,12,12,13,13,14,14,17,17,18,18,19,19,22,22,25,25,27,27,32,32,33,33,35,35],"right_children":[2,4,6,8,-1,10,12,14,16,18,20,22,24,26,28,-1,-1,30,32,34,-1,-1,36,-1,-1,38,-1,40,-1,-1,-1,-1,42,44,-1,46,-1,-1,-1,-1,-1,-1,-1,-1,-1,-1,-1],"split_conditions":[3.9896336E1,3.960679E1,6.991211E2,3.8632683E1,1.25279305E2,6.702092E2,8.254713E2,3.808516E1,8.245016E2,4.740534E1,5.058468E1,4.0556984E1,8.3184143E2,3.7965183E1,6.6154675E2,-9.628394E1,5.7880154E1,4.7100204E1,4.7530434E1,4.87922E1,-1.3823731E1,-1.23224754E2,8.1595966E2,4.4638283E1,-2.577693E1,3.7816563E1,-1.0102296E2,4.796117E2,9.999322E1,1.93615E1,-9.776005E1,1.25103226E2,6.565365E2,6.776896E2,9.09666E1,7.2072314E2,1.4225025E1,-4.49838E-1,9.164151E1,4.146709E1,-2.5628248E1,5.065467E-1,-5.939237E1,1.1468233E2,-4.278716E1,-9.44064E1,-3.4289825E1],"split_indices":[1,1,0,1,0,0,0,1,0,1,1,1,0,1,0,0,0,1,1,1,0,0,0,0,0,1,0,0,0,0,0,0,0,0,0,0,0,0,0,0,0,0,0,0,0,0,0],"split_type":[0,0,0,0,0,0,0,0,0,0,0,0,0,0,0,0,0,0,0,0,0,0,0,0,0,0,0,0,0,0,0,0,0,0,0,0,0,0,0,0,0,0,0,0,0,0,0],"sum_hessian":[4.4E2,8E1,3.6E2,7.8E1,2E0,3.49E2,1.1E1,7.1E1,7E0,3.41E2,8E0,8E0,3E0,6.7E1,4E0,4E0,3E0,3E0,3.38E2,7E0,1E0,2E0,6E0,2E0,1E0,6.6E1,1E0,2E0,2E0,1E0,2E0,1E0,3.37E2,3E0,4E0,5E0,1E0,6.5E1,1E0,1E0,1E0,3.3E2,7E0,1E0,2E0,1E0,4E0],"tree_param":{"num_deleted":"0","num_feature":"2","num_nodes":"47","size_leaf_vector":"0"}},{"base_weights":[2.852789E-1,-7.8596997E0,8.28288E0,-5.127512E0,-4.4675613E1,6.6169894E-1,1.5510367E2,-7.8348665E0,7.2571205E1,-6.9488625E1,-6.3909464E0,6.3468447E0,-1.675507E2,2.804881E2,4.3385693E1,-7.417286E1,-5.74279E0,4.1084587E1,1.3074547E2,-1.03901566E2,-2.1177952E1,3.3098114E1,-2.8806194E1,3.4792328E0,2.985374E2,1.458949E2,-6.341098E2,-5.4977047E1,1.3090201E2,5.0987984E1,-8.139065E0,-4.6939224E1,9.68313E1,-2.8831415E1,-1.1546125E2,-1.323622E1,6.2883392E1,7.135531E0,-1.4493106E2,1.8100717E2,2.7229004E0,1.9228027E1,1.6171733E2,1.1004365E2,1.2962153E1,-9.797029E1,-7.1293797E0,-1.1768177E1,-5.864066E1,9.156852E-1,4.1941342E2,5.724638E1,-2.9879816E2],"categories":[],"categories_nodes":[],"categories_segments":[],"categories_sizes":[],"default_left":[1,1,1,1,1,1,1,1,1,1,1,1,1,0,1,0,1,1,0,1,0,1,0,1,0,1,0,0,1,1,1,1,0,0,0,0,0,1,1,0,0,0,0,0,0,0,0,0,0,0,0,0,0],"id":30,"left_children":[1,3,5,7,9,11,13,15,17,19,21,23,25,-1,27,-1,29,31,-1,33,-1,35,-1,37,-1,39,-1,-1,41,43,45,47,-1,-1,-1,-1,-1,49,51,-1,-1,-1,-1,-1,-1,-1,-1,-1,-1,-1,-1,-1,-1],"loss_changes":[2.8791969E4,2.1799691E4,2.4942272E5,4.369197E4,1.3805268E4,2.0475786E5,1.4191547E5,2.7192086E4,7.4503516E3,1.27621875E4,7.1495303E3,1.7240434E5,1.1161998E6,0E0,6.745502E4,0E0,2.6787844E4,3.3987414E4,0E0,1.01002734E3,0E0,4.972581E3,0E0,1.12816414E5,0E0,2.464261E4,0E0,0E0,1.065557E4,1.6538727E4,1.6262676E4,5.4456104E2,0E0,0E0,0E0,0E0,0E0,5.176055E5,1.7264738E5,0E0,0E0,0E0,0E0,0E0,0E0,0E0,0E0,0E0,0E0,0E0,0E0,0E0,0E0],"parents":[2147483647,0,0,1,1,2,2,3,3,4,4,5,5,6,6,7,7,8,8,9,9,10,10,11,11,12,12,14,14,16,16,17,17,19,19,21,21,23,23,25,25,28,28,29,29,30,30,31,31,37,37,38,38],"right_children":[2,4,6,8,10,12,14,16,18,20,22,24,26,-1,28,-1,30,32,-1,34,-1,36,-1,38,-1,40,-1,-1,42,44,46,48,-1,-1,-1,-1,-1,50,52,-1,-1,-1,-1,-1,-1,-1,-1,-1,-1,-1,-1,-1,-1],"split_conditions":[4.9282898E1,1.057755E1,8.4285164E1,2.2375E-1,3.7025948E1,8.359125E1,8.4788445E1,9.505615E1,7.5959E0,8.4923065E1,4.2284798E1,8.346872E1,6.676255E1,8.414643E1,5.734675E1,-2.2251858E1,9.580377E1,9.4111984E1,3.922364E1,1.708895E1,-6.353386E0,3.9565247E1,-8.641859E0,8.296807E1,8.9561226E1,8.411847E1,-1.9023294E2,-1.6493114E1,8.495721E1,9.85E-3,9.589339E1,3.1206E0,2.904939E1,-8.649425E0,-3.463838E1,-3.9708662E0,1.8865019E1,7.911986E1,7.0750946E1,5.4302155E1,8.1687015E-1,5.7684083E0,4.85152E1,3.3013096E1,3.8886461E0,-2.9391088E1,-2.138814E0,-3.5304532E0,-1.75922E1,2.7470556E-1,1.2582403E2,1.7173914E1,-8.963945E1],"split_indices":[0,0,1,0,0,1,1,1,0,1,0,1,0,0,0,0,1,1,0,0,0,0,0,1,0,1,0,0,1,0,1,0,0,0,0,0,0,1,0,0,0,0,0,0,0,0,0,0,0,0,0,0,0],"split_type":[0,0,0,0,0,0,0,0,0,0,0,0,0,0,0,0,0,0,0,0,0,0,0,0,0,0,0,0,0,0,0,0,0,0,0,0,0,0,0,0,0,0,0,0,0,0,0,0,0,0,0,0,0],"sum_hessian":[4.4E2,2.18E2,2.22E2,2.04E2,1.4E1,2.12E2,1E1,1.98E2,6E0,8E0,6E0,2.06E2,6E0,4E0,6E0,5E0,1.93E2,5E0,1E0,4E0,4E0,2E0,4E0,2.05E2,1E0,4E0,2E0,3E0,3E0,7E0,1.86E2,2E0,3E0,1E0,3E0,1E0,1E0,2.01E2,4E0,3E0,1E0,1E0,2E0,2E0,5E0,1E0,1.85E2,1E0,1E0,1.99E2,2E0,2E0,2E0],"tree_param":{"num_deleted":"0","num_feature":"2","num_nodes":"53","size_leaf_vector":"0"}},{"base_weights":[4.647564E-1,-5.3215356E0,1.05609255E1,-8.031999E-1,-4.237529E2,2.5898413E2,4.2048893E0,-4.455656E0,1.2348071E2,1.1425958E1,-3.7269232E2,4.0092885E-1,-2.1983109E2,1.5697214E2,-5.54796E1,3.0023541E0,4.4002896E2,-5.0943546E0,2.0523923E2,-3.6193176E2,4.2913513E1,-5.4569336E1,2.0132393E2,8.478697E0,-1.618884E2,-1.147665E0,-1.4813885E2,3.9330038E2,-1.7660913E2,5.8422035E1,5.9482346E0,2.5402637E2,1.11466125E2,-9.005053E0,1.3719315E2],"categories":[],"categories_nodes":[],"categories_segments":[],"categories_sizes":[],"default_left":[1,1,1,1,0,0,1,1,1,1,0,1,1,1,0,1,0,1,1,0,1,0,1,1,0,0,0,0,0,0,0,0,0,0,0],"id":31,"left_children":[1,3,5,7,-1,-1,9,11,13,15,-1,17,19,21,-1,23,-1,25,27,-1,29,-1,31,33,-1,-1,-1,-1,-1,-1,-1,-1,-1,-1,-1],"loss_changes":[2.5819148E4,5.30922E5,2.531279E5,1.2719989E5,0E0,0E0,4.3427128E5,2.8459716E5,5.665782E4,5.618985E5,0E0,3.0159266E5,2.395489E5,7.666183E4,0E0,1.4043434E5,0E0,1.4717812E5,5.721364E5,0E0,1.3723228E3,0E0,9.9015625E1,3.387971E5,0E0,0E0,0E0,0E0,0E0,0E0,0E0,0E0,0E0,0E0,0E0],"parents":[2147483647,0,0,1,1,2,2,3,3,6,6,7,7,8,8,9,9,11,11,12,12,13,13,15,15,17,17,18,18,20,20,22,22,23,23],"right_children":[2,4,6,8,-1,-1,10,12,14,16,-1,18,20,22,-1,24,-1,26,28,-1,30,-1,32,34,-1,-1,-1,-1,-1,-1,-1,-1,-1,-1,-1],"split_conditions":[2.7586066E2,2.7201013E2,2.8316064E2,2.5413385E2,-1.2712588E2,7.7695244E1,7.108085E1,2.4303156E2,2.7146228E2,6.721677E1,-1.118077E2,2.2427385E2,7.360846E1,5.0092495E1,-1.664388E1,6.2793243E1,1.320087E2,1.9780695E2,7.3641365E1,-1.0857954E2,2.4933356E2,-1.6370802E1,7.2318375E1,5.9998768E1,-4.856652E1,-3.4429953E-1,-4.4441658E1,1.1799012E2,-5.2982742E1,1.7526611E1,1.7844704E0,7.620792E1,3.343984E1,-2.701516E0,4.1157944E1],"split_indices":[0,0,0,0,0,0,1,0,0,1,0,0,1,1,0,1,0,0,1,0,0,0,1,1,0,0,0,0,0,0,0,0,0,0,0],"split_type":[0,0,0,0,0,0,0,0,0,0,0,0,0,0,0,0,0,0,0,0,0,0,0,0,0,0,0,0,0,0,0,0,0,0,0],"sum_hessian":[4.4E2,2.8E2,1.6E2,2.78E2,2E0,3E0,1.57E2,2.71E2,7E0,1.55E2,2E0,2.66E2,5E0,6E0,1E0,1.53E2,2E0,2.6E2,6E0,3E0,2E0,1E0,5E0,1.49E2,4E0,2.54E2,6E0,4E0,2E0,1E0,1E0,2E0,3E0,1.32E2,1.7E1],"tree_param":{"num_deleted":"0","num_feature":"2","num_nodes":"35","size_leaf_vector":"0"}},{"base_weights":[2.533245E-1,-4.40788E0,1.559211E1,6.3905096E-1,-3.4167065E2,3.82007E2,4.554122E0,-4.5487866E0,2.8586362E2,-1.2836719E2,-4.410839E2,1.02068085E2,-4.9316826E0,4.976591E-1,-3.326673E2,-1.06722496E2,5.0883728E2,3.167416E2,-2.4545923E2,-2.6911896E2,9.965711E0,-3.7475157E0,1.6971179E2,-4.945631E2,-1.6855255E2,1.40823E2,-3.0090674E2,7.146038E2,-5.42312E1,-8.3214516E1,-3.6609668E2,-3.547633E2,3.6729248E1,-6.594624E0,1.5790143E2,1.5541674E0,-2.4027312E2,-7.8289795E1,3.3417072E2,-3.5433585E2,1.9439868E2,-1.00809814E2,-2.4011963E1,-1.8528467E2,7.599256E0,3.2614673E2,9.610242E1],"categories":[],"categories_nodes":[],"categories_segments":[],"categories_sizes":[],"default_left":[1,1,1,1,1,0,1,1,1,0,0,1,1,1,1,1,1,0,1,1,1,1,1,0,1,0,0,0,0,1,0,0,0,1,1,0,0,0,0,0,0,0,0,0,0,0,0],"id":32,"left_children":[1,3,5,7,9,-1,11,13,15,-1,-1,17,19,21,23,25,27,-1,29,31,33,35,37,-1,39,-1,-1,-1,-1,41,-1,-1,-1,43,45,-1,-1,-1,-1,-1,-1,-1,-1,-1,-1,-1,-1],"loss_changes":[3.1598998E4,5.7724444E5,4.1484206E5,4.9699938E5,4.9405312E4,0E0,9.39282E4,5.465902E5,5.795226E5,0E0,0E0,7.491914E5,3.687022E5,2.34816E5,4.9487562E4,1.8658289E5,5.021965E5,0E0,4.7826594E4,1.4400103E5,2.1907928E5,4.0039425E5,3.5245075E5,0E0,3.3860356E5,0E0,0E0,0E0,0E0,7.0441797E2,0E0,0E0,0E0,2.0684875E5,6.2233047E4,0E0,0E0,0E0,0E0,0E0,0E0,0E0,0E0,0E0,0E0,0E0,0E0],"parents":[2147483647,0,0,1,1,2,2,3,3,4,4,6,6,7,7,8,8,11,11,12,12,13,13,14,14,15,15,16,16,18,18,19,19,20,20,21,21,22,22,24,24,29,29,33,33,34,34],"right_children":[2,4,6,8,10,-1,12,14,16,-1,-1,18,20,22,24,26,28,-1,30,32,34,36,38,-1,40,-1,-1,-1,-1,42,-1,-1,-1,44,46,-1,-1,-1,-1,-1,-1,-1,-1,-1,-1,-1,-1],"split_conditions":[6.48933E2,6.2527985E2,6.511123E2,5.4441095E2,6.4379626E2,1.14602104E2,6.608008E2,5.092566E2,4.7498108E1,-3.851016E1,-1.3232518E2,4.937845E1,6.672495E2,4.759139E2,5.1194812E2,5.798812E2,6.113932E2,9.5022484E1,6.578523E2,5.0339523E1,4.8035202E1,4.63464E2,6.026043E1,-1.4836894E2,5.4361176E1,4.2246902E1,-9.0272026E1,2.1438115E2,-1.6269361E1,6.540478E2,-1.0982901E2,-1.0642899E2,1.1018775E1,7.1593713E2,4.829622E1,4.6625024E-1,-7.208194E1,-2.3486938E1,1.0025122E2,-1.0630076E2,5.8319607E1,-3.0242945E1,-7.203589E0,-5.5585403E1,2.2797768E0,9.7844025E1,2.8830727E1],"split_indices":[0,0,0,0,0,0,0,0,1,0,0,1,0,0,0,0,0,0,0,1,1,0,1,0,1,0,0,0,0,0,0,0,0,0,1,0,0,0,0,0,0,0,0,0,0,0,0],"split_type":[0,0,0,0,0,0,0,0,0,0,0,0,0,0,0,0,0,0,0,0,0,0,0,0,0,0,0,0,0,0,0,0,0,0,0,0,0,0,0,0,0,0,0,0,0,0,0],"sum_hessian":[4.4E2,3.38E2,1.02E2,3.34E2,4E0,2E0,1E2,3.29E2,5E0,2E0,2E0,8E0,9.2E1,3.25E2,4E0,2E0,3E0,5E0,3E0,4E0,8.8E1,3.18E2,7E0,1E0,3E0,1E0,1E0,2E0,1E0,2E0,1E0,3E0,1E0,8E1,8E0,3.12E2,6E0,3E0,4E0,2E0,1E0,1E0,1E0,5E0,7.5E1,1E0,7E0],"tree_param":{"num_deleted":"0","num_feature":"2","num_nodes":"47","size_leaf_vector":"0"}},{"base_weights":[-2.1184596E-1,1.7341558E1,-4.1498346E0,5.090341E0,3.3417642E2,3.0253488E-1,-1.336648E2,7.154446E1,-6.711713E0,-5.3509765E0,8.483447E1,-2.0171729E2,5.2869507E1,2.6312916E1,1.984681E2,-1.9749297E2,8.297943E0,-2.1205222E2,4.610554E-1,2.9265518E2,2.2393473E1,-3.2850146E2,-1.1856445E2,1.1913346E2,-7.296118E1,2.9098577E0,1.18470215E2,9.029956E1,-2.92016E2,1.3439703E2,-9.545753E0,-5.638786E1,-3.925357E2,2.9697284E2,-2.328902E0,3.3327344E2,6.5091064E1,3.0560562E2,-3.21084E1,-1.5178442E2,4.0377686E1,6.6446045E1,-6.12083E1,-3.3830356E2,-7.657666E1,-4.624053E1,3.2659473E2,-1.5396072E2,1.0463082E1,-3.0213E2,2.900643E2,-3.280661E1,4.7826587E2,3.1359136E0,-2.4635153E2,8.116089E1,3.9025732E2,-7.985944E1,2.0143262E2,-2.3847876E2,-8.67498E1],"categories":[],"categories_nodes":[],"categories_segments":[],"categories_sizes":[],"default_left":[1,1,1,1,0,1,1,1,1,1,1,1,1,1,0,1,1,1,1,1,1,0,1,0,0,1,0,0,1,1,1,1,0,1,1,1,0,0,1,1,0,0,0,0,0,0,0,0,0,0,0,0,0,0,0,0,0,0,0,0,0],"id":33,"left_children":[1,3,5,7,-1,9,11,13,15,17,19,21,23,25,-1,27,29,31,33,35,37,-1,39,-1,-1,41,-1,-1,43,45,47,49,-1,51,53,55,-1,-1,57,59,-1,-1,-1,-1,-1,-1,-1,-1,-1,-1,-1,-1,-1,-1,-1,-1,-1,-1,-1,-1,-1],"loss_changes":[3.0556139E4,3.1270956E5,2.0821053E5,6.2439496E4,0E0,1.6771973E5,1.629942E5,6.3669145E4,1.9636094E5,3.953433E5,2.7893012E5,5.5933594E4,4.2044277E4,2.1222893E4,0E0,1.6238402E5,1.4528764E5,2.3071938E5,2.6624053E5,2.4523188E4,2.876532E5,0E0,4.3089094E4,0E0,0E0,4.0731457E4,0E0,0E0,1.39825E4,2.928469E5,1.663167E5,5.9846444E5,0E0,1.9505044E5,4.2617138E5,2.5791781E4,0E0,0E0,1.9451555E5,1.3140797E4,0E0,0E0,0E0,0E0,0E0,0E0,0E0,0E0,0E0,0E0,0E0,0E0,0E0,0E0,0E0,0E0,0E0,0E0,0E0,0E0,0E0],"parents":[2147483647,0,0,1,1,2,2,3,3,5,5,6,6,7,7,8,8,9,9,10,10,11,11,12,12,13,13,15,15,16,16,17,17,18,18,19,19,20,20,22,22,25,25,28,28,29,29,30,30,31,31,33,33,34,34,35,35,38,38,39,39],"right_children":[2,4,6,8,-1,10,12,14,16,18,20,22,24,26,-1,28,30,32,34,36,38,-1,40,-1,-1,42,-1,-1,44,46,48,50,-1,52,54,56,-1,-1,58,60,-1,-1,-1,-1,-1,-1,-1,-1,-1,-1,-1,-1,-1,-1,-1,-1,-1,-1,-1,-1,-1],"split_conditions":[3.9896336E1,3.960679E1,6.991211E2,6.634983E2,1.0025293E2,6.48933E2,8.254713E2,5.353804E2,7.068019E2,4.8625008E1,4.829622E1,4.0556984E1,8.3184143E2,3.8357224E1,5.9540432E1,3.2454094E1,8.121658E2,5.999278E2,4.8859833E1,6.776896E2,6.511123E2,-9.8550446E1,8.1595966E2,3.574004E1,-2.1888355E1,2.819985E2,3.5541065E1,2.7089869E1,3.881179E1,3.3463284E1,8.2213226E2,4.3950024E2,-1.1776072E2,4.9531E2,5.092566E2,6.57959E2,1.952732E1,9.168169E1,6.8978735E2,7.2072314E2,1.2113306E1,1.9933815E1,-1.8362492E1,-1.0149107E2,-2.2973E1,-1.3872159E1,9.7978424E1,-4.6188217E1,3.1389248E0,-9.063901E1,8.7019295E1,-9.841984E0,1.4347977E2,9.4077414E-1,-7.3905464E1,2.4348269E1,1.170772E2,-2.3957834E1,6.0429787E1,-7.154363E1,-2.6024942E1],"split_indices":[1,1,0,0,0,0,0,0,0,1,1,1,0,1,0,1,0,0,1,0,0,0,0,0,0,0,0,0,1,1,0,0,0,0,0,0,0,0,0,0,0,0,0,0,0,0,0,0,0,0,0,0,0,0,0,0,0,0,0,0,0],"split_type":[0,0,0,0,0,0,0,0,0,0,0,0,0,0,0,0,0,0,0,0,0,0,0,0,0,0,0,0,0,0,0,0,0,0,0,0,0,0,0,0,0,0,0,0,0,0,0,0,0,0,0,0,0,0,0,0,0,0,0,0,0],"sum_hessian":[4.4E2,8E1,3.6E2,7.8E1,2E0,3.49E2,1.1E1,1.1E1,6.7E1,3.28E2,2.1E1,8E0,3E0,9E0,2E0,4E0,6.3E1,8E0,3.2E2,4E0,1.7E1,2E0,6E0,2E0,1E0,8E0,1E0,1E0,3E0,7E0,5.6E1,5E0,3E0,2E0,3.18E2,3E0,1E0,2E0,1.5E1,5E0,1E0,4E0,4E0,2E0,1E0,4E0,3E0,6E0,5E1,3E0,2E0,1E0,1E0,3.12E2,6E0,1E0,2E0,1.3E1,2E0,1E0,4E0],"tree_param":{"num_deleted":"0","num_feature":"2","num_nodes":"61","size_leaf_vector":"0"}},{"base_weights":[3.0257937E-1,-4.2453585E0,1.1833729E1,-7.286493E-1,-5.577627E2,2.6274734E2,-8.105672E-1,-4.0043626E0,5.1556055E2,9.498462E1,3.2288257E2,-5.221726E2,7.9586315E0,6.2057424E-1,-4.8520468E2,1.9334497E2,1.4973903E0,-1.9958645E0,2.716512E2,-3.834259E2,8.178688E0,8.410231E-1,-4.407155E2,1.1460895E2,2.1923602E-1],"categories":[],"categories_nodes":[],"categories_segments":[],"categories_sizes":[],"default_left":[1,1,1,1,0,1,1,1,0,0,0,0,1,1,0,0,1,1,0,0,1,0,0,0,0],"id":34,"left_children":[1,3,5,7,-1,9,11,13,-1,-1,-1,-1,15,17,-1,-1,19,21,-1,-1,23,-1,-1,-1,-1],"loss_changes":[2.317758E4,6.166529E5,3.9679122E5,5.364886E5,0E0,2.9861844E4,5.5278706E5,7.013403E5,0E0,0E0,0E0,0E0,1.4225177E5,2.2250144E5,0E0,0E0,3.0146322E5,3.8744075E5,0E0,0E0,9.739442E4,0E0,0E0,0E0,0E0],"parents":[2147483647,0,0,1,1,2,2,3,3,5,5,6,6,7,7,12,12,13,13,16,16,17,17,20,20],"right_children":[2,4,6,8,-1,10,12,14,-1,-1,-1,-1,16,18,-1,-1,20,22,-1,-1,24,-1,-1,-1,-1],"split_conditions":[4.701854E2,4.6851447E2,4.9199945E2,4.665031E2,-1.6732881E2,4.759139E2,4.960825E2,4.63464E2,1.5466817E2,2.8495386E1,9.686478E1,-1.566518E2,5.092566E2,4.61828E2,-1.4556142E2,5.8003494E1,5.1194812E2,4.6051224E2,8.149537E1,-1.1502778E2,6.113932E2,2.5230694E-1,-1.3221466E2,3.4382687E1,6.5770805E-2],"split_indices":[0,0,0,0,0,0,0,0,0,0,0,0,0,0,0,0,0,0,0,0,0,0,0,0,0],"split_type":[0,0,0,0,0,0,0,0,0,0,0,0,0,0,0,0,0,0,0,0,0,0,0,0,0],"sum_hessian":[4.4E2,3.16E2,1.24E2,3.15E2,1E0,5E0,1.19E2,3.14E2,1E0,2E0,3E0,1E0,1.18E2,3.12E2,2E0,3E0,1.15E2,3.1E2,2E0,1E0,1.14E2,3.09E2,1E0,7E0,1.07E2],"tree_param":{"num_deleted":"0","num_feature":"2","num_nodes":"25","size_leaf_vector":"0"}},{"base_weights":[-3.835521E-1,4.2858765E1,-1.5894225E0,7.502936E1,-1.7185938E1,-3.3975014E1,4.9357703E-1,1.736263E1,9.135783E1,-2.6916992E1,-8.023926E0,-5.9232166E1,4.304185E1,-2.8101933E0,6.423167E1,2.4300781E1,1.7431641E0,1.6183105E1,-2.1487305E1,-1.1170009E1,-1.4689474E2,5.7783367E1,-2.2703613E1,-1.4058864E-1,-2.577223E2,1.260061E2,3.523978E1,-9.754032E1,4.7651314E1,-9.91062E1,-2.1681299E2,1.3814453E1,6.381426E1,-2.7068427E0,9.5851364E1,-1.0325016E2,-3.6056934E2,1.7167981E2,2.3105795E1,9.3611465E1,-1.4075954E1,7.14931E1,-7.1541504E1,-1.5264905E2,5.3196616E0,7.169409E1,1.614746E1,-8.31863E-1,-3.510371E2,1.9607039E2,-4.3581738E1,7.9930664E1,-4.5271973E1,-4.1607098E1,1.5602031E2,6.650814E1,-1.314331E2],"categories":[],"categories_nodes":[],"categories_segments":[],"categories_sizes":[],"default_left":[1,1,1,1,1,1,1,1,0,0,1,1,1,1,1,0,0,0,0,1,1,1,0,1,1,1,1,0,1,1,0,0,1,1,1,0,0,0,1,1,1,0,0,0,0,0,0,0,0,0,0,0,0,0,0,0,0],"id":35,"left_children":[1,3,5,7,9,11,13,15,-1,-1,17,19,21,23,25,-1,-1,-1,-1,27,29,31,-1,33,35,37,39,-1,41,43,-1,-1,45,47,49,-1,-1,-1,51,53,55,-1,-1,-1,-1,-1,-1,-1,-1,-1,-1,-1,-1,-1,-1,-1,-1],"loss_changes":[2.30639E4,2.4469535E4,2.9024213E4,5.94666E3,2.298003E2,5.3125355E4,8.546379E4,2.8275037E2,0E0,0E0,1.6513651E3,8.2624234E4,8.096204E3,2.6264238E5,3.1378719E4,0E0,0E0,0E0,0E0,7.577375E4,1.9015156E3,7.094707E2,0E0,9.460757E4,2.6319156E4,2.4232234E4,4.4497312E4,0E0,3.0690656E4,3.4359594E4,0E0,0E0,7.2035547E2,2.4397192E5,1.4828361E5,0E0,0E0,0E0,1.5275293E4,6.556339E4,9.3855445E4,0E0,0E0,0E0,0E0,0E0,0E0,0E0,0E0,0E0,0E0,0E0,0E0,0E0,0E0,0E0,0E0],"parents":[2147483647,0,0,1,1,2,2,3,3,4,4,5,5,6,6,7,7,10,10,11,11,12,12,13,13,14,14,19,19,20,20,21,21,23,23,24,24,25,25,26,26,28,28,29,29,32,32,33,33,34,34,38,38,39,39,40,40],"right_children":[2,4,6,8,10,12,14,16,-1,-1,18,20,22,24,26,-1,-1,-1,-1,28,30,32,-1,34,36,38,40,-1,42,44,-1,-1,46,48,50,-1,-1,-1,52,54,56,-1,-1,-1,-1,-1,-1,-1,-1,-1,-1,-1,-1,-1,-1,-1,-1],"split_conditions":[2.8175007E1,8.8205536E2,3.0998676E1,2.5312176E1,9.2049255E2,9.4218506E2,8.453559E2,7.782175E2,2.7407349E1,-8.075098E0,9.413982E2,9.0932635E2,3.001756E1,8.390432E2,8.951343E2,7.2902346E0,5.229492E-1,4.854932E0,-6.446192E0,2.9130356E1,9.3721924E2,9.450425E2,-6.8110843E0,8.2213226E2,3.7126457E1,3.7059998E1,3.209288E1,-2.9262098E1,3.0841835E1,9.1869415E2,-6.50439E1,4.144336E0,9.6462836E2,8.199552E2,4.018885E1,-3.097505E1,-1.0817081E2,5.1503944E1,8.491743E2,9.126661E2,9.210315E2,2.1447931E1,-2.1462452E1,-4.5794716E1,1.5958985E0,2.1508228E1,4.8442383E0,-2.4955891E-1,-1.05311134E2,5.8821117E1,-1.3074522E1,2.39792E1,-1.3581593E1,-1.248213E1,4.6806095E1,1.9952442E1,-3.942993E1],"split_indices":[1,0,1,1,0,0,0,0,0,0,0,0,1,0,0,0,0,0,0,1,0,0,0,0,1,1,1,0,1,0,0,0,0,0,1,0,0,0,0,0,0,0,0,0,0,0,0,0,0,0,0,0,0,0,0,0,0],"split_type":[0,0,0,0,0,0,0,0,0,0,0,0,0,0,0,0,0,0,0,0,0,0,0,0,0,0,0,0,0,0,0,0,0,0,0,0,0,0,0,0,0,0,0,0,0,0,0,0,0,0,0,0,0,0,0,0,0],"sum_hessian":[4.4E2,1.1E1,4.29E2,7E0,4E0,2.5E1,4.04E2,2E0,5E0,1E0,3E0,1.9E1,6E0,3.85E2,1.9E1,1E0,1E0,1E0,2E0,1.3E1,6E0,5E0,1E0,3.82E2,3E0,5E0,1.4E1,5E0,8E0,5E0,1E0,1E0,4E0,3.73E2,9E0,2E0,1E0,3E0,2E0,6E0,8E0,7E0,1E0,3E0,2E0,3E0,1E0,3.72E2,1E0,5E0,4E0,1E0,1E0,2E0,4E0,5E0,3E0],"tree_param":{"num_deleted":"0","num_feature":"2","num_nodes":"57","size_leaf_vector":"0"}},{"base_weights":[-7.480528E-1,-6.679741E0,5.405762E0,-4.691344E0,-9.3230934E1,-3.557326E-1,2.0807762E2,-6.6222997E0,1.378322E2,4.306263E0,-1.3750078E2,1.0440311E2,2.7695108E2,-4.5018735E0,-3.515997E1,2.2412482E2,-1.7376522E1,1.8567911E0,2.53224E2,1.12297806E2,-5.0799817E2,1.5811035E1,1.2866345E2,-6.6293497E0,5.6622368E1,-5.510481E1,-4.493752E0,-9.7673584E1,5.868843E0,4.439203E1,1.9196045E2,-5.6517536E1,-5.052244E0,2.9192455E1,1.1060092E2,-9.119322E1,-2.1861732E1,2.7423084E1,-2.2745104E1,4.7903484E1,-2.5522653E2,1.8949223E2,3.0283377E0,5.8001587E1,1.7816772E0],"categories":[],"categories_nodes":[],"categories_segments":[],"categories_sizes":[],"default_left":[1,1,1,1,0,1,1,1,1,1,1,1,0,1,1,0,0,1,0,1,0,0,0,1,1,1,1,1,1,1,0,0,0,0,0,0,0,0,0,0,0,0,0,0,0],"id":36,"left_children":[1,3,5,7,-1,9,11,13,15,17,19,21,-1,23,25,-1,-1,27,-1,29,-1,-1,-1,31,33,35,37,39,41,43,-1,-1,-1,-1,-1,-1,-1,-1,-1,-1,-1,-1,-1,-1,-1],"loss_changes":[1.6133715E4,3.8284703E4,2.5346336E5,6.1733426E4,0E0,1.3613848E5,1.3928016E4,1.3093847E4,4.4074617E4,1.25131516E5,7.048952E5,6.562797E3,0E0,2.7033648E4,8.926863E3,0E0,0E0,8.243404E4,0E0,1.8526254E4,0E0,0E0,0E0,1.5371569E4,7.1356777E3,8.803568E3,4.701419E3,1.9571503E5,1.02699625E5,2.2162915E3,0E0,0E0,0E0,0E0,0E0,0E0,0E0,0E0,0E0,0E0,0E0,0E0,0E0,0E0,0E0],"parents":[2147483647,0,0,1,1,2,2,3,3,5,5,6,6,7,7,8,8,9,9,10,10,11,11,13,13,14,14,17,17,19,19,23,23,24,24,25,25,26,26,27,27,28,28,29,29],"right_children":[2,4,6,8,-1,10,12,14,16,18,20,22,-1,24,26,-1,-1,28,-1,30,-1,-1,-1,32,34,36,38,40,42,44,-1,-1,-1,-1,-1,-1,-1,-1,-1,-1,-1,-1,-1,-1,-1],"split_conditions":[5.8895E1,5.12812E1,8.4285164E1,4.9282898E1,-2.7969282E1,8.359125E1,6.617315E1,1.057755E1,5.0748848E1,8.346872E1,6.676255E1,8.495721E1,8.308533E1,2.2375E-1,3.7025948E1,6.723745E1,-5.212957E0,9.478535E1,7.59672E1,6.390045E1,-1.5239946E2,4.743311E0,3.8599037E1,9.505615E1,7.5959E0,8.3658356E1,4.2284798E1,8.33846E1,1.0887695E2,6.273405E1,5.758814E1,-1.6955261E1,-1.5156733E0,8.757737E0,3.318028E1,-2.7357967E1,-6.55852E0,8.226926E0,-6.8235316E0,1.4371046E1,-7.656796E1,5.684767E1,9.085013E-1,1.7400476E1,5.345032E-1],"split_indices":[0,0,1,0,0,1,0,0,0,1,0,1,0,0,0,0,0,0,0,0,0,0,0,1,0,1,0,0,0,0,0,0,0,0,0,0,0,0,0,0,0,0,0,0,0],"split_type":[0,0,0,0,0,0,0,0,0,0,0,0,0,0,0,0,0,0,0,0,0,0,0,0,0,0,0,0,0,0,0,0,0,0,0,0,0,0,0,0,0,0,0,0,0],"sum_hessian":[4.4E2,2.24E2,2.16E2,2.2E2,4E0,2.11E2,5E0,2.18E2,2E0,2.05E2,6E0,3E0,2E0,2.04E2,1.4E1,1E0,1E0,2.04E2,1E0,4E0,2E0,1E0,2E0,1.98E2,6E0,8E0,6E0,7E0,1.97E2,3E0,1E0,5E0,1.93E2,5E0,1E0,3E0,5E0,2E0,4E0,4E0,3E0,2E0,1.95E2,2E0,1E0],"tree_param":{"num_deleted":"0","num_feature":"2","num_nodes":"45","size_leaf_vector":"0"}},{"base_weights":[-1.9238447E-1,-1.1204712E1,3.32556E0,-4.2575336E0,-2.5062105E2,3.8900488E2,1.0061463E0,9.04925E0,-4.720121E1,-2.8341248E1,-3.4759033E2,-1.9234267E0,1.9415674E2,-8.5553056E-1,2.6685873E2,4.202246E1,-1.3279402E2,4.050359E0,-8.574053E1,5.656006E1,2.144159E2,6.8102756E0,-6.9740845E1,-1.04663574E2,2.306001E2,-1.8526138E2,3.1572876E1,8.5385375E-2,2.0426729E2,-4.4417615E2,-4.7520927E1,-5.9407673E0,1.788624E2,-2.0050117E2,1.11144775E2,8.320884E1,-3.133382E2,2.5473418E2,5.4964844E1,-2.7459244E2,-1.2860455E2,7.940853E1,-5.596704E1,3.2172034E0,-4.7442773E2,1.1818325E2,3.1734375E2,1.4934802E2,-8.862953E1],"categories":[],"categories_nodes":[],"categories_segments":[],"categories_sizes":[],"default_left":[1,1,1,1,1,0,1,1,1,0,0,1,1,1,0,1,1,1,1,0,0,1,1,1,1,1,1,1,1,0,1,0,0,0,0,0,0,0,0,0,0,0,0,0,0,0,0,0,0],"id":37,"left_children":[1,3,5,7,9,-1,11,13,15,-1,-1,17,19,21,-1,23,25,27,29,-1,-1,31,33,35,37,39,41,43,45,-1,47,-1,-1,-1,-1,-1,-1,-1,-1,-1,-1,-1,-1,-1,-1,-1,-1,-1,-1],