{"learner":{"attributes":{"best_iteration":"99","best_ntree_limit":"100","scikit_learn":"{\"n_estimators\": 100, \"objective\": \"reg:squarederror\", \"max_depth\": null, \"max_leaves\": null, \"max_bin\": null, \"grow_policy\": null, \"learning_rate\": null, \"verbosity\": null, \"booster\": null, \"tree_method\": null, \"gamma\": null, \"min_child_weight\": null, \"max_delta_step\": null, \"subsample\": null, \"sampling_method\": null, \"colsample_bytree\": null, \"colsample_bylevel\": null, \"colsample_bynode\": null, \"reg_alpha\": null, \"reg_lambda\": null, \"scale_pos_weight\": null, \"base_score\": null, \"missing\": NaN, \"num_parallel_tree\": null, \"random_state\": null, \"n_jobs\": null, \"monotone_constraints\": null, \"interaction_constraints\": null, \"importance_type\": null, \"gpu_id\": null, \"validate_parameters\": null, \"predictor\": null, \"enable_categorical\": false, \"feature_types\": null, \"max_cat_to_onehot\": null, \"max_cat_threshold\": null, \"eval_metric\": null, \"early_stopping_rounds\": null, \"callbacks\": null, \"_estimator_type\": \"regressor\"}"},"feature_names":["GHI","SZA_30min_before"],"feature_types":["float","float"],"gradient_booster":{"model":{"gbtree_model_param":{"num_parallel_tree":"1","num_trees":"100","size_leaf_vector":"0"},"tree_info":[0,0,0,0,0,0,0,0,0,0,0,0,0,0,0,0,0,0,0,0,0,0,0,0,0,0,0,0,0,0,0,0,0,0,0,0,0,0,0,0,0,0,0,0,0,0,0,0,0,0,0,0,0,0,0,0,0,0,0,0,0,0,0,0,0,0,0,0,0,0,0,0,0,0,0,0,0,0,0,0,0,0,0,0,0,0,0,0,0,0,0,0,0,0,0,0,0,0,0,0],"trees":[{"base_weights":[-2.3681313E-1,1.8055427E-1,-4.5113716E-1,1.8233411E-2,3.223571E-1,-2.2447503E-1,-4.8225623E-1,-1.2882954E-1,9.138503E-2,2.6638648E-1,3.6665463E-1,-2.962201E-1,-1.409155E-1,-3.9509064E-1,-4.9523804E-1,1.1627718E-2,-2.2998671E-1,2.1126431E-1,6.5765046E-2,2.7104068E-1,4.4763833E-2,-2.968767E-1,-6.4009584E-2,-8.932475E-2,1.5063563E-1,4.5306206E-2,2.2850029E-1,2.6207376E-2,1.4895022E-1,-8.923199E-2,-3.3938784E-2,7.26465E-2,-1.284277E-1,1.747435E-1,2.7102053E-2,8.471935E-2,-3.4051757E-2,-1.9168094E-2,-9.7714625E-2,-4.132339E-2,-7.8566475E-3],"categories":[],"categories_nodes":[],"categories_segments":[],"categories_sizes":[],"default_left":[1,1,1,1,1,1,1,1,1,1,0,0,1,0,0,1,0,1,1,0,0,0,1,1,1,0,0,1,0,1,1,0,0,0,0,0,0,0,0,0,0],"id":0,"left_children":[1,3,5,7,9,11,13,15,17,19,-1,-1,21,-1,-1,23,-1,25,27,-1,-1,-1,29,31,33,-1,-1,35,-1,37,39,-1,-1,-1,-1,-1,-1,-1,-1,-1,-1],"loss_changes":[3.9440277E1,3.4467554E0,1.9443207E0,7.7558357E-1,1.0067749E-1,1.8007243E-1,9.288788E-2,3.436724E-1,1.335288E-1,2.809453E-2,0E0,0E0,2.0888945E-1,0E0,0E0,1.6782059E-1,0E0,1.25311315E-2,1.3101149E-1,0E0,0E0,0E0,7.5899847E-3,5.36647E-2,1.0154761E-2,0E0,0E0,1.0513539E-1,0E0,2.2872798E-3,1.2161871E-3,0E0,0E0,0E0,0E0,0E0,0E0,0E0,0E0,0E0,0E0],"parents":[2147483647,0,0,1,1,2,2,3,3,4,4,5,5,6,6,7,7,8,8,9,9,12,12,15,15,17,17,18,18,22,22,23,23,24,24,27,27,29,29,30,30],"right_children":[2,4,6,8,10,12,14,16,18,20,-1,-1,22,-1,-1,24,-1,26,28,-1,-1,-1,30,32,34,-1,-1,36,-1,38,40,-1,-1,-1,-1,-1,-1,-1,-1,-1,-1],"split_conditions":[3.3015126E-1,6.727798E-1,4.334542E-1,4.0065086E-1,8.394313E-1,4.1232565E-1,5.3859115E-1,2.0378903E-1,1.3385528E-1,8.373819E-1,1.0999639E-1,-8.886603E-2,1.9192201E-1,-1.185272E-1,-1.4857142E-1,2.452451E-1,-6.899602E-2,2.0596452E-2,3.0891407E-1,8.131221E-2,1.3429151E-2,-8.906301E-2,2.5673625E-1,1.3242324E-1,1.6630572E-1,1.3591862E-2,6.855009E-2,2.2813466E-1,4.4685066E-2,4.1370666E-1,2.9141328E-1,2.179395E-2,-3.8528312E-2,5.2423052E-2,8.1306165E-3,2.5415806E-2,-1.0215527E-2,-5.7504284E-3,-2.931439E-2,-1.2397017E-2,-2.3569944E-3],"split_indices":[1,0,1,0,0,1,1,1,1,0,0,0,0,0,0,0,0,1,1,0,0,0,0,0,1,0,0,1,0,1,0,0,0,0,0,0,0,0,0,0,0],"split_type":[0,0,0,0,0,0,0,0,0,0,0,0,0,0,0,0,0,0,0,0,0,0,0,0,0,0,0,0,0,0,0,0,0,0,0,0,0,0,0,0,0],"sum_hessian":[4.39E2,1.49E2,2.9E2,7E1,7.9E1,3.6E1,2.54E2,2.3E1,4.7E1,3.8E1,4.1E1,1.8E1,1.8E1,3.7E1,2.17E2,1E1,1.3E1,7E0,4E1,3.7E1,1E0,5E0,1.3E1,6E0,4E0,1E0,6E0,2.8E1,1.2E1,6E0,7E0,1E0,5E0,3E0,1E0,1.4E1,1.4E1,1E0,5E0,5E0,2E0],"tree_param":{"num_deleted":"0","num_feature":"2","num_nodes":"41","size_leaf_vector":"0"}},{"base_weights":[-1.6616294E-1,1.2853192E-1,-3.174965E-1,8.084061E-3,2.2307327E-1,-1.6328786E-1,-3.3862677E-1,-9.122971E-2,6.207148E-2,2.4656272E-1,1.4566837E-1,-2.1203123E-1,-1.0595041E-1,-3.467648E-1,-2.7337205E-1,1.21229775E-2,-1.6591899E-1,1.7342043E-1,4.6601076E-2,1.8721408E-1,8.710322E-2,-2.226575E-1,-4.8365194E-2,-3.2930052E-1,-1.843045E-1,-6.491794E-2,1.1755566E-1,3.8510263E-2,1.975204E-1,1.196447E-2,1.03531115E-1,2.04321E-1,-4.810542E-4,-7.539448E-2,-2.774404E-1,-6.764593E-2,-2.54489E-2,6.1749518E-2,-9.632077E-2,5.4457873E-2,1.8497342E-1,-9.1945566E-2,5.5086356E-2,1.0668122E-1,2.9714823E-2,8.53098E-2,2.2128905E-1,-1.2193486E-1,8.843139E-3,-1.6292885E-2,-7.3489286E-2,-6.6492036E-3,-3.539888E-2],"categories":[],"categories_nodes":[],"categories_segments":[],"categories_sizes":[],"default_left":[1,1,1,1,1,1,1,1,1,0,1,0,1,0,1,1,0,1,1,1,0,1,1,0,0,1,1,0,0,1,1,1,0,1,0,1,1,0,0,0,0,0,0,0,0,0,0,0,0,0,0,0,0],"id":1,"left_children":[1,3,5,7,9,11,13,15,17,-1,19,-1,21,-1,23,25,-1,27,29,31,-1,33,35,-1,-1,37,39,-1,-1,41,43,45,-1,47,-1,49,51,-1,-1,-1,-1,-1,-1,-1,-1,-1,-1,-1,-1,-1,-1,-1,-1],"loss_changes":[1.9663586E1,1.7062924E0,8.9292145E-1,3.6489627E-1,1.1681223E-1,8.0943525E-2,4.062271E-2,1.8727553E-1,6.771341E-2,0E0,3.722191E-2,0E0,1.169226E-1,0E0,1.0369468E-1,9.698041E-2,0E0,8.650094E-3,7.763584E-2,3.8628936E-2,0E0,2.7487487E-2,4.4642836E-3,0E0,0E0,3.379178E-2,1.11963E-2,0E0,0E0,1.21565655E-1,3.1791627E-4,3.335178E-3,0E0,1.283964E-2,0E0,9.0317056E-4,1.2610783E-3,0E0,0E0,0E0,0E0,0E0,0E0,0E0,0E0,0E0,0E0,0E0,0E0,0E0,0E0,0E0,0E0],"parents":[2147483647,0,0,1,1,2,2,3,3,4,4,5,5,6,6,7,7,8,8,10,10,12,12,14,14,15,15,17,17,18,18,19,19,21,21,22,22,25,25,26,26,29,29,30,30,31,31,33,33,35,35,36,36],"right_children":[2,4,6,8,10,12,14,16,18,-1,20,-1,22,-1,24,26,-1,28,30,32,-1,34,36,-1,-1,38,40,-1,-1,42,44,46,-1,48,-1,50,52,-1,-1,-1,-1,-1,-1,-1,-1,-1,-1,-1,-1,-1,-1,-1,-1],"split_conditions":[3.3015126E-1,6.483909E-1,4.334542E-1,4.0065086E-1,1.4680102E-1,4.1232565E-1,4.927627E-2,2.0378903E-1,9.3163416E-2,7.396882E-2,7.270175E-1,-6.360937E-2,1.9192201E-1,-1.0402945E-1,5.174236E-1,2.452451E-1,-4.97757E-2,2.0596452E-2,2.8453094E-1,2.4113218E-1,2.6130967E-2,4.2232722E-1,4.2362085E-1,-9.879016E-2,-5.5291355E-2,1.3242324E-1,3.435089E-1,1.1553079E-2,5.9256125E-2,5.48821E-1,5.351029E-1,6.713798E-1,-1.4431626E-4,1.4592926E-1,-8.323212E-2,4.1370666E-1,4.2800254E-1,1.8524855E-2,-2.8896233E-2,1.6337363E-2,5.549203E-2,-2.7583672E-2,1.6525907E-2,3.2004368E-2,8.914447E-3,2.5592942E-2,6.638672E-2,-3.658046E-2,2.6529417E-3,-4.887866E-3,-2.2046786E-2,-1.9947612E-3,-1.0619664E-2],"split_indices":[1,0,1,0,1,1,0,1,1,0,0,0,0,0,1,0,0,1,1,1,0,1,1,0,0,0,0,0,0,0,0,0,0,0,0,1,1,0,0,0,0,0,0,0,0,0,0,0,0,0,0,0,0],"split_type":[0,0,0,0,0,0,0,0,0,0,0,0,0,0,0,0,0,0,0,0,0,0,0,0,0,0,0,0,0,0,0,0,0,0,0,0,0,0,0,0,0,0,0,0,0,0,0,0,0,0,0,0,0],"sum_hessian":[4.39E2,1.49E2,2.9E2,6.6E1,8.3E1,3.6E1,2.54E2,2.3E1,4.3E1,6.2E1,2.1E1,1.8E1,1.8E1,2.22E2,3.2E1,1E1,1.3E1,4E0,3.9E1,1.1E1,1E1,5E0,1.3E1,1.8E1,1.4E1,6E0,4E0,1E0,3E0,2.5E1,1.4E1,1E1,1E0,2E0,3E0,6E0,7E0,1E0,5E0,3E0,1E0,7E0,1.8E1,1.3E1,1E0,2E0,8E0,1E0,1E0,1E0,5E0,3E0,4E0],"tree_param":{"num_deleted":"0","num_feature":"2","num_nodes":"53","size_leaf_vector":"0"}},{"base_weights":[-1.16709836E-1,9.200092E-2,-2.2389163E-1,7.3357425E-3,1.5843622E-1,-1.2025605E-1,-2.3805095E-1,-1.0077755E-1,3.522927E-2,1.2170528E-1,1.8476261E-1,-1.9915938E-1,-9.1622055E-2,-1.9754608E-1,-2.4401945E-1,-8.281189E-3,-1.3694797E-1,1.02087684E-1,-7.10179E-3,1.6757165E-1,9.409112E-2,1.8659666E-1,5.0198287E-2,-1.4509368E-1,-3.204229E-2,-2.4130225E-1,-1.5063383E-1,-4.6835855E-2,7.296874E-2,3.7369587E-2,1.6954063E-1,-6.1568953E-2,3.9139073E-2,-5.4787576E-2,1.0878049E-1,-5.5522703E-2,-1.0219495E-2,-1.8243021E-1,-1.0514348E-1,5.2487075E-2,-9.743919E-2,1.157869E-1,-3.5183765E-2,1.0491044E-1,2.1318874E-1,3.873697E-2,-7.0838474E-2,-7.6870665E-2,7.5199716E-2,-3.5894215E-3,-7.859194E-2,1.2506662E-1,5.136178E-2,-1.38489455E-2,-6.016017E-2,-1.5608635E-2,1.6446814E-2],"categories":[],"categories_nodes":[],"categories_segments":[],"categories_sizes":[],"default_left":[1,1,1,1,1,1,1,1,1,1,1,0,1,1,0,1,0,1,1,0,1,0,0,0,1,0,1,1,0,1,1,1,1,1,1,1,1,0,0,0,0,0,0,0,0,0,0,0,0,0,0,0,0,0,0,0,0],"id":2,"left_children":[1,3,5,7,9,11,13,15,17,19,21,-1,23,25,-1,27,-1,29,31,-1,33,-1,-1,-1,35,-1,37,39,-1,41,43,45,47,49,51,53,55,-1,-1,-1,-1,-1,-1,-1,-1,-1,-1,-1,-1,-1,-1,-1,-1,-1,-1,-1,-1],"loss_changes":[9.863397E0,8.4255135E-1,3.983879E-1,2.055996E-1,5.8740854E-2,6.534737E-2,1.34420395E-2,4.5704767E-2,1.5355515E-1,3.23624E-2,2.2324324E-3,0E0,8.7739855E-2,4.165423E-2,0E0,1.908037E-2,0E0,8.533828E-2,8.804244E-2,0E0,6.282012E-2,0E0,0E0,0E0,7.1187103E-3,0E0,1.1193663E-2,2.5218587E-2,0E0,7.234708E-2,5.844116E-3,1.7620683E-2,8.526498E-2,3.3741193E-3,1.6019434E-2,5.196687E-4,1.5500884E-3,0E0,0E0,0E0,0E0,0E0,0E0,0E0,0E0,0E0,0E0,0E0,0E0,0E0,0E0,0E0,0E0,0E0,0E0,0E0,0E0],"parents":[2147483647,0,0,1,1,2,2,3,3,4,4,5,5,6,6,7,7,8,8,9,9,10,10,12,12,13,13,15,15,17,17,18,18,20,20,24,24,26,26,27,27,29,29,30,30,31,31,32,32,33,33,34,34,35,35,36,36],"right_children":[2,4,6,8,10,12,14,16,18,20,22,-1,24,26,-1,28,-1,30,32,-1,34,-1,-1,-1,36,-1,38,40,-1,42,44,46,48,50,52,54,56,-1,-1,-1,-1,-1,-1,-1,-1,-1,-1,-1,-1,-1,-1,-1,-1,-1,-1,-1,-1],"split_conditions":[3.3015126E-1,6.483909E-1,4.334542E-1,2.9168087E-1,8.177591E-1,1.9192201E-1,5.3859115E-1,8.90318E-2,2.2107324E-1,1.2404237E-1,1.5241925E-1,-5.974782E-2,3.871912E-1,5.146048E-1,-7.3205836E-2,1.8120003E-1,-4.1084394E-2,5.563799E-1,2.8453094E-1,5.0271496E-2,1.2849826E-1,5.5979002E-2,1.5059487E-2,-4.3528106E-2,2.5673625E-1,-7.2390676E-2,6.681886E-2,1.3242324E-1,2.1890622E-2,1.3342735E-1,1.7929465E-1,3.3990693E-1,4.0065086E-1,7.259861E-1,7.8730357E-1,4.1370666E-1,3.1436318E-1,-5.4729063E-2,-3.1543046E-2,1.5746124E-2,-2.9231759E-2,3.473607E-2,-1.05551295E-2,3.1473134E-2,6.3956626E-2,1.16210915E-2,-2.1251542E-2,-2.3061201E-2,2.2559915E-2,-1.0768265E-3,-2.3577584E-2,3.7519988E-2,1.5408535E-2,-4.154684E-3,-1.8048052E-2,-4.6825907E-3,4.9340446E-3],"split_indices":[1,0,1,0,0,0,1,1,1,1,1,0,1,1,0,0,0,0,1,0,1,0,0,0,0,0,0,0,0,1,1,0,0,0,0,1,0,0,0,0,0,0,0,0,0,0,0,0,0,0,0,0,0,0,0,0,0],"split_type":[0,0,0,0,0,0,0,0,0,0,0,0,0,0,0,0,0,0,0,0,0,0,0,0,0,0,0,0,0,0,0,0,0,0,0,0,0,0,0,0,0,0,0,0,0,0,0,0,0,0,0,0,0,0,0,0,0],"sum_hessian":[4.39E2,1.49E2,2.9E2,6.6E1,8.3E1,3.6E1,2.54E2,1.3E1,5.3E1,3.7E1,4.6E1,8E0,2.8E1,3.7E1,2.17E2,4E0,9E0,2E1,3.3E1,1.2E1,2.5E1,4.5E1,1E0,1.4E1,1.4E1,1.7E1,2E1,3E0,1E0,1.1E1,9E0,1.5E1,1.8E1,2E0,2.3E1,6E0,8E0,1E1,1E1,1E0,2E0,5E0,6E0,5E0,4E0,1E0,1.4E1,4E0,1.4E1,1E0,1E0,1.7E1,6E0,1E0,5E0,7E0,1E0],"tree_param":{"num_deleted":"0","num_feature":"2","num_nodes":"57","size_leaf_vector":"0"}},{"base_weights":[-8.199397E-2,6.5909855E-2,-1.5795128E-1,8.653834E-3,1.159007E-1,-8.756375E-2,-1.6754496E-1,-7.287854E-2,2.818486E-2,1.353381E-1,9.411055E-2,-1.4605021E-1,-6.639334E-2,-4.115832E-3,-9.997204E-2,7.8295946E-2,-2.3726781E-3,9.62646E-2,1.4864585E-1,6.309426E-2,1.06257595E-1,-1.04467444E-1,-2.389302E-2,-3.6156505E-2,6.202343E-2,-1.5428284E-1,-6.710898E-2,2.8173774E-2,1.2585688E-1,-7.0212886E-2,1.3022616E-2,1.1223118E-1,-4.7667176E-2,8.956819E-2,-2.548261E-2,1.5063222E-1,8.42931E-2,-4.2037714E-2,-7.125699E-3,4.4614017E-2,-7.795135E-2,-6.0341656E-3,-7.497193E-2,5.9222512E-2,-8.471328E-2,8.204406E-2,1.6202344E-1,3.2926425E-2,-9.289051E-2,-2.4026792E-2,5.414377E-2,1.3478519E-1,6.721298E-2,1.3171157E-1,4.6670318E-2,-6.680316E-2,1.0558625E-2,1.2892756E-1,4.6908233E-2,-5.0188534E-2,-1.4440437E-2,-1.3245161E-2,9.528279E-3],"categories":[],"categories_nodes":[],"categories_segments":[],"categories_sizes":[],"default_left":[1,1,1,1,1,1,0,1,1,1,1,0,1,1,1,1,1,1,0,1,1,0,1,1,0,0,1,1,1,1,1,1,0,1,1,0,1,1,1,0,0,0,0,0,0,0,0,0,0,0,0,0,0,0,0,0,0,0,0,0,0,0,0],"id":3,"left_children":[1,3,5,7,9,11,-1,13,15,17,19,-1,21,23,25,27,29,31,-1,33,35,-1,37,39,-1,-1,41,43,45,47,49,51,-1,53,55,-1,57,59,61,-1,-1,-1,-1,-1,-1,-1,-1,-1,-1,-1,-1,-1,-1,-1,-1,-1,-1,-1,-1,-1,-1,-1,-1],"loss_changes":[4.953537E0,4.2833853E-1,1.8183374E-1,1.15115225E-1,2.1146894E-2,3.6116004E-2,0E0,2.5670849E-2,8.899951E-2,6.489873E-3,8.74275E-3,0E0,4.4430643E-2,1.2838284E-2,7.4944273E-3,4.889898E-2,3.9557893E-2,3.5225034E-2,0E0,3.5112116E-2,1.4593422E-2,0E0,4.2640204E-3,1.698089E-2,0E0,0E0,3.389433E-3,4.707694E-2,4.137099E-3,1.943123E-2,4.852985E-2,3.1247735E-3,0E0,1.3739452E-2,6.6623236E-3,0E0,2.899395E-2,8.4983837E-4,1.0434241E-3,0E0,0E0,0E0,0E0,0E0,0E0,0E0,0E0,0E0,0E0,0E0,0E0,0E0,0E0,0E0,0E0,0E0,0E0,0E0,0E0,0E0,0E0,0E0,0E0],"parents":[2147483647,0,0,1,1,2,2,3,3,4,4,5,5,7,7,8,8,9,9,10,10,12,12,13,13,14,14,15,15,16,16,17,17,19,19,20,20,22,22,23,23,26,26,27,27,28,28,29,29,30,30,31,31,33,33,34,34,36,36,37,37,38,38],"right_children":[2,4,6,8,10,12,-1,14,16,18,20,-1,22,24,26,28,30,32,-1,34,36,-1,38,40,-1,-1,42,44,46,48,50,52,-1,54,56,-1,58,60,62,-1,-1,-1,-1,-1,-1,-1,-1,-1,-1,-1,-1,-1,-1,-1,-1,-1,-1,-1,-1,-1,-1,-1,-1],"split_conditions":[3.3015126E-1,6.727798E-1,4.334542E-1,2.9168087E-1,9.099738E-2,1.9192201E-1,-5.026349E-2,8.90318E-2,2.2107324E-1,5.1101442E-2,1.30705E-1,-4.3815065E-2,3.871912E-1,1.8120003E-1,1.24593645E-1,5.563799E-1,4.0065086E-1,4.970374E-2,4.4593755E-2,1.2617476E-1,1.4425643E-1,-3.1340234E-2,2.5673625E-1,1.3242324E-1,1.860703E-2,-4.6284854E-2,1.3890702E-1,2.0969975E-1,1.7929465E-1,3.3990693E-1,2.8453094E-1,9.4726217E-1,-1.4300154E-2,8.48949E-1,1.272597E-1,4.5189667E-2,7.270175E-1,4.2362085E-1,2.9872298E-1,1.3384205E-2,-2.3385406E-2,-1.8102498E-3,-2.249158E-2,1.7766755E-2,-2.5413984E-2,2.4613218E-2,4.8607033E-2,9.877928E-3,-2.7867153E-2,-7.208038E-3,1.6243132E-2,4.043556E-2,2.0163894E-2,3.9513472E-2,1.4001096E-2,-2.0040948E-2,3.1675876E-3,3.867827E-2,1.407247E-2,-1.5056561E-2,-4.3321312E-3,-3.9735483E-3,2.858484E-3],"split_indices":[1,0,1,0,1,0,0,1,1,1,1,0,1,0,0,0,0,1,0,1,1,0,0,0,0,0,0,1,1,0,1,0,0,0,1,0,0,1,0,0,0,0,0,0,0,0,0,0,0,0,0,0,0,0,0,0,0,0,0,0,0,0,0],"split_type":[0,0,0,0,0,0,0,0,0,0,0,0,0,0,0,0,0,0,0,0,0,0,0,0,0,0,0,0,0,0,0,0,0,0,0,0,0,0,0,0,0,0,0,0,0,0,0,0,0,0,0,0,0,0,0,0,0,0,0,0,0,0,0],"sum_hessian":[4.39E2,1.49E2,2.9E2,7E1,7.9E1,3.6E1,2.54E2,1.3E1,5.7E1,3.9E1,4E1,8E0,2.8E1,4E0,9E0,2.1E1,3.6E1,1.2E1,2.7E1,1.3E1,2.7E1,1.4E1,1.4E1,3E0,1E0,2E0,7E0,1.1E1,1E1,6E0,3E1,1.1E1,1E0,1E1,3E0,7E0,2E1,6E0,8E0,1E0,2E0,1E0,6E0,9E0,2E0,6E0,4E0,1E0,5E0,1.6E1,1.4E1,6E0,5E0,4E0,6E0,1E0,2E0,8E0,1.2E1,4E0,2E0,6E0,2E0],"tree_param":{"num_deleted":"0","num_feature":"2","num_nodes":"63","size_leaf_vector":"0"}},{"base_weights":[-5.7227157E-2,4.7604315E-2,-1.1106734E-1,-1.1361606E-2,7.379464E-2,-1.1592047E-1,-4.6457734E-2,-7.726984E-2,4.1393093E-3,8.373696E-2,-1.787561E-2,-6.17352E-2,-1.17983416E-1,-6.971879E-2,-5.11189E-3,3.7921906E-2,-9.6409045E-2,6.0191557E-2,-1.0003106E-2,1.00765385E-1,6.925728E-2,-8.323856E-3,-2.0417035E-2,-1.1632197E-1,-1.990157E-2,-1.0467837E-1,-1.232413E-1,-8.888513E-3,1.2550548E-2,-1.1131108E-2,8.5820965E-2,-4.8386756E-2,1.5446423E-2,5.6848433E-2,9.292076E-2,-1.6120335E-2,7.5327903E-3,-4.1028976E-2,9.806693E-4,-1.3199717E-1,-9.337216E-2,-1.1120324E-2,-1.4620522E-3,-2.3178965E-2,6.482303E-3,1.6441802E-2,1.1640009E-1,8.719176E-3,-7.473597E-2,-4.5970645E-2,3.8983487E-2,5.4006227E-3,7.760863E-2,1.0389332E-1,3.1286612E-2,-1.9090861E-2,-5.0896406E-3,-5.1876415E-2,-4.243329E-3,5.9298113E-2,-2.842322E-2,-1.3603246E-1,-2.5645554E-2,-1.0646653E-1,-3.2122444E-2,-1.4652163E-3,-1.27583025E-2],"categories":[],"categories_nodes":[],"categories_segments":[],"categories_sizes":[],"default_left":[1,1,1,1,1,1,1,1,1,1,1,1,1,0,1,0,0,1,1,0,1,1,0,0,1,1,0,1,0,1,1,1,1,1,1,1,0,1,1,1,1,1,0,0,0,0,0,0,0,0,0,0,0,0,0,0,0,0,0,0,0,0,0,0,0,0,0],"id":4,"left_children":[1,3,5,7,9,11,13,15,17,19,21,23,25,-1,27,-1,-1,29,31,-1,33,35,-1,-1,37,39,-1,41,-1,43,45,47,49,51,53,55,-1,57,59,61,63,65,-1,-1,-1,-1,-1,-1,-1,-1,-1,-1,-1,-1,-1,-1,-1,-1,-1,-1,-1,-1,-1,-1,-1,-1,-1],"loss_changes":[2.4887114E0,2.324889E-1,8.5860014E-2,4.833683E-2,9.628397E-2,2.2897243E-2,2.080207E-2,2.3498122E-2,3.1517956E-2,1.6198456E-2,9.707734E-5,2.5087766E-2,5.2177906E-3,0E0,7.11895E-4,0E0,0E0,1.5578942E-2,3.200647E-2,0E0,1.0573953E-2,6.159351E-4,0E0,0E0,3.5697364E-3,1.23848915E-2,0E0,1.16337265E-4,0E0,7.8686455E-4,1.0815501E-2,2.0212691E-2,3.0703645E-2,4.01674E-2,8.246377E-3,1.1353404E-6,0E0,1.3759909E-3,1.0259242E-2,5.5237412E-3,4.4701636E-2,7.619546E-5,0E0,0E0,0E0,0E0,0E0,0E0,0E0,0E0,0E0,0E0,0E0,0E0,0E0,0E0,0E0,0E0,0E0,0E0,0E0,0E0,0E0,0E0,0E0,0E0,0E0],"parents":[2147483647,0,0,1,1,2,2,3,3,4,4,5,5,6,6,7,7,8,8,9,9,10,10,11,11,12,12,14,14,17,17,18,18,20,20,21,21,24,24,25,25,27,27,29,29,30,30,31,31,32,32,33,33,34,34,35,35,37,37,38,38,39,39,40,40,41,41],"right_children":[2,4,6,8,10,12,14,16,18,20,22,24,26,-1,28,-1,-1,30,32,-1,34,36,-1,-1,38,40,-1,42,-1,44,46,48,50,52,54,56,-1,58,60,62,64,66,-1,-1,-1,-1,-1,-1,-1,-1,-1,-1,-1,-1,-1,-1,-1,-1,-1,-1,-1,-1,-1,-1,-1,-1,-1],"split_conditions":[3.3015126E-1,5.563799E-1,2.5778583E-1,1.8562824E-1,2.348012E-1,4.2590132E-1,3.871912E-1,3.2377616E-2,1.3342735E-1,8.615413E-2,6.3377345E-1,4.1232565E-1,6.429677E-1,-2.0915639E-2,3.1436318E-1,1.1376572E-2,-2.8922714E-2,4.2723283E-2,2.7401623E-1,3.0229617E-2,2.0540184E-1,6.0267806E-1,-6.1251107E-3,-3.4896594E-2,4.164949E-1,4.912955E-1,-3.6972392E-2,2.9141328E-1,3.7651644E-3,4.3173093E-1,2.452451E-1,3.4493452E-1,4.0065086E-1,7.770933E-1,2.2813466E-1,5.6901395E-1,2.2598372E-3,2.0671389E-1,1.8623695E-1,2.4845855E-1,6.5670714E-2,2.647782E-1,-4.3861568E-4,-6.9536897E-3,1.9446911E-3,4.9325405E-3,3.492003E-2,2.6157529E-3,-2.2420792E-2,-1.3791194E-2,1.1695046E-2,1.6201868E-3,2.328259E-2,3.1167997E-2,9.385984E-3,-5.7272585E-3,-1.5268923E-3,-1.5562925E-2,-1.2729988E-3,1.7789435E-2,-8.526966E-3,-4.080974E-2,-7.6936665E-3,-3.193996E-2,-9.636734E-3,-4.395649E-4,-3.8274908E-3],"split_indices":[1,0,0,0,1,1,1,1,1,1,0,1,1,0,0,0,0,1,1,0,1,0,0,0,1,1,0,0,0,0,0,0,0,0,1,0,0,0,0,0,0,0,0,0,0,0,0,0,0,0,0,0,0,0,0,0,0,0,0,0,0,0,0,0,0,0,0],"split_type":[0,0,0,0,0,0,0,0,0,0,0,0,0,0,0,0,0,0,0,0,0,0,0,0,0,0,0,0,0,0,0,0,0,0,0,0,0,0,0,0,0,0,0,0,0,0,0,0,0,0,0,0,0,0,0,0,0,0,0,0,0,0,0,0,0,0,0],"sum_hessian":[4.39E2,1.49E2,2.9E2,4.6E1,1.03E2,2.69E2,2.1E1,8E0,3.8E1,9.3E1,1E1,1.1E1,2.58E2,1.3E1,8E0,1E0,7E0,7E0,3.1E1,4E1,5.3E1,3E0,7E0,4E0,7E0,7.9E1,1.79E2,7E0,1E0,2E0,5E0,1.2E1,1.9E1,3.7E1,1.6E1,2E0,1E0,3E0,4E0,2E1,5.9E1,5E0,2E0,1E0,1E0,2E0,3E0,4E0,8E0,5E0,1.4E1,1.1E1,2.6E1,1.3E1,3E0,1E0,1E0,2E0,1E0,1E0,3E0,1.9E1,1E0,4.8E1,1.1E1,1E0,4E0],"tree_param":{"num_deleted":"0","num_feature":"2","num_nodes":"67","size_leaf_vector":"0"}},{"base_weights":[-4.0312227E-2,-7.254516E-2,4.826023E-2,-3.0449364E-2,-8.2229875E-2,6.3437514E-2,2.5593497E-2,2.0113774E-2,-4.0559847E-2,-8.323197E-2,-1.407578E-2,4.371712E-2,6.942309E-2,3.7435263E-2,6.5511735E-3,-1.0452585E-2,1.0510826E-1,-1.0617855E-1,-3.1320017E-2,-7.4790776E-2,-8.6474314E-2,-2.0260522E-2,-3.1991105E-3,5.2545045E-2,-5.759278E-2,1.1864036E-1,6.398855E-2,-6.236319E-2,4.679098E-2,3.1085325E-2,-1.2395372E-2,5.978282E-3,-4.530708E-2,-2.3839563E-2,-1.1787844E-1,-3.9856054E-2,-3.1019028E-3,-9.726322E-2,-6.605345E-2,7.847929E-2,3.3037983E-2,-7.781774E-3,6.8838395E-2,-7.58947E-2,-1.7650083E-2,1.3653025E-2,6.7430064E-2,-3.315735E-2,4.326033E-2,8.5532665E-6,-1.3523779E-2,-2.0834958E-2,4.8674256E-2,-2.0165814E-2,-5.4599956E-2,5.04034E-2,-1.2548149E-2,-7.517841E-2,-2.3288773E-2,5.509943E-3,8.972252E-2,-5.5631906E-2,4.615633E-2,8.902173E-3,-2.8916806E-2,5.8846366E-2,1.16101645E-1,1.8851294E-3,3.6717534E-2,8.510412E-2,4.2263784E-2,1.4851868E-2,5.0254505E-2,-7.9081105E-3,-1.868096E-2],"categories":[],"categories_nodes":[],"categories_segments":[],"categories_sizes":[],"default_left":[1,1,1,1,1,1,1,1,1,1,1,1,1,1,1,1,0,1,1,1,0,0,0,1,0,0,1,1,1,1,1,1,0,0,0,1,1,0,1,1,1,1,1,0,0,1,1,0,1,0,1,0,0,0,0,0,0,0,0,0,0,0,0,0,0,0,0,0,0,0,0,0,0,0,0],"id":5,"left_children":[1,3,5,7,9,11,13,15,17,19,21,23,25,27,29,31,-1,33,35,37,-1,-1,-1,39,-1,-1,41,43,45,47,49,51,-1,-1,-1,53,55,-1,57,59,61,63,65,-1,-1,67,69,-1,71,-1,73,-1,-1,-1,-1,-1,-1,-1,-1,-1,-1,-1,-1,-1,-1,-1,-1,-1,-1,-1,-1,-1,-1,-1,-1],"loss_changes":[1.2596793E0,1.2917852E-1,3.897068E-2,3.2511313E-2,1.6722322E-2,5.227685E-3,1.08039975E-2,2.9676348E-2,2.8202392E-2,5.9366226E-4,2.715314E-4,2.0018987E-2,6.31696E-3,3.092862E-2,9.682063E-3,5.425064E-3,0E0,2.9699728E-3,1.11973025E-2,9.0869665E-3,0E0,0E0,0E0,6.5134168E-3,0E0,0E0,1.7591342E-2,4.7556031E-4,1.8229615E-2,8.473791E-3,1.6807579E-4,9.027848E-3,0E0,0E0,0E0,9.350143E-3,6.6975607E-3,0E0,2.1662742E-2,5.248513E-3,1.6526192E-2,1.6678853E-3,1.489161E-2,0E0,0E0,3.1878317E-3,3.964603E-3,0E0,8.4317755E-4,0E0,1.7084018E-4,0E0,0E0,0E0,0E0,0E0,0E0,0E0,0E0,0E0,0E0,0E0,0E0,0E0,0E0,0E0,0E0,0E0,0E0,0E0,0E0,0E0,0E0,0E0,0E0],"parents":[2147483647,0,0,1,1,2,2,3,3,4,4,5,5,6,6,7,7,8,8,9,9,10,10,11,11,12,12,13,13,14,14,15,15,17,17,18,18,19,19,23,23,26,26,27,27,28,28,29,29,30,30,31,31,35,35,36,36,38,38,39,39,40,40,41,41,42,42,45,45,46,46,48,48,50,50],"right_children":[2,4,6,8,10,12,14,16,18,20,22,24,26,28,30,32,-1,34,36,38,-1,-1,-1,40,-1,-1,42,44,46,48,50,52,-1,-1,-1,54,56,-1,58,60,62,64,66,-1,-1,68,70,-1,72,-1,74,-1,-1,-1,-1,-1,-1,-1,-1,-1,-1,-1,-1,-1,-1,-1,-1,-1,-1,-1,-1,-1,-1,-1,-1],"split_conditions":[4.6886122E-1,4.273619E-1,1.4680102E-1,1.3342735E-1,2.4845855E-1,7.7662957E-1,2.348012E-1,3.3552182E-1,1.24593645E-1,6.429677E-1,4.3096668E-1,7.63927E-1,7.8799325E-1,5.48821E-1,5.351029E-1,8.90318E-2,3.153248E-2,7.3760554E-2,3.871912E-1,4.912955E-1,-2.5942296E-2,-6.078157E-3,-9.597332E-4,4.7833383E-2,-1.7277835E-2,3.559211E-2,8.1303275E-1,5.278464E-1,2.0540184E-1,4.7921193E-1,5.546091E-1,5.3894803E-2,-1.3592125E-2,-7.151869E-3,-3.5363533E-2,3.2113224E-1,1.8623695E-1,-2.9178966E-2,6.5670714E-2,5.587805E-1,5.650635E-2,8.013073E-1,1.3436216E-1,-2.276841E-2,-5.295025E-3,8.1093013E-1,2.2308871E-1,-9.947205E-3,3.1864864E-1,2.5659801E-6,2.5433213E-1,-6.2504876E-3,1.4602277E-2,-6.0497443E-3,-1.6379988E-2,1.5121021E-2,-3.7644447E-3,-2.2553522E-2,-6.9866325E-3,1.6529829E-3,2.6916757E-2,-1.6689572E-2,1.3846899E-2,2.6706518E-3,-8.675043E-3,1.765391E-2,3.4830496E-2,5.655388E-4,1.1015261E-2,2.5531238E-2,1.2679135E-2,4.455561E-3,1.5076352E-2,-2.3724332E-3,-5.604288E-3],"split_indices":[0,1,1,1,0,0,1,0,0,1,1,0,0,0,0,1,0,0,1,1,0,0,0,1,0,0,0,0,1,0,0,1,0,0,0,1,0,0,0,0,1,0,1,0,0,0,1,0,1,0,1,0,0,0,0,0,0,0,0,0,0,0,0,0,0,0,0,0,0,0,0,0,0,0,0],"split_type":[0,0,0,0,0,0,0,0,0,0,0,0,0,0,0,0,0,0,0,0,0,0,0,0,0,0,0,0,0,0,0,0,0,0,0,0,0,0,0,0,0,0,0,0,0,0,0,0,0,0,0,0,0,0,0,0,0,0,0,0,0,0,0,0,0,0,0,0,0,0,0,0,0,0,0],"sum_hessian":[4.39E2,3.22E2,1.17E2,6.1E1,2.61E2,6.9E1,4.8E1,1E1,5.1E1,2.57E2,4E0,1.8E1,5.1E1,2.9E1,1.9E1,8E0,2E0,5E0,4.6E1,7.8E1,1.79E2,2E0,2E0,1.7E1,1E0,3E0,4.8E1,2E0,2.7E1,8E0,1.1E1,6E0,2E0,1E0,4E0,3.5E1,1.1E1,1.9E1,5.9E1,6E0,1.1E1,3E0,4.5E1,1E0,1E0,1.1E1,1.6E1,1E0,7E0,1E0,1E1,4E0,2E0,1.6E1,1.9E1,1E0,1E1,4.8E1,1.1E1,1E0,5E0,1E0,1E1,2E0,1E0,3.9E1,6E0,8E0,3E0,8E0,8E0,2E0,5E0,6E0,4E0],"tree_param":{"num_deleted":"0","num_feature":"2","num_nodes":"75","size_leaf_vector":"0"}},{"base_weights":[-2.8230228E-2,-5.528113E-2,2.5513986E-2,5.3779143E-3,-5.6568E-2,4.1011833E-2,-7.6276027E-3,-1.5834559E-2,3.8939398E-2,-4.3599274E-2,-6.0094453E-2,5.30807E-2,3.152076E-2,-1.1780721E-2,5.8596075E-2,3.5358876E-2,-3.7472636E-2,-5.0555963E-2,-1.4645906E-2,-6.0485594E-2,-2.3558054E-2,3.5129473E-2,6.1442804E-2,2.8701384E-2,9.752232E-2,-1.08578004E-1,-4.913162E-3,-5.662366E-2,-2.2792395E-2,-5.451622E-2,-3.4578356E-3,-5.896632E-2,-7.34544E-2,6.771105E-2,-5.9159845E-3,4.759557E-2,7.85162E-2,3.8036287E-3,3.3196814E-2,4.4201054E-3,-2.5228743E-2,-4.37066E-2,-6.449035E-2,-5.4822594E-2,-3.928248E-3,4.8504412E-2,-1.8700726E-2,-6.0129773E-2,-3.55342E-2,4.6834648E-3,7.500406E-2,2.8101483E-2,-7.197893E-2,5.5033308E-2,-3.942299E-2,1.6085327E-2,-1.864025E-2,2.602115E-2,8.028556E-2,-1.25737125E-2,1.7391957E-2,-2.9100213E-2,1.255019E-2],"categories":[],"categories_nodes":[],"categories_segments":[],"categories_sizes":[],"default_left":[1,1,1,1,1,1,1,1,0,1,1,1,1,1,0,0,0,1,1,1,0,1,1,1,0,0,1,1,1,0,1,1,0,1,1,1,0,1,1,1,1,0,0,0,0,0,0,0,0,0,0,0,0,0,0,0,0,0,0,0,0,0,0],"id":6,"left_children":[1,3,5,7,9,11,13,15,-1,17,19,21,23,25,-1,-1,-1,27,29,31,-1,33,35,37,-1,-1,39,41,43,-1,45,47,-1,49,51,53,-1,55,57,59,61,-1,-1,-1,-1,-1,-1,-1,-1,-1,-1,-1,-1,-1,-1,-1,-1,-1,-1,-1,-1,-1,-1],"loss_changes":[6.410954E-1,2.3176014E-2,7.632906E-2,5.6000417E-3,1.0505438E-2,9.89604E-3,1.3891972E-2,6.8636276E-3,0E0,1.2351826E-2,1.7619133E-3,4.2962804E-3,8.179892E-3,3.0045547E-2,0E0,0E0,0E0,7.469386E-3,6.0564987E-3,3.3974648E-6,0E0,2.179779E-2,2.882719E-3,6.3654445E-3,0E0,0E0,8.454387E-3,1.4491528E-3,6.4310897E-3,0E0,1.0411726E-2,3.370285E-3,0E0,3.7856735E-3,2.0001067E-2,1.381956E-2,0E0,3.056324E-3,1.4467638E-2,7.0523624E-3,2.4128547E-3,0E0,0E0,0E0,0E0,0E0,0E0,0E0,0E0,0E0,0E0,0E0,0E0,0E0,0E0,0E0,0E0,0E0,0E0,0E0,0E0,0E0,0E0],"parents":[2147483647,0,0,1,1,2,2,3,3,4,4,5,5,6,6,7,7,9,9,10,10,11,11,12,12,13,13,17,17,18,18,19,19,21,21,22,22,23,23,26,26,27,27,28,28,30,30,31,31,33,33,34,34,35,35,37,37,38,38,39,39,40,40],"right_children":[2,4,6,8,10,12,14,16,-1,18,20,22,24,26,-1,-1,-1,28,30,32,-1,34,36,38,-1,-1,40,42,44,-1,46,48,-1,50,52,54,-1,56,58,60,62,-1,-1,-1,-1,-1,-1,-1,-1,-1,-1,-1,-1,-1,-1,-1,-1,-1,-1,-1,-1,-1,-1],"split_conditions":[3.1299266E-1,8.90318E-2,2.2813466E-1,5.3894803E-2,5.342214E-1,8.615413E-2,6.838398E-1,1.3242324E-1,1.1681819E-2,5.174236E-1,6.277314E-2,5.1101442E-2,2.27165E-1,2.329007E-1,1.7578823E-2,1.0607664E-2,-1.1241791E-2,2.5778583E-1,2.3604153E-2,2.476182E-3,-7.0674163E-3,4.0456265E-2,9.275291E-1,1.1661089E-1,2.9256696E-2,-3.2573402E-2,3.3015126E-1,4.2590132E-1,3.8145524E-1,-1.6354866E-2,5.526691E-2,7.686247E-5,-2.2036321E-2,5.587805E-1,9.1907454E-1,9.2313206E-1,2.3554862E-2,1.0601598E-1,8.394313E-1,3.0675822E-1,3.871912E-1,-1.3111981E-2,-1.9347105E-2,-1.6446779E-2,-1.1784744E-3,1.4551324E-2,-5.6102183E-3,-1.8038932E-2,-1.066026E-2,1.4050395E-3,2.2501219E-2,8.430446E-3,-2.1593679E-2,1.6509993E-2,-1.1826897E-2,4.825598E-3,-5.592075E-3,7.8063454E-3,2.4085669E-2,-3.772114E-3,5.2175876E-3,-8.730064E-3,3.765057E-3],"split_indices":[0,1,1,1,1,1,0,0,0,1,0,1,1,1,0,0,0,0,0,0,0,1,0,1,0,0,1,1,1,0,0,0,0,0,0,0,0,1,0,1,1,0,0,0,0,0,0,0,0,0,0,0,0,0,0,0,0,0,0,0,0,0,0],"split_type":[0,0,0,0,0,0,0,0,0,0,0,0,0,0,0,0,0,0,0,0,0,0,0,0,0,0,0,0,0,0,0,0,0,0,0,0,0,0,0,0,0,0,0,0,0,0,0,0,0,0,0,0,0,0,0,0,0,0,0,0,0,0,0],"sum_hessian":[4.39E2,2.92E2,1.47E2,6E0,2.86E2,1E2,4.7E1,4E0,2E0,6.4E1,2.22E2,4.2E1,5.8E1,4.5E1,2E0,1E0,3E0,5.1E1,1.3E1,2.19E2,3E0,1.5E1,2.7E1,5.7E1,1E0,2E0,4.3E1,4.1E1,1E1,2E0,1.1E1,2.01E2,1.8E1,8E0,7E0,1.7E1,1E1,9E0,4.8E1,3E1,1.3E1,1.8E1,2.3E1,3E0,7E0,2E0,9E0,1.9E2,1.1E1,1E0,7E0,5E0,2E0,1.6E1,1E0,6E0,3E0,4.3E1,5E0,1.3E1,1.7E1,1.2E1,1E0],"tree_param":{"num_deleted":"0","num_feature":"2","num_nodes":"63","size_leaf_vector":"0"}},{"base_weights":[-1.9814353E-2,-3.642565E-2,2.5300367E-2,1.6620906E-2,-3.8179133E-2,1.2292633E-2,3.3044357E-2,-4.8630833E-4,9.384653E-2,-4.0742446E-2,-1.8624123E-2,2.5558239E-2,2.0109757E-3,3.0141786E-2,6.707151E-2,9.706244E-3,-2.7504345E-2,-1.0937449E-2,-4.1030966E-2,-4.1569836E-2,-1.2101872E-2,8.011979E-2,1.8469747E-2,-4.304897E-2,9.437176E-3,3.3336654E-2,-3.3744064E-3,-1.1211013E-2,3.3426255E-2,-5.0790064E-2,1.9276777E-2,-6.856761E-2,-4.0152065E-2,1.5713103E-2,-7.908222E-2,2.5782526E-2,-1.8669283E-2,-6.873276E-2,3.277197E-2,6.956551E-2,8.0889463E-4,5.534774E-2,2.920386E-2,-5.635224E-2,2.9087175E-2,3.0055046E-2,-2.904129E-2,9.6156895E-3,3.815788E-2,-1.3707638E-2,-7.542634E-2,1.478292E-3,-4.128292E-2,-9.240404E-3,2.7111074E-2,-9.863233E-2,-3.3171374E-2,3.5024405E-2,7.946472E-3,-2.6433121E-2,-2.0459294E-4,4.829862E-2,3.691239E-3,8.289397E-2,2.1454304E-2,1.604074E-2,-1.3221038E-2,-6.739712E-3,3.623007E-2,5.3524956E-2,-3.4331977E-2],"categories":[],"categories_nodes":[],"categories_segments":[],"categories_sizes":[],"default_left":[1,1,1,1,1,1,1,1,0,1,1,1,1,1,0,1,0,1,1,1,1,0,1,0,1,1,1,1,1,0,0,1,1,1,1,1,1,0,1,1,1,0,1,0,1,0,0,0,0,0,0,0,0,0,0,0,0,0,0,0,0,0,0,0,0,0,0,0,0,0,0],"id":7,"left_children":[1,3,5,7,9,11,13,15,-1,17,19,21,23,25,-1,27,-1,29,31,33,35,-1,37,-1,39,41,43,45,47,-1,-1,49,51,53,55,57,59,-1,61,63,65,-1,67,-1,69,-1,-1,-1,-1,-1,-1,-1,-1,-1,-1,-1,-1,-1,-1,-1,-1,-1,-1,-1,-1,-1,-1,-1,-1,-1,-1],"loss_changes":[3.3066374E-1,3.0585736E-2,1.1580884E-2,1.4577908E-2,1.4880419E-2,6.222654E-3,5.2870438E-3,3.0207913E-3,0E0,1.9160509E-3,5.1839203E-3,6.2553883E-3,9.441114E-3,7.6080784E-3,0E0,4.344003E-3,0E0,5.7955324E-3,3.829807E-3,1.8433187E-2,8.194217E-3,0E0,2.5949111E-2,0E0,1.239503E-2,4.20554E-3,1.3677336E-2,4.5517636E-3,8.3736144E-5,0E0,0E0,1.5999712E-3,1.2583703E-2,1.3881944E-3,1.2160353E-3,5.458726E-4,3.865228E-3,0E0,7.4976664E-3,1.4531147E-4,4.9135135E-3,0E0,1.4386818E-2,0E0,9.586735E-3,0E0,0E0,0E0,0E0,0E0,0E0,0E0,0E0,0E0,0E0,0E0,0E0,0E0,0E0,0E0,0E0,0E0,0E0,0E0,0E0,0E0,0E0,0E0,0E0,0E0,0E0],"parents":[2147483647,0,0,1,1,2,2,3,3,4,4,5,5,6,6,7,7,9,9,10,10,11,11,12,12,13,13,15,15,17,17,18,18,19,19,20,20,22,22,24,24,25,25,26,26,27,27,28,28,31,31,32,32,33,33,34,34,35,35,36,36,38,38,39,39,40,40,42,42,44,44],"right_children":[2,4,6,8,10,12,14,16,-1,18,20,22,24,26,-1,28,-1,30,32,34,36,-1,38,-1,40,42,44,46,48,-1,-1,50,52,54,56,58,60,-1,62,64,66,-1,68,-1,70,-1,-1,-1,-1,-1,-1,-1,-1,-1,-1,-1,-1,-1,-1,-1,-1,-1,-1,-1,-1,-1,-1,-1,-1,-1,-1],"split_conditions":[4.6782744E-1,1.3342735E-1,6.93782E-1,1.2506394E-1,2.5778583E-1,2.2107324E-1,9.6751547E-1,8.90318E-2,2.815396E-2,3.0533385E-1,2.7544698E-1,4.7620025E-1,2.260536E-1,9.4726217E-1,2.0121455E-2,5.3894803E-2,-8.251304E-3,1.24593645E-1,4.1232565E-1,3.4493452E-1,3.1785598E-1,2.4035938E-2,5.354054E-1,-1.2914692E-2,2.2813466E-1,7.330593E-1,9.529607E-1,1.3242324E-1,5.858628E-2,-1.5237019E-2,5.7830336E-3,7.3760554E-2,4.2590132E-1,2.9985964E-1,4.2095137E-1,4.1281965E-1,3.871912E-1,-2.0619828E-2,6.551199E-1,6.6387695E-1,5.546091E-1,1.6604323E-2,7.770933E-1,-1.6905673E-2,9.6416515E-1,9.016514E-3,-8.712388E-3,2.884707E-3,1.1447364E-2,-4.1122916E-3,-2.2627903E-2,4.4348763E-4,-1.2384876E-2,-2.7721212E-3,8.133323E-3,-2.95897E-2,-9.951413E-3,1.0507322E-2,2.3839416E-3,-7.929937E-3,-6.137788E-5,1.4489586E-2,1.1073718E-3,2.4868192E-2,6.4362916E-3,4.8122224E-3,-3.9663115E-3,-2.0219136E-3,1.0869021E-2,1.6057488E-2,-1.0299593E-2],"split_indices":[0,1,0,1,0,1,0,1,0,1,1,0,1,0,0,1,0,0,1,0,1,0,0,0,1,0,0,0,1,0,0,0,1,0,0,0,1,0,0,0,0,0,0,0,0,0,0,0,0,0,0,0,0,0,0,0,0,0,0,0,0,0,0,0,0,0,0,0,0,0,0],"split_type":[0,0,0,0,0,0,0,0,0,0,0,0,0,0,0,0,0,0,0,0,0,0,0,0,0,0,0,0,0,0,0,0,0,0,0,0,0,0,0,0,0,0,0,0,0,0,0,0,0,0,0,0,0,0,0,0,0,0,0,0,0,0,0,0,0,0,0,0,0,0,0],"sum_hessian":[4.39E2,3.21E2,1.18E2,1E1,3.11E2,4.5E1,7.3E1,9E0,1E0,2.74E2,3.7E1,1.9E1,2.6E1,6.9E1,4E0,7E0,2E0,3E0,2.71E2,7E0,3E1,1E0,1.8E1,3E0,2.3E1,6.3E1,6E0,4E0,3E0,1E0,2E0,6E0,2.65E2,3E0,4E0,4E0,2.6E1,2E0,1.6E1,2E0,2.1E1,8E0,5.5E1,2E0,4E0,1E0,3E0,1E0,2E0,1E0,5E0,7E0,2.58E2,1E0,2E0,2E0,2E0,2E0,2E0,1.8E1,8E0,1E1,6E0,1E0,1E0,1E1,1.1E1,9E0,4.6E1,3E0,1E0],"tree_param":{"num_deleted":"0","num_feature":"2","num_nodes":"71","size_leaf_vector":"0"}},{"base_weights":[-1.3802326E-2,-2.5582036E-2,1.85591E-2,1.4774534E-2,-2.6918586E-2,2.8249392E-2,1.3032459E-2,2.9807686E-4,7.976955E-2,-1.9081464E-2,-2.9995983E-2,2.2905141E-2,4.5299962E-2,6.810182E-2,1.1411785E-2,8.623898E-3,-2.2003472E-2,-2.2963785E-2,-8.3113683E-4,-3.024195E-2,-8.968838E-3,2.8331267E-2,-1.42326355E-2,7.657498E-3,6.284494E-2,-3.3733588E-2,1.30877895E-2,-7.786882E-3,2.6981398E-2,-5.5271376E-2,-1.8825188E-2,-3.535639E-2,6.129323E-3,-6.270636E-2,-2.9504163E-2,-1.4315672E-2,-2.4146687E-3,1.9918703E-2,4.5747392E-2,-4.5741946E-2,5.5902302E-2,1.4596373E-2,4.7908226E-4,-7.5582922E-3,1.6062759E-2,2.554679E-2,-2.2506997E-2,8.1733465E-3,3.05263E-2,-1.1651494E-2,-5.9838288E-2,-1.1802806E-2,-3.2971863E-2,-8.425802E-3,-4.4608783E-2,3.1972405E-2,-6.174743E-3,-2.4383152E-2,-3.0421354E-2,2.457617E-2,-3.8944066E-2,-5.324006E-3,5.279682E-2,1.586616E-3,-8.6799264E-4,7.28215E-3,-1.8665612E-2,1.2285655E-2,5.115667E-2],"categories":[],"categories_nodes":[],"categories_segments":[],"categories_sizes":[],"default_left":[1,1,1,1,1,1,1,1,0,1,1,1,1,0,1,1,0,1,1,1,1,1,1,1,0,0,1,1,1,1,1,1,1,0,1,0,0,1,1,0,0,0,1,1,1,0,0,0,0,0,0,0,0,0,0,0,0,0,0,0,0,0,0,0,0,0,0,0,0],"id":8,"left_children":[1,3,5,7,9,11,13,15,-1,17,19,21,23,-1,25,27,-1,29,31,33,35,37,39,41,-1,-1,43,45,47,49,51,53,55,-1,57,-1,-1,59,61,-1,-1,-1,63,65,67,-1,-1,-1,-1,-1,-1,-1,-1,-1,-1,-1,-1,-1,-1,-1,-1,-1,-1,-1,-1,-1,-1,-1,-1],"loss_changes":[1.6820636E-1,1.7819867E-2,5.951304E-3,1.0326096E-2,6.976545E-3,2.789542E-3,6.0950443E-3,2.0465427E-3,0E0,6.4285956E-3,8.8211894E-4,7.2547123E-3,5.462693E-3,0E0,6.1919503E-3,2.6201883E-3,0E0,8.987609E-3,4.3020085E-3,3.419295E-3,1.05608604E-4,3.4841988E-3,1.3606598E-2,1.9224765E-4,0E0,0E0,4.666594E-3,3.0283588E-3,1.718849E-5,8.9645945E-4,6.3661896E-3,3.7165242E-4,4.9670464E-3,0E0,2.7747452E-4,0E0,0E0,6.9884285E-3,3.5213064E-3,0E0,0E0,0E0,5.852964E-6,1.784301E-3,7.987475E-3,0E0,0E0,0E0,0E0,0E0,0E0,0E0,0E0,0E0,0E0,0E0,0E0,0E0,0E0,0E0,0E0,0E0,0E0,0E0,0E0,0E0,0E0,0E0,0E0],"parents":[2147483647,0,0,1,1,2,2,3,3,4,4,5,5,6,6,7,7,9,9,10,10,11,11,12,12,14,14,15,15,17,17,18,18,19,19,20,20,21,21,22,22,23,23,26,26,27,27,28,28,29,29,30,30,31,31,32,32,34,34,37,37,38,38,42,42,43,43,44,44],"right_children":[2,4,6,8,10,12,14,16,-1,18,20,22,24,-1,26,28,-1,30,32,34,36,38,40,42,-1,-1,44,46,48,50,52,54,56,-1,58,-1,-1,60,62,-1,-1,-1,64,66,68,-1,-1,-1,-1,-1,-1,-1,-1,-1,-1,-1,-1,-1,-1,-1,-1,-1,-1,-1,-1,-1,-1,-1,-1],"split_conditions":[4.6886122E-1,1.3342735E-1,8.615413E-2,1.2506394E-1,5.342214E-1,7.401676E-2,4.696126E-1,8.90318E-2,2.3930866E-2,4.912955E-1,6.277314E-2,6.88187E-2,8.9424735E-1,2.0430548E-2,4.8579955E-1,5.3894803E-2,-6.6010416E-3,1.256389E-1,2.3604153E-2,5.3976583E-1,5.3628236E-1,5.8723688E-2,9.541551E-1,6.625148E-1,1.8853482E-2,-1.0120077E-2,1.1661089E-1,1.3242324E-1,5.858628E-2,7.3760554E-2,4.273619E-1,1.762175E-2,6.1243616E-2,-1.8811908E-2,6.429677E-1,-4.294702E-3,-7.244006E-4,5.805833E-2,7.170088E-1,-1.3722585E-2,1.677069E-2,4.378912E-3,7.9491746E-1,9.749618E-2,8.394313E-1,7.664037E-3,-6.7520994E-3,2.452004E-3,9.15789E-3,-3.4954483E-3,-1.7951487E-2,-3.5408419E-3,-9.891559E-3,-2.5277408E-3,-1.3382635E-2,9.591722E-3,-1.8524231E-3,-7.314946E-3,-9.126406E-3,7.3728515E-3,-1.168322E-2,-1.5972019E-3,1.5839046E-2,4.7598482E-4,-2.603978E-4,2.184645E-3,-5.5996836E-3,3.6856967E-3,1.5347001E-2],"split_indices":[0,1,1,1,1,1,0,1,0,1,0,1,0,0,0,1,0,0,0,1,1,1,0,0,0,0,1,0,1,0,1,0,0,0,1,0,0,1,0,0,0,0,0,1,0,0,0,0,0,0,0,0,0,0,0,0,0,0,0,0,0,0,0,0,0,0,0,0,0],"split_type":[0,0,0,0,0,0,0,0,0,0,0,0,0,0,0,0,0,0,0,0,0,0,0,0,0,0,0,0,0,0,0,0,0,0,0,0,0,0,0,0,0,0,0,0,0,0,0,0,0,0,0,0,0,0,0,0,0,0,0,0,0,0,0,0,0,0,0,0,0],"sum_hessian":[4.39E2,3.22E2,1.17E2,1E1,3.12E2,4.1E1,7.6E1,9E0,1E0,9E1,2.22E2,3.3E1,8E0,1E0,7.5E1,7E0,2E0,7.4E1,1.6E1,2.19E2,3E0,2.9E1,4E0,3E0,5E0,2E0,7.3E1,4E0,3E0,7E0,6.7E1,2E0,1.4E1,3E0,2.16E2,1E0,2E0,2.1E1,8E0,3E0,1E0,1E0,2E0,9E0,6.4E1,1E0,3E0,1E0,2E0,1E0,6E0,4.6E1,2.1E1,1E0,1E0,4E0,1E1,3.7E1,1.79E2,2E1,1E0,1E0,7E0,1E0,1E0,4E0,5E0,5.9E1,5E0],"tree_param":{"num_deleted":"0","num_feature":"2","num_nodes":"69","size_leaf_vector":"0"}},{"base_weights":[-9.641438E-3,-1.9697158E-2,9.930934E-3,7.936318E-3,-2.020801E-2,1.5901448E-2,-2.7001582E-3,-4.97368E-3,2.250421E-2,-3.4750003E-2,-1.9331768E-2,1.4700136E-2,6.8617016E-2,-4.7651663E-2,1.2673674E-3,2.1714777E-2,-2.110809E-2,2.6808977E-2,6.9473386E-3,-1.1431689E-2,-4.9025357E-2,4.3316917E-3,-2.0251486E-2,1.2982819E-2,4.507606E-2,-7.5725354E-2,1.8284708E-2,4.0689886E-2,-1.4493354E-3,-2.7954563E-2,-3.7075728E-3,-2.6673561E-2,1.7781993E-2,-9.903766E-3,-5.2677583E-2,2.657173E-2,-3.5629538E-3,-2.0638E-2,3.7429214E-3,1.380282E-2,-3.2868624E-2,-3.0247986E-2,1.3956388E-3,-3.390314E-2,-1.0552794E-2,-1.1089966E-2,5.094756E-2,-1.2004597E-2,1.7321864E-2,-5.3634956E-2,-2.0039467E-2,1.27106905E-5,4.6722963E-3,1.4650041E-2,-1.7344385E-2,-4.3221533E-2,-1.1516293E-2,9.969102E-3,-6.461857E-3],"categories":[],"categories_nodes":[],"categories_segments":[],"categories_sizes":[],"default_left":[1,1,1,1,1,1,1,1,1,1,1,1,0,1,1,0,1,0,0,1,1,1,1,1,0,0,0,0,1,0,0,1,0,0,0,1,1,1,1,1,0,1,1,0,0,0,0,0,0,0,0,0,0,0,0,0,0,0,0],"id":9,"left_children":[1,3,5,7,9,11,13,15,17,19,21,23,-1,25,27,-1,29,-1,-1,31,33,35,37,39,-1,-1,-1,-1,41,-1,-1,43,-1,-1,-1,45,47,49,51,53,-1,55,57,-1,-1,-1,-1,-1,-1,-1,-1,-1,-1,-1,-1,-1,-1,-1,-1],"loss_changes":[8.679391E-2,4.2683035E-3,1.13550555E-2,1.2403576E-3,2.972521E-3,5.4507647E-3,8.799359E-3,2.1807675E-3,1.4654943E-5,4.4327136E-3,6.0074553E-3,4.683459E-3,0E0,8.788927E-3,4.9855397E-3,0E0,2.5375292E-4,0E0,0E0,3.5912078E-3,7.642247E-4,2.0260233E-3,2.5070757E-3,4.1007064E-3,0E0,0E0,0E0,0E0,3.6471977E-3,0E0,0E0,2.2495887E-4,0E0,0E0,0E0,3.3191124E-3,1.7946616E-3,4.020624E-3,1.7274433E-5,2.7873982E-3,0E0,4.7431444E-4,2.8264227E-3,0E0,0E0,0E0,0E0,0E0,0E0,0E0,0E0,0E0,0E0,0E0,0E0,0E0,0E0,0E0,0E0],"parents":[2147483647,0,0,1,1,2,2,3,3,4,4,5,5,6,6,7,7,8,8,9,9,10,10,11,11,13,13,14,14,16,16,19,19,20,20,21,21,22,22,23,23,28,28,31,31,35,35,36,36,37,37,38,38,39,39,41,41,42,42],"right_children":[2,4,6,8,10,12,14,16,18,20,22,24,-1,26,28,-1,30,-1,-1,32,34,36,38,40,-1,-1,-1,-1,42,-1,-1,44,-1,-1,-1,46,48,50,52,54,-1,56,58,-1,-1,-1,-1,-1,-1,-1,-1,-1,-1,-1,-1,-1,-1,-1,-1],"split_conditions":[2.9969132E-1,8.90318E-2,2.2813466E-1,1.8120003E-1,4.1232565E-1,2.27165E-1,2.3119187E-1,1.3242324E-1,2.4091077E-1,3.0533385E-1,4.273619E-1,9.6751547E-1,2.0585105E-2,6.855624E-1,2.3651001E-1,6.5144333E-3,1.7297462E-1,8.042693E-3,2.0842017E-3,2.2161365E-1,7.3760554E-2,1.8623695E-1,2.4845855E-1,9.6416515E-1,1.3522819E-2,-2.2717606E-2,5.4854127E-3,1.2206966E-2,2.4397168E-1,-8.38637E-3,-1.1122719E-3,1.8996257E-1,5.334598E-3,-2.97113E-3,-1.5803276E-2,1.4592926E-1,4.2362085E-1,4.3264115E-1,4.2948034E-1,2.2513252E-1,-9.860587E-3,5.319488E-1,3.2373166E-1,-1.0170942E-2,-3.1658383E-3,-3.32699E-3,1.5284269E-2,-3.6013792E-3,5.1965592E-3,-1.6090488E-2,-6.0118404E-3,3.8132073E-6,1.4016889E-3,4.3950127E-3,-5.203316E-3,-1.2966461E-2,-3.454888E-3,2.9907308E-3,-1.9385571E-3],"split_indices":[0,1,1,0,1,1,1,0,0,1,1,0,0,0,1,0,0,0,0,1,0,0,0,0,0,0,0,0,1,0,0,0,0,0,0,0,1,1,1,1,0,0,1,0,0,0,0,0,0,0,0,0,0,0,0,0,0,0,0],"split_type":[0,0,0,0,0,0,0,0,0,0,0,0,0,0,0,0,0,0,0,0,0,0,0,0,0,0,0,0,0,0,0,0,0,0,0,0,0,0,0,0,0,0,0,0,0,0,0,0,0,0,0,0,0,0,0,0,0,0,0],"sum_hessian":[4.39E2,2.9E2,1.49E2,5E0,2.85E2,1.01E2,4.8E1,3E0,2E0,1.4E1,2.71E2,1E2,1E0,3E0,4.5E1,1E0,2E0,1E0,1E0,6E0,8E0,1E1,2.61E2,9.6E1,4E0,2E0,1E0,2E0,4.3E1,1E0,1E0,4E0,2E0,1E0,7E0,2E0,8E0,2.57E2,4E0,9.5E1,1E0,3E0,4E1,2E0,2E0,1E0,1E0,6E0,2E0,3E0,2.54E2,1E0,3E0,9.3E1,2E0,1E0,2E0,1.9E1,2.1E1],"tree_param":{"num_deleted":"0","num_feature":"2","num_nodes":"59","size_leaf_vector":"0"}},{"base_weights":[-6.8029454E-3,-1.2794637E-2,9.655693E-3,1.24204215E-2,-1.3639912E-2,5.5689037E-2,8.78627E-3,5.4113864E-4,6.5606624E-2,-3.7121844E-2,-1.3060063E-2,3.5696924E-2,7.266179E-3,1.8457562E-2,-3.5004152E-3,-1.4514513E-2,-5.044871E-2,-1.5067425E-2,-6.0484633E-3,-9.147793E-3,4.6495426E-2,-1.1826017E-2,9.253904E-3,-1.9243121E-2,7.5781248E-3,-2.9110342E-2,5.4210424E-5,-4.0150966E-2,-1.4356829E-2,-8.200868E-3,2.3572978E-2,-1.7335594E-3,-5.6375295E-2,-1.1023792E-3,1.4680357E-2,-3.1514317E-3,-2.355654E-2,2.278763E-2,-2.13027E-5,-4.501E-3,4.5823157E-3,-2.2006258E-3,-4.7300912E-2,1.6431004E-2,-1.5242988E-2,1.0067742E-2,-1.203764E-2,7.608468E-3,3.1679828E-2,1.7353168E-2,-3.4701943E-2,-5.2232146E-3,1.6715826E-2,1.2190521E-2,3.796194E-2],"categories":[],"categories_nodes":[],"categories_segments":[],"categories_sizes":[],"default_left":[1,1,1,1,1,0,1,1,0,1,1,1,1,0,1,1,0,1,1,0,0,1,1,1,1,0,1,1,1,1,1,1,0,1,1,0,0,0,0,0,0,0,0,0,0,0,0,0,0,0,0,0,0,0,0],"id":10,"left_children":[1,3,5,7,9,-1,11,13,-1,15,17,19,21,-1,23,25,-1,27,29,-1,-1,31,33,35,37,-1,39,41,43,45,47,49,-1,51,53,-1,-1,-1,-1,-1,-1,-1,-1,-1,-1,-1,-1,-1,-1,-1,-1,-1,-1,-1,-1],"loss_changes":[4.3514177E-2,7.0537217E-3,4.2333445E-3,6.914451E-3,3.7769862E-3,0E0,4.526696E-3,7.88711E-4,0E0,1.3767565E-3,4.2298287E-3,3.330865E-3,4.359842E-3,0E0,1.7154824E-3,8.521485E-4,0E0,3.6657304E-3,4.6563335E-3,0E0,0E0,4.8479987E-3,5.748367E-3,2.03404E-4,6.9398666E-4,0E0,8.250442E-5,1.523965E-3,6.6073723E-3,4.7472958E-3,4.0607434E-4,6.8947743E-3,0E0,2.7306424E-3,3.4210347E-3,0E0,0E0,0E0,0E0,0E0,0E0,0E0,0E0,0E0,0E0,0E0,0E0,0E0,0E0,0E0,0E0,0E0,0E0,0E0,0E0],"parents":[2147483647,0,0,1,1,2,2,3,3,4,4,6,6,7,7,9,9,10,10,11,11,12,12,14,14,15,15,17,17,18,18,21,21,22,22,23,23,24,24,26,26,27,27,28,28,29,29,30,30,31,31,33,33,34,34],"right_children":[2,4,6,8,10,-1,12,14,-1,16,18,20,22,-1,24,26,-1,28,30,-1,-1,32,34,36,38,-1,40,42,44,46,48,50,-1,52,54,-1,-1,-1,-1,-1,-1,-1,-1,-1,-1,-1,-1,-1,-1,-1,-1,-1,-1,-1,-1],"split_conditions":[4.6886122E-1,1.3342735E-1,4.696126E-1,1.2506394E-1,2.3169743E-1,1.6706713E-2,3.450751E-2,1.3242324E-1,1.9681988E-2,3.4493452E-1,8.128427E-2,5.587805E-1,5.1101442E-2,5.5372687E-3,1.8562824E-1,1.9958669E-1,-1.5134613E-2,5.174236E-1,4.9199736E-1,-2.744338E-3,1.3948629E-2,4.970374E-2,6.746961E-1,4.8174046E-2,1.9283536E-1,-8.733103E-3,3.0488724E-1,5.2398734E-2,5.274677E-1,3.2113224E-1,8.422153E-2,9.4726217E-1,-1.6912589E-2,3.1864864E-1,2.1901827E-1,-9.4542955E-4,-7.0669623E-3,6.8362895E-3,-6.39081E-6,-1.3503E-3,1.3746948E-3,-6.601878E-4,-1.4190274E-2,4.9293013E-3,-4.5728968E-3,3.0203229E-3,-3.6112922E-3,2.2825405E-3,9.5039485E-3,5.2059507E-3,-1.0410584E-2,-1.5669644E-3,5.0147483E-3,3.6571564E-3,1.1388583E-2],"split_indices":[0,1,0,1,1,0,1,0,0,0,0,0,1,0,0,0,0,1,1,0,0,1,0,1,0,0,0,0,1,1,0,0,0,1,1,0,0,0,0,0,0,0,0,0,0,0,0,0,0,0,0,0,0,0,0],"split_type":[0,0,0,0,0,0,0,0,0,0,0,0,0,0,0,0,0,0,0,0,0,0,0,0,0,0,0,0,0,0,0,0,0,0,0,0,0,0,0,0,0,0,0,0,0,0,0,0,0,0,0,0,0,0,0],"sum_hessian":[4.39E2,3.22E2,1.17E2,1E1,3.12E2,1E0,1.16E2,9E0,1E0,6E0,3.06E2,5E0,1.11E2,1E0,8E0,3E0,3E0,2.37E2,6.9E1,1E0,4E0,1E1,1.01E2,3E0,5E0,1E0,2E0,5E0,2.32E2,6.5E1,4E0,9E0,1E0,3.5E1,6.6E1,1E0,2E0,1E0,4E0,1E0,1E0,1E0,4E0,6E0,2.26E2,1.1E1,5.4E1,2E0,2E0,6E0,3E0,2.9E1,6E0,6.1E1,5E0],"tree_param":{"num_deleted":"0","num_feature":"2","num_nodes":"55","size_leaf_vector":"0"}},{"base_weights":[-4.713922E-3,-8.683354E-3,8.1938915E-3,8.676889E-3,-9.295746E-3,4.279633E-2,6.7423703E-3,-6.735081E-4,5.576563E-2,-2.787816E-2,-8.619472E-3,-2.567245E-2,7.996624E-3,1.5688926E-2,-3.8786442E-3,-1.1685252E-3,-4.2973876E-2,-9.270493E-3,1.4617628E-2,-3.4090232E-2,-2.0955503E-4,6.9585885E-3,3.854823E-2,-1.4440114E-2,5.5690208E-3,-3.61013E-2,3.415376E-2,-1.904642E-2,-4.8735574E-2,1.758939E-2,-9.503529E-3,-1.9231439E-4,2.2054652E-2,-9.142954E-3,9.367654E-3,-2.0227894E-2,-7.936195E-3,1.6453087E-2,-1.0799408E-2,3.894955E-3,4.7335684E-2,-2.4743788E-2,-3.8258433E-3,4.703447E-3,2.1680638E-2,-3.8248464E-2,-9.283879E-3,1.7885963E-3,-3.0675232E-3,3.1018853E-3,2.522483E-2,4.9520622E-5,-3.9801043E-2,6.994644E-3,2.4479931E-2],"categories":[],"categories_nodes":[],"categories_segments":[],"categories_sizes":[],"default_left":[1,1,1,1,1,0,1,1,0,1,1,1,1,0,1,1,1,1,1,0,0,1,0,1,1,0,1,1,0,1,1,1,1,1,1,0,0,0,0,0,0,0,0,0,0,0,0,0,0,0,0,0,0,0,0],"id":11,"left_children":[1,3,5,7,9,-1,11,13,-1,15,17,19,21,-1,23,25,27,29,31,-1,-1,33,-1,35,37,-1,39,41,-1,43,45,47,49,51,53,-1,-1,-1,-1,-1,-1,-1,-1,-1,-1,-1,-1,-1,-1,-1,-1,-1,-1,-1,-1],"loss_changes":[2.2615295E-2,3.6633946E-3,4.934973E-3,5.3211395E-3,3.8564764E-3,0E0,4.3115923E-3,6.3773384E-4,0E0,4.3849964E-3,4.91591E-3,8.502202E-4,2.8396985E-3,0E0,1.0782294E-3,7.402523E-3,3.680121E-5,2.0950325E-3,9.955185E-4,0E0,0E0,3.8094553E-3,0E0,2.7683796E-5,1.2466139E-3,0E0,1.012238E-3,1.6548578E-4,0E0,5.6185003E-5,1.5769433E-3,2.8268689E-5,2.822571E-4,3.665679E-3,2.8411439E-3,0E0,0E0,0E0,0E0,0E0,0E0,0E0,0E0,0E0,0E0,0E0,0E0,0E0,0E0,0E0,0E0,0E0,0E0,0E0,0E0],"parents":[2147483647,0,0,1,1,2,2,3,3,4,4,6,6,7,7,9,9,10,10,11,11,12,12,14,14,15,15,16,16,17,17,18,18,21,21,23,23,24,24,26,26,27,27,29,29,30,30,31,31,32,32,33,33,34,34],"right_children":[2,4,6,8,10,-1,12,14,-1,16,18,20,22,-1,24,26,28,30,32,-1,-1,34,-1,36,38,-1,40,42,-1,44,46,48,50,52,54,-1,-1,-1,-1,-1,-1,-1,-1,-1,-1,-1,-1,-1,-1,-1,-1,-1,-1,-1,-1],"split_conditions":[5.563799E-1,1.3342735E-1,5.6416166E-1,1.2506394E-1,2.3169743E-1,1.2838899E-2,5.820167E-1,1.3242324E-1,1.672969E-2,2.0378903E-1,4.7921193E-1,2.5969434E-1,9.795027E-1,4.706678E-3,5.3894803E-2,1.4038956E-1,3.2381445E-1,2.3899756E-1,3.1864864E-1,-1.022707E-2,-6.2866515E-5,5.136232E-2,1.156447E-2,1.7297462E-1,8.90318E-2,-1.083039E-2,3.9766908E-1,1.9958669E-1,-1.4620673E-2,2.5335294E-1,2.7331042E-1,5.2246654E-1,4.8915106E-1,4.9223304E-2,9.275291E-1,-6.0683684E-3,-2.3808584E-3,4.9359263E-3,-3.2398226E-3,1.1684865E-3,1.4200706E-2,-7.423137E-3,-1.1477531E-3,1.4110343E-3,6.5041916E-3,-1.14745395E-2,-2.7851637E-3,5.365789E-4,-9.20257E-4,9.3056564E-4,7.567449E-3,1.4856188E-5,-1.19403135E-2,2.0983934E-3,7.3439796E-3],"split_indices":[0,1,0,1,1,0,0,0,0,1,0,1,0,0,1,1,0,1,1,0,0,1,0,0,1,0,0,0,0,0,1,0,0,1,0,0,0,0,0,0,0,0,0,0,0,0,0,0,0,0,0,0,0,0,0],"split_type":[0,0,0,0,0,0,0,0,0,0,0,0,0,0,0,0,0,0,0,0,0,0,0,0,0,0,0,0,0,0,0,0,0,0,0,0,0,0,0,0,0,0,0,0,0,0,0,0,0,0,0,0,0,0,0],"sum_hessian":[4.39E2,3.36E2,1.03E2,1.1E1,3.25E2,3E0,1E2,1E1,1E0,1E1,3.15E2,3E0,9.7E1,1E0,9E0,4E0,6E0,3.07E2,8E0,2E0,1E0,9.5E1,2E0,4E0,5E0,2E0,2E0,2E0,4E0,2E0,3.05E2,3E0,5E0,1.2E1,8.3E1,1E0,3E0,3E0,2E0,1E0,1E0,1E0,1E0,1E0,1E0,1E0,3.04E2,2E0,1E0,1E0,4E0,1E1,2E0,7.3E1,1E1],"tree_param":{"num_deleted":"0","num_feature":"2","num_nodes":"55","size_leaf_vector":"0"}},{"base_weights":[-3.2783104E-3,-7.1361754E-3,4.2278036E-3,-6.922049E-3,-3.461643E-2,2.4330398E-2,3.0736178E-3,-7.2768475E-3,3.7399963E-3,1.1094846E-2,4.269137E-2,-3.2320604E-2,4.062927E-3,1.3335586E-2,-7.398091E-3,-3.6295839E-3,7.4169E-3,-6.112655E-4,1.7100718E-2,-4.01952E-2,-4.348412E-3,1.033779E-2,1.2682126E-3,-1.33841755E-2,-7.032717E-3,-7.1330913E-3,3.4404695E-3,-4.2276084E-3,3.3107102E-3,6.347394E-3,2.470735E-2,-1.5844006E-2,3.176684E-3,-2.9886266E-2,-4.666482E-3,1.9388098E-2,-7.510089E-3,2.0665267E-2,-6.7974078E-3,2.0198524E-4,3.692637E-2,-6.465503E-3,-2.8295383E-2,4.8981234E-2,1.0093017E-3],"categories":[],"categories_nodes":[],"categories_segments":[],"categories_sizes":[],"default_left":[1,1,1,1,0,1,1,1,1,1,0,1,1,0,1,1,0,1,0,0,0,1,1,1,1,0,0,0,0,1,1,1,1,0,0,0,0,0,0,0,0,0,0,0,0],"id":12,"left_children":[1,3,5,7,-1,9,11,13,15,17,-1,19,21,-1,23,25,-1,27,-1,-1,-1,29,31,33,35,-1,-1,-1,-1,37,39,41,43,-1,-1,-1,-1,-1,-1,-1,-1,-1,-1,-1,-1],"loss_changes":[1.2771504E-2,1.4726995E-3,3.4055368E-3,1.1242498E-3,0E0,1.4704871E-3,5.1385798E-3,8.0090854E-4,2.978926E-4,4.3228554E-4,0E0,7.0629315E-4,2.4419918E-3,0E0,5.182754E-4,1.2362114E-4,0E0,5.654601E-5,0E0,0E0,0E0,2.3088031E-3,3.2508331E-3,2.018439E-3,3.5005445E-3,0E0,0E0,0E0,0E0,6.7276666E-3,2.6874244E-3,9.848089E-4,8.786125E-3,0E0,0E0,0E0,0E0,0E0,0E0,0E0,0E0,0E0,0E0,0E0,0E0],"parents":[2147483647,0,0,1,1,2,2,3,3,5,5,6,6,7,7,8,8,9,9,11,11,12,12,14,14,15,15,17,17,21,21,22,22,23,23,24,24,29,29,30,30,31,31,32,32],"right_children":[2,4,6,8,-1,10,12,14,16,18,-1,20,22,-1,24,26,-1,28,-1,-1,-1,30,32,34,36,-1,-1,-1,-1,38,40,42,44,-1,-1,-1,-1,-1,-1,-1,-1,-1,-1,-1,-1],"split_conditions":[2.9969132E-1,2.9573095E-1,3.6243606E-1,2.5778583E-1,-1.0384929E-2,3.2602513E-1,3.726768E-1,3.2377616E-2,3.7035334E-1,2.1873787E-1,1.2807411E-2,3.403369E-1,8.615413E-2,4.000676E-3,4.1232565E-1,2.9168087E-1,2.22507E-3,3.1802025E-1,5.1302155E-3,-1.2058561E-2,-1.3045237E-3,7.401676E-2,1.1661089E-1,1.24593645E-1,4.1932747E-1,-2.1399276E-3,1.0321409E-3,-1.2682825E-3,9.932132E-4,8.996068E-1,8.9424735E-1,1.0601598E-1,1.2498895E-1,-8.965881E-3,-1.3999447E-3,5.81643E-3,-2.2530267E-3,6.1995806E-3,-2.0392225E-3,6.0595576E-5,1.1077912E-2,-1.939651E-3,-8.488615E-3,1.4694371E-2,3.0279055E-4],"split_indices":[0,0,0,0,0,0,0,1,1,1,0,1,1,0,1,0,0,0,0,0,0,1,1,0,1,0,0,0,0,0,0,1,1,0,0,0,0,0,0,0,0,0,0,0,0],"split_type":[0,0,0,0,0,0,0,0,0,0,0,0,0,0,0,0,0,0,0,0,0,0,0,0,0,0,0,0,0,0,0,0,0,0,0,0,0,0,0,0,0,0,0,0,0],"sum_hessian":[4.39E2,2.9E2,1.49E2,2.89E2,1E0,7E0,1.42E2,2.8E2,9E0,5E0,2E0,3E0,1.39E2,1E0,2.79E2,3E0,6E0,2E0,3E0,2E0,1E0,4.2E1,9.7E1,1.4E1,2.65E2,2E0,1E0,1E0,1E0,3.4E1,8E0,9E0,8.8E1,4E0,1E1,4E0,2.61E2,1.6E1,1.8E1,3E0,5E0,6E0,3E0,3E0,8.5E1],"tree_param":{"num_deleted":"0","num_feature":"2","num_nodes":"45","size_leaf_vector":"0"}},{"base_weights":[-2.267325E-3,3.2812278E-3,-5.0622686E-3,2.2003304E-3,1.9730607E-2,-1.6758246E-2,-4.5897667E-3,3.2047748E-3,-4.473756E-2,3.670947E-2,9.635295E-3,-2.0479176E-2,1.0225534E-2,-5.2110245E-3,3.0174714E-3,1.4936194E-2,2.0710598E-3,-1.5433133E-2,2.2749294E-2,-3.0670712E-2,-1.1729846E-2,-4.699852E-3,-1.2776564E-2,2.4293855E-2,8.4746E-4,5.485511E-3,4.145974E-2,-3.52273E-2,3.2575305E-3,-1.4288425E-3,-2.1720856E-2,5.7174563E-3,3.219803E-2,9.955764E-5,-2.753557E-2,-5.0733914E-3,4.3595448E-2,8.470774E-3,-1.4757771E-2,-9.894178E-3,3.956915E-3,2.1141037E-2,-4.2441487E-3,-4.102826E-2,-8.912206E-3,1.49089135E-2,1.6390916E-3,1.9744486E-2,-1.1168301E-2,-4.500024E-3,2.374459E-3,-2.1621041E-2,-4.640365E-3,-2.488001E-2,-8.815138E-3,-1.39978975E-2,-5.3687743E-3,8.034045E-3,-1.6341116E-3],"categories":[],"categories_nodes":[],"categories_segments":[],"categories_sizes":[],"default_left":[1,1,1,1,1,1,1,1,0,0,1,1,0,1,1,1,1,1,1,0,1,1,1,0,1,1,0,1,1,0,0,1,0,1,0,1,0,0,1,1,1,0,0,0,0,0,0,0,0,0,0,0,0,0,0,0,0,0,0],"id":13,"left_children":[1,3,5,7,9,11,13,15,-1,-1,17,19,-1,21,23,25,27,29,31,-1,33,35,37,-1,39,41,-1,43,45,-1,-1,47,-1,49,-1,51,-1,-1,53,55,57,-1,-1,-1,-1,-1,-1,-1,-1,-1,-1,-1,-1,-1,-1,-1,-1,-1,-1],"loss_changes":[6.840083E-3,2.5880397E-3,1.5423107E-3,6.7438837E-3,1.1889553E-3,1.3138629E-3,1.3531973E-3,1.804478E-3,0E0,0E0,2.6523238E-3,5.319286E-4,0E0,9.5318444E-4,9.951518E-4,2.7805597E-3,5.7349373E-3,2.3312971E-4,6.2055583E-4,0E0,1.3115475E-3,4.6771085E-3,7.9853577E-4,0E0,7.4056385E-4,1.612955E-3,0E0,2.4495926E-4,2.3138372E-3,0E0,0E0,9.3108334E-4,0E0,6.30031E-5,0E0,1.6623992E-3,0E0,0E0,6.8297074E-4,1.7703336E-5,4.006493E-4,0E0,0E0,0E0,0E0,0E0,0E0,0E0,0E0,0E0,0E0,0E0,0E0,0E0,0E0,0E0,0E0,0E0,0E0],"parents":[2147483647,0,0,1,1,2,2,3,3,4,4,5,5,6,6,7,7,10,10,11,11,13,13,14,14,15,15,16,16,17,17,18,18,20,20,21,21,22,22,24,24,25,25,27,27,28,28,31,31,33,33,35,35,38,38,39,39,40,40],"right_children":[2,4,6,8,10,12,14,16,-1,-1,18,20,-1,22,24,26,28,30,32,-1,34,36,38,-1,40,42,-1,44,46,-1,-1,48,-1,50,-1,52,-1,-1,54,56,58,-1,-1,-1,-1,-1,-1,-1,-1,-1,-1,-1,-1,-1,-1,-1,-1,-1,-1],"split_conditions":[3.282517E-1,9.529607E-1,3.4789896E-1,9.4726217E-1,9.5989114E-1,4.7983348E-1,2.2556692E-1,4.9223304E-2,-1.3421268E-2,1.1012841E-2,9.6751547E-1,3.3391488E-1,3.0676604E-3,1.7858523E-1,2.2784695E-1,4.497038E-2,5.2456856E-2,9.6416515E-1,9.795027E-1,-9.201214E-3,3.4312177E-1,1.7035118E-1,4.1370666E-1,7.2881565E-3,2.4845855E-1,2.8233115E-2,1.2437922E-2,7.6629245E-1,6.962013E-2,-4.2865277E-4,-6.5162573E-3,9.723257E-1,9.6594095E-3,2.3854086E-1,-8.260672E-3,4.3911988E-1,1.3078635E-2,2.5412322E-3,4.3264115E-1,4.293695E-1,3.452984E-1,6.3423114E-3,-1.2732446E-3,-1.2308479E-2,-2.6736618E-3,4.4726743E-3,4.917275E-4,5.923346E-3,-3.3504905E-3,-1.3500073E-3,7.123377E-4,-6.4863125E-3,-1.3921096E-3,-7.4640033E-3,-2.6445414E-3,-4.1993693E-3,-1.6106324E-3,2.4102135E-3,-4.9023353E-4],"split_indices":[1,0,1,0,0,0,0,1,0,0,0,1,0,0,0,1,1,0,0,0,1,0,1,0,0,1,0,0,1,0,0,0,0,0,0,1,0,0,1,1,0,0,0,0,0,0,0,0,0,0,0,0,0,0,0,0,0,0,0],"split_type":[0,0,0,0,0,0,0,0,0,0,0,0,0,0,0,0,0,0,0,0,0,0,0,0,0,0,0,0,0,0,0,0,0,0,0,0,0,0,0,0,0,0,0,0,0,0,0,0,0,0,0,0,0,0,0,0,0,0,0],"sum_hessian":[4.39E2,1.47E2,2.92E2,1.39E2,8E0,1E1,2.82E2,1.37E2,2E0,2E0,6E0,9E0,1E0,2.61E2,2.1E1,1.1E1,1.26E2,2E0,4E0,3E0,6E0,2.46E2,1.5E1,1E0,2E1,9E0,2E0,3E0,1.23E2,1E0,1E0,2E0,2E0,4E0,2E0,2.45E2,1E0,1E0,1.4E1,4E0,1.6E1,3E0,6E0,2E0,1E0,1.4E1,1.09E2,1E0,1E0,1E0,3E0,5E0,2.4E2,4E0,1E1,1E0,3E0,9E0,7E0],"tree_param":{"num_deleted":"0","num_feature":"2","num_nodes":"59","size_leaf_vector":"0"}},{"base_weights":[-1.5953856E-3,3.4595756E-3,-3.290856E-3,2.4426358E-3,5.7661474E-2,-3.1235551E-2,-2.9389611E-3,1.1734578E-3,1.5017068E-2,-4.7248233E-2,8.401245E-3,1.928296E-2,-3.204235E-3,2.274143E-3,-5.444753E-2,4.265766E-2,-2.92285E-3,4.452035E-3,2.274259E-2,-2.4026968E-2,-2.9347797E-3,1.055129E-3,1.8318882E-2,-3.0757234E-2,2.5642246E-2,-3.2908455E-2,-1.0096987E-2,3.8002722E-3,-3.5913726E-3,4.048393E-3,-1.3790058E-2,2.8405905E-2,-4.5991144E-3,-8.792177E-3,-3.5148192E-2,-5.3530675E-3,9.6913725E-3,-1.309731E-2,-3.2091935E-3],"categories":[],"categories_nodes":[],"categories_segments":[],"categories_sizes":[],"default_left":[1,1,1,1,0,1,1,1,1,0,0,1,1,1,0,0,1,0,0,1,1,1,1,1,0,0,0,1,1,0,0,0,0,0,0,0,0,0,0],"id":14,"left_children":[1,3,5,7,-1,9,11,13,15,-1,-1,17,19,21,-1,-1,23,-1,-1,25,27,29,31,33,-1,-1,-1,35,37,-1,-1,-1,-1,-1,-1,-1,-1,-1,-1],"loss_changes":[3.7824214E-3,5.9774816E-3,3.1532869E-3,1.7378894E-3,0E0,2.935709E-3,1.9894177E-3,6.307163E-3,5.0833807E-3,0E0,0E0,1.0398729E-4,1.7473842E-3,1.9365477E-3,0E0,0E0,6.354328E-3,0E0,0E0,1.6259938E-4,1.4331702E-3,4.2327708E-3,1.7488624E-3,7.676124E-5,0E0,0E0,0E0,1.6156528E-3,1.0224292E-3,0E0,0E0,0E0,0E0,0E0,0E0,0E0,0E0,0E0,0E0],"parents":[2147483647,0,0,1,1,2,2,3,3,5,5,6,6,7,7,8,8,11,11,12,12,13,13,16,16,19,19,20,20,21,21,22,22,23,23,27,27,28,28],"right_children":[2,4,6,8,-1,10,12,14,16,-1,-1,18,20,22,-1,-1,24,-1,-1,26,28,30,32,34,-1,-1,-1,36,38,-1,-1,-1,-1,-1,-1,-1,-1,-1,-1],"split_conditions":[2.2813466E-1,2.27165E-1,2.3119187E-1,2.1809685E-1,1.7298443E-2,6.855624E-1,2.3651001E-1,2.1634062E-1,2.2107324E-1,-1.4174471E-2,2.5203736E-3,2.5335294E-1,2.4397168E-1,2.0620818E-1,-1.633426E-2,1.2797298E-2,6.4019746E-1,1.3356105E-3,6.8227774E-3,5.319488E-1,3.282517E-1,1.4425643E-1,6.827086E-1,5.5963093E-1,7.692674E-3,-9.872537E-3,-3.0290962E-3,3.0747038E-1,3.4789896E-1,1.214518E-3,-4.1370178E-3,8.521772E-3,-1.3797344E-3,-2.6376531E-3,-1.0544458E-2,-1.6059204E-3,2.907412E-3,-3.929193E-3,-9.627581E-4],"split_indices":[1,1,1,1,0,0,1,1,1,0,0,0,1,1,0,0,0,0,0,0,1,1,0,0,0,0,0,1,1,0,0,0,0,0,0,0,0,0,0],"split_type":[0,0,0,0,0,0,0,0,0,0,0,0,0,0,0,0,0,0,0,0,0,0,0,0,0,0,0,0,0,0,0,0,0,0,0,0,0,0,0],"sum_hessian":[4.39E2,1.1E2,3.29E2,1.09E2,1E0,3E0,3.26E2,1E2,9E0,2E0,1E0,3E0,3.23E2,9.9E1,1E0,3E0,6E0,1E0,2E0,3E0,3.2E2,9.3E1,6E0,3E0,3E0,1E0,2E0,2.8E1,2.92E2,7.8E1,1.5E1,4E0,2E0,1E0,2E0,1.1E1,1.7E1,1E1,2.82E2],"tree_param":{"num_deleted":"0","num_feature":"2","num_nodes":"39","size_leaf_vector":"0"}},{"base_weights":[-1.1338027E-3,-2.0386362E-3,4.9818084E-3,-1.6762591E-3,-4.750176E-2,5.4774195E-2,1.2012279E-3,-1.9038002E-3,1.5861094E-2,-5.9768736E-2,-1.1483908E-2,1.3735265E-2,6.3875414E-2,-2.9758701E-2,4.967725E-3,-1.651169E-3,-2.5112018E-2,4.2248607E-2,-1.2979358E-3,-8.182615E-3,-3.2437395E-2,-1.8273026E-3,3.165106E-2,-2.0631282E-3,1.533107E-2,-3.9501667E-2,-7.148246E-3,-1.2330294E-2,6.4896145E-3,2.6001043E-3,-8.724809E-2,4.145623E-2,6.57925E-3,-1.7285619E-3,-1.3834283E-2,-8.495649E-5,1.9747784E-2,1.9021332E-3,7.832289E-3,1.7376866E-2,-6.131512E-4],"categories":[],"categories_nodes":[],"categories_segments":[],"categories_sizes":[],"default_left":[1,1,1,1,1,1,1,1,1,0,0,0,0,1,1,1,1,0,1,0,0,1,1,1,1,0,0,0,1,1,0,0,0,0,0,0,0,0,0,0,0],"id":15,"left_children":[1,3,5,7,9,11,13,15,17,-1,-1,-1,-1,19,21,23,25,-1,27,-1,-1,29,31,33,35,-1,-1,-1,37,39,-1,-1,-1,-1,-1,-1,-1,-1,-1,-1,-1],"loss_changes":[2.4449443E-3,6.246695E-3,1.0664118E-2,1.5545548E-3,6.3911173E-4,6.166715E-4,6.4447992E-3,2.1747947E-3,2.3187567E-3,0E0,0E0,0E0,0E0,8.135103E-5,8.942222E-3,2.6551252E-3,7.5160176E-4,0E0,4.2367904E-4,0E0,0E0,1.5354558E-2,2.1855822E-3,1.4214169E-3,6.144715E-4,0E0,0E0,0E0,3.5804114E-6,1.8624335E-3,0E0,0E0,0E0,0E0,0E0,0E0,0E0,0E0,0E0,0E0,0E0],"parents":[2147483647,0,0,1,1,2,2,3,3,4,4,5,5,6,6,7,7,8,8,13,13,14,14,15,15,16,16,18,18,21,21,22,22,23,23,24,24,28,28,29,29],"right_children":[2,4,6,8,10,12,14,16,18,-1,-1,-1,-1,20,22,24,26,-1,28,-1,-1,30,32,34,36,-1,-1,-1,38,40,-1,-1,-1,-1,-1,-1,-1,-1,-1,-1,-1],"split_conditions":[7.770933E-1,7.63927E-1,7.8799325E-1,7.4869E-1,7.671666E-1,7.8656566E-1,8.1093013E-1,7.330593E-1,7.531678E-1,-1.7930621E-2,-3.4451724E-3,4.1205795E-3,1.9162625E-2,8.911508E-2,1.3436216E-1,6.93782E-1,7.344283E-1,1.2674582E-2,7.558813E-1,-2.4547847E-3,-9.731219E-3,1.29949E-1,1.5099251E-1,6.5760756E-1,4.4106673E-2,-1.18505005E-2,-2.1444738E-3,-3.6990882E-3,7.589159E-1,8.746387E-1,-2.6174428E-2,1.243687E-2,1.9737752E-3,-5.185686E-4,-4.150285E-3,-2.5486948E-5,5.9243357E-3,5.7063997E-4,2.3496868E-3,5.21306E-3,-1.8394536E-4],"split_indices":[0,0,0,0,0,0,0,0,0,0,0,0,0,1,1,0,0,0,0,0,0,1,1,0,1,0,0,0,0,0,0,0,0,0,0,0,0,0,0,0,0],"split_type":[0,0,0,0,0,0,0,0,0,0,0,0,0,0,0,0,0,0,0,0,0,0,0,0,0,0,0,0,0,0,0,0,0,0,0,0,0,0,0,0,0],"sum_hessian":[4.39E2,3.83E2,5.6E1,3.81E2,2E0,3E0,5.3E1,3.77E2,4E0,1E0,1E0,1E0,2E0,5E0,4.8E1,3.74E2,3E0,1E0,3E0,1E0,4E0,3.9E1,9E0,3.66E2,8E0,1E0,2E0,1E0,2E0,3.8E1,1E0,6E0,3E0,3.57E2,9E0,2E0,6E0,1E0,1E0,6E0,3.2E1],"tree_param":{"num_deleted":"0","num_feature":"2","num_nodes":"41","size_leaf_vector":"0"}},{"base_weights":[-8.3430565E-4,-1.1561413E-3,1.4706505E-2,-9.070275E-4,-3.647707E-2,7.840633E-3,3.4816742E-2,1.0904101E-2,-1.243129E-3,1.2554441E-4,3.0923128E-2,3.9515286E-3,3.0444643E-2,-2.5609568E-2,-1.005848E-3,-1.0391146E-2,1.0610849E-2,1.0772015E-2,-8.972205E-3,-2.9509267E-2,-6.955236E-3,-1.143096E-3,2.7976036E-2,8.204043E-3,-1.9324223E-2,-1.7297864E-3,1.5300989E-2,-4.3464005E-3,2.3197427E-2,-4.9968064E-4,-1.162982E-2,7.925621E-3,-1.4794742E-3],"categories":[],"categories_nodes":[],"categories_segments":[],"categories_sizes":[],"default_left":[1,1,1,1,0,1,0,1,1,1,0,1,0,1,1,1,1,1,1,0,0,1,0,0,0,0,0,0,0,0,0,0,0],"id":16,"left_children":[1,3,5,7,-1,9,-1,11,13,15,-1,17,-1,19,21,23,25,27,29,-1,-1,31,-1,-1,-1,-1,-1,-1,-1,-1,-1,-1,-1],"loss_changes":[2.2177012E-3,3.768052E-3,9.696834E-4,1.7205423E-3,0E0,1.4207859E-3,0E0,1.5099813E-3,2.3967698E-3,8.821538E-4,0E0,9.781104E-4,0E0,8.574105E-5,1.6867048E-3,8.229859E-4,2.579847E-4,1.4157931E-3,8.425562E-5,0E0,0E0,1.2776912E-3,0E0,0E0,0E0,0E0,0E0,0E0,0E0,0E0,0E0,0E0,0E0],"parents":[2147483647,0,0,1,1,2,2,3,3,5,5,7,7,8,8,9,9,11,11,13,13,14,14,15,15,16,16,17,17,18,18,21,21],"right_children":[2,4,6,8,-1,10,-1,12,14,16,-1,18,-1,20,22,24,26,28,30,-1,-1,32,-1,-1,-1,-1,-1,-1,-1,-1,-1,-1,-1],"split_conditions":[9.529607E-1,9.4726217E-1,6.855734E-2,4.9223304E-2,-1.0943121E-2,9.8346275E-1,1.0445023E-2,4.497038E-2,5.2456856E-2,4.6947908E-2,9.276939E-3,3.7586354E-2,9.133393E-3,7.6629245E-1,9.437466E-1,9.609557E-1,9.652566E-1,5.587805E-1,4.2305645E-1,-8.852781E-3,-2.086571E-3,6.962013E-2,8.392811E-3,2.461213E-3,-5.797267E-3,-5.1893597E-4,4.590297E-3,-1.3039202E-3,6.9592283E-3,-1.499042E-4,-3.488946E-3,2.3776866E-3,-4.438423E-4],"split_indices":[0,0,1,1,0,0,0,1,1,1,0,1,0,0,0,0,0,0,0,0,0,1,0,0,0,0,0,0,0,0,0,0,0],"split_type":[0,0,0,0,0,0,0,0,0,0,0,0,0,0,0,0,0,0,0,0,0,0,0,0,0,0,0,0,0,0,0,0,0],"sum_hessian":[4.39E2,4.31E2,8E0,4.29E2,2E0,7E0,1E0,1.1E1,4.18E2,6E0,1E0,9E0,2E0,3E0,4.15E2,3E0,3E0,6E0,3E0,2E0,1E0,4.14E2,1E0,1E0,2E0,1E0,2E0,3E0,3E0,1E0,2E0,1.4E1,4E2],"tree_param":{"num_deleted":"0","num_feature":"2","num_nodes":"33","size_leaf_vector":"0"}},{"base_weights":[-5.3844653E-4,1.6241333E-2,-7.6865393E-4,-1.2552172E-2,2.4510467E-2,8.61762E-4,-2.3225101E-3,1.3821527E-2,3.3633113E-2,-1.8379204E-5,1.1699649E-2,-1.1054952E-2,-1.3117207E-3,2.3168504E-2,-7.1097016E-3,-9.990093E-3,6.216152E-4,-2.0593524E-2,1.7783925E-2,-1.4047638E-2,6.672211E-3,8.557472E-3,-2.510668E-3,7.3769367E-3,-1.4201193E-2,-8.026034E-3,1.3678182E-3,-2.4429262E-3,-2.844736E-2,4.6957638E-2,9.0085035E-3,-3.439228E-2,-8.434331E-3,-2.6982054E-3,1.0695085E-2,5.0322865E-3,1.1625178E-2,1.6667148E-3,-1.837651E-2,-3.8129436E-3,-2.3607412E-2,7.213723E-4,1.6594768E-2,-1.4047466E-2,1.8254656E-2,-7.970341E-3,8.429846E-3,1.4299674E-2,-2.7336678E-4],"categories":[],"categories_nodes":[],"categories_segments":[],"categories_sizes":[],"default_left":[1,1,1,0,1,1,1,1,0,1,1,1,1,0,0,1,1,1,1,1,1,1,0,0,1,1,1,0,0,0,1,0,0,0,0,1,1,0,0,0,0,0,0,0,0,0,0,0,0],"id":17,"left_children":[1,3,5,-1,7,9,11,13,-1,15,17,19,21,-1,-1,23,25,27,29,31,33,35,-1,-1,37,39,41,-1,-1,-1,43,-1,-1,-1,-1,45,47,-1,-1,-1,-1,-1,-1,-1,-1,-1,-1,-1,-1],"loss_changes":[1.712129E-3,1.7362438E-3,1.1040443E-3,0E0,2.2696098E-5,2.0319943E-3,1.9538444E-3,9.472961E-4,0E0,1.2698146E-3,3.5099234E-3,1.3139206E-3,2.3998464E-3,0E0,0E0,9.823729E-4,1.2176707E-3,3.581607E-4,3.1611444E-3,1.9939379E-3,1.7964156E-4,1.7941196E-4,0E0,8.009956E-7,6.931636E-4,8.946726E-4,1.6909371E-3,0E0,0E0,0E0,2.81458E-3,0E0,0E0,0E0,0E0,5.97315E-4,3.5395764E-4,0E0,0E0,0E0,0E0,0E0,0E0,0E0,0E0,0E0,0E0,0E0,0E0],"parents":[2147483647,0,0,1,1,2,2,4,4,5,5,6,6,7,7,9,9,10,10,11,11,12,12,15,15,16,16,17,17,18,18,19,19,20,20,21,21,24,24,25,25,26,26,30,30,35,35,36,36],"right_children":[2,4,6,-1,8,10,12,14,-1,16,18,20,22,-1,-1,24,26,28,30,32,34,36,-1,-1,38,40,42,-1,-1,-1,44,-1,-1,-1,-1,46,48,-1,-1,-1,-1,-1,-1,-1,-1,-1,-1,-1,-1],"split_conditions":[2.8233115E-2,1.6013695E-2,5.342214E-1,-3.7656517E-3,2.5135916E-2,5.146048E-1,6.171221E-1,2.2066437E-2,1.0089934E-2,1.5085834E-1,2.3604153E-2,6.277314E-2,6.429677E-1,6.9505516E-3,-2.1329105E-3,7.3760554E-2,5.2195977E-2,1.762175E-2,5.526691E-2,5.3976583E-1,5.3628236E-1,7.686247E-5,-7.5320044E-4,2.213081E-3,3.0533385E-1,4.970374E-2,9.437466E-1,-7.328779E-4,-8.534208E-3,1.4087292E-2,6.5670714E-2,-1.0317684E-2,-2.5302994E-3,-8.0946164E-4,3.2085257E-3,6.345202E-1,1.1088338E-3,5.0001446E-4,-5.5129533E-3,-1.1438831E-3,-7.082224E-3,2.164117E-4,4.9784305E-3,-4.2142402E-3,5.476397E-3,-2.3911023E-3,2.5289538E-3,4.2899023E-3,-8.201004E-5],"split_indices":[1,1,1,0,1,1,1,1,0,0,0,0,1,0,0,0,1,0,0,1,1,0,0,0,1,1,0,0,0,0,0,0,0,0,0,1,0,0,0,0,0,0,0,0,0,0,0,0,0],"split_type":[0,0,0,0,0,0,0,0,0,0,0,0,0,0,0,0,0,0,0,0,0,0,0,0,0,0,0,0,0,0,0,0,0,0,0,0,0,0,0,0,0,0,0,0,0,0,0,0,0],"sum_hessian":[4.39E2,5E0,4.34E2,1E0,4E0,2.12E2,2.22E2,3E0,1E0,1.97E2,1.5E1,2.2E1,2E2,2E0,1E0,1.1E1,1.86E2,2E0,1.3E1,1.9E1,3E0,2.1E1,1.79E2,2E0,9E0,1.4E1,1.72E2,1E0,1E0,2E0,1.1E1,3E0,1.6E1,1E0,2E0,1.1E1,1E1,2E0,7E0,1.2E1,2E0,1.66E2,6E0,3E0,8E0,2E0,9E0,8E0,2E0],"tree_param":{"num_deleted":"0","num_feature":"2","num_nodes":"49","size_leaf_vector":"0"}},{"base_weights":[-3.6660576E-4,1.3225913E-2,-5.53246E-4,-1.0669351E-2,2.0138836E-2,-1.4008698E-3,1.1341796E-3,1.0879472E-2,2.8588146E-2,-1.2468519E-3,-2.2956025E-2,1.9545041E-2,6.64022E-5,1.85348E-2,-6.0432553E-3,-5.879175E-3,-9.357171E-4,1.07609285E-2,4.0516913E-2,-3.2116298E-2,5.3233694E-4,4.992813E-3,2.2809386E-2,-1.6349535E-2,-1.7198191E-3,1.6913915E-2,-1.2652412E-3,-2.0809174E-3,1.3248056E-2,-3.798979E-3,3.8152055E-3,7.6516643E-3,-2.4262752E-2,4.7407863E-3,-1.112409E-2,2.1871403E-3,3.7910506E-2,-1.5371017E-3,4.185647E-3,-1.0108488E-3,-4.258009E-2,2.9166019E-2,1.7081775E-3],"categories":[],"categories_nodes":[],"categories_segments":[],"categories_sizes":[],"default_left":[1,1,1,0,1,1,1,1,0,1,0,1,1,1,0,1,1,1,0,0,1,0,0,1,1,1,1,0,0,1,1,0,0,0,0,0,0,0,0,0,0,0,0],"id":18,"left_children":[1,3,5,-1,7,9,11,13,-1,15,-1,17,19,21,-1,23,25,27,-1,-1,29,-1,-1,31,33,35,37,-1,-1,39,41,-1,-1,-1,-1,-1,-1,-1,-1,-1,-1,-1,-1],"loss_changes":[1.1235579E-3,1.2059852E-3,6.2377035E-4,0E0,8.015218E-5,9.341425E-4,2.8688728E-3,6.302066E-4,0E0,4.110278E-4,0E0,1.0377544E-3,2.1014072E-3,5.977624E-5,0E0,7.5578096E-4,1.6212722E-3,2.5114336E-4,0E0,0E0,1.9767354E-3,0E0,0E0,1.1352838E-3,9.0333895E-4,1.4631448E-3,4.0357804E-4,0E0,0E0,6.4445655E-3,4.1699545E-3,0E0,0E0,0E0,0E0,0E0,0E0,0E0,0E0,0E0,0E0,0E0,0E0],"parents":[2147483647,0,0,1,1,2,2,4,4,5,5,6,6,7,7,9,9,11,11,12,12,13,13,15,15,16,16,17,17,20,20,23,23,24,24,25,25,26,26,29,29,30,30],"right_children":[2,4,6,-1,8,10,12,14,-1,16,-1,18,20,22,-1,24,26,28,-1,-1,30,-1,-1,32,34,36,38,-1,-1,40,42,-1,-1,-1,-1,-1,-1,-1,-1,-1,-1,-1,-1],"split_conditions":[2.8233115E-2,1.6013695E-2,2.9969132E-1,-3.2008053E-3,2.5135916E-2,2.9573095E-1,3.6243606E-1,2.2066437E-2,8.576444E-3,4.1232565E-1,-6.8868077E-3,3.435267E-1,3.6420777E-1,5.3838044E-1,-1.8129767E-3,1.24593645E-1,4.179023E-1,1.1598708E-1,1.2155075E-2,-9.63489E-3,1.3679166E-1,1.4978439E-3,6.8428162E-3,7.3760554E-2,1.939617E-1,4.164949E-1,2.2556692E-1,-6.2427524E-4,3.974417E-3,1.3324067E-1,1.4292523E-1,2.2954994E-3,-7.278826E-3,1.422236E-3,-3.3372273E-3,6.5614213E-4,1.1373152E-2,-4.6113052E-4,1.2556941E-3,-3.0325464E-4,-1.2774028E-2,8.749806E-3,5.1245326E-4],"split_indices":[1,1,0,0,1,0,0,1,0,1,0,0,0,0,0,0,1,1,0,0,1,0,0,0,0,1,0,0,0,1,1,0,0,0,0,0,0,0,0,0,0,0,0],"split_type":[0,0,0,0,0,0,0,0,0,0,0,0,0,0,0,0,0,0,0,0,0,0,0,0,0,0,0,0,0,0,0,0,0,0,0,0,0,0,0,0,0,0,0],"sum_hessian":[4.39E2,5E0,4.34E2,1E0,4E0,2.89E2,1.45E2,3E0,1E0,2.88E2,1E0,7E0,1.38E2,2E0,1E0,1.7E1,2.71E2,6E0,1E0,1E0,1.37E2,1E0,1E0,4E0,1.3E1,4E0,2.67E2,1E0,5E0,5.9E1,7.8E1,1E0,3E0,8E0,5E0,3E0,1E0,2.55E2,1.2E1,5.6E1,3E0,5E0,7.3E1],"tree_param":{"num_deleted":"0","num_feature":"2","num_nodes":"43","size_leaf_vector":"0"}},{"base_weights":[-2.2708466E-4,-4.3373104E-4,9.717173E-3,-2.2464842E-4,-3.0257663E-2,2.3302456E-2,2.5067416E-3,-4.1710306E-4,9.979472E-3,-1.2775798E-2,1.1174917E-2,-2.2351719E-4,-4.1055173E-2,2.1178364E-3,1.7311648E-2,-3.8079023E-3,-1.5355796E-2,4.2746514E-3,1.938799E-2,7.6773874E-3,-6.981994E-4,4.6999254E-3,-1.1701981E-3,2.449272E-2,-2.115786E-3,-5.136758E-3,9.124041E-3,-2.60744E-4,2.3586243E-2,-4.188766E-2,-3.851853E-4,-2.0065308E-3,2.5123358E-4,1.1634827E-2,2.0512342E-3],"categories":[],"categories_nodes":[],"categories_segments":[],"categories_sizes":[],"default_left":[1,1,1,1,0,0,1,1,1,1,1,1,0,1,1,0,0,1,0,1,1,0,1,0,0,0,1,0,0,0,0,0,0,0,0],"id":19,"left_children":[1,3,5,7,-1,-1,9,11,13,15,17,19,-1,21,23,-1,-1,25,-1,27,29,-1,31,-1,-1,-1,33,-1,-1,-1,-1,-1,-1,-1,-1],"loss_changes":[9.083903E-4,2.68701E-3,8.231884E-4,8.486095E-4,0E0,0E0,1.0700707E-3,3.3185459E-3,4.244799E-4,1.0938034E-5,2.0048505E-4,1.5880371E-3,0E0,4.7949838E-5,6.0986076E-4,0E0,0E0,2.2942637E-4,0E0,3.037028E-3,5.128125E-3,0E0,4.0704776E-6,0E0,0E0,0E0,2.940913E-5,0E0,0E0,0E0,0E0,0E0,0E0,0E0,0E0],"parents":[2147483647,0,0,1,1,2,2,3,3,6,6,7,7,8,8,9,9,10,10,11,11,13,13,14,14,17,17,19,19,20,20,22,22,26,26],"right_children":[2,4,6,8,-1,-1,10,12,14,16,18,20,-1,22,24,-1,-1,26,-1,28,30,-1,32,-1,-1,-1,34,-1,-1,-1,-1,-1,-1,-1,-1],"split_conditions":[9.529607E-1,9.4726217E-1,9.5989114E-1,9.275291E-1,-9.077299E-3,6.9907373E-3,9.6751547E-1,9.2369616E-1,6.8316154E-2,9.6416515E-1,9.8346275E-1,6.962013E-2,-1.2316552E-2,9.373359E-1,8.467422E-2,-1.1423707E-3,-4.6067387E-3,3.7927255E-2,5.8163973E-3,7.745527E-1,7.516686E-2,1.4099777E-3,9.435091E-1,7.347816E-3,-6.3473586E-4,-1.5410275E-3,9.757838E-1,-7.822321E-5,7.075873E-3,-1.2566298E-2,-1.15555595E-4,-6.0195924E-4,7.537007E-5,3.4904482E-3,6.153703E-4],"split_indices":[0,0,0,0,0,0,0,0,1,0,0,1,0,0,1,0,0,1,0,0,1,0,0,0,0,0,0,0,0,0,0,0,0,0,0],"split_type":[0,0,0,0,0,0,0,0,0,0,0,0,0,0,0,0,0,0,0,0,0,0,0,0,0,0,0,0,0,0,0,0,0,0,0],"sum_hessian":[4.39E2,4.31E2,8E0,4.29E2,2E0,2E0,6E0,4.22E2,7E0,2E0,4E0,4.21E2,1E0,4E0,3E0,1E0,1E0,3E0,1E0,2.3E1,3.98E2,2E0,2E0,2E0,1E0,1E0,2E0,1.6E1,7E0,2E0,3.96E2,1E0,1E0,1E0,1E0],"tree_param":{"num_deleted":"0","num_feature":"2","num_nodes":"35","size_leaf_vector":"0"}},{"base_weights":[-1.8136376E-4,1.0568569E-2,-3.2922177E-4,-9.029835E-3,1.6294217E-2,-6.0114223E-3,-2.6473865E-5,8.198261E-3,2.433902E-2,-2.9741654E-3,-3.489691E-2,-3.4208264E-4,1.0574927E-2,1.3841848E-2,-4.366249E-3,-6.5527936E-3,5.1192045E-3,4.323495E-5,-1.5489387E-2,-3.0947726E-3,2.078111E-2,4.282981E-3,1.647979E-2,-1.9349158E-3,-1.8768229E-2,1.122728E-3,7.83588E-3,-2.7835145E-4,2.5118327E-2,-3.351015E-2,-6.7954287E-3,3.7599604E-3,-7.462129E-3,2.6999533E-2,3.4900308E-3,5.23744E-3,-1.7588988E-2,-3.3919662E-3,-2.2762993E-2,2.1902125E-3,-1.0398626E-3,9.28547E-3,1.7435551E-3,-3.8538863E-5,-1.5619934E-2,2.0745248E-2,-1.3693417E-2,-1.7055571E-3,-8.812468E-3,7.0334673E-3,-1.7984211E-3],"categories":[],"categories_nodes":[],"categories_segments":[],"categories_sizes":[],"default_left":[1,1,1,0,1,1,1,1,0,1,0,1,1,1,0,1,1,1,1,1,1,0,0,1,1,1,1,1,0,0,1,0,1,0,1,0,0,0,0,0,0,0,0,0,0,0,0,0,0,0,0],"id":20,"left_children":[1,3,5,-1,7,9,11,13,-1,15,-1,17,19,21,-1,23,25,27,29,31,33,-1,-1,35,37,39,41,43,-1,-1,45,-1,47,-1,49,-1,-1,-1,-1,-1,-1,-1,-1,-1,-1,-1,-1,-1,-1,-1,-1],"loss_changes":[7.028434E-4,8.204155E-4,7.481602E-4,0E0,1.2611423E-4,1.8263292E-3,1.388818E-3,3.4407256E-4,0E0,6.417715E-4,0E0,2.3527883E-3,1.7384981E-3,5.0646486E-6,0E0,8.098258E-4,6.720233E-5,3.1841323E-3,1.3390018E-3,2.0767968E-4,6.584334E-4,0E0,0E0,1.4394403E-3,1.6848696E-4,1.1511647E-5,1.9135769E-5,1.4342488E-3,0E0,0E0,1.8038757E-3,0E0,1.6063117E-5,0E0,6.886702E-5,0E0,0E0,0E0,0E0,0E0,0E0,0E0,0E0,0E0,0E0,0E0,0E0,0E0,0E0,0E0,0E0],"parents":[2147483647,0,0,1,1,2,2,4,4,5,5,6,6,7,7,9,9,11,11,12,12,13,13,15,15,16,16,17,17,18,18,19,19,20,20,23,23,24,24,25,25,26,26,27,27,30,30,32,32,34,34],"right_children":[2,4,6,-1,8,10,12,14,-1,16,-1,18,20,22,-1,24,26,28,30,32,34,-1,-1,36,38,40,42,44,-1,-1,46,-1,48,-1,50,-1,-1,-1,-1,-1,-1,-1,-1,-1,-1,-1,-1,-1,-1,-1,-1],"split_conditions":[2.8233115E-2,1.6013695E-2,5.8723688E-2,-2.7089508E-3,2.5135916E-2,5.805833E-2,9.210105E-1,2.2066437E-2,7.3017064E-3,5.2195977E-2,-1.0469073E-2,8.746387E-1,7.0243254E-2,5.3838044E-1,-1.3098747E-3,4.9223304E-2,9.065982E-1,8.5723805E-1,7.546452E-2,9.373359E-1,8.467422E-2,1.2848944E-3,4.943937E-3,9.4726217E-1,4.5310098E-1,8.811925E-1,9.757838E-1,8.373819E-1,7.535498E-3,-1.0053045E-2,8.015586E-2,1.1279882E-3,9.4518256E-1,8.0998605E-3,9.322176E-1,1.5712321E-3,-5.2766968E-3,-1.0175899E-3,-6.828898E-3,6.570638E-4,-3.119588E-4,2.785641E-3,5.2306656E-4,-1.1561659E-5,-4.6859803E-3,6.2235747E-3,-4.108025E-3,-5.1166717E-4,-2.6437403E-3,2.1100403E-3,-5.3952634E-4],"split_indices":[1,1,1,0,1,1,0,1,0,1,0,0,1,0,0,1,0,0,1,0,1,0,0,0,0,0,0,0,0,0,1,0,0,0,0,0,0,0,0,0,0,0,0,0,0,0,0,0,0,0,0],"split_type":[0,0,0,0,0,0,0,0,0,0,0,0,0,0,0,0,0,0,0,0,0,0,0,0,0,0,0,0,0,0,0,0,0,0,0,0,0,0,0,0,0,0,0,0,0,0,0,0,0,0,0],"sum_hessian":[4.39E2,5E0,4.34E2,1E0,4E0,2.1E1,4.13E2,3E0,1E0,2E1,1E0,4.02E2,1.1E1,2E0,1E0,1.4E1,6E0,3.93E2,9E0,5E0,6E0,1E0,1E0,1.1E1,3E0,3E0,3E0,3.89E2,4E0,2E0,7E0,2E0,3E0,4E0,2E0,8E0,3E0,1E0,2E0,2E0,1E0,2E0,1E0,3.84E2,5E0,1E0,6E0,1E0,2E0,1E0,1E0],"tree_param":{"num_deleted":"0","num_feature":"2","num_nodes":"51","size_leaf_vector":"0"}},{"base_weights":[-1.4130009E-4,-3.036285E-4,7.666164E-3,-1.5458046E-4,-2.1565974E-2,1.770091E-2,2.270392E-3,-5.27061E-4,2.891954E-3,-8.219282E-3,8.110118E-3,-2.1403603E-4,-4.020989E-2,4.215285E-2,-7.4294483E-4,-1.914829E-3,-1.0414094E-2,3.133744E-3,1.4007807E-2,-3.8971484E-4,1.3110089E-2,-5.0474524E-2,-9.84031E-3,1.2003869E-2,4.8201222E-2,-2.2283634E-2,2.5900572E-3,-3.711313E-3,6.652534E-3,-2.2888799E-4,-1.5369803E-2,3.624022E-2,-1.7324984E-3,-8.699417E-3,-2.6900887E-2,-3.8787902E-3,2.1737594E-2,8.496791E-3,1.4820099E-3],"categories":[],"categories_nodes":[],"categories_segments":[],"categories_sizes":[],"default_left":[1,1,1,1,0,0,1,1,1,1,1,1,1,1,1,0,0,1,0,1,1,0,0,0,0,1,1,0,1,0,0,0,0,0,0,0,0,0,0],"id":21,"left_children":[1,3,5,7,-1,-1,9,11,13,15,17,19,21,23,25,-1,-1,27,-1,29,31,-1,-1,-1,-1,33,35,-1,37,-1,-1,-1,-1,-1,-1,-1,-1,-1,-1],"loss_changes":[5.599719E-4,1.3657224E-3,4.4711883E-4,4.894774E-4,0E0,0E0,4.954571E-4,4.7613326E-3,6.7386585E-3,2.1570071E-5,1.0284863E-4,8.99282E-4,4.3851323E-4,1.5080813E-4,3.216703E-3,0E0,0E0,1.21034915E-4,0E0,9.071597E-4,1.779341E-3,0E0,0E0,0E0,0E0,1.4230842E-4,4.914953E-3,0E0,1.601498E-5,0E0,0E0,0E0,0E0,0E0,0E0,0E0,0E0,0E0,0E0],"parents":[2147483647,0,0,1,1,2,2,3,3,6,6,7,7,8,8,9,9,10,10,11,11,12,12,13,13,14,14,17,17,19,19,20,20,25,25,26,26,28,28],"right_children":[2,4,6,8,-1,-1,10,12,14,16,18,20,22,24,26,-1,-1,28,-1,30,32,-1,-1,-1,-1,34,36,-1,38,-1,-1,-1,-1,-1,-1,-1,-1,-1,-1],"split_conditions":[9.529607E-1,9.4726217E-1,9.5989114E-1,7.770933E-1,-6.469792E-3,5.3102733E-3,9.6751547E-1,7.63927E-1,7.8799325E-1,9.6416515E-1,9.8346275E-1,7.4869E-1,7.671666E-1,7.8656566E-1,8.1093013E-1,-5.744487E-4,-3.1242282E-3,3.7927255E-2,4.202342E-3,7.330593E-1,7.531678E-1,-1.5142358E-2,-2.952093E-3,3.6011608E-3,1.4460367E-2,8.013073E-1,1.3436216E-1,-1.1133939E-3,9.757838E-1,-6.86664E-5,-4.610941E-3,1.0872066E-2,-5.1974953E-4,-2.6098252E-3,-8.070267E-3,-1.1636371E-3,6.5212785E-3,2.5490373E-3,4.4460298E-4],"split_indices":[0,0,0,0,0,0,0,0,0,0,0,0,0,0,0,0,0,1,0,0,0,0,0,0,0,0,1,0,0,0,0,0,0,0,0,0,0,0,0],"split_type":[0,0,0,0,0,0,0,0,0,0,0,0,0,0,0,0,0,0,0,0,0,0,0,0,0,0,0,0,0,0,0,0,0,0,0,0,0,0,0],"sum_hessian":[4.39E2,4.31E2,8E0,4.29E2,2E0,2E0,6E0,3.83E2,4.6E1,2E0,4E0,3.81E2,2E0,3E0,4.3E1,1E0,1E0,3E0,1E0,3.77E2,4E0,1E0,1E0,1E0,2E0,5E0,3.8E1,1E0,2E0,3.74E2,3E0,1E0,3E0,2E0,3E0,2.9E1,9E0,1E0,1E0],"tree_param":{"num_deleted":"0","num_feature":"2","num_nodes":"39","size_leaf_vector":"0"}},{"base_weights":[-9.54049E-5,8.502792E-3,-2.1378139E-4,-7.6410174E-3,1.3259756E-2,-4.313683E-3,4.6041546E-6,6.2134415E-3,2.0722508E-2,-1.7495212E-3,-2.908054E-2,6.6245557E-3,-4.197635E-4,1.0387659E-2,-3.1546056E-3,-4.4029234E-3,4.1862726E-3,2.9376468E-3,1.1049926E-2,-1.7480597E-2,-6.2305466E-5,-1.0779848E-3,-1.3277009E-2,6.384452E-4,5.4777144E-3,8.990884E-3,-1.0967004E-2,2.109906E-2,4.6441182E-3,-2.3136426E-2,-6.0406625E-3,1.6917353E-2,-3.3165902E-4,-5.04517E-3,2.1280527E-2,-2.8488338E-3,-1.5803456E-2,-3.0204654E-4,1.2597144E-3,4.5654178E-4,6.6188723E-3,4.014462E-3,2.937755E-2,-2.2236869E-2,1.7056227E-2,-7.236401E-3,9.810358E-3,-6.8134367E-3,-2.5513813E-2,-4.5529157E-3,2.212199E-2,-3.1970933E-2,6.710988E-6],"categories":[],"categories_nodes":[],"categories_segments":[],"categories_sizes":[],"default_left":[1,1,1,0,1,1,1,1,0,1,0,1,1,0,0,1,1,1,1,1,1,1,1,1,1,1,1,0,1,1,0,1,1,0,0,0,0,0,0,0,0,0,0,0,0,0,0,0,0,0,0,0,0],"id":22,"left_children":[1,3,5,-1,7,9,11,13,-1,15,-1,17,19,-1,-1,21,23,25,27,29,31,33,35,37,39,41,43,-1,45,47,-1,49,51,-1,-1,-1,-1,-1,-1,-1,-1,-1,-1,-1,-1,-1,-1,-1,-1,-1,-1,-1,-1],"loss_changes":[4.4966044E-4,5.6209124E-4,3.8950116E-4,0E0,1.3416645E-4,1.34626E-3,1.1658282E-3,1.8918602E-4,0E0,3.4918287E-4,0E0,3.7543767E-4,2.3773385E-3,0E0,0E0,4.282745E-4,2.857548E-5,1.3611253E-3,6.1011466E-4,3.77859E-4,1.7572733E-3,1.1717683E-3,6.0363498E-5,2.133388E-6,2.562796E-5,9.980442E-4,1.9583672E-3,0E0,5.6201266E-4,2.0193867E-5,0E0,7.7118934E-4,4.047E-3,0E0,0E0,0E0,0E0,0E0,0E0,0E0,0E0,0E0,0E0,0E0,0E0,0E0,0E0,0E0,0E0,0E0,0E0,0E0,0E0],"parents":[2147483647,0,0,1,1,2,2,4,4,5,5,6,6,7,7,9,9,11,11,12,12,15,15,16,16,17,17,18,18,19,19,20,20,21,21,22,22,23,23,24,24,25,25,26,26,28,28,29,29,31,31,32,32],"right_children":[2,4,6,-1,8,10,12,14,-1,16,-1,18,20,-1,-1,22,24,26,28,30,32,34,36,38,40,42,44,-1,46,48,-1,50,52,-1,-1,-1,-1,-1,-1,-1,-1,-1,-1,-1,-1,-1,-1,-1,-1,-1,-1,-1,-1],"split_conditions":[2.8233115E-2,1.6013695E-2,5.8723688E-2,-2.2923052E-3,2.5135916E-2,5.805833E-2,9.099738E-2,2.2066437E-2,6.216753E-3,5.2195977E-2,-8.724162E-3,7.401676E-2,1.1457975E-1,3.1162978E-3,-9.463817E-4,4.9223304E-2,5.380402E-2,6.88187E-2,7.857861E-2,8.856063E-1,1.2498895E-1,4.790405E-2,4.5310098E-1,9.3759847E-1,5.8173466E-1,6.809934E-2,9.541551E-1,6.3297185E-3,8.981223E-1,3.7162983E-1,-1.8121988E-3,4.742117E-1,1.2849826E-1,-1.5135511E-3,6.3841585E-3,-8.5465016E-4,-4.7410373E-3,-9.061396E-5,3.7791432E-4,1.3696254E-4,1.9856617E-3,1.2043387E-3,8.813266E-3,-6.671061E-3,5.1168683E-3,-2.1709204E-3,2.9431076E-3,-2.0440312E-3,-7.654144E-3,-1.3658748E-3,6.636597E-3,-9.5912805E-3,2.0132966E-6],"split_indices":[1,1,1,0,1,1,1,1,0,1,0,1,1,0,0,1,1,1,1,0,1,1,0,0,0,1,0,0,0,0,0,0,1,0,0,0,0,0,0,0,0,0,0,0,0,0,0,0,0,0,0,0,0],"split_type":[0,0,0,0,0,0,0,0,0,0,0,0,0,0,0,0,0,0,0,0,0,0,0,0,0,0,0,0,0,0,0,0,0,0,0,0,0,0,0,0,0,0,0,0,0,0,0,0,0,0,0,0,0],"sum_hessian":[4.39E2,5E0,4.34E2,1E0,4E0,2.1E1,4.13E2,3E0,1E0,2E1,1E0,2.4E1,3.89E2,2E0,1E0,1.4E1,6E0,1.4E1,1E1,7E0,3.82E2,1.1E1,3E0,2E0,4E0,1E1,4E0,3E0,7E0,4E0,3E0,5E0,3.77E2,1E1,1E0,1E0,2E0,1E0,1E0,1E0,3E0,9E0,1E0,3E0,1E0,2E0,5E0,1E0,3E0,1E0,4E0,3E0,3.74E2],"tree_param":{"num_deleted":"0","num_feature":"2","num_nodes":"53","size_leaf_vector":"0"}},{"base_weights":[-6.9532754E-5,-6.463448E-4,1.7096149E-3,-3.7078102E-4,-4.606676E-2,-1.0726181E-3,8.979174E-3,-5.3070945E-4,8.407116E-3,-8.123001E-3,1.7910913E-3,2.9947922E-2,1.2952983E-3,-3.263182E-4,-1.6953725E-2,-7.5223047E-4,1.3174847E-2,3.980909E-4,-1.924023E-2,3.2061636E-2,-4.8433963E-4,4.0417224E-2,-9.73324E-4,-9.29727E-3,1.36960335E-2,-5.4606405E-4,3.5325795E-2,-2.3271149E-2,9.992719E-4,5.8823824E-4,-1.716584E-3,-4.9856454E-3,2.180034E-2,-3.708102E-2,-1.0144904E-2,1.1855423E-2,4.6340138E-2,-1.0910245E-2,2.7542582E-3,-2.9251575E-3,1.4651716E-3,1.7158419E-2,-1.2931779E-2,3.3994056E-2,-2.7591288E-3,-2.8647768E-4,-2.1176457E-2,4.361791E-3,-1.5060048E-2,2.7485877E-2,5.2146316E-3,-1.369073E-2,3.2838187E-4,-1.0396739E-3,-6.467855E-2,1.3962567E-2,-7.256613E-4,-2.4505138E-2,-6.3511995E-3,4.9225867E-2,1.7879635E-2,-2.2179082E-2,4.174044E-3],"categories":[],"categories_nodes":[],"categories_segments":[],"categories_sizes":[],"default_left":[1,1,1,1,0,1,1,1,1,1,1,1,1,1,1,1,0,1,1,1,1,0,1,1,1,1,0,0,0,0,0,1,1,0,1,0,0,1,1,0,0,0,1,1,1,0,0,0,0,0,0,0,0,0,0,0,0,0,0,0,0,0,0],"id":23,"left_children":[1,3,5,7,-1,9,11,13,15,17,19,21,23,25,27,29,-1,31,33,35,37,-1,39,41,43,45,-1,-1,-1,-1,-1,47,49,-1,51,-1,-1,53,55,-1,-1,-1,57,59,61,-1,-1,-1,-1,-1,-1,-1,-1,-1,-1,-1,-1,-1,-1,-1,-1,-1,-1],"loss_changes":[4.5264786E-4,4.1508214E-3,2.193997E-3,4.7053507E-4,0E0,1.6095787E-3,4.7948463E-3,1.0921155E-3,2.719263E-4,2.1864707E-3,3.9416053E-3,2.6291306E-3,3.1485152E-3,2.5576372E-3,4.7692098E-4,4.8878173E-6,0E0,1.7218257E-3,1.2464949E-3,6.046756E-4,1.8533766E-3,0E0,1.8564471E-5,1.4718835E-3,3.7678734E-3,1.7237177E-3,0E0,0E0,0E0,0E0,0E0,1.1957267E-3,1.395673E-4,0E0,3.0158734E-4,0E0,0E0,6.832166E-3,1.6483006E-3,0E0,0E0,0E0,7.582761E-4,3.4711836E-4,1.0350696E-3,0E0,0E0,0E0,0E0,0E0,0E0,0E0,0E0,0E0,0E0,0E0,0E0,0E0,0E0,0E0,0E0,0E0,0E0],"parents":[2147483647,0,0,1,1,2,2,3,3,5,5,6,6,7,7,8,8,9,9,10,10,11,11,12,12,13,13,14,14,15,15,17,17,18,18,19,19,20,20,22,22,23,23,24,24,25,25,31,31,32,32,34,34,37,37,38,38,42,42,43,43,44,44],"right_children":[2,4,6,8,-1,10,12,14,16,18,20,22,24,26,28,30,-1,32,34,36,38,-1,40,42,44,46,-1,-1,-1,-1,-1,48,50,-1,52,-1,-1,54,56,-1,-1,-1,58,60,62,-1,-1,-1,-1,-1,-1,-1,-1,-1,-1,-1,-1,-1,-1,-1,-1,-1,-1],"split_conditions":[5.2128035E-1,5.163065E-1,2.0540184E-1,4.8915106E-1,-1.3820029E-2,7.770933E-1,2.2107324E-1,4.696126E-1,3.194344E-1,1.2196046E-1,7.8799325E-1,6.827086E-1,6.471586E-1,4.6886122E-1,4.8579955E-1,4.996959E-1,3.9524543E-3,7.427027E-1,1.2975648E-1,1.272207E-1,8.394313E-1,1.2125168E-2,6.907344E-1,5.3174466E-1,2.2813466E-1,4.5421863E-1,1.0597739E-2,-6.981345E-3,2.9978156E-4,1.7647148E-4,-5.149752E-4,4.7833383E-2,7.5620234E-1,-1.1124307E-2,1.7008008E-1,3.556627E-3,1.3902042E-2,8.373819E-1,8.746387E-1,-8.775473E-4,4.3955148E-4,5.147526E-3,2.3180124E-1,6.6387695E-1,2.2907434E-1,-8.5943306E-5,-6.3529373E-3,1.3085373E-3,-4.5180144E-3,8.245763E-3,1.5643896E-3,-4.107219E-3,9.851457E-5,-3.119022E-4,-1.9403566E-2,4.1887704E-3,-2.176984E-4,-7.351542E-3,-1.9053599E-3,1.476776E-2,5.363891E-3,-6.6537247E-3,1.2522133E-3],"split_indices":[0,0,1,0,0,0,1,0,1,1,0,0,0,0,0,0,0,0,1,1,0,0,0,0,1,0,0,0,0,0,0,1,0,0,1,0,0,0,0,0,0,0,1,0,1,0,0,0,0,0,0,0,0,0,0,0,0,0,0,0,0,0,0],"split_type":[0,0,0,0,0,0,0,0,0,0,0,0,0,0,0,0,0,0,0,0,0,0,0,0,0,0,0,0,0,0,0,0,0,0,0,0,0,0,0,0,0,0,0,0,0,0,0,0,0,0,0,0,0,0,0,0,0,0,0,0,0,0,0],"sum_hessian":[4.39E2,3.32E2,1.07E2,3.31E2,1E0,7.8E1,2.9E1,3.26E2,5E0,2.2E1,5.6E1,7E0,2.2E1,3.23E2,3E0,2E0,3E0,1.3E1,9E0,3E0,5.3E1,5E0,2E0,1.2E1,1E1,3.22E2,1E0,2E0,1E0,1E0,1E0,1.1E1,2E0,2E0,7E0,2E0,1E0,1.2E1,4.1E1,1E0,1E0,1E0,1.1E1,4E0,6E0,3.19E2,3E0,6E0,5E0,1E0,1E0,5E0,2E0,1.1E1,1E0,9E0,3.2E1,3E0,8E0,1E0,3E0,1E0,5E0],"tree_param":{"num_deleted":"0","num_feature":"2","num_nodes":"63","size_leaf_vector":"0"}},{"base_weights":[-4.2398457E-5,8.735884E-4,-9.136143E-4,2.3035755E-2,2.3622366E-4,-1.1996113E-3,1.5259124E-2,-1.7060637E-3,2.8325332E-2,-1.2409122E-2,7.984607E-4,-2.418334E-2,-6.6939095E-4,1.5710853E-3,3.4621123E-2,-1.7547425E-2,-1.5993863E-3,3.7467148E-4,2.168236E-2,-2.9267654E-2,-1.923047E-3,-5.989414E-3,-1.6317288E-4,-1.0475367E-3,-2.5535485E-2,1.8595383E-3,-3.3722073E-3,1.1372372E-3,-5.233088E-3,1.7289817E-3,2.7757159E-2,-6.999329E-3,6.09453E-3,6.8949335E-3,-1.0249238E-3,6.6437796E-3,-8.215085E-3,-7.4592456E-3,-2.9074483E-2,5.421118E-4,8.557493E-3,-1.560621E-2,-1.6819397E-3,-5.3556086E-3,-1.7471291E-2,3.1374106E-3,8.817988E-3],"categories":[],"categories_nodes":[],"categories_segments":[],"categories_sizes":[],"default_left":[1,1,1,1,1,1,0,0,1,1,1,1,1,0,0,1,1,1,1,0,0,1,1,1,1,0,0,1,1,0,0,1,0,1,0,0,0,0,0,0,0,0,0,0,0,0,0],"id":24,"left_children":[1,3,5,7,9,11,-1,-1,13,15,17,19,21,-1,-1,23,25,27,29,-1,-1,31,33,35,37,-1,-1,39,41,-1,-1,43,-1,45,-1,-1,-1,-1,-1,-1,-1,-1,-1,-1,-1,-1,-1],"loss_changes":[3.519279E-4,3.031516E-3,1.0636353E-3,8.3356746E-4,1.5029412E-3,2.7013882E-3,0E0,0E0,7.878025E-4,4.7182804E-4,1.7796513E-3,5.0960854E-4,5.8880984E-4,0E0,0E0,7.640632E-4,3.0798965E-5,8.5693196E-4,4.3685944E-4,0E0,0E0,2.7452898E-4,1.2296151E-3,2.1996285E-4,3.901357E-5,0E0,0E0,7.725738E-4,8.5782725E-4,0E0,0E0,2.1626428E-4,0E0,1.3130473E-4,0E0,0E0,0E0,0E0,0E0,0E0,0E0,0E0,0E0,0E0,0E0,0E0,0E0],"parents":[2147483647,0,0,1,1,2,2,3,3,4,4,5,5,8,8,9,9,10,10,11,11,12,12,15,15,16,16,17,17,18,18,21,21,22,22,23,23,24,24,27,27,28,28,31,31,33,33],"right_children":[2,4,6,8,10,12,-1,-1,14,16,18,20,22,-1,-1,24,26,28,30,-1,-1,32,34,36,38,-1,-1,40,42,-1,-1,44,-1,46,-1,-1,-1,-1,-1,-1,-1,-1,-1,-1,-1,-1,-1],"split_conditions":[5.3170073E-1,6.1243616E-2,6.8306565E-2,1.92761E-2,8.1955224E-2,5.37511E-1,4.5777373E-3,-5.1181915E-4,5.160171E-1,5.2242196E-1,4.9199736E-1,4.8104968E-2,6.171221E-1,4.7132562E-4,1.03863375E-2,4.1027337E-1,6.730446E-2,4.273619E-1,8.422153E-2,-8.780297E-3,-5.769141E-4,6.277314E-2,6.429677E-1,7.3760554E-2,6.361684E-2,5.578615E-4,-1.0116622E-3,3.871912E-1,4.3164837E-1,5.186945E-4,8.327148E-3,5.326111E-2,1.8283591E-3,1.5514925E-5,-3.0747714E-4,1.993134E-3,-2.4645254E-3,-2.2377737E-3,-8.722345E-3,1.6263354E-4,2.567248E-3,-4.681863E-3,-5.0458196E-4,-1.6066827E-3,-5.2413875E-3,9.4122323E-4,2.6453966E-3],"split_indices":[1,0,0,0,0,1,0,0,1,1,1,0,1,0,0,1,0,1,0,0,0,0,1,0,0,0,0,1,1,0,0,0,0,0,0,0,0,0,0,0,0,0,0,0,0,0,0],"split_type":[0,0,0,0,0,0,0,0,0,0,0,0,0,0,0,0,0,0,0,0,0,0,0,0,0,0,0,0,0,0,0,0,0,0,0,0,0,0,0,0,0,0,0,0,0,0,0],"sum_hessian":[4.39E2,2.14E2,2.25E2,5E0,2.09E2,2.22E2,3E0,1E0,4E0,8E0,2.01E2,4E0,2.18E2,1E0,3E0,5E0,3E0,1.98E2,3E0,3E0,1E0,1.8E1,2E2,2E0,3E0,1E0,2E0,1.75E2,2.3E1,1E0,2E0,1.7E1,1E0,2.1E1,1.79E2,1E0,1E0,1E0,2E0,1.63E2,1.2E1,5E0,1.8E1,1.6E1,1E0,8E0,1.3E1],"tree_param":{"num_deleted":"0","num_feature":"2","num_nodes":"47","size_leaf_vector":"0"}},{"base_weights":[-3.348232E-5,-1.4661055E-4,5.4003927E-3,-4.6214067E-5,-1.4487903E-2,1.2996276E-2,1.3735294E-3,4.9201273E-3,-1.883379E-4,-1.9669682E-2,-2.0621717E-3,-6.8466268E-3,6.030917E-3,-1.7252863E-4,2.0255605E-2,-9.302358E-3,1.1697424E-5,2.3506582E-3,1.0375977E-2,3.8816247E-3,-7.224165E-3,-4.2924136E-3,-2.4690956E-2,5.2258535E-3,-2.8246446E-4,-2.6538968E-3,4.9034753E-3,-3.4573376E-3,1.0250181E-2,-5.5764616E-4,-9.260456E-3,-1.1141241E-2,-1.5259783E-4,1.1359602E-3,9.212478E-3,-1.3667905E-2,3.363876E-5,6.256938E-3,1.0982752E-3],"categories":[],"categories_nodes":[],"categories_segments":[],"categories_sizes":[],"default_left":[1,1,1,1,1,0,1,1,1,0,0,0,1,1,0,1,1,1,0,1,1,1,0,1,1,0,1,0,0,0,0,0,0,0,0,0,0,0,0],"id":25,"left_children":[1,3,5,7,9,-1,11,13,15,-1,-1,-1,17,19,-1,21,23,25,-1,27,29,31,-1,33,35,-1,37,-1,-1,-1,-1,-1,-1,-1,-1,-1,-1,-1,-1],"loss_changes":[2.712706E-4,6.213306E-4,2.5743752E-4,3.044359E-4,1.5259994E-4,0E0,3.0928262E-4,9.4067445E-4,7.639986E-4,0E0,0E0,0E0,5.556435E-5,3.1392564E-4,0E0,5.878804E-4,6.3187035E-4,6.4116175E-5,0E0,3.626085E-4,4.9135822E-5,2.2512295E-4,0E0,3.48242E-4,1.6506201E-3,0E0,8.578747E-6,0E0,0E0,0E0,0E0,0E0,0E0,0E0,0E0,0E0,0E0,0E0,0E0],"parents":[2147483647,0,0,1,1,2,2,3,3,4,4,6,6,7,7,8,8,12,12,13,13,15,15,16,16,17,17,19,19,20,20,21,21,23,23,24,24,26,26],"right_children":[2,4,6,8,10,-1,12,14,16,-1,-1,-1,18,20,-1,22,24,26,-1,28,30,32,-1,34,36,-1,38,-1,-1,-1,-1,-1,-1,-1,-1,-1,-1,-1,-1],"split_conditions":[9.529607E-1,9.4726217E-1,9.5989114E-1,4.9223304E-2,9.489356E-1,3.898883E-3,9.6751547E-1,4.497038E-2,5.8723688E-2,-5.900905E-3,-6.186515E-4,-2.0539882E-3,9.8346275E-1,3.7586354E-2,6.076682E-3,9.2234385E-1,9.099738E-2,3.7927255E-2,3.1127932E-3,5.587805E-1,4.2305645E-1,5.1037055E-2,-7.407287E-3,7.401676E-2,1.1661089E-1,-7.961691E-4,9.757838E-1,-1.0372014E-3,3.0750544E-3,-1.6729385E-4,-2.7781369E-3,-3.3423724E-3,-4.577935E-5,3.4078807E-4,2.7637435E-3,-4.1003716E-3,1.0091629E-5,1.8770815E-3,3.2948257E-4],"split_indices":[0,0,0,1,0,0,0,1,1,0,0,0,0,1,0,0,1,1,0,0,0,1,0,1,1,0,0,0,0,0,0,0,0,0,0,0,0,0,0],"split_type":[0,0,0,0,0,0,0,0,0,0,0,0,0,0,0,0,0,0,0,0,0,0,0,0,0,0,0,0,0,0,0,0,0,0,0,0,0,0,0],"sum_hessian":[4.39E2,4.31E2,8E0,4.29E2,2E0,2E0,6E0,1.1E1,4.18E2,1E0,1E0,2E0,4E0,9E0,2E0,8E0,4.1E2,3E0,1E0,6E0,3E0,7E0,1E0,2.1E1,3.89E2,1E0,2E0,3E0,3E0,1E0,2E0,2E0,5E0,1.1E1,1E1,8E0,3.81E2,1E0,1E0],"tree_param":{"num_deleted":"0","num_feature":"2","num_nodes":"39","size_leaf_vector":"0"}},{"base_weights":[-3.8806873E-5,-5.565971E-4,9.6596486E-4,-4.2431557E-4,-1.9459117E-2,1.52299665E-2,1.6122374E-4,-1.4073159E-4,-2.7890743E-3,7.5505674E-3,3.449288E-2,-2.0238811E-2,7.429303E-4,-6.4654095E-4,5.0994144E-3,-9.968201E-3,-2.7982084E-4,1.6463797E-4,1.0472012E-2,-2.5118835E-2,-2.7993694E-3,2.8463483E-2,3.387286E-4,-1.1638262E-2,-3.6071744E-4,1.5950492E-3,1.7396118E-2,-1.6983524E-3,-1.4590438E-2,-5.962724E-3,2.9343008E-3,1.4909059E-3,-1.2439489E-3,3.076017E-3,1.1552006E-2,-2.084895E-2,8.002199E-4,-8.9713186E-4,-1.6784545E-2,1.5557198E-2,-7.06695E-4,5.8435835E-3,-4.9771336E-3,7.6573975E-3,2.8175503E-2,3.4995824E-3,-4.5975246E-3,6.577626E-3,-8.352471E-3,1.14989355E-2,-5.0047413E-3,2.2567034E-2,3.1058534E-4],"categories":[],"categories_nodes":[],"categories_segments":[],"categories_sizes":[],"default_left":[1,1,1,1,0,1,1,1,1,1,0,1,1,1,1,1,1,1,1,0,0,0,1,1,1,1,1,1,0,1,1,0,0,0,0,0,1,0,0,0,0,0,0,0,0,0,0,0,0,0,0,0,0],"id":26,"left_children":[1,3,5,7,-1,9,11,13,15,17,-1,19,21,23,25,27,29,31,33,-1,-1,-1,35,37,39,41,43,45,-1,47,49,-1,-1,-1,-1,-1,51,-1,-1,-1,-1,-1,-1,-1,-1,-1,-1,-1,-1,-1,-1,-1,-1],"loss_changes":[2.2945249E-4,7.1937527E-4,1.7193689E-3,1.9408372E-4,0E0,9.2298E-4,1.7119931E-3,6.924308E-4,5.556523E-4,1.4931895E-4,0E0,2.7010276E-4,1.5590158E-3,7.4352464E-4,9.6337165E-4,2.8102193E-4,4.558694E-4,7.4591017E-6,4.40405E-6,0E0,0E0,0E0,1.3758158E-3,3.166034E-4,1.2941814E-3,5.596051E-4,3.091361E-4,7.6368255E-5,0E0,3.246538E-4,1.145469E-3,0E0,0E0,0E0,0E0,0E0,1.4531075E-3,0E0,0E0,0E0,0E0,0E0,0E0,0E0,0E0,0E0,0E0,0E0,0E0,0E0,0E0,0E0,0E0],"parents":[2147483647,0,0,1,1,2,2,3,3,5,5,6,6,7,7,8,8,9,9,11,11,12,12,13,13,14,14,15,15,16,16,17,17,18,18,22,22,23,23,24,24,25,25,26,26,27,27,29,29,30,30,36,36],"right_children":[2,4,6,8,-1,10,12,14,16,18,-1,20,22,24,26,28,30,32,34,-1,-1,-1,36,38,40,42,44,46,-1,48,50,-1,-1,-1,-1,-1,52,-1,-1,-1,-1,-1,-1,-1,-1,-1,-1,-1,-1,-1,-1,-1,-1],"split_conditions":[2.9969132E-1,2.9573095E-1,3.6243606E-1,1.8934776E-1,-5.8377353E-3,3.435267E-1,3.726768E-1,8.128427E-2,2.0374992E-1,3.1299266E-1,1.0347865E-2,3.403369E-1,3.8197488E-1,5.174236E-1,4.82316E-1,4.1792896E-1,4.2362085E-1,3.0635828E-1,2.1873787E-1,-7.535651E-3,-8.398109E-4,8.539045E-3,4.0065086E-1,4.1027337E-1,5.238513E-1,4.2232722E-1,9.686893E-2,1.939617E-1,-4.377132E-3,2.201786E-1,4.347697E-1,4.4727177E-4,-3.731847E-4,9.228051E-4,3.465602E-3,-6.2546856E-3,4.106114E-1,-2.6913956E-4,-5.0353636E-3,4.6671596E-3,-2.1200851E-4,1.7530752E-3,-1.4931401E-3,2.2972194E-3,8.452651E-3,1.0498748E-3,-1.3792574E-3,1.973288E-3,-2.5057413E-3,3.4496807E-3,-1.5014225E-3,6.77011E-3,9.317561E-5],"split_indices":[0,0,0,0,0,0,0,0,0,0,0,1,0,1,1,1,1,0,1,0,0,0,0,1,1,1,0,0,0,0,1,0,0,0,0,0,0,0,0,0,0,0,0,0,0,0,0,0,0,0,0,0,0],"split_type":[0,0,0,0,0,0,0,0,0,0,0,0,0,0,0,0,0,0,0,0,0,0,0,0,0,0,0,0,0,0,0,0,0,0,0,0,0,0,0,0,0,0,0,0,0,0,0,0,0,0,0,0,0],"sum_hessian":[4.39E2,2.9E2,1.49E2,2.89E2,1E0,7E0,1.42E2,2.59E2,3E1,6E0,1E0,3E0,1.39E2,2.37E2,2.2E1,7E0,2.3E1,2E0,4E0,2E0,1E0,1E0,1.38E2,5E0,2.32E2,1.8E1,4E0,3E0,4E0,8E0,1.5E1,1E0,1E0,1E0,3E0,2E0,1.36E2,2E0,3E0,4E0,2.28E2,1.1E1,7E0,3E0,1E0,1E0,2E0,1E0,7E0,7E0,8E0,2E0,1.34E2],"tree_param":{"num_deleted":"0","num_feature":"2","num_nodes":"53","size_leaf_vector":"0"}},{"base_weights":[1.0599239E-5,5.575647E-3,-6.61844E-5,-6.7584813E-3,9.394169E-3,-3.4791774E-3,1.15342234E-4,4.0955096E-3,1.5294403E-2,-1.6416254E-3,-2.1033883E-2,6.3879546E-3,-5.5732213E-5,6.9955983E-3,-2.3023784E-3,-4.5195413E-3,1.385529E-3,2.511102E-3,2.257824E-2,-1.4590223E-2,5.287278E-5,1.7203987E-3,8.772999E-3,-1.6183347E-3,-1.6765803E-2,-5.185023E-3,7.725159E-3,5.137781E-3,-1.0564506E-2,-2.0085901E-2,-1.7994344E-3,-1.2521591E-4,1.0120051E-2,-3.838708E-3,9.182513E-3,-8.388065E-3,8.140405E-4,1.503104E-2,3.2577752E-3,-5.853176E-6,9.2538595E-3,-6.064522E-3,1.08330714E-4,1.422069E-2,-8.76983E-5],"categories":[],"categories_nodes":[],"categories_segments":[],"categories_sizes":[],"default_left":[1,1,1,0,1,1,1,1,0,1,0,1,1,1,0,1,1,1,0,1,1,0,0,1,0,1,1,1,0,0,0,1,1,0,0,0,0,0,0,0,0,0,0,0,0],"id":27,"left_children":[1,3,5,-1,7,9,11,13,-1,15,-1,17,19,21,-1,23,25,27,-1,29,31,-1,-1,33,-1,35,37,39,-1,-1,-1,41,43,-1,-1,-1,-1,-1,-1,-1,-1,-1,-1,-1,-1],"loss_changes":[1.8838306E-4,3.4607912E-4,2.6990517E-4,0E0,9.36783E-5,6.7513925E-4,4.4461264E-4,9.032429E-5,0E0,1.8921174E-4,0E0,6.337445E-4,6.384929E-4,1.3035373E-5,0E0,3.636856E-4,4.982587E-4,3.9773242E-4,0E0,1.7473887E-4,7.219931E-4,0E0,0E0,2.750681E-4,0E0,1.2211975E-4,1.468613E-4,1.9059858E-4,0E0,0E0,0E0,5.499505E-4,2.942552E-4,0E0,0E0,0E0,0E0,0E0,0E0,0E0,0E0,0E0,0E0,0E0,0E0],"parents":[2147483647,0,0,1,1,2,2,4,4,5,5,6,6,7,7,9,9,11,11,12,12,13,13,15,15,16,16,17,17,19,19,20,20,23,23,25,25,26,26,27,27,31,31,32,32],"right_children":[2,4,6,-1,8,10,12,14,-1,16,-1,18,20,22,-1,24,26,28,-1,30,32,-1,-1,34,-1,36,38,40,-1,-1,-1,42,44,-1,-1,-1,-1,-1,-1,-1,-1,-1,-1,-1,-1],"split_conditions":[2.8233115E-2,1.6013695E-2,5.8723688E-2,-2.0275444E-3,2.5135916E-2,5.805833E-2,6.88187E-2,2.2066437E-2,4.588321E-3,4.790405E-2,-6.3101654E-3,6.809934E-2,7.104468E-2,5.3838044E-1,-6.907135E-4,4.6275355E-2,8.804304E-1,6.6686906E-2,6.7734723E-3,9.287058E-1,9.210105E-1,5.1611965E-4,2.6319E-3,4.497038E-2,-5.029741E-3,5.3478755E-2,8.9147407E-1,6.264286E-2,-3.169352E-3,-6.0257707E-3,-5.3983036E-4,1.1661089E-1,8.467422E-2,-1.1516124E-3,2.754754E-3,-2.5164196E-3,2.4421216E-4,4.509312E-3,9.773326E-4,-1.7559529E-6,2.776158E-3,-1.8193567E-3,3.2499214E-5,4.266207E-3,-2.6309492E-5],"split_indices":[1,1,1,0,1,1,1,1,0,1,0,1,1,0,0,1,0,1,0,0,0,0,0,1,0,1,0,1,0,0,0,1,1,0,0,0,0,0,0,0,0,0,0,0,0],"split_type":[0,0,0,0,0,0,0,0,0,0,0,0,0,0,0,0,0,0,0,0,0,0,0,0,0,0,0,0,0,0,0,0,0,0,0,0,0,0,0,0,0,0,0,0,0],"sum_hessian":[4.39E2,5E0,4.34E2,1E0,4E0,2.1E1,4.13E2,3E0,1E0,2E1,1E0,1E1,4.03E2,2E0,1E0,1E1,1E1,9E0,1E0,2E0,4.01E2,1E0,1E0,9E0,1E0,5E0,5E0,8E0,1E0,1E0,1E0,3.95E2,6E0,8E0,1E0,3E0,2E0,1E0,4E0,4E0,4E0,1.4E1,3.81E2,4E0,2E0],"tree_param":{"num_deleted":"0","num_feature":"2","num_nodes":"45","size_leaf_vector":"0"}},{"base_weights":[9.154607E-6,-3.4624364E-4,1.104881E-3,-1.10503766E-4,-3.930594E-2,-1.0492431E-3,6.740579E-3,5.3702756E-3,-2.9739217E-4,-6.228644E-3,1.0590982E-3,2.2163346E-2,1.0830695E-3,4.6759844E-5,2.9302716E-2,-2.4006665E-2,-7.41884E-5,6.6008314E-4,-1.5249997E-2,2.5815442E-2,-7.94318E-4,3.0064246E-2,-1.0262331E-3,-7.0996284E-3,1.065507E-2,1.8050559E-3,-4.6576164E-3,2.9877722E-2,-2.617421E-4,-2.8604956E-3,2.3213804E-2,-2.9863736E-2,-7.863596E-3,8.260648E-3,3.9239913E-2,-1.559488E-2,1.0342062E-3,-2.6355684E-3,1.0962188E-3,-1.2128633E-2,7.2477907E-3,2.7583469E-2,-2.9587958E-3,-7.97855E-4,1.0012716E-2,-9.653031E-3,1.0873144E-5,1.9503151E-3,-7.2626644E-3,-1.0516684E-2,6.377697E-5,1.3210475E-3,-1.9242276E-2,-2.2527263E-3,1.4078516E-2,-1.9215278E-2,-6.34646E-3,1.443547E-2,4.007419E-5,4.1692793E-2,1.3632938E-2,-1.0006195E-2,9.773135E-3],"categories":[],"categories_nodes":[],"categories_segments":[],"categories_sizes":[],"default_left":[1,1,1,1,0,1,1,1,1,1,1,1,1,1,0,0,1,1,1,1,1,0,1,1,1,1,0,0,1,1,0,0,1,0,0,1,1,0,0,1,1,1,1,0,0,0,0,0,0,0,0,0,0,0,0,0,0,0,0,0,0,0,0],"id":28,"left_children":[1,3,5,7,-1,9,11,13,15,17,19,21,23,25,-1,-1,27,29,31,33,35,-1,37,39,41,43,-1,-1,45,47,-1,-1,49,-1,-1,51,53,-1,-1,55,57,59,61,-1,-1,-1,-1,-1,-1,-1,-1,-1,-1,-1,-1,-1,-1,-1,-1,-1,-1,-1,-1],"loss_changes":[1.7172704E-4,3.0540463E-3,1.3181918E-3,3.4166276E-4,0E0,8.692724E-4,2.5936293E-3,1.4000818E-3,1.7022428E-3,1.4394161E-3,2.6358827E-3,1.4966009E-3,1.8771172E-3,9.1124115E-5,0E0,0E0,1.8054496E-3,1.1780332E-3,8.445929E-4,6.185083E-4,1.4775405E-3,0E0,1.313637E-5,1.0258978E-3,2.616684E-3,1.7889916E-4,0E0,0E0,8.168115E-4,2.8947846E-4,0E0,0E0,1.6892678E-4,0E0,0E0,3.956143E-4,2.1326276E-3,0E0,0E0,2.8781313E-4,2.0664855E-4,4.1576754E-4,7.2588096E-4,0E0,0E0,0E0,0E0,0E0,0E0,0E0,0E0,0E0,0E0,0E0,0E0,0E0,0E0,0E0,0E0,0E0,0E0,0E0,0E0],"parents":[2147483647,0,0,1,1,2,2,3,3,5,5,6,6,7,7,8,8,9,9,10,10,11,11,12,12,13,13,16,16,17,17,18,18,19,19,20,20,22,22,23,23,24,24,25,25,28,28,29,29,32,32,35,35,36,36,39,39,40,40,41,41,42,42],"right_children":[2,4,6,8,-1,10,12,14,16,18,20,22,24,26,-1,-1,28,30,32,34,36,-1,38,40,42,44,-1,-1,46,48,-1,-1,50,-1,-1,52,54,-1,-1,56,58,60,62,-1,-1,-1,-1,-1,-1,-1,-1,-1,-1,-1,-1,-1,-1,-1,-1,-1,-1,-1,-1],"split_conditions":[5.2128035E-1,5.163065E-1,2.0540184E-1,1.3342735E-1,-1.1791782E-2,7.770933E-1,2.2107324E-1,1.2506394E-1,1.4038956E-1,1.2196046E-1,7.8799325E-1,6.827086E-1,6.471586E-1,8.90318E-2,8.790815E-3,-7.202E-3,1.7195359E-1,1.13621324E-1,1.2975648E-1,1.272207E-1,8.1093013E-1,9.019274E-3,6.907344E-1,2.6237598E-1,2.2813466E-1,6.300381E-2,-1.3972849E-3,8.963317E-3,2.7331042E-1,4.7833383E-2,6.9641415E-3,-8.959121E-3,1.7008008E-1,2.4781944E-3,1.1771974E-2,8.911508E-2,1.3436216E-1,-7.906706E-4,3.2886566E-4,2.3180124E-1,5.351029E-1,6.6387695E-1,6.838398E-1,-2.3935652E-4,3.003815E-3,-2.8959094E-3,3.2619432E-6,5.8509456E-4,-2.1787994E-3,-3.1550052E-3,1.9133091E-5,3.9631428E-4,-5.772683E-3,-6.7581795E-4,4.223555E-3,-5.7645836E-3,-1.903938E-3,4.330641E-3,1.2022257E-5,1.2507838E-2,4.0898817E-3,-3.0018587E-3,2.9319406E-3],"split_indices":[0,0,1,1,0,0,1,1,1,1,0,0,0,1,0,0,1,1,1,1,0,0,0,1,1,1,0,0,1,1,0,0,1,0,0,1,1,0,0,1,0,0,0,0,0,0,0,0,0,0,0,0,0,0,0,0,0,0,0,0,0,0,0],"split_type":[0,0,0,0,0,0,0,0,0,0,0,0,0,0,0,0,0,0,0,0,0,0,0,0,0,0,0,0,0,0,0,0,0,0,0,0,0,0,0,0,0,0,0,0,0,0,0,0,0,0,0,0,0,0,0,0,0,0,0,0,0,0,0],"sum_hessian":[4.39E2,3.32E2,1.07E2,3.31E2,1E0,7.8E1,2.9E1,1E1,3.21E2,2.2E1,5.6E1,7E0,2.2E1,9E0,1E0,2E0,3.19E2,1.3E1,9E0,3E0,5.3E1,5E0,2E0,1.2E1,1E1,7E0,2E0,1E0,3.18E2,1.2E1,1E0,2E0,7E0,2E0,1E0,5E0,4.8E1,1E0,1E0,9E0,3E0,4E0,6E0,6E0,1E0,8E0,3.1E2,6E0,6E0,5E0,2E0,1E0,4E0,3.9E1,9E0,3E0,6E0,1E0,2E0,1E0,3E0,4E0,2E0],"tree_param":{"num_deleted":"0","num_feature":"2","num_nodes":"63","size_leaf_vector":"0"}},{"base_weights":[6.2524436E-5,1.6879414E-3,-2.4432654E-4,3.9922656E-5,2.887027E-2,-5.4788053E-2,5.1164763E-5,1.272317E-3,-1.9688368E-2,-2.508351E-4,1.37480125E-2,9.95342E-5,1.2592629E-2,-2.821517E-2,-7.441044E-3,-1.0145441E-2,8.719361E-5,1.6435921E-2,-2.5336742E-3,1.4304855E-3,-1.1895617E-2,-2.5413483E-3,1.6127694E-2,6.5796673E-3,-1.4148429E-2,-4.00499E-4,4.813692E-3,2.4716735E-2,4.046127E-3,-6.299847E-5,5.7020825E-3,-1.4505938E-2,-4.4499836E-3,1.8079162E-2,4.160911E-3,-1.5526578E-2,2.5396079E-2,-2.7154258E-2,-7.50269E-3,-1.9228713E-4,-3.3410043E-2,1.009916E-2,-1.4333148E-3,-6.494224E-3,9.724319E-3],"categories":[],"categories_nodes":[],"categories_segments":[],"categories_sizes":[],"default_left":[1,1,1,1,0,0,1,1,1,1,1,1,1,0,0,1,1,1,0,1,1,0,1,1,1,1,1,0,1,0,0,0,0,0,0,0,0,0,0,0,0,0,0,0,0],"id":29,"left_children":[1,3,5,7,-1,-1,9,11,13,15,17,19,21,-1,-1,23,25,27,-1,29,31,-1,33,35,37,39,41,-1,43,-1,-1,-1,-1,-1,-1,-1,-1,-1,-1,-1,-1,-1,-1,-1,-1],"loss_changes":[2.1986714E-4,3.1346367E-3,5.982283E-3,1.6540232E-3,0E0,0E0,1.5339334E-3,8.4842765E-4,2.0777178E-4,1.2149964E-3,3.917528E-4,9.5894927E-4,3.6198372E-4,0E0,0E0,8.9649693E-4,8.133154E-4,6.1817595E-4,0E0,3.448556E-4,5.2061747E-5,0E0,4.153815E-5,1.6421949E-3,6.6060317E-4,2.192929E-3,1.1040808E-3,0E0,3.0255245E-4,0E0,0E0,0E0,0E0,0E0,0E0,0E0,0E0,0E0,0E0,0E0,0E0,0E0,0E0,0E0,0E0],"parents":[2147483647,0,0,1,1,2,2,3,3,6,6,7,7,8,8,9,9,10,10,11,11,12,12,15,15,16,16,17,17,19,19,20,20,22,22,23,23,24,24,25,25,26,26,28,28],"right_children":[2,4,6,8,-1,-1,10,12,14,16,18,20,22,-1,-1,24,26,28,-1,30,32,-1,34,36,38,40,42,-1,44,-1,-1,-1,-1,-1,-1,-1,-1,-1,-1,-1,-1,-1,-1,-1,-1],"split_conditions":[1.3324067E-1,1.2959552E-1,1.3436216E-1,1.2617476E-1,8.661081E-3,-1.6436417E-2,8.1888324E-1,1.1661089E-1,1.272597E-1,1.6858947E-1,1.5241925E-1,1.0077684E-1,4.742117E-1,-8.4645515E-3,-2.2323132E-3,4.7620025E-1,5.2128035E-1,8.461648E-1,-7.601023E-4,7.401676E-2,1.12574026E-1,-7.624045E-4,8.3157086E-1,4.6829706E-1,1.4578563E-1,5.163065E-1,2.2813466E-1,7.415021E-3,8.547623E-1,-1.8899542E-5,1.7106248E-3,-4.3517817E-3,-1.3349951E-3,5.423749E-3,1.2482733E-3,-4.6579735E-3,7.618824E-3,-8.146278E-3,-2.2508071E-3,-5.7686142E-5,-1.0023013E-2,3.029748E-3,-4.2999446E-4,-1.9482673E-3,2.9172958E-3],"split_indices":[1,1,1,1,0,0,0,1,1,1,1,1,0,0,0,0,0,0,0,1,1,0,0,0,1,0,1,0,0,0,0,0,0,0,0,0,0,0,0,0,0,0,0,0,0],"split_type":[0,0,0,0,0,0,0,0,0,0,0,0,0,0,0,0,0,0,0,0,0,0,0,0,0,0,0,0,0,0,0,0,0,0,0,0,0,0,0,0,0,0,0,0,0],"sum_hessian":[4.39E2,6.9E1,3.7E2,6.6E1,3E0,1E0,3.69E2,6.3E1,3E0,3.62E2,7E0,5.8E1,5E0,1E0,2E0,1.1E1,3.51E2,6E0,1E0,5.3E1,5E0,1E0,4E0,2E0,9E0,3.19E2,3.2E1,3E0,3E0,4E1,1.3E1,3E0,2E0,3E0,1E0,1E0,1E0,2E0,7E0,3.18E2,1E0,1.7E1,1.5E1,1E0,2E0],"tree_param":{"num_deleted":"0","num_feature":"2","num_nodes":"45","size_leaf_vector":"0"}},{"base_weights":[-1.044057E-5,-9.528176E-5,4.0630964E-3,-2.5558615E-5,-1.0057171E-2,9.759863E-3,1.0411824E-3,3.0938662E-3,-1.2251307E-4,-1.3903588E-2,-1.1821687E-3,-5.6177974E-3,4.828334E-3,-3.3359526E-4,1.0889053E-2,-6.8674125E-3,9.072592E-6,2.1332204E-3,7.804394E-3,2.742265E-3,-5.632952E-3,1.3763845E-2,1.1323392E-3,-2.8394845E-3,-1.7531455E-2,6.2773703E-3,-1.4687778E-4,5.1304996E-3,-5.7603914E-4,-6.027788E-3,5.208572E-3,-6.456077E-4,-7.0801973E-3,-1.11683905E-2,4.1006505E-4,2.6328894E-3,1.953885E-2,-1.875939E-2,-6.9167504E-6,-1.609683E-3,7.456243E-4],"categories":[],"categories_nodes":[],"categories_segments":[],"categories_sizes":[],"default_left":[1,1,1,1,1,0,1,1,1,0,0,0,1,1,1,1,1,1,0,1,1,0,0,1,0,1,1,0,1,0,0,0,0,0,0,0,0,0,0,0,0],"id":30,"left_children":[1,3,5,7,9,-1,11,13,15,-1,-1,-1,17,19,21,23,25,27,-1,29,31,-1,-1,33,-1,35,37,-1,39,-1,-1,-1,-1,-1,-1,-1,-1,-1,-1,-1,-1],"loss_changes":[1.5245276E-4,2.9979896E-4,1.4477443E-4,1.3042917E-4,8.597452E-5,0E0,2.0365456E-4,3.5096268E-4,3.710507E-4,0E0,0E0,0E0,2.3455592E-5,1.7844785E-4,9.660877E-5,2.9385166E-4,4.0269239E-4,3.5437E-5,0E0,1.8280366E-4,2.4300622E-5,0E0,0E0,1.9403611E-4,0E0,4.3186842E-4,1.0470909E-3,0E0,5.2986065E-6,0E0,0E0,0E0,0E0,0E0,0E0,0E0,0E0,0E0,0E0,0E0,0E0],"parents":[2147483647,0,0,1,1,2,2,3,3,4,4,6,6,7,7,8,8,12,12,13,13,14,14,15,15,16,16,17,17,19,19,20,20,23,23,25,25,26,26,28,28],"right_children":[2,4,6,8,10,-1,12,14,16,-1,-1,-1,18,20,22,24,26,28,-1,30,32,-1,-1,34,-1,36,38,-1,40,-1,-1,-1,-1,-1,-1,-1,-1,-1,-1,-1,-1],"split_conditions":[9.529607E-1,9.4726217E-1,9.5989114E-1,4.970374E-2,9.489356E-1,2.927959E-3,9.6751547E-1,4.497038E-2,5.8723688E-2,-4.1710767E-3,-3.5465063E-4,-1.6853393E-3,9.8346275E-1,3.7586354E-2,4.9223304E-2,9.2234385E-1,6.962013E-2,9.723257E-1,2.3413182E-3,1.7526973E-2,4.2305645E-1,4.1291537E-3,3.3970177E-4,5.1037055E-2,-5.2594366E-3,6.809934E-2,7.401676E-2,1.5391499E-3,9.795027E-1,-1.8083365E-3,1.5625716E-3,-1.9368232E-4,-2.1240592E-3,-3.3505172E-3,1.2301952E-4,7.8986684E-4,5.8616553E-3,-5.6278175E-3,-2.0750251E-6,-4.8290493E-4,2.236873E-4],"split_indices":[0,0,0,1,0,0,0,1,1,0,0,0,0,1,1,0,1,0,0,1,0,0,0,1,0,1,1,0,0,0,0,0,0,0,0,0,0,0,0,0,0],"split_type":[0,0,0,0,0,0,0,0,0,0,0,0,0,0,0,0,0,0,0,0,0,0,0,0,0,0,0,0,0,0,0,0,0,0,0,0,0,0,0,0,0],"sum_hessian":[4.39E2,4.31E2,8E0,4.29E2,2E0,2E0,6E0,1.2E1,4.17E2,1E0,1E0,2E0,4E0,9E0,3E0,7E0,4.1E2,3E0,1E0,6E0,3E0,2E0,1E0,6E0,1E0,9E0,4.01E2,1E0,2E0,1E0,5E0,1E0,2E0,1E0,5E0,8E0,1E0,2E0,3.99E2,1E0,1E0],"tree_param":{"num_deleted":"0","num_feature":"2","num_nodes":"41","size_leaf_vector":"0"}},{"base_weights":[-1.9174116E-5,4.295975E-3,-7.864933E-5,-2.875626E-3,8.600682E-3,-3.5130137E-3,1.0425154E-5,8.1017613E-4,-5.1236153E-3,1.193586E-2,3.5103362E-3,-1.5007049E-3,-1.1818051E-2,1.1059135E-2,-4.171599E-5,-1.3682246E-3,6.6337287E-3,-2.880219E-3,5.457461E-3,-1.3290928E-4,5.4097855E-3,-5.134046E-4,-3.9780587E-3,-5.0021643E-3,-2.569903E-5,1.0279774E-3,1.0909538E-2,-1.1337101E-3,7.1267285E-5,-6.5936744E-3,-2.1362007E-3,-1.9020028E-3,-1.4901727E-2,5.059302E-3,-1.5244294E-4,-1.6164979E-3,3.3297937E-3],"categories":[],"categories_nodes":[],"categories_segments":[],"categories_sizes":[],"default_left":[1,1,1,1,1,1,1,0,0,0,1,1,0,0,1,0,0,1,0,1,1,1,1,1,1,1,0,0,0,0,0,0,0,0,0,0,0],"id":31,"left_children":[1,3,5,7,9,11,13,-1,-1,-1,15,17,-1,-1,19,-1,-1,21,-1,23,25,27,29,31,33,35,